/*This file is automatically generated from a Keras model*/

#ifdef HAVE_CONFIG_H
#include "config.h"
#endif

#include "rnn.h"
#include "rnn_data.h"

static const rnn_weight input_dense_weights[1008] = {
   3, -3, 3, 4, 20, 1, 1, 4,
   4, 6, 2, -9, 2, 8, 2, -3,
   8, 0, -11, 4, 9, 12, -4, 3,
   -31, -2, 17, -3, 21, -9, -4, -26,
   18, -6, 1, -16, -4, 34, -2, 15,
   14, -5, -18, -20, 0, 7, -63, -21,
   37, -58, 36, 6, 49, -19, 16, -31,
   -10, -1, 1, -40, -43, 24, -3, 12,
   -10, 6, -18, -47, -10, -21, 23, -19,
   9, -40, 6, 4, 27, 5, -24, -36,
   40, 65, 6, -52, -21, 4, -31, -71,
   -63, 7, -11, 11, 7, 21, 50, 11,
   20, 121, 37, 12, -106, 17, 37, -12,
   -16, 59, 17, 17, 49, -6, 16, -57,
   -97, 40, 8, 14, 1, 11, -78, 9,
   -68, 61, -4, -1, 59, -12, 1, 10,
   44, 7, 1, -7, 24, -16, -4, 49,
   -30, 17, -8, 34, 33, -10, 19, 23,
   -111, -98, -114, 40, -104, -81, 119, 88,
   -54, -64, 71, -118, -30, -127, -34, 127,
   -16, 83, -35, -90, 116, -14, -51, -8,
   -106, 107, -116, -15, 101, 23, -128, 9,
   100, 40, 95, 2, 29, -126, 12, -76,
   -43, -30, -14, 80, 80, 45, 14, -119,
   -99, 2, -111, 4, -83, 41, 69, -21,
   -107, 11, 127, 47, 11, -125, -27, -20,
   -62, -75, -32, 6, 113, 51, 127, -126,
   29, -24, -122, 39, -55, 22, -26, 59,
   127, -20, 23, -33, -73, -128, -84, 12,
   -46, 7, -8, -24, 32, 116, -83, 16,
   -27, 88, -81, 83, 93, -8, 98, 61,
   -40, 91, -54, 83, -124, -2, -39, -40,
   123, -9, 24, -3, 38, -25, -124, 42,
   -24, -9, -37, -76, -122, -58, -11, 127,
   26, -13, -92, 87, 63, 127, -66, -50,
   57, -80, 5, -77, 65, 106, -11, -124,
   45, -43, 67, 127, -40, 89, 122, 78,
   -122, 25, -60, 28, -23, 65, 0, 124,
   6, -50, 36, -30, -34, -21, 55, -70,
   -15, 113, 88, -28, 38, -1, 113, 75,
   100, -20, 15, -22, -93, 78, 41, 68,
   -59, -71, -18, 125, -36, -66, -5, -97,
   -27, 55, 20, 81, 67, 80, -54, 36,
   -69, -24, 126, 38, 26, 65, 63, 2,
   120, -35, 66, -62, 31, -125, 54, 111,
   31, -84, 61, 80, 9, 71, -109, 62,
   26, 73, 123, 41, -68, 43, -20, -99,
   116, -75, -19, 7, -30, -48, -59, 106,
   127, 85, 9, 91, 127, 23, 19, 38,
   -28, -29, 127, 105, -102, -100, 127, 28,
   -23, -26, -30, 50, -85, -127, -128, -32,
   -26, -128, 97, 127, -115, 127, 32, 121,
   32, 114, -119, -126, -43, -23, 93, 54,
   -120, 9, -109, 10, -128, -51, 38, 127,
   28, 77, -60, 117, -26, -24, 126, 11,
   -45, 21, 114, 38, -119, -51, 68, 118,
   -118, -45, -19, -69, 75, 103, 33, 23,
   88, -122, -45, -11, 127, -107, -126, -15,
   -2, -20, 127, -6, -32, -61, -79, -101,
   0, -68, 84, -101, 118, 92, -41, -34,
   -127, -124, 92, 107, -97, -117, 8, -110,
   -46, -54, 8, 2, -6, 8, -31, 21,
   -120, -111, 37, -44, 96, -98, -126, -66,
   124, 127, 78, -44, 127, -18, -40, 4,
   13, -128, 15, 20, -128, -107, 110, 118,
   -51, 79, -112, 62, -32, -96, -128, -32,
   -103, -100, 36, 4, -116, 33, -11, 117,
   24, 127, -31, -127, 85, 35, 127, -78,
   -24, -119, -116, 127, -32, 47, 61, 127,
   23, 114, 81, -70, 34, -79, 16, -128,
   11, 89, 72, -127, -7, 75, 127, -65,
   85, -128, -60, 127, -126, -24, -54, 68,
   19, -82, 127, 45, -78, -120, -8, -38,
   0, -2, -94, -128, -94, 44, 101, -120,
   -17, -20, -127, -47, 7, -18, -22, -52,
   74, -127, 70, 27, -121, -13, -88, 36,
   18, 63, -57, -123, 64, -51, -67, -116,
   -128, 113, -24, -6, 11, 27, -45, 93,
   -123, 120, 51, 64, -64, -51, 33, -72,
   1, 35, 127, -19, 74, -14, 125, -117,
   -54, 26, -92, -119, -34, 105, -28, -22,
   106, -26, -35, -33, 7, 99, -15, 4,
   2, -34, 100, -41, 62, -83, -33, 120,
   75, 127, -21, 12, 31, -46, 52, 9,
   88, 26, 16, 44, 96, -127, 18, -117,
   1, -121, -77, 50, 112, 31, -29, -5,
   14, 68, -13, 49, 43, -8, -106, 107,
   11, -67, 43, -30, -5, -68, 34, 0,
   -20, 7, 2, -89, 13, 44, 65, -44,
   -10, -45, -38, 122, 22, 45, -80, -51,
   -116, 96, 59, 10, 71, 83, 9, -104,
   -15, 19, -127, -27, -11, 25, -45, -17,
   -52, 8, 37, -10, -30, -50, -8, -5,
   -17, -91, 4, -54, -42, 76, 60, -103,
   53, -41, -47, -33, 8, 27, -106, -18,
   -25, 58, 16, 67, -66, 19, 30, 56,
   110, 4, 16, 73, -27, -55, 8, -95,
   -105, 75, 108, -8, 48, -29, 26, 80,
   79, 34, 63, -23, 49, -77, -123, 37,
   -128, -12, 32, -35, -106, 18, 50, -102,
   14, 7, -81, -98, 71, -38, -17, -21,
   -62, -30, 1, -118, 31, 95, -33, 58,
   -79, -102, 84, -4, -49, 127, -126, 59,
   -65, 74, -20, -7, 127, 127, -90, 127,
   124, 80, -128, 125, -128, -45, 127, 26,
   -100, -119, 107, 100, 8, 127, -113, 103,
   -104, 57, -124, -128, 108, 110, -65, 127,
   122, -79, -128, 125, -128, -77, 17, 122,
   -46, -119, 127, 17, -5, -1, 50, 92,
   53, 5, 53, -31, -81, -23, 73, -35,
   -65, -78, -6, 42, -34, -100, -95, 120,
   -55, 68, 94, -43, 98, -55, -7, -32,
   -28, 21, 109, 22, 127, 7, 119, -128,
   -116, 76, -62, -111, -23, -58, 33, -74,
   52, 102, 96, 58, -58, 27, -85, 47,
   -36, -51, 3, -36, 127, 48, 37, -65,
   -62, 64, -50, -38, -54, -34, -20, -9,
   77, -25, -4, 66, 10, -34, 81, -3,
   60, -64, 27, 10, 44, -120, 19, -122,
   -44, -28, 97, -7, 111, 127, -101, -56,
   101, 85, -55, -48, 12, -25, 25, -21,
   25, -50, 27, -82, -47, -35, -10, -37,
   -2, -22, 2, 51, 29, 10, 76, -39,
   94, -6, -47, 61, 77, 43, -19, 4,
   -27, 70, 9, 71, 86, -16, 1, -33,
   -62, -50, -23, -51, 14, -26, -15, 108
};

static const rnn_weight input_dense_bias[24] = {
   -56, 125, -87, -127, -85, -91, -20, -124,
   120, 68, -125, -68, 2, 21, -43, -27,
   -80, -13, -3, 34, -33, -108, 46, 63
};

static const DenseLayer input_dense = {
   input_dense_bias,
   input_dense_weights,
   42, 24, ACTIVATION_TANH
};

static const rnn_weight vad_gru_weights[1728] = {
   -6, 96, -13, -69, 77, 84, 21, -48,
   21, 22, -4, -128, 35, -47, 39, 37,
   -69, 79, 35, -35, -31, 42, 100, -108,
   20, 29, 46, -18, 2, 40, 42, -82,
   -40, -42, 51, -30, -36, 72, -39, -25,
   -28, -76, -18, -13, 51, 10, 1, -84,
   66, 55, 20, 11, 25, -9, -42, -3,
   49, -48, -18, -6, -28, -9, 38, -8,
   59, -4, -35, 57, 12, -39, 27, -25,
   105, -41, 59, -34, 35, 52, -22, 46,
   126, 119, -46, 77, 67, 48, 10, -95,
   -87, -73, 66, -39, -73, -97, -60, -128,
   41, 78, 119, 109, 97, 10, -2, -50,
   -9, 0, 34, -79, -27, 39, -30, 11,
   72, 40, 15, -3, 27, 20, 83, 42,
   8, -52, -81, 51, 32, 80, -20, -34,
   11, 72, -23, -51, 23, -18, 23, -8,
   32, -7, -1, -75, -14, 60, -39, 56,
   -86, 72, -31, 41, 69, -8, -38, -104,
   -69, 69, 63, 67, -101, -35, -69, -1,
   41, 38, 107, 127, -25, -39, -9, 27,
   -19, -48, -5, -102, -125, 29, -67, -54,
   25, 102, -13, 55, 54, 62, -13, 37,
   8, -113, -10, -113, 45, -24, -41, -30,
   41, 75, 125, -69, 45, -82, -3, -38,
   -40, -15, 108, -53, 66, -1, -24, 101,
   97, 28, -83, 62, 125, -116, -36, 10,
   -123, 109, 37, -53, -12, 54, -12, -123,
   -37, 5, 100, -106, -118, -62, 30, 92,
   -83, 87, 73, 28, 42, -24, -108, -9,
   -85, 65, -28, -2, -76, 32, 3, -84,
   -97, 92, 57, -8, -66, 0, -72, -33,
   -120, -2, 19, 88, 8, -40, 27, -101,
   6, -45, 116, -59, 107, 16, -89, 51,
   -18, 7, 32, 54, 19, -54, -94, 73,
   -10, 96, 19, 90, 48, 3, -29, -24,
   -71, 114, -41, 115, 105, 96, 42, -84,
   -37, 66, -57, 46, -13, -2, -56, 88,
   -109, -14, 81, 30, 50, 5, 62, 29,
   -4, -6, -25, -55, -33, 12, 96, -58,
   -105, 57, 64, -54, -7, 57, 49, 75,
   -24, 45, -28, -32, 32, -1, -58, -11,
   0, 65, -6, 27, -19, -38, -68, 12,
   17, 8, 10, -55, -33, -77, 18, 91,
   -11, -2, -12, 26, 59, 49, -17, 28,
   -128, 70, -64, -31, -83, 127, -76, -45,
   -44, 112, -67, -116, -115, -19, -39, -69,
   -111, -128, -118, -94, -3, 57, -112, -98,
   -115, 68, 12, -26, 54, -26, 21, 82,
   -67, 40, -67, -87, -84, -45, -65, -73,
   -100, -43, -105, 93, 44, 28, 5, -95,
   -8, 9, 9, -106, -45, 34, -59, 77,
   1, 74, -51, 25, 41, 28, -30, 32,
   56, 69, -17, 19, -36, -56, -17, 60,
   16, -13, 42, -7, -5, -54, -38, -30,
   -26, 73, 49, -26, -60, -103, 78, 123,
   114, 122, 114, 105, 61, 66, -53, 62,
   93, -31, 9, 92, 32, -1, 12, -98,
   94, 51, 98, 109, -59, 55, -29, -46,
   -5, 18, 76, 66, 99, -16, 19, 75,
   -18, -37, -51, 58, 61, 41, -11, -25,
   -57, 98, -105, -25, -13, 43, -7, -75,
   -67, -87, 37, -110, -57, 19, 20, -87,
   -66, 114, 77, -31, 28, -65, -15, 71,
   -28, 118, 124, -81, -44, -90, 5, 15,
   -52, -62, 25, 24, 37, -39, -34, 17,
   35, 76, -78, -33, 2, 19, 2, -53,
   37, -52, 82, 20, -29, 94, 92, -26,
   -68, 31, 86, 73, 69, -88, 51, -11,
   20, 11, 1, 20, -14, -49, -22, 88,
   -19, 7, 9, 83, 52, 15, -26, 54,
   -14, 105, -79, 58, 65, -69, 7, -8,
   67, 118, 9, -47, 79, 82, 127, -109,
   102, -26, -64, -31, 127, 47, 39, -44,
   -82, 80, 41, -94, -101, 7, 24, 41,
   40, 46, -27, -22, -74, 118, 112, -42,
   -22, 127, 21, -3, 38, -60, 75, 99,
   -65, 97, 41, 17, 26, 18, -50, -45,
   50, 30, 89, 0, -14, 12, 0, 38,
   26, -58, 54, 0, -31, 24, -20, 63,
   -4, 81, -127, 120, 89, -85, -34, -5,
   89, -29, -125, 5, 21, 37, -23, 41,
   -12, 9, -116, -65, -100, -55, -61, -127,
   88, -124, -24, -108, -87, -5, 14, 85,
   -1, -72, -91, -78, -76, 0, -4, 47,
   71, 38, -128, -60, 24, -46, -60, -85,
   12, -123, -23, -95, -51, -29, 43, -67,
   -15, 96, 51, -118, 9, -9, 52, 65,
   36, -43, 46, 16, -36, -47, -40, 50,
   -24, -39, 8, 41, 122, -72, -66, 57,
   -128, 101, 127, 82, -21, 25, 76, 47,
   40, 50, -65, 18, 98, 31, 112, 116,
   35, 117, 119, 86, 68, 127, -51, -32,
   -17, 49, 10, 109, -15, 35, 58, -91,
   -34, 59, 104, 76, 52, 106, -125, 54,
   -45, -40, -19, 12, 8, 43, -10, -64,
   62, -21, -40, -43, -21, 97, 4, 12,
   30, 52, -22, 3, -69, -37, 57, -22,
   59, 7, -21, 0, -55, 20, 63, 51,
   -23, -120, 47, -112, -108, 16, 14, -82,
   -100, 68, -128, -101, 40, -9, 87, 33,
   64, 18, -128, 66, 2, 80, 60, 35,
   -14, -128, -47, 35, 92, -120, -121, 15,
   9, -117, -39, -64, -103, 9, 54, -121,
   -123, 19, -108, -28, 46, -75, 23, -63,
   10, -4, -73, -13, -27, 33, -8, -35,
   29, -27, -52, -22, -38, -18, -13, -26,
   -67, 51, 81, -15, 13, 34, 7, 20,
   -63, -119, 116, -48, 46, 17, -78, 0,
   -36, -31, 87, 45, -127, -124, 2, 79,
   -25, 54, -46, -71, 126, -72, -27, -68,
   -23, -117, -77, 20, 13, -61, 11, 40,
   73, -28, -106, -72, -12, 45, 127, 66,
   -35, 13, 11, -56, 44, 28, 81, 85,
   -17, 127, -25, -86, -67, -70, 52, -49,
   -12, -110, 89, -9, 28, 14, -118, 38,
   25, 71, 37, 19, 21, 0, -57, 82,
   -44, -40, -5, 37, 95, -38, -17, -68,
   -120, -82, 3, 42, -98, -58, -128, -67,
   -69, -120, -64, -19, 50, 29, 7, -128,
   -30, -96, -38, -128, -2, 127, -47, -18,
   -68, 113, -85, -60, 24, -43, -60, -70,
   -98, -101, -96, -121, -57, -103, -48, 66,
   -5, 67, 109, -105, -17, -27, 15, -14,
   -4, -77, 125, -54, 0, -56, -91, 73,
   107, 106, -55, 71, 88, -95, -28, 42,
   -56, 96, 3, 81, 27, -81, 94, 116,
   -6, -29, -78, 110, 127, -12, 80, 125,
   94, 0, 127, 6, 60, 65, 51, -26,
   7, 88, -124, 29, -63, 16, -57, -78,
   55, 13, -35, 103, 80, 8, 58, 106,
   68, 79, 67, -78, -18, -8, -33, -15,
   58, -71, 1, -10, 48, -61, 1, 73,
   -7, -20, 27, 60, 35, -33, 29, -35,
   54, -20, -11, -8, 46, 11, 69, 63,
   -116, 118, 99, 60, 101, 1, -74, -61,
   -115, 102, 125, -88, -112, -36, -112, -30,
   -125, -127, 19, 78, 57, -55, 117, -96,
   8, -50, -110, -38, 30, 43, -44, -40,
   -128, 55, 21, 27, -42, -22, 43, -61,
   -127, -31, 11, -74, 8, -33, -20, -4,
   -15, -58, 32, -113, 16, -54, -14, -56,
   7, 66, 0, 9, 62, 16, -51, 61,
   52, 74, 13, 115, 45, -103, 29, 60,
   -50, -55, 127, 120, 1, -117, -70, 88,
   -100, -8, 42, -56, -56, 26, -117, -22,
   36, -5, -13, 77, 119, 36, 75, -46,
   -70, -61, -36, -128, 70, -105, -35, -57,
   -14, -65, 23, -44, -128, 4, -52, 7,
   -55, -45, 2, -55, 5, -20, 7, -37,
   44, -16, -7, -78, -59, -5, -4, -45,
   -23, -33, 124, 65, -27, -91, -65, 84,
   28, 86, -37, 23, 26, 0, 22, 54,
   46, 4, -126, -49, 44, 59, -8, -4,
   -3, 117, 81, -46, -95, 9, 64, -49,
   -27, 6, 127, 118, -54, -64, -23, -12,
   56, 105, 5, 126, -46, 32, 8, -74,
   -24, 0, 42, 28, 87, -17, 39, 87,
   -114, 46, -90, 21, -31, -32, -10, -92,
   29, -11, 14, -58, -87, -32, 37, -42,
   -64, 53, 35, -1, 62, 51, 46, -29,
   -18, 76, -10, 69, 27, -85, -44, -84,
   96, 119, 91, -44, -24, -13, 75, -13,
   47, 81, -56, -38, 108, 27, 48, -67,
   56, -18, -34, -36, -113, 102, 52, 17,
   76, 4, -76, 107, 106, -60, -118, 61,
   -26, -117, 52, 85, -18, -38, -59, -30,
   -95, -26, -64, 50, -53, -9, 66, 25,
   -59, -124, -43, -63, -51, -42, 35, -112,
   21, 108, -47, 34, -57, 58, 75, -46,
   -114, -66, -14, -1, 27, -18, -75, -54,
   13, 33, 33, -66, 6, 11, 24, 23,
   115, -21, -27, 29, -85, -95, -120, -8,
   -24, -125, -11, -127, -106, 17, -98, -128,
   48, 94, -10, -56, 119, 28, -41, -60,
   -54, 67, 17, -31, 14, -115, 110, 60,
   -62, -47, 73, -2, 2, -26, -19, 8,
   0, 10, 41, -120, 14, -71, 1, -25,
   -49, -18, 90, 91, 13, 79, -55, 26,
   31, 42, -86, 77, 38, -27, 48, 64,
   33, 0, 29, -13, -57, -28, 28, -127,
   37, 14, 91, -101, 93, -2, 85, 127,
   24, 127, 80, -26, 110, 22, -12, 119,
   -18, 83, 20, 127, -117, -112, 59, -94,
   -40, -124, 48, 111, 88, 97, 83, 11,
   -115, 51, -29, 70, -35, 106, -39, -92,
   52, 39, -81, 30, 40, 48, -7, 51,
   41, -15, 0, 22, -76, -6, 37, 5,
   -127, 30, 4, 11, -100, 92, -9, -67,
   -92, 18, 96, -122, 36, 12, 127, -37,
   26, 53, 110, -85, 4, -99, -31, 97,
   -17, -25, 18, 16, 118, 124, -75, -5,
   5, 127, -108, 99, 3, 15, 69, -98,
   -3, -39, 66, 26, 125, -52, -3, 36,
   -122, -38, -15, 88, 78, 6, 1, 46,
   48, 81, -10, -79, -42, -13, -29, 55,
   -7, -31, 27, 62, 46, -26, -63, 20,
   -74, -36, -119, 23, 25, 32, 24, -48,
   40, 113, -86, 48, 78, 87, 46, 79,
   -11, 0, -75, -26, -60, 40, -10, -51,
   -126, -67, 64, -88, -119, -94, 21, -42,
   68, 36, 49, -62, -19, -47, 5, -44,
   31, -70, -33, -29, 43, -52, 12, -15,
   37, 97, -1, 55, 39, -20, -60, 58,
   -20, 1, -15, 37, -62, 37, -12, -53,
   -34, 67, -29, 41, 24, 47, -45, -54,
   -19, -25, -28, -93, -3, 5, 12, 56,
   -46, -105, -87, -84, 70, -54, 43, 32,
   11, -97, -87, -36, 95, -20, 8, -79,
   63, -54, -111, -119, -86, -77, 89, 36,
   -100, -112, -122, -125, -65, 0, -85, 127,
   106, -74, -127, 114, -76, 3, 19, -38,
   -68, -106, 115, -127, -57, -73, 4, -79,
   -29, 60, 118, -112, 23, -51, 13, 47,
   -31, -47, 120, 67, -83, 8, 4, 118,
   -22, 9, 96, 102, 115, -67, -11, 35
};

static const rnn_weight vad_gru_recurrent_weights[1728] = {
   122, 19, -128, -30, 127, 33, 127, 39,
   -112, 96, -21, -106, 7, 14, -28, -109,
   -90, -57, 39, -128, -96, -125, 105, -29,
   75, -28, 57, 89, 63, -36, -113, 118,
   -29, -18, -72, 37, -108, -99, -113, 79,
   115, 94, 119, 70, -25, -27, 111, -6,
   47, -127, -117, 127, -117, 24, -82, -126,
   115, 101, -82, -98, 10, -47, 58, -37,
   -126, -110, 121, -128, -94, 105, -120, -121,
   42, -103, 61, 127, -26, 48, 67, -22,
   -61, -115, 34, -15, 73, 104, 72, 73,
   61, 76, 114, 65, 87, 46, -22, 93,
   76, -37, -32, -36, -117, 65, 113, -105,
   -33, 60, -5, -48, 45, 32, 43, -8,
   38, -21, -31, -12, -87, -1, -88, -36,
   107, 127, 25, -33, -77, -128, -82, 13,
   101, -128, 50, -77, -14, -65, 46, -36,
   -25, -60, -36, 8, -40, -28, -13, -103,
   -79, 47, -59, 31, -79, -12, -127, 21,
   -103, -10, 2, -10, -127, 2, 20, -6,
   25, -8, -128, 15, -2, 10, -40, 32,
   36, -26, 68, -2, 7, 52, -68, 53,
   -11, -10, 29, 4, 33, 13, -46, 11,
   62, 8, 4, -11, -18, 32, 96, 37,
   -7, 81, 2, -100, -40, -84, 101, -20,
   2, -22, 35, 69, 111, -33, -20, -1,
   16, 107, -5, 60, 88, -53, -7, 31,
   122, -108, -127, -101, 72, 42, 125, 11,
   123, 9, -106, 99, 118, -20, -60, -65,
   -103, -128, -26, -113, -121, -126, 60, -70,
   34, -43, -47, -31, -33, 0, 99, -17,
   75, -20, -80, -7, 118, -62, 15, 28,
   93, -25, -49, 29, 32, 77, -60, 20,
   31, -25, -128, 72, 57, 127, 6, 10,
   18, 56, -125, 6, 5, 58, -3, -118,
   -24, -95, 38, -128, -87, 53, -63, 10,
   -126, 51, -85, -44, -61, 124, -127, -77,
   17, 126, -33, -55, -127, -109, -115, -16,
   22, 17, -70, 30, -32, -128, 30, -59,
   -7, -55, -68, -24, 37, 43, -14, 21,
   6, 34, -76, 35, -42, 63, 56, -67,
   -35, -87, -98, -127, 51, 39, -21, 101,
   -75, -27, 40, 0, 29, 14, -92, 50,
   50, 30, 0, -25, -66, 10, -79, -23,
   12, -6, -10, -1, 117, -128, 77, 88,
   -55, -63, -115, -92, 88, 123, -127, -74,
   -13, 36, -107, 62, -25, -92, -121, -128,
   -89, -117, -88, -106, -116, -54, -44, -1,
   19, -14, 23, -54, 9, 51, 25, -100,
   -25, 83, -26, -33, -16, -13, 63, -71,
   1, -120, -89, -59, -65, 33, 39, 41,
   -41, -16, 66, -29, 102, -4, 30, 67,
   30, 53, -22, -80, 44, 112, -89, -8,
   65, -19, -39, 15, 102, -11, 15, 97,
   127, -103, -53, 5, -26, -100, 126, -115,
   62, -128, -128, 37, 124, 107, -30, -125,
   7, -20, -23, -125, -120, 51, 4, 53,
   41, -103, -5, 9, -37, 7, 84, -43,
   15, -67, -83, -26, 64, 5, -83, -25,
   -6, -32, 91, 105, -63, -6, 35, 38,
   49, 24, 52, -105, -108, 37, 46, 29,
   22, 18, 91, 74, 77, 119, -21, 120,
   46, 86, -123, 103, 76, -58, -63, -3,
   -128, 112, 77, 97, -89, 56, -78, -37,
   -18, -34, -22, -92, 95, -60, -122, -31,
   -41, 49, -60, -96, 5, 24, -110, -80,
   -71, 70, 15, 12, -102, 19, 29, -36,
   -121, 123, 10, -55, 3, -24, 14, -123,
   -117, -119, -73, -16, -127, -36, -98, -7,
   -18, 121, 119, -117, 15, 57, -80, 118,
   -51, -106, 127, 117, -28, 27, -77, 120,
   101, 76, -119, 127, 108, -128, 99, 105,
   -106, 14, -97, -127, 119, 113, 127, 99,
   64, 118, -114, 93, -42, -62, -28, -103,
   85, -36, 37, -91, -95, -74, 61, -23,
   3, -100, 27, 40, -81, 11, -30, 113,
   44, -12, -118, 16, 21, -1, 16, 37,
   112, 54, 117, -10, 46, 74, -15, 55,
   118, -2, -96, 80, -113, -37, -82, -81,
   -2, -19, -91, -30, -75, -114, 76, -115,
   -35, -18, 21, -88, -86, 127, -128, -39,
   19, -20, -126, -126, 51, 109, -42, -118,
   46, 22, -108, -8, -21, -101, -85, -124,
   -119, -128, -110, -128, -127, -126, 16, -79,
   40, -16, 29, -82, 22, 5, 67, -38,
   -68, 23, 23, 13, -7, -53, -3, -88,
   -37, -73, -74, -21, 50, -2, 56, 83,
   -127, 30, 97, -69, 68, -41, 52, 26,
   -13, 48, 89, -23, -17, 15, -108, 88,
   29, 17, 5, 82, 45, -69, -84, 95,
   57, 49, -41, 31, 25, -114, -22, 7,
   -102, -105, 40, -57, 42, 34, -41, 127,
   9, -6, -46, 39, -70, 16, -42, -47,
   -8, 32, 60, 1, -17, 0, -78, -8,
   -55, -11, 3, 39, 4, -16, -13, -18,
   66, 82, -4, 59, -51, 30, -18, 99,
   3, 63, 2, -52, 11, -32, 78, -33,
   45, -101, 36, -34, 28, -66, 24, 87,
   43, 38, 28, 46, 127, 44, -26, -5,
   81, -18, -55, -16, -124, -120, -27, -44,
   27, -128, -55, -38, 127, -37, 126, -41,
   -127, -30, -103, -75, 4, 65, -118, 52,
   -26, 52, 5, -62, 20, -27, 61, 6,
   -57, 15, 42, 26, -23, -11, -99, -17,
   -52, -90, 85, 33, -22, 10, -101, -94,
   7, 58, 127, -108, -54, -32, 14, 69,
   -53, -68, 126, 40, 42, 13, -30, 125,
   24, 99, -122, 125, 125, -52, -67, 107,
   127, -70, -128, -91, -10, -125, 120, -121,
   67, -127, -128, -46, 127, 52, 112, -45,
   -113, -123, -120, -127, -119, -90, -82, -39,
   125, 3, 88, -52, -9, 18, -34, 55,
   3, 47, 16, 23, 82, 50, 34, -5,
   -42, 60, 127, 126, -8, 66, 20, 0,
   -43, 20, 31, -3, -46, 17, 116, 13,
   -50, 90, 31, 107, 28, 112, -71, 125,
   20, 42, -75, 51, 44, -67, -63, -28,
   127, -102, -116, 16, -87, -42, -35, 6,
   115, -114, -109, 64, 115, 84, 101, -72,
   -99, -88, -64, -94, -118, 99, -53, 16,
   61, -128, 3, 37, -11, -11, 51, -75,
   -6, 3, -113, 66, 77, -9, 19, 43,
   -47, 6, -28, 88, -31, 82, -32, 31,
   -28, 62, 29, -7, 30, -62, 78, 50,
   -98, -1, 72, 71, 32, 62, 11, 58,
   58, 66, -116, 82, 65, -11, -34, 45,
   -41, 12, -126, -100, 34, 50, 98, -74,
   61, 109, 11, 108, 102, 34, -71, 114,
   -22, 107, 127, 102, -25, -113, 127, 14,
   -98, -18, 33, 29, 21, 36, 9, -35,
   -48, 85, 35, -5, 36, -64, 12, 13,
   55, -17, -106, -63, -70, -70, -27, -10,
   -80, -80, -88, 94, -18, 127, -77, 17,
   80, 125, -105, -70, -83, -84, 103, -37,
   -8, -87, 94, -101, -32, 124, 61, -64,
   20, -2, -27, 12, -58, -111, -1, -39,
   -59, -114, 16, 47, 26, 71, 12, 123,
   -35, -63, -14, -11, -31, -10, -77, -19,
   22, 75, 22, 20, 26, -25, -38, -27,
   -62, 86, 21, -8, 82, 7, -34, -64,
   33, 11, 39, 33, -25, 33, 19, -12,
   25, 44, 97, 33, -27, 67, 28, 20,
   -8, -52, 127, -19, 111, -26, -9, 63,
   -44, -12, 3, 9, 75, -110, -54, 44,
   -118, 62, 127, 89, -44, 69, -127, -29,
   -124, 9, 85, 41, -126, -63, -96, 120,
   59, 121, -58, 127, 124, 122, -33, 31,
   -26, -48, 99, -41, 32, -11, -17, -6,
   -102, 44, 92, -23, -19, 19, -1, 77,
   42, 25, -51, -23, -31, -27, 4, 61,
   57, 75, 115, -122, -38, -66, 14, 47,
   -124, -116, 127, 71, 48, -5, -83, 62,
   124, 123, -108, 127, 8, -72, -10, 110,
   51, 0, 126, 117, -114, -45, -69, -18,
   -115, 19, 112, 1, -127, 46, 38, 117,
   124, 55, -22, 118, 120, 119, -37, 124,
   -90, 9, -5, 32, -10, -93, -58, -9,
   -14, -64, 77, -5, -51, -2, -14, -4,
   -4, 121, 46, 61, -47, 6, -13, 10,
   42, 103, 127, -120, -80, -66, 102, 4,
   -93, -94, 126, 48, 36, 20, 2, 120,
   47, 50, -76, 127, 101, -37, -6, 9,
   -123, -119, -78, -118, -39, 57, -99, -23,
   4, 51, -94, 127, -104, -114, -77, -73,
   -20, -25, -75, -66, -47, -31, 1, -98,
   -38, -59, -40, -43, -23, 12, -50, 36,
   -6, 1, -5, 24, -68, 21, -39, -91,
   37, -26, 3, 1, -59, -42, 32, 49,
   29, -116, -125, 111, 123, 91, -14, 47,
   30, 84, -118, -90, -90, 22, 15, -127,
   -81, -43, 122, -74, -126, 14, 66, -74,
   40, 59, 83, 59, -59, -112, 51, -29,
   -46, -11, 28, -22, -7, 105, -6, 4,
   17, 31, -69, 60, 77, 118, 5, 25,
   38, 3, 37, -7, -4, -43, 41, 32,
   -74, 74, -9, -28, 23, 70, 75, 10,
   14, 61, 89, 32, -10, -31, -4, -47,
   11, 82, 70, -58, -20, -122, 49, 6,
   -57, -84, 124, -2, 105, -53, 20, 127,
   -4, 55, -45, 42, 127, -75, -15, 3,
   -1, 66, 13, -27, -16, -26, -104, -16,
   -26, -66, 38, 3, 8, -5, -34, -42,
   0, -28, -20, 10, -5, -32, -4, 32,
   37, 14, 24, -5, 70, 21, -123, 70,
   -30, 84, 37, -43, -34, 6, -7, -23,
   -33, 63, 64, -3, -32, 53, 72, 102,
   -49, -22, 75, -25, 5, -17, -12, -43,
   -30, 13, 43, -37, 48, 21, -103, 19,
   36, 37, 74, -24, 53, -9, -38, 45,
   -9, -83, -42, 14, 65, -55, 126, 32,
   100, 41, -33, 58, 100, -23, -34, -55,
   8, 95, 94, -38, -67, -44, 48, -33,
   -39, 17, -58, -6, 26, -8, 39, -27,
   19, -6, 14, 30, -6, -59, -19, 16,
   -4, 30, -10, 40, -88, 46, 17, -125,
   19, -72, -63, 40, 18, 96, -36, -41,
   108, 13, -128, -39, -118, 50, 100, -9,
   -13, -90, 25, -104, -126, 110, 19, -43,
   -128, 103, 88, 118, 32, 102, -127, -40,
   13, 126, 69, 18, -123, -58, -26, 124,
   106, 122, 73, 127, 120, -11, -33, -23,
   -85, 45, -6, 62, -36, 46, -83, -62,
   24, 101, 22, -90, -38, -20, -40, -95,
   -24, -60, -126, -87, -14, -111, -38, -120,
   -32, -27, 44, 34, 51, 30, -123, 103,
   -13, -46, 25, -9, 3, -13, 37, 36,
   65, -37, 74, -52, 68, -26, 65, 40,
   -75, -10, 58, -10, -37, -30, -127, 35,
   -48, -29, -128, 115, -102, -64, -29, -9,
   -9, -41, -118, 9, -64, 117, -80, 44,
   -19, -68, 54, 12, 72, -48, 49, 6,
   7, 86, -27, -54, -92, 26, -29, -105,
   27, -12, -53, -24, 124, 56, -69, -2,
   17, 127, 106, -127, -46, -39, 71, 66,
   -80, 13, 127, 88, 34, 53, -9, 45,
   112, 112, -113, 71, 40, -86, -117, 66
};

static const rnn_weight vad_gru_bias[72] = {
   123, 19, -128, -127, 119, 3, 125, 67,
   125, -23, -128, 98, 127, 49, -25, -123,
   -100, -121, -103, -127, -128, -123, 78, -97,
   121, 42, -13, -24, 61, 40, 95, 36,
   118, 27, -19, 102, 115, 51, 67, 22,
   6, 34, 78, 36, -14, 88, 75, 31,
   6, 40, 27, 5, -65, -59, 80, 13,
   39, -15, 34, 26, 21, 31, -20, 48,
   -12, 44, -50, 32, 24, 3, -127, 25
};

static const GRULayer vad_gru = {
   vad_gru_bias,
   vad_gru_weights,
   vad_gru_recurrent_weights,
   24, 24, ACTIVATION_TANH
};

static const rnn_weight noise_gru_weights[12960] = {
   42, 35, 23, 3, 6, -38, 61, 47,
   45, 37, 31, -16, -31, 58, -75, 35,
   -4, -13, 84, 47, 25, 20, 0, -67,
   32, -40, 48, -60, 14, 25, -10, -17,
   -21, -2, -12, 17, -16, -78, 16, 31,
   -70, -12, -2, -34, 42, 32, 102, -85,
   77, -61, -63, 91, -33, 35, 50, 25,
   -66, -15, 16, 5, 1, 21, -38, 19,
   -43, -14, 35, -18, 29, -70, 13, 45,
   3, -40, -12, -10, 5, 21, -2, -57,
   32, 12, -8, -17, 51, 51, 83, -16,
   29, 13, 25, -57, 38, 32, -49, -27,
   51, -33, -51, 23, -14, 19, 9, -15,
   15, 25, 11, -20, -11, 12, -66, 9,
   -14, -22, -24, 30, -11, 4, -4, -23,
   52, -27, 21, 23, 2, 24, 24, 80,
   1, -7, -2, 12, 10, 33, 22, -31,
   -18, 37, 47, 4, -19, 46, 61, -37,
   -83, 61, -34, 29, 28, -123, -2, -25,
   96, 57, 83, -9, -27, -32, -4, -78,
   -85, 26, -89, 106, 14, -61, 26, -22,
   38, 94, -41, -12, 0, -59, 13, 17,
   55, 47, -47, 114, 28, 87, 31, 84,
   123, -72, -1, 1, 14, -26, 6, -76,
   1, -54, 7, -60, -16, -87, -22, -73,
   -41, 5, -92, 7, -15, -82, 65, -88,
   5, -48, 1, -24, 45, -42, -26, 33,
   9, 124, -103, -105, 121, 64, 18, -25,
   4, 22, 5, -21, 21, -13, 24, 25,
   -14, 75, 2, 28, 53, -15, 16, 30,
   31, 30, 29, 36, -2, 14, 18, -26,
   4, 0, -27, 44, 43, -64, 29, 19,
   -77, 27, -98, -10, -125, 13, 29, -13,
   -91, 22, 47, 34, 8, 70, -10, -35,
   -33, -84, 53, -11, 37, 17, 1, -7,
   11, 36, -1, 13, 42, -9, 15, 2,
   77, 110, 63, -38, 7, -20, -16, -27,
   -38, -14, 4, 45, -127, -45, -100, -3,
   43, -86, -17, 27, -4, -1, -71, -21,
   37, -125, 6, 50, 41, -2, -42, -11,
   -10, 27, -3, -50, 13, 57, 36, -127,
   -17, 12, -5, 41, -97, 54, -8, 96,
   31, -2, 26, 24, -38, 35, -39, 15,
   -84, -12, 84, 31, 28, -40, 125, -56,
   -4, -45, 20, -29, -42, -18, 0, 70,
   -20, -33, 66, 22, -33, 42, 15, 54,
   70, 43, 39, 20, 55, 42, 20, -10,
   -58, -27, -22, 9, -49, 15, 20, -51,
   -19, 41, 11, -34, -20, 37, 6, 17,
   -1, -50, 9, -47, -78, -39, -16, 6,
   11, -16, 43, 23, 6, -19, -26, 18,
   -35, -64, -31, 41, -43, 22, -38, -57,
   54, -73, -51, -74, -54, -32, -42, -12,
   -34, 46, 20, -14, -59, 13, -9, -11,
   -42, 39, -6, -4, 30, -32, -38, -36,
   -101, -27, -6, -20, -69, -75, 60, 18,
   -63, -11, -29, -56, -49, 71, 31, -35,
   13, -25, 6, -41, -62, 2, -61, -61,
   -1, 18, 10, -18, -60, -81, 62, 18,
   -11, -8, 1, 10, 45, -19, 14, 39,
   15, 17, -20, 30, 51, 62, -92, 15,
   -1, -31, 86, -49, -11, -10, -23, 7,
   -24, -54, 20, -20, 47, 8, -23, -69,
   -103, -1, 21, -15, 1, -50, 72, -34,
   -5, -8, 4, -62, -3, 11, 66, -2,
   -8, 20, -8, 28, 12, 68, -48, -71,
   -1, -35, -7, -47, -20, -6, 8, -23,
   34, -22, 59, -6, -10, 11, -59, -29,
   -2, 19, -27, 45, -60, 3, -16, 26,
   -1, 38, -3, -45, -27, 9, 6, -43,
   47, -31, 10, 34, -9, 24, -32, -9,
   -23, -35, 11, 0, 11, -27, 37, -19,
   -11, 17, -27, -26, 31, 13, 20, 20,
   -33, 9, -29, -79, -52, 83, 80, -43,
   -30, 62, -20, -8, -38, 99, -42, -94,
   -41, 2, -3, -11, -17, -78, -42, -41,
   22, -2, -61, 70, -11, -4, 10, 92,
   12, -8, 88, 14, 79, -30, 39, -22,
   21, 1, -54, 98, 15, 2, -103, 1,
   76, -61, 40, -24, -19, -17, -38, 23,
   -27, -50, 54, -28, 10, -79, 9, -33,
   -20, -25, -13, -11, -4, 19, 0, -58,
   -47, -6, 53, -37, 15, 26, 28, -26,
   -19, -8, 13, 60, 23, 44, 9, 30,
   -4, -7, 24, 10, 25, -46, 47, 10,
   30, 19, -7, -38, 8, -2, -62, -6,
   8, 57, 16, -5, -86, -10, -17, 8,
   9, -28, 15, -17, 49, 51, 16, 12,
   -3, -31, 9, 9, -15, -4, 7, -37,
   31, 21, 10, -57, -6, -29, 55, -16,
   32, 5, 72, 43, 50, -80, -48, -7,
   100, 26, -15, 13, 20, -31, 78, 1,
   -56, -32, -43, -52, -43, 64, -92, 0,
   -68, -35, 3, 90, -43, -11, 89, -77,
   46, -21, -18, -59, -102, -63, -24, -51,
   -63, 63, 47, 40, -54, 27, -8, -58,
   -36, 38, -4, 6, -11, 64, 12, 50,
   26, -26, 31, -21, 29, 36, -1, -41,
   -20, -59, -69, -25, 88, 29, 56, 62,
   -63, 46, 31, 45, -69, 18, 24, -38,
   82, -28, 11, 14, -91, -11, -45, 24,
   6, 6, -57, -25, 34, 5, -41, -92,
   50, 32, -14, -11, -23, 21, -29, -28,
   -19, 8, 42, -4, -43, -24, -55, -73,
   32, 64, -20, 62, 18, 30, 29, 31,
   47, 42, 0, -41, 10, 37, 5, -50,
   11, -47, -59, -60, 65, 26, 12, 54,
   8, 17, -8, -63, 49, 16, -42, -15,
   -7, -113, 25, -8, -12, 19, -18, 12,
   72, 23, 8, 22, 58, -81, -56, 37,
   29, -33, -12, 92, -47, 5, 37, 108,
   31, 15, -40, -23, 3, 34, 10, -20,
   1, 17, 22, -85, 80, -65, 19, -57,
   -2, 92, -117, -10, -25, 12, 85, 59,
   -28, -38, 50, -23, -28, 90, 6, 36,
   -39, 31, 15, -2, 20, -37, 37, -33,
   -21, 8, 90, -13, 65, 22, -9, 3,
   86, 11, 95, 32, -12, -5, -14, 67,
   87, 47, 27, 31, 5, -27, 24, 53,
   -12, -47, 17, -20, -13, 2, -1, -16,
   42, -11, 33, 15, -1, -4, -51, 27,
   25, -36, -59, 36, 23, 32, -7, 70,
   26, -14, -12, -19, 26, -3, -13, -39,
   31, 23, 16, 58, 34, 2, 7, -18,
   -39, 52, -66, 59, -9, 12, 3, -34,
   -29, -30, 38, 29, 10, 18, 8, -2,
   21, -76, 54, -79, -41, -7, 24, 67,
   23, 39, -43, -92, 77, 50, -109, -31,
   10, 8, 34, 23, -31, 44, -49, 6,
   -38, -52, -3, -9, 11, 3, 0, -120,
   87, 39, -38, -7, -30, -35, 17, -40,
   49, -18, 58, -38, -73, -8, -67, -21,
   116, 52, 4, 22, 12, 37, -2, 63,
   34, 52, 33, -21, 16, 59, 35, -5,
   -36, -77, 8, 75, 9, -35, -70, -22,
   18, 46, 37, -51, 65, -51, 40, 44,
   -7, -46, -16, -17, 12, -49, 50, -58,
   25, 40, -22, -16, 80, 39, 15, 41,
   -16, -61, -18, -33, -22, 25, 5, -15,
   36, -23, 18, -36, -20, 6, 37, 17,
   42, 34, -23, 8, -16, -54, -27, 51,
   38, 30, -2, -52, -1, -29, 2, -29,
   -20, 30, 24, -1, 14, -10, 7, 51,
   18, -9, 10, 19, 16, -69, 57, 19,
   8, 70, -9, 70, -10, -35, 91, 51,
   -39, 33, 4, 38, -5, 26, -97, 49,
   86, 63, -20, 109, 93, 46, -4, 16,
   -13, 50, 7, 18, 14, 51, -22, -29,
   -27, 78, -12, -9, 4, 53, 29, 20,
   57, -124, 45, 55, 110, 22, 11, -47,
   26, 25, -10, 76, 39, -40, -1, 5,
   63, -20, -69, -2, 32, -4, 24, 42,
   54, -33, -30, -22, -13, 25, -10, -61,
   -3, 37, -31, 21, -5, -14, -19, 4,
   14, 4, -8, 49, 34, 21, -16, -65,
   -102, 46, -78, 58, 37, -10, 37, 14,
   36, -9, -15, -64, -4, -24, 2, 21,
   2, -4, -38, -42, -9, 52, -51, -17,
   -26, -32, -22, -73, -34, -24, 0, -1,
   40, -24, 13, -10, 20, 45, -17, -36,
   17, 18, -29, -20, 59, 10, 36, 23,
   23, 34, -13, -15, -12, 28, 0, 8,
   -13, -88, -75, 30, -17, 29, -85, 34,
   -35, -61, -58, -13, -65, -125, 52, 20,
   32, -49, 82, -42, -33, 7, 6, -105,
   -61, 13, -5, 23, 29, 83, -21, -63,
   110, 50, -5, -109, -122, -68, 39, -126,
   -119, 57, 48, 60, -48, -102, -7, 42,
   -63, 27, 33, 23, 17, -14, 14, 57,
   6, 9, 16, -30, -33, -25, -3, -70,
   39, -55, -49, -79, -9, -116, 75, -19,
   49, 24, 25, 80, -25, -33, 32, 78,
   26, -125, 48, 37, -89, -91, -2, 29,
   -81, 56, -35, 10, -114, -67, 15, 19,
   -5, -7, 26, -31, -27, 16, -39, -34,
   40, 15, 17, 13, 0, -24, -9, 65,
   22, -34, 39, 21, 33, -13, -67, -25,
   -20, 16, -29, 30, -15, -125, 5, 20,
   47, -19, -78, 38, 24, -44, 58, 32,
   75, 10, -10, -29, 13, 47, -35, -31,
   39, -53, 30, 24, -6, -13, -56, -7,
   115, -21, 20, -14, 80, -35, 91, 52,
   53, -36, -32, -70, -53, 91, 30, 59,
   -71, -52, -19, 41, 36, 9, -82, -62,
   39, -12, 42, 53, -105, -46, -114, -55,
   21, -52, -20, -6, 53, 88, 33, -39,
   -88, -57, -54, 44, 105, -18, -8, -41,
   55, -64, 88, -1, 9, 24, 36, 87,
   -5, -35, 115, 44, -5, 71, 17, 21,
   43, 82, 23, -14, -6, 47, -13, -78,
   -1, -28, 56, -57, -75, 50, 19, 65,
   95, 46, 70, 55, 52, 3, 14, -92,
   15, 21, -15, 39, 66, 34, 7, 15,
   15, -22, 65, 23, 34, 61, -51, -26,
   -16, -9, -5, -24, -34, -37, 34, -65,
   25, 19, 43, -8, 44, -29, 25, -42,
   41, -18, -5, 1, 22, 37, -24, -65,
   8, -18, 26, -34, -12, 13, -24, -23,
   -87, -48, -8, -26, 22, -19, -2, -37,
   -30, 8, -46, 23, -74, 43, -27, -1,
   35, 30, 83, -8, 20, -38, -40, 17,
   22, 28, -2, 23, 36, -50, -59, 15,
   -85, 79, 9, -81, 0, -27, 1, 57,
   -4, 43, -31, -1, -55, 97, 5, 32,
   44, -6, 2, -43, 26, 22, 58, 99,
   -99, -29, 15, -53, -47, -25, -27, 19,
   2, -51, 47, -5, -42, -3, 27, 55,
   -64, 37, -66, -34, 28, 49, -2, 21,
   -42, 65, -110, 42, 43, 43, -1, -35,
   5, -4, -16, 51, -22, 56, 26, 11,
   43, -58, 5, -40, 9, -52, -17, -29,
   9, -40, 26, 35, -3, 9, 25, -32,
   -57, 49, -5, -49, 22, 21, -9, 3,
   12, -2, -2, 14, -51, -2, 29, -13,
   -23, 7, 21, 1, -37, 14, -16, -7,
   6, 25, -66, 7, 6, -68, 55, -24,
   -94, -104, -46, 23, -5, -24, 11, -88,
   -7, 26, 26, 60, -25, -46, -6, 14,
   24, -22, 58, 50, -63, -7, 8, -25,
   -66, 23, 31, 11, -5, -15, 58, -125,
   -20, 13, 22, -39, -11, 47, 64, 56,
   -123, -3, 19, 60, -105, 54, -49, 48,
   -22, 35, 35, -40, 26, -19, 68, 33,
   -11, 56, -35, -78, 22, 7, 126, -35,
   91, 10, 3, 29, -121, -29, 0, 73,
   -60, -4, 12, 0, -71, -28, 115, 72,
   15, -27, -110, 34, -7, -18, 69, -7,
   -81, 78, 2, 69, -31, -11, -21, -94,
   -9, -37, -7, -82, -26, 2, 14, -31,
   -3, -28, -28, 29, 9, -11, -27, 69,
   -80, 13, 6, 25, -29, 11, -18, 2,
   -77, 10, -46, 127, 45, -28, -62, -3,
   -14, 14, 13, -38, -12, 14, 68, 79,
   12, -24, 19, -12, 10, -16, -73, -53,
   -56, 32, 20, 1, -7, -50, 35, -13,
   -38, 51, -31, 53, -78, 17, -84, -121,
   97, -11, -13, -18, -76, -28, -117, 31,
   54, -108, -60, 74, -5, -2, 23, -19,
   -107, 45, 84, -126, 55, 34, 93, -71,
   -33, -23, 2, -20, -63, 58, -104, 41,
   26, 50, 47, 57, 2, -38, 6, -10,
   -89, 25, 1, 90, 1, -109, 74, -71,
   -29, -55, -47, -23, -92, 25, 7, 118,
   -67, -107, -70, -11, 32, 33, -10, 83,
   46, 56, 2, 51, 22, 65, 41, -24,
   -55, -1, 73, 41, 56, 37, 14, -29,
   7, 56, 67, -26, -10, 49, 101, -32,
   16, 8, 31, 4, -7, -64, -16, -13,
   -56, 91, 17, 20, 74, 23, -52, 29,
   -84, -72, -14, 37, -2, 38, -29, 84,
   86, -58, -15, -89, -67, -31, -69, -4,
   -63, 89, 82, -20, 11, 7, 7, -26,
   6, 67, -23, -3, 57, -17, -18, 49,
   73, 27, -2, -3, 64, 19, 14, 48,
   52, 20, -55, -4, 52, 32, -49, 21,
   -26, -11, 55, -27, 28, 37, 25, -69,
   80, 38, 8, 101, 31, 8, 51, 34,
   10, 31, 92, 5, 32, 82, 20, -35,
   51, -37, 6, 39, 32, -2, -70, 50,
   -120, -54, 75, 1, 1, 38, -21, 93,
   -5, -12, -67, -45, 25, 4, 51, 34,
   84, 80, 10, 66, 3, -29, -16, 54,
   -16, -9, 39, 27, -4, -94, 89, 20,
   9, -33, -72, 79, 30, -43, 33, -37,
   -38, -51, -4, -66, -37, 5, 56, 9,
   66, -33, 31, -46, 23, -39, -18, 44,
   41, 22, 8, -62, -19, 38, 34, -13,
   -2, 24, 17, 40, -31, -14, 6, 13,
   22, -16, 40, 28, 18, -2, -31, 9,
   -6, 40, 27, 1, -9, -10, -1, 34,
   -7, -27, 30, -14, -47, 4, -58, -5,
   126, -21, -28, 20, -49, -55, 27, -80,
   43, -36, -43, -83, -95, 31, -70, 18,
   48, -118, -22, 70, 24, 59, 32, 5,
   -1, 65, 12, -127, -35, 18, 63, 76,
   -91, -105, -2, -29, 32, -51, -31, -63,
   -38, -37, -27, 17, -43, 15, 78, 33,
   28, -15, 64, 38, 39, 30, -47, 7,
   -49, -5, 18, -39, 29, -12, -107, -50,
   -9, -60, -24, -16, -2, -3, 44, 2,
   30, 32, 38, -75, -19, 19, 37, -100,
   -39, 24, -35, -19, 18, -3, -72, 22,
   -4, -29, 59, -48, -16, -19, 48, 44,
   11, 0, -15, 33, 8, 68, 2, -24,
   -25, 18, 32, 71, 22, -75, -56, 2,
   -45, 4, -25, 14, 0, -9, -16, -54,
   5, 27, -92, -69, -36, 22, 44, -45,
   -19, 45, 17, -25, -59, 43, -67, -62,
   95, 49, -14, -14, 14, 41, -31, 94,
   -12, 34, -16, -106, -4, -9, -41, -61,
   -4, -50, -3, -9, -58, 3, 17, 13,
   53, -117, -41, -48, 5, 54, -32, 38,
   79, 16, 53, 41, 19, -87, 5, 15,
   11, 79, 2, 74, -82, 31, 53, 78,
   -24, -29, -3, 87, 2, 0, 31, -56,
   11, -18, 19, 66, 7, -41, -68, -60,
   -78, -20, -5, -123, -18, -45, -96, 47,
   -9, 34, 35, -75, 31, 5, -3, -27,
   5, 41, -35, -17, 116, 29, 22, -39,
   -63, -10, 28, 52, 127, -82, -60, -10,
   2, -17, 21, -50, -45, 20, -4, 57,
   47, -12, 22, 35, 41, -26, 15, -3,
   -67, 8, 10, 26, 57, -49, -46, 28,
   -113, 25, -45, -16, 39, -31, -60, -44,
   39, 11, 26, -100, -36, 48, -20, 49,
   13, 51, 26, -37, -2, -10, -49, -76,
   17, -45, 79, 41, 12, -27, -19, 16,
   -32, -109, -40, 57, 45, -22, 11, 16,
   11, -71, -70, 25, -24, 33, -22, 14,
   31, 28, -72, -70, 6, 56, -25, 51,
   -113, 24, 10, 72, 80, 58, -67, 44,
   59, -56, -47, 19, 28, 26, -34, -21,
   -9, 31, -11, 39, 33, 10, -62, 30,
   85, 29, -42, -108, -89, 25, 74, -9,
   12, 72, 32, 40, -32, -34, 8, 20,
   -13, 52, -40, 3, -44, 69, -39, -68,
   36, 27, -5, -47, -27, 73, 6, -48,
   29, -73, 7, -30, -31, -20, -33, 83,
   -67, 59, -1, 61, 34, 7, 13, 14,
   -26, 24, 1, -33, -29, 87, 3, -35,
   -8, -50, -12, 25, -90, -61, -38, 15,
   35, 15, -78, -90, 0, 20, -8, 16,
   21, -48, -76, -88, -39, 24, 87, 1,
   51, 32, -50, -6, -64, 78, 32, 18,
   47, 4, 44, -31, 25, -60, 6, 115,
   24, -6, 75, 122, 23, 88, -16, -43,
   25, 20, -93, 47, -30, 5, 67, -7,
   80, 10, 105, -20, 65, -2, -10, 56,
   -127, 47, -31, 30, 65, 5, -47, 118,
   127, -41, 16, -16, -12, -44, 106, -19,
   7, -99, -35, -25, 104, -12, 11, 6,
   -40, -39, 1, -77, -37, 22, -15, -19,
   53, 5, -29, -1, -6, 105, -6, -42,
   -61, 109, -16, -79, -53, 61, 15, -63,
   -96, 30, -42, 81, -15, 27, 54, 57,
   29, -55, 22, -54, -67, 9, 6, 16,
   26, 21, -30, 40, 40, -56, -10, -14,
   49, 19, -22, -32, -19, -40, -12, -26,
   36, 28, -41, -23, -25, 34, 30, -57,
   -12, -32, 71, -6, -10, 50, 24, 14,
   15, 56, 10, 64, 4, -8, -8, 5,
   -52, 14, 9, -38, 33, -12, 58, 29,
   120, -105, 78, -25, 68, -31, 112, -39,
   -66, 92, -19, -61, -13, 18, -123, 21,
   -86, -49, -35, -45, -3, -124, 13, -95,
   -17, 27, 34, -36, 37, -25, -69, -71,
   123, 56, 6, 52, 94, 32, 1, 17,
   -84, -77, 93, -51, -80, 6, -21, -39,
   13, 28, -43, -24, 56, -45, -21, 66,
   -41, -72, -26, 44, -3, 26, 37, -65,
   35, -33, -9, -89, 18, -87, -38, 8,
   -90, -70, -43, 98, 90, -55, 2, -14,
   122, -4, -71, 2, -18, -82, -1, -77,
   -74, 2, -2, -29, 25, 39, -55, -19,
   -55, 1, -44, -23, 4, 34, -110, -50,
   -26, -42, 29, 11, 14, -58, 16, 33,
   25, 50, 36, 53, 86, -34, -99, 52,
   53, -50, -37, 67, 19, 29, -2, 25,
   -1, 17, 3, 14, -40, 25, 50, 7,
   1, 11, 50, -31, -23, 46, -10, 12,
   -54, -53, -26, -32, -54, 41, -43, -49,
   0, -10, 6, 23, 70, 18, -72, 19,
   -11, 24, 36, 53, 62, 66, 91, 16,
   61, 70, 25, -60, 29, -29, -39, 4,
   -2, -17, -14, 34, 66, 19, -24, 29,
   113, -21, 26, 12, 22, -39, 118, 56,
   -24, -9, 38, 1, 14, -72, -25, -15,
   66, 26, -13, -13, -37, 25, -88, -22,
   -59, 13, 14, 52, 44, -76, -50, -67,
   6, 45, 53, -59, 54, 78, -2, -65,
   -128, -25, -20, 9, 2, 11, -49, 36,
   12, -5, -10, -44, 58, -71, 33, -27,
   -15, -55, -36, 21, 48, -19, 3, 27,
   -52, -28, -14, 8, -55, 100, 8, -49,
   -12, 5, -13, -16, -51, -25, -13, -24,
   3, -32, 92, 25, -12, -1, -35, -15,
   7, 13, 32, 62, -8, 86, -39, -3,
   12, -35, -7, -12, -11, -39, 14, -11,
   -38, -101, 60, -29, 56, 39, -19, 18,
   52, 6, -16, 40, -50, 18, -48, 25,
   -38, -11, -21, -44, -11, -71, 60, -70,
   -79, 29, 12, -5, 20, 14, 22, -29,
   4, 8, 24, 9, 4, -56, -64, 95,
   -24, -60, 23, -2, -26, 33, -12, -29,
   109, -42, 54, -11, 109, 31, -5, 6,
   24, 28, 61, -32, 49, 29, 34, 43,
   81, -79, -6, 36, -120, -13, 7, 5,
   -41, -4, 10, -12, 90, 21, 43, -14,
   -66, -36, -25, -33, 29, -24, 97, -17,
   30, 3, -34, 19, -63, 89, 15, -23,
   -25, -35, -44, -59, 21, -15, 21, -46,
   15, -49, -6, -6, -42, 1, 20, -26,
   6, -14, -9, 2, -49, -48, -24, -25,
   -18, 27, 25, -7, 1, 14, 18, 7,
   59, -43, -9, -4, -14, 51, -5, 22,
   52, 3, 41, -18, -44, 18, -13, -10,
   -26, -6, 40, -31, -39, -6, 29, -16,
   -33, 49, 8, 16, 9, 14, -61, -61,
   11, 17, -24, 25, -8, -13, -41, -3,
   4, 56, 17, -6, 58, 48, -84, -55,
   25, 30, 53, -47, -19, -93, -8, -18,
   -3, 29, -3, -75, -54, -23, 5, -14,
   -48, 67, -26, 18, -34, 16, -21, 62,
   -49, -29, -51, 48, 9, -33, 23, 68,
   29, 122, -6, -45, 27, 14, -58, 25,
   33, 36, -17, -75, 48, -35, 1, -42,
   12, -48, 39, 51, -55, -53, 23, 49,
   -108, 6, -64, 35, -10, -17, -111, -7,
   -7, 23, -2, 18, -5, 60, 30, 23,
   -33, 2, 0, -49, -26, -9, -9, 21,
   -9, 48, -20, -1, -72, 17, -12, -32,
   20, -16, 13, -32, -53, 7, 35, 70,
   14, -39, 20, 38, -37, 32, 98, 8,
   54, -8, -10, -27, -91, 8, -6, 6,
   -52, -57, 15, -48, -26, -24, 13, -122,
   -126, 8, 21, -111, -25, -126, -99, 71,
   -77, -122, -24, 53, 49, 27, 13, 62,
   -80, -124, 116, -28, -99, 3, 31, -111,
   104, 38, 44, 1, 27, -14, 116, 9,
   -124, 58, 10, -60, -18, -11, -4, 8,
   73, 1, 14, -7, -31, 41, 43, -47,
   -74, 34, -91, 24, 21, 66, 68, -86,
   56, 71, -15, -38, 34, -16, 26, 126,
   -75, 26, 30, 14, -30, -79, -126, 77,
   -103, -21, -121, 127, 24, -122, 27, -90,
   -115, 88, -10, 17, 100, 33, -15, -21,
   105, -32, 68, -13, -65, -4, -12, 1,
   26, -28, 0, -38, 59, -66, 16, 98,
   -20, 66, 11, 13, 45, 4, -55, -1,
   19, 19, -63, 111, -4, 9, -12, 29,
   -21, 31, 45, -27, -6, 2, 68, -7,
   -18, -5, 16, 10, 11, -43, -6, -20,
   62, 58, -28, 88, -85, 10, -66, 44,
   -11, 54, -38, -38, -91, 75, -21, -29,
   5, 71, -106, 76, 30, -16, 89, -21,
   -2, 36, -18, -26, 79, 51, 12, -71,
   32, 11, -84, -55, 79, 23, 32, 39,
   -11, -19, 89, 122, 78, -25, 124, -25,
   1, -26, -90, 27, 15, 8, 82, 28,
   10, 24, -5, 19, -7, -19, 42, 56,
   -22, -18, 68, -51, -58, -14, -40, 11,
   -14, 23, -13, 14, -52, -38, 11, 16,
   -60, 9, 17, 20, 24, 6, -19, -44,
   -73, 10, 1, 46, 19, 44, -13, 16,
   26, -17, -57, 29, 0, 67, 55, -10,
   14, -28, 13, -40, 0, -74, -39, 20,
   -15, -3, 32, -15, -29, -6, 8, -28,
   -32, -49, 7, -4, 36, -94, 52, -48,
   -5, -25, 23, -57, 84, -5, -18, -17,
   2, -67, -14, 4, -122, 12, -14, 75,
   -45, 1, 35, 17, 122, 8, 22, -35,
   -13, -18, -24, -36, -23, 26, 18, 55,
   65, -40, 72, 62, 124, 48, -7, 11,
   -72, 11, -10, 55, -25, -14, 12, -59,
   9, -26, 35, 3, -8, -51, -32, 43,
   -52, 17, 15, 7, -9, -33, -42, 4,
   32, 9, -58, -26, 21, -26, -80, 51,
   3, -55, -9, -29, -24, -3, -71, -25,
   -15, 3, -34, 60, -30, -33, -2, -45,
   43, -40, 45, 50, 35, 33, 31, -17,
   -47, -33, 7, -25, 24, -8, -2, -34,
   -35, -31, -52, 18, -31, -19, -40, -27,
   3, 13, -26, 30, -44, 23, 32, 1,
   0, -16, -3, 5, 3, 54, -4, -9,
   41, -15, 20, 26, 14, 13, 30, 1,
   -7, -9, 0, 31, 33, 10, -62, -4,
   3, 0, -7, -15, 65, 0, -34, -9,
   36, -26, -50, 36, 5, -17, -5, -3,
   -2, 4, -25, 24, 62, -31, -42, -46,
   -62, 10, 1, -23, 33, 4, -55, 34,
   6, -13, -59, -24, 26, 28, 1, 13,
   24, -17, -19, -27, 20, -14, -17, 7,
   26, -50, 6, -17, -42, 14, -19, -65,
   -53, 11, -30, -26, -2, 12, -31, 0,
   57, 34, -69, 39, -11, -32, -27, -21,
   -35, 27, 31, -2, 18, -24, -48, 7,
   56, -33, -14, -10, -76, 2, 60, 26,
   18, -33, -22, -5, -3, -40, -20, 25,
   33, -8, -22, -48, 25, 45, -34, 20,
   -7, 15, 14, -8, -33, 2, -76, -43,
   -53, 2, 21, 7, 21, 26, -26, 34,
   -22, 32, -32, 20, -22, 8, 4, -34,
   -1, -14, 20, 30, 3, 28, -21, -21,
   40, 86, 26, -15, 14, 31, -1, 14,
   -14, 9, 6, 13, 27, -18, -13, -33,
   1, 12, -31, 10, -76, 0, -20, 17,
   28, -14, -52, -1, 56, -2, -24, 16,
   -23, -29, 3, -32, 14, -17, -59, -23,
   7, -41, 39, -73, 5, -12, -60, 37,
   -32, 32, -59, -19, 52, 11, -60, -32,
   -34, 33, 37, 53, 16, 31, 14, 11,
   37, 22, 69, -52, 73, -37, 12, -48,
   -18, 23, -5, 13, 12, 12, 16, 18,
   28, -44, 16, 10, 41, 19, -5, 4,
   -10, 32, -40, -12, 18, 11, -20, -7,
   6, -15, 25, -11, 31, -3, 37, -8,
   10, -16, 35, 51, 2, 14, -22, 24,
   -10, -41, -32, -22, 12, -12, -13, 30,
   -34, 13, 1, 17, -43, 0, 37, 16,
   -38, -8, 31, 5, -42, -22, 42, -3,
   19, -8, 27, -15, -12, 30, 21, -12,
   45, 8, -1, 27, -36, 13, 54, 11,
   -9, 6, 12, 7, 28, -50, -40, -13,
   -7, 1, 26, 6, 12, -1, -6, 23,
   -7, -77, -17, -24, -6, 23, -32, -5,
   -21, -6, -12, -12, 2, -100, 36, -60,
   -45, 2, -14, -74, 23, 63, 29, -30,
   11, 24, 73, 44, -29, 0, -48, -21,
   37, -31, -50, 36, 23, -47, 44, -21,
   21, -24, 8, -18, -64, 45, -64, -5,
   41, -7, 43, 14, -28, -10, 23, 50,
   -30, -5, -31, 19, 50, -5, 16, -60,
   40, 7, 38, -13, 26, -33, -31, -25,
   -16, -30, 57, 13, 34, -6, -30, -2,
   -39, -5, 4, 9, -28, -70, -27, 73,
   46, 17, -10, 32, -30, 52, 14, 9,
   -17, 20, -30, 25, -8, 16, 25, 0,
   27, -2, -15, 16, 1, -26, 4, 3,
   27, -23, 53, -13, 28, 21, 13, 2,
   -14, -9, -3, -5, -5, 21, 12, 11,
   20, 18, 16, 10, -45, -23, -38, 25,
   21, -3, 26, 18, -13, -26, -27, 8,
   -86, 32, 25, 1, 20, 46, -30, -78,
   -14, 54, 10, -38, 72, -27, 15, -4,
   55, 24, -3, -39, 13, -16, 19, 33,
   8, 88, 107, -4, 51, 3, -44, 8,
   -33, 35, 21, 16, 79, -33, -8, -41,
   -2, -5, 13, 11, -33, 2, 7, 10,
   -55, -26, 27, 5, -24, 15, 3, 0,
   -38, -28, 17, -5, 44, 34, 1, -18,
   -5, 22, 3, -14, 12, 20, -13, -15,
   -24, 25, 25, 2, -12, 64, 23, 5,
   -15, 1, 32, 31, -5, -16, -52, -19,
   24, -25, -38, 32, -25, -23, -9, -85,
   -1, -6, 12, -13, -7, -17, -38, -8,
   -1, -16, 14, -40, -27, -13, -31, 9,
   -6, -61, -2, 16, -15, -17, 15, 14,
   -48, 52, -9, -4, -3, 35, -10, -24,
   -21, 9, 23, 23, -26, 5, 8, -19,
   -7, -22, 14, 7, -46, -43, 1, -12,
   41, 48, -54, 61, 34, -14, -19, 6,
   -37, 22, 10, 21, 34, -76, 29, 41,
   35, 11, 107, -1, 35, 26, 39, 10,
   24, 32, 36, 38, -5, 31, -15, -23,
   -23, 6, -5, 91, 0, -45, 11, -16,
   48, 19, 3, 66, -11, -80, -24, 8,
   24, -1, -22, 22, 37, 7, -45, 2,
   -37, 34, 24, -25, -9, -106, -43, 17,
   -26, 1, -85, -72, -34, -5, 46, 31,
   84, -40, -51, -45, 24, 30, -36, 43,
   39, -17, 4, 18, 4, -19, -13, 9,
   8, -33, -20, -35, 5, -38, 3, 69,
   53, 12, 8, -42, 2, -33, -30, 0,
   -42, 25, 19, 47, 17, 13, -25, -16,
   20, -22, 16, -33, -12, -17, 20, 3,
   -20, 13, -24, 16, 16, 13, -33, -11,
   -30, 21, -3, -4, 7, -50, -57, -32,
   -36, 33, 19, -3, 30, -12, -10, -72,
   -18, -58, -28, 15, -53, 0, 34, 77,
   -5, -31, 15, -18, 35, -30, 49, -62,
   -21, -74, -17, 0, -27, 38, 14, -111,
   -49, 2, 60, -44, -31, -33, -43, -42,
   119, -33, -20, 1, -48, 16, -39, -72,
   74, 32, 6, -11, -109, 71, -52, -50,
   20, -19, 37, -21, -67, -37, 52, 53,
   8, -47, 43, -26, 47, -1, -8, -7,
   30, -36, 63, -21, -11, -74, 27, -40,
   1, -74, 52, 66, -1, 19, 16, 45,
   54, -12, 12, -50, 27, -27, -36, -20,
   80, 45, -111, -60, 56, -29, -69, -47,
   25, 17, 35, -10, -2, 16, 5, 11,
   19, 20, 8, -30, 29, 37, 4, 29,
   -15, -20, -7, -4, 16, -9, 1, 5,
   -40, 0, -18, 36, 51, -15, 10, 46,
   -48, 6, -30, 25, -53, 4, 11, -19,
   30, -42, -3, -14, 50, -10, 20, 26,
   -28, 2, 70, -16, -43, -47, -94, -43,
   -65, -16, -15, -69, 41, -53, 11, -29,
   51, 31, 13, -82, 64, 5, 89, 51,
   -18, 7, -31, 52, 45, -72, -15, -14,
   -61, 21, -8, -60, 20, 98, -50, 20,
   -120, 18, -74, 127, 62, 32, 98, -35,
   75, 37, -38, 8, 11, -90, 56, 24,
   -63, 0, -45, -2, -19, -5, -12, -12,
   0, 14, -60, 45, 23, 19, -15, 47,
   -69, 58, 8, -16, -27, -66, -13, 38,
   -122, -38, 1, -16, -29, 97, 36, -38,
   -33, 23, -4, 90, -12, 36, 22, -62,
   0, -46, -31, -22, -34, -3, -9, -31,
   15, -34, 57, -17, 6, 6, -45, -12,
   -53, 1, 32, 62, -47, -26, -26, 28,
   3, -63, 3, 9, 8, -21, -13, -39,
   -7, -19, 12, -44, 15, -27, -4, -9,
   20, -14, 10, 10, 0, 9, -79, 23,
   -21, 39, 34, -10, 37, -2, 12, 26,
   -60, 23, -19, -11, 2, -43, -7, -74,
   20, 0, -8, -42, -41, 38, 6, -57,
   55, -50, 66, 11, 35, 6, -51, -48,
   -18, 39, -19, -10, -20, 22, -34, 20,
   15, 13, 4, -67, -28, -4, -10, -36,
   -5, -38, -12, -1, 8, 34, 24, -10,
   -38, -12, -12, -58, 12, 26, -5, 21,
   -12, 34, 32, -34, 33, -21, -41, 11,
   -25, 42, -43, -22, 22, 72, 45, 11,
   14, -47, 24, 42, -3, 0, 33, 17,
   12, 3, 30, -58, -17, -5, -4, -23,
   -2, -24, -19, -22, -50, 6, -43, 16,
   16, 7, 36, -3, 25, 17, -54, -46,
   -15, -21, -19, 43, -29, 9, -30, -10,
   20, 5, -45, -10, -47, 18, 9, -37,
   -2, -12, -24, 4, 7, -5, 7, 6,
   18, -17, 32, 9, -12, 12, -49, 5,
   21, -29, 1, -25, -8, -7, 0, -24,
   3, 28, 28, -30, 19, 18, -43, -51,
   9, 25, 49, 5, 16, -32, 40, 32,
   -9, 25, -14, -9, 19, 11, 14, 39,
   -34, -14, 14, -36, 28, -1, -23, 17,
   41, 0, 1, 16, 11, 6, 40, 8,
   41, 36, -67, -7, 1, -38, -46, 21,
   32, 15, -30, -15, 17, -14, -27, -55,
   4, 6, -1, 4, 29, 13, -1, 44,
   -13, 26, 0, -44, 13, -33, -19, 8,
   32, 4, -32, 4, 38, 31, -11, 6,
   9, 13, 46, 14, -12, -11, 0, 21,
   13, -17, 13, -29, -26, -9, -34, -11,
   27, 1, 6, 34, 26, -14, 7, 29,
   -17, -28, 13, -9, 27, -25, 2, 1,
   -13, -5, -11, 28, 21, -5, 14, -38,
   -23, -1, 27, 28, -26, 14, -6, 37,
   13, -27, 20, 6, -1, -25, 1, 22,
   -28, 109, -59, -21, -60, 42, 26, 41,
   28, 55, 6, 15, 76, 36, -54, 17,
   35, -11, -55, 79, 37, -15, 11, 53,
   17, 19, 112, 29, 41, -2, 24, 61,
   -43, 11, -12, -34, 13, 29, 9, -52,
   27, 31, -26, -30, -40, 26, 16, -21,
   15, -65, 3, 0, 11, 9, 6, 6,
   -2, 40, -16, 27, 25, 39, -22, -36,
   18, -44, -24, 21, 43, -19, -5, -26,
   67, -11, 35, -55, -2, 35, 30, 0,
   32, -23, 15, 17, 12, 25, 5, -22,
   71, -26, -109, -86, 17, -42, -43, -11,
   44, -49, 5, 28, -20, -17, 31, 30,
   -12, -4, 1, 14, -8, 14, 27, -60,
   -19, 37, 3, -34, 26, 26, -30, -8,
   39, 46, -11, 12, -34, 15, -51, 32,
   35, 67, -31, -46, -1, -14, -31, 25,
   12, -4, -10, 6, -40, -25, 4, 8,
   60, 46, 26, -24, -37, -4, 15, -4,
   44, 18, 80, 44, -1, 25, -16, 8,
   -8, 91, -21, 25, -2, -42, -26, -2,
   54, 5, -30, -3, 57, 8, -23, -52,
   30, 73, -11, -33, 79, -51, 78, -4,
   90, 25, -2, -31, 20, 9, -4, -39,
   -82, -1, -16, -27, -50, 21, -47, -15,
   30, 4, -14, -34, -42, -22, -24, -24,
   -41, -40, 20, 11, -24, -86, -7, 71,
   5, 43, 28, 20, -29, -4, 67, 79,
   23, -57, 59, -43, 36, -74, 25, -89,
   -2, -16, -24, 2, 6, 28, 11, -7,
   -27, 53, -12, -9, -14, -19, 42, -5,
   40, 1, 14, 7, -35, -4, -11, 27,
   4, -2, -15, 23, -21, 24, 4, -20,
   -31, 6, -26, 27, 7, -15, 46, -7,
   7, 8, -25, -5, -34, -2, 15, -49,
   0, -6, -2, 4, 4, 28, -5, -30,
   -109, 50, -13, 9, -56, 95, 8, 33,
   17, 1, 56, 24, 73, -30, 23, -11,
   -79, -83, 77, -31, -40, -125, -21, -13,
   34, -3, 57, 19, 99, -59, 82, -14,
   -11, 9, 58, -22, 47, -53, -71, -32,
   -14, 84, 18, -3, -28, 11, -69, 36,
   81, 49, 45, -12, 14, 32, 82, 8,
   -13, 41, -4, -71, -48, -23, -3, -8,
   45, 28, -39, -46, 59, -20, 52, 20,
   30, -47, -20, -33, 37, 15, -29, -46,
   68, -41, -25, 93, 24, -46, -59, 12,
   14, 31, 9, -55, 66, -54, -7, -31,
   14, 44, -5, 25, 4, -20, -73, -29,
   35, 23, -45, 36, 28, 65, -41, -11,
   -12, -10, 8, 6, -2, -18, 11, -22,
   5, -22, 0, -28, -7, 23, 18, -2,
   -9, 35, -12, -4, 27, -15, 52, -2,
   6, 43, -8, 3, 21, 18, -72, -63,
   20, 13, 41, 7, -57, -57, 55, 0,
   10, 65, 33, 65, 46, -2, 57, -36,
   -49, 41, -65, 28, 2, 64, 94, -46,
   43, 56, 30, -40, 51, 23, -7, 46,
   121, 13, -86, -24, 51, 28, 8, -26,
   124, 3, 2, -25, 30, -52, 13, -61,
   -85, -90, 7, 1, -62, 67, 23, -25,
   -74, -18, -71, 79, 39, 23, -24, 20,
   -44, 36, 67, 18, 70, 3, 25, -13,
   0, 23, 16, 34, -10, 55, -91, 25,
   8, -10, -82, 61, -97, 7, -5, -60,
   33, 25, 90, 1, 6, 14, -9, 27,
   1, -30, -49, 52, 52, 26, -12, -1,
   -23, -21, -32, 10, 27, -1, 1, 12,
   -14, -10, 6, 12, -21, -8, -11, 54,
   -35, 27, 34, 31, 6, 36, -24, 22,
   34, -1, 1, 14, -25, 25, -2, 19,
   0, -40, 23, 21, -27, 0, 11, -36,
   -8, 16, -7, 40, -56, -13, -28, 9,
   -42, -10, -20, 26, 2, -32, 32, 2,
   -61, 8, 0, -18, -15, 33, 49, -21,
   0, -3, -15, 6, -60, -4, -37, 1,
   -16, -16, -39, 12, 7, 2, 1, 9,
   -1, 7, 19, 19, 29, 51, -11, 5,
   -11, 26, -26, 21, -26, 7, 4, 9,
   3, -29, 1, -21, -10, 21, -5, -26,
   35, 4, 55, 9, -11, 11, -1, -24,
   -2, 48, -14, -21, 45, 34, 11, -38,
   -23, 25, -3, -43, 7, -20, -78, -29,
   -21, -17, -22, -4, 17, -30, -35, -12,
   -31, -26, -30, 12, -38, 5, 23, 24,
   -16, -25, 1, -12, -15, 11, -23, -45,
   -28, 4, 9, 31, 35, 29, 16, 25,
   -18, -18, -18, 8, -7, 39, 39, -15,
   -28, -34, -33, 9, -36, -24, 6, 22,
   -1, -23, 19, 8, -16, 16, 17, 28,
   -31, 51, -67, 6, 52, -72, -13, 43,
   120, 18, -15, 58, -30, -60, 41, -12,
   26, -65, -28, 48, -4, 25, -87, -12,
   18, -61, -40, -11, -30, -39, 24, 24,
   -31, -40, 42, -49, -120, 24, -5, -34,
   -94, 56, -16, 5, -42, 75, -120, 9,
   -21, -35, -6, -14, -5, 18, -2, -22,
   -17, -13, 25, -5, -5, -56, 6, 1,
   -2, 10, 7, -11, -26, -12, 51, -9,
   -12, -16, 12, 0, -27, -5, 13, 17,
   58, 5, 15, 16, 11, 69, 4, -17,
   34, 28, 68, -57, 39, 0, -19, -42,
   36, 71, 27, 38, 24, 44, 54, 3,
   1, -24, 16, -6, 19, 2, 37, -2,
   45, -44, -29, -49, -42, -23, -9, -6,
   -10, 26, -20, -31, 25, 16, 26, -27,
   30, 33, -19, 24, -34, -32, -25, 24,
   -9, 35, 18, -7, 41, -24, 13, -51,
   -29, 27, -14, -60, 75, 73, -14, 3,
   37, -19, -29, -46, -43, 43, 45, -19,
   -5, -29, -33, 58, -33, 72, -35, -17,
   -45, -31, -3, -28, 11, -3, 0, -4,
   -35, -28, 86, -14, -13, -17, 11, 74,
   -42, 17, -27, 62, -12, 27, -2, 62,
   -2, 16, 25, 46, 38, 33, 5, -22,
   33, 5, 25, -12, -44, 7, 32, -17,
   -5, -14, 92, 31, -28, 23, -36, 29,
   -14, 41, 24, 5, 40, -8, -17, -60,
   48, 25, -40, -62, -51, 38, 5, -26,
   22, -24, -18, -10, 56, -51, -51, -20,
   6, 28, -16, -21, -35, -22, -25, 12,
   8, -15, 2, 25, -23, 21, -34, -17,
   -5, -40, -38, -11, 11, -7, -30, 10,
   2, -47, -17, -19, -10, 35, 11, 21,
   -23, -20, -55, -20, -1, -34, -18, -15,
   -32, -1, 26, -11, 23, 3, -13, 6,
   -42, -2, -5, -61, 19, 50, 9, 10,
   -11, -18, -14, -11, 4, -40, 64, 32,
   -118, 15, 28, -24, 6, 17, -65, 5,
   58, -18, 16, -10, 41, 65, -57, 8,
   -1, -10, -11, 21, 21, 39, -41, -53,
   55, 2, -31, 35, 64, 25, 42, 55,
   -13, -6, 36, -41, -49, 19, 37, -16,
   -52, 11, -21, 5, -4, -32, 45, 15,
   -20, -6, 99, -13, 23, 13, -39, -14,
   -15, -9, 33, -12, -19, -15, -18, 22,
   27, 0, -26, -19, -14, -14, 5, -8,
   23, -6, 22, 63, -21, 32, -11, -27,
   9, 40, -24, -14, -6, -31, 58, -7,
   -8, -29, 6, -39, -17, 34, -7, -27,
   10, -17, -4, 22, 14, 38, 37, -15,
   4, 65, -13, 21, -8, 23, 51, -43,
   19, 40, 1, 10, -32, 12, 8, -24,
   25, -25, -5, -11, -24, 7, -27, 5,
   18, 25, 26, -60, -36, -69, 23, 75,
   2, 22, 24, -2, -13, -6, -16, -20,
   20, 10, 22, 20, 8, 68, -36, 15,
   -32, 16, 42, 0, 25, -7, 73, 17,
   6, -3, 2, -11, 16, -38, 26, 40,
   -10, -14, 35, 48, 26, 1, 30, -28,
   -6, 14, -16, -31, 6, -26, -38, -48,
   30, 44, -22, -5, 12, 43, -16, -31,
   -30, 3, -16, 18, 0, -42, -40, 33,
   -35, -33, 44, 42, 22, 22, 45, 14,
   8, -18, -25, -6, -33, 53, -8, 2,
   -31, 38, -10, 24, -6, 29, 22, -9,
   -24, 25, 2, -33, -26, 32, -3, -17,
   0, 14, -24, -16, -6, 17, 23, 14,
   -60, 8, -2, 1, 28, -29, -9, -32,
   25, 12, -39, 29, 32, 10, 8, -6,
   -24, -23, -19, -12, 7, 27, 2, -6,
   23, -30, 22, 6, 60, -7, -8, 0,
   1, 9, 6, 47, -3, -25, -18, 3,
   -19, 4, 14, -33, 4, -57, -29, -20,
   16, 1, -27, -21, -5, 15, -14, -3,
   4, -13, -33, 5, 20, -1, 3, 0,
   -6, -43, 35, 12, 5, -37, -34, -22,
   -1, -45, 24, 25, 9, 3, 34, 9,
   45, 12, -4, 16, 26, -6, -3, -11,
   -2, 4, 10, -25, -2, -19, -36, -18,
   18, -12, 18, 43, -63, -35, 10, 41,
   -11, 24, -30, 23, 42, -11, -50, -35,
   1, 0, 24, 30, 43, -9, 0, 22,
   -38, 17, 0, 61, -5, 37, -17, -47,
   -27, -18, -20, 23, -2, 53, -36, -39,
   27, -33, 39, -7, -23, -25, -7, 17,
   -6, -34, -19, -16, -55, 26, 6, -2,
   -6, 64, -7, -15, 24, 15, 43, -8,
   -12, 22, 14, 26, 15, 26, -39, -12,
   -19, 16, 18, -15, -15, -2, 22, -12,
   -19, -12, -26, 14, -26, 50, 12, -16,
   17, 48, 24, -43, -50, 0, 9, -11,
   -44, -32, 38, 3, -7, -27, 8, 48,
   -23, -10, 39, -32, 5, -44, 24, -8,
   10, 33, -74, 43, -3, 25, 57, 64,
   12, 31, 42, 16, 17, -32, -13, 19,
   -2, 51, 24, -1, -14, -27, -10, -2,
   -6, -51, -6, -2, 4, 1, -5, 8,
   -44, 38, -10, -12, 56, -36, 11, 38,
   20, 27, 36, 49, 24, 30, 16, -27,
   -4, -2, -37, 21, -30, -24, 16, -30,
   63, -35, 3, -8, -37, -11, 10, -2,
   -19, -25, 4, -3, -21, -21, -5, -7,
   -25, -17, 3, 6, -25, -8, -5, -10,
   -37, -14, -11, 11, 47, 17, -16, 28,
   -9, 5, 28, 19, 16, 30, 41, -23,
   -26, -25, -44, -16, -8, 20, -5, -30,
   -25, -52, 4, -14, 43, 19, -1, 35,
   1, -51, -14, -10, 106, 9, -54, 48,
   15, 35, -62, 18, 50, -80, -47, 4,
   -14, 35, 9, -35, 16, -25, 48, 18,
   12, -5, -43, -25, -45, 2, -15, 24,
   58, -4, -57, -8, -26, -54, -73, -2,
   -33, 32, -30, -60, -46, 9, -33, -36,
   -30, 0, 28, 27, 5, 15, 56, 28,
   4, 10, 27, 42, 58, 25, -43, 53,
   10, 27, 11, 1, 46, -43, 16, -76,
   -26, -70, 67, 40, 33, -35, -60, 16,
   38, 9, -70, 0, 0, 6, -17, 6,
   113, -23, 44, 33, 8, 55, -13, -58,
   -44, 38, 25, 5, 25, 20, -19, 2,
   -45, 22, -18, 59, 32, -13, -8, -2,
   -45, -29, -30, 36, 60, 38, -4, 17,
   11, 17, 48, -23, -29, 30, 0, 27,
   13, 47, 2, 12, 2, 4, 44, -8,
   -29, 0, 3, -32, 9, 26, 27, -28,
   -93, -12, -99, -53, 95, -50, 9, -60,
   -25, -28, 3, -18, 16, -92, 53, 5,
   8, -69, 38, -20, -21, -8, -113, -40,
   -44, 36, -80, -5, -86, -6, -25, 4,
   -38, -20, 11, -52, -95, -45, -52, 24,
   -31, 8, -7, -5, -25, 100, -40, 3,
   21, 19, 47, -15, 32, 31, 37, 15,
   -65, 18, 16, -45, 2, -76, 61, -18,
   41, -52, -38, 31, 12, 2, 7, -29,
   39, 28, -30, -30, -50, 21, -10, 8,
   37, 25, 8, 54, 15, 4, 65, 3,
   33, -26, -46, -12, 58, -14, -9, -43,
   41, 49, -1, -30, 4, -18, -62, -27,
   -13, -25, 17, -9, 25, 40, -4, 13,
   -6, -11, -76, 17, -33, -14, 22, 37,
   56, -8, 47, -28, 35, -40, 33, -12,
   21, -42, -25, -10, 12, 2, 15, -14,
   -42, 39, 41, -32, 73, 11, 5, -23,
   -45, -22, -5, -5, -3, 14, 1, 7,
   11, 9, 4, 13, 22, -10, 2, 4,
   0, -21, 6, 9, 10, -1, -20, 3,
   0, 4, 57, -1, 8, -32, 6, 10,
   -13, -9, 12, 11, -24, -21, 59, 2,
   17, 16, -28, -7, -47, -9, -28, 20,
   -14, -39, 18, -7, 1, 16, -15, -15,
   -3, 13, -18, 34, -14, -23, -1, -15,
   -4, 34, -12, 15, 9, 8, 16, 6,
   11, 13, -2, -14, 22, 1, -1, 10,
   -50, 10, -5, 18, -9, -10, 17, 21,
   15, 5, -4, 53, 3, -10, 17, 6,
   12, 14, 0, 13, 9, -8, -17, 2,
   1, 10, -16, 11, 11, 9, 10, -2,
   8, -22, 8, -13, 15, 3, 6, -4,
   9, 7, -8, -3, 10, -1, 4, 16,
   -6, 27, -5, 10, -11, -8, -7, -4,
   -12, 12, 8, 4, 20, -11, -4, -2,
   76, -17, -5, 1, -51, -23, -24, -4,
   23, -15, -3, 38, -53, -12, 1, -5,
   -17, -21, 12, 9, 21, 33, -2, -36,
   32, 24, -33, -3, -22, 20, 12, 10,
   25, 36, 32, -10, -19, 41, -8, -7,
   -7, 11, 62, -21, -28, -23, -13, -5,
   -37, 15, 6, 2, -38, 2, 33, 5,
   24, -18, -24, 31, 24, 19, 17, 62,
   -1, -54, 11, 22, -31, 17, -33, -40,
   9, -18, -42, 36, 26, -15, 10, 25,
   -2, 41, 52, -16, -24, -1, -26, -45,
   -31, -41, 4, -33, 2, -40, 83, 13,
   16, 29, 41, -22, -18, -19, 38, 10,
   -6, 34, -18, -16, -19, -22, -25, 5,
   -39, -25, -36, 15, -25, 28, -11, 17,
   21, 20, 18, -3, 25, 39, -11, -32,
   4, 38, -22, 13, -1, -22, 2, -8,
   -10, 5, -13, -13, 2, -29, 24, -13,
   -5, 32, -18, 0, -40, 1, -31, 17,
   43, -42, -29, -37, -59, 2, -59, -2,
   -20, -4, 44, -1, 25, 110, 6, -13,
   16, 15, -16, 37, -35, 41, -49, 95,
   38, 41, 21, 7, 19, 31, 37, -29,
   -37, 11, 0, -6, 33, -19, 18, 13,
   13, -20, -25, 112, -54, -50, -18, -43,
   53, 7, -14, 33, 12, -46, 17, 64,
   5, 65, -108, -15, 0, 11, -10, 18,
   22, -77, 31, -21, 24, 8, 14, 51,
   16, 5, 86, -17, -16, -38, 5, 19,
   -16, -26, -1, 20, 5, -91, -21, -14,
   -24, 29, 0, 8, 6, -14, 60, -18,
   3, 35, -3, -24, 57, -35, 30, -16,
   -47, 2, 4, 45, -1, 47, -20, -24,
   0, 16, 34, 26, 19, 18, 20, 44,
   44, 23, -12, -25, 10, -46, -9, -45,
   3, -11, 7, 39, -22, -29, -31, -1,
   12, -6, 48, -8, 20, 28, 12, 16,
   -29, 11, 43, -14, -38, -42, -103, 14,
   -42, 21, -16, -19, -20, -65, -33, -33,
   -14, -37, 21, 0, 47, -37, 19, -82,
   -49, -26, 23, -18, -4, 41, 2, -11,
   25, 5, 41, -14, -22, -51, 38, 46,
   12, 25, 44, -46, -18, 51, 35, -18,
   49, -13, 6, 22, -27, 22, -62, -1,
   26, -34, 51, -4, 17, -42, 69, 26,
   -26, -41, 87, -31, -14, 53, 35, 11,
   23, -37, 5, -35, 24, -30, -38, -22,
   -4, 9, 31, -89, -69, 47, 17, -4,
   -45, 27, -28, -4, 27, -18, -54, -54,
   -5, -46, 23, 20, 36, -18, -19, -11,
   20, -15, 37, 4, -3, -9, 10, 4,
   -7, -8, -28, -5, -6, 18, 68, -34,
   21, -12, -36, -19, -12, -7, -1, -19,
   -39, 10, -19, -31, -44, -11, -22, 36,
   -69, 8, -12, -78, 40, -11, -3, -17,
   53, 52, 22, 31, -3, -8, -6, 7,
   24, 47, 55, -23, -21, -8, -31, -2,
   33, -82, 58, 14, 23, 44, -33, 65,
   31, 5, 28, -34, -1, -9, -47, 16,
   60, -17, -57, 56, -84, 48, -22, 28,
   -9, -5, 28, -39, 63, 37, -1, 12,
   73, -49, 42, -23, -25, -47, 117, -120,
   53, -20, 47, 28, -53, -30, 2, -3,
   -73, 6, 27, -41, -8, -20, 54, 63,
   -22, -31, -21, -61, 27, 2, -9, 22,
   116, 35, -22, -52, -77, 39, 49, 15,
   8, -10, 26, -21, 37, -40, 30, -71,
   5, -56, 54, 4, -33, -1, 49, -13,
   20, 24, 28, -4, -69, 31, -10, 28,
   -2, -1, -70, -23, -18, -4, -33, -7,
   -9, -45, 2, 40, 9, -24, -10, -3,
   -9, 38, -35, 72, 7, -22, 1, -11,
   19, -33, -28, 26, -22, -58, -40, 19,
   1, -23, 2, 7, 24, -36, 66, -4,
   -1, 29, 22, 2, -61, 42, 11, -125,
   68, -42, 27, -1, 27, 44, 62, -79,
   35, -26, -80, -2, 6, 13, 86, 49,
   -9, -29, -10, 126, -54, 71, -4, -26,
   -80, -20, 56, 9, -27, -68, 2, -43,
   48, -36, 38, -22, -11, -62, 56, -31,
   -51, 52, -61, -44, 61, -70, -122, -67,
   -93, 11, -50, 64, 15, 0, -33, -61,
   -23, -34, -12, 30, -97, -16, -47, 38,
   -41, 43, 0, -27, 5, -16, 28, -71,
   -43, 3, -5, -8, 17, 20, 23, -11,
   -40, 29, 12, -54, 12, 51, 25, -15,
   -24, 1, -49, -26, -52, -13, 6, 41,
   -11, 7, -28, -29, 16, 41, -75, 20,
   -21, 8, -55, -17, 55, -11, 29, 32,
   -18, -8, -2, -70, 15, -9, -17, -23,
   -54, -87, 95, 127, -125, 17, -118, -127,
   61, -77, -12, 6, -42, -30, -114, 111,
   -83, 69, -102, -45, -125, -14, 110, -53,
   -2, -15, -17, -25, 42, 71, 97, 51,
   127, -74, -51, 116, 9, -63, -80, -32,
   99, 41, -6, 15, 57, 47, -19, 3,
   -125, -26, 82, -127, -101, 126, 95, 121,
   123, 121, 123, -88, -78, 125, -26, 104,
   -126, 3, 125, 17, 94, 21, -123, -73,
   127, 83, 126, 127, -91, 72, -40, -125,
   -20, -16, 105, -59, 64, -55, 79, -64,
   85, -35, -22, 13, -112, -38, 107, 28,
   -77, 26, -83, 109, 115, 126, -25, 127,
   -120, -8, 38, 106, 13, 127, 126, 7,
   15, 53, 62, -85, 88, 38, -7, -116,
   103, 126, 111, -22, -38, -74, 27, -76,
   35, 54, -100, 75, 33, 24, 82, -56,
   30, -127, -68, 126, -46, -83, 62, 5,
   11, -3, -1, 60, -115, -61, -9, -116,
   92, -73, 50, 32, -34, 91, 111, 125,
   -42, 121, -122, 70, 127, -35, -10, 74,
   10, 72, -57, -78, 53, 34, -24, 4,
   62, -33, -92, 39, 9, 16, 117, -27,
   112, 12, 15, -83, 82, -104, 6, 81,
   -31, 64, 1, 124, 3, -121, -128, -41,
   125, -98, 127, -32, 6, 7, -84, 53,
   -66, 9, -112, 62, -12, -111, -69, -127,
   126, 105, 64, 21, -41, -101, 127, -17,
   66, 47, -119, -88, -128, -9, -49, 79,
   -88, -31, 37, 113, -37, -51, -45, -46,
   -66, -81, -112, 116, 36, -30, -128, 124,
   -126, -70, 22, -46, -85, 125, 127, -68,
   64, -90, -10, 99, 72, -124, 76, 48,
   71, 114, 103, -2, 5, 5, 19, 17,
   13, 9, -53, 45, -3, -45, 123, 127,
   -18, -87, 12, -126, 50, 24, 115, 125,
   105, -128, -102, 72, -19, 124, -88, -77,
   127, -5, -21, -121, -40, -117, 53, 127,
   -70, -49, 120, -119, 48, -60, 76, 8,
   60, 56, 125, -47, -37, 71, -4, 98,
   -67, -87, -29, 5, 38, -64, -75, 21,
   51, 37, -90, 39, 70, -47, 31, 124,
   -27, -7, 49, -126, -20, 12, -63, -125,
   115, -42, 126, 42, -82, 122, 1, 39,
   25, 16, 112, 68, 16, 100, 9, -104,
   29, 35, 26, -124, 1, -63, 69, -125,
   123, -72, 60, 66, 69, -24, -106, 19,
   127, -127, -15, -58, -91, -100, 33, -128,
   36, 19, -12, -40, 125, -2, 45, -127,
   -27, -43, 64, -29, -36, 124, 17, -84,
   34, 65, -60, 53, -98, 58, 122, -18,
   70, 85, 61, -18, -73, -28, 93, -2,
   86, 101, -14, 72, 24, -39, 13, 75,
   53, 45, 10, 57, -20, -49, 42, -19,
   16, -11, -109, -70, -103, 55, 22, 126,
   -41, 62, -61, -71, -83, -95, 0, 127,
   40, -56, 127, 94, -65, -3, -99, -79,
   -117, 105, 33, -5, -117, -44, 54, 63,
   98, 124, -99, -123, 14, -99, -127, 97,
   -53, 16, 119, 59, -128, -103, 42, -48,
   120, 17, 127, -119, 127, -63, -45, -98,
   127, 124, 32, 126, 126, 102, -16, -35,
   127, -22, -128, -84, 23, 108, -30, -121,
   -127, 116, -57, -128, 24, -127, -16, -125,
   -117, 47, 125, 12, -126, 120, -107, -7,
   -90, -102, -30, 69, -46, -59, 73, -128,
   22, 16, 16, -28, 94, -62, -69, -128,
   -61, -38, 6, 50, -125, 126, 125, -127,
   127, 29, -72, -48, 8, 123, -36, -127,
   -124, 78, 33, -25, 58, -24, -3, -48,
   -21, -13, -128, -84, 36, 127, 30, -41,
   43, -128, 57, 39, -80, -64, 86, -123,
   48, 65, -52, 30, 79, 127, 67, 67,
   -118, 72, -125, -4, -127, -86, -120, 84,
   12, 12, -26, -52, -4, -62, -21, 127,
   16, -111, -112, 7, 117, 46, -114, 127,
   99, -28, 5, -54, -67, -33, 33, 125,
   127, 12, 6, -109, -64, -108, 99, 65,
   -26, 13, 100, -102, 38, -11, 17, 100,
   8, -2, 63, -75, 46, -123, 3, -122,
   -20, -37, -27, -125, 100, -8, -126, 25,
   -8, 123, 95, -126, 127, 73, -128, 56,
   -121, -88, 23, 102, 69, 26, -128, -61,
   -15, 98, 11, 18, 127, 127, 125, -88,
   -38, 27, 90, -51, 124, 49, -64, 51,
   48, 52, -18, 76, 84, 83, 3, -125,
   80, 54, 12, -91, 92, -61, 17, 117,
   -101, -106, 117, 20, -55, -67, -97, -91,
   -128, 74, 126, -25, -10, 53, -105, 14,
   -126, -3, 54, 12, 93, 30, 20, -101,
   -128, -98, -111, -59, -5, 15, 4, -43,
   127, 4, -65, 49, 49, -107, -44, -128,
   14, 102, 84, -32, -62, 41, -2, -73,
   46, 13, -58, 93, -4, -24, -109, -50,
   -128, -43, -23, -90, 34, -43, 8, -60,
   75, -15, -50, 127, -114, -128, 120, 119,
   63, 41, 127, 87, -127, -121, 120, -64,
   30, 64, 116, 10, 55, -125, 57, -116,
   -117, 42, 101, 96, 109, 127, -128, 80,
   8, -122, 85, 126, -78, -6, 127, 126,
   -126, -128, -14, 35, 21, -63, 24, -37,
   -107, 122, -123, -46, 126, -56, 106, 125,
   -90, -127, 71, 25, -11, -29, -113, 121,
   -80, 110, 15, -125, -18, 71, -116, 127,
   -124, 63, 98, -43, -9, -66, -37, -63,
   -35, -4, 120, 2, -124, 82, 8, 75,
   -128, -50, 52, 69, -8, -74, -127, -13,
   55, 92, 84, 127, 0, 12, -54, 69,
   -95, -69, 74, -128, -29, -10, -91, 127,
   -94, 59, -33, 127, 77, -35, 67, -82,
   -121, 52, 18, 62, 45, 1, -128, -84,
   57, -50, 64, 88, -108, -13, -80, -26,
   -20, 18, 92, -81, -10, -92, 13, -75,
   34, 1, -127, -128, -58, -24, 127, -26,
   11, 17, -47, -103, -127, 68, -127, 53,
   -126, 19, 127, 65, 39, -1, -87, 70,
   121, -110, -90, -38, 44, -29, -65, -15,
   69, 123, 127, 68, 10, -127, 120, 126,
   70, 44, 76, 124, -127, 50, 117, 11,
   -121, 77, 65, -34, -125, -42, -36, 69,
   -46, -39, 109, -42, -20, -125, 43, -37,
   11, -33, -37, -127, 40, 127, 8, 127,
   101, 101, -115, 13, 83, -118, -47, -68,
   127, -69, 36, -10, 27, -5, 125, -2,
   -126, 102, -128, -3, 50, -103, 124, 30,
   -87, -126, 76, -121, 12, -53, -24, 127,
   -123, -124, 108, -125, 88, 88, 0, -77,
   -126, 127, -23, 124, 127, 36, -68, -106,
   -78, 127, 125, 78, 82, -128, -48, 127,
   -43, 127, -41, 60, 13, -4, -128, -97,
   38, 85, -73, -84, -38, 41, 115, 2,
   -41, -119, 105, -128, 30, -128, -32, 91,
   127, 104, -102, 43, 92, 126, 19, -123,
   44, -30, 118, -27, 127, 8, -7, 123,
   124, -59, 126, -127, 44, -119, 90, -121,
   94, -10, 122, -40, 69, 2, 93, 95,
   -21, 104, 122, -53, 48, 119, 51, 117,
   -127, -42, -28, 127, -52, 68, -83, 127,
   48, 38, 74, 116, 90, -128, 10, 56,
   127, -97, 88, -128, -126, 122, 9, -111,
   113, -108, 53, 34, 75, 126, 64, 77,
   127, -10, 127, -38, -50, -35, 124, 103,
   -75, 15, -126, 88, -89, -126, -6, 6,
   6, -56, -104, 127, -71, -53, 70, 31,
   88, -65, 2, -54, -12, 30, -20, -60,
   -127, 124, 124, 21, 125, 115, 13, -4,
   10, 105, -29, -126, -103, -105, -40, 127,
   -13, -127, -46, 90, -60, 23, 126, -127,
   -71, 3, -14, 56, -63, -125, 78, -78,
   -55, -127, 86, 72, -82, -85, 39, 16,
   -31, 62, -102, 37, 114, -90, 127, -14,
   -50, -21, 16, 9, 94, 84, 56, -62,
   91, 1, 9, -63, 99, -2, -76, 83,
   -117, -48, -93, -89, 110, 124, -110, 119,
   99, 82, -13, -51, -111, 125, 18, 102,
   -49, 49, -68, 5, 125, -91, 77, 94,
   3, 2, 5, 12, 95, 124, -93, 126,
   125, -120, 0, -98, -70, -46, -85, -117,
   -75, 57, 79, -52, 100, 94, -84, 16,
   -104, -83, 64, 96, 22, 69, -126, -39,
   109, -124, 94, 29, -55, 125, -118, -71,
   -72, -125, 120, -116, 104, -98, 61, -127,
   127, -30, 125, -110, 127, 70, 62, 126,
   -120, -73, -28, -40, 118, -13, -90, 69,
   51, 81, -127, -107, -128, -44, 127, 122,
   42, -128, 0, -33, 56, 76, 29, -79,
   18, -103, 100, -35, -108, -125, 108, -12,
   -74, 48, 126, 49, -86, 20, 51, 102,
   5, -51, -91, -126, 127, -89, -128, 52,
   120, -90, 69, 46, 66, -99, 119, -122,
   -38, -66, -109, -126, 65, 127, -49, 64,
   -116, -49, -127, -128, 123, 59, -115, 53,
   -50, -40, -13, 126, -113, -68, 127, -72,
   -91, 125, -55, -74, 126, -125, 96, -1,
   -96, 52, 53, -114, 123, 127, 30, 71,
   4, -36, 55, -118, 42, 94, -45, -103,
   2, -21, -117, 24, 35, 82, -123, 25,
   -102, -125, 126, -63, -120, -8, -126, 76,
   127, 70, 125, 126, -18, 126, -128, -3,
   -126, -6, 67, 121, 125, -127, 18, -83,
   117, -45, 120, 14, 76, 71, 127, 122,
   -72, 80, -60, -104, 49, -106, 31, 8,
   -56, -26, 43, -58, 126, -76, 63, 49,
   36, -128, -62, -103, 46, -122, 84, -53,
   -124, 103, -57, 127, 127, 7, 117, -128,
   -12, -128, 60, 16, 127, 33, 5, 127,
   50, 31, 11, 69, 4, 33, -32, -121,
   17, -105, 51, 19, -18, 115, -127, -42,
   -124, 20, 66, -32, 127, 127, 26, 124,
   59, 25, -8, 102, -128, -27, -11, 106,
   -38, -23, -81, 10, -116, 73, 32, -122,
   123, 120, -50, 116, 69, 4, 114, 44,
   32, 66, 62, 127, 80, 38, 42, -55,
   100, -46, 124, 111, -67, 119, 28, 65,
   -13, 46, 127, -51, 108, 123, 47, -93,
   60, -118, 23, -123, -114, 109, 126, -124,
   -124, 11, 79, 7, -26, -67, -13, -116,
   -7, 117, -102, -117, 57, -128, 22, -68,
   -124, 17, -83, -79, 36, 125, -61, 7,
   -125, -16, 56, 75, 50, -122, -18, 107,
   -13, 126, 123, 36, 126, -82, -85, -20,
   89, 122, 2, 127, -128, -87, 127, 25,
   -125, 69, 8, 90, 56, -29, -48, -17,
   125, 19, -104, 49, -29, -24, -56, -70,
   30, -14, 66, -128, -69, 120, 79, 126,
   -116, 64, 15, -39, -66, -6, -127, 117,
   57, 63, -123, 19, 126, 63, 127, -4,
   98, -124, 28, -104, 20, -113, 125, 123,
   23, 127, 118, 125, -128, -66, 84, -32,
   91, 47, 28, -78, -128, -36, -2, 38,
   -86, 127, 36, -49, 121, -116, -127, -22,
   53, -106, 109, -92, -53, 118, 73, -43,
   118, -3, -76, 39, -29, 126, 50, -42,
   70, -27, 89, 119, 40, -115, -97, -39,
   -74, 51, -59, 123, 23, -31, 126, -7,
   -127, -24, -60, 99, 11, -92, 19, 29,
   -104, 123, 46, 20, 124, 122, -128, -1,
   -23, -124, 127, 53, -91, -51, 106, 5,
   110, 31, 121, -111, -33, -55, -61, 83,
   -128, 127, -11, 124, -36, -68, 52, -128,
   127, 54, 111, 123, -123, -44, 92, -100,
   -82, 3, -109, 38, 126, 58, -26, 44,
   89, 20, 8, -127, -48, 126, -48, 120,
   -58, -70, 93, -96, 116, -60, -54, -83,
   20, -21, -127, 30, -54, 108, 46, 26,
   -26, -7, 4, -128, -60, 127, 26, 67,
   -56, 40, 69, 30, -61, 120, -4, -16,
   81, 23, 72, -47, 104, 55, 84, -13,
   56, -80, 6, 117, 116, -6, -62, -68,
   -59, -114, 16, -50, -31, 20, -9, -122,
   -122, 24, -52, -1, -125, 127, -78, 127,
   116, 51, -7, -52, -3, 114, -127, 121,
   56, 108, 55, 2, 90, 127, -34, 87,
   72, 9, 124, -105, 126, 79, -24, 44,
   11, 97, 65, 46, 51, -117, -127, 125,
   -126, -7, -123, -109, -93, 79, 126, -25,
   71, -58, -35, -22, -102, 112, 127, -62,
   -125, -126, -52, 11, 24, -113, -101, -9,
   -16, -15, -120, 44, 123, -35, -2, -115,
   -92, 14, 118, -19, 127, 127, 124, -127,
   56, -122, 59, -34, 127, 40, -47, -127,
   126, -89, 127, 80, -63, 82, -37, -12,
   -127, 1, 10, -57, -79, 120, -60, 109,
   -121, 15, 60, -96, 2, 127, -68, 13,
   53, 90, 119, 15, 115, 102, -125, 111,
   112, 124, 123, -102, -93, -16, 119, -117,
   76, -18, 3, -95, 127, 126, -94, -91,
   -87, -37, 97, 125, -39, -42, 127, -120,
   127, -84, 96, -126, -1, 97, 37, 17,
   -97, 106, 50, -85, 30, -3, -72, -101,
   127, 32, 125, -4, -68, 68, -119, 2,
   -49, 120, 54, 36, 126, -128, -33, -112,
   -110, 124, 79, -2, 55, 79, -17, 20,
   -125, -128, -69, -127, -67, 74, -11, -23,
   -2, -126, 16, 113, -128, -124, -3, -109,
   100, 63, 48, 124, -16, -4, 81, 127,
   -100, 73, 24, -48, 13, 126, 10, -21,
   -84, -51, 30, 124, 105, 48, 63, 111,
   48, -73, -6, -43, 103, -49, -23, 66,
   -103, -6, 127, 34, -127, -80, 81, 98,
   69, -19, -123, 21, -3, -17, -13, -102,
   -4, -102, 15, -38, 125, 67, -5, 65,
   -33, -39, -75, -113, 80, -5, -103, 103,
   91, -106, 117, -117, -122, -8, 10, 63,
   127, -127, -100, 47, 78, -20, -58, 33,
   62, -33, 103, 127, 56, -22, -116, 5,
   -55, -15, 55, -17, 90, -19, -104, 58,
   105, -12, 109, 74, -12, 111, -53, 114,
   29, -58, 40, 36, -26, 87, -83, -122,
   -108, 16, 29, -38, -99, 51, -115, 36,
   -84, -111, 49, -103, -128, 97, -20, -109,
   1, -48, -61, -76, 125, 115, 112, 127,
   -112, -105, -44, 95, -66, -123, -109, -85,
   86, 47, -80, -8, 112, 127, 1, 78,
   127, -110, -98, 103, -75, 124, 47, -16,
   -120, 37, -41, 39, 38, -127, -77, -88,
   127, 18, -19, -30, -128, 61, -14, -80,
   -90, -53, -99, 106, -10, 124, -69, 127,
   -127, 13, 124, 122, 26, -126, -116, -127,
   88, -26, 126, -9, 32, -126, 48, 127,
   -32, -86, -52, -125, -119, -5, 13, -46,
   94, -42, 32, -26, -11, 17, -14, 126,
   31, 125, 55, -24, -126, -124, -119, 125,
   75, -123, -79, 22, 63, -47, -128, 127,
   -41, -6, 127, 116, 122, -100, 62, -40,
   127, -45, 121, -50, -122, 29, 125, 86,
   -128, -18, -115, 64, 127, -128, 126, -10,
   -78, -122, 13, -48, 89, 127, -27, 125,
   -16, -10, 1, 2, 46, 53, 15, -76,
   -22, -10, -40, 18, 50, -22, -78, -26,
   -31, -53, 31, -6, 87, 8, -53, 9,
   -91, -57, -51, -53, 2, 19, -51, 40,
   46, 50, -23, 7, -67, 13, -66, -126,
   -106, 49, 9, -26, 30, -11, -77, -47,
   -18, 16, 34, -63, -18, 45, -84, 68,
   -46, 54, 23, -29, -22, 14, -9, 10,
   27, 80, 18, 74, -77, -53, 16, -16,
   12, -119, 56, 66, -24, -50, 3, 125,
   30, -126, -56, 72, 23, -128, 19, -23,
   -84, 103, -89, -5, 27, 62, -28, 26,
   -32, -32, 50, -126, -128, 10, 29, -29,
   -121, -128, 5, 59, 10, 30, 57, 101,
   10, -40, -30, -21, 69, 62, -26, 41,
   57, 71, -16, 15, -31, -33, 12, -13,
   -34, -14, 39, 40, -19, -52, -20, 27,
   5, -125, -4, 6, 51, -48, -34, 61,
   95, 15, -6, -7, 43, -10, -99, 90,
   -36, 4, 33, 49, -85, -79, -5, 44,
   32, -20, -6, 16, -69, -3, -61, -5,
   81, -3, 43, -85, -26, -31, -26, -83,
   126, -24, -40, 5, -23, 49, 4, -23,
   -127, -46, -15, -10, -1, 24, 94, -27,
   87, -128, -33, -1, -25, -12, -10, -4,
   -10, -5, 13, 90, 115, -118, 75, 56,
   78, -123, 9, 50, 118, 38, -47, -17,
   127, 51, -19, 43, 83, -101, 127, -28,
   44, 114, 40, 95, 83, 8, 92, 64,
   -110, 115, 75, 2, 47, -69, 26, 18,
   121, 22, 83, -2, -77, -72, 76, 55,
   53, 69, 27, 44, 94, -57, -24, 66,
   -84, -85, -7, 103, -87, 61, 119, -73,
   -56, 102, 18, 30, -37, -19, 38, -125,
   -58, -41, -105, 2, 17, -89, 9, -14,
   19, -4, 115, -29, 20, 40, 46, 67,
   -33, 10, -63, -29, -50, -103, -48, -99,
   22, 103, -68, -26, -71, 47, 12, -42,
   24, -124, 56, -49, -13, 36, -25, 7,
   -34, 12, -26, 9, 5, -105, 4, 7,
   -84, 43, 40, 73, -34, 1, 9, -43,
   40, -2, 66, 106, -55, -25, 26, 67,
   30, 127, 59, 107, -124, 56, -1, -54,
   -49, 127, -37, 27, -39, 27, -57, -60,
   19, 68, -32, 78, -107, -5, 21, 1,
   46, -13, -46, 45, 83, -75, 119, -15,
   118, 127, 4, -75, -26, 10, -78, 37,
   29, 5, 84, 45, 125, -102, 38, -46,
   72, 74, 19, 31, 21, 88, 8, 10,
   52, 126, -62, -13, 50, -5, 127, 57,
   -96, -44, -124, 56, -124, -48, 31, -73,
   -32, -31, -12, -13, -16, -36, 45, 23,
   106, 30, -61, -26, 30, 81, 70, -12,
   71, -6, -60, 67, 6, -19, -23, 29,
   94, 116, -83, 58, 105, -107, 124, 116,
   -28, -94, -126, 127, -58, 127, 40, 43,
   60, -120, -45, -83, -49, 88, 114, 73,
   14, -37, -84, 57, -19, 20, 60, 112,
   7, -35, 64, -94, 75, -53, -109, -24,
   -47, 57, 14, -9, 39, -66, -119, 10,
   9, -50, -101, -82, 82, -62, -17, -35,
   10, -128, -92, -127, -89, 44, 23, -82,
   91, -34, 10, -20, 48, 126, -2, 67,
   -118, 23, 122, -89, 121, 58, 105, 94,
   21, 30, 34, 5, 71, -127, 97, 99,
   1, -81, 124, -88, -117, 93, -14, -9,
   2, -54, -27, -43, -39, 22, 4, -128,
   63, -30, -74, -23, 107, -58, -126, 59,
   47, -71, 86, -72, 47, -50, -17, 62,
   -84, -47, 40, 69, 20, 82, 70, -34,
   115, -20, 10, -114, -27, -48, -19, -76,
   103, -78, -40, -100, 0, -47, 39, -40,
   -127, 27, -70, 0, 36, -53, -123, -21,
   -126, 4, -10, 65, -27, -124, 8, -83,
   -18, -122, -19, 60, 23, 116, 35, -21,
   -15, -86, -7, -3, -88, -67, -89, -3,
   81, -71, -99, 15, -96, 72, -38, -55,
   -38, -9, -5, 112, -106, 126, -28, -125,
   127, 25, 78, -36, 127, -17, -124, -124,
   -69, -109, 46, 15, -67, 33, 118, 122,
   0, -40, -107, 122, -116, 127, 103, -100,
   119, 71, 77, 56, 113, 127, 127, -41,
   5, -124, -21, -54, -74, -19, 69, -2,
   127, 5, -29, 92, -127, 94, -68, 11,
   -54, 86, 80, -11, -77, -36, -47, -121,
   127, 37, 0, 63, 44, -3, 118, -21,
   -12, 103, 72, 44, -128, -93, -23, 70,
   71, 10, -23, -44, 125, -45, -108, 6,
   71, -126, 32, -32, -21, 44, 14, 80,
   21, 6, 11, 126, 24, -15, 30, 94,
   -19, -18, -58, 68, -118, -53, -64, -12,
   -27, -19, 50, 10, 121, 27, 29, 17,
   -29, -41, 9, -127, 88, 8, 93, -127,
   64, -74, -60, 2, 12, 87, -14, -119,
   126, 126, -98, 49, 11, 6, -44, -82,
   -13, -34, -85, 41, -80, -96, 59, 73,
   -125, -6, 28, 126, -9, -36, -99, -101,
   -92, 127, 19, -2, 74, 19, 126, -52,
   38, 121, 47, 104, -13, -39, 38, -44,
   -72, -38, -106, -3, -36, -125, -127, -80,
   95, 1, -94, -74, -126, 47, 45, 117,
   -6, -120, 79, -55, -28, -81, -64, -47,
   -6, -90, 3, -33, 34, 61, 92, 21,
   -66, 82, 57, -54, 5, 33, 6, 10,
   50, -27, -104, -19, -29, 12, -115, 94,
   94, 12, -39, 22, -22, 25, -85, 79,
   -18, 61, -115, -127, 31, 63, 16, -53,
   -27, -89, 84, -126, -3, 23, 32, -70,
   -77, 38, -24, 49, -32, 32, 8, -36,
   70, 4, -47, -48, 51, -20, -94, -49,
   -19, 16, 55, 34, -48, 40, -27, -34,
   39, 12, 55, -113, -94, 4, -19, -58,
   13, -14, -28, 2, 40, 21, 65, 127,
   -26, 50, -60, 26, 22, -22, -7, 56,
   -21, -64, 8, 11, -20, -2, -73, -57,
   -18, -3, -82, 16, -52, -94, -24, -36,
   35, 25, -25, -28, -102, -57, -59, -3,
   7, -19, 45, -17, 10, 77, 29, 78,
   -22, 125, -86, -67, -5, -123, -59, -85,
   -15, -23, 39, -12, 73, 0, -74, 4,
   -22, 2, -16, -83, -92, 34, 36, 8,
   -110, -125, 4, 13, -56, 38, 13, -45,
   -116, 9, 66, 11, 23, -2, -68, 40,
   -29, -3, 39, 108, -62, 87, 34, -56,
   32, 85, 43, -36, -31, 58, 72, -1,
   -52, -12, 41, 7, 32, -8, -6, 73,
   36, 22, -54, 25, -64, 36, 12, 81,
   77, 55, -52, -64, 0, 5, 3, -17,
   -54, -14, -61, -71, 28, 45, 34, 65,
   59, 21, 31, -49, 87, -117, 80, -36,
   48, -22, -33, -36, 89, -13, 24, 13,
   -18, 11, 73, 73, 62, -98, 38, -14,
   -48, -56, -51, -27, -119, -7, -30, -88,
   -16, 75, 58, -26, 124, 107, 23, -38,
   -91, -9, 6, -44, 111, -49, -52, -47,
   9, 112, 76, -54, -23, -50, -118, -46,
   -11, 20, 123, -111, 25, 29, 0, 41,
   -100, -30, 36, 80, -37, 10, -10, 31,
   50, -28, -34, -44, 56, -77, 13, 44,
   5, 119, -18, 64, 14, 44, -64, -16,
   81, 115, 87, 22, -12, -29, 51, -29,
   45, 23, -63, 93, 57, 16, 107, -34,
   -113, -38, -12, 47, 91, 41, 11, 118,
   101, 2, 88, -4, -24, -40, 30, 81,
   44, -46, -100, -25, -36, -26, 76, -88,
   -37, 40, 8, -45, -116, 8, -8, -28,
   49, 29, 31, 70, 82, -50, -58, 88,
   78, 51, -45, 82, 44, -4, -34, -66,
   -67, 89, 40, 16, -43, 84, 46, -128,
   -80, -42, -23, -61, 35, 4, -23, -24,
   -25, -22, 90, 57, 21, -7, -22, 2,
   -28, 20, -6, 21, 85, -69, -35, 47,
   -44, 34, -55, 21, 94, -21, 115, 26,
   10, -12, -18, -105, 31, 16, 73, -27,
   -31, -61, 100, 17, 92, 111, 53, 51,
   -6, -86, -85, 38, 41, -89, 12, -74,
   22, 50, -16, -23, 20, 82, 20, 4,
   11, 11, 2, 85, -63, -40, 23, 49,
   74, 44, -89, 3, 0, 10, 88, -40,
   -80, 25, -4, -59, -92, 11, 61, 22,
   -6, -4, -27, 15, 3, 59, 28, 27,
   43, 54, -43, 9, 74, -33, -9, -44,
   42, -34, -52, -28, 6, 23, -18, -83,
   60, 58, -88, 1, -39, 38, -71, 8,
   44, -128, 37, 126, 109, -2, -24, 68,
   127, -127, 116, 74, 62, 7, -82, -30,
   -103, 120, 10, 28, 4, 42, 30, 1,
   -102, 26, 0, 86, 24, -126, 116, 96,
   -25, 87, 94, -72, 55, -56, 97, -42,
   5, -19, -51, -48, -76, -46, -18, -37,
   -78, 8, -17, 50, -26, -50, 123, 55,
   -68, 53, 62, -74, 21, 71, -34, 127,
   83, -2, 36, 41, -17, 51, 123, 12,
   23, 53, 38, 20, 12, -11, -64, 53,
   -37, -9, 44, 65, -78, 58, 18, -92,
   -36, 53, -39, -43, 42, 25, -28, 107,
   -52, 83, -23, 50, -9, 4, -24, -20,
   -36, -13, 28, -37, -31, 9, -39, 4,
   98, -96, 88, 73, -52, 53, 29, -72,
   17, 30, -12, -29, 44, 47, -40, -61,
   88, 47, -128, -36, -10, 19, 96, -6,
   10, -6, 72, -58, 126, 101, 16, 48,
   66, 64, -10, 126, 91, 54, 38, 17,
   -31, -4, 53, -16, -35, -41, -120, -56,
   -107, -104, -35, -22, 60, 31, -85, 33,
   -21, 23, -19, -32, -87, 29, 64, -127,
   -126, 67, 95, -1, -14, 27, 118, -27,
   71, 52, -61, -61, 111, 50, 16, -117,
   127, -35, -2, 97, -75, -45, 53, 5,
   67, 35, 29, -7, 82, -60, 10, -41,
   46, -127, -38, 13, -8, 31, 39, 127,
   21, -104, 29, -124, -73, -128, 12, -65,
   48, -49, 24, 44, -50, 68, -28, -30,
   67, 12, 49, 23, 54, 35, 56, -13,
   127, -39, 31, 25, -27, 0, 92, 39,
   19, 16, -39, -25, 11, -18, -8, 53,
   -24, 6, -52, 113, 67, 70, 39, 0,
   88, -116, -69, 51, -125, -41, -99, 51,
   10, -72, -9, -14, 11, -99, 16, -128,
   4, 63, -128, 10, -33, -121, -40, 16,
   73, -60, 54, 121, -80, -69, -14, 127,
   76, 10, 5, 29, 37, -67, 52, 12,
   -57, -127, -67, 5, 29, -45, 26, -61,
   -71, -119, -67, -75, 51, 64, 2, -9,
   -73, 3, 75, 46, -47, 3, -16, -30,
   -58, 117, -105, -17, 0, -67, -93, -42,
   124, 125, -50, -70, 40, 4, 69, 48,
   117, -16, -127, 35, 7, -35, 27, -9,
   -104, 27, 74, 15, -50, 36, 28, -80,
   -54, 124, -12, -20, -3, -34, -34, -40,
   -70, -51, 98, 40, 69, 73, 60, -9,
   33, -66, 21, 74, 5, 35, 24, -3,
   -9, 70, -78, 47, 35, -24, -119, -15,
   -61, -26, 38, -42, 93, 48, 26, -23,
   -37, 33, -13, -35, 37, 61, 28, -122,
   -48, 108, -4, -23, 32, -25, -62, -49,
   4, -18, 28, 5, -97, -24, -127, -26,
   -63, 81, 91, 69, -128, 41, 9, -34,
   -32, 1, -72, -118, -124, -45, -126, -109,
   -123, -47, -50, 127, 21, -61, 123, 12,
   -65, 26, 84, -106, -57, 7, 41, -66,
   -114, 126, 80, -2, -12, 12, -124, 60,
   -4, 107, -67, -80, 15, 13, 58, 0,
   124, 15, -71, 41, -45, -59, -81, -83,
   -124, -21, -29, 117, -23, -90, -67, 38,
   44, -126, -126, 24, 14, 67, 82, -19,
   127, -28, 26, -88, -125, 93, -125, -87,
   127, 102, 16, -14, -11, 70, -43, -10,
   5, 98, -40, 1, 57, 10, 99, -8,
   -127, -20, 5, 10, -35, 0, -2, -124,
   19, 73, 36, 127, 90, 10, -69, 127,
   15, -60, -127, -124, -26, -78, 68, -58,
   125, 8, -58, -123, -88, -59, 122, 7,
   49, 104, -26, 5, -98, 125, -126, -120,
   -24, 11, 120, -23, 51, -26, -28, 74,
   -31, 107, 44, -86, -128, -65, 80, -8,
   -39, -82, 5, -50, -127, -61, -126, -88,
   -116, -119, -38, 115, -81, 25, 106, -53,
   64, -28, 55, -128, -57, 98, 58, -27,
   -63, 126, 29, -73, -5, -49, -126, 27,
   25, 104, -21, 16, -112, -125, 68, -54,
   124, 48, -125, 124, -2, 2, 53, -72,
   -53, 38, -53, 96, 13, -124, -67, 50,
   13, -127, -15, 48, -46, -100, 8, -76,
   -18, -25, -27, -125, -9, 74, -86, -126,
   -25, 18, 24, -39, -9, 43, -48, 74,
   44, 69, 19, 71, -61, -123, 66, 20,
   -90, 7, -16, -45, -122, -10, 46, -117,
   -8, 62, 5, 126, -22, -117, -126, 127,
   -37, -126, -84, -57, 24, -7, 70, 17,
   -80, -100, -84, -125, -75, 27, 125, 3,
   -41, 58, 13, -54, 36, 126, -31, 35,
   101, 71, 20, 63, 9, -52, 116, 92,
   45, 58, 0, -77, -108, -53, -68, 93,
   -97, -14, -70, 123, 121, 125, 64, -23,
   51, -28, -14, 46, -49, 27, -41, -35,
   114, -67, 60, 20, 97, 26, -1, 106,
   105, -30, -17, 3, -44, 36, -3, 28,
   -34, 14, -58, 127, -127, -103, 2, 53,
   -71, 56, -6, 93, -111, -62, 125, 127,
   26, -6, -102, -87, -20, -108, -78, -127,
   -75, -68, 66, 22, -21, -127, 2, 34,
   -119, 112, 36, 22, 88, -126, -82, 15,
   -126, -123, 37, 45, 52, -2, 82, 56,
   86, -97, -59, 51, 113, -32, 9, -8,
   -38, 89, 71, -66, -106, -10, -49, -28,
   -13, 31, 12, 4, -123, 13, -17, -78,
   -68, -44, 82, 72, 49, 13, 84, -88,
   -45, -60, 119, 69, 28, 32, 27, -15,
   -124, -58, 45, 16, -72, -13, 55, 100,
   88, -40, 6, 24, 104, -40, 28, -27,
   66, -61, 69, 93, 26, 123, -121, 86,
   44, 41, 42, 94, 56, 125, -11, 8,
   -34, -37, 16, 16, 95, -46, -64, -68,
   -12, 7, -26, -76, -25, 64, -43, 100,
   25, -125, 120, -126, -1, 84, -7, -29,
   -105, -22, -29, -13, 50, 48, 32, 123,
   -94, 37, 51, -86, -124, -127, 127, 10,
   -87, -18, 104, 127, -73, -117, 5, 121,
   60, -94, -18, -14, -30, -2, -51, 47,
   10, 65, -2, 99, 31, -75, -49, 46,
   104, -36, -6, 89, -105, 24, 44, -56,
   -52, 31, -60, 11, 103, 76, -11, 8,
   45, -50, -6, 45, -6, 27, -52, 9,
   -22, -44, -33, -18, -108, -44, -22, 18,
   -35, -18, -67, 43, 31, -37, 61, -29,
   53, -124, -6, -43, -122, -112, -33, 8,
   51, 82, -110, 8, -72, -20, -20, -11,
   -16, 18, 47, 40, -16, -120, 54, 8,
   54, 99, 118, 61, 113, 69, -50, 42,
   8, 50, 62, -31, -12, 17, 52, 116,
   -19, 31, -124, -35, 96, 66, 114, -46,
   21, -53, 81, 54, -118, 54, 7, -94,
   112, -4, 25, -126, 66, 25, 1, 17,
   -128, -127, 113, -88, 42, -91, -11, 30,
   -97, 122, 125, -96, -108, 14, 125, -124,
   25, 2, 122, 119, 69, -56, 122, 95,
   -47, -26, -120, 73, -56, 47, 33, -49,
   -106, 81, 60, -2, 64, 93, 13, -54,
   -81, -56, -95, -87, -3, -82, -60, -94,
   34, 73, -19, -37, 55, -63, -2, 32,
   -64, 4, 125, -24, 6, -24, -24, -1,
   -14, -128, -48, -24, -117, -69, -114, -34,
   -29, -6, -61, -10, 11, -43, -12, -30,
   86, 10, -21, -22, -128, 6, -10, -12,
   -125, -2, 21, -30, 102, -90, -40, 46,
   -44, -70, -58, 58, -42, -76, -10, 57,
   34, -61, 74, 96, 126, -13, -36, -43,
   26, -81, 26, -28, 64, 32, -12, 54,
   -57, 104, -125, -66, -54, 101, -49, -39,
   94, -5, 121, 108, 44, 125, 61, 37,
   28, 3, 94, 90, 31, 46, -27, 30,
   -113, -126, 43, -2, -95, -95, 78, 2,
   75, 127, -84, -24, -95, 26, 124, 126,
   1, 8, 41, 52, -33, -45, -27, 38,
   -19, 51, 64, 125, 126, -126, 126, 62,
   -55, 45, 7, 37, 85, 59, 28, 26,
   126, 122, 26, -52, 73, -27, 10, 3,
   78, -124, -58, -65, -10, -46, 81, -19,
   -24, 96, -15, 78, 47, -40, 76, 75,
   -23, -126, -104, 105, -125, 111, 127, 45,
   -8, 46, -90, 63, 10, -19, -8, -121,
   -128, 32, -15, 117, -127, -20, 117, -51,
   88, -99, 13, -28, 28, -8, 2, 76,
   25, -81, 17, 12, 27, -106, -1, -17,
   -82, 8, -19, 25, -3, -2, 110, 5,
   -8, 126, -15, -126, -4, 15, 26, 33,
   -117, 2, -31, -2, 0, -39, -62, 81,
   -73, -49, 33, -33, 19, 14, -52, 39,
   2, 57, 6, -67, -12, -26, -104, -4,
   -73, 12, -122, -20, -68, 49, 65, 127,
   13, -8, -34, -77, -34, -5, -85, 43,
   -8, 23, -17, 44, -121, 0, -1, -2,
   -59, -93, 17, -41, 96, -57, 37, 37,
   -78, -32, -50, -10, -69, 58, -66, 57,
   55, 122, -55, -60, 18, 119, -47, -83,
   -30, 37, -124, -22, -6, -71, -34, -3,
   -51, -9, 0, -27, 19, -2, -13, 35,
   2, 40, -27, 16, -65, 44, 83, -33,
   -71, 32, -29, -10, -9, 19, -4, -36,
   -16, 5, -2, 57, 55, -17, 18, 25,
   33, 0, 1, 1, -33, -54, -36, 42,
   40, -8, 16, 46, -3, 10, 18, -90,
   5, 43, -37, -61, 73, -51, -71, 29,
   50, 12, 6, -55, 99, 36, -29, -48,
   3, -4, 39, -14, -33, 28, 38, 13,
   -30, 27, -53, -78, 21, -14, 38, -39,
   -89, 11, -13, -50, -9, 23, 2, 16,
   -27, -6, -15, -32, 5, 61, 35, -93,
   -1, -1, -3, 6, 21, -5, -97, -3,
   -67, 16, -7, 16, 73, -67, 85, -33,
   -12, -31, 81, -57, 5, 27, 63, -20,
   -93, 55, -40, -64, 13, 15, -8, -27,
   -13, 62, 5, 8, -46, -10, -43, 10,
   39, -44, -34, -29, 7, 61, 15, 11,
   21, 20, -8, 2, 24, 6, 10, -17,
   5, -42, 31, 12, -20, 59, -14, 4,
   -22, 0, -8, -27, -5, 36, -7, 17,
   -21, -25, 7, -59, 13, -33, -1, -40,
   -39, -46, 20, -1, 10, 24, 28, -92
};

static const rnn_weight noise_gru_recurrent_weights[6912] = {
   -22, 54, -85, -9, -67, -31, 65, 25,
   -26, 3, 16, -60, -100, 21, 23, 31,
   24, 33, -22, -17, -57, 9, 72, 30,
   36, -3, 47, 52, -17, 47, -39, 16,
   13, 36, 19, 13, 73, 97, -5, 66,
   -33, 1, 70, -23, 52, 67, 65, -22,
   -23, 3, -32, -64, -73, 22, -95, 57,
   5, 31, -96, 66, -23, 16, -64, 99,
   -66, 114, -5, 73, 10, 63, 67, -46,
   2, 30, -44, -39, -21, -24, 6, -7,
   -21, 18, 48, 20, 7, -34, 88, 35,
   2, -15, 84, -6, 31, -52, 17, 24,
   7, 1, 12, 7, -85, -11, -31, -19,
   60, -45, -23, -3, -26, 27, -119, -76,
   -59, 49, -3, 41, -31, -95, 29, 34,
   35, -43, 42, -3, 47, 92, -8, 24,
   -17, -126, 26, -4, 43, -50, -32, -14,
   22, -7, -20, 124, -85, -2, 92, -31,
   31, 37, 47, 19, 4, -77, -24, 25,
   -20, -14, 72, 31, -94, 119, 5, 66,
   98, 127, 26, 26, -44, -56, 74, -22,
   41, -18, 44, -28, 23, -39, -113, -24,
   4, 60, -3, -3, 44, 90, 122, -76,
   52, -115, 37, -125, 15, -40, 43, -50,
   -22, -9, 3, 11, 10, -6, -30, 53,
   -65, 74, -30, 69, -56, -46, 14, 34,
   -49, 52, 23, -29, -48, -35, -3, 106,
   67, -24, 15, -19, -48, -14, -7, 82,
   24, -14, 120, 17, -33, 27, 44, -36,
   1, 28, 67, -19, -35, 8, 11, 5,
   6, -70, -112, -37, -10, 39, -25, 17,
   -20, -56, 38, 21, -22, -49, -17, -91,
   -39, 20, -28, 67, -20, 10, 55, 40,
   43, -14, -29, -49, 16, -82, 1, -43,
   3, -31, 83, -8, -9, -69, -38, -47,
   34, -10, 61, -24, -30, -21, 11, -50,
   42, -69, 11, -127, -8, -81, 107, 38,
   32, -33, 13, -45, 59, -44, -37, 23,
   121, 8, -42, -9, -38, 14, -59, -6,
   -26, 28, -32, -6, 22, 12, 84, 50,
   49, -28, -15, 43, 41, -30, 8, -44,
   -11, -62, 0, 21, -24, -23, -23, 56,
   6, 32, -25, 121, 61, 13, -63, 57,
   2, -37, 24, 9, 119, -4, -41, -14,
   64, 49, 28, -9, 49, 6, -21, -15,
   67, 4, 3, 20, 94, -14, -36, 108,
   27, 7, -38, 7, 19, 92, -57, 4,
   21, -17, 60, -13, -113, -3, 44, -87,
   -48, 18, -31, 79, 15, 53, 44, -15,
   -61, 80, 21, -3, 86, 40, 87, 17,
   -124, -39, -32, -2, 66, 16, 2, -95,
   25, -61, 28, -79, 21, -29, -12, -5,
   4, 20, 23, -26, 43, 22, -63, -27,
   -38, -38, -38, -7, 29, -36, 17, -57,
   51, 75, 8, 15, -43, -57, -15, -82,
   -69, -25, 67, -35, 70, -2, -44, -28,
   -27, 22, -57, -1, -28, -21, -25, -50,
   -49, 14, -7, 43, 35, 96, -18, -102,
   -80, -24, -108, 26, 87, 127, -11, 57,
   74, -18, 11, -58, 2, 32, 56, 29,
   42, 70, -128, -35, -8, -6, 74, 30,
   -8, 18, -35, 44, 78, 6, 17, 31,
   16, -2, -50, 45, 15, -64, -33, -24,
   -10, -27, -11, 42, -11, -102, -19, -33,
   -5, 6, 38, -7, -32, 42, 30, -80,
   -12, -42, 0, 34, -59, -12, -28, -39,
   4, -8, -43, 10, -66, -105, 60, 73,
   -64, 48, 102, 9, -38, -117, -3, -40,
   -127, 29, -126, 23, -17, 4, -7, 37,
   2, -85, 17, -44, 64, -82, -60, -59,
   20, -25, 4, -41, -35, 7, 13, -100,
   -21, 6, -20, -58, -23, 51, -107, -38,
   -6, -54, 44, 4, -42, 13, 5, -93,
   18, 7, 2, 80, 43, -22, 32, -9,
   14, -20, -5, -120, -28, -21, 87, -57,
   -38, -12, 20, -44, -35, 22, -69, -81,
   -54, 15, -52, -13, 101, 74, 37, 24,
   -12, -46, 6, 10, -28, 35, -46, 48,
   -39, 41, -59, -32, -40, 18, 83, 103,
   108, 15, -31, -10, 1, 8, 85, 5,
   41, 46, 0, 57, -49, -33, -20, -19,
   13, -4, -35, -11, 37, -25, -32, -82,
   1, 15, 29, -98, -34, 94, 117, 46,
   18, -11, -1, -50, -59, -120, 37, 34,
   36, 16, -11, -62, 35, 41, -84, -39,
   -20, 33, 26, -5, -83, 16, -43, 31,
   -2, -8, 0, 116, -21, 12, -24, 65,
   -127, -123, 44, 38, 25, -10, -102, -50,
   59, -44, 38, -124, 23, -18, -4, -24,
   -17, 43, 31, -4, -19, -58, 126, -62,
   -23, 86, 87, -1, 27, -38, -49, -13,
   -21, -19, 12, -20, -68, -54, 33, -29,
   -77, -30, -23, -57, -68, 55, 52, -30,
   -73, 29, 69, -27, -23, 39, -32, -87,
   -25, -61, -58, -15, 59, -27, -27, 13,
   43, -125, -8, -16, 8, -83, -37, -3,
   -14, 36, -94, 62, 27, -21, -6, -50,
   32, -16, 9, 24, -3, -98, -7, -37,
   -31, -27, 34, 23, 18, 68, 14, 21,
   3, -51, -67, 59, -74, 64, -85, -72,
   -22, -37, 3, -96, -25, 34, 97, -18,
   23, -110, 2, 57, 59, -5, -8, 36,
   56, 31, 18, -28, -35, -13, -18, 15,
   7, 12, -11, -55, 33, 31, 45, -111,
   30, 6, 1, -27, -93, -16, 22, -82,
   26, 45, -33, 19, 22, 7, 30, -3,
   -9, 26, -35, 26, 56, 65, -117, 19,
   31, 31, 34, 68, 26, -43, -14, -3,
   28, -97, -29, 78, 47, -26, -10, 65,
   -35, -99, -38, -49, -28, 13, -4, 69,
   -38, -14, -6, 38, 18, -61, 10, 28,
   -25, -57, 13, 28, 27, -15, 76, 45,
   -44, -26, 46, 13, -2, -25, -62, 57,
   6, -12, 35, -10, 82, -32, -11, 83,
   22, 17, 5, 34, -4, -25, -39, -27,
   -24, -29, -3, -52, 124, -68, 17, -96,
   -1, -3, 65, 56, -31, 1, -7, -34,
   32, 0, -45, -46, 18, -85, 8, 106,
   39, -118, 27, -53, 53, 16, -70, 24,
   -20, -48, -68, -33, -27, 77, -79, -48,
   17, 27, -46, -25, -68, 13, -80, 43,
   3, 0, -19, 57, 98, 51, 42, -5,
   -25, 29, 12, 41, -64, -68, 3, -13,
   -14, -15, -99, -23, 13, 5, -37, -12,
   -42, -113, -37, 60, -35, 1, 5, -50,
   24, 20, -21, 34, -93, -41, -88, -41,
   104, 7, 12, -43, 51, -121, 83, -126,
   -25, 52, 15, -125, -46, 126, -1, 14,
   86, 10, 87, 32, -22, 39, 5, 2,
   -37, -29, -1, 38, -27, 75, 47, -77,
   124, 36, -61, -19, 37, 44, 83, 33,
   71, -14, -59, -21, -26, -109, 33, 8,
   -17, 26, -1, 51, -1, -23, -1, 8,
   -6, 15, -76, 20, -16, -15, -128, 26,
   -80, 18, 1, -6, -30, 123, -98, 40,
   57, 0, -29, 85, 33, 28, -1, 39,
   -46, 20, -123, -53, 98, 29, 61, -8,
   -74, -32, -59, 97, 62, -14, -102, 125,
   -73, 21, 30, -1, -86, 40, -56, 55,
   78, -1, -88, -3, -65, 15, 49, -55,
   -127, 20, 47, 20, -8, -75, -9, 3,
   -69, -21, -1, 16, 24, -79, -16, -48,
   -5, -4, -98, -43, -42, -41, 6, -12,
   59, 16, 0, 47, -110, 44, -7, -21,
   -65, 62, -85, -33, 14, -54, 77, -53,
   -13, -8, -19, -52, 84, -30, -79, -28,
   103, 9, -48, -59, -4, -25, -18, -9,
   88, -42, -30, -77, -83, -23, -18, 29,
   -36, 37, -1, -118, -20, 65, -69, 35,
   21, -102, -29, -45, -20, -103, 2, 94,
   11, -11, -17, 75, 17, -5, 14, 45,
   -9, 45, -38, 33, 60, 22, 86, 79,
   72, -3, -7, 4, -38, -3, 8, -85,
   91, -46, 123, 19, -6, -13, -37, -68,
   -67, -33, 2, -88, 0, 31, 90, 36,
   28, -22, -39, 7, -91, -9, 16, -51,
   -113, 0, 38, 28, -5, 32, -10, -122,
   -33, -37, -5, -63, 25, -65, 46, -125,
   22, -46, 23, -21, 55, -34, 19, -46,
   109, 77, 12, 24, -53, -70, 34, 5,
   25, -43, 21, 30, -10, -101, -66, -5,
   62, 12, -48, -19, 70, 10, -114, 6,
   -14, 97, 73, 5, -2, -14, 1, -81,
   7, -22, -6, 33, -65, -96, -63, 11,
   -47, 16, -24, 19, 77, 17, -18, 11,
   41, -6, 67, -7, 56, -21, 45, 14,
   -27, -44, -51, -73, 34, -17, 17, -59,
   -6, -29, 74, -9, 114, -64, 76, 44,
   42, 79, 27, -13, 1, -20, -31, 22,
   37, -10, 41, 102, 62, 7, 12, 62,
   -34, -42, -29, 46, 16, -26, -50, -39,
   0, -38, 47, 25, -46, -109, -41, 6,
   25, -12, 24, -83, -3, 23, 62, -30,
   5, -69, 92, -20, -65, 20, -61, 32,
   52, 30, 31, -43, 23, -60, 40, 14,
   -67, 20, 27, -31, -33, 62, 12, -105,
   7, -27, -23, 51, -111, 35, 13, -30,
   -26, 2, 25, -101, -9, 8, -26, -24,
   -4, -40, 26, 13, 40, -101, -2, 35,
   -25, -30, -46, 50, -73, -11, -57, -22,
   26, 48, 18, -21, 18, -83, 82, 19,
   38, -24, 31, 66, 7, -11, 39, 52,
   -2, -13, -62, 22, 21, 8, 14, -101,
   -59, 31, -17, -70, 46, -64, -7, -38,
   -51, 36, -28, -18, -34, 2, 6, 70,
   1, 38, 84, -12, -42, -41, 17, 9,
   -54, 48, 15, -14, -35, -25, -36, 7,
   -44, -12, -39, -20, -84, -118, 0, -18,
   -19, -22, -3, 46, -66, -9, -20, 22,
   25, -29, 14, -34, -126, -20, -22, 34,
   37, 1, 32, -7, -56, -23, -5, 9,
   29, -22, 20, -51, -28, -32, -7, 19,
   -7, 70, 15, -27, 45, -9, -5, 7,
   60, 66, 49, -49, 2, 50, 31, -14,
   -16, -7, 3, -42, 11, 12, -84, -7,
   114, -4, 26, -38, -13, -4, -39, -35,
   9, -2, -96, 11, 20, 6, -17, 50,
   -6, 44, 48, 22, 53, -94, 15, -27,
   71, 29, 42, -70, -9, -52, 9, -67,
   81, -35, -87, -26, -103, 41, 6, -46,
   36, -56, -71, -92, -29, -110, 12, -15,
   -8, -17, -34, -22, 75, -96, -2, -9,
   80, -18, 23, 3, 24, -32, -5, -5,
   -33, -97, 11, -124, 49, -10, -29, -22,
   14, -13, 4, -20, -8, 56, 58, -25,
   2, 98, 39, 5, -9, 68, -38, 59,
   29, 12, 48, -70, -27, -45, -60, -1,
   8, 25, 12, 28, 23, -18, -60, -17,
   87, 37, -24, -27, 34, 32, -46, -20,
   27, -42, -27, -49, -75, 34, 59, -47,
   -74, 8, -14, -70, -24, 34, -49, 4,
   -45, -35, 22, -38, -9, -51, -24, -76,
   17, 12, -53, 76, -1, 16, -43, -14,
   5, 30, 1, 11, -32, 26, -68, -70,
   -29, -5, -22, -29, -13, 67, -26, 29,
   40, -72, -5, 4, -37, 31, 26, 57,
   0, -13, 113, 23, 27, -92, 9, -65,
   -25, 34, -27, 60, -50, -84, -50, -37,
   -83, 36, 46, -29, 41, -72, -126, -99,
   -1, 26, -71, 23, 9, 64, 0, -3,
   66, -75, -3, -50, 34, 7, 56, 11,
   -19, 43, -23, -109, 52, -19, 18, 12,
   -1, -2, -27, 25, 11, -66, -30, -7,
   -34, -10, -34, -111, 41, -16, 13, 99,
   -9, -105, 41, -82, -44, 1, 12, 10,
   15, 44, 21, -2, -115, 84, -29, -17,
   25, 45, 83, -3, -4, 107, -2, 28,
   54, 62, 40, -25, -3, -1, -77, 26,
   101, -13, 71, 10, 59, 82, 54, 14,
   14, 41, 5, -116, -43, -48, -7, -108,
   -10, -23, -95, 20, -30, -33, -66, 126,
   19, 18, -80, -4, 53, -66, -33, -5,
   -92, 15, 16, 15, 64, 24, -78, -24,
   67, -45, 51, 6, -20, -49, -39, 4,
   37, -87, 126, 64, -63, -19, -31, 30,
   -3, 12, -32, 42, -8, -120, -7, 23,
   2, 57, -73, -126, -41, -42, 17, -18,
   4, -2, -4, 12, 27, -28, -73, -5,
   -42, 54, -26, 11, 52, 1, -58, 24,
   52, 2, 14, 57, 38, 85, 16, 12,
   -12, 29, 123, 19, -42, -51, 23, -25,
   65, 39, 53, -9, 33, 22, 10, 70,
   11, -16, 114, 46, 7, 21, -56, -54,
   32, 41, -31, -36, -7, -14, -39, -7,
   126, -5, 2, -41, 13, -24, 58, 26,
   -5, 89, 4, -19, 17, -21, 16, -1,
   16, -59, -43, 42, 3, -23, 7, 23,
   -32, 39, -4, 36, -29, 34, -21, -128,
   -20, -8, 37, 11, 11, 4, -75, 11,
   10, 28, 71, 10, 50, -66, -16, 89,
   10, -43, -74, -38, -19, 36, -18, -14,
   27, -104, 123, 61, 38, 68, 42, 25,
   49, -39, 122, -12, -76, 54, 19, -41,
   -35, -8, -29, 30, 20, -21, 15, -71,
   -47, 13, 56, -58, 42, -58, 40, -36,
   1, 20, -42, -26, -4, 30, -7, 29,
   105, -47, 3, -30, -8, 127, -49, 93,
   68, 5, -16, 13, 25, 46, -54, -59,
   47, 37, 100, -27, -10, -32, -123, -8,
   37, 54, 25, 55, -60, 74, -31, 95,
   23, 93, -28, -6, 18, -16, -93, 33,
   -27, 20, -15, -65, -82, -77, 28, -21,
   12, 6, -2, 75, -106, 30, 26, -53,
   -45, 127, -14, -34, -19, -54, -3, -37,
   -50, -12, 44, 24, 96, -63, 14, 49,
   -53, -60, 39, -19, -58, 32, 7, 19,
   -107, -43, -87, 7, -124, -1, -13, 64,
   30, -35, 80, 102, 5, -118, -126, 12,
   -39, 25, -91, -55, -32, -78, -58, -126,
   -85, -68, 12, 29, -34, 28, 43, 32,
   -33, -53, -80, -112, 21, -10, 76, 127,
   -27, 52, 70, 55, 47, 0, 102, 24,
   0, -104, -35, 28, 35, -102, -109, -17,
   -22, 1, -6, -30, -73, -56, 62, -2,
   -107, 39, 87, -19, -30, -43, 25, -9,
   -99, -11, -28, -127, -8, -27, -28, -21,
   -11, -32, 30, 2, 23, 3, -11, -56,
   -28, 124, -13, -123, -7, -40, -39, -64,
   -14, -53, 55, -34, 79, -8, -57, 101,
   39, 18, 20, 10, -44, -121, -2, 30,
   66, -22, -23, -15, -25, -28, 85, 44,
   66, 1, -127, -39, 0, 20, -27, 93,
   3, -43, 5, -51, -13, -85, 29, 33,
   50, 69, 10, 49, 99, 58, 23, 22,
   -10, 43, 11, 33, 41, 1, 12, -125,
   120, 33, -34, 2, 32, -64, 119, -29,
   -125, 22, 18, 41, 47, 16, 43, -8,
   -49, -40, 1, -17, -89, 43, 51, -101,
   30, 4, -23, 33, -35, 69, -47, -19,
   -9, 1, -93, 8, -31, -9, 24, -17,
   -55, -9, -90, -92, -5, -53, -33, 22,
   -58, -54, -9, -13, 106, -58, 76, 32,
   -112, 22, -40, -35, 52, -74, 78, 45,
   -63, -73, -17, -42, 35, 126, -18, -22,
   70, 54, -128, -42, -66, 51, 18, 126,
   38, -37, 16, 23, 15, 50, -9, -10,
   34, -92, 8, -123, -4, 4, -21, -52,
   51, -29, 44, -36, 12, -33, -22, -82,
   29, -35, 15, -51, 14, 78, -62, 93,
   27, 54, 16, -37, -101, 123, 0, -54,
   13, 65, -37, -6, -36, -46, -59, -121,
   -13, -56, -36, -26, -75, 17, -36, -34,
   -13, 69, -14, 14, 1, -101, -79, 19,
   -96, -67, 31, -3, -71, 12, -10, 54,
   1, -45, 14, -32, 8, 24, -107, -81,
   -65, 12, -15, -68, -115, -4, 28, 21,
   -56, 30, -70, 55, -94, -125, 19, 33,
   65, 14, -7, 53, 74, -60, -38, -60,
   -40, 5, -13, -28, -101, 36, -34, 12,
   -98, 56, -54, -25, 61, 31, 39, -14,
   -67, 8, 14, -59, 68, -54, -51, 17,
   53, 16, 3, -115, -63, 32, -47, 38,
   -74, 106, 80, -24, -12, 0, -91, 10,
   48, 27, 29, 103, 4, -51, -85, -89,
   -69, -18, -52, 84, -26, 9, -93, 4,
   13, -115, 8, -8, 8, -45, 3, 80,
   104, -17, 41, -72, 39, 60, 51, -4,
   -8, -65, -83, -56, -14, 8, -12, -23,
   -44, 34, -75, 62, -66, 22, -64, 47,
   -128, 7, -60, -98, -85, 16, 15, -5,
   10, -127, 42, -78, 83, 46, -67, 14,
   40, -36, -78, 33, 7, -42, 12, 93,
   -33, 17, 32, -106, -40, -7, 4, 40,
   -24, 39, -17, -23, 39, -59, -69, -10,
   -30, -2, -24, 65, 5, 11, 65, 121,
   20, 8, 35, -73, -14, -4, -10, 26,
   -55, 0, 10, 37, 8, -91, 23, 35,
   23, -65, -10, -9, 30, 10, 41, 44,
   -24, -20, -48, -67, -14, 27, 85, -26,
   -41, -38, -50, -115, 32, -98, -2, 44,
   -13, 17, -108, 22, -2, 2, -68, -123,
   8, -72, -59, 45, 49, 1, -69, 25,
   -49, 26, -11, -31, -67, -34, -16, -32,
   55, -59, 23, -37, -18, -28, -25, -5,
   -46, -13, -32, -20, 12, 51, -9, -85,
   -35, -38, 25, 11, -79, 110, 33, 40,
   59, 9, 28, 11, -87, 37, -33, -52,
   -1, -64, -2, -18, 95, -12, 6, -56,
   18, 78, -5, -5, -36, -93, 28, -54,
   31, 24, -35, -124, 58, -1, 17, -76,
   -126, -27, -119, 24, 32, -24, -28, 52,
   35, 20, 14, 57, -17, 14, 22, 10,
   6, 73, -25, -15, -91, -26, -19, -126,
   -21, 47, 79, -54, -18, -118, -123, -8,
   64, -32, 23, 37, 12, -18, -20, -58,
   -71, -44, -18, -26, 79, 46, 4, -64,
   31, -14, -9, 45, 91, 36, -24, 45,
   109, 72, -41, -82, -20, -21, -30, -40,
   -14, -8, -50, -23, -8, -69, 38, -15,
   -1, -23, -24, 60, -41, -74, -96, 35,
   93, 7, -32, 9, -70, 80, -4, 59,
   6, -62, 43, -42, -3, -88, 12, -28,
   -51, -70, -27, 17, 32, 11, 12, 80,
   -63, 35, -49, -21, -21, -49, -50, 27,
   -12, -64, 26, 49, -32, 17, -20, 23,
   99, -15, -62, -17, -10, 127, 12, 28,
   52, -44, -3, 32, -70, -15, -37, 17,
   -6, 92, -101, -52, 11, -13, 54, 31,
   -39, -21, 4, -10, -107, 77, 38, -112,
   17, -4, 26, -11, -64, -36, 47, -28,
   -115, -33, -63, -25, -78, -45, 1, 11,
   45, -36, 11, 72, -3, -1, 14, -37,
   -7, 65, 49, 37, 10, -15, -45, -2,
   39, -82, 64, -47, 28, -1, -56, 84,
   -30, 7, 35, -51, 7, 61, -25, -25,
   60, 46, 76, 84, 17, 60, 54, 23,
   21, 85, -62, 5, -66, -52, -48, -52,
   110, 16, -9, 77, -8, -107, 1, 4,
   -58, 81, -22, 10, -28, 6, 81, 22,
