/*
 * SUITE: leavened-quisling-2018-08-31
 *
 * INTENT:
 *
 * Voice in a noisy recording environment.
 *
 *
 * SIGNAL:
 *
 * voice
 *     hamlet-002-act-1-scene-1.1626
 *         http://etc.usf.edu/lit2go/94/hamlet/1626/
 *     human_rights_un_chi_nf.mp3
 *         https://librivox.org/universal-declaration-of-human-rights-by-united-nations-volume-02/
 *     human_rights_un_cze_msed.mp3
 *         https://librivox.org/universal-declaration-of-human-rights-by-united-nations-volume-02/
 *     huntingofthesnark_01_carrol_128kb
 *         https://librivox.org/the-hunting-of-the-snark-by-lewis-carroll-3/
 *     teacupclub_01_armstrong_128kb
 *         https://librivox.org/the-teacup-club-by-eliza-armstrong/
 *     warletters_01_allan_128kb.mp3
 *         https://librivox.org/war-letters-from-a-young-queenslander-by-robert-marshall-allen/
 *     TSPspeech
 *         http://www-mmsp.ece.mcgill.ca/Documents/Data/
 *
 * sounds
 *     cough
 *         https://freesound.org/ sounds: 205012 222644 252240 323532 342587 343880 343885 343986 369295 391284 401334 407839 419781 425777 87412
 *     laugh
 *         https://freesound.org/ sounds: 167578 189278 263775 319346 343934 344043 344064 367680 381275 383237 393353 401214 433921 73123
 *
 *
 * ./chopper voice/hamlet-002-act-1-scene-1.1626.raw voice/human_rights_un_chi_nf.raw sounds/cough.raw voice/human_rights_un_cze_msed.raw voice/huntingofthesnark_01_carrol_128kb.raw sounds/laugh.raw voice/teacupclub_01_armstrong_128kb.raw voice/warletters_01_allan_128kb.raw voice/TSPspeech.raw
 *
 *
 * NOISE:
 *
 * rnnoise_contributions
 *     https://people.xiph.org/~jm/demo/rnnoise/rnnoise_contributions.tar.gz
 *
 *
 * ./noise-chopper *.raw
 *
 *
 * COUNT: 10000000 (x87)
 *
 * NOTE: All files processed into correct raws through ffmpeg: ffmpeg -i in -f s16le -ac 1 -ar 48000 out.raw
 */

/*This file is automatically generated from a Keras model*/

#ifdef HAVE_CONFIG_H
#include "config.h"
#endif

#include "rnn.h"
#include "rnn_data.h"

static const rnn_weight input_dense_weights[1008] = {
   2, -7, 5, -3, -2, -18, 0, 6,
   -3, 1, 5, 1, -18, -2, -2, 8,
   -8, 12, 19, -10, -43, 8, 5, 3,
   -13, 9, 23, -8, 16, 29, -9, -10,
   1, -13, -20, 39, 0, 18, -22, -15,
   -46, -1, 1, 8, 10, -25, 18, 23,
   -30, -1, 42, -8, 6, -18, -13, 31,
   3, 2, -32, 9, -2, -28, -44, -29,
   -41, 23, 14, 7, -37, -35, -11, 11,
   1, -18, 19, 15, -7, 19, 3, 10,
   -7, 34, 4, -20, 16, 53, -37, -62,
   27, 48, 2, 3, 29, -31, 19, -26,
   5, -37, 1, 14, 2, -68, -9, -63,
   -8, -17, 24, 48, 22, -23, -13, -62,
   -9, 9, -12, -22, -56, 9, -53, -25,
   -9, -5, 18, 11, -9, 41, -16, -48,
   16, -48, -2, -5, -19, 73, -19, -36,
   -18, -25, 8, -23, 80, -45, 38, 1,
   -65, -40, -59, -27, -90, -122, 29, -66,
   -2, -56, -28, -124, -10, 10, -17, 123,
   67, 97, 34, -86, -78, -20, -110, -110,
   -1, -6, -72, 98, 89, -21, -37, 0,
   -6, 15, 127, -17, 11, 121, -128, 127,
   65, 30, -102, -86, 50, -20, 15, -69,
   -88, -72, -86, 69, -58, -100, -43, -2,
   57, -99, 106, -102, 120, -125, -101, 126,
   74, 100, -50, -73, -61, -99, -111, -126,
   -53, -87, -18, 71, -125, -26, 31, -101,
   -7, 4, 56, -95, 0, 76, -55, -52,
   79, 18, 51, -99, 3, -74, 2, -87,
   -10, -26, -127, -10, 33, -90, 75, 126,
   1, 64, -22, -20, 28, 23, 19, 106,
   127, -76, 70, -41, 80, 9, -125, 89,
   -63, 83, -48, 4, -41, 51, 126, -30,
   -68, 72, -126, 65, 30, -18, -13, 126,
   114, -82, 19, -124, 107, 28, 32, 14,
   -4, 35, 127, 18, -38, 55, -12, -122,
   119, -79, 127, -53, 59, 31, 120, -76,
   -117, 17, 105, 13, -128, 127, -100, 80,
   -49, 68, -12, 34, 59, -61, 2, 55,
   23, 11, 4, 118, 125, 86, 72, -127,
   -60, -72, 33, -67, 19, -63, 92, 114,
   47, 12, -125, 32, 40, -82, -127, 93,
   54, 122, 112, -24, -112, 31, 120, 18,
   -57, -54, -20, -122, 61, -11, -97, 94,
   40, -126, -22, -6, 40, -87, -126, 28,
   25, 127, 44, -46, -17, 122, -13, -33,
   -40, 115, 15, -61, 127, -32, 49, 84,
   27, -68, -50, 12, 95, -93, -100, 126,
   75, 24, 65, -55, 32, -92, 126, 15,
   -122, 126, -83, -67, -122, -128, -7, -12,
   75, 95, -41, 127, -55, 48, -126, 8,
   123, 80, -3, -31, -126, 95, -72, -123,
   -48, 127, 58, -35, 91, -128, 36, 95,
   26, -79, -85, 127, 17, -102, -109, 23,
   86, -19, 85, -33, -112, 98, 114, -10,
   -124, -61, 77, 85, 84, -121, -125, 48,
   -25, -99, -126, -36, -69, -86, 113, 99,
   -7, 127, -127, -12, 127, -82, -70, 79,
   -128, 125, -87, -121, -125, -128, 46, -94,
   78, -47, 46, 28, 71, -127, 54, 83,
   127, 120, -127, 124, 126, 26, 103, -106,
   -54, 89, -38, 105, -88, -75, -80, 4,
   -71, -38, -63, 25, 52, 104, -10, 69,
   102, -50, 126, 127, -70, 72, 49, 127,
   -123, 34, -76, 14, -93, -117, 81, -67,
   127, 5, 76, 100, -98, -68, -116, 127,
   -45, -128, -77, 18, 12, 125, -87, -20,
   21, 102, -29, -53, 10, 48, -8, 101,
   22, -4, 22, -12, 127, -87, -126, 51,
   -128, -119, -122, 66, 78, 3, 32, 60,
   -28, 40, 30, 4, 56, 56, 18, 82,
   -104, 58, -47, -56, -41, -47, -113, 127,
   12, -19, -95, 56, 16, 51, -127, -51,
   -118, 29, 9, -16, 66, -33, 11, 121,
   56, 21, -70, 10, -20, -21, -11, 76,
   -29, 6, 71, -35, -62, 55, -52, -2,
   -108, 31, -34, -33, 73, 121, 41, -123,
   -67, -80, -18, -44, -2, -35, -105, -59,
   -69, 81, -86, 55, 74, 61, -57, -117,
   17, -1, 37, 20, -84, -7, -77, -10,
   35, 15, 3, 70, -39, 4, 26, -12,
   58, 23, 35, -80, -14, -7, -85, 32,
   -127, -21, -113, -98, 69, 96, -47, -67,
   124, 9, -1, 120, 12, -71, -9, 44,
   -31, 113, 6, 13, 9, -44, -13, 31,
   -21, 65, 2, -45, 15, 51, 15, 92,
   26, 34, 10, 32, 92, 98, 7, 108,
   -15, 56, -19, 51, -45, 79, -8, 11,
   -28, -31, -11, -9, 40, 38, -57, 21,
   18, 34, -125, -46, 57, -7, -23, -50,
   45, 70, 38, 12, -28, -51, -4, 61,
   -123, 49, -59, -12, -80, 59, 19, 78,
   45, -31, -52, 33, -38, 127, -115, 49,
   -19, -32, 85, -10, 77, 26, -77, -69,
   104, -112, -91, 26, -78, 44, -65, -23,
   26, -15, -118, -127, 79, -126, -4, -37,
   33, -11, 14, 52, -15, 18, -69, -55,
   -76, 93, -12, -69, -44, 15, -18, -63,
   -15, 94, -99, 77, -46, 111, -13, -77,
   14, -43, 0, 68, -37, 93, 106, -16,
   -91, 127, -37, 13, -27, -39, -50, 17,
   27, 115, 125, 111, -117, 22, -128, 16,
   127, 127, 47, -18, -54, -24, -115, -99,
   -47, -15, 66, 127, 32, 91, 46, 125,
   86, 66, 127, 86, -101, -52, -127, 122,
   126, 93, 100, 17, -126, 98, -99, -81,
   62, -15, 69, 90, -17, 75, -6, 127,
   121, -61, -41, -24, 10, 115, 99, 44,
   -73, -41, 121, 17, 38, 33, -40, -8,
   56, 50, -64, -60, 98, -10, -56, -62,
   80, 123, -13, 15, 23, 80, -127, 81,
   127, 69, -67, -16, -85, -14, -38, 59,
   -61, -56, 32, 127, -40, 4, 40, 33,
   33, 6, 117, -35, -4, 71, -6, 92,
   126, 66, 83, 17, -87, -31, 7, 17,
   -8, -103, 0, 121, -34, -54, 38, 50,
   66, -98, -25, -17, 49, -49, 121, -58,
   -92, -87, -1, -29, 127, 63, 13, 91,
   0, 111, -59, 26, -28, 127, -19, -118,
   -11, 36, 124, 29, 16, 26, 50, 26,
   9, -40, 82, -25, 39, -78, -23, 1,
   -25, -26, -13, -113, 17, -10, -19, -18,
   67, -24, -28, 127, 4, 56, 17, 23,
   13, 83, -5, -27, 48, -15, 10, -65,
   -46, -22, 47, 28, 127, 25, 12, 18
};

static const rnn_weight input_dense_bias[24] = {
   -11, 127, -60, 4, 127, 125, 20, -58,
   -127, 22, -74, 41, 103, 41, 25, -125,
   93, -59, -127, -26, -1, -128, 41, -1
};

static const DenseLayer input_dense = {
   input_dense_bias,
   input_dense_weights,
   42, 24, ACTIVATION_TANH
};

static const rnn_weight vad_gru_weights[1728] = {
   -10, -117, 52, 91, -127, -32, -128, -96,
   50, -114, 24, 25, 54, 28, -122, -127,
   -97, -125, -27, -20, -70, 21, -10, 17,
   123, 50, 126, 7, -121, 32, 88, 2,
   9, -116, 37, -84, 17, 32, -26, -120,
   -31, 21, 33, -54, -50, -47, 127, -36,
   -109, -100, -16, 47, -114, -120, -65, 86,
   26, 121, -77, -22, 43, 14, 4, 40,
   -122, 122, 6, -43, -128, 50, -14, -5,
   -126, -97, 23, -121, -58, 68, -10, -111,
   -122, -39, 127, -25, -103, 34, -55, -50,
   37, 4, -126, 96, -37, 127, -26, 127,
   41, -57, -25, 127, 14, 98, 5, 22,
   6, -83, 71, -77, 96, -18, -126, -100,
   26, -11, 45, 12, 23, 127, -51, 126,
   3, 99, 49, 14, 26, -27, 16, -50,
   34, 34, 73, -82, -10, 7, 48, -90,
   41, -2, 19, 40, -16, 13, -19, 57,
   -65, 60, -37, -126, 74, -56, -25, 96,
   -115, -39, -79, -47, 73, 71, 125, 22,
   41, 51, -124, -123, -127, 50, 127, -39,
   23, 92, -69, 126, 108, -125, -128, -95,
   -88, -86, -85, 47, -72, -45, -100, -127,
   126, -112, 127, 14, 127, 66, -127, 14,
   -34, 32, 21, -90, -56, -43, -5, 123,
   -85, 26, -13, -94, 15, -23, -110, 59,
   -12, 41, 16, 40, -59, -20, -14, 27,
   65, -117, -126, 35, -42, -84, -23, -125,
   -90, -118, -128, -127, 32, 126, -127, -66,
   -126, -126, -82, -53, -110, -69, -128, -50,
   -44, -35, -38, -110, 54, 93, 13, -16,
   -71, -128, 124, -118, -13, 125, -84, -56,
   53, -16, -93, -43, -113, 10, 87, 68,
   -123, -34, 43, 83, 35, -20, -39, 63,
   -54, 122, -45, -114, 59, -120, 2, -35,
   -78, 127, 97, 54, -78, -48, 48, 50,
   -123, 40, 127, 124, 25, 127, 58, -63,
   94, -63, -46, -58, -37, 126, 96, 121,
   -64, 1, 84, 106, 14, 127, 102, -57,
   31, 27, -21, 126, 51, -69, -127, -31,
   16, 20, -121, 57, -32, -50, 6, 41,
   101, -125, 79, -9, 42, 61, -60, 54,
   33, 47, -90, 35, 108, 35, 80, -49,
   50, 11, 77, 28, -9, 9, -34, -13,
   72, -98, -17, -51, -31, -15, 87, -12,
   -71, -30, 22, 87, -81, -24, -68, 22,
   -36, -69, -42, -123, -41, 127, -59, -19,
   -24, 31, -52, 51, 31, 127, -97, 88,
   99, -21, 91, 39, 46, -53, 60, -4,
   -87, -20, -27, 47, 4, 47, -40, -41,
   4, 127, -3, 125, 77, 124, 71, 98,
   -12, -49, -44, -9, -46, 34, -20, 35,
   42, -36, 0, -55, 58, -12, 33, -6,
   -49, 37, 13, 2, 5, 20, -59, 85,
   -81, 92, 47, 127, 30, -59, -31, -66,
   -3, -124, -112, -7, -23, -94, 126, 74,
   9, -120, 72, 47, 24, 67, -68, -6,
   19, 127, -76, 52, -17, -11, -116, -113,
   -73, -35, 14, 75, -32, 17, 20, 117,
   -9, 127, 113, 69, -6, -39, -16, 24,
   91, -54, -37, 100, 88, 25, -39, -50,
   73, -90, 67, 88, -39, -58, 118, -17,
   45, -71, -80, -35, 120, -20, -59, -45,
   -11, -109, 74, -15, -17, 99, 43, 123,
   1, 13, 43, 19, -15, -1, -109, -46,
   -13, -2, -53, 40, -37, -120, 31, -124,
   121, 4, 96, 53, -84, 20, 19, -127,
   -6, -27, 58, 60, 9, 46, 127, -8,
   -26, 56, -3, 12, -39, 66, 99, -128,
   -53, -6, -20, -36, 31, -106, -21, -24,
   -64, -1, -78, -37, -20, 10, -38, 22,
   -31, 16, -43, -59, -51, -3, -20, 4,
   123, 127, -127, -127, 97, -53, -6, -80,
   -128, 73, -37, -12, -14, -126, -18, 21,
   122, -8, 8, -125, -73, -128, -101, -22,
   -26, 61, -126, 9, -21, -54, 32, -120,
   17, -93, -76, 17, -74, 59, -45, -49,
   -40, 14, -127, -59, 53, -16, -79, -32,
   6, -22, 40, -37, 93, 90, 0, 6,
   92, -3, -10, -25, 33, 52, 10, 45,
   39, -5, 97, 66, -43, 50, 108, -45,
   25, 112, -127, 11, 127, 4, 72, -24,
   -21, 127, -12, -82, 52, -88, -2, -56,
   -33, -34, 28, -19, 113, -31, -125, 3,
   -82, -12, -28, -98, -90, 26, 126, -98,
   -46, -74, -89, -103, 73, 99, 41, -38,
   -67, 53, -128, 72, -60, -69, -29, -7,
   -72, -116, 15, 44, -14, 27, -65, 15,
   -63, 74, 41, -82, 16, 110, -96, 95,
   -15, -57, 51, 29, -29, 0, -52, 103,
   77, -49, -74, 82, -21, -47, 123, -126,
   -57, -103, -114, 124, 4, -51, 59, -51,
   108, 51, 55, 10, 36, -27, -72, -88,
   127, 127, -51, -40, -80, -126, 94, 21,
   4, -35, 104, 111, -31, 61, 29, -4,
   -95, 122, -125, 79, -10, 61, -20, -20,
   -65, -82, 43, 45, -31, -34, -48, -16,
   36, 37, -18, -25, -15, 51, -53, 4,
   23, 61, -21, -80, 57, -81, -52, -34,
   127, 35, -7, 109, -66, -34, 102, 28,
   127, 43, -20, 110, 39, -53, 86, -42,
   111, -7, -88, -42, -125, 53, 91, -12,
   -51, -126, -40, -46, 23, 97, -125, -123,
   48, -7, 50, -41, 23, 118, 52, -1,
   127, 102, -85, -14, 125, 68, -118, -72,
   -127, -103, 46, -78, -118, 48, -125, 84,
   -120, 82, -100, -128, 47, 36, -73, 13,
   -125, -11, 70, -18, 48, -40, -32, 43,
   4, 37, 125, -16, 19, -43, -79, 46,
   -39, -4, 13, -46, -71, -15, -127, 12,
   4, -21, 10, 125, -80, 31, -67, 123,
   -30, 46, 36, 20, 31, -49, 37, 29,
   -8, -50, -43, -104, 2, -66, -33, 39,
   32, -81, -2, 27, -11, 13, -82, 7,
   39, 48, -17, -23, 5, 24, 16, 26,
   44, -4, 8, -32, 58, 1, -60, 10,
   65, -4, -66, -9, -40, 47, 0, -28,
   -125, -126, 11, -93, 37, 45, -115, 34,
   -75, -22, 14, -51, 64, -4, -84, 25,
   -116, 117, -126, -124, 9, 127, -69, 45,
   -67, -118, 2, -21, 87, -127, -6, 62,
   -116, -54, -57, -29, 100, 88, -34, -27,
   -6, -8, -120, 72, 13, 9, -126, 34,
   -114, 15, 39, -15, -99, -80, -93, 76,
   -62, 103, -106, -111, -6, -37, -101, 35,
   -82, 67, 13, 71, -4, -47, -52, 44,
   -120, 85, 49, 38, 23, 105, -29, -120,
   7, -127, -7, 125, 33, -123, -52, -7,
   -17, -117, 110, 31, 14, -67, -52, -100,
   -46, -86, -61, -17, -4, 76, 64, -68,
   96, 64, 78, -4, -47, -9, 112, -26,
   -30, 54, -79, 22, -80, 66, 126, 96,
   82, -15, -37, 127, 100, 15, 119, -30,
   80, -126, -40, 67, -71, 108, 48, -27,
   82, -36, 22, -5, 55, -25, 29, -23,
   127, -11, -33, 127, 48, 90, 127, 67,
   127, 86, -64, 123, 23, -120, 97, 2,
   127, -23, 27, -90, 10, -34, 70, -31,
   87, 11, -15, -20, 12, -125, -124, 123,
   -78, -76, -126, 121, 7, -50, 95, 35,
   -127, 124, 2, 30, -4, -127, -13, 87,
   -107, -6, -34, -78, 62, -92, 31, 77,
   -44, 19, -20, -122, -27, -6, -87, 61,
   -9, -7, 22, 9, 43, -18, -73, 67,
   -124, -68, -12, 67, 46, 117, -127, -14,
   -16, -127, 0, -107, -8, 36, -57, -9,
   -107, -93, -92, 53, -25, 127, 35, 127,
   -14, 52, 77, -55, 58, -108, -51, 45,
   -17, 37, 2, -65, 121, 21, 14, 5,
   4, -115, 120, 125, -58, 68, 7, 127,
   62, 47, 18, 43, 17, -42, 18, 0,
   -5, 7, 17, 0, -75, 55, 42, -42,
   23, 28, -6, 49, 12, 47, 64, 5,
   43, 82, 64, -79, 36, 10, -30, 127,
   -99, 55, 74, 91, -83, -57, 70, 20,
   -51, 108, -7, -32, 29, -81, 82, -128,
   83, 73, 65, -46, -40, -29, 17, 5,
   -30, 42, -121, 33, -44, 11, 116, -55,
   50, 64, 16, -2, 51, -70, 33, -126,
   -85, -55, 4, -17, 12, -1, -55, -26,
   -63, 14, 23, 48, -6, -64, -11, 27,
   -16, -2, -37, -7, -86, -46, -49, 37,
   28, 59, -62, 22, 19, 17, 121, -105,
   -17, -30, -79, -105, 93, 33, 126, -43,
   -36, -27, -37, -92, 48, -128, -90, -127,
   -115, -74, -69, -34, 8, 64, -70, -63,
   -28, -11, 6, 99, -98, 5, 46, 49,
   9, 3, 1, -82, -13, -127, 37, 14,
   -30, -21, -12, -51, -49, 32, -41, 75,
   40, 80, -46, -73, 26, -6, -2, 49,
   -25, 39, 69, -55, -9, 39, 49, -58,
   -16, 127, -66, -1, -87, 46, -29, -26,
   -63, 24, 13, -64, -66, -111, -70, -15,
   10, 79, -43, -101, -2, -62, -119, 72,
   -128, -128, 20, -29, 62, 57, -122, -126,
   86, -28, -127, -114, 3, -94, -128, 2,
   93, -110, 48, 12, 10, 82, -103, 25,
   -51, -44, 82, -7, -40, 22, 73, 75,
   3, -20, 58, -127, -55, -11, -128, -82,
   -27, -57, -5, 7, 10, -43, 120, -19,
   -22, 13, 70, -35, -103, -2, -35, 15,
   -74, -65, -37, 5, -62, 60, -128, -24,
   -27, -29, -65, 83, -83, 127, -125, 115,
   18, 84, 122, -44, 60, -15, -1, 4,
   -123, -123, -26, 1, -89, -5, -80, 20,
   44, 8, -20, 31, -78, 103, -55, -39,
   -37, -26, 45, -13, 43, 0, 34, 42,
   -32, -10, -34, 10, 54, 6, -100, -18,
   -47, -33, 46, -25, -27, -12, -27, 15,
   109, -43, -36, 13, -76, -63, -59, -122,
   127, 127, -61, -14, 49, 67, -16, -125,
   5, -17, -65, 84, 81, -128, -127, -63,
   -25, 11, -27, -94, -13, -124, -5, 75,
   -29, -84, -29, -104, 44, 33, -62, 40,
   -106, 7, -100, 30, -71, -128, 80, 63,
   -44, -64, 47, -78, -12, 38, -55, 110,
   9, 61, 30, -76, 16, 15, -26, -26,
   -124, 88, 61, 0, -58, 33, -8, 65,
   -126, 39, -55, 43, 114, -15, 45, 43,
   -113, -128, -109, 60, 76, 81, 99, 93,
   112, 29, 3, -63, 71, -22, -32, -83,
   -125, -78, 18, 46, 103, 56, -100, -49,
   -37, -20, 33, 65, -128, 5, 56, 49,
   52, 127, -8, -50, 71, -62, -8, -52,
   -114, -60, 9, -102, -105, -2, -32, 37,
   -69, 79, 32, -95, 42, 100, -30, -1,
   -91, 31, 70, -24, -33, -53, -61, 45,
   -74, -122, -124, -81, 12, 13, -51, -118,
   10, -125, 92, 76, 63, 57, -37, -124,
   89, -114, -127, -40, -98, -91, -108, 56,
   69, -127, -122, 54, -56, 47, -61, 117,
   -1, -38, -47, 38, -3, 127, -11, -43,
   -31, 16, -16, -13, 30, 2, 53, 66,
   -64, -6, 64, -49, -22, 4, 0, 40,
   -45, 69, -89, -63, 60, 88, -101, 53,
   -54, 87, 110, 71, -72, 10, -29, 6
};

static const rnn_weight vad_gru_recurrent_weights[1728] = {
   -111, 64, -6, 5, 37, 9, -89, -68,
   22, -3, -40, -112, -95, 7, -26, -53,
   -22, 23, -60, -9, -46, -10, 32, 37,
   -50, 35, 9, -53, 15, -6, -22, -20,
   9, 27, -9, 19, -32, -14, -13, 9,
   -50, -9, 19, 73, -59, -38, -9, 34,
   127, -81, -24, -23, 84, -50, 16, -74,
   80, -128, 48, 72, 29, -128, 107, -7,
   127, -91, -20, 8, 21, 32, -14, -16,
   -126, -128, -34, -18, 91, 46, -128, -127,
   -105, -128, -48, -127, -20, 112, -98, -31,
   -79, -127, -64, -12, -114, 13, 70, 97,
   1, -45, 14, -61, 26, 6, -19, 61,
   25, 6, 28, -62, -7, 14, -5, -11,
   -8, -110, 81, -59, 100, 56, -12, -45,
   127, 127, -49, 46, 98, -5, 127, -127,
   98, -128, -22, 127, -103, -50, 126, -73,
   127, -88, -33, -34, -79, 74, 122, -44,
   48, -79, 35, -126, -116, -119, -83, -126,
   -74, 20, 23, 127, 78, -103, -57, 93,
   -37, 60, 96, 127, 125, 9, -85, 114,
   16, -50, -36, 85, 69, 2, 20, -102,
   66, -103, -34, 68, -39, 57, 123, 0,
   20, -41, -28, -67, -47, -29, 83, -34,
   -127, -128, 60, -9, -48, -47, -97, 95,
   -60, 126, -61, 23, 89, 21, 117, -124,
   -112, 82, 121, 124, -77, 91, -87, -29,
   -128, -69, -20, -41, -19, -18, -127, -117,
   -26, -127, 1, -69, 11, 17, 80, 127,
   -124, -119, -122, -92, -41, 111, -2, 1,
   6, -83, -53, -16, -11, 103, 33, -74,
   -76, -48, 58, -31, -58, 0, -37, -21,
   76, -127, -64, -3, -71, 61, 17, 108,
   127, 127, -14, 83, 121, -3, 127, -76,
   125, -127, 18, 119, -90, -120, 0, -67,
   126, -110, 7, 55, -26, 85, 126, -55,
   66, -59, 19, 6, 26, -14, 29, -116,
   36, 66, -11, -48, -110, -68, -89, -62,
   -39, -80, -39, -74, -74, -5, 16, -65,
   114, 37, -51, 53, 59, -87, -66, 6,
   -24, -15, -58, -27, -48, 67, -48, -50,
   22, -75, 4, -108, -14, -25, -45, -14,
   -18, 52, 25, -34, 37, -18, -41, 15,
   13, -21, -120, 92, 15, 15, 21, 41,
   52, -72, 83, 81, -3, -69, -2, -29,
   127, 127, 27, -88, 123, -73, 78, 76,
   76, 127, 127, 16, 109, -102, -122, -77,
   126, 43, 24, 32, 41, -70, -127, -55,
   122, 81, 30, 111, 2, -67, 127, 105,
   -116, -25, 60, -25, -65, -36, -56, 39,
   41, 92, -32, 98, -87, 48, 69, 107,
   111, 16, -64, 48, 64, 126, 53, -123,
   53, -111, 117, 26, -76, -128, 19, 67,
   119, -110, -107, -41, 79, -50, -19, -14,
   -47, 57, -21, 54, 109, 35, 28, -33,
   12, 20, 49, -14, -11, -77, -23, -73,
   -11, -32, 17, -79, -49, -17, 124, 43,
   117, 17, -14, 63, 37, 22, -41, 21,
   -42, -7, -1, -54, -44, -13, -89, -26,
   -26, -76, -22, 33, -98, 6, 84, -6,
   127, 82, -29, 21, 120, 61, 72, -91,
   56, -128, 95, 127, -88, 16, 60, -29,
   127, -80, 26, 34, -68, 23, -10, 58,
   36, -80, -126, -83, -125, -57, 54, 124,
   4, -58, -31, 124, -34, 53, -17, 16,
   -19, -47, 32, -21, 41, 3, -47, 41,
   -47, -89, -13, -38, -88, 7, -19, -9,
   18, -92, -26, 36, 18, 38, -34, 29,
   -88, -13, 50, 103, 38, -18, -44, 61,
   -128, 12, 125, -79, -105, -49, -125, 125,
   -124, 127, 9, -104, 76, 29, -99, -24,
   -127, 43, 51, 11, -28, -36, -45, -57,
   -24, 87, 7, -119, 100, -13, -90, -123,
   3, 11, -42, -124, -15, 6, -24, -98,
   -121, -20, -46, -108, 21, -36, 22, 57,
   9, 11, -45, -71, 13, -24, -16, 13,
   -26, -9, -79, 25, -50, -18, -46, -65,
   59, -102, -25, 5, -88, -30, 48, 74,
   116, 126, -62, 34, 6, 32, 73, -63,
   67, -12, 34, 78, -37, 32, -13, 65,
   97, -40, -19, -8, -12, -3, 127, 67,
   102, 24, 60, -32, -72, 62, 118, -21,
   92, 120, 50, 96, 95, 43, 39, 9,
   -74, 83, 50, 68, 52, 3, 8, -23,
   98, 2, -11, 30, -49, 4, 4, 2,
   72, -27, -33, 43, 4, -23, -17, -15,
   -13, -77, -69, -54, -75, -6, -3, 87,
   -53, -17, 127, -50, 47, -11, 41, 52,
   -48, 79, 9, 12, -12, 2, -16, 59,
   -36, 10, 21, 25, 36, 87, 21, 39,
   6, 73, 63, -114, 87, 60, -127, -126,
   -124, -16, 55, -114, 9, 50, 64, -9,
   -79, -128, 63, -61, -8, 45, -4, 12,
   54, 122, 40, 100, 56, 43, 42, 95,
   -60, 35, -12, -5, 9, -108, -67, 66,
   127, -127, 113, 37, -64, -12, 3, -2,
   127, 95, -36, 127, 126, 52, 82, -96,
   126, -125, 96, 106, -128, -38, 123, -67,
   125, -115, -78, -35, 6, -28, 30, -6,
   -126, 11, 116, -8, 103, -1, -24, -125,
   13, -34, -48, -91, -128, -34, -3, 5,
   -125, 30, -127, -8, -5, 124, 30, 29,
   -42, 4, 4, -43, 20, -78, -2, -3,
   -10, -17, -15, -76, -31, -19, 86, 7,
   -3, -110, -59, -118, -114, -115, 5, -40,
   81, -8, 53, 63, 127, -63, 127, -127,
   16, 52, -35, 17, 6, 1, -38, -10,
   127, 10, 82, 78, -10, 56, 111, -64,
   117, 26, -62, 42, -85, -5, 58, 118,
   55, -47, 47, 112, -10, 76, -77, 82,
   102, 38, 127, 18, 67, -57, 69, 70,
   -27, 40, -6, -14, 9, -46, 16, 28,
   50, 24, 1, 27, -16, 6, -44, 27,
   -9, -41, -21, 45, 3, 45, -41, -67,
   -126, -20, 47, -12, -31, -63, -9, -48,
   -61, 70, -56, -71, 27, -64, 2, 27,
   -127, 124, -53, 29, -8, 123, -43, -47,
   125, 126, -28, -11, 64, -9, 126, -25,
   127, 127, 127, 89, 88, -109, 11, -3,
   127, 110, -54, 36, -128, -48, 23, 25,
   108, 15, -122, -51, -76, -50, -50, -8,
   -32, -37, -20, -15, 0, -42, -26, -16,
   -65, 16, 24, -63, -54, -43, -107, -14,
   13, 120, -32, 96, 84, 127, 60, -61,
   19, 28, 61, 44, -90, 49, 11, 37,
   35, -35, -87, -34, 65, 127, 95, -32,
   -118, -107, 125, -123, -93, -2, -122, -125,
   -6, -121, -40, -82, -28, 124, 118, 127,
   -128, -104, -125, 95, 127, 127, 115, 88,
   -70, 98, 5, 88, -2, 127, 53, -56,
   -40, -10, 56, 23, 68, 26, 41, -11,
   3, 21, 79, 10, -4, 70, 61, 126,
   -127, -25, 16, 68, -80, -94, -17, 127,
   -42, 111, -60, 112, 70, -17, 126, 5,
   -128, 36, 115, -3, -99, -34, -94, 14,
   90, 37, -126, 49, 103, -70, 3, 16,
   -106, 44, -28, -69, -82, 9, 127, 27,
   73, -96, -68, -127, -58, -128, -41, -90,
   -30, 78, -80, -78, -13, -81, -77, -35,
   -35, -31, 1, 67, -85, 38, 75, -47,
   90, -96, -46, -16, -53, 0, -34, -13,
   127, 46, -56, 90, -19, -2, 80, 51,
   28, -61, 69, -30, 17, 95, -27, 10,
   31, -57, -94, 36, 10, -51, 111, 75,
   -23, 33, 75, 67, 119, 15, 51, 2,
   -20, -16, 8, 28, -46, -20, -50, -51,
   -15, 34, 3, 48, 2, -1, 30, -67,
   4, -78, 15, -50, 68, -79, -23, 28,
   -20, 32, 4, -49, 6, 46, 52, -21,
   9, -8, 56, -14, 28, 11, 35, -14,
   -49, -66, 50, -72, -30, -19, -87, -4,
   7, 50, -33, -53, -111, 14, 33, 58,
   7, -47, -10, -36, -69, -42, 5, -59,
   126, 114, 46, 126, -41, -61, 88, 122,
   71, 126, -6, 123, 37, 9, 20, 10,
   13, 117, 63, 126, 44, -74, -40, 10,
   84, 59, -26, 69, -18, -27, 36, 0,
   18, -13, 4, 60, -25, 17, -20, 29,
   -41, 34, -11, 49, -100, -39, -1, 61,
   -127, -68, 7, -127, -127, 20, -21, 126,
   -57, 127, -99, -82, 33, 47, 54, -38,
   -128, 24, -17, -81, -39, -87, -120, -4,
   35, -32, -123, -63, -126, -31, 111, -74,
   90, 78, 28, 46, 127, -53, -104, -7,
   -18, -20, 10, 19, 119, -3, -54, 13,
   -36, -116, -108, 48, -41, 75, 46, 13,
   127, -60, -93, 32, 23, 103, -5, 23,
   -39, 25, -20, -9, -39, 52, -7, 115,
   -128, -79, 123, -51, -53, 30, -40, 45,
   -116, 127, -34, -127, 126, 51, 48, -12,
   -128, 127, 86, 59, -59, 41, -35, 11,
   117, 16, -96, 87, -126, -17, 124, 33,
   85, 106, -49, 80, 34, 98, -78, -33,
   50, 66, 108, -99, -3, -125, -42, 56,
   -56, -125, -44, -21, 69, -23, 57, 126,
   113, -13, -23, -35, 23, 102, 70, 0,
   3, -72, 37, -61, 32, -57, -124, 76,
   -128, -128, 124, -127, -90, -103, -127, 55,
   -125, 124, -7, -79, 119, 24, -72, 29,
   -96, 127, 87, 41, -26, 65, -43, 7,
   127, -12, 15, 117, 102, -3, 64, 111,
   22, 47, -11, 114, -100, -112, 43, -127,
   127, 112, 25, -30, -116, -97, -14, -122,
   89, 12, -41, -64, 99, -67, -122, -69,
   -20, 53, -58, 72, -82, -90, 7, -23,
   108, 21, 49, -126, -49, -119, -98, 49,
   38, 127, -121, 71, 66, 75, 84, -57,
   127, -126, 26, 29, -50, -57, -2, 21,
   -5, -86, -83, 19, 127, 38, 15, -75,
   127, 76, -111, 52, -8, -124, 119, 84,
   13, -39, -122, 40, -117, -117, -120, -127,
   127, 124, 10, -128, -78, 28, -113, -77,
   -45, -126, -100, -101, 55, -86, -13, -106,
   18, -60, -127, -3, -126, 112, -9, 18,
   -50, -92, -126, -36, 42, -11, -124, 33,
   -126, -114, 3, -118, -114, -79, -127, 122,
   -120, 101, -108, -105, 68, 112, -126, 20,
   -127, 75, 70, 127, -6, 39, -83, -59,
   -73, 85, -107, -30, 117, 35, -6, 66,
   -60, 85, 30, -104, -70, -79, 38, -126,
   -59, -100, 12, -94, -113, -97, -97, -15,
   74, -55, 3, 65, 94, -35, 37, 26,
   -8, -34, -14, -20, 10, -21, -93, -35,
   12, -123, 6, -29, -63, 12, -35, 47,
   127, 16, 14, 24, 117, 127, 122, -126,
   50, -128, 70, 72, -67, -17, 3, 43,
   127, -85, -126, 47, 53, 34, 84, -77,
   -41, 6, 6, 32, 21, -23, -16, -93,
   -13, -102, 114, -12, 114, -37, 21, 21,
   -126, -74, 5, 127, 38, 127, -127, 126,
   107, 127, 6, 118, 46, 19, 55, -84,
   33, -33, 15, -63, 61, -121, 31, -54,
   81, -81, -101, -4, -63, -47, 82, 70,
   123, 125, -14, 123, 36, 60, 127, -128,
   94, -45, 127, 94, -128, 47, 126, -97,
   97, -28, -97, -127, 112, -75, 72, 51
};

static const rnn_weight vad_gru_bias[72] = {
   -128, -128, 106, -108, -128, -56, -127, -124,
   -123, -127, -78, -116, -17, 118, 71, 127,
   -128, -128, -101, 127, 54, 127, -33, 116,
   -85, -30, 123, 85, -39, 69, 19, -25,
   -28, 18, 32, -4, 41, 20, 36, 49,
   -20, 109, 95, 124, 56, 80, 90, 5,
   -109, -28, 5, -35, -75, -41, -44, 58,
   -24, 14, -21, -20, -1, -28, 36, 2,
   -59, 22, 4, -17, -23, -51, -64, 68
};

static const GRULayer vad_gru = {
   vad_gru_bias,
   vad_gru_weights,
   vad_gru_recurrent_weights,
   24, 24, ACTIVATION_TANH
};

static const rnn_weight noise_gru_weights[12960] = {
   -94, 20, -36, 46, 32, 38, 10, -14,
   -6, 56, -60, 12, -64, 15, 33, -59,
   -56, -25, -29, 42, -41, 35, -37, 29,
   -10, 121, -44, 15, 0, 19, -6, 83,
   30, -28, 49, 19, 21, 36, -49, 19,
   -41, -53, -21, -113, -128, -53, -11, -17,
   33, -35, -2, -39, -22, 65, 0, 55,
   -1, -40, -75, 38, 23, 40, -49, -26,
   25, -49, -56, 13, 35, 34, 1, -82,
   -32, 21, 35, -19, -12, 14, 1, 58,
   -11, -82, -76, 77, -23, 36, -28, -17,
   90, -13, -36, -35, -48, -96, 42, -4,
   85, 82, 13, -17, -35, -58, -38, 92,
   -44, 73, 33, -9, 24, -20, 72, -27,
   -48, -6, -24, -7, -54, 39, -10, -33,
   -3, -44, -6, -6, 96, 29, 65, -31,
   -89, 11, -30, -10, 13, -17, 55, 51,
   -78, 46, -12, -79, 126, 15, 7, -31,
   -22, 46, 22, -20, 1, 0, 25, 52,
   -10, -73, -2, 60, 77, -5, -17, -44,
   -10, 34, -70, -6, 19, 28, -16, 56,
   -29, -1, 13, -59, -22, -18, 2, 5,
   -14, -27, 14, 40, -6, -15, 46, 40,
   -21, 25, 12, -35, -39, 0, 10, 5,
   35, 24, 14, -8, -3, 47, 47, -11,
   -40, -52, 124, -48, 38, 16, 10, 25,
   39, 2, 12, 10, -17, 55, 9, 13,
   -20, -28, 8, -27, 22, 13, 44, 49,
   -53, 2, -76, 42, -33, -13, -45, -34,
   40, 20, -71, 66, 21, -9, 16, -21,
   18, -23, -17, -26, -22, -46, 3, 12,
   51, -49, 17, -37, 42, 12, 41, -19,
   -16, 11, -25, -3, -34, -23, -2, 29,
   -27, -45, 55, -9, -24, -31, -31, 73,
   25, 3, 1, -62, -15, 36, -34, 30,
   27, -59, -38, 0, 65, 0, 111, -32,
   46, 8, 18, 27, 78, 47, -5, 20,
   12, -58, -27, 54, 18, -20, 49, 16,
   -49, -47, -95, 10, 26, -42, -20, -16,
   31, -47, 24, -123, 4, -28, 21, 33,
   67, 10, -19, -45, -75, -32, -7, -53,
   -14, -2, -25, -16, 6, 18, 21, -58,
   33, -9, 46, 39, 6, -23, -6, 91,
   -5, 7, 17, -31, 67, -46, -33, 32,
   22, -69, -82, 1, 8, 6, -20, -13,
   -55, -54, 8, -71, -23, -45, 40, -23,
   -12, -9, 64, -8, -25, 35, -43, 8,
   19, -19, -51, -30, -17, 40, -7, 57,
   -30, -30, -20, -20, 18, 14, -47, -29,
   -32, -28, 26, -37, -48, -20, -35, 7,
   7, -6, -44, 8, -23, -4, -46, 21,
   -86, -36, -31, -36, 68, -49, -24, 6,
   -3, -65, 24, 52, -20, -6, -30, 32,
   -3, -63, -41, -27, 66, -33, -21, 19,
   -93, -1, -56, -37, -59, 33, -25, -34,
   -4, 37, -114, 14, -4, 53, -31, 66,
   83, 5, -87, -12, -65, -48, 35, -30,
   -11, 37, -53, 44, 14, -46, 63, 58,
   32, 20, -43, -16, 117, -5, -123, 11,
   -47, 119, 31, -90, -51, -30, 14, -43,
   39, -30, 48, -47, -9, 22, -40, 7,
   71, -22, -36, 95, -120, 27, -7, -88,
   16, -47, -26, 47, 11, 124, -63, -31,
   -47, 10, -110, -4, -36, 26, 77, -17,
   -34, -114, 20, 35, -91, -54, 26, -13,
   -12, 35, -2, -25, -38, -51, 0, -35,
   68, -38, 7, -26, 13, -65, 46, 79,
   14, -5, -127, 32, 25, 18, 115, 1,
   -62, 69, 27, 47, 13, 79, -52, 34,
   97, -1, 46, 8, 62, -5, -9, -3,
   -42, 40, 29, 14, -77, 57, -3, 25,
   25, -42, -13, -59, 78, -25, -54, -74,
   44, 58, 48, -77, -4, 6, 72, 41,
   49, 17, 85, -43, 44, 18, 80, 85,
   -28, 51, 114, -29, 41, 87, 43, 124,
   45, -54, 59, 20, 59, -23, -12, -22,
   10, 3, -44, 39, 48, 82, 11, 30,
   65, -16, -6, 71, 9, 2, 0, -29,
   -1, -17, -48, -63, -49, -48, 49, 52,
   67, -77, -37, -53, 44, 7, 17, -38,
   28, -99, 82, 27, 66, -29, 43, 60,
   13, -14, 125, 30, 5, -17, -115, 24,
   -8, -11, -77, -27, 11, -89, 80, 32,
   -124, -3, 63, -3, -73, 32, 19, -57,
   -64, 52, -10, -14, -18, 2, 15, -75,
   -33, 10, -2, 52, -10, -18, -20, -13,
   52, 51, 9, 20, 16, 20, 7, -74,
   36, 9, -109, -9, -42, -18, -30, 50,
   6, -8, -78, -5, -21, -72, 20, -18,
   -21, -46, 68, 112, -17, 18, -58, 26,
   57, 28, 51, -43, 2, 0, -5, -3,
   18, -21, 34, -45, 40, 41, -46, -7,
   42, 4, 31, 12, -21, -24, 33, -49,
   -50, -23, 20, -34, -55, 13, -20, -34,
   -27, 33, 37, 49, 46, -7, 75, 14,
   2, 8, -25, 2, 48, 27, 29, 28,
   48, -71, -3, -61, -1, 43, 32, 11,
   -32, -24, 18, -54, -12, -31, 19, -43,
   -9, 4, -30, 12, 11, -40, -15, 12,
   -100, 24, -73, -95, -73, 38, -16, 1,
   40, -18, -3, -31, -47, 49, 29, -69,
   4, -20, -29, -26, 27, 18, -60, -15,
   34, 36, 15, -13, -22, 18, -4, 67,
   15, -40, -6, -8, -2, 8, 8, -11,
   20, 55, -5, 1, -49, -46, 23, 5,
   -44, -6, -28, -46, -29, -20, 34, 13,
   -27, 0, 31, -21, -16, -8, -24, -16,
   -13, 6, -37, 0, 22, -5, 3, 9,
   23, -11, -16, 56, -39, 65, -14, 0,
   -79, -71, 14, 14, 0, -1, -32, 40,
   28, 30, 10, -39, 84, 15, -35, 82,
   -33, 17, 43, 122, -11, 116, -62, -7,
   61, 10, 54, 34, 5, 59, 78, -80,
   35, 28, -11, 62, -97, 71, 34, 72,
   31, 13, 41, -30, -29, 62, -25, 15,
   13, 102, -84, -56, 38, 2, 33, 31,
   -10, 62, 23, -12, -76, 41, 18, -53,
   67, 34, -15, -54, 24, 14, -34, 112,
   16, -61, 10, -37, -37, 3, -30, -4,
   13, 47, 81, 78, 61, -20, 33, -17,
   -11, -30, 27, 32, 51, 5, -27, -10,
   12, 23, -23, -19, 41, 1, -11, -46,
   117, -4, -53, -24, 4, 41, -75, -7,
   6, 12, -3, 6, 15, -71, -24, -4,
   -41, 25, -85, -36, 17, -95, 104, -56,
   16, -11, 28, -14, 22, -39, 33, -9,
   58, -37, 27, -52, -98, 59, 65, -48,
   56, 26, 12, 52, -33, -27, 43, -24,
   -18, 25, -19, -48, -32, 44, -1, 36,
   -37, -67, -45, -17, 51, 9, 12, 11,
   109, 0, 16, -22, -101, -27, -41, 54,
   -26, -37, 50, -74, 45, -88, 57, -38,
   41, 63, -13, -11, 11, 18, -5, 30,
   12, 59, 4, 50, -31, 21, 6, -70,
   -52, -44, -125, -14, -54, -3, -38, -66,
   -27, 16, 27, 11, 29, 26, 52, -121,
   -36, 5, 41, 27, -7, -35, -40, -41,
   14, 63, -14, -2, -27, 38, -55, 5,
   9, -48, -19, -13, 63, 9, -50, -22,
   -25, 37, -5, -37, 10, 21, -23, -55,
   77, 23, -23, 16, -24, -8, 2, 22,
   -72, 25, 15, 33, -34, -37, -26, -3,
   46, 18, 9, 25, 34, 37, 19, -12,
   -44, 35, -20, 17, -2, -35, 48, 34,
   14, -11, -1, 13, -41, -26, -28, 71,
   38, -16, 45, -106, -38, 17, -13, 4,
   -38, 11, 37, -47, -18, -16, 12, -30,
   26, -10, -41, -76, -4, -55, -25, -41,
   15, -24, 10, -46, 8, 1, -78, -79,
   39, 23, -73, 12, -53, 46, 20, -38,
   -78, 16, -31, 19, -21, -32, 46, -44,
   -40, 79, 65, 22, -48, -8, -47, -34,
   8, 28, -49, -8, -61, -21, 8, 23,
   -42, -12, -36, -48, 28, -32, 33, -39,
   -3, 20, 33, -1, -35, 57, -67, 5,
   0, 17, 28, 2, 15, 45, 41, 28,
   -7, 33, 14, -15, 54, -24, 48, -23,
   -46, 36, -18, 55, -2, 13, 26, 26,
   -3, 12, -1, 51, -44, -23, 38, -14,
   16, 17, 40, 9, 33, 7, 10, -47,
   2, -19, 117, 47, 72, 10, -30, -9,
   21, 33, 13, -31, -3, 23, -13, 14,
   -25, -58, -62, 10, -24, 10, -42, -12,
   22, 7, 11, 20, -12, -15, 5, 35,
   -66, -7, 45, 49, -5, -11, -60, 21,
   -90, 36, -58, -5, -1, -30, -54, -47,
   -90, -27, -59, -9, -5, -39, 37, -60,
   53, 43, 33, 37, -13, -65, -80, -45,
   0, -3, 30, -16, -56, -4, 0, -13,
   32, -24, 6, 29, 2, 36, -53, -63,
   -14, 34, -78, -9, -61, 2, -34, -77,
   -28, -12, -72, -55, 114, 30, 10, -15,
   -12, 30, 31, 7, 46, -50, -1, 16,
   81, 40, -39, 67, 21, 118, 39, -53,
   -47, -23, -28, -51, 12, -58, -35, -92,
   24, 57, 29, 16, -2, -61, 17, 7,
   19, 52, -31, 18, -27, 54, 43, 7,
   6, 52, -16, 30, -26, 65, -90, 67,
   21, 28, 85, 12, 27, 12, 12, -41,
   17, 54, -14, -1, -13, -20, 55, 30,
   -38, -12, -71, 93, -31, -43, -20, 70,
   30, 42, -14, -15, -65, -12, 9, 11,
   34, 54, 102, 12, 22, -58, -54, 18,
   -96, 72, -27, -51, 38, -29, -9, -32,
   -22, -10, -39, -18, -36, -44, -40, -107,
   -18, 7, -26, -59, -31, 85, -10, -54,
   -2, -53, -2, 67, -40, 40, 54, -113,
   27, 124, -74, -48, -32, 4, -68, 73,
   13, -37, -4, 10, 6, 60, -100, -74,
   22, -5, -62, 4, 46, 13, 54, 24,
   17, -2, 33, -16, -22, 50, -48, 46,
   12, 9, -66, -14, -2, 23, 24, 106,
   -16, 50, 4, -14, 0, 35, -30, -73,
   20, 37, 90, 5, 1, 32, -19, -33,
   1, 22, -31, 28, 13, 69, -48, 20,
   56, 66, 21, -33, 2, 46, -1, -72,
   1, 9, 94, -11, -22, 6, 4, -39,
   -4, -3, -45, 19, -54, -47, -7, 37,
   69, 3, 43, -58, -14, 47, -34, 86,
   34, -48, 23, -53, 36, 6, 0, 32,
   -63, -13, 43, -23, -46, 48, -66, -15,
   8, -88, -33, -81, 2, -38, 75, 61,
   -2, 20, -33, 49, -75, 9, -17, 95,
   -83, -31, -25, 62, -38, -53, 37, -19,
   100, 9, -78, -91, -15, -86, -3, 62,
   -33, 22, 127, 11, -27, 3, -7, -96,
   -1, -43, -50, 28, 51, -32, -26, 124,
   -38, 53, 18, 1, -2, -62, 9, 5,
   -6, 43, -1, 40, 54, -38, -14, 16,
   -47, -35, 5, -63, -41, -10, -23, -37,
   4, -67, -17, 42, 18, -38, 8, 72,
   27, -27, -16, 10, -66, -39, 3, 24,
   -36, -87, 11, 12, 4, 3, -52, 36,
   -90, -25, -51, 20, -17, 16, -16, 44,
   12, -12, 14, 31, -59, 31, 30, 24,
   2, 72, -53, -38, -25, 25, 30, 12,
   4, 13, -1, -22, -34, -48, -62, -54,
   -64, -17, 8, 85, 54, 58, 45, 30,
   80, 88, 6, -31, -4, -25, 50, -10,
   -11, -22, 55, 72, -18, 28, -10, 15,
   63, 10, 65, 23, 44, 48, -13, 91,
   41, 6, -23, -17, 33, -38, 18, 17,
   19, 20, -37, -5, 24, 36, -21, 29,
   32, -47, -12, -11, -47, 23, -42, -11,
   -7, -33, -16, 22, 11, -56, -29, 44,
   10, 34, 17, 64, -98, -15, 19, -17,
   28, -30, -37, 22, -48, -38, 0, -11,
   -45, -80, 10, 9, 1, -9, 39, -44,
   24, 22, -25, 24, -50, -17, -1, 12,
   52, 4, -10, 25, 31, -48, -13, 25,
   26, -30, -34, 2, 33, -21, 33, 26,
   -40, 18, -15, -23, 0, 7, 29, 8,
   54, 6, -48, -24, -4, 31, -13, -15,
   -9, -15, 20, -16, -7, -61, -41, -6,
   45, 82, -107, -2, -22, -29, 52, -55,
   36, -9, 15, 98, 18, -45, 42, -34,
   14, -73, -25, -12, 70, 91, -22, -37,
   -87, -32, 67, 16, 19, 24, 31, -54,
   6, -16, -20, -45, -12, 2, -10, 78,
   -48, 31, -29, -9, -104, -61, 60, -27,
   -7, -53, 35, -2, 32, 122, 44, 27,
   113, -19, 83, -10, 39, -4, -33, -47,
   -18, -27, -42, -1, 51, 25, -4, -32,
   23, -13, 32, -14, -62, 37, -7, 38,
   2, -4, -2, 37, 53, 41, 9, -13,
   69, -62, 57, -45, 46, -65, 17, 0,
   59, -17, -48, -29, 46, -21, -43, -34,
   10, -54, 56, 1, 14, -55, 23, -38,
   27, 41, -44, -7, 66, 21, -13, 45,
   -10, 3, 30, -5, 41, -43, -5, -30,
   -25, -86, -26, 19, -16, 23, 50, -28,
   -53, -22, -33, -14, 40, 33, -21, -51,
   -27, -20, 40, 121, 34, -61, 31, -1,
   -22, 127, 3, -85, -56, 33, -62, -21,
   6, 12, 74, 65, 75, -12, 8, 11,
   -35, 48, 33, 62, -2, 48, -19, -61,
   -3, -28, 55, 86, 103, -7, 122, -68,
   -23, -48, -43, 46, 97, 29, -7, -25,
   -10, -32, -61, -74, 7, 26, -38, 55,
   -4, 5, 43, -24, 34, 16, 44, 42,
   44, 120, 74, 0, -25, 10, 10, -60,
   23, -30, 41, -22, -44, 24, -35, 102,
   41, -32, 5, -81, -25, 5, 103, -69,
   -39, -38, 23, 15, 35, 21, 74, -78,
   -24, 12, 24, 23, 9, 59, 35, 52,
   23, 28, 0, 1, 12, -6, -22, -56,
   38, 41, -1, -73, -91, 44, 61, -4,
   -16, 45, -16, 21, 19, -28, -27, -48,
   46, 92, -94, -58, 11, -71, -11, 11,
   -9, 118, -25, 20, 31, 71, 27, -126,
   -4, 58, -52, 28, -61, -3, -6, -4,
   26, -5, -41, 7, -35, -52, -25, 115,
   19, -66, -41, -40, -5, -75, -2, 45,
   43, -90, 0, -2, 58, -12, 8, -46,
   -30, -34, 47, -42, -57, 71, 15, -17,
   -14, 37, 60, 21, -49, 9, -16, -84,
   -33, -3, 26, 3, -57, 79, -25, -28,
   -48, -5, -3, -56, -52, 37, 40, -60,
   7, -17, 10, 39, 47, 31, -42, 44,
   25, 22, 42, -27, 15, 11, -52, 50,
   7, -75, -125, -44, -38, 22, -23, 40,
   -19, 79, 42, -28, -21, 1, 11, 72,
   77, -15, -63, 23, 18, 26, 34, -41,
   -7, 20, 17, 20, -34, 53, -2, 7,
   20, -44, 39, 25, 61, 23, 22, 79,
   71, -4, 17, 9, 27, 27, -23, 42,
   -23, 3, -3, 47, 7, 6, -37, 49,
   -33, 37, 1, -18, -22, -49, 19, 38,
   97, 54, 85, -1, 51, 63, 1, 0,
   53, 3, 11, 10, 112, -44, 13, -11,
   -44, -1, 3, -33, 65, 103, -32, 22,
   3, 70, -1, 46, -55, -3, -37, 106,
   -4, -9, -9, 30, -32, -108, 27, -25,
   112, -48, 55, -2, 26, -10, 71, 56,
   -28, -55, 47, -21, 42, -10, -42, -57,
   -13, -21, -5, 44, 12, -35, -3, -4,
   -63, 11, -18, -62, 68, 1, -27, 34,
   68, -16, -57, 13, 45, 61, -30, -45,
   41, -21, -39, 95, 12, -10, 11, -47,
   -21, 64, 9, -41, 73, -10, -21, -7,
   112, 28, 34, 13, -4, -1, 15, -26,
   -33, 20, 6, -37, 21, -4, -44, 34,
   5, 5, -20, 27, -33, 21, 49, 79,
   24, 5, -4, 53, -7, -43, -30, 13,
   5, 38, -60, -64, 5, 54, 4, -58,
   20, 6, 40, 17, -42, 65, 9, 6,
   -5, -38, 2, 27, 30, -3, 25, 42,
   -52, -28, 11, 62, -61, -16, -44, 14,
   38, -63, -5, -32, 39, -57, 19, 8,
   -37, -72, -10, 55, 42, 59, -3, 66,
   43, 65, -4, -3, -47, -56, -127, 44,
   -28, -14, -82, -18, 1, -96, -25, 6,
   -6, -39, -43, 12, 66, 25, 78, -42,
   22, 22, -68, 15, -29, -50, -6, 29,
   18, 12, -105, 16, -7, -28, 21, -80,
   -71, -8, 43, 35, -7, 3, -32, -23,
   10, 57, -16, -51, 31, 5, -24, 60,
   -8, 10, 10, 25, 1, -39, 12, 34,
   28, -7, -39, -20, 16, 43, -69, -15,
   -9, 5, -31, 31, -64, 11, -12, -17,
   -14, -17, -21, 42, 10, -5, -24, 21,
   -8, -20, -2, -25, 40, 63, -49, -9,
   -50, -53, 9, 61, 2, -24, -30, -11,
   12, -31, -21, -4, 32, -7, -24, 6,
   38, -25, -62, -15, 18, 31, 64, -64,
   -17, -25, 5, -12, -38, -78, 57, -52,
   -18, -69, 28, 22, 13, 48, -36, 40,
   32, -49, -38, 58, 34, -4, -44, -81,
   -77, -34, 6, -101, -9, -68, -49, -47,
   -98, -8, -28, -58, 27, -50, -5, 18,
   38, -3, -22, -50, -19, 20, -4, -65,
   106, 15, -25, 1, -5, 14, -66, -11,
   -4, -27, 22, -26, -21, 46, -1, 29,
   18, -30, 34, -4, 15, -53, -3, -14,
   20, 12, -55, -62, 58, 4, -31, 46,
   32, -15, 28, 23, 18, 34, -15, 29,
   26, 34, -23, -41, 20, 18, -59, -21,
   -28, 29, -3, -6, -26, 16, 22, -24,
   -12, -21, 18, 28, -5, 27, 15, 27,
   26, -35, -1, -49, 57, 2, -35, -2,
   -3, -1, 57, 15, 63, 11, -27, 11,
   -51, 20, -7, -21, -21, -24, -14, -5,
   18, -8, 23, -31, 24, 85, -61, 98,
   -60, -44, 12, 35, 78, 38, -14, 27,
   -82, 64, 50, -43, -44, 8, -44, -114,
   -11, -51, 67, -51, -74, -11, -2, -28,
   50, 3, -37, 47, 38, -20, 95, 44,
   -48, 15, 7, -26, 0, -11, 69, -33,
   -28, -8, -9, 38, 9, -2, -5, 117,
   30, 7, 8, 60, 45, -65, 65, 4,
   10, 22, 14, 12, -8, 44, -18, 64,
   35, 31, -87, -14, 54, -53, 67, -43,
   -25, -43, 31, -59, 75, -44, 127, -6,
   -48, 87, 78, 25, 75, 94, -62, -4,
   -5, -20, 5, 31, 55, -29, 123, -29,
   31, -23, 32, -55, -32, 16, -25, 12,
   18, 26, 12, 8, -32, -35, -23, 23,
   -36, 59, -49, 15, 12, 2, 23, 8,
   76, -41, 21, -18, -4, 25, 55, 50,
   10, 5, -23, 0, 24, 35, -4, -3,
   -68, 5, 9, 32, 10, -5, -73, -86,
   -95, 24, -15, 117, 16, 102, 46, 82,
   74, -6, 1, 22, -36, -17, -34, 6,
   -76, -58, 18, -22, 5, -17, -57, 61,
   35, 55, 60, 74, 25, -18, 46, 25,
   -9, -29, 4, 16, 62, -31, -9, -55,
   36, -66, -54, -55, 47, 62, -3, -4,
   -101, -27, 29, -69, -46, 29, 12, -101,
   23, 5, -92, -8, 32, -7, 0, 51,
   -21, 25, -91, 11, 16, -5, -14, 2,
   19, -24, 30, 64, -45, 39, 42, -66,
   -23, -48, 17, 23, -58, 58, 1, 17,
   -35, -20, -14, -43, 12, 31, -11, 28,
   -16, -9, -28, 10, 6, -24, 20, -17,
   -57, -65, 48, 21, -12, 16, 39, 41,
   -87, -2, 1, 15, -13, -27, 2, 53,
   1, 6, -17, -12, -43, -17, 4, 4,
   12, -23, 37, 27, -4, -14, 30, -12,
   64, 120, -83, -7, -30, 45, 20, 40,
   73, 29, -76, 8, 23, 38, 19, 43,
   3, -50, -64, -19, -24, -1, -55, -62,
   20, -66, -26, -120, 1, -21, 49, 3,
   20, 36, -2, -11, -54, -57, 34, -86,
   4, 13, 27, 4, -50, -55, 57, 36,
   -13, -66, 10, -6, 29, 19, -90, -79,
   -69, -30, 36, -46, -73, 18, 28, -85,
   54, 2, -26, 43, -29, -9, 2, 18,
   62, 54, 12, -85, 14, 30, 6, -36,
   -56, -87, -14, 19, 32, 50, -67, 6,
   45, 28, -10, -74, 33, -28, -76, 53,
   -40, -24, -54, 46, 18, 38, -34, -48,
   -8, 22, -46, 22, 2, 53, 34, 31,
   -34, 1, -33, -11, -21, 17, 18, 10,
   14, 16, 35, -50, 49, -6, -14, -61,
   34, 14, 71, 49, 19, -1, -24, 0,
   -29, -8, 68, -29, -78, -55, 6, -18,
   73, -40, -3, 7, -23, -93, -8, 7,
   27, 74, 73, -14, -26, -58, 33, -39,
   -58, -61, 0, -38, 16, -59, -101, -85,
   -70, -11, 15, -14, 7, -5, 26, -65,
   -5, 9, -59, -33, -5, 22, 9, 36,
   -44, 76, 26, 45, 23, -61, 28, -76,
   40, -34, -20, -5, 22, 24, 74, -1,
   25, 16, 29, -57, 34, -10, -12, -30,
   15, -63, 6, 8, -3, 18, 14, 81,
   25, -4, -66, 0, 50, 5, 37, 4,
   -9, 13, 8, 10, 56, 16, -3, 65,
   4, 30, 4, -14, 45, 36, -35, 97,
   -31, -62, -2, 48, -26, 10, -12, -79,
   -13, 3, 2, 42, -4, 18, 35, -17,
   -12, 71, -40, -36, 14, 39, 48, 39,
   -10, -29, -47, -25, 1, -19, -3, -38,
   -40, -40, 44, 42, 43, 10, 19, 2,
   -23, 10, 10, 8, 36, 17, -51, -11,
   -51, -19, -21, -63, 44, -8, 4, 42,
   90, -73, -70, 56, -7, -38, -2, 4,
   -55, -44, -44, 9, -56, 2, -54, 36,
   -10, -115, -48, -72, -20, 4, 17, 34,
   -26, -75, 37, -36, -101, -18, -88, 54,
   44, -110, -8, -73, -22, 37, -50, -37,
   24, -16, -9, -36, 16, -41, -90, 41,
   -18, -99, 56, -26, 53, 50, -37, -31,
   -38, 24, -125, -54, 33, 22, -67, 46,
   -37, -44, -16, -7, 4, 1, 114, -45,
   -65, 29, 29, -25, -13, 13, -60, -28,
   20, 57, -23, -7, -110, 17, -4, 3,
   42, -64, 4, 46, 46, -17, -24, -27,
   -45, -22, -37, -14, -51, 17, 56, -20,
   15, -58, 41, 46, 10, 9, 23, 59,
   7, 3, -11, -44, 77, 22, 38, -19,
   -59, 24, 26, 30, -32, 8, -53, 15,
   -12, 31, -37, -56, -34, 12, -79, 33,
   18, 20, 33, 22, -18, 12, -20, 32,
   18, 10, 19, 24, 20, 5, -27, 6,
   -21, -28, -48, 52, 14, 35, -7, -24,
   -46, 16, 16, -52, -51, 21, -8, 9,
   -27, 23, 30, 17, 0, -34, 46, 1,
   -47, 25, -47, -32, 4, 12, 4, -1,
   32, -1, -43, 9, 4, 50, -21, -29,
   -5, -34, 23, -8, 22, -41, 35, 48,
   -53, 28, 18, -35, 16, 38, 25, 25,
   1, 27, -7, 9, -12, 15, -11, 37,
   -46, 31, -38, -12, -2, -10, 5, -30,
   5, -44, -22, -19, 25, 30, 59, 34,
   30, 4, 19, -18, -3, 21, -35, 28,
   -4, 18, 9, 18, -38, -23, 18, -32,
   19, 31, 11, 23, -7, 3, -46, -1,
   -31, 18, 24, 11, 8, 42, 31, 8,
   -42, 32, -29, 11, -32, -28, -19, -31,
   31, -22, -22, 2, 40, 9, 28, -47,
   4, 47, 15, 0, 61, 28, -23, -43,
   -47, 47, -16, 78, 12, 46, -21, 8,
   5, -10, 20, -5, 73, 14, 46, -40,
   -24, 32, -35, 66, -27, -51, -37, 24,
   -30, -4, 11, -1, -38, -63, 2, 45,
   10, -83, -53, -63, 20, -47, 32, -57,
   59, 4, 33, 22, -39, 11, 49, 13,
   1, -43, -37, 77, 30, -11, -17, 47,
   35, -30, -12, -39, 7, 20, -11, 23,
   39, 32, -25, 12, -66, -15, -20, -35,
   -19, 42, -17, -30, 31, 27, -55, -10,
   60, 14, -46, -44, 27, -6, -45, -7,
   24, 12, -8, -33, -17, -46, 15, 2,
   -32, -8, -7, -26, 17, 21, 16, 27,
   18, -25, -40, -34, -14, 26, -42, -22,
   -17, -22, 24, -26, 29, -8, 6, -29,
   -10, -10, 11, 40, -12, -5, -18, -20,
   -16, 6, 23, -3, 22, -48, -56, -9,
   -28, 7, -40, 83, 9, 111, 44, 82,
   -33, 21, -36, -15, 37, 64, -1, -10,
   118, 24, -109, 22, 22, -4, 6, 4,
   24, 64, 16, 10, 64, 42, -53, 80,
   -9, -20, 33, 14, -29, 29, 9, 35,
   -20, 7, 75, 91, -24, -48, 11, 45,
   -57, -45, 31, -3, 23, 40, -21, -1,
   -58, -45, 14, -6, -30, 6, 22, -95,
   31, -4, -19, -65, 21, -21, -2, 50,
   29, -25, -22, -16, 31, -26, 51, 14,
   -64, -41, 15, 16, -2, 28, -56, 5,
   -29, 42, -6, -54, -57, 15, 52, -5,
   -3, -34, 2, 13, -10, 14, 0, 18,
   5, -50, -10, 22, -8, -38, -13, 37,
   3, 17, 29, 23, 9, -17, 18, 26,
   29, 17, -10, 30, 4, -14, 6, 15,
   37, 3, 3, 32, 14, -34, 25, -35,
   28, 22, 32, -6, 40, 9, -9, 42,
   -35, -20, -3, 8, 61, -34, -3, -1,
   5, -33, -59, 0, 14, -19, -6, 4,
   1, -4, 20, 5, 5, 17, -29, 21,
   25, 67, -28, -5, -17, 33, -24, 2,
   46, 5, 32, 9, -66, -66, -8, 26,
   58, -56, -12, 47, 3, 28, 15, -40,
   -31, -20, -10, 16, -16, 65, 45, -12,
   33, 45, -19, 5, 4, 5, -45, -9,
   18, 52, 15, -39, 9, 22, 6, -67,
   4, -13, 10, 19, -8, 16, 6, -54,
   37, 27, -38, 19, 9, -15, 30, -24,
   10, -60, -26, -51, -36, 39, 36, -43,
   33, -15, -16, 19, 30, -28, -31, -11,
   8, -20, -9, 36, -14, 9, -6, -30,
   -22, 43, -15, -14, 23, -3, 49, -6,
   -7, 39, 7, -18, -26, -10, -16, -32,
   46, -30, -34, -5, -26, -9, -15, -49,
   39, 26, 10, -11, 18, 33, -37, 19,
   -29, -51, 12, -53, -21, 26, -10, -15,
   -28, 4, -43, 27, -22, -47, 2, 66,
   76, -3, -14, -19, -4, -57, 57, 25,
   27, 19, 24, 16, 0, -59, -10, -9,
   21, -23, 0, -1, -19, -24, 14, -68,
   9, -23, -44, 25, -11, -25, -55, -42,
   -21, -22, 32, 24, 31, 13, 76, 20,
   -42, 7, -40, -26, 1, 1, 21, 18,
   -29, 33, 16, -26, -4, 21, 16, -49,
   -22, -36, 6, -6, -16, -10, 5, -57,
   3, 36, 10, 43, 6, 27, -9, -4,
   34, -13, -39, 19, 42, 21, -9, -7,
   24, -9, 13, 31, -8, -15, 38, -11,
   28, -36, -14, -44, -19, 69, -29, 12,
   30, -37, 6, -5, -21, 38, 20, 30,
   -15, 41, 16, 32, 20, -14, 34, -10,
   -40, 18, 36, 54, -31, -11, -37, 17,
   -21, -15, 40, -7, 58, -22, 19, 1,
   -22, -22, 66, -43, -20, -87, -9, -11,
   16, 1, 22, -70, 47, -23, -56, 123,
   28, 56, 40, -34, -42, -61, 3, 18,
   79, -52, -17, -127, 20, 50, 29, -110,
   15, -43, -42, 14, -22, -31, -55, -120,
   53, 112, -6, 125, -10, -14, 4, 28,
   29, -70, -9, -83, 14, -71, -43, 52,
   27, 99, -13, 13, 24, -15, 22, -10,
   13, 73, -22, 37, -20, 51, 70, 7,
   -27, -16, -34, -18, -12, 32, 3, -30,
   -26, 11, 22, 11, -7, -24, -28, -20,
   51, 15, 19, -84, -45, -1, 10, -93,
   -22, -3, -5, 33, 46, 32, -6, 47,
   -43, -67, -49, 5, 2, 28, 32, 37,
   -41, -10, 14, -38, 39, 20, -33, 24,
   -54, -16, -65, -64, -14, -20, -34, -39,
   -30, -9, -30, 22, 41, 17, -3, 3,
   -22, 0, 49, -47, -51, 0, 13, 30,
   31, -27, -13, -24, 43, 7, -27, -34,
   3, 10, 43, 36, -27, 31, 13, -46,
   0, 36, 5, 8, 3, -50, 18, 26,
   30, -19, -54, -6, -70, -44, 1, -54,
   -41, -24, 21, 5, 49, -7, 83, 8,
   -64, 24, 29, 32, 13, 55, -3, 20,
   -11, -9, -18, 23, 5, 28, 32, 40,
   -23, -50, 16, -40, 33, 36, 48, 44,
   -6, 41, 50, 4, -22, -11, -22, -22,
   -22, -15, 31, -11, -50, 18, 2, 40,
   -14, 16, -2, 19, -5, -7, 0, 14,
   -25, 17, -48, -16, 29, 61, -24, -10,
   -11, 36, -21, -45, 4, -15, -24, -23,
   34, 36, -22, 21, -40, -30, 36, -27,
   -9, -5, 4, -32, 26, -3, 25, 31,
   -10, -26, 33, 15, -27, 3, -1, -28,
   40, -15, -15, -18, 17, 9, -28, 35,
   -23, 47, 48, -1, 8, 14, -12, 23,
   -61, 34, -41, 20, 41, 25, -9, -1,
   6, -37, 18, -60, 11, 22, 56, 13,
   -87, -7, -37, -26, -36, -26, -11, -62,
   12, -27, 47, -50, 16, 53, 24, 6,
   21, 26, -40, 14, 28, 4, -70, 46,
   43, -52, 16, -37, -59, 20, 88, 11,
   -6, 20, 39, -40, -11, 4, -8, -48,
   5, 92, 6, -21, -7, -35, -15, 17,
   -17, -26, 1, 17, -5, 18, 4, -21,
   -22, -2, -31, -40, -53, 8, -12, 20,
   48, -35, 5, -26, -47, 22, -8, 18,
   -66, -23, 28, -31, -7, 12, -56, 6,
   -20, -57, 24, 28, -1, -17, -34, -15,
   -26, -46, 33, -13, -14, -25, 7, -5,
   15, -18, 15, 22, -47, -42, -29, 0,
   7, 21, -29, -7, 31, -8, -45, 9,
   -27, 35, 0, -50, 10, 10, -34, -41,
   25, 43, -19, -3, 42, 6, -14, 0,
   -5, -12, 42, 11, -18, -73, -3, 5,
   10, -55, -40, -11, 52, -14, 7, 15,
   57, 2, -11, -7, -8, -17, -18, 32,
   -13, 8, 7, -64, -66, 42, 15, -45,
   -24, -2, -25, 12, 6, -1, -26, -30,
   -39, 15, -78, -32, -12, 10, -76, 29,
   26, 0, -23, 17, 57, 70, 32, -45,
   -15, 6, -5, -44, 7, 2, 37, -6,
   -51, -9, 52, -10, 20, 27, 28, 27,
   -3, -25, 37, 22, -23, -23, 59, -14,
   -53, 10, -49, 16, 7, 22, -23, -34,
   -42, -23, 34, -18, 37, 27, 38, 13,
   40, -46, 17, -45, 1, 23, -8, 7,
   6, -1, -59, -19, -1, 18, 29, 29,
   17, -18, -31, -11, -18, -2, -2, -16,
   18, 5, 32, 4, 20, 25, -33, 24,
   -18, 8, 6, 0, 15, 27, 37, 41,
   -9, 28, 13, 17, -31, -18, -23, -28,
   42, 27, -10, -3, 11, -10, 21, 44,
   24, 33, -6, -43, -52, -53, -13, -7,
   -52, -11, 16, -19, 33, 57, 3, 1,
   48, -14, -1, 44, -7, 1, -38, 59,
   -8, -21, -10, -38, 14, -2, -5, 34,
   -10, -28, -21, -31, -14, -42, 20, 31,
   16, -4, 10, -9, -37, -36, 2, 7,
   -3, 20, 43, -5, -44, 40, 5, -15,
   52, -12, -25, 13, 39, 21, 4, -47,
   -17, 12, -8, 26, -12, -17, -26, 29,
   11, 12, -3, 26, -31, -16, 16, -22,
   14, -33, 29, 1, -12, -28, -2, -6,
   7, -7, -33, -56, -1, -11, -6, 1,
   0, 29, -15, 0, -28, 36, -11, 40,
   5, 9, -28, 20, -6, -21, 31, -31,
   -29, 14, 53, 16, -7, 14, 28, -1,
   -6, -35, 1, -15, 30, -38, -26, 13,
   17, 24, 15, 18, -25, 14, -12, 42,
   62, 15, 89, -71, 44, -32, -6, -13,
   -18, 14, 40, -32, 73, 4, -103, 9,
   -57, 76, -39, -5, 47, -50, 24, 52,
   49, -8, -33, 2, -37, 2, 31, 15,
   62, -12, -25, 14, -15, 7, -20, -126,
   -2, -5, -9, 15, -1, -8, 4, -17,
   49, -86, -37, 17, -17, -31, 55, 48,
   72, -27, -55, 17, 63, 6, 9, -28,
   -7, 36, -12, 18, -8, 56, 4, -6,
   1, -22, -87, 4, -45, 44, 20, 30,
   -26, -28, -4, 0, 29, -43, -4, -40,
   -3, 89, 17, -17, -24, 2, -38, -78,
   -13, 16, 17, 14, -28, 9, 43, -24,
   61, 18, -46, 4, 23, -29, 19, -6,
   40, -13, -52, -15, 26, -15, 8, 9,
   -25, 30, -45, -46, 34, 57, -22, 50,
   8, 30, -13, 40, 32, 12, 15, 19,
   11, 55, 74, 34, -21, 12, 51, -23,
   -4, -43, -27, -2, 47, 16, -7, 9,
   -28, 48, -14, -24, 20, 4, -29, -13,
   13, 8, 1, 38, 55, -26, -27, -4,
   10, 72, 57, -1, -20, -31, 3, 65,
   10, -31, 64, 9, 13, -10, 70, -51,
   21, -1, 16, -28, -13, -38, -71, 26,
   -22, -8, -20, 15, 75, 35, 20, -39,
   -26, 16, -74, -18, -1, 38, 21, -18,
   21, -33, 47, 25, 13, -25, 9, 14,
   -7, 13, 49, 32, 40, 28, 48, -9,
   -29, 11, -36, -24, 3, 41, -6, -41,
   14, -53, -28, 16, -9, -4, 9, -7,
   6, -10, 19, 4, -46, 6, -14, -4,
   -5, -8, 8, 25, 12, -23, -11, 4,
   -16, -48, 20, -6, 31, -33, 14, 4,
   12, 28, -32, 13, -3, -2, -15, 29,
   8, 22, 6, -43, 15, -41, -25, 11,
   -37, -11, -39, 12, -28, 10, 41, -46,
   -18, 7, -35, -5, -5, -9, 39, -24,
   -52, -28, -50, -36, 18, 43, -12, -27,
   -6, 6, 47, 26, -36, 14, -25, -2,
   -33, 22, -22, 21, -71, 31, 27, 3,
   -34, -28, 10, -2, 2, -20, -52, 24,
   86, -23, 57, 51, 10, -29, 76, -26,
   19, 93, -7, -53, -31, -19, -68, 27,
   -47, -45, 5, -18, 0, 18, 16, -5,
   -3, -18, -12, 37, -36, -60, 18, 34,
   8, 9, 41, 67, -3, -37, 43, -68,
   12, -17, 40, -39, -59, -16, 15, 15,
   -7, 58, 14, 28, -43, 48, 1, 10,
   4, 20, 55, 22, -1, 1, 42, 13,
   34, 35, -44, 0, 60, 16, 42, -2,
   2, -21, 49, -28, -10, -7, 39, -18,
   47, 19, 18, -8, 21, 45, 41, -24,
   -1, -34, 4, 5, -11, 3, 33, 21,
   -35, 24, -13, 1, 38, -33, 9, 17,
   -4, -94, 7, -48, -26, -74, -47, 10,
   7, -4, 6, -91, 23, -61, -11, 12,
   -78, -94, 32, -59, 53, -8, -62, 6,
   37, -31, -60, 118, 29, -36, 47, 9,
   -1, 42, 93, -50, 65, 21, -7, -31,
   5, 57, 39, 62, 0, -40, -6, -53,
   -19, -36, 3, -25, 57, 40, -25, 69,
   -28, 44, 94, 33, 26, 22, -65, -77,
   70, -23, 9, 31, -4, 4, -16, 37,
   -45, 46, -50, 59, 35, -29, -29, -66,
   -90, 39, 76, -35, 28, 15, -14, -23,
   -69, 54, -13, 45, 31, -25, 8, -9,
   -54, 47, 83, 6, 3, 52, -23, 25,
   27, -8, -59, 8, 27, 17, -41, -21,
   -23, -5, -46, 19, 27, 33, 60, 31,
   -3, -2, -25, -42, 8, 37, 2, -43,
   -102, 17, -28, 7, 16, -40, 49, -14,
   -18, 1, -48, -36, -11, -37, 29, 38,
   49, 32, -19, -8, -68, -39, 22, -102,
   38, 23, 16, 71, 77, -44, -46, 5,
   49, 31, 57, 19, 63, -2, 62, 7,
   0, 86, 28, 28, -26, 50, -29, 8,
   55, 65, -8, 36, 77, 35, 64, -30,
   -25, 38, 3, 30, 15, -55, 4, 124,
   -7, 42, 16, -26, -18, 50, -20, -61,
   26, -37, -46, 6, -55, -24, -78, -3,
   -4, 5, 77, 25, 29, -26, 107, -40,
   14, -83, -32, -30, -33, 47, 25, -39,
   47, 9, 9, -23, 60, -11, 6, -68,
   28, -2, 25, 23, 23, -23, 37, 37,
   40, -74, -50, -35, -24, 29, -39, 39,
   48, 46, 27, -16, 27, -39, -4, 35,
   -26, -8, -36, -14, -21, 43, 41, -1,
   25, -43, -33, -23, -61, -11, 2, -4,
   1, -20, 12, 23, 8, -43, 39, -6,
   5, 24, 12, 0, -20, 29, 38, -4,
   -4, -107, -41, -14, 63, -32, -63, 58,
   47, -49, 47, -66, 8, 22, -51, 1,
   4, -9, 65, -34, 16, -45, -4, 17,
   -6, -10, 26, 27, 35, -44, 72, -50,
   -6, -1, 14, -9, -84, -7, -51, -25,
   -41, -32, -41, -32, -37, -99, -1, 26,
   -39, 68, -19, 12, -28, -18, 11, 30,
   85, 85, 25, 36, 43, -8, 15, 41,
   -41, 18, -14, 1, -53, -54, 61, -23,
   -11, 22, -16, -20, 47, -26, -31, 90,
   88, 66, -54, -69, 10, -34, -18, 8,
   -28, -83, 38, 25, -8, -15, -6, -9,
   -11, 21, -12, -17, 29, 34, -67, -56,
   -64, 4, 37, 16, -23, 10, -50, -8,
   16, 60, -50, 3, -9, 21, 66, -18,
   42, -7, -41, -22, 32, 20, 27, -33,
   36, 15, 48, -6, 13, 44, -35, 14,
   -14, 79, -14, 0, -12, -26, -1, 23,
   14, -2, 37, 10, 32, 7, 10, 21,
   18, 37, 14, 1, -33, -23, -17, 15,
   -21, -22, -15, 4, 29, -21, -34, -4,
   -16, -9, 41, 32, 25, -6, 15, -14,
   11, -40, -8, 21, -52, 15, 8, -27,
   12, -3, -27, -11, 19, -49, -27, -17,
   -12, -19, -35, 51, 22, 49, -8, 14,
   20, 4, 5, 2, 57, 15, 21, -4,
   11, 31, -6, -14, 7, 9, -13, 52,
   37, -10, 37, 40, 39, -19, 18, -9,
   3, -24, -14, 35, -1, -14, -18, -15,
   2, -31, 23, 19, -7, 5, -18, -17,
   -21, -1, 6, -33, 6, -3, 15, 18,
   7, -14, -2, -12, 18, 29, 11, 12,
   6, -10, -29, -13, -31, 27, -25, -8,
   32, -7, -39, -43, -43, 11, -15, -46,
   -10, -20, 20, 14, 27, -7, -7, 44,
   23, -14, -30, 2, 14, 0, -20, -1,
   -42, 36, 14, 60, -27, 28, -18, -51,
   6, -13, 15, 4, 46, 7, 7, -5,
   -41, -39, -31, -27, 7, 46, -27, -6,
   0, -39, 75, -53, -9, -12, 20, -36,
   20, 12, 58, -5, 45, 48, -20, -5,
   15, -28, 35, -73, 5, -31, -2, -2,
   -71, -1, 2, -20, 36, -43, 8, -72,
   -10, 48, 23, -29, -6, 26, -46, -50,
   6, 0, -39, -19, -24, -21, -31, 16,
   -33, 26, 19, 14, -24, -3, -55, -11,
   -37, 33, -14, -12, 16, -12, 3, 52,
   11, -11, -9, 31, -5, 1, -11, -9,
   -35, 27, -9, 53, -30, 13, -6, -10,
   13, 10, -2, 0, 42, -5, -14, -24,
   -11, 14, -9, -23, -17, -36, -18, 15,
   -26, -17, 0, 18, -8, 39, -49, 6,
   -10, -38, -17, 34, -6, -26, 17, 30,
   40, -4, -9, 22, -28, 28, 20, -18,
   24, -8, -51, -35, -82, 57, -29, 61,
   39, 17, -20, -14, -45, -8, 53, -3,
   -40, 19, -46, -23, -4, 14, -46, 53,
   18, -64, 30, -12, 14, -22, 3, -36,
   -78, 6, -37, 15, 17, -65, -42, 57,
   30, -5, 50, 12, 60, -58, -45, 40,
   6, -10, 32, 15, 19, 26, 15, -25,
   -36, -32, 39, -42, -5, 24, 29, -69,
   -21, -12, -21, -25, -14, -19, 26, -4,
   16, -66, -6, -2, 30, -25, 2, 5,
   21, 12, 41, -52, 10, 16, 9, -12,
   -10, 58, 2, -16, -41, 16, -21, 23,
   10, -25, -3, 24, -13, -10, 30, 30,
   -7, 21, -32, 16, -22, 52, 6, 27,
   -14, -6, 8, -23, -4, -41, 25, 10,
   0, 29, 20, -38, -9, -37, 15, -10,
   6, -52, 70, -32, 17, 23, 5, -11,
   -42, 7, -27, 10, -11, 18, 36, 11,
   -51, -53, -90, 23, -8, 48, -13, 55,
   24, -72, 4, 9, 17, -32, -33, -99,
   7, -75, -19, -8, -1, 43, -24, -11,
   -2, 62, 127, -16, 63, -19, -60, 40,
   -56, -17, -40, 1, 2, 6, -43, 52,
   39, 36, 1, 20, -56, 28, 19, 6,
   6, -22, -1, 27, 77, 68, -70, -118,
   -42, -118, 34, 37, 60, -88, 1, -72,
   25, 67, -33, -67, 15, -46, -40, 57,
   -43, -20, -3, 20, 54, -53, -69, 4,
   49, -61, -7, -11, 17, -15, -30, -71,
   0, 60, 15, 19, -6, 71, 4, 47,
   8, -53, -19, 38, -37, -27, 37, 27,
   14, 57, -61, 18, 9, 24, -80, 5,
   -27, 0, 50, -16, -28, 32, 31, 17,
   46, 50, 35, 13, 8, -40, -5, -73,
   46, -7, -6, -16, -62, -8, 19, -84,
   -14, -90, 8, -35, -38, 88, -35, -69,
   22, -35, -34, -2, 44, -11, -14, 93,
   9, 14, 56, -56, 25, -60, 0, 1,
   4, 81, 53, -38, 125, -27, -16, 20,
   33, 29, -43, 46, -19, -46, -71, 33,
   -35, -68, -9, -12, -8, 22, 127, 0,
   13, 19, -70, 35, 30, 104, 44, -30,
   23, 7, 13, 15, -11, 28, -6, 2,
   -33, 113, 68, 9, -11, -29, -17, 31,
   16, 18, 35, 39, 1, -15, 28, 44,
   33, 31, 37, 11, 12, -28, 15, 12,
   19, 19, -52, -51, 38, 8, 16, -15,
   12, -35, 117, 5, 18, -7, 119, -7,
   6, -11, 7, 16, 29, -7, 9, -25,
   39, -71, 41, -35, -36, -1, -43, 15,
   47, -3, -56, 38, 37, 39, 16, 23,
   54, 32, 2, -38, 40, 11, -8, 14,
   -35, -24, -19, 18, 43, 51, 42, -43,
   36, -19, 7, 13, -8, 17, 7, 42,
   -5, -13, -126, 0, -6, 96, 11, 77,
   -35, 5, -74, -33, -59, -3, 24, 48,
   -26, -93, -50, -40, -48, 36, -61, -51,
   54, 42, -53, -32, 27, 0, -36, 86,
   10, -21, 71, 12, -23, -87, 46, -4,
   31, 12, 57, 25, -101, 8, 100, -61,
   -27, -11, -13, -40, 46, 84, -25, -55,
   -18, -51, 27, 5, 26, -85, -34, 22,
   8, -4, 5, 10, 22, -13, 11, 58,
   23, 14, 89, -19, 69, -73, -32, -49,
   -23, -65, 15, 11, -2, 24, -38, -23,
   -20, 9, 62, 93, 23, 61, -25, 2,
   16, 22, 16, 16, -10, 1, 18, 58,
   33, -2, -13, -6, -34, 40, 40, 75,
   -12, 15, 47, 5, 32, 68, 30, 20,
   15, 10, 53, 39, 46, -58, -10, -24,
   6, 38, -21, -56, -15, 5, 16, 40,
   -47, -30, 17, 3, 37, -23, 7, 1,
   8, -35, -44, 0, 45, -21, -88, -25,
   27, 38, -19, -24, 2, 26, 14, 32,
   62, -11, 30, -3, 34, 1, -65, -11,
   45, 51, 16, -26, -13, -22, -11, -6,
   -17, -1, -23, -42, 3, -19, -51, -27,
   -22, -56, -16, 30, -50, -41, 23, -67,
   -40, -67, -2, 27, 9, 30, 31, 45,
   52, 11, 17, -39, 0, -54, -26, 49,
   -27, -3, 34, -15, -18, 51, 24, 55,
   -26, -35, 4, 33, -16, 10, -14, -24,
   19, -29, -38, 17, 4, 7, 25, -66,
   40, -21, -19, -12, 78, -23, 75, -14,
   2, -17, -23, 10, 50, 50, 0, 19,
   -20, -14, -4, -57, -46, 50, -29, 36,
   5, 38, 34, 35, 4, 19, -6, -32,
   -27, 13, 13, -23, -23, 13, 9, -33,
   -57, -12, -8, 28, 43, -40, 36, 0,
   21, 47, 65, 40, 26, 3, -34, -1,
   5, 8, 13, -88, 93, -91, -23, 48,
   -59, 60, 54, -26, -2, 77, -15, -91,
   80, 74, -62, 7, -77, -6, -18, 116,
   -31, -24, -60, 74, 17, 99, 55, 24,
   70, 45, 29, -4, 90, -20, 51, 15,
   -14, 15, 25, 120, 31, -106, 20, 30,
   -35, -66, 19, 14, -1, 58, 30, 29,
   4, -83, 33, -90, -20, 24, 1, -101,
   12, -1, 29, 38, 67, 78, -40, -28,
   -53, 32, -127, 3, -86, 19, 3, 60,
   1, -28, 64, -11, 84, -8, -41, -19,
   -102, -53, -8, -102, -16, 72, 5, 31,
   14, -21, -41, 1, -27, -19, -13, 0,
   9, -56, -73, -16, 2, -4, 65, -36,
   26, 63, -28, 30, 5, 17, -44, -15,
   -105, 21, -8, -43, 28, -16, -58, 8,
   1, -1, 7, 40, -19, -8, 89, 26,
   -7, 51, 19, 1, -19, -6, -85, 52,
   3, -52, -15, -1, -4, 34, 49, 5,
   7, -23, 6, 11, 13, 2, 19, 13,
   -7, -61, -12, -11, -12, 4, -11, -2,
   -35, 15, 14, -1, 24, 14, -34, 11,
   22, -15, 14, 13, 6, 14, 6, 18,
   24, -13, 14, 5, -5, 28, 15, 15,
   10, -53, -21, 0, -58, 20, 8, -30,
   -35, -29, 22, -6, -19, -17, 4, -2,
   2, -19, 14, 40, -17, 21, -5, -20,
   14, -19, -8, -26, 14, 17, 7, -26,
   15, -19, -26, 25, -10, 7, -14, -19,
   25, 31, -33, 9, 11, 1, -12, -7,
   8, 20, 5, 10, -6, -8, 31, 11,
   45, -19, -4, 13, 1, -9, 1, 1,
   -5, -11, 14, 14, -21, -19, 14, -6,
   0, 12, 2, 8, -7, -26, 19, 7,
   20, -14, -13, -20, -23, 0, -22, -16,
   6, -14, 7, 9, -9, 6, 14, -12,
   10, 33, -18, -30, 3, 3, -4, -9,
   32, -28, -18, 43, 16, -3, 65, -26,
   0, -47, 26, -7, 31, -24, 22, 43,
   -74, 6, -1, -9, -20, -16, 32, -11,
   23, -7, -16, 15, 13, 27, 2, 3,
   32, -40, -6, -45, 1, -9, -41, -7,
   94, 54, 9, 61, 46, -28, 22, 6,
   7, -1, 36, -17, 26, -14, 62, 66,
   25, -69, 5, -1, -28, 2, 18, 8,
   19, -26, -8, 1, 9, -18, 2, -47,
   -31, -12, 15, -59, -10, 36, 45, 28,
   -28, 10, 9, 29, -13, 36, 38, -52,
   -19, 26, -18, 39, -16, -8, -6, -2,
   24, 32, -22, -9, -3, 5, -17, 7,
   8, -36, -10, 15, 9, 20, 24, 17,
   6, -19, -5, 33, -15, 5, -28, -10,
   -5, 12, 16, -12, 25, 29, 18, -20,
   -39, -7, 10, -6, -31, -6, -63, -34,
   4, -50, 51, -41, 16, 4, -21, -41,
   -5, 30, -25, 7, -5, -5, 4, -43,
   -29, 34, 5, -14, -46, 26, 47, 56,
   33, 1, -15, 29, 1, -11, 5, 72,
   -23, -68, -15, -19, -13, 19, -63, 1,
   7, -33, -20, 23, 104, -26, -19, -18,
   -12, 43, -57, 4, 33, -74, 12, 60,
   13, 39, -43, 60, -94, -8, -37, -34,
   -43, -2, -55, 92, -19, -1, -27, 25,
   -9, 19, 0, 12, 2, -9, 40, -70,
   -36, 8, 59, 12, 44, 26, -63, -42,
   -37, 35, -34, 15, -32, 30, -51, 29,
   12, 31, -21, 26, -23, -14, -34, -11,
   -3, 6, -36, 39, -17, 16, -12, -16,
   23, -21, -15, -10, 11, -17, -7, -9,
   -36, -37, -29, 4, 29, -18, -31, 22,
   4, -28, 25, -12, -8, 46, -28, 27,
   -36, -26, 14, -6, -13, -33, -23, 33,
   -39, 70, 81, -18, -26, -30, -22, 30,
   0, -46, 19, 74, -65, 2, 44, 11,
   -90, 80, -16, 35, -54, 59, -15, -68,
   16, 36, 35, 33, 50, -50, -16, -41,
   -9, -1, -45, 48, 10, -27, -86, -67,
   -45, -53, -40, 0, 12, -16, -12, 22,
   -23, -27, 3, 45, -8, 25, 29, -55,
   12, -53, 18, -7, 9, -38, -49, 8,
   -33, -40, -59, 22, 38, 27, 0, -15,
   -68, 33, 19, 25, 23, -21, -56, -51,
   62, 75, 44, -8, 14, 40, -99, 41,
   -12, -52, -3, -22, 61, 8, 46, -4,
   17, 7, 3, -29, -26, -57, 21, 30,
   -29, 12, 47, 20, -35, 20, -33, 13,
   19, -4, -11, -1, 8, 21, -29, -36,
   -22, 25, -57, -31, 19, -13, 24, -41,
   35, 20, -13, 18, -28, 26, -33, 27,
   24, 15, -26, -18, -22, -53, -21, -40,
   33, 17, -24, 45, 39, 23, 51, -23,
   34, 31, 25, 45, -48, -36, 18, 13,
   38, 19, -4, 33, 18, -77, 2, -53,
   18, 26, 42, -97, -6, 32, -43, 12,
   -21, 4, -31, -22, 100, -11, -60, -7,
   -74, 42, -24, 36, -12, 10, -52, 16,
   -4, 34, 31, 24, -42, -44, -13, 4,
   -19, 64, -34, 35, -5, 5, 47, 55,
   104, -9, 0, 66, 0, 32, -4, -34,
   -56, 74, 17, -12, -40, -65, 7, 19,
   60, 89, 70, 115, -122, -33, -63, 2,
   21, -82, -50, -44, 41, -60, 102, -2,
   14, 4, 15, -52, -22, -55, 38, 70,
   21, -3, 34, 51, -24, -12, -8, -18,
   -20, 10, 18, -30, -25, 30, 8, -46,
   41, 16, -24, 42, -71, -10, 5, -46,
   0, 28, 1, 12, 15, 23, -14, 0,
   -3, 35, 14, -7, -2, -17, -28, 24,
   94, 17, -4, -20, -41, -33, -11, -29,
   71, -30, -11, -26, -32, 10, -8, -23,
   93, 81, -1, 9, 17, 69, -18, -1,
   76, 36, 35, -68, 14, -2, 51, 8,
   44, 38, 45, -13, 63, -17, -6, 39,
   -56, 5, -69, -45, 26, 70, -8, -7,
   8, -42, 19, 80, 53, 38, 88, -23,
   23, 11, 0, 17, 84, -39, -36, -52,
   -16, -63, 32, 69, -19, 53, 51, -3,
   -5, -14, 38, -39, -90, -45, 27, -3,
   37, 111, 25, -54, -16, 42, 34, -62,
   1, 5, 12, -42, -18, -59, 1, -49,
   -34, -7, 20, 3, 79, 42, 14, 20,
   33, 19, -11, -33, 1, -46, -28, -73,
   -9, 11, 6, -19, -6, 12, -7, 3,
   68, -88, -42, -32, -1, -23, -27, -6,
   -35, 23, -19, 27, -1, -15, -1, -40,
   -29, -36, -4, -21, 12, -19, 32, -29,
   -80, -39, 48, -84, -91, -125, 33, 37,
   -97, -105, -24, 123, -57, -21, -19, -36,
   70, 5, -3, 20, 57, -37, -78, 127,
   49, -14, -122, -24, 1, 56, -35, -25,
   33, -71, -23, -89, -124, 93, -118, 35,
   -117, -55, -43, 66, -121, 30, -75, -59,
   -49, -14, 63, 9, 53, 52, 127, -14,
   -6, -14, -22, 14, -22, -128, 97, -10,
   -123, -35, 99, 6, 3, -21, -34, 39,
   127, 12, -96, -110, 59, -111, -50, -22,
   -2, -5, -1, -122, 75, 127, -26, -31,
   0, -128, 68, 88, 91, -69, -36, -98,
   17, -61, 17, -14, 97, 127, -95, -126,
   1, 0, -83, 11, -64, -58, -20, -35,
   -64, -8, -18, -24, -21, 49, -47, 40,
   115, 51, 64, 54, 82, -16, -24, 45,
   -11, -6, -23, 41, -5, 26, 41, -46,
   122, 33, -87, 49, 76, -120, -46, 126,
   -31, -32, 24, -92, -49, 100, 36, -74,
   23, 56, 82, 45, 24, -50, 26, 111,
   121, -49, 87, -62, 97, 24, -44, 44,
   -54, -78, -64, 90, 68, 6, 8, -12,
   -44, -71, -26, 39, -127, -77, -45, -115,
   -12, 65, 2, 96, -128, 24, 127, -18,
   -25, 12, -23, -1, -64, 127, 92, -21,
   28, 27, -117, 127, -121, 89, -54, -30,
   -15, -125, 76, 44, -25, 126, -128, -85,
   14, -78, 6, -22, 124, 77, -78, 59,
   -102, -53, -82, 27, -27, 44, -10, -111,
   42, 42, -75, 67, 124, -32, -127, 98,
   12, 29, -55, -35, -25, -119, -106, -55,
   -57, 6, -7, -39, 90, 4, -46, -29,
   -75, 74, -21, -14, 106, 95, 20, -5,
   34, 74, 31, -26, 79, 30, -79, 38,
   68, -28, 32, -69, -29, 52, 16, -32,
   119, -111, 13, 14, 42, -78, -114, 122,
   25, 31, 116, 6, -79, -63, -94, 41,
   -88, 41, -1, -6, -80, -91, -34, 122,
   30, -68, -128, -49, -95, 14, -11, 69,
   -127, -123, -64, -14, -85, 70, -2, 45,
   -13, 29, -85, -89, -10, -126, -128, 69,
   -16, 22, -126, -121, 127, 113, -10, -16,
   -66, 9, 14, 126, 4, -68, 14, -81,
   5, 80, -25, 114, -101, 9, -40, 26,
   -34, 3, 33, -73, -45, -35, 83, -30,
   -117, 63, -59, 127, -104, 3, -4, -102,
   5, 97, -101, -18, 9, 16, -101, -48,
   -51, 73, -89, 126, -59, -62, 104, 62,
   -37, -51, -4, -1, 44, -70, -32, -60,
   1, 13, -50, -62, 64, -26, -60, 19,
   5, -13, 25, 18, 67, -23, 23, -46,
   66, 55, 57, 37, -12, 38, -47, -11,
   -82, -1, 31, 16, 18, 31, -75, 28,
   96, 72, -87, 57, -20, 26, -15, 36,
   -1, -123, 16, -62, -32, -84, -25, 8,
   -67, 35, -4, -127, 59, 9, -82, 3,
   44, 13, -78, 89, 14, -127, 1, -80,
   -65, 117, -89, -75, -18, -41, -75, 37,
   -35, 13, -75, -77, -17, 44, 33, -12,
   26, 124, 100, -15, 104, 127, -101, 115,
   -83, 46, 124, -41, -23, -36, -82, -59,
   66, 46, 52, -40, 41, 33, -23, 18,
   98, -18, -35, -29, -67, -7, 97, 34,
   127, 88, 46, 108, 77, 32, 70, -125,
   29, -52, -20, 29, 48, -3, -64, 16,
   51, -14, 2, -58, 56, -79, -124, 23,
   -63, 78, 24, 30, 10, -32, -8, -44,
   37, -8, 40, 102, -12, -106, -41, -13,
   51, 33, -8, -52, 69, 32, 15, -21,
   121, -115, 1, 22, -128, 95, 8, -128,
   14, -18, -41, 55, 50, 8, -46, -123,
   84, 11, -21, 6, -127, -124, 112, 15,
   3, 23, 95, -126, -51, 120, 25, -120,
   -11, 70, 83, -7, 37, 94, 100, 127,
   -125, -60, 40, 48, 40, -82, 17, 127,
   19, 78, 25, 66, 94, -122, -13, -89,
   14, -89, 118, -11, -126, 1, -36, -92,
   127, 55, 93, 112, 39, -39, 21, 54,
   -18, 47, -84, 3, -50, -125, -122, -89,
   127, -53, -17, -29, 14, 64, -71, -126,
   19, 0, -121, 3, -15, -121, 107, 28,
   -59, -36, 11, -31, -120, -56, 17, -123,
   83, -47, -74, -128, -93, -122, -123, -127,
   -31, 19, 125, 2, -121, 122, -123, -25,
   42, -49, 0, 5, 67, -121, 9, 121,
   52, 19, 26, 49, 11, 52, -124, -31,
   101, -2, -33, 12, 5, -124, -24, -90,
   95, 50, -34, -8, -128, 43, 93, 55,
   7, 64, -92, -29, -34, -66, 24, -127,
   80, 43, 127, -38, -125, 11, -34, 49,
   23, 100, 76, -89, -96, 1, 95, -45,
   15, -44, -88, -121, 82, 36, 93, -35,
   -16, -123, 18, -124, 40, -117, -36, 108,
   24, -38, 88, 102, 36, -40, 10, -97,
   -27, -49, 35, 63, -62, 123, -91, 34,
   50, 127, 104, -70, -40, -92, -33, -72,
   7, -122, -11, 100, -127, -44, -21, 86,
   30, -30, 104, -75, -76, 56, -127, -90,
   -27, -40, -92, -76, 88, -82, -68, 59,
   -106, -40, 35, 95, -39, 22, 102, 43,
   -94, -48, -29, -32, -13, -18, 47, -79,
   127, -19, -126, 81, 62, -18, 65, -124,
   101, 25, -98, 5, 98, 127, -124, -68,
   47, 92, -35, -93, -28, 49, -65, 127,
   100, -24, -116, -36, 70, 86, -128, 125,
   103, -34, -104, -4, 85, 0, 28, -78,
   -124, 108, -106, -117, 83, -43, -8, -87,
   43, 57, -46, -37, 119, -16, 8, 75,
   -100, -101, 106, 123, 23, -36, 127, -91,
   62, 0, 32, -125, 24, 21, -15, -17,
   50, -30, -65, -48, 121, -1, -4, 70,
   28, 21, -15, 100, -61, -53, -104, -4,
   2, 74, -5, -13, -95, 123, -92, -122,
   127, 127, -127, 66, 63, 79, -36, -104,
   -103, -75, -49, 10, -7, 120, 26, -76,
   -29, 110, -4, 38, -51, -56, -48, 11,
   -100, 26, -76, -40, -10, -117, -60, 0,
   -120, 4, 126, -97, -75, 83, 49, 93,
   -1, 92, 50, -119, -107, -106, -114, -117,
   86, -64, -127, 102, 32, 83, -13, 58,
   0, -29, 37, -72, 51, 127, -49, 107,
   -57, 21, 98, -44, -23, -85, -43, -30,
   4, -59, -60, 99, -111, 83, 21, 48,
   100, 9, -37, 1, 56, -22, 10, -127,
   -12, 75, -97, -14, 54, -42, 19, -57,
   -6, -125, -126, -37, 65, -7, -35, -122,
   108, 1, -36, 122, -71, -126, 43, -76,
   -43, -8, 104, -39, 71, -29, -105, 0,
   123, 61, 65, -16, 25, 113, 61, -30,
   -26, 110, -92, 58, 126, -31, 123, -4,
   -57, 127, -56, -32, -118, 52, -40, -127,
   -40, 18, -103, -29, 32, -82, -94, 84,
   -122, -24, 89, 20, 126, 40, 101, -63,
   91, -37, 48, -77, 50, -39, 49, 8,
   112, -3, 114, 49, 76, -68, 29, 95,
   0, 93, -2, 30, 28, -128, 0, -34,
   -108, 127, 119, -127, -14, 46, -127, -90,
   28, -16, 80, 37, 103, 66, -30, -80,
   -3, 16, 127, -69, 47, 120, 76, 24,
   110, -29, -74, 67, -18, 35, 4, -24,
   -34, -1, 116, 4, 127, -5, -91, 27,
   10, 84, 37, 58, 67, -20, 127, -60,
   -12, 10, -40, -8, 33, 83, -30, -77,
   127, 62, 113, -16, 54, 79, 48, 26,
   -97, 127, 70, 34, -77, -116, 31, -30,
   127, 107, -92, 125, -1, 12, -62, 26,
   -32, 122, 5, -77, -126, 55, 50, -41,
   -11, 60, -69, 73, 122, -127, -22, -110,
   -39, -61, 113, -2, -67, -128, -120, -16,
   55, -63, 127, -33, -54, -95, -14, 127,
   -58, -32, -70, -27, 26, -78, 126, 82,
   -67, -126, 111, 124, -18, 126, 9, 50,
   89, -1, 70, 15, 125, 127, 127, -124,
   12, -82, 92, 90, 119, -55, 42, 114,
   24, 22, -77, -36, -32, 123, -128, -42,
   -10, -4, -29, -66, -62, -97, 127, 104,
   -45, -10, -64, -124, 2, 123, -49, 11,
   41, -20, -52, 18, -110, -82, 19, 13,
   20, 127, -85, 110, 123, -25, -1, -94,
   -67, 35, -6, -96, -102, 110, 93, 127,
   2, -49, -78, 74, 57, 55, -57, -24,
   125, 126, 127, -106, 3, 61, -12, 68,
   14, -106, -10, 53, -83, -91, -65, -120,
   4, 59, -59, 57, 72, 81, 10, 127,
   -38, -10, -53, -32, -127, 37, 9, 127,
   109, 97, 68, -17, -83, -127, 39, -44,
   112, 84, 53, -97, -81, -127, -128, -27,
   127, -109, 108, 87, 127, -5, 77, -69,
   -50, -65, -126, -124, 119, -110, -47, -51,
   -15, 24, 42, -96, -119, 127, 9, -56,
   127, -35, -79, 48, 23, -56, -9, -58,
   24, -127, 80, 57, -38, -128, -7, 10,
   72, -79, 40, -41, -98, -105, -57, 121,
   -46, 26, -26, -128, -126, -125, 93, 124,
   -86, -52, -28, 41, 122, 69, 34, 124,
   -32, 112, -67, 53, -121, 127, -128, 117,
   -2, -13, -83, 46, 83, 15, 66, -16,
   46, -25, -13, -104, -125, 67, -25, 127,
   24, -117, 49, 28, -24, -57, -75, -34,
   59, 123, 127, -92, -119, 18, -126, 9,
   90, -120, -115, -125, -125, 115, -123, -75,
   -35, 41, 119, -68, 7, 82, -126, 25,
   -126, 27, 105, 95, -66, -122, -119, 125,
   54, 78, 119, 98, 77, -127, -68, -122,
   -120, 117, -29, 97, 100, 69, 43, 26,
   -20, -118, -52, 89, -37, -34, -120, 63,
   -17, 29, 15, 78, 119, 27, 11, 72,
   30, 91, -57, 58, 127, 105, -29, -15,
   108, -2, 2, 24, 79, -54, 83, -126,
   -126, 28, 123, 1, -116, -47, -113, 115,
   76, 28, -22, -36, -38, 18, 111, 44,
   27, -26, -18, 21, -124, 64, 119, -60,
   -61, 65, 113, 6, 90, -58, -90, 31,
   0, 54, -55, -4, 19, 43, 61, -41,
   -53, 49, -46, -98, 65, 127, -7, -64,
   18, 59, -37, -77, -122, -107, 62, 23,
   -17, -24, 16, -93, -17, 37, -37, 12,
   127, 102, 30, -57, -80, 126, 73, -125,
   70, -116, 66, -36, -36, -25, 63, 73,
   106, -76, 113, -30, -20, -4, -127, -62,
   50, -53, -51, 46, -35, 127, -84, 127,
   -51, 122, 116, 54, 27, -58, -127, -120,
   -14, 104, 125, -91, 127, 100, -21, -74,
   106, 7, -88, 44, -21, -124, 84, -72,
   92, -16, 21, -87, 16, 7, 35, -61,
   -27, -25, 31, -63, 42, -26, 72, 44,
   -100, 126, -77, -66, 126, -47, -14, -49,
   -126, -113, 124, 17, 115, -127, -40, 20,
   43, 124, -14, 96, -100, 84, 110, 50,
   65, -61, -86, -114, 91, 126, 127, 3,
   -125, -27, 67, -106, 20, 127, -55, 55,
   -126, 21, 17, 94, 116, -50, -1, 17,
   -5, 0, 37, -124, 66, 115, -7, -72,
   -111, 0, 79, -8, 94, -5, -11, -118,
   47, 23, -17, 85, 2, 49, 38, -105,
   74, 6, 6, 115, 127, 127, 90, -122,
   37, 114, 67, 8, -45, 81, 46, 12,
   -6, -90, 122, 116, -39, -45, -96, -118,
   122, 52, -76, -23, 42, -116, 67, -51,
   -128, -122, 2, -70, -96, 26, -39, -127,
   22, -39, 89, -41, 54, -86, 5, -68,
   -7, -32, 122, -36, 127, 77, -52, -112,
   -24, 127, -60, -4, 36, -49, 26, -102,
   11, 50, -18, 36, -85, 44, 52, -54,
   -54, 109, -79, -70, 6, 45, 71, 7,
   -17, -31, 127, -84, 111, 4, -2, -113,
   -31, 125, 65, -4, -88, -86, -26, -29,
   127, -4, 4, -49, -54, 126, 69, 16,
   -17, -51, -5, -124, 6, -21, 98, -5,
   -50, -24, 57, -52, 82, 84, -105, -115,
   1, 1, -6, 123, 114, 100, -58, -35,
   18, 72, 5, -29, 52, -116, 44, -101,
   -40, -78, 7, -51, -23, 2, -21, 67,
   110, 71, 123, 57, -29, -76, -43, 32,
   -56, -125, 61, -90, -126, 119, -65, -70,
   -125, 117, 123, -18, 53, -4, -101, -128,
   16, 121, -102, 45, -125, 11, 127, 15,
   -41, 43, -12, -122, -3, -115, 122, 74,
   2, 8, 124, -72, -74, -121, -128, 110,
   19, -39, 35, 47, -125, 33, -34, -113,
   -17, 40, 19, 95, -17, -4, -20, 42,
   -91, -6, 80, 62, 48, 68, 85, 8,
   -31, 35, -1, -73, 66, 91, -87, -98,
   25, 39, -22, -76, -123, 52, -120, -26,
   4, -33, 97, 55, -60, -128, -110, 107,
   44, -60, 28, -123, -127, 106, -4, 27,
   16, 41, -11, 55, 126, -108, 124, -128,
   127, -39, -122, -7, 59, -128, -97, 42,
   127, -125, -16, 115, 120, 35, 17, -126,
   -14, 43, 125, 71, -32, -15, -125, 127,
   -127, -128, -58, 110, 83, -78, 18, 45,
   125, 56, 105, -99, -126, -29, 23, -16,
   127, -20, 25, 23, -128, -39, -105, 91,
   -124, -8, 23, -123, 0, -122, 81, -52,
   -47, 23, -120, -126, 63, 57, 50, -94,
   50, 56, 125, -56, -42, -111, 49, 43,
   68, 93, -47, -17, -73, -41, 11, -49,
   44, 17, 82, -126, -94, 127, 25, 35,
   -48, 63, -63, -93, 28, -58, 8, 74,
   56, -10, 42, -128, -78, 48, -87, 12,
   -26, 0, 29, 23, 111, -7, -70, -127,
   -9, -118, -38, -53, 51, -126, -57, 1,
   105, -105, -29, 20, 89, 9, 121, 82,
   -57, -92, 126, -71, -128, -7, -29, 6,
   95, 96, -63, -125, 127, -127, 82, -62,
   68, -13, -100, -26, 124, 124, 23, 12,
   12, 119, -102, 91, 62, 124, -83, -7,
   21, -102, -118, 5, -124, 96, 56, 50,
   117, -104, 92, -54, -105, -73, -17, -39,
   42, 44, 126, -23, -107, -29, -118, 82,
   -30, 79, 81, -128, -128, -126, 124, 114,
   24, -12, -128, -29, -125, -127, -124, 54,
   89, 42, 5, 42, -94, -52, 41, -41,
   76, -128, -41, 12, -50, -109, -104, -21,
   37, 25, -119, 124, -79, -24, 89, 106,
   -127, 18, -117, -65, -128, 118, -128, 127,
   126, 94, -111, -83, -14, 19, 127, -122,
   12, 127, -69, -23, -29, -128, 111, 21,
   -126, 0, 45, -92, -24, 47, -27, 24,
   -79, 45, 32, -46, 105, -18, -21, -105,
   126, -13, -84, 8, -1, -75, 127, 26,
   112, 66, 107, 0, 127, 9, -9, -108,
   -15, -50, -34, -103, -42, -41, -125, 123,
   9, -124, 115, -81, -48, -47, 77, -119,
   -35, 41, 7, -6, -101, 34, 2, 117,
   -123, 86, -27, -24, 127, -90, 58, -67,
   -116, 101, -121, 22, -104, -44, 35, -4,
   -80, -5, -70, 0, 115, 67, 31, -126,
   -37, 44, -9, 16, 50, 7, 13, 26,
   7, -73, -68, 45, 20, -75, 19, -44,
   8, 21, -22, 1, 93, 86, 6, -11,
   -16, -18, 20, 75, -29, -12, -16, 40,
   67, 7, 11, 74, 58, -50, -46, 37,
   -8, -45, -5, -3, -50, -36, -12, 36,
   65, 29, -29, -92, 12, 10, -91, 1,
   8, -2, 96, -61, -44, -28, -24, -2,
   14, 37, -19, 25, 76, 47, 9, -29,
   42, -21, -10, 17, 31, 25, 23, 22,
   -52, 20, -14, 50, 17, 13, -91, -41,
   -4, 12, -69, -91, -8, -125, 14, -30,
   82, 0, -26, -3, 46, 32, -28, 24,
   -3, -90, -101, -79, -61, 64, -45, 31,
   6, 5, 67, 7, 49, 34, -4, -19,
   -4, -13, 12, 5, 28, -76, 12, -46,
   -5, -5, 3, -28, -25, -5, -19, -17,
   -85, -58, 30, -44, 56, -73, -29, -74,
   58, 45, -24, -42, 57, -57, -15, -50,
   -2, -1, 68, -20, -5, -32, 14, 62,
   79, 23, 90, -44, -47, 85, 41, 72,
   121, -28, -47, -17, 33, -3, 64, -57,
   -51, -21, 2, 42, -126, 17, 10, 61,
   24, -128, -93, -32, 73, -38, -25, 78,
   -31, -39, -34, -97, 34, -118, -125, 6,
   -7, -43, 11, 7, 48, 1, 96, -12,
   -48, -12, 79, 29, 117, -57, 57, 116,
   -16, 116, -81, -38, 7, -35, -111, -125,
   -51, -67, -13, -21, 14, -21, 48, -12,
   -127, -45, 55, -127, -121, 42, -11, 7,
   22, 3, -61, 12, -10, 60, -25, 20,
   0, 18, 9, -24, -79, -66, -11, 22,
   -44, -52, 7, -10, -42, 32, -38, 18,
   43, -44, 7, 35, 19, 105, 86, -95,
   26, 29, -23, 18, 1, 116, -14, 66,
   -128, -83, 50, 122, 48, -55, -125, -84,
   78, 74, -76, -61, -70, 18, 48, 21,
   -6, -91, 88, 33, -115, 42, -1, -73,
   -78, -10, -35, -21, -16, -70, 31, 79,
   -41, -8, -55, 93, -38, -36, -63, -36,
   -69, -23, -68, -126, -78, 19, -92, 114,
   -79, 97, 127, 25, 127, -32, 122, -44,
   125, 106, -10, 34, -17, -5, 102, -55,
   62, -31, 117, -7, -34, 8, -118, 74,
   -124, -3, -34, -47, -125, -112, -81, -66,
   -88, 10, -52, 93, 4, -17, 110, 91,
   1, 61, -65, 4, -18, -78, -11, -5,
   -72, -27, -57, 113, 45, -45, -125, 14,
   -56, 3, -14, 56, -58, -82, 77, 80,
   41, 8, 109, -22, -65, -82, -48, 22,
   87, -32, -37, -4, 45, -18, 17, -23,
   -40, -108, 57, -53, -4, 21, -87, -17,
   56, -118, -4, -78, 26, 61, -50, 118,
   0, -54, -13, 87, -59, 68, 45, 92,
   127, 48, 16, -56, -37, -63, 32, 74,
   -3, 55, 115, 21, 7, 126, -17, 3,
   -38, 43, 31, -4, 46, 58, -52, -91,
   -25, 28, -126, 89, -8, -98, 124, 67,
   -71, 20, -52, -42, -68, -20, -51, 33,
   -31, 17, -21, -15, 60, -60, -128, -56,
   127, -10, -21, -23, 62, -23, 95, -121,
   16, 126, -60, 117, 20, -13, -72, -69,
   65, -61, -127, 41, 15, 29, 48, -123,
   -32, 35, 23, 74, 44, 112, 53, -118,
   -117, 45, -68, 127, -44, 126, -66, 3,
   22, -17, 19, 51, -93, 83, -111, -21,
   -13, -13, -66, 9, 51, -79, -76, -2,
   64, -70, 81, -68, -19, 82, -26, 95,
   101, 76, -65, -53, 32, 127, 75, -32,
   -98, 123, 51, -61, 45, -61, 37, 19,
   -80, -103, -12, 71, 1, -8, -59, -15,
   106, -17, 6, 6, -46, -14, -1, -51,
   -19, -63, -45, -32, -15, 47, -122, 99,
   -2, 43, 68, -29, 15, 32, -26, 120,
   51, -44, 127, 24, 107, 15, -76, 44,
   73, -10, -31, -17, -68, -79, -53, 28,
   -123, 2, -122, 122, 44, 58, -16, 127,
   -76, -84, 71, 45, 3, -63, -102, -59,
   -18, 38, -84, 18, 11, -102, 76, -52,
   -124, -15, -84, 113, -114, 56, 63, 2,
   81, 0, 31, -117, 114, 38, 23, -40,
   34, -3, 127, 43, -42, -95, 54, -68,
   -13, -91, 41, 127, 16, -64, -37, 5,
   -72, -20, 77, 75, -1, -26, 53, 86,
   10, 30, -19, 43, -27, -105, 62, -29,
   18, -13, 3, 16, -42, 69, 22, 47,
   26, 2, 12, 58, 31, 71, -85, 12,
   17, -82, -44, 30, -68, 123, 97, -37,
   26, -64, -40, 127, -76, -47, -65, -7,
   5, 7, -71, 95, -24, 4, -124, -2,
   45, -19, 74, -11, -46, 119, -78, -37,
   -9, -33, -102, 11, 44, -52, 49, -109,
   -103, -28, -20, 104, 90, -80, 119, 18,
   69, 125, 3, 38, -27, 111, -15, 87,
   -82, -2, 34, -24, 60, 39, 19, 105,
   17, 18, -61, 18, -42, 123, -10, 11,
   -44, 12, 51, 38, -35, 70, 97, -127,
   -123, -29, 126, -63, 126, -79, -96, 56,
   109, -14, 68, 56, -111, -13, 46, -16,
   63, -128, 125, -93, 60, -86, 71, 124,
   49, -11, -6, 44, -25, -72, -29, 49,
   9, -90, 68, 58, -37, -112, 117, 10,
   -7, 127, 32, -31, 103, 30, 111, 32,
   54, -58, 68, -3, 9, -73, -47, 4,
   120, 83, 1, 35, -7, -17, -18, 58,
   74, -127, -50, -68, -25, 56, 32, -21,
   -108, -45, -15, 14, 89, 0, -104, 7,
   36, -80, -66, 60, -115, 34, 127, 61,
   -19, 98, -28, -19, -18, -7, 46, 1,
   2, 16, -61, -33, -43, -39, -4, 8,
   4, -63, 57, 15, 69, -35, -76, 28,
   -55, -45, -34, -37, 72, 57, -108, 18,
   10, -85, 17, 61, 67, -31, -28, -30,
   -8, -33, 4, -13, 1, -36, -29, 14,
   69, 49, -29, 23, 13, -29, -4, -32,
   -101, -17, -116, 7, 24, -2, -48, -68,
   -91, 52, -66, 32, 78, -76, -58, 47,
   -33, -66, 6, 53, -29, 93, 55, 14,
   -21, 30, -44, 33, -31, -6, 14, -68,
   65, 82, -58, 3, -21, -102, 102, -37,
   -6, 67, 28, 6, 86, -19, -10, 99,
   -31, 68, 31, -65, 34, 20, 2, -119,
   71, -83, -66, 95, 21, -37, -98, -97,
   -15, -68, 71, 50, 57, -9, -125, -88,
   1, 53, -49, 30, -22, -5, 20, -16,
   -83, -20, -24, -85, 6, -127, -7, 93,
   -55, 12, 55, 17, 33, 31, 19, 64,
   -25, 16, -42, 35, -108, -68, -1, 92,
   122, 58, 37, -125, -78, 22, 53, 109,
   -17, 25, -31, 57, -18, -2, 53, 103,
   13, -53, 35, -25, -68, -15, 6, -65,
   111, 34, 34, -47, -17, 95, 25, -15,
   37, -17, 15, 92, -125, -15, -27, -33,
   63, 12, 29, 94, -53, -44, 45, -90,
   -128, 16, 53, 29, 9, -28, 125, 60,
   45, 89, 87, -42, -9, 65, 60, 20,
   -10, 33, 78, 105, -2, 2, -115, 18,
   21, -118, 45, 76, -124, -68, -42, 73,
   69, -15, 7, -28, -76, 39, 32, 10,
   36, -8, -33, -38, 10, -24, 2, -69,
   -28, 34, 8, 54, -83, 107, -47, -65,
   -6, 6, 33, 78, 76, -14, 99, -40,
   12, 85, -23, 7, 5, -16, 20, 30,
   12, -78, -97, 51, 13, 61, 41, 68,
   38, 27, -3, -40, 18, -7, -62, 44,
   71, 13, 56, -30, -18, -5, -6, 5,
   20, -22, -21, 37, 122, -38, 87, 42,
   -15, -10, -56, -29, 11, 23, -36, -40,
   -39, -27, 40, -42, -42, -10, -55, 22,
   -13, -78, 7, 0, -66, 65, -5, 21,
   0, -69, -125, -58, 33, 45, -9, -126,
   75, 19, -93, -43, -95, 33, -62, -41,
   -38, 58, 0, 35, -68, 68, 37, 126,
   -3, -35, -56, 90, -8, -102, 110, -49,
   41, -38, -53, -111, -15, -12, -88, 29,
   -113, 23, 28, 5, -86, 31, -1, 112,
   27, 23, 8, 64, -76, 36, 56, 52,
   -44, -34, 89, 27, 33, -5, -37, -21,
   2, 28, 72, 32, -88, 47, 17, 85,
   96, -21, -48, 5, -60, 110, 60, -51,
   -32, -54, 54, 9, 38, -26, -49, -21,
   10, 50, 22, 67, -48, 40, -20, -102,
   69, -52, -80, -125, -18, -88, -26, -95,
   -42, -87, -21, -5, 115, -32, 11, -68,
   -41, 69, 38, -35, 35, -38, 102, 117,
   41, 44, -42, 114, 22, -27, 123, 4,
   101, -116, 71, -52, 24, 47, -23, -94,
   114, 48, -119, -43, 6, 88, 121, 13,
   -51, -44, 124, -12, -34, -32, -37, 17,
   75, -66, 5, 48, 12, 4, 49, 10,
   32, -37, -110, -90, 103, 67, -8, -99,
   30, 21, 48, 57, 52, -17, -37, -82,
   -68, -10, -64, 98, -2, -110, 99, -123,
   121, -61, -68, -101, 124, 12, -37, 18,
   -62, -69, 32, 11, 101, 39, 7, -72,
   47, -77, 18, -43, 59, -30, 22, 8,
   -75, -62, -4, -106, -23, -87, -35, 22,
   -57, -28, -7, -58, -87, 100, -2, 50,
   32, 3, 103, -46, 1, -33, 41, -39,
   -68, -61, 82, 17, -74, -80, -26, -27,
   -52, -14, 23, -51, -36, -12, -40, -65,
   17, 46, -5, 76, 55, 123, 53, 26,
   -88, 9, 34, -32, -3, -9, -48, 19,
   57, 85, -17, 53, 29, -27, 16, 13,
   -124, -112, -86, -19, 39, 9, 44, -125,
   74, -56, 8, 60, -23, 34, -127, -5,
   -91, -89, -55, -117, -32, 102, -8, 2,
   93, -17, 104, -90, -71, 43, -39, -19,
   98, -52, -5, 63, 37, -62, 21, -21,
   63, 8, 68, 0, 46, -65, -56, 65,
   -53, -35, -23, -46, -52, 45, -62, -26,
   -24, 17, -51, 6, -8, -92, -67, 118,
   -8, -1, -60, 27, 11, 46, -95, -26,
   -126, -89, -85, 82, 18, 12, 57, 71,
   -26, 42, -4, 48, 88, 122, 120, 39,
   9, 55, 41, -6, 21, -40, -21, 87,
   -44, 14, -29, 11, -85, -46, -93, -54,
   11, 62, -40, 40, -128, -74, -12, 115,
   62, -25, 105, -128, -17, 25, 99, -18,
   117, 4, 31, -59, 127, 56, -98, -38,
   127, 61, -23, 11, 49, -21, -68, -30,
   81, -65, -8, -126, 42, -80, 64, -38,
   -115, -37, 59, -70, -125, 67, -44, -40,
   66, -17, -16, -33, 112, -18, 54, -57,
   -3, -71, 124, -88, 64, 38, -14, -124,
   42, -77, 74, 71, -105, -3, 31, 44,
   26, 20, -18, -33, 108, 78, 53, -116,
   -115, -106, 41, 127, 0, 30, -128, -78,
   -39, -81, -68, 119, -80, -36, -55, -17,
   31, 67, -35, 42, 33, 34, 38, 4,
   -2, -19, -114, 12, -1, -29, -15, -37,
   -124, -58, -37, 8, 31, -14, -78, 97,
   80, -4, 33, -123, 47, 113, 91, -20,
   66, 41, 28, -70, -38, -25, -99, -61,
   -45, 66, 26, 75, 34, -38, 21, 71,
   18, -123, -9, -17, -20, -73, -7, -70,
   47, 42, -126, -120, 41, 18, -49, 118,
   27, -87, 52, -7, 127, -13, 34, -52,
   -67, 41, -43, -30, -75, -28, -65, -124,
   -15, -126, -43, -125, 34, -124, 13, -28,
   -116, -27, -122, 10, -128, -126, 91, -120,
   -20, -66, -48, -126, 32, 81, -80, -13,
   -40, 17, -48, -33, 17, 8, -48, -99,
   79, 40, 52, 18, -57, 78, -126, -63,
   -13, -2, 17, 49, -61, 82, -121, 70,
   50, -46, -123, -126, -1, 84, 127, -122,
   -20, 20, -38, 53, -10, 77, -20, 23,
   64, -69, 38, -27, 19, 103, 53, 126,
   101, -14, -82, -122, 48, -37, 17, -66,
   30, 93, 14, 33, 7, 20, 75, 50,
   -105, 14, -57, 87, 48, 36, -29, 124,
   -15, -38, 15, -126, -53, 100, 42, -11,
   -35, -20, 127, 58, 32, 127, -77, -76,
   -34, -93, -29, -125, -56, 62, -21, 35,
   127, 97, -108, 12, 39, 116, -1, 81,
   -28, -128, -91, 35, 127, 110, 123, 15,
   -80, 0, 14, -110, -6, -26, -44, -120,
   31, -47, 38, -125, -3, -125, -27, 106,
   -115, -26, -57, 1, -43, -76, 37, -68,
   -79, 8, 17, -113, 6, 119, 11, 60,
   106, -15, -50, 70, -28, -16, 28, -58,
   36, 63, 10, -56, -59, 87, -75, -11,
   -89, 9, -99, 5, 7, 16, -26, 24,
   65, 1, -121, -126, -63, 94, 116, -10,
   -14, -18, 10, 97, -15, 127, 19, 13,
   5, -30, -29, 23, 70, -2, -16, 118,
   88, 81, -99, 16, -61, -5, -119, 67,
   65, 122, 126, 29, 64, -26, 41, -128,
   -127, -40, -64, 84, 31, 18, -40, 126,
   -46, -46, 53, -127, 0, -11, 14, -5,
   81, -22, 127, 15, -53, 126, 10, -14,
   -127, -93, -93, -68, 18, 35, 33, -19,
   115, 50, 3, 127, 22, 120, -98, 4,
   11, -80, -127, -22, -89, 30, 78, 97,
   123, -106, 31, -82, 126, -17, 40, 127,
   -6, -18, -42, 120, 100, 69, -46, -36,
   33, 58, -79, 20, 86, 127, 65, 58,
   -126, -15, 101, -16, -56, -43, 24, -8,
   99, 40, -7, 117, 13, 19, 120, 6,
   -55, 92, -105, -93, 60, 117, -62, 109,
   -24, 44, -128, -43, -66, -106, -4, -74,
   -35, 11, -101, 5, 6, 127, -35, 104,
   -27, 43, 63, 70, -34, 127, -91, -42,
   126, -27, -6, 78, -101, -19, -65, 127,
   117, 124, -8, 97, -117, -9, -127, 127,
   11, 81, 126, -127, -51, 37, -39, -73,
   2, -115, 4, 120, -78, -8, -66, -33,
   -38, 7, 94, -4, 74, -41, 60, -38,
   94, -43, 81, -87, 123, -54, 48, -101,
   -37, -18, -67, 16, 0, -106, -90, 63,
   -52, -8, 90, 115, -126, -7, -128, -48,
   1, -127, 122, -21, -72, 27, 29, 95,
   -62, -61, 59, -34, 49, -13, 26, 29,
   -41, -117, 44, 82, 36, -111, -50, -124,
   0, -35, -87, 0, 62, 114, 85, 66,
   -101, -50, -43, 63, 53, -73, -125, 64,
   -73, 6, 33, 52, -49, -26, 0, 38,
   41, -24, -11, 13, 45, 7, -120, 58,
   109, -55, 26, 29, -9, -30, 67, 12,
   -27, -3, -128, 125, 83, -6, 82, -43,
   -115, 82, 30, 51, 102, -47, -36, -41,
   126, -37, -57, 2, -39, 4, -74, 40,
   63, 31, 74, -53, 35, -104, 6, -63,
   33, 127, -85, -51, -97, -21, 2, 18,
   40, -86, 127, 120, -6, 13, -114, -32,
   -15, 46, -94, 47, -51, 41, 8, -17,
   -3, -122, 31, -92, 126, 25, 30, 121,
   49, 70, 87, -6, 3, -28, 50, -21,
   44, 107, 110, -41, -42, 47, 77, -13,
   69, -23, -4, -76, 0, 24, 100, 36,
   -50, 42, -56, -8, 120, 18, -37, -118,
   96, 48, -14, 27, -109, -110, -86, -85,
   -103, -89, 65, -41, 4, 104, -46, 52,
   -122, -56, -6, 23, 35, 49, 31, 100,
   1, -43, 16, 125, 89, 21, 43, 74,
   99, 75, -46, 69, 14, -20, -96, 9,
   73, -36, -10, -2, 10, -48, 16, 69,
   39, 24, -128, 80, 21, -11, 4, -53,
   -90, 51, -14, 29, -15, -50, -15, 11,
   34, -17, -127, -34, 19, -123, 117, -26,
   -26, 27, 3, 52, 72, 38, 14, -28,
   -74, 63, -36, -91, -25, -51, -74, 84,
   -96, 11, -58, 0, 54, 29, -81, 8,
   7, -35, -109, -19, 67, -58, -52, -40,
   -122, -111, -14, -44, 127, -127, 32, -24,
   -26, 50, -5, 74, 30, 53, 11, 51,
   -18, 126, 121, 127, -22, 86, -46, 9,
   -23, 18, 127, 13, -107, -108, 52, 23,
   -24, -50, -1, 35, 127, -18, 15, -33,
   115, 67, 7, 89, -15, 58, -78, 81,
   51, -9, -2, -31, 82, 85, -127, -24,
   -118, 3, -29, 37, 119, -39, 97, 106,
   20, 27, 86, 88, 108, 121, 127, -13,
   -6, 34, -49, 50, 125, -74, -36, -74,
   121, 33, 21, 122, -54, 67, 38, -35,
   7, 12, -96, -69, -2, 36, 24, -36,
   -21, -4, 52, -18, 35, 123, -42, 2,
   -122, -128, 120, 42, -44, -46, -70, 87,
   119, -35, 21, -81, 35, -26, 68, 2,
   -63, 15, -127, 105, 40, -40, -1, 18,
   57, 6, 51, 78, -93, 29, -122, -3,
   -83, -119, -21, -52, 58, -118, 121, -9,
   -128, -17, 32, -6, 118, 6, -21, 48,
   32, -126, -28, -11, -24, -75, 31, -10,
   -8, -52, 53, -82, 37, 4, 49, -13,
   -49, -19, 49, 76, 27, -3, -38, -6,
   26, 40, 46, 47, -25, 13, 9, -60,
   44, 68, -41, 20, -75, 48, 36, -90,
   31, 32, -40, -18, 21, -12, -8, -58,
   -24, -33, -82, 74, 11, 56, 93, 54,
   35, 75, 40, -122, -58, -34, -3, 25,
   -98, -67, -25, -36, 77, -34, -17, 69,
   49, -34, 32, -14, 14, 8, -14, -118,
   8, 29, -3, -46, -17, -38, -46, 2,
   -38, -48, 0, -17, -54, 24, -81, -35,
   -48, 32, 2, 67, 15, -9, -11, -31,
   -18, 25, 43, -31, -107, -38, 28, 9,
   -86, -67, 27, 29, 26, -17, -68, 5,
   -13, -31, 51, 37, 10, -22, -128, 3,
   29, 28, -24, 30, 38, -69, -12, -34,
   -68, 38, 43, 1, -22, -99, 19, -30,
   -54, -40, 38, 75, 46, -61, 1, -46,
   7, -34, -61, 3, -33, -42, 32, 54,
   43, 30, -128, 9, -23, 12, 29, 39,
   11, 44, -4, 21, -96, 22, 44, -17,
   -10, -43, -39, -35, 58, -21, -23, 39,
   6, 56, 81, -62, 21, -90, 90, 39,
   33, -18, 5, 3, 42, -6, -14, 28,
   67, 28, -47, 14, 34, -10, -36, -6,
   28, 3, -117, -6, -33, -36, -26, -16,
   27, 109, 2, 15, 21, -100, -51, 5,
   -6, 36, -4, 41, 65, -53, -27, -27,
   -97, 40, 29, -27, 97, -6, 29, -25,
   65, 58, 62, 25, 6, 65, 6, -35,
   -17, -67, -23, 31, 0, -10, 51, 24,
   -24, 47, -125, 4, -71, -20, 31, -8,
   19, 24, 69, 27, -41, 40, 12, 13,
   -64, 36, 12, -34, 53, -10, -20, -20,
   -20, 60, -47, -31, 17, 4, -33, 0,
   15, 39, -6, -5, 2, -77, -15, -72
};

static const rnn_weight noise_gru_recurrent_weights[6912] = {
   12, 15, -79, 27, 0, -24, -53, 4,
   65, -30, 44, -28, 113, 53, 7, -2,
   12, -22, 15, -35, -66, 91, 14, -14,
   22, -13, 95, -4, 45, -3, 16, -47,
   61, 17, -38, 124, 11, -38, -78, -59,
   -26, -29, -38, -25, 2, 16, 49, 123,
   -23, -77, 53, -15, 0, -35, -15, 48,
   126, -7, -2, -23, -25, -31, -2, 53,
   -43, -37, 12, -5, 39, -28, -6, -8,
   97, 36, -9, 30, -52, -11, -18, 58,
   55, 44, -27, 10, 110, -51, -64, -7,
   30, -53, 12, -23, 25, -35, 31, 22,
   -12, -19, -43, 19, -16, -1, 14, 34,
   16, 26, -19, -29, 6, -6, -50, 18,
   -57, 54, 13, 35, -21, -27, -4, 45,
   70, 30, 15, 31, 65, -10, 39, 55,
   11, 51, 56, 42, -97, 60, 19, -2,
   -5, -23, -29, 10, 77, -8, -76, -113,
   -14, 40, -41, 15, 16, -37, 24, -35,
   45, -26, -106, -39, 34, 51, 48, 103,
   -27, -30, 80, 117, -117, -17, -19, 84,
   -18, -46, 63, -40, -40, -24, 54, -3,
   -17, -46, -51, -25, -27, 33, -41, -125,
   -14, -37, 19, -12, -122, -78, -51, -25,
   -22, 0, 44, 19, 85, 47, -1, 34,
   16, 127, -19, 61, -47, 66, 29, 56,
   15, -1, 5, 63, -83, 41, -63, 21,
   20, 42, 108, 12, -23, -7, -68, 32,
   22, 21, -4, -110, 39, -112, -30, 125,
   21, 0, 20, -14, 16, -8, 0, -87,
   -47, 28, -31, -45, 102, 71, -49, -15,
   -111, 38, 12, -45, -19, 58, 83, -45,
   -21, 100, -56, -44, 8, 52, 9, -57,
   -38, -78, 11, 47, 62, 0, 48, 64,
   -33, -52, 14, 29, 24, 17, -111, -14,
   121, 34, 49, 42, -26, -11, 29, 41,
   31, 33, -49, -45, 50, -72, -115, -12,
   52, 9, -59, 74, -70, -52, -40, -40,
   -7, 62, 53, 17, -62, -7, 77, 68,
   -4, -79, 16, -64, -27, 105, 43, 110,
   -15, 7, -89, -5, 54, 83, -49, 48,
   -51, -48, 36, -121, 39, -5, -77, 109,
   -37, -28, 7, 38, -37, -24, 8, -7,
   -13, -60, 64, -69, -25, -55, -34, 38,
   59, 41, -4, -24, 27, -17, 61, 3,
   -57, 82, 26, -59, -77, -12, 14, 12,
   50, 50, -50, -1, -13, 12, -56, -14,
   -9, 22, 21, 20, -48, -25, 7, -34,
   43, 27, 12, -45, -8, 20, 16, -51,
   12, -48, -7, -22, -19, 42, 15, 6,
   5, -58, -63, -116, 8, -17, -18, -45,
   31, -20, 12, 44, 1, 40, -10, -18,
   -17, 79, 0, -4, 11, 29, -7, 52,
   40, -30, -11, -16, -12, -13, 37, -25,
   -11, 78, 68, -55, -38, 52, 32, 2,
   36, 21, -49, 47, 5, 17, 11, -17,
   48, -8, 7, 38, -33, 5, -55, -31,
   18, 0, -28, -79, 28, 31, 59, 34,
   2, -6, -14, 34, -18, -27, 11, 15,
   63, -84, -59, -21, 42, -43, 7, 48,
   -68, 0, 23, 24, -85, -86, 58, 16,
   -1, 11, -51, -5, -18, -1, -41, -54,
   6, -15, 15, 55, 21, 43, -127, 15,
   -70, -34, -44, -13, -19, 38, 5, 3,
   40, -5, -23, 49, 66, 56, 0, -33,
   36, 18, 23, 0, -121, 7, 66, 87,
   -15, 44, 2, 28, -24, -85, 54, -25,
   70, 29, -50, 12, 90, 24, -61, -14,
   -13, -33, 10, 22, 7, 37, -42, -38,
   -33, -21, 22, -11, 59, 85, -59, 34,
   -3, -21, 33, 48, -45, -60, 34, -48,
   2, -16, 0, -20, 15, -58, -78, 4,
   -30, 2, 8, 30, -4, 1, -13, -71,
   41, -4, -28, 7, -40, -34, 46, 12,
   36, 26, -10, -22, -27, -14, 36, -31,
   5, -19, -16, -31, -28, -40, 51, -9,
   15, -3, -29, 51, -10, -32, 2, -14,
   54, -3, -38, -35, -1, 48, -16, 15,
   69, 21, -33, -17, 13, 14, -95, 34,
   65, -11, 15, 16, 33, 19, -16, 36,
   -20, -2, -56, 33, -44, 65, -12, -62,
   -13, 18, 13, -59, -8, -19, 56, 69,
   -50, -7, 14, 36, 29, -95, -93, -40,
   13, -18, 24, -43, -82, -7, 16, -32,
   44, -39, 32, -1, 23, 18, -24, 26,
   119, 39, 0, -47, 10, 36, 48, 31,
   -11, 15, 36, 23, 4, -12, 38, 5,
   -5, -31, -10, -3, 15, -8, -29, 9,
   -128, -53, -51, 67, -18, 5, 24, -31,
   -37, -102, 33, -59, -81, 34, 12, -1,
   -31, 34, -54, 58, -8, 17, -43, -87,
   75, 125, -35, 39, -31, 21, 30, 20,
   65, 19, -11, -31, 27, 4, 25, 78,
   62, 55, -4, -31, -6, 93, -39, -3,
   18, 112, 9, -20, -18, 50, 11, 69,
   37, -50, 35, -79, 47, 0, -54, 41,
   -4, 79, -47, 35, 47, 5, 1, -109,
   -87, -100, 52, 82, 28, -40, 19, -29,
   -1, 71, 25, 13, 96, -19, -16, 21,
   5, 39, 1, -68, -24, 9, 17, 90,
   6, 57, 21, -80, 20, -16, 21, 27,
   -82, 20, 35, -63, -42, -33, -6, -36,
   22, 40, 24, 44, -40, 32, -29, -86,
   75, 29, 22, -33, 1, -7, 17, 34,
   -28, 29, -20, 27, -46, -7, 43, 66,
   2, -30, 35, 2, 31, 35, 55, 31,
   -29, -34, 31, -7, -7, -37, -70, -63,
   -14, -73, -68, -28, -21, 10, -21, 5,
   68, 56, 34, 20, -33, -3, -9, -18,
   -33, 42, -9, -23, -24, 8, -24, -6,
   23, 85, -4, 14, 125, -47, 22, -6,
   -58, -115, -29, -64, -6, -32, -58, 11,
   35, 15, 4, -31, -16, -112, -37, 11,
   -75, 7, 42, 110, -28, -23, -28, -34,
   -96, -40, -31, -1, -11, 30, 27, 4,
   -26, 36, -83, 70, -15, -16, -76, 27,
   -17, -67, -19, 14, 56, -4, 8, 28,
   13, 14, -19, 85, -71, 11, 29, -42,
   -13, -2, 43, -4, 18, -25, 10, -76,
   -70, -22, -14, 29, -117, -3, 1, 15,
   35, 1, 55, -12, 17, 7, -51, -48,
   7, -41, -49, 46, -28, -10, -3, -28,
   19, -2, 8, 52, 24, -19, -77, 19,
   -35, 30, -9, 2, 6, -52, -27, 54,
   -28, -31, 35, 19, 20, -13, -69, 36,
   -6, -41, -10, 12, -82, -106, -125, 108,
   -28, -44, 43, -20, -18, 47, 4, 21,
   -17, 46, -20, 22, 36, 42, 37, -60,
   -45, 63, -54, 91, 48, 15, 36, -77,
   5, -35, 68, -22, 113, 2, -21, 9,
   -80, 87, 27, 33, 24, 16, -7, -24,
   -18, -13, 10, 13, 54, 11, 4, 21,
   7, 16, 61, 88, 32, 13, -14, -25,
   16, -1, 56, -8, 13, -32, -45, -23,
   -17, -45, -64, 5, -56, 1, -34, -58,
   -50, 32, 57, -27, -59, 9, 26, 118,
   42, 37, 73, 14, -4, -3, 21, -51,
   28, -13, -107, -33, -23, 32, -68, -35,
   -7, 103, -39, 38, -74, -49, -32, -23,
   1, -26, 11, 67, 14, -73, 50, -13,
   -20, 115, -103, 6, 18, -33, 33, 64,
   -74, -19, 15, 19, 15, -62, 47, 17,
   65, 8, 18, -15, -55, -31, 2, -39,
   -52, 50, -39, 31, 66, -58, 45, -14,
   3, -35, -2, 27, 24, -15, -25, -6,
   -9, -3, 34, -12, 27, 14, -33, 6,
   -42, 33, 97, 84, 3, -63, 34, -89,
   -23, -12, 13, -33, 127, -85, 40, -24,
   -6, 46, 25, 11, -108, 29, 42, 27,
   -76, -30, -34, -43, 18, -10, -34, 6,
   -45, -26, -27, 27, -43, -76, 10, -104,
   -43, 15, -33, 43, -20, 65, -9, -5,
   125, -10, -24, 76, -60, 72, 59, 6,
   -14, -9, 46, 30, 41, -10, -9, 9,
   -31, 75, -24, -26, 9, -69, 65, 92,
   35, -91, 80, 40, 45, -59, 55, -9,
   79, 56, -79, -32, 91, -30, -32, -33,
   71, 20, 120, -16, -35, -120, 79, 77,
   1, 37, -43, -111, 50, 48, 21, 79,
   69, -67, 99, -39, -126, 123, -12, 14,
   -66, -92, 127, 37, 118, -53, -5, 61,
   26, -3, -14, 57, 125, -19, 59, 34,
   42, 37, 16, -11, 30, 5, 42, 33,
   -15, -62, -33, -75, -34, 73, 49, 59,
   -27, 5, -26, -35, 5, 26, 31, 15,
   47, 112, 8, 15, 68, 52, -34, 106,
   31, 73, -15, 67, -32, -16, -19, -59,
   37, -84, 63, 9, 62, -40, 30, 118,
   40, -25, -47, 76, 29, 120, 15, -80,
   109, -27, -7, 92, -73, 37, 27, -51,
   8, -23, -30, -4, -45, -27, -102, -68,
   -1, 40, -3, 2, 6, -43, -23, 28,
   76, -13, 6, -21, -5, -4, 35, 17,
   -34, -6, -21, 40, -38, -8, -110, -33,
   89, -54, 27, -33, 28, -61, -26, 33,
   -14, -68, 8, -31, -11, 53, -5, -14,
   46, 18, -59, -31, -16, 29, 50, -26,
   33, 3, -32, 39, -33, 18, -48, -39,
   11, -46, 5, -23, 32, 12, -8, 27,
   -6, 28, -41, 16, 26, -16, -62, 22,
   -10, 6, 86, 53, -45, -18, -9, -34,
   43, -28, -128, 47, -35, 8, -52, -54,
   72, 119, 67, -44, 50, -25, 52, -9,
   -61, -51, 39, -40, 93, 67, -18, -25,
   -60, 37, -49, -55, 53, 57, 53, 53,
   -6, -72, -78, -6, 56, -8, -40, -39,
   50, 19, 98, -7, -43, 66, 45, -35,
   -13, -18, 3, 5, 33, 25, 3, -54,
   -36, 56, -44, 4, -45, 18, 54, 4,
   23, 53, 8, 22, 14, 21, 37, -18,
   88, 65, -43, -11, -96, -21, 0, 47,
   88, -25, -61, -77, -60, -24, 34, 10,
   -4, 42, -42, 30, -15, 38, -39, 6,
   15, 32, 2, 39, -9, -64, -45, -46,
   57, 39, -5, -60, 10, -91, -6, 14,
   -14, -67, 0, 11, -106, 7, 20, 54,
   54, -28, 49, -54, -17, -32, 3, 62,
   -32, -35, -11, -32, 9, 6, -39, 0,
   -25, -31, 65, -71, 49, -10, 28, 2,
   80, 63, -42, -24, 36, 29, -35, 83,
   107, 80, -89, 61, 124, -10, 34, -39,
   -109, -28, -6, 29, 50, 94, 15, 25,
   -103, -5, -95, 34, 17, -52, 55, -31,
   -32, -24, 63, -48, 22, -120, -1, 56,
   -18, -28, 18, 77, 50, -92, -46, 60,
   1, -13, -31, 65, -65, 64, -33, -59,
   52, -84, -46, -30, -27, -48, 86, 50,
   34, 31, 55, 8, -30, 14, 56, -4,
   -71, -2, 4, -27, 74, 4, 90, -32,
   -40, 26, -25, -63, -25, -119, 24, 52,
   -34, -10, 75, -33, -36, -26, 40, -28,
   -45, -28, -2, -19, 43, -50, -27, 50,
   -39, -2, -25, 47, -48, -12, -15, -41,
   20, -33, 14, -45, -40, -40, -22, 3,
   -25, 26, -58, 11, -14, 18, -43, -41,
   23, -1, -105, -99, 56, -25, 17, 0,
   39, 127, 34, -69, 5, 5, -79, 48,
   -26, -5, -51, 11, -4, -32, 10, 57,
   97, 78, -65, 36, 65, 126, 55, -20,
   4, 68, 1, -40, 17, 77, 70, 16,
   -39, 62, 77, 33, -25, 19, 88, 119,
   -21, 42, 76, 64, -25, -55, 56, -23,
   28, 0, -23, 51, -22, 76, -3, -24,
   -10, 30, -27, -56, 28, 33, 46, -64,
   7, -13, 58, 38, -11, -17, -48, -99,
   27, 19, 30, -10, 2, -23, 29, 29,
   -30, -14, 8, -9, 9, -10, -5, -22,
   -10, -62, -47, 32, -24, -3, -7, -58,
   1, 57, 41, -13, 9, -18, 12, -62,
   15, 49, -44, -2, 6, -41, -17, -105,
   43, -2, -37, -3, -28, -1, -16, -35,
   9, 52, 24, 10, -16, 10, 14, 26,
   -41, 50, -52, -23, -17, -12, -85, 25,
   29, -82, -38, 12, -33, 49, 18, -22,
   -54, -3, 7, -24, -2, -40, 125, 33,
   -66, 46, 119, 34, 49, -30, -18, 60,
   -30, -5, -8, 10, -12, -9, 49, -1,
   102, -36, 12, -47, 2, 54, -12, -19,
   25, -10, 14, 107, 32, -28, -35, 23,
   46, -43, 20, -32, -21, 62, 25, 67,
   53, -32, -30, -13, -10, -9, -83, 10,
   87, 1, 26, 0, -8, 22, 13, 52,
   -12, 32, 28, -8, 61, 5, -6, -12,
   38, -8, 37, -30, 30, 42, -56, 3,
   -37, -13, 45, 45, 4, 24, 53, 90,
   15, -66, -35, 38, 11, 15, -20, 21,
   32, -28, -3, -8, -41, 4, -82, 14,
   -15, -1, -23, -88, -7, 8, -15, 20,
   -37, -23, 27, 55, -18, -37, 39, -16,
   -19, 39, -37, -35, -30, -14, 14, 60,
   42, -59, 42, -44, -10, 41, -10, -45,
   -4, -25, -6, 8, -3, 0, -14, 3,
   18, 68, -58, -3, 66, 41, -49, 40,
   8, -4, 46, -14, 27, 13, -14, -32,
   40, 41, -13, 33, -20, 27, -27, 25,
   67, -62, -13, 0, 1, 56, 2, -32,
   1, 40, 24, -12, 51, 80, 2, 18,
   -13, -21, 38, 64, -43, -31, 31, 45,
   38, -4, -54, -30, -48, 30, -9, 9,
   37, -41, -24, 30, -5, -22, 22, -30,
   28, -5, 79, 42, 33, -25, -51, -24,
   -82, -37, 40, 59, -36, 30, -11, -23,
   -53, -20, 73, 43, 37, 1, 0, 30,
   -47, -51, -45, -20, -31, -21, 3, -28,
   17, 71, 49, 50, -23, 53, 41, -64,
   -47, 23, -43, -13, 35, -80, 10, 23,
   14, -57, 39, 11, 16, 36, 3, -3,
   63, 45, -5, 44, 24, -41, -2, -21,
   3, -58, -13, 30, -36, -10, 32, -49,
   52, 16, -27, 63, -89, -40, -54, -40,
   -22, 68, -38, 28, -51, -18, -37, 60,
   -14, 0, 54, 35, 47, -3, 90, -15,
   -123, -26, -28, -19, -71, 14, 81, 3,
   71, 1, -3, -10, -36, -3, 56, 51,
   69, -45, 6, 43, -63, -73, -40, 9,
   8, 51, -44, 65, 80, -10, 24, 1,
   -20, -128, -27, -18, -59, 24, 48, 51,
   105, -106, 80, -44, -6, -17, 8, 4,
   89, 23, 1, 17, 49, -63, 62, 65,
   40, -16, 6, 53, 58, -19, -26, 56,
   26, 14, 46, -12, 13, -8, -43, 18,
   -27, -15, -7, 29, 4, 42, -98, 70,
   -32, 6, 13, 29, -23, -30, 47, -5,
   -10, 31, 56, -9, 6, -28, -16, 12,
   8, 51, 45, 18, -64, -10, -17, -13,
   -5, -10, -7, 50, 11, -12, -44, 5,
   -58, -53, -32, -44, -39, 6, -81, -20,
   -43, 8, 38, 13, -95, 14, 17, 33,
   27, -35, 93, -49, 6, -44, -12, -68,
   27, 5, -63, 19, -76, -6, -17, -20,
   -89, 74, 11, 93, 9, 72, 19, 52,
   -31, -46, 13, -13, 60, 98, -4, -21,
   85, 12, -20, 28, -15, -28, -17, -24,
   -40, -32, -52, -41, 65, -39, 48, -10,
   -28, -26, 43, 96, -55, -48, 20, -1,
   97, 2, -14, 19, -34, -11, 28, 20,
   -10, 76, -47, 50, -53, 69, 9, 19,
   -9, -12, -14, 14, -15, -12, 10, 15,
   -39, 31, 116, 32, 24, 49, 3, 49,
   54, -5, 52, -50, -18, 14, -77, 13,
   34, 20, 79, -41, 4, -9, -3, 13,
   -69, 11, -11, -41, -36, 30, -61, 40,
   -22, 24, 2, -16, -1, -47, -39, -57,
   -84, 19, -73, -32, -65, 8, -51, 8,
   -55, -23, 2, -9, 20, 38, -55, -27,
   -2, 15, 29, 6, -70, 66, -17, -38,
   -52, -29, -52, 27, 32, 32, 40, 62,
   19, 48, -1, 2, -23, -78, -76, -28,
   7, 64, -76, 99, 53, -70, 101, 71,
   -10, -70, 48, -10, -43, 36, 4, 41,
   -3, 2, 12, -75, 77, 18, 44, -17,
   -38, 20, 21, -4, -11, -72, -89, 110,
   9, -68, 70, -91, -10, -114, -55, -5,
   -82, 52, 13, -7, -5, 27, -30, 81,
   -6, -53, -11, -2, 69, 112, -36, 117,
   -94, -65, 9, -11, -50, -78, 57, 106,
   16, 43, -5, -7, 29, 22, 56, -14,
   -88, 17, -17, 1, 9, -27, 43, -55,
   -19, 5, 5, 20, -33, 19, 30, -55,
   24, -64, -70, 34, 39, -9, -6, -25,
   -3, -61, 21, 98, -36, -19, 21, -8,
   -42, -65, 12, 0, -10, 3, 19, -26,
   52, -25, 56, 18, 5, 25, 18, 18,
   -36, 2, -10, -36, -23, -21, -37, -49,
   -69, 11, 22, 16, -50, 8, 24, 80,
   58, 49, 56, 50, -79, 37, -21, -30,
