/*
 * SUITE: marathon-prescription-2018-08-29
 *
 * INTENT:
 *
 * General use in a noisy recording environment.
 *
 *
 * SIGNAL:
 *
 * voice
 *     hamlet-002-act-1-scene-1.1626
 *         http://etc.usf.edu/lit2go/94/hamlet/1626/
 *     human_rights_un_chi_nf.mp3
 *         https://librivox.org/universal-declaration-of-human-rights-by-united-nations-volume-02/
 *     human_rights_un_cze_msed.mp3
 *         https://librivox.org/universal-declaration-of-human-rights-by-united-nations-volume-02/
 *     huntingofthesnark_01_carrol_128kb
 *         https://librivox.org/the-hunting-of-the-snark-by-lewis-carroll-3/
 *     teacupclub_01_armstrong_128kb
 *         https://librivox.org/the-teacup-club-by-eliza-armstrong/
 *     warletters_01_allan_128kb.mp3
 *         https://librivox.org/war-letters-from-a-young-queenslander-by-robert-marshall-allen/
 *     TSPspeech
 *         http://www-mmsp.ece.mcgill.ca/Documents/Data/
 *
 * sounds
 *     cough
 *         https://freesound.org/ sounds: 205012 222644 252240 323532 342587 343880 343885 343986 369295 391284 401334 407839 419781 425777 87412
 *     laugh
 *         https://freesound.org/ sounds: 167578 189278 263775 319346 343934 344043 344064 367680 381275 383237 393353 401214 433921 73123
 *
 * music
 *     Danse Macabre
 *     Gymnopedie No 1
 *     Local Forecast
 *     Secret of Tiki Island
 *     Unpromised
 *         https://incompetech.com/music/royalty-free/
 *
 *
 * ./chopper voice/hamlet-002-act-1-scene-1.1626.raw voice/human_rights_un_chi_nf.raw sounds/cough.raw voice/human_rights_un_cze_msed.raw voice/huntingofthesnark_01_carrol_128kb.raw sounds/laugh.raw voice/teacupclub_01_armstrong_128kb.raw voice/warletters_01_allan_128kb.raw voice/TSPspeech.raw sounds/cough.raw music/Danse\ Macabre.raw music/Gymnopedie\ No\ 1.raw music/Local\ Forecast.raw sounds/laugh.raw music/Secret\ of\ Tiki\ Island.raw music/Unpromised.raw
 *
 *
 * NOISE:
 *
 * rnnoise_contributions
 *     https://people.xiph.org/~jm/demo/rnnoise/rnnoise_contributions.tar.gz
 *
 *
 * ./noise-chopper *.raw
 *
 *
 * COUNT: 10000000 (x87)
 *
 * NOTE: All files processed into correct raws through ffmpeg: ffmpeg -i in -f s16le -ac 1 -ar 48000 out.raw
 */

/*This file is automatically generated from a Keras model*/

#ifdef HAVE_CONFIG_H
#include "config.h"
#endif

#include "rnn.h"
#include "rnn_data.h"

static const rnn_weight input_dense_weights[1008] = {
   15, 4, -1, 3, -7, 4, 1, 18,
   25, 21, 3, 8, -62, -1, -10, 7,
   -5, -5, -2, -15, 2, -9, 5, 7,
   29, 19, 31, 9, -18, -25, 27, -30,
   20, -19, 50, -20, -16, -23, -30, -24,
   -2, 16, -3, -21, 10, 7, 35, -3,
   16, 50, -9, -29, -16, -25, -32, -22,
   -16, -18, 49, -25, -45, 24, -21, -25,
   -30, 4, -6, -45, 29, 19, 43, 24,
   36, 38, -32, 16, -18, -21, 0, 46,
   36, 62, -9, -4, -28, -42, 28, -11,
   -20, -34, 12, -11, 7, 27, -66, 30,
   -75, 4, -7, -13, 12, 11, 18, -12,
   20, -43, 55, 7, 11, 23, -21, 19,
   29, -59, -2, -5, -35, 63, -83, -1,
   -21, -11, 63, 15, -6, 23, -32, 17,
   2, 37, -4, -26, 40, -56, -21, -47,
   -45, -6, -6, -18, -60, 23, -48, -50,
   -13, -41, -101, -71, 9, 79, -121, 110,
   72, -44, -125, -28, 32, 18, 45, -77,
   -30, -114, -93, -104, -74, 107, -55, -29,
   -128, 34, -13, -51, 17, -7, 121, 126,
   55, 11, -85, 126, 127, -128, 127, -19,
   40, -80, 46, 22, 61, 52, 96, 96,
   -67, -37, -24, -112, 6, 46, 10, -67,
   -62, 63, -35, 67, -23, 64, 44, 3,
   48, -128, -11, 0, -7, 121, -126, -51,
   -25, -34, -15, 27, -29, 35, -77, -47,
   45, -20, -106, -1, 19, -126, 13, -17,
   -11, -127, 56, 5, -62, 42, -127, -75,
   -71, -15, -116, -103, -24, -9, 83, -70,
   -128, -38, -31, 105, 36, 28, -7, -37,
   40, -81, -19, -32, -44, 85, -62, 13,
   -10, -32, 90, -57, 102, -77, 30, 62,
   -45, -36, -21, -1, 55, -128, 116, 90,
   8, 11, 72, 36, 9, -127, 43, -116,
   -95, 0, 48, -124, -124, -8, -59, 21,
   -4, -35, 74, 5, -96, -10, -123, 8,
   42, 29, 123, -124, -125, 40, -18, 19,
   3, -2, 63, 91, -104, 69, -10, 114,
   38, 9, 62, -40, 50, -80, -77, -8,
   122, 127, 38, -87, -96, 123, 50, 91,
   5, 6, 127, -128, -46, -3, -43, 29,
   -124, 71, 16, 70, 32, -63, 52, 88,
   22, 40, 58, 16, -120, 74, -94, 71,
   125, 126, 6, -47, -76, -96, 79, -11,
   -38, 100, 26, 98, -36, -127, 10, 62,
   3, -101, -31, -121, -98, 66, -5, 127,
   26, 68, 76, -70, -100, -25, 76, -37,
   41, 94, -94, 92, -79, 97, -51, -93,
   113, -74, -64, -111, -8, 124, 127, 125,
   -53, 40, 96, 120, 27, 87, -36, 126,
   127, -44, -42, -128, -15, 33, -81, -3,
   -109, -115, 72, -117, -125, 127, 18, 126,
   -60, 12, 99, -19, -20, 24, -53, -21,
   6, 57, -111, -69, -30, -22, -100, -23,
   21, 27, -44, -126, -122, 74, -60, 58,
   73, -24, -57, -20, 6, 18, -65, -50,
   113, 121, -26, 50, 72, 62, 94, -33,
   52, -128, -116, -36, -38, 28, 9, 85,
   -50, 92, -2, 14, -84, 9, 124, 3,
   -21, -26, 120, -77, -1, 0, -46, -47,
   79, 82, 41, -7, 111, 93, -46, -125,
   -51, 104, 123, -10, -27, -16, 47, 37,
   -19, -20, 42, 127, 49, -29, 26, -32,
   59, 40, -26, -17, 95, -72, -47, 100,
   25, 127, -103, 57, -55, 125, 86, 112,
   127, -82, 113, 19, -11, -112, 65, 127,
   -58, -75, -11, 65, -128, 50, 27, -95,
   93, 119, -125, -106, 83, 97, 93, 27,
   97, 121, 12, 8, 52, -3, -123, -84,
   21, 77, -15, -37, 115, -72, 127, -40,
   33, 120, -112, 38, 30, -60, 102, 124,
   -113, -127, 110, -36, -72, -54, -127, -128,
   -126, -76, 42, 42, 17, 55, 15, -2,
   92, 27, -48, -21, 71, 67, -99, -40,
   49, 77, -95, 36, 19, 21, -54, 103,
   -37, -113, -14, 7, -23, -3, -123, 63,
   123, -53, -28, 18, 16, -115, 115, -122,
   -97, 33, 90, 52, -28, 1, -41, -87,
   -78, -70, -22, 11, 34, 35, 50, 53,
   127, 10, 120, -31, 102, 81, -126, 66,
   -103, -40, -76, -10, -10, 9, 21, 65,
   -29, 63, -48, -88, -93, 97, 42, -17,
   -14, 20, 100, 98, 51, 72, 95, 44,
   46, -51, 50, 49, -10, -83, -75, -100,
   45, -67, 26, 127, 79, -33, -50, -127,
   -92, -12, 13, -57, -76, 62, 79, -124,
   19, 55, 34, -34, -90, -20, -46, -1,
   -7, 45, -8, 85, -84, 81, 83, -90,
   -128, 44, 127, 54, 71, -84, 66, 11,
   -45, 25, -17, -5, -24, -79, -2, -120,
   35, -20, 27, 17, 30, 71, -21, 5,
   69, 114, -26, 52, -5, 12, -12, 110,
   123, -20, -57, 11, -20, 29, 34, -92,
   14, -5, -89, -30, -27, 104, 80, 101,
   11, 58, -3, -52, 43, 52, -8, 114,
   -90, -69, 14, 32, 41, -6, 7, 12,
   26, -126, -20, 12, -35, 97, -101, -123,
   -22, 0, -80, 0, -32, -31, 12, -64,
   -2, -28, -10, 7, 94, -18, -44, -7,
   -18, 23, -31, 100, -7, -29, -69, -69,
   125, 127, 121, 25, -125, -21, 124, 127,
   63, -128, 99, -58, 40, -101, -46, 99,
   -126, -12, 127, 123, -126, 44, 98, -69,
   91, 123, 56, 40, -127, 94, 107, 127,
   63, -95, 121, 119, -60, 83, 35, 52,
   -121, -28, 127, 127, -121, 120, 1, -40,
   -106, -111, -109, 29, -3, 14, -63, 62,
   -49, 37, 69, 63, -72, -33, 14, 27,
   76, -121, -83, 125, 20, -2, -117, 74,
   85, -54, -42, 47, 3, 27, 32, 70,
   -56, -15, 95, -81, -46, -38, -61, 66,
   -36, 45, -76, 88, 52, -14, 9, 82,
   120, 14, -17, -11, -121, -126, -24, 48,
   -22, 32, 13, 17, -67, 59, -121, -52,
   3, 77, -88, -25, 124, -113, 46, 86,
   78, -97, -118, 11, 107, 12, 22, 8,
   63, 43, -14, -109, 24, 15, -21, 80,
   4, -75, -76, -18, -5, -103, -19, -95,
   -13, -34, -23, 31, -41, 51, -39, 1,
   -26, 34, -36, 36, 75, 10, 56, -22,
   16, 18, 33, -2, 11, 50, 2, -1,
   62, -19, 62, 28, -38, 92, -40, 13,
   3, 8, -24, -5, -51, 16, -37, -13,
   42, 14, 34, 50, -26, 11, -20, 126
};

static const rnn_weight input_dense_bias[24] = {
   -69, -7, -38, 74, 127, -1, 19, -5,
   -39, 4, 27, -127, 115, -126, 125, 3,
   -29, 120, 10, 94, 74, -35, -16, 3
};

static const DenseLayer input_dense = {
   input_dense_bias,
   input_dense_weights,
   42, 24, ACTIVATION_TANH
};

static const rnn_weight vad_gru_weights[1728] = {
   25, -122, 41, -91, 6, -9, 2, 72,
   -100, -46, -102, -101, 31, 54, -48, -47,
   -80, -107, -5, -31, -121, -5, -26, -38,
   -16, -11, 36, -40, -19, 89, -25, 105,
   -5, -107, -3, -9, 40, 28, 2, 15,
   -54, -105, 2, 24, -83, -86, -6, 59,
   1, -63, -2, -28, 36, -47, 21, 29,
   -28, 4, -14, 36, 25, -30, -27, 6,
   -50, 33, -4, -50, 3, -69, 58, 4,
   -19, -69, -45, 2, -41, 110, 48, -42,
   -12, -100, 15, 127, 61, 64, 65, 51,
   -74, 24, 4, -8, -61, -127, 14, -126,
   -113, -81, -81, 31, -18, -11, 110, -5,
   37, -126, -90, -44, 26, -57, -45, 127,
   -22, 36, 0, -103, 5, 24, 62, -117,
   -18, -126, 99, 127, 34, -44, 77, 62,
   -42, 12, -101, -103, 103, -59, 66, -40,
   9, 127, 10, -1, -13, 74, 106, 117,
   104, 126, 17, -127, 88, -126, 55, -127,
   -125, 44, 119, -9, -68, -122, 115, 108,
   123, -79, 19, 18, -32, -86, 13, 31,
   68, -3, 11, -16, 27, -61, -34, -69,
   -44, -93, -43, -26, -128, -86, 59, -10,
   96, -36, 10, 68, -9, 48, 66, 85,
   69, -5, 28, -13, 39, 30, 58, 24,
   49, -9, -65, -42, -40, -21, 32, 29,
   -24, 66, -14, -69, 10, -19, -8, 1,
   -47, -57, 5, -106, 14, -32, -77, 126,
   -41, -69, 16, -44, -43, 9, -125, -63,
   -37, -128, 50, -1, 113, 78, 67, -29,
   98, 40, -14, -12, 7, -19, -20, 43,
   -85, -33, 53, -38, -53, 45, -23, 9,
   69, -9, 69, -128, 42, 48, -3, 80,
   85, -116, 2, -13, 52, 33, 53, -18,
   -45, 63, -22, -25, 49, 32, 93, -102,
   -119, 125, 72, 8, 57, 6, 9, 3,
   -6, -98, 14, 25, 5, 117, 0, 12,
   13, -13, -119, -91, 45, 58, -58, -10,
   126, -54, 14, 95, 120, 123, 6, 40,
   4, -35, 125, 17, 23, 48, 57, 94,
   2, 120, 121, 51, 76, 29, -108, -42,
   -65, -5, 62, -20, 24, -15, -17, 87,
   3, -24, 25, 9, 8, 24, -43, -38,
   -6, -32, -48, 13, -9, -51, 5, 17,
   29, 39, -34, 5, 25, 86, -32, -54,
   -19, 79, 26, 127, -9, 52, -45, 19,
   -50, -58, -64, -45, -11, 42, 40, -72,
   -11, 85, 23, -55, -103, 28, -19, -46,
   91, 87, -54, -125, -38, -11, -19, 62,
   -4, 84, 18, 8, -16, 107, 40, 63,
   80, -35, -49, -27, 19, -59, -28, 4,
   67, -77, 55, 22, 1, -8, -22, 11,
   -74, 66, -38, -15, 22, 52, 123, -94,
   -53, -3, -32, -128, -60, -58, 2, 105,
   44, 6, -9, -37, -42, -70, -44, -1,
   -62, 29, 38, 14, 78, 122, -94, -46,
   45, -32, 52, -35, 14, 24, 37, -47,
   52, -59, 68, 21, -18, 29, -5, 40,
   -52, -18, 27, -49, -33, 30, 55, 106,
   61, 119, 74, -70, -24, -8, 112, 120,
   101, -79, 62, 96, 85, -60, 16, -11,
   -32, -53, -80, -15, -46, -56, 74, -42,
   -3, 49, -64, 7, 30, 42, 105, 53,
   -79, 34, -29, 20, 40, -59, -73, 42,
   -19, -118, -10, -10, 82, 62, 79, -84,
   1, 51, 37, -34, -46, 29, -36, 16,
   -38, 58, -83, -36, 40, 1, -23, 29,
   -6, 101, -118, -71, 36, 10, -41, 67,
   9, 44, -49, -95, -15, -12, -100, -18,
   30, 30, 28, 45, -20, -76, -22, 11,
   -64, 13, 14, -38, -13, 10, 73, 5,
   20, 20, 67, 10, 88, 17, 75, 28,
   -24, 53, 4, -31, -21, -22, -30, 74,
   -35, -93, 16, -16, -83, 127, -11, -17,
   7, 34, -12, 5, -107, 2, -4, -40,
   67, 65, -24, -71, -61, 25, -12, 70,
   7, 23, -36, 1, 6, 5, -8, 22,
   -57, -89, 72, -30, -90, -34, -7, -2,
   6, -83, 4, 53, 3, 41, -62, -25,
   26, 17, 58, -20, 21, 0, 69, -3,
   -4, -43, -12, -4, 6, 8, 14, 44,
   115, 59, 41, 124, 65, 19, 107, -43,
   -29, 41, 15, -32, 32, 94, 77, -52,
   -34, 94, 69, -18, -89, 36, -31, 8,
   -16, 14, -72, 34, 33, 58, -36, 41,
   67, 11, -17, 41, 13, 19, 21, 22,
   -75, 58, -33, 27, -107, 25, -67, -40,
   -6, -25, -22, -49, -23, -60, -32, -65,
   55, -24, -49, -43, -37, -4, 7, -44,
   -43, 10, -2, -17, -36, -25, 2, -56,
   -42, -67, 52, -128, 24, 5, 31, 68,
   -3, -88, -8, -10, 34, -29, 117, 56,
   49, -68, 91, 111, 5, 32, 14, -124,
   -56, -36, -93, -73, 60, 81, -3, 21,
   -40, -31, -96, -107, -45, -8, -1, 101,
   -31, 50, 37, -103, -25, 67, -4, 5,
   -5, -103, -14, 69, 91, -21, 26, 11,
   6, 50, -38, 32, 53, 43, 126, -88,
   -71, 50, 30, -52, 49, -80, 42, -16,
   90, 127, 99, 79, -102, -98, 24, -63,
   -33, 115, 126, 86, -46, -19, 99, -30,
   127, 123, 97, 39, -125, -126, 27, 20,
   39, 41, -46, -53, 27, -42, 13, -7,
   11, 55, -42, -93, -1, -23, 74, 36,
   86, -21, 45, -5, -119, -76, 8, -15,
   43, 6, -53, 10, -30, -19, 76, -3,
   -1, -83, -10, -38, 76, -17, -13, 20,
   -38, 75, 9, -18, 32, -81, 52, -63,
   -47, -58, -48, 17, -14, 37, 56, 87,
   5, 38, -65, 92, 34, 61, -51, 3,
   -13, -76, 10, -13, 89, 6, -60, -45,
   70, -37, 50, 48, 20, -62, 93, -33,
   70, 6, 28, -54, -19, 50, -23, 14,
   75, -39, 2, -85, 59, -5, 7, 69,
   -26, 12, 48, -10, -5, 42, -46, -4,
   62, -15, 4, 10, 27, -64, -27, 79,
   16, 35, -11, 60, -40, 37, -33, 5,
   127, -5, -35, 54, -113, 95, 44, -39,
   86, 45, 21, 88, 45, 24, 45, 83,
   90, 127, 105, 50, -121, 42, 62, 61,
   -123, 47, 34, 0, -36, 63, 119, -43,
   39, -67, -60, 127, 110, -1, -17, 22,
   21, 25, -64, 111, -78, -63, 105, -84,
   -87, 16, -61, -10, 2, -7, 9, 8,
   -27, -36, -32, 117, -15, -31, -127, 58,
   127, -55, 74, 69, -25, 10, -17, -82,
   -128, -69, -54, 75, 2, 34, -48, 40,
   46, -52, -107, 0, -83, 14, -94, -54,
   -54, 8, -66, -102, 79, 127, -127, -28,
   3, -39, -61, 25, -23, -24, 81, -80,
   40, 73, 68, -42, -25, -72, 27, 34,
   -10, -88, -85, -89, 127, 34, -49, -5,
   -40, 60, -13, 36, 3, -10, 24, -5,
   76, -62, -49, 65, 28, 42, -102, 80,
   -21, -28, -61, 60, 27, 80, 12, -19,
   -126, 69, 39, 11, -55, -80, -20, -13,
   -51, -80, -61, -6, -22, -15, -61, -26,
   -54, 100, -95, 109, 44, -30, 29, 10,
   -31, 44, -71, -127, -36, -94, 69, 77,
   -3, 116, -60, 56, 15, 68, -16, -21,
   20, -49, -69, -22, 22, -55, -6, 16,
   67, 1, -12, 5, 101, -85, 53, 37,
   -19, 93, -68, -60, 106, 51, 40, -3,
   -57, -8, -49, 14, 33, 2, -21, 45,
   -61, -59, -16, -18, -93, 34, 52, -51,
   -45, 59, -5, -53, -104, -121, -50, 57,
   -42, -66, -31, -39, -27, -36, 106, 125,
   48, -14, 37, -15, 71, -108, 47, 45,
   23, -5, -47, 43, 121, 123, 54, -118,
   9, 31, 48, 71, 72, -20, 6, -83,
   11, 39, 27, -124, -43, 15, -99, -42,
   60, -49, 75, 47, -95, 8, -55, 32,
   60, -65, -1, 45, -122, 18, -21, 29,
   -125, -126, -117, -127, 31, 118, -50, 115,
   91, 125, -125, -125, 33, 107, -38, -55,
   -103, -114, -32, -6, 125, 121, -86, 2,
   41, 44, 17, 35, 79, 17, 93, -58,
   19, -61, 126, -23, -124, -30, 41, -8,
   -77, -67, -19, 124, 124, -1, 62, 27,
   -38, 28, -41, 1, -31, 4, 27, 41,
   0, 4, -19, 82, -67, -125, -19, -32,
   56, -100, 66, 58, 1, 8, 39, 22,
   -116, -50, 59, -39, 85, -127, -128, -19,
   -113, -111, -119, 17, -77, -128, -126, -127,
   -4, -127, -120, -123, 126, -65, -37, -14,
   -11, 52, -7, 100, 79, -89, 13, -127,
   -99, -40, -93, -60, -27, -127, 76, -73,
   126, 42, -128, 125, 55, 85, -42, -125,
   -19, -19, -19, 30, 1, -82, 51, 14,
   -13, 16, -2, 17, -91, -11, 54, -25,
   11, 74, 25, 42, -97, -22, 23, 82,
   -128, -81, 38, 126, -34, 11, -28, 94,
   29, -93, -128, 20, -19, -66, -128, -112,
   -119, 7, -13, -125, 126, 75, -110, 27,
   -16, -38, 29, -28, 82, -39, 60, 3,
   -24, 46, 23, -21, 74, 96, -11, -83,
   7, -44, -38, -34, 31, -17, 36, 5,
   66, -78, -31, -27, 5, 41, 60, 7,
   -43, -6, -7, -76, -71, 41, 11, -30,
   0, 47, -60, 0, 6, -7, 70, 51,
   106, 21, 39, -70, -85, 127, 91, 73,
   61, 102, 46, -52, -88, 125, -44, 34,
   121, 36, 69, 5, 115, 66, 6, -55,
   -23, 61, 76, 32, -11, 117, -25, -5,
   65, 78, 19, 12, -60, -20, -66, -4,
   -128, 23, -6, -13, -3, -19, -10, 115,
   31, 24, -16, -37, 76, 71, 6, -57,
   104, -97, 60, 17, -49, -99, -29, -42,
   -103, -8, -18, -36, -36, 17, -2, -40,
   59, 18, -75, -32, 39, 70, -127, 41,
   127, -65, 93, 56, 78, 69, -38, -126,
   -116, 67, -2, 15, -79, 63, 52, 106,
   -49, -125, 73, 124, 11, -71, 89, -124,
   -4, -9, 31, 10, 118, -69, -51, 35,
   54, 95, 23, 6, -52, 48, 8, -102,
   -32, 55, 18, 19, -67, -30, -46, 24,
   3, 39, 12, 53, 3, -20, -9, 9,
   71, -29, 20, 90, -17, 21, -61, -2,
   58, 126, 95, -78, -46, 17, 58, -84,
   -29, 127, 86, 4, 93, 0, 118, 86,
   -62, 62, 65, -31, -117, -75, -39, -81,
   -41, 93, -55, -128, -66, 65, -69, 38,
   23, 6, -48, -8, -65, 4, 2, -39,
   -7, 31, 31, -113, -101, 31, -19, 30,
   48, 6, 43, -6, -25, 1, -8, -22,
   -60, -9, -82, -77, -20, -78, 67, -19,
   38, 41, 10, -67, 11, -20, 30, 50,
   -57, -74, 74, 32, 126, 39, 80, -44,
   -118, 109, 65, -63, 0, -86, -64, -49,
   -128, 62, 9, -63, -118, 41, 48, 127,
   -17, 76, 4, -41, -32, 56, -49, 21,
   -25, -86, -91, -61, 11, -46, 87, 71,
   119, 55, 110, 18, -91, 72, 29, -68,
   35, 74, 41, -12, 9, 54, 75, -60,
   -14, 42, 15, 50, 14, 11, -20, -87,
   -2, -1, 41, -25, 123, -1, -37, -54
};

static const rnn_weight vad_gru_recurrent_weights[1728] = {
   66, 64, 124, 41, -73, -78, 53, 38,
   -54, 79, 106, -53, -24, 110, 65, 98,
   3, -92, -49, 11, -34, 80, 84, 76,
   -7, -49, 47, -3, -9, 10, 21, 33,
   -56, -15, 68, 29, 9, 9, 30, -8,
   35, 13, -34, 25, 34, 71, 65, 118,
   31, -127, 80, -3, 86, -45, 75, 97,
   -87, 21, 28, -38, 56, 35, 124, -82,
   -23, 122, 39, -84, 63, -24, 21, -66,
   -39, -65, -117, -22, 62, -42, -49, 57,
   10, -56, -60, 17, -8, 30, -85, -118,
   -33, 78, -10, -61, 29, -33, -121, -84,
   -23, 49, -93, -87, -21, -20, 34, -18,
   44, 24, -69, -32, -88, -66, -50, -39,
   -86, 9, -8, -47, -15, -78, -14, 1,
   55, 70, 15, -42, -7, 6, -38, 19,
   -48, -20, -35, 44, 71, -40, 59, -40,
   -46, -33, -73, 26, -14, 96, -3, 13,
   80, 77, 72, 43, -94, 65, 98, -26,
   -27, 63, 106, 52, 56, 44, 127, 112,
   43, 89, 12, 57, -33, -56, 116, -38,
   5, -73, 82, 80, -97, 42, 105, 54,
   -20, 50, 53, -15, 11, -14, -20, 7,
   -128, -23, 12, -16, 11, 87, -13, 34,
   62, -74, 46, 55, 28, -104, 8, 66,
   -48, 25, -5, -22, 42, 49, 91, 9,
   -13, -15, -70, -52, -16, 46, 28, -13,
   -23, -3, -21, -34, -109, 5, 0, -98,
   37, -109, 127, -3, -60, -110, 22, -24,
   -80, 106, -91, -114, 44, -20, -93, -6,
   -17, -63, 32, -30, -74, 83, 53, -91,
   -64, 28, 86, -8, -9, -45, -76, 11,
   94, -57, -117, -37, 3, -8, 120, 49,
   103, -43, 58, 55, 81, -126, 46, 8,
   -128, 74, -93, -34, 98, 68, 126, -56,
   -98, 59, -78, -15, -73, 64, 126, -9,
   80, -2, 126, 61, -2, 17, 118, 11,
   -124, 124, 37, 1, 48, -31, 97, 30,
   74, 1, 85, -3, 72, 28, 102, 9,
   5, 44, 127, 16, -36, 28, -22, -10,
   7, 96, 45, 69, 81, 16, -8, -54,
   -9, -15, -66, 118, 18, 8, 47, -1,
   -115, 6, -69, -124, 51, 29, -63, 24,
   -14, -43, 97, 77, -25, 63, -49, 108,
   41, -44, -14, 81, 22, -127, -53, -57,
   -42, -127, 32, 14, 62, 21, 127, -3,
   -51, -42, -32, 22, 59, 24, -19, 127,
   -22, 29, 117, 33, -45, -50, -22, -96,
   -33, 68, 48, -6, 43, 14, 8, 94,
   -10, -4, 27, 22, 15, 23, 30, -31,
   -50, -111, -5, -127, -16, -58, -36, 100,
   -23, 73, -128, -62, 18, 40, 12, -61,
   54, -47, 35, 112, -103, -91, -115, 81,
   101, 3, 126, 42, 37, -18, -69, -41,
   40, 110, 57, 14, -82, -94, 28, -105,
   -15, 34, 89, 43, -5, -121, 126, 125,
   84, 126, -105, 69, -3, -67, 27, 3,
   -27, 61, 22, 103, -22, 37, 80, -9,
   -50, -7, 13, -12, 58, -106, 1, 28,
   22, 49, -26, 1, 32, 75, 51, -27,
   78, -125, 119, 57, 5, -89, 82, 38,
   -17, 115, -88, -62, 58, 19, 127, -91,
   10, 115, -16, -16, -36, -19, 103, 26,
   70, 106, 47, -118, -62, -18, -128, 78,
   33, 33, -7, -82, -85, -122, 124, -94,
   25, -95, -128, 69, 102, 75, -38, 60,
   -62, -39, 27, -127, -60, -48, -127, -40,
   -38, -78, -31, -29, -43, -104, -6, -31,
   -27, -65, -7, 120, -6, -22, -35, -102,
   42, -47, 90, 104, 35, -57, 75, 87,
   -80, 83, -104, -84, 47, 127, 101, -115,
   -127, 80, -127, -87, -28, 45, -11, 84,
   -50, -122, -42, 41, 23, -12, 70, 42,
   -41, 2, -23, 5, -7, 31, -126, 127,
   31, 29, 123, -13, 111, 59, 35, 22,
   28, 69, 33, 117, 42, 7, 72, 17,
   1, 49, -24, -67, 30, 31, 6, -53,
   67, -124, 57, -126, 34, 53, 36, -46,
   -81, 118, -19, -61, -27, 44, -90, 26,
   69, -59, 78, 65, -8, -53, -128, 82,
   74, -68, -29, 90, 57, 47, -82, -25,
   -2, -19, 89, 19, -44, 3, 93, -28,
   -122, 127, 120, -128, -61, -53, 0, -28,
   -98, -95, 17, -86, 120, 50, 26, 37,
   16, 36, -84, -36, -47, 35, 13, 5,
   -66, 2, -20, 28, 69, 30, 7, -51,
   67, 39, -92, 56, 60, 32, -51, -50,
   21, -72, 110, 22, 21, -128, -5, 63,
   -66, 23, -43, -125, 114, 58, 123, -69,
   -28, 127, 24, -66, 3, 29, 52, 35,
   -70, -41, -72, -10, 85, 14, -103, 43,
   -12, 5, -127, -12, 6, 33, -84, -123,
   -124, -37, 93, -86, -19, -80, -44, -48,
   47, 35, -89, 6, 62, 17, -34, 37,
   -1, -79, -32, -87, -30, 45, -15, -12,
   -28, -30, 25, 45, 13, -73, -9, 39,
   -83, 126, -49, -56, -52, 51, -94, -126,
   9, -46, 41, 92, -50, -74, -63, 33,
   29, -126, 115, 86, -8, -3, -127, 39,
   6, -127, -70, -78, 17, 52, -45, 70,
   -10, -25, 43, -66, -31, 1, -128, 24,
   -57, 4, 122, -17, 35, -30, -107, 1,
   25, 29, 0, 79, 91, -15, 3, 29,
   8, -60, -34, 21, 23, -6, -14, -17,
   47, 33, 10, -96, 91, -35, 28, -8,
   -43, 39, -126, -35, -59, 0, -6, -27,
   47, -57, 70, 37, -49, -59, -107, 92,
   23, -57, -31, -11, 44, -19, -27, 35,
   10, 0, 59, 16, -122, -25, 3, -117,
   -17, 0, 99, 17, -26, 34, 125, -118,
   22, -16, -71, 80, 29, -44, -40, -41,
   1, -12, -50, -13, -29, -62, 51, 29,
   -28, 6, -28, -4, 13, -23, -63, -33,
   -53, -86, -96, 29, -25, -52, -13, 44,
   87, -124, 34, 9, 103, -74, 38, 71,
   -106, 70, -49, -47, 13, 28, 127, -83,
   -105, 61, -39, -46, -105, 59, 79, -19,
   16, 76, 43, 95, 20, -27, -77, -128,
   -51, 46, -44, -63, -8, 88, 96, -32,
   24, -1, 37, 46, -74, 127, 117, 124,
   -3, 55, 27, -47, -87, 16, -102, -13,
   -71, -23, -47, -37, -75, -86, 38, -60,
   -2, -1, -19, 99, 0, 51, -72, -7,
   60, -87, 84, 0, -7, -56, -11, 85,
   -47, 39, -39, -50, 78, -2, 127, -49,
   -22, 77, -62, -52, -60, -48, 84, 58,
   68, 63, 59, 13, -27, -87, 80, -46,
   -75, 26, 60, -9, -12, -53, 109, 59,
   30, -23, -29, 30, -4, 79, 111, 98,
   45, -8, 89, 48, -16, -29, 37, -28,
   -65, 12, -1, 62, 65, 11, 64, -7,
   62, -7, -66, 97, -36, 33, 10, 5,
   14, -22, -43, -26, 117, -60, -29, 47,
   56, -20, -24, -45, 18, 63, 31, -79,
   27, 24, -48, 16, 69, -59, -40, 15,
   -25, 61, -120, 29, 73, 116, 35, 22,
   41, -46, -63, 34, 61, -4, -35, -110,
   33, 124, 5, 63, -70, -90, -43, -24,
   -53, -7, 11, 17, 11, -49, -11, 63,
   -19, 15, 16, 19, 61, 60, -78, -55,
   -14, -33, 1, -16, -27, -57, 4, -48,
   -50, 125, -60, 20, -40, 52, -99, 36,
   -19, -41, -8, 41, -36, 17, -128, 56,
   98, -128, 115, 31, -48, 12, -47, 36,
   -13, -22, -69, 33, 25, 95, 34, -61,
   61, -76, -101, 127, 126, -104, 14, 51,
   -77, 125, 54, 5, -60, -112, -7, -89,
   -34, 52, 19, -59, 99, -20, -18, -59,
   39, -27, 1, 16, 15, 13, 33, 16,
   21, -1, 75, -40, -12, -24, 30, -119,
   -127, 127, -55, -18, -122, 100, -21, -18,
   66, -58, 44, 48, -48, -88, -127, 127,
   73, -128, 59, 44, -62, 100, -81, 33,
   63, 64, 109, 58, 27, 44, 109, -112,
   30, 123, 56, -35, 20, -14, 104, 119,
   24, 126, 81, 98, -41, -9, 119, 55,
   -43, -15, 32, -27, -11, -47, -8, -71,
   -23, -42, -55, -43, -10, -76, 7, -47,
   42, -7, -3, -16, -12, 27, -40, -11,
   -48, 7, 119, 0, 4, -22, -3, 72,
   4, -24, -7, -6, -23, 114, 54, -27,
   -2, 83, -81, 16, 6, -18, 26, -68,
   73, 127, -102, -17, 127, -40, 38, -86,
   79, -85, 33, 127, 38, -128, 126, 125,
   127, 125, -127, 116, -125, -101, 105, -55,
   62, 7, 20, -9, -5, 5, 92, -85,
   -72, -35, 66, 11, -20, 13, 37, 100,
   38, -14, -41, 31, -36, -91, 42, -73,
   -70, 73, -8, 0, -5, 36, -9, -60,
   -7, 16, 16, 101, -54, -122, -101, 127,
   95, -128, 127, 39, -96, -31, -34, -1,
   -127, -125, -61, -58, -52, 38, -21, 116,
   45, -98, -21, -56, -4, -26, -123, -117,
   -58, -62, 3, -48, 52, -87, -125, -61,
   -62, -25, 3, -54, 64, -3, 19, -39,
   1, -68, -97, -6, -9, 17, -92, -36,
   -53, -54, -43, -101, 44, 1, -58, -61,
   -66, 125, -44, -68, -112, -6, -76, 26,
   32, 38, 45, 5, -24, -120, -7, 127,
   32, -116, 127, 61, -112, -16, -24, 31,
   -113, -127, 97, -27, 127, -42, -63, -77,
   -126, 59, -98, -57, -23, 30, -127, -73,
   -128, -59, 124, -119, 127, 70, -34, 54,
   -80, -12, 27, -40, 51, -69, 58, -98,
   -18, -26, 27, 73, 104, -65, 28, 123,
   14, 32, 6, 127, -50, -121, -49, -128,
   -127, 127, -127, -118, 80, 71, -126, -14,
   127, -91, 127, 127, -50, -88, -128, 127,
   127, -127, 109, 127, 19, 58, -126, -19,
   37, -125, 66, 115, -75, 126, 102, 127,
   101, 93, 125, -91, 3, 127, -50, -98,
   -85, 26, 77, -118, 121, -116, -82, -37,
   101, -25, 65, 27, 12, 119, 74, 76,
   -52, 41, -15, 51, 27, 127, -72, 127,
   77, 56, 47, -64, 34, -58, 95, 27,
   127, -74, 79, 99, 29, -68, 88, 126,
   -77, 37, -32, -77, 89, 70, 116, -71,
   -103, 41, -127, -47, -2, 47, 13, -3,
   60, 32, 104, -14, -65, 25, 112, -50,
   3, 18, 99, 71, 65, -124, 93, 123,
   63, 15, -96, 13, -65, -29, 66, 9,
   -70, -44, 57, 38, -46, -12, 19, 30,
   -19, -27, 28, -8, 49, -15, -24, -11,
   -58, -2, -47, 48, 76, 36, 42, -93,
   -40, -119, -6, -62, -36, 30, 74, 69,
   -56, 16, -34, -3, 50, -52, 2, -7,
   103, 17, -44, 85, 5, -29, 83, -51,
   -116, -128, 76, -100, 29, -20, -18, 94,
   -20, -4, 114, -6, -29, 77, -128, -90,
   -85, -128, -19, -87, 127, 41, -20, 127,
   124, -2, 65, -49, -36, 6, 43, 49,
   -53, -30, 36, 13, 48, 30, 70, 67,
   127, 55, -2, 49, 125, 44, 39, -11,
   50, -127, 92, 65, 51, -96, 34, 124,
   -9, 40, -127, -39, 76, 34, 59, -47,
   -87, 124, -70, -125, 89, -14, 126, 19
};

static const rnn_weight vad_gru_bias[72] = {
   -128, -127, 24, -84, 28, 81, -106, 121,
   -53, -34, -73, -128, -59, 31, -127, -123,
   -127, -125, 97, -127, 123, 126, -125, -11,
   36, -8, 32, 85, 37, 52, 24, 79,
   63, 66, 40, 22, 39, 8, 2, 15,
   75, -24, 54, -38, 17, 49, 22, 58,
   6, -59, 5, 5, 38, -26, -4, -36,
   -10, 11, -12, -19, 8, 5, 78, -53,
   -54, 42, -120, -45, 59, 33, -7, 5
};

static const GRULayer vad_gru = {
   vad_gru_bias,
   vad_gru_weights,
   vad_gru_recurrent_weights,
   24, 24, ACTIVATION_TANH
};

static const rnn_weight noise_gru_weights[12960] = {
   0, 27, 12, 8, -81, 27, -43, -13,
   21, 40, -6, 36, -10, -75, -50, -1,
   12, 20, 43, -54, -26, 12, -69, 18,
   -69, 36, -11, 8, -31, -54, -46, -21,
   -29, 5, 11, 84, 90, -4, 25, -18,
   -91, 41, 15, -6, -36, -22, -68, -3,
   25, -13, -15, 14, 22, -14, 33, 10,
   1, -4, 72, -9, -25, -46, -37, -84,
   7, -49, 9, -45, 0, -16, 1, -28,
   -36, -23, 28, 4, -62, 2, 32, -60,
   34, -17, -3, 23, -22, -16, -33, -31,
   -57, 1, -20, 66, 46, 59, -68, 31,
   51, -64, -6, 16, 36, -13, -43, -15,
   27, 4, -36, 7, 17, 11, -11, -5,
   -79, 1, 28, 9, -27, 35, -49, 23,
   -12, -7, 31, -10, 15, -40, -9, -46,
   36, -3, 17, -7, 19, -73, -6, 24,
   8, -21, 52, -4, -14, -5, -14, 15,
   17, 53, -1, 36, -9, -7, 12, -69,
   23, -16, 2, -52, 17, -57, 38, -80,
   23, -30, 39, -46, 24, 42, 107, 5,
   -125, -43, -122, 51, -7, -125, 67, -43,
   104, 35, -2, 25, -21, -71, -15, 1,
   -20, -88, -93, 26, 12, 76, -96, -8,
   10, -108, 52, -16, 44, 18, 107, 6,
   16, 19, 56, 20, 30, -57, 79, -17,
   -19, 4, -14, -85, 79, -11, 28, -26,
   -40, 10, 0, 9, -40, -46, -36, -80,
   28, 53, -16, -10, -40, -16, -46, 19,
   2, -45, 14, 45, 14, 17, 74, -21,
   42, -34, 4, -69, 111, -36, 36, -44,
   12, 63, 24, 13, 0, 36, 46, -34,
   -77, -32, -9, 38, -96, -45, 29, -41,
   41, -12, -49, 67, -19, -19, -6, 16,
   -70, 15, -31, -15, 38, -91, -3, -63,
   -44, -29, 25, 43, -43, -76, 20, -24,
   -13, -31, -16, 62, -43, -39, 39, -84,
   8, -51, 57, -44, 32, -98, 32, -26,
   29, -43, -78, 57, 25, -65, -5, -10,
   -43, 60, -32, -96, -12, 8, -2, -24,
   16, -15, -100, -28, -18, -7, -38, -41,
   -4, 16, -34, -11, -39, -74, -114, 21,
   -42, 25, 51, 100, 33, 45, -47, -5,
   -4, 12, 15, 46, 40, 55, -7, -51,
   31, -41, -34, 14, -30, -36, -43, -22,
   21, -25, 9, -2, -55, 1, -47, 23,
   99, 43, 15, 57, 33, -31, -22, 46,
   17, -36, -18, -15, 9, 72, -36, -2,
   -6, -47, -81, 16, 49, -60, -94, -23,
   19, -9, -20, -29, -11, -74, 16, -38,
   15, -48, 43, 13, 33, 9, 6, 6,
   23, -1, -26, 43, 23, -4, -9, 28,
   35, -39, 59, 45, 83, -2, -44, -28,
   -50, -50, 44, -14, -2, -76, 22, 12,
   -13, 69, -61, 52, -19, 5, 81, 32,
   -1, -103, 33, -48, 85, -78, -22, -18,
   15, -43, 20, -5, 7, -57, -40, 3,
   -76, 7, 64, 21, 33, -40, -23, -59,
   22, -3, -15, -57, -20, 52, 90, -15,
   15, 16, -5, -17, -5, -66, 31, 70,
   -1, 50, 11, 9, 45, 4, 6, -23,
   52, 68, 49, 47, 69, 27, -21, 15,
   -10, -47, 39, -5, 7, -27, -62, 43,
   36, -22, 105, 11, -73, -16, -30, -33,
   -46, -12, -72, -61, -37, 28, -10, -23,
   -17, 8, 25, -19, -8, 35, 23, 37,
   -55, -78, -53, -34, 31, -16, -22, -12,
   21, -3, -15, 31, 40, 44, -20, -20,
   -55, -24, -42, 20, 15, -23, 9, 9,
   6, 3, -21, 7, 1, -48, -8, 36,
   44, 69, -7, 5, -38, -26, -5, -47,
   39, 12, 45, -3, -46, 22, -29, 8,
   38, -18, -15, -39, 78, -51, 44, 29,
   -14, 16, -41, -21, -25, -35, 46, 27,
   -12, 70, -38, -8, -6, 31, -8, -3,
   43, 2, 50, 48, 13, 36, 10, -59,
   15, -7, 64, 5, 57, 91, 29, 25,
   22, 41, 5, -6, -32, 27, 82, -58,
   3, 16, 37, -43, 3, -59, -81, -4,
   -19, -2, -9, -33, -3, -33, -14, -51,
   -7, 17, -19, -18, 13, 22, 27, 14,
   40, -19, -37, -20, 1, -6, 26, -47,
   -47, -4, 4, -27, 52, 22, 3, 13,
   31, -12, 25, 16, -76, 28, -5, -16,
   -48, 6, -29, -1, 11, 25, 22, 38,
   -33, 9, 3, -38, -10, 3, -21, 12,
   20, -28, 2, -6, 14, -30, 2, 7,
   34, 8, 5, -40, -14, 24, -28, 10,
   23, -27, 4, -72, 17, -1, -5, 4,
   6, -20, 0, 23, 20, 13, -36, -22,
   -116, 33, 2, 11, -54, 56, 11, 32,
   -20, -1, -91, -57, -40, -127, 4, -52,
   -6, -82, -36, -80, 42, -23, 123, 2,
   -72, 6, -26, -39, -35, 18, 60, 102,
   -36, -125, -39, -26, -26, -85, -12, 28,
   -109, 56, 30, 24, 64, -102, -79, 59,
   -79, -96, 40, -33, -7, 34, 7, -2,
   23, -71, 47, -38, -9, -58, 56, 18,
   -70, -26, -72, 84, 68, -3, -30, 45,
   84, 41, -85, 10, 13, 58, 9, -66,
   74, 42, 9, -67, -49, -12, -76, 22,
   10, 70, -69, -44, 11, 11, 18, 31,
   57, -36, 32, 108, -38, 57, -3, 17,
   48, 77, -13, -27, -28, 24, 74, 17,
   19, 9, 8, 55, 28, -9, -18, -22,
   7, -12, -34, 12, -10, 46, -1, 61,
   64, -21, -49, 15, 35, 37, 35, -15,
   -36, -5, 48, 81, 11, 12, 13, -12,
   -43, -3, -36, -29, -65, 17, 34, -33,
   32, -59, 0, -51, 30, -26, -38, -28,
   30, 26, 36, 18, -28, -31, 58, 3,
   -65, -3, -9, 36, 41, -43, -32, -29,
   -10, -66, -26, 69, -24, -12, -5, -23,
   -6, -36, 31, 64, -49, -43, 17, -46,
   4, 42, 56, 41, -28, -14, 51, 3,
   9, 19, 35, -10, 16, -51, 72, 82,
   -37, -50, 73, -28, 44, 24, -58, -27,
   3, -85, 113, 1, 30, -22, 33, 21,
   58, -26, -36, 20, -12, 19, 23, -12,
   -45, -7, -32, -49, 3, -22, -18, 51,
   30, -67, -20, 7, -7, -16, -43, 53,
   -22, -7, -43, -5, 0, -3, -1, 26,
   -22, -7, 19, -30, -40, -32, -38, -38,
   31, 41, -16, 15, -34, -39, 23, -12,
   18, -74, 40, -2, 14, 25, -2, -55,
   13, 24, 18, -3, -35, -10, 29, -13,
   -26, 0, 40, -54, -39, 82, 18, 30,
   26, -11, 65, 35, -28, -7, 3, 60,
   -12, -23, 39, 16, 24, -11, 56, 63,
   -31, 17, 20, -67, -1, 55, 38, -57,
   34, 20, -41, 81, 65, 57, 30, 48,
   -26, 44, -48, -10, -22, -29, -17, 17,
   21, -16, 17, 0, 19, 9, 29, 59,
   -16, -9, -10, 44, 7, -76, 12, -39,
   29, -12, 5, -49, 46, -12, 39, 11,
   -3, -19, -41, -20, -15, 8, 54, 26,
   2, 43, -6, 7, -6, -27, -34, 46,
   35, 35, 49, -11, -76, -54, -20, -30,
   13, -12, 27, -37, -52, 3, 3, 25,
   -7, 40, -30, 0, 14, 11, -9, 20,
   29, 12, 23, -48, 2, 32, 48, -24,
   38, -47, -19, 33, 8, -26, 57, 13,
   76, -17, 5, 27, 43, -5, -32, -9,
   -13, 7, 2, -54, -72, 54, 54, -26,
   -68, 17, 2, -22, -75, 64, -32, -75,
   99, 11, 5, 24, -28, -21, -56, 2,
   -61, -21, 34, -7, -21, 8, -23, 10,
   -61, 41, 9, 5, -10, 5, -41, -38,
   -32, -4, 27, -7, 101, -38, 40, 17,
   -120, 40, -25, 1, -35, -6, -8, 26,
   -10, -21, -5, 11, -28, 34, -26, -21,
   21, 46, -5, -14, 33, -3, -22, -14,
   8, 9, 27, 4, -39, -20, -59, -35,
   -29, 5, 54, -1, -35, -51, 14, 69,
   64, 65, 9, 23, 7, -17, -27, 39,
   7, 4, 28, -22, 18, 1, 23, 49,
   21, -9, -12, 13, 23, 33, 24, -26,
   4, 23, 6, -62, 35, -23, 23, -28,
   -23, 44, -24, 42, -26, -2, 13, 1,
   14, 27, 14, -8, -9, -16, 15, 27,
   61, 7, -10, -40, -13, -36, -31, 24,
   -41, -73, 2, -19, -31, -2, 8, 9,
   18, -18, -63, -12, -32, 51, -46, -37,
   -38, -8, 59, -36, -3, 13, -9, 32,
   -8, 58, -67, -2, -42, -11, -127, 13,
   68, -22, 88, 2, -44, 12, 25, -52,
   58, 26, 12, 10, 12, -12, 51, 18,
   15, -45, 51, 20, -108, -26, -22, -29,
   39, 3, 25, -33, -36, 54, -46, 48,
   23, 7, 8, -24, -20, -93, 8, -38,
   8, 69, 4, -55, -53, -27, 25, 30,
   41, 43, -20, -3, -18, -11, -11, 55,
   77, 35, -57, 20, -3, -35, -30, 6,
   -8, 19, 36, 23, -72, -55, -21, 1,
   40, -66, 2, -12, 21, -23, -4, 36,
   -9, -34, 34, -34, -51, -55, -27, 8,
   8, 17, -31, -8, -9, 41, -10, -38,
   14, 53, 28, -18, 18, -36, -10, -16,
   19, -19, 15, -19, -31, 37, 15, -2,
   70, 10, 33, -19, -19, -20, 59, -21,
   -30, -24, -66, 22, -63, -47, -7, -4,
   52, -43, -14, -55, 103, -100, 26, -24,
   49, -22, 6, -20, -24, -41, 34, -68,
   -126, 29, -53, 6, 42, -70, -32, -25,
   -1, -28, -20, -13, 28, 9, 30, 65,
   -7, -20, -10, 72, -47, 19, -61, 20,
   -28, -5, 25, 73, 38, -30, 28, 58,
   96, -36, 21, 13, 12, -31, 15, -16,
   -41, -58, -38, 7, 66, 13, -41, -50,
   -46, -12, 49, -28, -43, -23, -40, 13,
   27, 57, 19, -49, -24, 32, 0, -30,
   -52, -49, -34, -67, 100, 27, 36, -62,
   45, -34, -16, -4, 49, -61, -71, 8,
   17, 46, 26, 54, -4, -38, 11, 33,
   -30, -58, 12, 54, 17, -46, -20, -5,
   34, -27, -47, 45, -52, 18, -12, 5,
   23, -20, 27, -10, 44, -63, -28, 11,
   5, -35, 27, 73, 61, -23, 6, 3,
   40, -42, 92, 6, 30, 51, -65, -3,
   44, 40, -27, -2, 74, 45, -43, 43,
   -41, -5, 15, -5, 12, 70, -28, 99,
   -41, -3, -33, 40, -79, -60, 43, 9,
   29, 16, -20, 33, -22, 13, 34, -51,
   -84, 12, 29, -45, -19, -43, 1, -10,
   59, 42, -23, -23, -52, 14, -15, -16,
   -64, -9, 32, -42, 17, -9, 54, 28,
   -19, -26, -22, -25, 11, -14, 63, 21,
   -5, -43, -58, 12, 33, -28, 71, 13,
   25, 86, 6, -49, 31, 4, 33, 15,
   -19, 65, -64, 80, -36, -53, -41, 55,
   -49, -7, 50, 20, 8, -1, 5, -21,
   13, 41, -7, 55, 3, 28, -29, -32,
   23, -7, 4, 49, 16, 13, 18, 33,
   -20, -24, 30, -31, 34, 42, 18, -24,
   -17, 14, -36, 44, 28, -18, 13, 17,
   17, -37, -5, -24, -38, -5, 0, -38,
   -1, 90, -45, -2, 5, 0, 4, 29,
   -17, -17, -38, 45, -41, 17, 45, 59,
   30, 14, 0, -28, -2, -22, -21, -37,
   53, -41, 78, 8, -60, -33, -33, -37,
   -4, -7, 35, 60, -59, -9, -69, -54,
   110, 47, 18, 75, -14, 71, 40, 46,
   15, -14, -48, -10, -5, -20, 69, 16,
   30, -12, -35, 17, 14, 44, 32, 34,
   2, -27, 14, 81, 18, -35, -20, 21,
   35, 30, -47, 7, 43, 11, -3, -34,
   -31, -22, 44, -24, 8, 14, -29, 4,
   3, -39, 7, -21, 15, 19, 12, 35,
   -24, 44, 17, -38, 37, -9, -2, -15,
   25, 21, -49, 4, 62, 14, -47, 40,
   37, -21, -36, 13, 2, -35, 19, 25,
   19, 12, -45, -22, -9, 4, -2, 32,
   23, -47, 57, -31, 33, 57, 57, -19,
   -10, 46, -39, 25, 43, 18, -30, 4,
   21, -94, 50, -7, -36, 4, -9, -82,
   -13, 51, 70, 12, -36, 66, -4, -6,
   2, 92, -18, 63, 0, -121, 58, -42,
   53, 4, -53, -18, 46, 30, 41, 9,
   -6, -19, 35, 79, -78, -5, 14, 19,
   -16, -25, 8, 31, 62, 33, -91, -29,
   2, -72, 11, -9, -22, -28, -74, 20,
   44, -36, 49, -12, -46, 54, -92, -101,
   -43, -48, 3, 32, -38, -46, 50, -27,
   -7, -41, -76, 4, 36, 9, -20, -40,
   -15, 7, -1, -5, 8, -1, 35, -10,
   32, 27, -52, -48, -31, -99, -60, -18,
   28, 12, 10, -39, 49, 60, 75, 15,
   48, -22, -1, -9, -20, -27, 35, 7,
   53, -32, 21, 25, -2, 66, 8, 31,
   -40, 14, 8, -25, 30, -61, 5, -36,
   -40, 18, -43, 8, 25, -38, 5, -21,
   1, 7, -2, -51, 3, -20, -8, 18,
   13, -25, 2, -63, -3, 17, -86, 1,
   2, 26, 21, -7, 16, 1, 46, -19,
   39, 23, 12, 55, -24, -8, 18, 22,
   38, -51, -45, 16, -11, 28, 51, 35,
   -13, 62, 30, 11, 3, 32, -35, -47,
   1, 11, -3, -3, 15, 18, -21, -18,
   34, 60, 47, 15, -27, -6, -32, 38,
   -66, -36, -46, 7, 2, -87, 38, 14,
   -34, 25, 9, 13, -36, -18, 12, 53,
   20, 39, 13, -10, 2, 64, -12, -16,
   -31, 6, 0, 7, 7, 28, -9, -74,
   -17, 3, 3, -14, 14, -17, 62, -55,
   -45, 39, -14, 51, 18, 28, 65, 43,
   -33, 1, -19, 25, -13, -6, -7, -2,
   -54, -10, -26, -6, -15, -33, -3, -6,
   -14, -1, -15, -14, -15, -22, -12, 14,
   -14, 28, -3, -56, 3, 32, -14, -25,
   23, 42, -40, -24, 0, 44, 44, -17,
   -95, 127, -6, -124, -40, 114, 19, 20,
   98, 3, -43, -62, 0, -30, 49, 0,
   -9, -85, 14, -4, -28, -42, 31, 77,
   -47, -10, 43, -52, 13, 41, -11, -7,
   -65, -2, 74, -9, -23, -7, 79, 52,
   3, 47, 15, 93, 5, 39, 53, -30,
   -17, -71, 82, 13, -50, 21, 46, -12,
   122, -29, 38, 36, 30, -115, 21, 27,
   -95, -41, -21, -2, 39, -9, 19, -6,
   -39, 52, 51, -27, 21, 13, -51, 5,
   -20, 44, -11, -47, -128, 23, 47, 17,
   -60, 13, -43, 33, 6, -8, 2, 21,
   -22, -16, 39, -30, -49, 8, -17, -30,
   -21, 84, -19, -21, -17, 7, 25, 90,
   -22, -24, -8, 21, -33, 8, 51, -25,
   -12, -59, -38, 41, -30, -26, 38, -21,
   86, 24, 31, 19, -50, -35, 10, -11,
   -41, -36, 27, 17, -49, 12, 37, -5,
   44, 33, -4, 47, 1, -22, 17, -29,
   4, 6, 107, 65, -6, 2, 8, -62,
   22, 71, 3, 45, -19, -3, 7, -15,
   16, -58, -28, 30, 21, 95, -8, 39,
   -7, 3, -44, 39, -79, 48, 0, -87,
   10, -17, 7, 41, 42, -96, -67, -94,
   27, -3, -35, -30, -73, -8, 9, -43,
   -11, -5, -32, 12, 1, 21, -91, -11,
   45, -28, -59, 80, 18, 59, -14, 49,
   37, 9, -2, 38, 18, -29, 46, 63,
   -1, 28, 17, 7, 53, -73, 19, 13,
   84, -23, -1, 6, -63, -25, -3, -59,
   -38, -22, -67, 24, -25, 4, -26, -4,
   49, -32, -27, -31, -52, 34, 2, -36,
   32, 20, 20, -47, 48, 37, -28, 59,
   97, 41, 0, -85, 14, -51, -10, 70,
   26, -20, -7, -35, 36, -4, 82, -7,
   -21, -13, -4, 71, 31, 22, 9, -9,
   26, 34, 4, 17, -55, -42, -13, -52,
   -64, -21, 43, 48, 36, 11, 57, 4,
   74, 33, 27, -21, 30, 22, 6, -82,
   74, -84, 59, -4, 28, 120, 65, 42,
   62, 5, 13, -15, -39, 1, -64, 15,
   91, -37, 80, -11, 18, -14, 93, 55,
   32, -49, -34, 21, -41, -37, -5, 127,
   23, -67, -9, -34, -3, -8, -2, 74,
   -39, -14, 28, -5, -30, 65, -32, 30,
   26, 55, 45, 40, 1, 38, -13, -36,
   -27, -86, 74, 101, 78, -22, 20, 22,
   -9, -74, -23, 7, 23, 115, 36, 7,
   45, 50, -52, 52, 6, 12, -5, -1,
   -14, -58, 16, -20, 47, -20, 9, -36,
   -78, -4, -27, 18, -6, 39, -48, 15,
   0, -32, -45, 43, -30, -10, -19, -18,
   -23, -5, 26, -36, -8, -15, -71, -36,
   30, -16, 33, 7, -20, -52, -31, 47,
   -26, 14, -27, 10, 23, -91, 50, -122,
   37, 43, -38, -57, 109, 70, 4, -112,
   -17, -39, 52, -40, 40, -35, -13, -63,
   48, 78, -20, -109, -31, -68, 32, 22,
   -26, -12, 42, -106, -12, -25, 3, -104,
   -29, 64, -26, -8, -34, 60, -5, 5,
   13, 6, 9, 56, 32, 38, -6, -32,
   -4, 52, -42, 123, 26, 2, 65, 20,
   7, -90, -55, -32, 11, -92, 35, 0,
   1, -86, -25, 19, -12, -69, -22, 106,
   -34, -2, -10, 71, -43, 73, 12, 7,
   -2, 62, 16, -5, 12, 42, 30, -48,
   -38, 13, 30, -32, -31, 20, -11, -23,
   0, -41, -8, -9, -7, 15, 6, -2,
   -22, -39, -18, 35, 40, -96, -5, -3,
   -40, 24, 26, 108, -47, -14, -64, 42,
   13, 41, 12, 31, 1, 61, 23, 26,
   11, -97, -21, 33, -3, 16, -2, -73,
   -93, -36, -7, -48, -9, -14, -13, 80,
   -2, -10, -72, 19, 53, -86, 44, -16,
   43, -79, -6, 10, 34, 32, 5, -56,
   -30, 10, 2, 46, 1, 25, -34, 54,
   -3, 64, -71, 7, -24, 4, -2, 2,
   81, 29, 5, -47, -18, -7, 12, 71,
   15, 55, 73, 60, 3, -13, 30, 17,
   -2, 2, 38, 85, 20, -18, 43, 20,
   -15, 8, -57, 79, 26, 26, 23, 19,
   -11, 2, 38, 23, -12, -7, -16, 9,
   -92, -48, -7, 3, 6, 4, -11, -13,
   -12, 47, -32, 24, 38, -24, 12, -26,
   40, 88, 35, 1, -54, 52, 69, -35,
   -14, 12, -47, 27, -13, 19, -23, 12,
   -2, 6, -42, -4, 28, -26, 6, 17,
   -21, -9, -32, 63, 0, -29, 56, -10,
   13, -14, 49, -3, -8, 6, -8, -5,
   24, 33, 14, 19, -52, 44, -12, -12,
   69, -43, -26, 53, 0, 2, 8, 26,
   -74, 25, 6, 89, -15, 50, 95, -23,
   -11, 103, 36, 97, 11, 21, 15, -35,
   122, -43, -74, 40, -11, -8, 28, 48,
   28, 2, -6, 59, 60, -12, -127, 15,
   102, 34, 43, 8, 27, -39, -7, -41,
   52, -45, -5, -62, 7, -51, -30, 72,
   -61, -21, 39, -27, -21, -68, -41, 14,
   66, -32, -47, 7, 0, 28, -19, -3,
   -12, -31, 24, 44, -35, -61, 45, -18,
   5, 23, -19, 8, 50, -13, 32, -24,
   -10, 28, 10, -43, -31, 61, -43, -57,
   -31, -21, -48, -88, -15, -1, 45, 35,
   -14, -62, -2, -1, -27, -13, -82, 9,
   -27, 5, -44, 26, -5, -52, -65, 2,
   -12, -9, -4, -70, -10, -26, -77, 43,
   -36, 12, 21, -97, 22, -20, -5, -85,
   -16, -17, 38, 32, 25, -91, -27, 61,
   12, 19, 53, 6, 43, 21, -28, -33,
   6, -22, -10, -12, -45, -31, 10, 20,
   -45, 30, -46, 26, -75, 53, 2, -44,
   11, -73, -19, -42, -19, -26, 24, -19,
   -26, 18, -44, -8, 36, 59, 35, -84,
   3, -45, -40, 14, 12, -61, -31, 18,
   51, 36, -4, -20, 38, 59, -29, -43,
   -5, -6, -5, -15, 10, 33, 19, 12,
   55, 77, -19, 15, 26, 10, -2, 17,
   18, -24, -39, -17, -5, -17, -87, -31,
   -41, -30, -25, -123, -1, -30, -97, -51,
   37, 23, 13, 41, 2, 19, 14, -41,
   10, 4, 22, 23, 0, -9, 52, -16,
   -21, -26, 27, 11, -24, 31, 28, -6,
   15, -19, 14, 20, -30, -44, 1, -18,
   -17, -42, 21, 18, 27, 4, 49, -30,
   18, 13, -55, 6, 10, 10, 7, 21,
   -13, -44, -1, 10, -11, 37, 12, 53,
   -6, -29, 23, -8, -20, 10, -36, -77,
   -3, -78, -17, 17, -36, -22, -65, 14,
   -30, -80, -44, -16, -62, -54, 45, 14,
   -10, -3, -51, -8, 100, 55, -21, 22,
   39, -48, -29, -12, 15, 56, 97, 37,
   27, 19, -30, 38, 32, 46, -32, 29,
   -38, -73, -1, 66, -19, 40, 53, 46,
   -28, -38, -45, 54, 10, -82, 62, 9,
   -15, -48, -34, 28, 11, -30, -39, -53,
   44, -30, -19, 44, -85, 25, 63, 12,
   45, -31, 11, 47, -37, 36, 28, 88,
   18, -15, 4, -54, 9, 24, -36, -62,
   -4, -61, -15, -47, 26, 37, -33, -31,
   -8, 4, -14, 44, 47, -2, -3, 8,
   15, -25, 5, 49, -58, 50, -50, -17,
   -31, -2, 11, 33, -22, 10, 20, -24,
   37, -27, 47, -10, 46, -19, -52, 8,
   -24, -10, 4, -9, 33, -14, -2, -18,
   -16, -19, 18, 48, 8, 10, -67, -42,
   71, 16, 46, 16, -48, 92, -42, -23,
   -6, -26, -32, -31, 15, -33, -4, 41,
   -10, -26, -17, -24, 30, -24, 6, -34,
   -39, 46, -29, 61, -27, 3, -18, 31,
   -67, -15, 19, 3, -17, -15, -28, -36,
   -28, -16, -2, -81, -24, 52, -68, 68,
   -80, 0, -12, 40, -60, -26, -29, -44,
   36, -28, 41, 10, -47, 16, -3, -30,
   60, -13, -31, 22, 6, 56, -39, -61,
   6, -2, -40, 38, 17, -12, 117, -49,
   -49, 2, -3, 72, -96, -95, -66, 27,
   -18, 45, -44, 15, -1, -1, -17, -16,
   10, -2, -23, -9, 3, -6, 33, 42,
   9, 43, 21, -35, -14, -6, 63, 16,
   15, 35, -35, 6, -10, -2, 21, -16,
   -29, 18, -16, 19, 15, -7, 26, 51,
   5, -35, 58, -33, -18, -33, -12, 5,
   -70, 53, -18, 3, -3, 38, 10, 28,
   -1, 30, 62, -27, -8, -8, 21, 30,
   33, 23, -30, -2, -13, -9, 17, 7,
   -66, -4, 20, -11, -11, 8, -7, 23,
   -9, 5, 4, 8, 12, -22, -12, 4,
   10, -12, 55, 38, -30, 5, -1, -48,
   -27, -12, 12, -10, -12, 12, -6, -41,
   33, -32, 63, -1, -22, 7, 7, -25,
   19, -62, 3, -48, 17, 27, -1, -35,
   -9, -5, -5, 28, -4, -17, -39, 0,
   21, 5, 37, -10, -3, 20, 20, 46,
   -6, -33, -34, -4, 0, 10, -14, 22,
   7, -23, -15, 35, 4, 5, 22, -31,
   -9, -21, -39, 2, 37, 27, -6, -16,
   -28, -17, -22, 41, -6, -10, 27, -1,
   -27, -9, 25, 22, -15, 25, 24, -1,
   25, 31, -23, -23, 10, -1, 42, 15,
   -11, 39, -38, 17, -25, -31, -32, 26,
   48, -10, 40, -8, 33, 10, 6, -13,
   7, -3, 6, 48, -42, -15, 17, 37,
   -6, -46, -32, -1, -76, 2, 59, -49,
   16, 8, 13, -24, 5, 21, 25, -29,
   -78, -19, 12, -7, -7, -14, 6, -36,
   10, 18, 0, 18, 13, 8, 25, 23,
   -2, -47, 0, -1, -39, 1, -9, -23,
   21, 49, -1, 62, 25, -49, -13, -11,
   -21, 11, 22, 1, 5, -7, 29, 32,
   59, 42, -17, 14, -12, 22, 4, -13,
   -29, 26, 60, -20, 44, 25, 34, -5,
   45, -32, 24, -6, -18, 6, 3, 0,
   -10, 38, 9, 43, 1, -15, 16, -5,
   -20, 25, -31, 18, 28, -21, 21, 19,
   36, -9, 32, -10, 42, -50, 3, 25,
   -5, 11, 24, -36, -30, -15, 11, 16,
   17, -46, 3, 33, 7, 1, 15, 22,
   -14, 33, 8, -24, 27, -34, 19, -9,
   -50, 0, -15, -2, 25, -31, -17, -3,
   -6, 29, -16, -48, -3, -15, 50, -44,
   -3, -28, -3, -20, -26, 71, -14, 39,
   -61, 13, 9, -4, -26, 15, 19, 31,
   12, 0, -44, 15, 74, -6, -92, -25,
   23, 2, -25, -56, -55, 2, -29, 21,
   44, 18, -35, 31, 18, -26, 28, -39,
   18, -13, 49, -15, 10, 33, 73, -64,
   13, -13, -25, 3, 35, -16, -11, 2,
   25, -5, 17, 10, 44, -3, -43, 72,
   -57, -48, 30, 33, -64, -24, -22, 0,
   6, -32, -54, -83, 9, 35, 5, 54,
   54, -29, -31, -3, -1, -41, 41, 12,
   -32, 11, -15, -4, -47, 21, 36, 2,
   36, 17, 21, 9, 26, 23, -18, 15,
   18, 8, 15, 9, -37, -13, 13, -24,
   7, 9, -33, -11, -58, 12, 6, -7,
   33, -6, 30, 50, 77, 24, 26, -11,
   32, 60, -23, -42, 43, -7, 6, 17,
   -5, -28, 7, -33, -12, -2, 6, -37,
   -23, -74, -23, -18, -1, 16, 26, -17,
   -78, -46, -7, 8, -7, -49, 35, -60,
   29, -20, -18, -58, -33, 29, -58, -59,
   13, 21, -6, -14, -20, 1, 4, -84,
   25, 27, 58, 29, 34, 22, 65, -13,
   54, 27, 58, -15, 2, -9, 13, -8,
   28, 0, -37, -75, -14, -52, 33, 27,
   -36, -5, 11, 15, -16, 24, -13, -11,
   8, -45, -48, 19, 15, -1, 0, -71,
   -14, -30, 1, -12, 11, 44, 102, -22,
   -6, -66, -7, -43, -2, -19, 5, -54,
   -6, 27, -3, 19, -34, 8, 19, 28,
   -9, -3, 5, 14, 2, -1, 19, -45,
   -7, -15, 18, 59, -72, 25, -25, 32,
   29, 2, 30, -33, 13, 16, -44, -9,
   -23, 11, 16, 44, -56, 31, -39, -37,
   6, 73, 25, -35, -29, 37, 19, -50,
   58, 18, 75, 1, 61, -23, -17, 9,
   47, 51, 21, -23, 28, -31, 32, -32,
   -6, 14, -54, 34, 36, 15, -99, -31,
   60, -15, 21, -38, 23, 52, 15, -25,
   51, 18, -41, -1, -66, 42, -19, 2,
   -14, 60, 8, 56, 42, -32, -12, -17,
   18, -45, -6, -45, -9, -14, -17, -42,
   -14, -49, 2, 20, -11, -29, -34, -6,
   -15, -74, 23, 30, -27, 31, 25, 3,
   -8, -61, 7, 65, -26, 26, -3, 1,
   1, -1, -22, 32, 41, -77, -19, -11,
   -16, -12, 22, -51, -23, -34, -92, 26,
   -22, -37, -44, 11, 8, 11, -26, 30,
   24, 14, -36, 34, 3, 56, -14, 7,
   -39, 49, -47, -42, -40, -25, 3, -12,
   48, -44, 62, -26, -50, 1, -53, 10,
   -39, -57, 4, 22, 38, -13, 56, -15,
   -8, 33, 68, -11, -12, 39, 77, 32,
   -30, -31, -24, 51, -31, -8, -13, 6,
   0, 49, 35, 1, 35, -1, -45, 15,
   -16, -45, -5, -23, 31, -39, -9, -46,
   26, -65, 19, 15, 43, 41, -20, -35,
   -7, 59, 16, -35, 8, 19, -71, 54,
   15, -17, 16, 4, 70, -56, 40, -30,
   -44, 29, -39, -3, 10, -54, -27, -56,
   32, 2, -39, -4, -7, -36, 17, -5,
   14, 17, 0, 2, 6, 20, 1, -15,
   -2, -17, -16, 45, 31, 14, -24, -29,
   -44, -14, -30, 17, 40, 15, 5, -18,
   3, 35, -11, 22, 30, -61, -55, -11,
   38, -10, -32, -17, -37, 36, -37, 24,
   19, -2, 5, 15, 21, 52, -27, 23,
   9, 29, 5, -31, 14, -1, -6, 10,
   19, -36, -26, -20, -17, -39, 6, -10,
   32, -18, 21, -14, -57, 7, 27, 17,
   19, -17, 0, 26, -15, -24, 42, 29,
   21, 10, 11, 19, 11, 20, -17, 10,
   -24, -12, 25, 27, 5, 18, 25, -23,
   37, 40, -3, -12, -2, 11, -45, -11,
   -20, -42, 13, -3, 18, -9, 0, 33,
   28, -19, 43, -3, 14, 26, -26, -7,
   -15, 18, -16, -13, -24, 21, 4, -13,
   -60, 28, 45, -33, -28, -9, 32, -66,
   -44, -34, -10, -3, 60, -24, -3, -39,
   -52, -56, -4, 32, 28, 10, -27, -35,
   24, -19, -4, -1, 21, -1, 7, -73,
   -8, 30, 67, 19, -4, -29, 21, 6,
   -33, -25, -18, -53, 23, -20, -19, -33,
   -20, -20, -58, -12, 24, 43, 22, -28,
   -47, -8, 20, 1, -16, 34, 14, -4,
   -18, -29, -2, 4, -28, -9, 7, -36,
   27, -29, -20, 44, -22, 39, 12, -44,
   -26, 37, -31, -11, -5, 14, -1, -6,
   -22, 13, -49, -5, 74, -1, -40, -36,
   -3, -43, 34, 30, 18, 7, -44, -38,
   -63, 46, -54, 43, -23, -30, 76, -37,
   49, -41, -74, 34, -5, 20, -14, 51,
   -26, 22, -2, -45, -44, -70, -50, -6,
   29, -44, 27, 54, -32, 5, 70, -24,
   -68, 44, -37, 1, -16, 6, -25, 29,
   -11, 43, -24, 68, -19, -16, 17, 67,
   3, -72, -40, -30, 11, 5, -2, 29,
   -13, 55, -21, 29, -27, 38, 30, -41,
   -26, -59, -15, -38, -41, 28, -64, 33,
   62, 0, 45, 48, -16, 13, 94, 40,
   36, 26, 48, -26, -33, 20, -4, -41,
   -19, -7, -35, -20, -24, 12, 15, -29,
   3, -2, 28, -28, 83, -43, 45, 72,
   -6, 9, 6, -30, 80, -19, 16, 35,
   11, -12, 11, -22, 44, 20, 35, 28,
   6, 5, -18, 1, -9, -6, 23, -2,
   4, 14, -1, -10, 4, 18, 25, -12,
   -32, 11, -2, -15, 12, -24, -5, 50,
   27, -2, 56, 60, 66, 21, -46, -2,
   36, -60, -23, -48, -42, -53, 17, 1,
   65, 72, -47, 84, 37, -7, 2, -31,
   47, 15, 20, 58, -60, 4, 5, 41,
   56, -12, 1, -15, 20, -33, -24, 44,
   -4, -4, 23, 63, -42, -22, -46, 0,
   4, -7, -40, 29, -24, -28, -4, -29,
   -15, -15, 20, 22, -1, -9, -22, -4,
   2, 41, 53, 3, 8, -25, 15, 5,
   -47, -48, -59, 32, 41, -16, -12, -5,
   -14, 4, -22, 3, -28, -7, -62, 18,
   8, -10, 25, -14, 24, 13, -4, 25,
   5, -29, -7, -3, -5, -10, -42, 19,
   -18, 15, -25, 0, -3, 30, -17, -18,
   -8, 10, 2, -15, 1, 22, -12, 8,
   -39, 10, 20, 6, 21, -20, -1, -29,
   -37, -23, 16, -26, 1, 90, -2, 23,
   21, -6, 5, 8, 23, 36, 18, -17,
   -57, -1, 7, 61, 25, 37, -33, -22,
   -60, 63, 33, 14, 55, -11, -67, -39,
   -10, -34, 1, -54, -48, 10, 30, 18,
   -20, 64, 75, 36, 2, 53, -38, 17,
   15, 9, 0, 6, 15, -25, 21, -68,
   36, -13, -9, -9, 50, 49, 0, -10,
   13, 3, -1, 0, -31, 33, -32, -41,
   21, 4, 15, -21, -7, 23, -6, 27,
   -25, -2, 7, -59, 13, 52, 8, -53,
   15, 28, -14, -28, 53, 35, -5, 25,
   41, -1, -21, 30, 18, -25, -48, -42,
   40, -23, 30, -8, -16, -23, 15, -23,
   2, -34, 39, 1, -20, -20, 28, 44,
   -4, -37, -33, -20, 13, 28, 35, 28,
   52, -15, -27, -4, 7, 6, -36, -29,
   -13, 9, 5, 4, -27, -26, -37, 44,
   -1, -70, 33, 20, -53, -24, -34, 35,
   -57, 6, -42, 51, -81, 51, 34, 49,
   -1, 11, 49, -25, -8, 7, -45, 65,
   46, -4, -23, 30, -57, 52, 33, -11,
   -42, -21, 4, -56, 39, -10, -6, -13,
   -68, -32, -12, 10, 6, -75, 57, 3,
   -3, 5, -24, -52, -29, -1, -42, -19,
   19, -5, -38, -21, -73, -38, -32, -33,
   12, 44, 5, -2, -54, 0, -22, 16,
   8, -2, -2, -7, 8, 11, 35, -5,
   -65, -25, 8, 1, 22, 7, 25, 11,
   -12, 15, 15, 8, -21, 2, 10, -3,
   -2, -1, -14, -19, -21, 47, -39, 18,
   -37, -31, -17, -9, -16, 3, 9, -23,
   -9, 30, -40, 2, -15, 11, -26, -27,
   -3, 36, -3, 27, -30, 14, -16, 27,
   -22, 6, -19, -20, -30, -37, 25, -13,
   -39, -26, -33, -43, -24, -15, 22, -14,
   -2, -41, 0, 27, 19, -28, -14, -16,
   -2, 26, -39, -31, 15, -17, 0, 16,
   -8, 0, 72, 10, 38, -38, -36, 36,
   -15, -58, 34, 10, 54, 21, 60, 0,
   -23, 33, 0, 45, 10, -43, -46, -5,
   6, 40, 20, -32, 13, 6, -38, 1,
   10, -67, 7, -41, 0, -18, -16, 27,
   19, -28, -42, 42, -66, -33, -17, -9,
   5, 50, -18, 76, -28, -41, 12, -34,
   53, 13, -13, -14, -18, -16, -35, -21,
   42, -2, -15, 28, -5, 18, -7, 28,
   0, 8, -25, -21, 37, -14, -3, -27,
   11, -48, -30, -21, -22, 37, -31, 31,
   -10, -8, -14, -33, 5, -11, -17, -8,
   -49, -33, -20, 32, -20, -14, -39, 29,
   -7, 14, -25, -29, 0, 37, -8, -6,
   -19, -46, -42, -22, 12, -35, 4, 7,
   10, 1, 20, -31, -37, 19, 8, -22,
   -62, 65, -4, -17, 63, -2, 10, -7,
   40, 34, -25, 11, 45, 100, 4, 19,
   -46, -26, -50, -14, -16, 48, -50, -24,
   27, -54, -18, 103, 19, 7, 23, -50,
   33, -63, -26, -51, 17, -36, 48, 30,
   -61, -5, -3, 30, -54, 48, -31, -23,
   3, 18, -26, -16, 16, 8, -5, -43,
   -6, 5, -26, -9, 65, 61, -6, -7,
   32, -47, 27, -1, -41, 25, 37, -15,
   2, -6, -30, 40, 18, 3, 16, 28,
   -22, -11, 33, -58, -34, -11, -7, -29,
   36, -18, 46, 5, 27, 35, -34, 13,
   -36, -23, -15, -30, 8, 13, -26, -7,
   35, -17, 32, -26, -33, -28, 13, -10,
   11, 10, 5, -36, 13, 4, 26, -6,
   -40, -15, -14, -2, -6, 25, 9, 12,
   27, 2, 30, 1, -14, -2, -4, 15,
   -42, -16, 0, -9, 39, -12, 12, 9,
   27, -15, 39, -109, 71, -46, 3, -41,
   -12, 8, 50, -48, -6, 52, -19, 13,
   -5, -29, 16, 65, -41, -26, -64, 30,
   -25, -34, 6, 4, -59, 14, -23, -3,
   -21, 3, -14, -26, 29, -49, 93, -14,
   -28, 1, -29, 0, -2, 7, 14, 39,
   8, -15, -42, 28, 18, 25, 31, -8,
   1, 29, 7, -3, 25, 16, 36, -13,
   -28, -27, 41, -10, -43, 35, 35, 63,
   19, 30, -45, -32, 14, -16, 15, 1,
   -1, -58, -2, 23, 7, 0, 28, -33,
   35, -7, 40, 51, 6, 12, -57, 57,
   12, 12, -29, 11, -33, -42, -19, 2,
   -16, 1, 24, -30, 6, -51, 31, -4,
   41, 30, -18, -28, 25, 32, -6, 44,
   36, 29, -35, 13, -27, 7, -38, -16,
   -23, -19, -39, 23, 16, 20, 10, 17,
   43, 1, 14, 16, -57, 23, -42, 11,
   -33, 31, 6, 4, -30, -26, 37, -59,
   -13, 27, 33, 26, 74, 21, -12, -37,
   3, -21, -35, -26, 56, 30, -4, 33,
   -2, -17, -1, -2, 31, 22, -3, 8,
   8, -62, 0, -15, 26, 27, 52, 4,
   18, -9, 2, 20, -19, -8, 0, -27,
   12, 52, -15, -26, 36, -8, 37, -11,
   35, 17, 5, -45, 49, 20, -16, -11,
   -34, 10, 13, -33, 42, -44, 15, -41,
   -14, 37, 26, -19, 5, 7, 0, 7,
   -7, 2, -3, 37, 6, -11, 47, -8,
   -29, 9, -16, 37, 35, -34, 0, -25,
   -11, 18, 15, -23, -20, -32, 3, 23,
   -14, -22, -2, -8, 55, -36, -24, 1,
   21, -32, -3, 7, -6, -13, 13, -32,
   -2, 33, 12, -40, 10, -6, 5, 55,
   18, -13, 10, 4, -39, -14, 38, 19,
   -22, 24, -20, -26, -12, 4, -8, 18,
   45, 16, -12, -70, -30, -29, -18, -40,
   29, -15, 20, -7, -22, 6, 4, 28,
   6, 27, -9, 35, -24, 0, -16, 44,
   -16, 29, -7, 67, -20, -32, -34, 37,
   -29, -44, 40, 32, 3, 25, 3, 3,
   28, 21, 0, 26, -27, 7, 32, -41,
   -40, -49, -14, -1, 25, -25, 48, 22,
   43, -4, -11, 16, -15, 7, -37, -11,
   1, -6, -25, 2, -51, -28, 19, 9,
   -3, -11, 11, -43, 23, -22, 14, 24,
   -40, 36, 11, 6, -12, -7, 20, -6,
   -10, -10, -22, -40, 0, 53, -13, 32,
   -22, -14, -54, -26, -5, -23, -4, -15,
   -10, 16, 9, 17, -21, -6, -40, -29,
   5, -22, 30, 24, 56, -6, -9, -10,
   5, -18, -22, -7, 6, 17, 24, 2,
   21, 44, -22, -16, -17, 39, -8, -4,
   16, 3, 37, 20, -7, -29, -17, -30,
   20, -40, 4, -6, 1, -62, 36, -51,
   -18, -16, -41, 9, 13, 12, 39, -17,
   -43, 15, -22, -2, -51, -7, 24, 24,
   -1, -26, 9, 39, 0, 13, 29, -52,
   -79, 12, 11, 24, -50, 46, 0, -86,
   -39, -30, -28, -35, 7, 24, 18, -7,
   -40, -27, 9, -27, -14, -4, -7, -19,
   -41, 28, -54, 3, 11, 23, -13, -32,
   -35, 61, 18, -10, -56, -25, -6, 24,
   12, -29, -9, -18, 31, 8, -19, -57,
   6, -22, 23, -48, 33, -22, 44, 3,
   52, 9, -33, -63, 26, -14, -27, 24,
   37, 20, 16, 16, 48, -11, 15, 25,
   -25, -5, 22, -58, -20, 3, -12, 23,
   30, -8, 0, 18, 2, 17, 29, 9,
   -5, -10, 5, -9, -8, -2, 22, -23,
   -12, 15, 22, -26, -11, -8, 12, -30,
   3, 20, 26, -6, 51, 7, -6, -3,
   66, 17, -13, -55, 45, -36, 18, -28,
   19, 47, -2, -57, 51, 47, 54, -3,
   -15, -7, 8, -25, -7, 1, -11, -27,
   12, 16, 15, 11, -16, -15, -13, -11,
   58, 18, 6, 35, -58, 21, -24, -6,
   111, -38, -39, -19, 4, -2, -5, -30,
   41, 34, 11, -16, 29, 44, 11, -31,
   -34, -19, -2, -4, -5, 11, -35, -10,
   -7, -52, 13, -10, 5, -16, 34, -2,
   -59, -61, -24, 8, 17, -3, -36, -10,
   -9, -65, 6, -40, -51, -31, 23, 32,
   29, -7, 12, 14, -15, -40, -48, -40,
   30, -36, -54, -1, 10, -45, -33, -17,
   -21, -3, 11, 13, 12, -8, -31, 17,
   -8, -19, -3, -36, 17, 21, 6, 28,
   23, -8, -38, 22, 6, 16, 14, -35,
   5, 0, -2, -35, -2, -41, -16, 12,
   40, -28, 25, -6, 12, -19, 19, 7,
   18, -22, 33, 57, -67, -16, 12, 11,
   14, -23, -11, -4, 16, 2, 29, 18,
   14, -47, -23, 18, 59, 6, -18, -3,
   -35, -4, -11, -27, -6, 5, 30, 50,
   -1, -112, 17, 73, -37, -21, 53, -24,
   -96, 43, -13, 28, 39, -23, -45, 27,
   0, -100, 26, -35, 0, 34, -19, -49,
   -21, -38, 1, -43, -19, 36, -66, 75,
   13, 93, -28, -12, 15, -17, 21, -17,
   -20, -12, -12, -14, -49, -43, 1, 41,
   17, 79, 30, -8, -15, 22, 18, 13,
   16, 16, -40, 8, 44, 79, -21, 10,
   -35, -21, 67, -3, 73, 13, -32, -3,
   55, -3, -13, -45, -4, 34, -17, -10,
   -10, -14, -11, -27, -31, 8, 57, 48,
   -53, 40, 11, -15, 6, 13, 43, -32,
   -2, 47, -43, 13, -14, -10, 37, 27,
   -36, -6, 26, -11, -14, 57, -18, 23,
   32, 32, -2, -66, 13, -9, 23, -18,
   -27, -3, 8, -18, 26, 64, 38, 2,
   7, 33, 19, 47, -12, -33, -37, -42,
   23, -6, 51, 109, 5, 38, 51, -65,
   -14, 16, -29, 19, -76, -25, -29, -5,
   114, -84, -25, 47, 6, 2, -15, 64,
   45, 32, 23, -8, 8, -51, 21, 13,
   -14, -4, -14, 89, -23, 8, 14, -30,
   16, 7, 43, 52, 35, 27, 13, 22,
   -17, 44, 23, 13, 51, 22, 9, -39,
   -90, -18, 49, 30, 62, -9, -50, 6,
   27, -27, 1, 16, -35, 12, 21, -62,
   -8, -4, -8, 24, 0, 11, -34, -8,
   11, -8, 7, 32, 12, -17, -23, -17,
   23, -19, -6, 17, 3, -7, 50, -15,
   29, 31, 31, 25, -27, 1, -41, -6,
   -50, 27, -24, 3, -18, 24, 46, -53,
   49, -32, -56, -18, -48, 29, -11, 32,
   -6, 21, -39, -42, 29, 48, -45, -44,
   -11, 47, -7, 105, 31, -13, 21, 48,
   3, 81, 81, 72, 125, 40, -38, -10,
   83, -11, -106, 26, 66, -17, -17, 12,
   22, -5, -14, -54, 13, 90, 47, -71,
   -18, 19, 25, -19, 12, 44, 55, 119,
   -61, 78, -90, -28, -52, -34, -26, 37,
   14, 24, 30, 58, -39, -20, 62, 38,
   34, -53, 3, -14, -23, -9, -16, -16,
   -1, -38, 114, 5, 47, -31, 43, -21,
   21, 37, -16, 43, -34, -21, 13, 0,
   -63, 28, 8, 38, -16, -12, -21, -104,
   78, -21, 24, -21, -5, 8, -63, -7,
   16, -29, 49, -10, -2, -68, -60, 47,
   -50, -38, -17, 25, -5, 13, 7, -43,
   18, 50, -31, -17, -16, 6, 16, 32,
   47, 3, -51, -72, -17, -36, -66, 15,
   -30, 4, 39, 17, 33, 16, -16, 25,
   -28, 18, -32, -35, -1, 6, -12, 57,
   -19, 14, -74, 3, -39, -34, -43, 20,
   2, 62, -5, 5, -37, -51, 42, -23,
   -5, -34, 11, 11, 6, -17, 9, 48,
   -8, -18, 16, 34, 65, -5, -12, 1,
   -1, 49, 44, -55, 37, 30, -31, 31,
   -20, 23, 49, 3, -22, -49, -22, 19,
   -7, -37, -22, 24, -6, 24, 4, 56,
   82, -29, 53, -1, 9, 12, 67, 56,
   -5, 31, 11, 7, -10, -28, -44, -7,
   -74, -16, -18, -23, 81, 1, -75, -45,
   -9, -47, 4, -37, -60, 2, -3, -2,
   -86, 4, 1, -2, 6, -8, 62, 10,
   -4, -36, 19, 37, 10, -22, -68, -7,
   11, -42, -31, -41, 35, -61, 52, -17,
   0, -51, -48, 19, -22, -15, -23, 2,
   -27, 37, -39, -74, 22, -23, 18, 3,
   -27, -21, 18, 41, 18, 55, -2, -28,
   -1, -4, 37, 64, 51, 37, 56, -20,
   8, 26, -17, 34, -16, 11, 20, -48,
   29, -9, -21, 0, 37, -9, 11, 12,
   5, 42, -6, -14, -1, 33, -27, 18,
   37, 44, 28, 24, 0, -22, -36, 11,
   18, 56, 17, -24, -16, -34, -29, -28,
   -9, -14, 19, 8, 0, 2, -1, -33,
   -59, -23, 43, -41, -1, 0, 2, -44,
   24, 5, -38, -28, 53, 2, -30, -17,
   -56, -13, 43, 21, -36, 15, -19, -4,
   33, -44, 0, 3, 23, -12, -22, -1,
   2, 16, 16, -18, -15, -40, -36, 21,
   7, -13, -14, 10, 1, -11, -22, 30,
   -35, 19, 19, 18, -24, 22, 38, 4,
   -32, 16, -22, -14, -13, -19, -6, -32,
   17, 32, -12, -40, 13, -7, -29, -31,
   2, -21, 0, -22, 19, -34, -21, 0,
   9, 11, 27, -5, 1, 19, -19, -6,
   -18, 45, 21, -3, 12, 79, 17, -27,
   23, 5, -43, -54, 73, -42, -15, -28,
   -24, 52, -27, -77, -73, -106, -32, -48,
   -20, -75, 31, -30, 47, -43, -123, 3,
   3, 8, 19, 29, -49, -11, 46, 14,
   -6, 90, 116, 7, -77, 58, -43, 69,
   34, 24, -2, 28, 40, -10, 24, -26,
   37, 8, 2, -7, 46, 58, 81, 58,
   14, -38, 19, -74, 1, 16, -26, -14,
   -18, 32, 40, 38, -19, 32, 20, 46,
   70, 5, -61, -8, -40, 14, -44, -64,
   19, 33, -27, 9, 29, 25, 69, -20,
   37, 5, 23, 32, -76, -55, -9, -94,
   13, 16, 15, 15, -35, -2, 20, 41,
   17, -24, -41, -6, 11, 24, 10, 7,
   -19, -65, -26, -8, 33, -9, 0, 96,
   45, 32, -16, 3, 21, 14, 44, 7,
   -37, 13, 13, 31, 7, -29, -14, 70,
   22, 21, 4, 54, 24, -11, -41, -31,
   34, -3, -24, -41, -6, 7, -3, -9,
   -8, 10, -16, 8, -34, -15, 10, 3,
   4, -1, 3, 9, -11, -17, 15, 15,
   -32, -40, 19, -13, -16, -16, -3, -10,
   6, 5, 3, 17, -41, 13, 22, -1,
   -22, 7, 14, 40, 4, -15, 1, 54,
   5, -30, -7, -27, 0, 7, -5, 10,
   -13, 12, -32, -25, -28, 5, 2, -55,
   50, -10, 6, -20, -18, -13, 18, -18,
   -18, 36, 6, 34, 14, -5, 25, -23,
   8, -24, -29, 26, -55, -13, 21, -41,
   10, 16, 1, 6, -15, 4, 14, -6,
   5, 3, -8, -26, -10, 5, -5, -3,
   9, -19, 25, -11, 20, -23, 5, 20,
   -5, -17, -17, 5, 16, 5, 8, 10,
   -18, -10, 19, -13, 21, 12, 8, -12,
   -8, 14, -25, 26, 0, 4, -24, -11,
   41, 49, -5, 77, 42, 29, 42, 14,
   10, -22, -39, -20, 14, -34, 26, -3,
   -3, -3, 34, -27, -21, -16, -30, 15,
   13, -38, 34, 14, 68, 70, 26, -5,
   -5, 11, 13, -41, 15, 3, -1, 44,
   -3, -50, -6, 48, -9, -29, 18, 63,
   -14, 6, 18, 16, 38, 33, -13, -70,
   27, 50, -48, -47, -32, 54, -45, -31,
   -12, 29, -32, 57, 13, -10, -6, -25,
   1, -1, 41, 46, -33, -4, -4, 17,
   29, -15, 27, 30, 48, 23, 21, -13,
   21, -32, -11, -3, 67, -3, 44, -11,
   -14, -30, 24, 10, 11, 0, -3, 27,
   43, 3, -36, -34, -8, 6, -41, 2,
   -4, -1, 11, 3, 25, 11, -23, 37,
   -25, -20, 11, 28, -41, 25, -24, -29,
   -23, 20, 14, 17, 12, 12, -31, 5,
   33, -5, -4, -12, -28, -32, 2, -12,
   55, 27, -70, -3, -12, 45, -56, -44,
   -26, -11, -30, 25, -30, -28, 9, -1,
   25, 31, 17, -44, 23, 17, -40, -16,
   -75, -35, -53, 5, -20, -65, 25, 11,
   -2, 57, -47, 22, -22, -40, -21, -27,
   -1, -64, -21, 0, 34, 82, 9, 124,
   -35, -78, 44, 14, 59, -11, -8, 52,
   0, -4, 15, -44, -1, -22, -56, -17,
   14, -6, 5, 1, 27, -103, -11, -3,
   6, 4, -63, -30, -67, 37, 5, 27,
   58, 53, -26, 32, -32, 24, -22, 2,
   -51, 17, 25, -30, 26, -68, 10, -44,
   40, -25, -24, -23, 25, -10, 33, 35,
   41, 5, 19, 16, 42, 5, -8, -23,
   2, -37, -11, -2, 20, 37, 42, 22,
   6, -15, -33, 39, -46, 40, -53, 33,
   15, 62, -37, -27, 6, -42, -5, -20,
   20, -9, 5, -41, 60, -61, 35, -9,
   13, -45, 60, 25, 1, 41, 6, -17,
   39, 7, 21, 65, -66, -22, 28, 3,
   -27, 44, 11, -51, -1, -17, 4, 19,
   -52, -87, -24, -23, -84, -45, 29, 29,
   -25, -13, -33, 10, 38, -30, 50, 40,
   13, 16, -9, 18, -31, 5, 15, -99,
   39, 9, -45, 22, 89, -24, 6, 13,
   -57, 79, -21, -62, -61, -57, 35, -57,
   60, 29, -4, -51, 22, -25, 32, 12,
   -56, -48, 40, -13, 33, 23, -89, -39,
   -31, -54, -24, -8, 29, 57, 35, -4,
   -27, -13, 93, 58, -38, 17, -43, -1,
   15, -46, -37, -7, -65, 16, -27, 12,
   11, 11, -6, 10, -54, 13, 29, -13,
   3, -41, 29, -19, 29, 10, 27, 13,
   20, -20, -7, 30, 5, 31, -27, -49,
   11, 23, -43, 26, -35, -21, 44, 9,
   -8, -16, 34, 10, -42, -48, 17, -34,
   32, 58, 28, 22, -33, 32, 48, 68,
   -5, -27, 38, -4, 28, 57, 6, -9,
   33, -27, -3, -7, 7, -53, 10, 15,
   28, -2, -40, -5, -29, -38, -28, -26,
   -3, -33, -21, -51, 92, -47, 21, 20,
   -49, -3, -13, 21, -7, -70, 8, 56,
   23, 4, 46, 36, -9, 38, -2, -37,
   55, -50, 59, 19, -46, 74, 3, -34,
   55, 24, 22, 26, -47, 15, 84, -9,
   -27, 62, -20, -44, -54, 53, -62, 9,
   12, -9, -75, -27, 74, -34, 0, -2,
   41, -18, 68, 29, -6, -32, -30, 38,
   2, -68, -12, 39, 19, 21, 62, 34,
   36, -7, -3, -2, 14, 1, -12, -36,
   -34, 9, -11, -33, -31, 0, -12, -23,
   17, -9, -37, -14, -47, -27, 38, 71,
   10, -27, -45, 7, -42, 37, -4, 23,
   -66, -11, 2, -37, 55, 44, 29, -61,
   41, -54, 19, -7, 44, -18, -60, -15,
   -29, -49, 28, 36, -106, -33, 12, -11,
   -49, 37, 23, -23, 10, -34, -58, -2,
   23, -26, 73, -48, 49, -49, -68, 44,
   78, 41, 41, 40, 82, 5, -25, -45,
   -19, -53, 34, 26, 40, 36, 8, -40,
   -26, -13, -28, -9, 65, 63, 9, 24,
   -61, -43, -37, -14, 96, 5, 1, 9,
   37, -49, 40, -32, 33, 60, -58, -20,
   47, 56, 7, 2, 41, -9, -67, -101,
   -32, 12, 38, 36, 68, -45, 17, 51,
   -67, -86, -41, -2, -34, 23, -12, 37,
   3, 30, 69, 61, -1, 11, -10, -35,
   1, -26, 29, 19, 68, -5, 1, -10,
   33, -1, -15, 22, -15, -26, 7, -54,
   11, 10, 55, -35, 49, 37, 45, -47,
   -35, 36, 17, 21, -61, 17, -55, 24,
   -110, -31, 15, -45, -23, 48, 25, 54,
   -127, -8, 48, 89, 33, -71, 73, 105,
   -45, 127, 66, 52, -126, -127, -56, -50,
   77, 44, -38, -33, -86, 44, 5, -16,
   -10, -81, 13, -8, -54, 61, 63, -21,
   48, -37, 38, 51, 12, -19, -114, -49,
   -43, 67, -72, -15, -33, -127, -59, 57,
   -24, 6, -125, -2, -105, 28, -13, -126,
   38, -43, 36, -128, -79, 77, -38, -71,
   15, 64, -72, 85, 20, 17, 18, -127,
   36, -19, -101, -23, 37, 104, 73, 28,
   63, -83, -54, -27, 80, 52, -71, 102,
   92, -35, -7, -57, 69, 56, -68, 34,
   -81, 37, 127, 127, -24, -71, 98, -67,
   80, -66, 73, 54, -80, 86, 70, -6,
   52, 52, 6, -19, -99, 23, -85, 73,
   88, 71, 29, -68, 17, -14, 55, 74,
   57, -71, -7, 31, -71, 8, 71, 65,
   -40, 99, 52, -70, 76, 55, -23, 96,
   -88, -22, 91, -126, 10, 19, -40, -124,
   -22, 78, -21, -63, -39, -100, 56, 13,
   -111, 78, -72, -2, -123, 127, 73, -41,
   -26, -7, -69, -40, 46, -37, -103, 21,
   45, -107, 12, 76, 68, -29, 73, -111,
   -32, 4, -75, 8, -22, 28, 35, -78,
   -92, 35, -128, -47, -128, 17, 22, 57,
   -119, 94, -89, -49, -7, -39, 127, 54,
   -24, -33, -30, 49, 38, 64, 65, -61,
   5, 115, 0, 127, 52, -2, 55, 106,
   -83, 63, 30, 32, -42, 16, 15, 15,
   21, 35, 5, -30, 31, -66, -100, -61,
   38, 29, 17, -45, 2, -41, -74, 68,
   1, 0, -14, -48, 123, -36, 11, 72,
   98, 102, -2, -72, 2, -127, 127, 51,
   44, 56, -43, -54, -85, -63, 9, -32,
   -47, 41, -105, -32, -20, 100, 68, 21,
   1, 55, 24, 17, -55, -24, -38, -40,
   -59, -65, 27, 66, 121, -11, -35, -92,
   6, 120, 93, 25, -127, -24, 43, -51,
   33, 22, 13, 35, -81, 4, 8, -45,
   -122, -37, -33, 47, -122, -127, 83, 64,
   11, 37, -79, 22, -49, -81, -66, -128,
   -57, -2, -111, -34, -18, -111, -109, 62,
   56, -16, -20, -94, -128, 9, -41, -126,
   -26, 61, -127, 32, -12, 92, -33, -59,
   -54, -78, -67, -1, -16, 103, 66, -52,
   -97, 74, 18, 61, 73, -14, -30, -1,
   122, -98, -15, -126, -21, 31, 52, -96,
   20, -19, -51, 70, 66, 54, -97, -128,
   -21, -32, -128, -76, -37, -45, 14, 14,
   67, -38, -15, -18, -76, 121, 33, 42,
   90, 9, -9, -18, 26, 30, -21, 35,
   105, 16, 106, -2, 75, -5, 79, -55,
   18, 6, 2, -127, -58, 81, -123, 65,
   123, -32, 25, -7, -76, -63, 63, -127,
   -65, -16, -33, -96, -84, 99, -64, -40,
   -59, 44, 98, 85, 45, -30, 21, 56,
   -127, -78, 38, -79, -4, 123, -101, -2,
   -127, -126, -32, 95, -93, -127, -17, -128,
   65, -77, -112, -96, -48, -71, 100, -128,
   -35, 124, -103, -126, 91, -65, -117, -56,
   68, 98, -81, 127, 26, 31, -82, 12,
   -80, 83, -10, -78, 127, 53, -77, -8,
   -59, -62, 40, -25, -128, 45, 0, 25,
   -17, 2, 123, -87, 59, -29, 125, 127,
   67, 9, -105, -45, -52, 2, 6, 48,
   45, -21, -8, 39, 21, 48, -2, 15,
   -46, 50, 45, -47, -54, 108, 127, -37,
   -19, -42, 63, 0, 118, 58, -11, 90,
   -73, 48, -47, 65, -23, -31, -104, -29,
   116, 96, 117, 13, 126, -41, -6, 127,
   -125, 127, 14, -71, -43, 21, -59, 97,
   13, -56, 44, -126, 69, -32, -19, -128,
   -23, -127, 6, -36, -67, 126, -47, -54,
   69, 126, -126, -115, -7, 6, -48, 84,
   -113, 34, -62, 79, -102, 54, -77, -98,
   -40, 83, -94, 114, 121, -80, 127, 101,
   79, -72, -65, -34, -68, -6, -15, 8,
   67, 4, 5, 53, 9, 19, -33, -112,
   65, -2, 48, -1, -100, -73, 31, -43,
   -46, -123, -127, -43, -106, 11, -17, -71,
   -36, -59, 36, 7, -48, -126, 9, 6,
   -43, 26, -80, 7, 127, -14, 81, -116,
   -46, -72, 40, -128, 32, -108, -80, 37,
   -43, -35, -128, 49, 1, -128, 104, 127,
   -40, -125, 69, -24, 23, 108, -74, -55,
   -72, -59, -61, -2, -28, 10, 98, -36,
   42, 15, 28, -26, -50, 59, -24, 58,
   -41, 0, 5, -59, 18, 29, -97, -126,
   -71, -114, 102, -55, -118, 114, -64, 127,
   -58, 125, -34, -3, 29, -35, -41, -115,
   125, 127, -60, -50, 112, 54, -43, -65,
   -90, -22, -30, -17, -127, 30, -31, -4,
   -127, 1, -52, 101, -125, 108, -15, -79,
   43, 47, -126, 126, 72, 23, 99, 127,
   -127, -38, -55, -46, -104, 27, -51, -12,
   -35, -126, -21, -128, -123, -76, 41, -127,
   127, -10, 124, -18, -90, -8, -34, -84,
   -6, 73, -82, 53, -91, -34, -100, -75,
   -111, 57, 41, -127, -24, -127, -93, -38,
   3, -84, -128, -19, 2, -3, 127, 120,
   115, 6, -71, -25, 48, -24, 20, -42,
   -25, 44, 59, 81, 41, 56, 127, 18,
   -128, -6, 79, 28, -126, -26, -31, 27,
   -11, 64, -69, -77, 54, -101, 101, 72,
   -58, -85, -45, -59, 107, 127, -128, 60,
   46, -127, 19, -72, -103, 37, -128, 127,
   127, -26, 47, 20, 20, -39, 52, 125,
   -68, -57, 4, -13, 47, 40, 113, -59,
   121, -1, -79, -41, 13, -127, 0, -124,
   -34, -16, 68, 21, 38, 125, -96, -13,
   -30, -127, 42, 89, -73, 33, 93, 22,
   -112, -125, 10, 127, -71, -28, -29, -27,
   -66, 68, 127, 76, -49, -124, 40, -127,
   16, -89, -22, -79, -115, -83, -54, -98,
   25, -78, 17, -109, 104, -83, 90, -28,
   -46, 45, -128, 79, -88, -16, -61, -12,
   -30, 127, 33, -114, -72, -7, 89, -69,
   5, 4, -128, -20, -6, -38, -80, 82,
   -126, -25, 28, 7, 24, -98, -7, -95,
   -86, -8, -3, -52, -22, -9, -68, 7,
   -29, 85, 127, 58, -44, -11, -12, 127,
   -87, -48, -23, -23, 126, -109, 91, 4,
   67, 95, -61, -7, -23, -65, 59, -63,
   -14, 42, 53, -23, 30, 22, -67, -118,
   -97, 27, -103, -20, -73, -8, 9, 127,
   22, -36, -101, -14, -62, -51, -73, -1,
   77, -52, -23, 127, -124, -20, -2, -41,
   6, 3, -27, 30, -2, 58, 15, -52,
   123, -5, 127, -128, 104, -87, -125, -57,
   -127, -126, -12, 127, -42, -124, -40, -56,
   -80, 38, 37, 127, -12, -63, -128, -128,
   85, 15, -74, -23, -109, -46, -104, -124,
   -15, 33, -72, 126, 74, -115, 96, -23,
   -101, -31, -127, 101, -18, -76, -116, -127,
   -7, 117, -126, 46, 86, 90, 51, 8,
   60, -127, 52, 20, -71, 67, -53, 79,
   12, 91, -62, -5, -34, -10, -127, 108,
   -89, -19, 14, 98, 89, -82, 72, -124,
   -13, 86, 112, 124, 48, 0, 38, -64,
   -39, -50, -12, 16, 63, -44, 77, -1,
   124, -59, -2, -78, 124, 73, -39, 6,
   1, -27, 20, 117, -117, -81, -5, -33,
   45, 43, -50, 120, -63, -68, 127, 127,
   -70, 122, 20, 80, -4, -64, -3, 16,
   -92, -95, 124, 98, 23, 127, 49, 11,
   -17, 127, 72, -41, 105, -4, 92, 119,
   101, -39, -63, 83, 73, -1, -28, 78,
   5, 120, 109, 52, -65, -21, -118, -87,
   58, 34, 0, 29, 115, 13, 30, -90,
   -44, -36, -128, 39, -62, 114, 112, -105,
   9, 127, 124, -33, 97, -10, -117, -66,
   0, 105, -128, 61, 17, -14, -35, -86,
   101, 81, 66, -22, 1, 120, -57, 36,
   -71, -53, -62, -62, 38, 120, -113, 122,
   -4, -45, 86, 122, 127, 81, -19, 42,
   -6, 34, 43, -10, 124, -128, 102, 36,
   -20, 125, 127, 32, 106, 10, -126, 98,
   -36, -64, -127, -92, 33, -127, -30, -99,
   23, -77, 42, -45, 118, -28, -62, -2,
   111, 116, -82, -36, -6, -52, 27, 54,
   -31, -47, 3, 68, -127, -78, -11, 102,
   -74, 106, 73, -94, 14, -127, -4, 105,
   -35, 124, 33, -51, 109, 40, 127, 77,
   81, 97, 65, -64, 33, 126, -64, 59,
   21, 52, 19, 127, -9, -28, 39, 125,
   -27, -19, -33, 20, 96, 127, -19, 41,
   -74, 31, -17, 5, -89, -38, 41, -127,
   -122, -45, -128, 39, 17, 21, 124, -88,
   -25, -7, 127, -109, -123, 85, -28, 25,
   -121, -1, -125, -69, 28, -58, -112, -104,
   -23, -83, -15, -61, 5, 127, -11, 81,
   63, 99, -88, 20, 93, 27, 17, -74,
   119, 125, 56, 44, 89, 20, -94, 0,
   55, -2, 127, 124, 6, -126, -101, 62,
   12, -34, 126, -121, 126, 127, -70, -127,
   -106, 10, -117, -18, 127, -128, 127, 11,
   93, -126, -20, -97, -122, 118, 123, -40,
   127, 18, 68, -86, 61, 1, 5, -71,
   12, -57, -32, 123, 19, -61, -108, 12,
   -18, 93, 85, -81, -119, -105, 26, 126,
   -100, 89, 89, -127, 115, -101, -31, -44,
   -127, 102, 81, -78, -127, -110, -38, 127,
   -20, -41, -103, 91, -71, 116, -47, 79,
   -109, 34, -66, -74, 53, -65, -7, 111,
   -14, 37, -94, 127, -128, 3, -88, -128,
   -54, -110, -128, -5, -121, -106, 109, -123,
   7, 102, 127, -46, 115, -62, -50, 90,
   -33, -51, 85, -56, 7, 125, -36, -123,
   59, -23, 31, 4, 75, -64, -82, 52,
   -11, 92, 75, 54, 29, -42, 61, 103,
   -16, 116, -19, -28, 126, -44, -90, -107,
   -4, 106, -1, 8, 119, -4, 63, 16,
   -104, 57, -37, 90, 127, -119, -127, -122,
   127, -128, -60, -5, -13, -52, -48, -69,
   127, -39, -102, -109, -24, -76, -107, 16,
   118, -20, 27, -39, 18, -63, -63, 113,
   -11, -127, -30, -75, 19, 7, 111, 82,
   -10, 31, 106, 52, 31, 4, 28, -34,
   -33, 9, -6, -109, 51, -117, -19, -72,
   60, 85, 127, -76, -123, 14, -56, 97,
   127, 8, 115, 32, -5, -64, 31, 1,
   -127, 70, 115, -31, 67, 10, 26, -28,
   -3, 56, -127, 127, -127, 64, 123, -128,
   -37, -12, 62, 35, 22, 75, 127, -128,
   -114, -17, -9, -46, 64, 72, 119, -26,
   -127, 105, -34, 15, 32, 23, -85, -85,
   14, 127, 30, 21, 103, 122, 98, -78,
   127, -127, -98, 126, -6, -27, -103, -72,
   102, -31, -77, -56, 126, 124, 58, -56,
   38, -33, 12, -82, -17, -125, 75, -20,
   13, 65, 113, 127, -2, 10, -30, -120,
   85, 36, -102, -65, 26, 86, 115, 24,
   71, -5, -125, -127, -24, 70, 123, -35,
   127, -10, 28, -10, -125, -126, -70, 48,
   127, 70, 15, 79, 62, 127, -29, 127,
   102, 35, 2, -123, -66, -99, 11, 80,
   64, -128, -104, -101, -40, -30, 111, -109,
   61, -124, 121, 122, -7, 123, 60, 116,
   56, 126, -71, -43, 11, 85, -2, 44,
   11, -117, -32, -123, 69, -11, 81, -62,
   -65, -84, -111, 52, -106, 65, -29, -128,
   -102, -43, 33, -63, -44, 38, -127, 5,
   19, 25, -91, -27, -83, 92, -6, 9,
   -79, 52, -55, -64, -98, -117, -64, -126,
   33, -126, -41, -99, 70, 125, -69, -3,
   69, -58, -53, 19, 20, -121, -99, -84,
   80, -73, -30, 10, 10, 113, 38, -91,
   25, -67, 58, -78, -46, -33, -126, 0,
   47, -98, -37, -15, 127, -38, -44, 8,
   -15, 13, -1, -24, 18, 5, -33, 21,
   6, -42, -58, -123, 27, -17, -26, 10,
   47, 100, 41, 43, -21, -24, 59, 77,
   30, 16, -39, 126, 19, -128, 30, 111,
   121, -101, 64, -7, -77, -127, 52, -91,
   82, 114, 76, -38, -121, 12, -125, 10,
   32, 37, 91, 117, 10, 30, -43, 64,
   127, 122, 36, 51, -118, 8, -127, 19,
   0, -127, -109, -50, 40, -38, 107, -12,
   -12, 25, -122, 102, -121, 98, -74, 52,
   22, -125, -115, -120, -54, -75, -114, -99,
   26, 40, -2, 81, -127, 64, 85, -5,
   -12, 8, -118, -56, -8, 127, -92, 45,
   -26, -85, -25, 48, 22, -11, -43, 77,
   14, 1, -2, -36, 33, 25, 38, 41,
   -22, -90, -80, -20, -29, 77, 48, -67,
   41, 20, -21, 60, 0, -26, -125, 2,
   -47, -127, -92, -77, 127, -55, 4, 120,
   113, -128, 21, -75, -86, 127, -104, -80,
   127, -128, 94, -38, 67, 111, -56, -82,
   127, 106, 82, -94, -87, 72, -54, 76,
   53, -24, 18, -122, -126, -49, 10, 116,
   -58, 113, 114, -77, 119, 76, -91, -102,
   -13, 76, -103, -69, -123, -30, -72, -23,
   -19, -92, -39, -102, -128, 124, -80, 85,
   2, -69, 16, 58, 50, 104, -126, -117,
   117, 19, -124, -50, 52, -126, 92, 112,
   -63, 57, 21, -60, 51, 106, 127, 91,
   -51, -44, -42, 47, -55, -34, 127, 59,
   -125, -46, -18, 123, -113, 93, 126, 115,
   -89, 59, -63, 37, -127, 71, -88, 124,
   -29, 61, -116, -67, 4, -42, 68, 115,
   14, 124, -22, 113, 117, -8, 56, -114,
   -91, 70, -128, -56, -74, 85, 65, 30,
   -21, 125, 75, 77, -9, 115, 21, -57,
   -65, -127, -97, 32, -100, 14, 78, 87,
   15, -14, -126, -109, 89, -48, 127, 127,
   29, -49, 127, 27, 106, 64, -45, 105,
   127, 95, 125, -84, 8, -36, -1, -121,
   127, -108, -116, 127, 127, 121, 20, 127,
   -108, 84, 126, 75, -71, -50, 107, -124,
   43, 50, -21, -22, -72, -67, -112, 17,
   23, -55, -112, 112, 41, -6, -102, -19,
   -32, 116, -127, -104, -50, 77, 56, 124,
   69, 85, 80, -127, 23, -60, -7, 127,
   -37, 60, -97, 14, -115, -57, 30, -66,
   90, -81, -7, 85, 112, -3, 99, 70,
   127, 20, -24, -69, 127, -69, 97, 126,
   -15, -11, 127, -68, -23, -14, 3, -121,
   109, 113, -70, -97, 83, -128, -28, 23,
   -97, -128, -5, -31, -128, -103, -70, 37,
   44, -65, -49, -69, 36, -127, 26, 126,
   -46, 50, -54, 72, -19, 127, 125, -39,
   -15, 127, 126, 28, -94, -33, 119, 16,
   -30, 33, 36, -102, -96, -83, -86, -90,
   30, 55, -106, -39, -69, -106, -31, -64,
   -71, -127, -75, 45, -119, -44, 99, 122,
   -127, 73, -34, 5, 100, 56, -43, 127,
   127, -123, -54, -2, -110, -128, 66, 127,
   -127, 56, -25, -33, 14, -30, -26, 60,
   45, -24, -98, 19, 19, 20, -67, -55,
   5, -44, 85, -19, -41, -17, 123, 40,
   -47, 54, -5, 47, -12, 3, -25, 45,
   -75, 3, -69, 53, 3, -69, 47, 2,
   -53, 38, -10, 33, 28, -9, -20, -78,
   -42, 28, 59, 15, -17, -55, 127, 5,
   13, -41, 6, -49, -34, 36, 67, 89,
   12, 71, -12, 32, -6, -27, -43, 19,
   10, 48, 59, -24, -81, -15, 20, -28,
   -10, 23, 79, 40, 37, -83, -36, -18,
   -94, -23, 94, 60, 55, -17, 127, 3,
   10, -30, 56, 20, 33, 115, -85, -28,
   103, 83, 47, 16, 21, 80, 22, -7,
   -95, 31, -35, 48, -74, 28, -37, 8,
   -49, -74, -17, 16, -16, 72, 73, -61,
   14, 14, -65, 49, 32, -3, -23, 61,
   -18, 102, -65, 1, 14, -35, 50, 19,
   -96, 23, 24, -58, 47, -1, -25, 16,
   -24, -90, -124, 43, 21, -78, -20, -45,
   15, -84, 29, -66, 31, -8, 63, 8,
   -44, -12, -34, -8, -5, 2, 26, 95,
   7, -48, -45, 11, 47, -71, 2, 29,
   49, -49, 84, -39, -32, -1, 127, -127,
   52, -122, 74, 19, 105, -49, 127, -16,
   48, -127, 11, -65, 60, 19, 51, 38,
   -85, 126, 6, -23, -67, 64, -55, -126,
   63, -58, 7, 61, -37, 106, -25, -66,
   -4, -95, 127, -42, 122, -61, 4, -32,
   83, -7, -73, -107, -2, -1, 87, 1,
   64, -55, -38, 27, -29, 30, 127, 39,
   -8, 16, 56, 6, -10, 126, -13, -17,
   -46, 20, -38, -42, 26, 108, -127, -9,
   27, -19, -25, 16, -5, 44, 70, -49,
   38, 8, 14, -4, 64, -48, -127, 52,
   7, -61, 35, 43, -7, 22, 60, -71,
   89, -4, -33, -2, 51, 30, 36, -51,
   2, 20, -112, 4, -30, -3, 80, 83,
   -115, -39, 20, -63, 83, -94, 15, -25,
   -26, 118, -127, 121, 46, 55, 20, -10,
   -33, 100, 6, 18, -37, 60, -10, 12,
   49, -18, -50, -76, 12, -63, 55, 124,
   52, -44, 37, 22, 115, 127, -57, 127,
   36, 62, -36, 32, -65, 125, 125, -80,
   88, -45, 27, 51, 62, -65, 113, 20,
   -13, 11, -13, -57, -61, -105, -9, 126,
   13, 5, -66, -15, 34, 127, 14, -11,
   4, 65, 44, -27, 3, 77, -125, -121,
   28, -44, -10, -98, -11, -128, 20, 66,
   -1, -2, 55, -3, 27, 42, -55, 26,
   127, -19, 48, -52, -33, 22, -17, -17,
   7, -59, 15, 48, 55, 6, -75, 27,
   -62, 26, -5, 21, -13, 27, -45, -4,
   -7, -124, 11, 3, 55, -106, -14, -32,
   43, 119, -75, 84, -104, 46, 8, 44,
   7, 114, -122, -128, -120, 25, 63, 18,
   -44, 63, -12, 81, 52, 39, 42, 11,
   -14, 125, 50, 109, -65, -64, -5, -58,
   80, 77, 109, -68, 56, 88, 9, 74,
   -125, -23, 13, 74, -22, -79, -8, -64,
   2, 52, -20, 40, 57, 116, 106, -37,
   -78, 125, -125, 1, -30, 114, 40, -82,
   -78, 4, -17, -51, 108, -124, 97, 75,
   54, -48, -42, 80, 3, 5, -65, -2,
   -83, -22, -127, 25, -15, -50, 30, -82,
   -127, 33, -6, 83, -109, -114, -127, -125,
   -35, -83, -79, -128, -3, 49, -27, 123,
   3, 90, 27, 60, -102, -7, 8, -39,
   -54, 56, 21, -24, -8, -70, 112, 74,
   73, -116, -13, 68, -121, 38, -126, -102,
   -17, 43, -123, 125, -54, 33, 127, 126,
   -13, -1, -19, 112, -47, -29, -20, -46,
   30, -31, 36, -56, -126, 75, -128, 127,
   49, 78, -25, -21, -58, 0, 8, -36,
   18, 127, -41, -35, 117, 87, -52, -99,
   -11, 125, -115, 123, -25, -2, 79, -47,
   46, 46, -124, 29, 98, 126, -21, 21,
   -94, 13, 21, -120, -7, -127, -89, 13,
   -14, -26, -46, -73, 16, 64, -42, 15,
   81, 83, 47, -7, -63, 117, -44, -71,
   -123, -25, -65, -2, 52, -128, 68, -50,
   -109, -12, -77, 30, 8, 23, -19, 75,
   127, -24, -128, -6, -14, -12, 15, -123,
   6, 21, -6, 106, 123, 37, -128, 74,
   35, 8, -1, 16, 17, 127, 18, 1,
   -20, 53, 87, 48, 7, -77, -15, -35,
   -57, 74, -51, -94, -10, 35, -106, -4,
   -33, -61, 54, 38, -98, -94, 60, 127,
   20, -44, -30, -62, -92, -31, -17, -101,
   44, -60, 64, 106, 57, 81, -42, -72,
   -57, 3, -69, -65, 69, -5, -9, -30,
   110, -42, -61, 24, -90, -5, -31, -16,
   -62, -93, -41, -36, -87, 112, 32, -3,
   -128, -19, -34, 123, -44, -40, 124, -36,
   124, 0, -125, -64, 29, 117, 127, -26,
   -113, -5, 69, 3, 7, -14, -81, 55,
   -19, 48, -80, 74, 6, -50, 93, -38,
   -54, -52, -128, -49, 55, 91, -88, 64,
   127, -49, 34, 45, 42, -60, 112, 125,
   48, -48, 9, -54, 47, -5, 102, -112,
   -94, 25, -7, 54, -35, 38, -19, -81,
   -35, 109, 30, -63, -99, 43, -124, 80,
   49, 43, -41, -28, -24, 97, -27, 48,
   20, -7, 52, -68, 50, 26, -7, 33,
   36, -73, 66, 79, 5, -109, 126, 84,
   41, 127, -65, 45, -2, 72, 121, 0,
   -41, 26, 14, 74, -12, -78, -114, 127,
   -49, 7, 126, 3, -74, 124, -94, 117,
   14, -46, 45, -28, 65, -47, 13, 47,
   48, -9, -5, 54, 1, -58, -39, 68,
   -16, 14, -61, -18, 2, 110, 28, -53,
   52, 26, 67, 57, -19, -78, -6, -7,
   -2, -25, -89, -15, 17, 122, -47, 12,
   -32, -1, -24, -95, -48, 55, -59, -5,
   6, -29, 8, 23, -17, -57, 55, 71,
   24, -22, 126, 27, 39, -17, -32, 70,
   21, -127, -39, -7, 101, 2, 46, 54,
   -20, -116, -40, -24, -127, -24, 33, 22,
   -58, 40, 31, -65, -10, -124, 20, 123,
   125, -49, 25, -58, -17, -22, -66, 17,
   -63, -11, 8, -1, -79, -124, 114, 23,
   27, 11, -1, 26, -1, -29, 11, 19,
   -63, -19, -64, 48, 64, 46, -21, -20,
   49, 79, 56, -5, -95, 10, 9, -19,
   -37, 58, -86, -19, 53, 10, 76, 32,
   -109, -64, -10, -37, 10, -28, -70, 42,
   -62, 38, 118, -13, -20, -6, -21, 37,
   -32, -39, 127, -11, -26, -57, -16, -123,
   -27, -5, 54, -29, -84, 30, 0, -49,
   58, 37, 54, -57, 35, -98, 77, 78,
   -58, -107, -119, -51, 70, -83, -45, -14,
   42, -39, 79, -35, -20, 56, 11, -12,
   23, -29, -26, 32, 1, -18, 29, -119,
   114, -62, -19, -22, 1, -55, -36, 127,
   64, 1, -62, 3, 40, -48, -57, 54,
   -26, -19, 77, 22, -51, 6, 61, 27,
   101, -128, -33, -48, 14, 36, 77, -18,
   103, 125, -13, 53, 95, 2, -19, -104,
   111, 48, 7, 62, -65, -7, -77, -34,
   35, 24, -31, -20, 32, 42, -40, -68,
   114, 69, 64, 72, -49, 50, -6, -61,
   127, 101, 2, -102, 114, 73, -24, -37,
   70, 53, -50, 41, -74, 39, -82, -18,
   45, 115, 124, 84, -5, 21, -32, -76,
   -40, 43, -128, -21, 51, -52, 10, 20,
   11, -60, 74, -2, 127, -56, -56, -20,
   -19, -32, -59, 70, -101, 65, -18, -5,
   7, 48, 122, 80, -14, -5, -73, 45,
   -7, 51, -10, 19, -10, -126, 64, -64,
   72, -127, 9, -62, 6, 75, -26, -63,
   -45, 74, -5, -100, 32, 115, -65, 3,
   -59, 54, 22, -41, -17, -3, 18, 90,
   8, 125, 37, -67, 8, -53, -1, -82,
   16, 71, -3, 68, 115, 35, 38, 85,
   -15, 4, 95, 56, -39, -24, 17, 11,
   -115, 26, 12, 24, 31, -63, -127, -105,
   120, 51, 3, -19, 119, 82, 32, 115,
   22, -55, 50, 39, 27, 127, -98, -34,
   -83, 50, -20, -112, -15, 114, -15, -78,
   94, -127, 0, 78, 0, -12, -30, 3,
   -14, -33, 81, -14, 53, -14, 118, 15,
   35, 113, -110, 14, 40, -9, -10, 33,
   33, -40, 55, -16, 2, -76, -28, -4,
   7, 67, 42, -96, -49, -87, 30, -54,
   96, -72, 26, 40, -16, 122, -2, 13,
   10, -15, -100, 82, -50, -50, -30, 19,
   21, 35, -27, 59, 43, 30, -73, -17,
   50, 42, 52, -43, 24, -95, 58, 8,
   -23, 84, -45, -20, 0, 71, 114, 10,
   73, -122, 106, 34, -2, 15, -15, 35,
   127, 47, -68, 31, -119, -10, 27, 36,
   -65, 4, 11, -47, -58, -122, 98, -19,
   -40, -79, -18, 2, 88, -18, -15, -42,
   -64, -66, -55, 35, -113, -53, -87, 28,
   -127, -95, -28, -70, 107, 42, -3, -52,
   -34, -63, 18, 85, -8, 69, -48, -75,
   20, 51, 123, 22, 13, 13, -21, 36,
   42, -109, 42, 23, 10, 4, -48, -12,
   -53, 24, 90, -26, 77, -105, -17, -9,
   -24, -55, 57, 13, -89, -88, -39, 41,
   -122, 45, -20, -63, 81, 30, -58, 98,
   34, 70, -33, 5, 62, -79, 83, 87,
   86, -97, 66, -73, 6, -52, -111, -65,
   54, -62, -63, -5, 102, -1, -49, -37,
   44, -39, -20, 63, 2, 78, 65, -44,
   -82, -19, -15, 43, 18, -38, 127, -124,
   81, 49, 88, -41, -54, -13, 122, -7,
   87, -43, 125, -65, 5, 22, -52, -35,
   27, 113, 67, 1, 127, -89, -65, -82,
   54, 49, -68, 34, 49, 68, -14, 102,
   -8, -75, 64, 13, 63, 86, 34, 114,
   80, -33, -25, 15, -35, -64, -95, -118,
   -22, -98, 73, -50, -28, 56, -46, -112,
   -49, 2, 71, -101, -20, -27, -51, 64,
   -2, -18, 60, 66, -77, 127, -27, 13,
   -41, 31, 8, -75, 81, -52, -49, -97,
   -84, 8, 72, -3, -99, -111, -41, -14,
   91, -36, -6, 122, 26, -122, -67, 46,
   -79, 5, -69, 31, 73, 44, 3, -13,
   40, 78, -57, -87, 102, -27, -39, 125,
   4, 52, -31, 105, -115, -32, 113, -24,
   72, 10, -127, 51, 68, -60, -30, 11,
   -119, 41, 113, 14, 36, -102, 38, -86,
   38, 20, -97, -25, 70, 45, -6, -54,
   -9, -27, -112, -23, 42, -11, 113, -9,
   -39, -20, -111, -55, -27, 76, 42, -103,
   -36, 52, -10, -89, -52, -115, 104, 46,
   -126, -91, -73, -96, -63, 34, 127, 109,
   -6, -67, -37, 31, -9, -54, 34, -68,
   -41, 116, -5, 120, 34, -70, 54, -6,
   -71, -74, -124, -69, 38, 126, 5, 123,
   85, 92, 127, 64, 21, -4, -62, 56,
   -60, -10, 4, 10, 57, 111, 45, 19,
   -2, -9, -46, 121, 64, 105, -2, -105,
   127, -30, -39, -39, 68, -58, 108, 127,
   -88, -33, 108, 64, -23, -7, -43, -7,
   -97, -63, -52, -69, -72, -51, 1, -65,
   93, -128, -77, -47, 46, -119, 6, -100,
   -6, -105, -41, -128, -4, -17, -125, -33,
   6, 40, -10, -127, -46, -105, -37, -52,
   22, 18, 76, -70, -33, -82, -46, 83,
   127, 42, -70, -19, -22, -99, 5, 66,
   10, -20, 58, 94, -19, 122, 112, -50,
   127, 105, 125, 122, 15, 27, 127, 126,
   -24, -127, -67, -27, 116, -27, 103, -9,
   -53, -72, 64, 120, 61, -122, -34, 9,
   12, 50, -100, 90, -122, 40, -44, 127,
   13, -29, 74, -55, 94, 71, 39, -57,
   126, -54, 98, -126, 77, 37, -67, -65,
   -27, 121, -106, 12, 41, -21, -127, 125,
   9, -127, -6, 127, -25, -81, 16, -92,
   52, 30, 41, 127, 26, -123, 126, -45,
   -19, -15, 21, 78, 9, -32, -65, -67,
   85, -9, 97, -10, 39, -12, 14, -115,
   30, -59, -43, -3, 73, -39, 41, 11,
   87, 8, -91, -6, 123, -107, -3, -121,
   127, -127, -102, -107, -38, -90, -21, 26,
   75, 44, 60, -124, -69, -82, 47, -109,
   -24, -62, 118, -104, -23, 34, -25, 64,
   73, 3, 82, 13, 30, 7, -2, 118,
   -24, 39, -18, 90, 126, 125, 112, -11,
   119, 43, 113, 108, 8, -68, 112, 127,
   7, -52, -33, 30, 103, -53, 126, -12,
   35, -61, -100, 88, 38, -80, -60, 52,
   -56, 6, 45, 113, -39, 21, -58, 127,
   80, -26, 76, 15, -74, 2, 23, 60,
   103, 53, 42, -31, -61, 52, 62, -81,
   -60, 122, 59, 78, 0, -57, 6, 69,
   -63, -27, -20, 127, 29, -125, 36, 30,
   -59, -1, -8, 127, -49, -57, 99, 62,
   11, 31, -2, 127, 49, 5, 26, 34,
   80, -46, -86, 77, -70, 77, 2, 34,
   45, 67, -70, 37, 110, 63, -46, 126,
   61, 127, 25, 120, 23, -90, -7, 93,
   -44, -65, 37, -79, -38, -65, 22, -17,
   38, 67, 126, 127, -35, -26, 19, 5,
   -39, -48, 17, 75, 75, 29, -37, 37,
   -82, -126, 16, -32, 34, -13, -11, 122,
   -46, -20, -84, -127, 127, 79, -70, 70,
   -74, -125, 27, 18, -116, -127, 80, 36,
   -29, 59, 58, -29, 8, 0, 117, 5,
   -57, 22, -121, 3, -21, 75, -83, -48,
   -51, -95, 11, -6, 70, -16, -93, -14,
   56, -45, -84, 106, 3, -90, -85, 76,
   26, 7, -61, 109, -72, -65, 58, -111,
   -51, 76, 9, -112, -44, -34, 88, -19,
   55, 127, 25, 29, 35, -26, 110, 121,
   -127, -82, -55, -74, -35, 54, -128, -108,
   1, 93, -28, 125, 89, 40, 21, 33,
   -4, 1, -24, 127, 12, 25, -32, -20,
   42, 59, -59, -7, 92, -29, -87, 78,
   52, 123, 30, 75, -45, -9, 110, 92,
   -112, 35, 20, -126, -22, -127, -85, -27,
   -98, 12, -95, 100, -76, 70, -58, -52,
   -55, -102, 49, 22, 58, -23, -127, -2,
   42, -10, 74, -127, 42, -18, -40, 123,
   60, 100, -55, -26, 53, -43, -8, -24,
   -54, -20, 9, 4, 19, -41, -61, 116,
   -57, -15, 73, -12, -32, 41, -60, 76,
   -42, -66, 4, 48, 15, 90, -100, 108,
   50, -49, -21, -45, -45, -30, 12, -92,
   73, -48, 7, 3, 35, 17, -82, 42,
   -13, -27, 91, 40, -81, -45, -94, -60,
   -33, 30, -81, -22, -88, 117, -51, 22,
   -36, 127, -52, -16, 10, 105, 27, 8,
   7, 42, 103, -82, 0, -6, 21, 62,
   4, 44, -92, 20, 71, 21, 126, -5,
   -14, 95, 44, 20, 75, 86, 67, -31,
   50, 57, -72, -69, -14, -73, -10, -53,
   90, -26, -125, 60, 30, 40, 59, -26,
   48, -127, -43, -29, -127, -61, 15, 48,
   33, -38, 28, -2, 10, 46, -120, -108,
   -58, -7, -114, -12, -26, -22, 14, -59,
   5, -32, -4, -62, -50, 0, -47, 80,
   -30, 89, 63, 98, -10, -36, -15, -43,
   -37, -58, -56, 66, -91, -26, -44, 127,
   -98, -43, 40, 127, -24, 57, 3, 35,
   -35, 8, -88, 33, 101, 40, -22, 91,
   68, -61, 8, 23, -42, -71, 7, -122,
   43, -6, 72, -116, -39, -33, -35, 105,
   -49, 36, 47, 35, 23, -122, -52, 6,
   -38, 87, 11, -29, 17, 23, 17, 39,
   -25, 27, 1, -46, 70, 24, 44, 50,
   14, -19, 67, -74, -35, 81, 17, 42,
   -41, -110, 42, 51, 100, -36, -6, 15,
   6, -56, 2, -71, -27, 38, 95, -49,
   47, 5, -42, -92, -21, 6, 57, -29,
   -26, -68, -115, 115, -126, 41, -110, 20,
   -74, -44, 22, 8, -61, 75, -35, -38,
   -62, 35, 78, 29, -50, -45, -123, -76,
   56, 2, 15, 120, 12, 8, -122, -62,
   63, -121, -95, 27, -1, -88, -49, 20,
   -33, 126, 118, -80, 39, 62, -35, -85,
   95, -55, -109, -58, -85, 16, -58, -1,
   -124, 119, 3, 40, -7, 121, -2, -49,
   -114, 38, -126, 113, -2, 36, -17, -21,
   26, -40, 11, 60, -7, -106, 28, 51,
   32, 1, -30, -120, -123, 125, -79, 94,
   -34, 127, 97, 77, -75, -64, 91, -78,
   -72, 81, 31, 13, 47, -67, -27, 126,
   -53, 125, 108, -20, 33, -77, 50, 90,
   2, 101, 41, -39, 59, -6, -10, 5,
   -125, 15, -45, 0, 44, -72, -1, -17,
   -117, -14, -9, -79, 44, 112, 28, 2,
   -27, -2, -10, 107, 43, -20, -123, 45,
   0, -48, 60, -25, -68, -16, 0, 121,
   69, 80, 45, 86, 115, -9, 63, -43,
   73, 27, -7, -40, -11, 27, 46, 8,
   19, 31, 55, 96, -46, 9, 24, 15,
   -115, -64, -28, -50, -39, -44, 26, -11,
   11, 90, -41, -127, 32, -6, 7, 95,
   -27, 42, -53, 19, -12, 70, 34, -89,
   -24, 25, 12, 113, 29, 71, 8, 27,
   103, 1, 2, 63, -16, 67, -2, 34,
   7, 53, -14, -3, 77, -48, 21, -42,
   12, 23, 83, 11, 54, 56, -11, 53,
   21, 31, -9, -23, -66, -16, 2, -29,
   -31, 74, -3, -15, -6, 63, 11, -127,
   -1, 49, 26, 14, 93, 7, 30, -44,
   3, 7, 43, -15, -50, -66, -22, -18,
   -34, -88, -125, 34, -38, 9, -28, -2,
   -22, 15, -68, 50, 6, 0, -28, -71,
   -36, -5, -17, -51, -29, 6, -90, -69,
   18, 41, 21, -16, 36, 13, -75, -50,
   16, 7, -14, 21, 62, -63, -3, -12,
   7, 50, -2, 49, 37, -67, -24, 34,
   35, -41, 48, 30, -72, -118, -20, 25,
   15, -44, 55, 102, 22, 2, -55, 72,
   -31, -80, -50, -10, 12, 14, 3, -11,
   -47, -17, 26, -71, -35, -11, 65, -13,
   17, -67, 38, -61, -24, 12, -71, 65,
   7, -60, -44, -49, 19, -8, -51, -50,
   -45, 12, 27, -24, 10, -35, 31, -17,
   10, 30, -52, 41, 4, 8, -2, 15,
   -14, -30, 26, -15, -70, -10, -96, -66,
   21, -19, -17, 40, -125, 4, 30, -15,
   50, 8, -1, -60, -36, -18, 47, 9,
   24, 29, -68, -10, 10, -7, -42, 84,
   34, -10, 45, 32, 43, -26, -26, 0,
   -124, 11, 97, -14, 59, -36, 5, -90
};

static const rnn_weight noise_gru_recurrent_weights[6912] = {
   -26, -18, -10, 70, 11, -2, -69, -34,
   93, -62, -3, 23, -12, -9, -16, 62,
   -5, -66, 15, -76, 124, -18, -75, -25,
   56, -13, 70, -5, -25, -96, -29, -27,
   -9, 20, 3, -56, 68, 101, 60, 4,
   -33, -27, 85, -21, 26, 96, -51, 108,
   -9, 26, -45, 96, 0, -20, -13, -41,
   -37, 34, 7, 20, -45, -36, -41, 67,
   2, 83, 46, -43, -4, -77, 11, 19,
   38, -86, 12, 37, 5, 1, -32, -23,
   -26, -64, 33, 126, 18, 23, 41, 47,
   -95, 20, -42, 7, -33, -10, 57, -97,
   -61, 4, -5, -58, 41, 68, -38, 40,
   -116, 37, -17, 10, 120, 8, -34, -9,
   -119, 49, -28, -40, 14, 57, -68, -122,
   17, -14, -13, 17, -11, -100, 25, -42,
   -65, -106, -63, 10, -34, 15, 2, -61,
   28, -79, -5, -42, 6, 56, 13, -128,
   -114, -83, -16, -64, -34, 33, -52, 77,
   42, -7, 50, 35, 45, -6, 90, -71,
   -46, -62, 106, -17, 33, -6, 26, 33,
   2, -8, -57, 21, 10, 2, 42, -27,
   90, -45, 28, 28, 1, 31, -31, 72,
   -68, -41, 27, -2, 69, -40, 1, 2,
   50, 25, 9, 48, 67, -36, 35, 14,
   -30, -45, -53, -38, 59, -63, 105, -95,
   -59, -45, -51, -35, -76, -43, -75, 76,
   12, 30, 0, 51, -44, -27, 48, -15,
   -122, -23, 76, -36, 7, 15, -14, 13,
   -26, -4, 9, -51, 21, 6, 62, -34,
   -52, 21, 31, 16, 28, -12, -43, -44,
   -40, -51, -34, -3, -48, -43, -109, -42,
   11, 36, -8, -73, 35, -13, -17, 8,
   -14, -7, 20, -45, 0, 38, -40, 59,
   -127, -15, -6, -51, 2, 28, -20, 0,
   59, -66, 37, 2, -2, 20, 45, -1,
   46, -29, 9, -5, 15, -17, 47, -2,
   31, 22, -6, -16, 24, 21, -29, -38,
   -73, 0, 27, 34, 48, 22, 10, -45,
   19, 77, -37, -15, -71, 94, 4, -76,
   55, -27, -1, -52, 33, 11, -22, -15,
   -13, 40, 37, -27, 125, -50, -20, 4,
   -22, 41, -47, -13, 109, 52, 124, -46,
   67, 8, -24, 1, -10, 41, 16, 30,
   17, 37, 5, 25, 32, -15, -60, -6,
   34, 18, 0, -30, -3, -6, 33, 38,
   9, -26, 100, 63, 10, -61, -63, 42,
   1, 3, -55, -11, -10, 80, 59, 71,
   -14, -43, 47, -83, 60, -37, -51, 4,
   -13, 20, -67, 44, 71, 36, -5, 28,
   16, -2, -12, -41, 23, 61, -59, -23,
   -14, -61, 25, -42, -74, -45, -43, 8,
   -24, -64, 24, -14, -27, -53, -36, 39,
   27, -17, -106, -15, -11, -69, -10, -126,
   42, -71, 27, -27, 5, -56, -18, 27,
   30, 13, 59, 8, 75, 0, 1, 8,
   53, -24, 44, -23, -22, 52, -73, -40,
   23, 57, 124, -64, -54, -1, -23, 78,
   39, -19, 57, -34, -14, 37, 42, 10,
   -43, -11, 30, -24, 18, 13, 127, -41,
   -8, 62, -29, 9, 98, 18, -42, -58,
   -11, -38, -7, -37, -6, 28, 23, 33,
   81, 85, 9, 0, -52, 69, 40, -109,
   70, 60, 3, 64, -8, 46, 29, -16,
   32, -57, -2, 15, 22, -10, -71, 81,
   -23, -26, -31, 17, 42, 40, 77, 80,
   17, -52, -7, -8, 0, -16, -17, -126,
   -37, -40, -38, 38, -51, -41, -76, -8,
   -6, -9, -51, 53, -29, 52, 19, -116,
   54, 73, 2, 35, -21, 33, 44, -61,
   49, -42, 32, -26, -19, 45, -19, 65,
   -69, 15, -19, -67, 16, -35, -1, -37,
   -8, 45, -52, 39, 2, -38, 3, -4,
   96, 48, -56, -55, 34, 42, -19, 34,
   -29, -90, 116, -61, -18, -39, 20, 30,
   36, -20, 3, 2, 127, -35, -126, 34,
   7, -42, 90, 40, 7, 58, 97, 46,
   -11, 15, -29, -21, -9, -23, 16, -39,
   -62, -47, -7, 6, -47, 12, -19, 7,
   -32, 7, -15, 1, 33, 127, -12, 12,
   -23, -5, -45, -48, 10, -19, -15, 0,
   5, -17, -30, -48, 14, 65, -4, -68,
   -69, 27, -16, 16, 0, 17, -19, 37,
   -22, -18, -26, -114, 74, -13, 20, -12,
   -11, 84, 8, -23, -55, -16, 57, 37,
   -53, 7, 67, 23, 4, -29, -58, 5,
   111, 2, 58, -12, -3, -40, 20, 27,
   7, -115, -29, -29, -100, 26, 21, -8,
   -24, 29, -81, -26, 29, 3, 66, -37,
   40, -19, -60, -47, 23, 17, -44, 15,
   -22, -49, 42, 40, 39, 5, 2, 92,
   126, -11, 8, 11, -57, -30, 41, -32,
   -46, 2, 35, -30, 81, 9, -94, -5,
   82, 12, 36, 4, -30, -54, 16, -31,
   -53, -4, -11, -92, -16, 13, 70, -67,
   27, -28, 123, 5, 108, 95, 41, 79,
   3, 45, -22, 22, 14, 6, 12, 56,
   10, -14, -27, 94, 110, -5, -20, 16,
   36, 2, 30, -70, 23, -43, 60, 60,
   -1, -61, -65, 23, 4, 27, 14, -92,
   62, -39, -18, 23, -43, -13, -53, 26,
   -15, -32, -8, 123, 27, -78, 24, 55,
   55, -38, 39, 47, 7, 28, -63, -11,
   -28, 62, 39, 72, -66, -50, 22, 49,
   -4, -36, 48, 43, 20, -43, -18, 2,
   76, -6, -96, 60, -59, -37, -23, 29,
   24, 76, 9, 15, 32, -8, -6, -36,
   44, 48, -13, 16, -16, -64, -36, -35,
   33, 49, -72, 2, -47, -89, 77, -33,
   -21, -94, 7, -127, -53, 85, 21, 22,
   -7, -43, 54, -110, -30, 34, -72, 30,
   45, -29, 94, -35, -1, 34, 15, 23,
   -70, 2, 27, 113, 35, 49, -21, -90,
   103, -27, -12, 86, 37, -9, -12, 19,
   23, -103, -10, 126, 16, 24, -6, 107,
   48, -37, -63, 40, -18, -91, 6, 90,
   106, -47, -21, 85, -19, 56, -2, -24,
   39, -23, 87, 35, 14, 28, -46, -6,
   51, -10, -44, 113, 15, -36, -7, -78,
   66, 18, 49, -27, -25, -12, 72, -56,
   2, -44, 19, 27, -36, -5, -18, 39,
   -78, -40, -34, -29, -47, 13, 41, 42,
   11, 39, -19, 79, -65, 26, -29, -23,
   42, 64, -49, 33, -4, -12, 4, -8,
   -118, -53, -75, -40, -36, -22, -36, 85,
   38, 17, 75, -33, 15, 62, -38, 40,
   73, -5, 0, -71, 10, -127, -11, 15,
   22, -1, -49, -36, 39, -50, 12, 35,
   56, -51, 125, -31, -66, -3, 45, -11,
   53, -11, 16, -19, -29, -37, 49, -13,
   10, 79, -63, 75, 75, 127, -24, 12,
   47, 8, -10, 48, 57, -61, 31, 18,
   -1, -60, -18, 6, -36, 48, -45, 33,
   66, -33, 4, 61, -29, -28, 43, 11,
   -48, 37, 45, 59, -6, -62, 64, 85,
   -47, 65, -25, -43, 34, 28, -109, 17,
   -22, 17, -60, 47, -42, -89, 36, 1,
   -9, -52, 75, -8, 1, -38, 64, 25,
   -26, -43, 86, -34, 7, -6, 14, 37,
   35, 39, -74, -34, 30, -69, 5, 36,
   -100, 15, 24, -72, 18, 36, 7, 74,
   -16, -16, 21, 4, 116, 17, 63, 6,
   -29, 29, -20, -32, 76, -30, 24, -64,
   53, -10, -6, -61, 62, -73, 92, -128,
   1, -56, 24, -61, 15, 2, 6, 24,
   20, 86, 13, 19, 57, 44, -1, 64,
   0, 71, -30, 48, 32, 78, 117, 49,
   -13, -70, 56, -29, 63, 49, -105, 36,
   39, 18, 27, 58, 68, 19, 61, -2,
   -91, 61, 125, 12, 80, 11, 24, -28,
   -21, -19, 71, -44, -19, -9, 26, -8,
   9, 24, 17, -85, 9, 43, 25, -32,
   -32, -18, 16, 69, -17, 18, -5, 38,
   -9, 57, -5, -18, -34, -28, 48, -83,
   11, -58, -52, 93, -60, -24, 120, 55,
   -21, 52, -2, 8, 13, 23, -36, -96,
   -33, 37, -37, -105, -46, 33, 81, -2,
   -13, -23, 84, 18, -4, -38, -30, 81,
   11, -7, 18, -1, -17, 53, -112, 63,
   9, 53, -72, 4, 21, -74, 17, 94,
   -33, -9, 25, 23, 15, 2, -75, 35,
   -23, -36, -1, -114, 26, -19, -3, 76,
   -13, 31, -65, -50, 4, 6, -79, 67,
   122, 13, 29, -24, -38, 16, 28, -27,
   -52, 5, -18, 14, 83, -10, 4, 82,
   -25, -52, -1, 22, -28, -34, -100, 3,
   77, 11, 12, -77, -80, 41, 28, 28,
   32, -10, 116, -9, 36, 40, 21, -61,
   -33, 64, 41, -24, 43, -55, 4, -2,
   44, 1, -37, -12, -10, -4, -21, 42,
   14, 12, -39, 40, -31, -22, -73, 58,
   -4, 44, -33, 31, 28, 48, 29, 67,
   8, -21, 6, -6, -12, 23, 54, -46,
   27, 23, -13, 20, -38, -17, 87, 117,
   -61, 38, 10, -20, -99, 32, -125, 12,
   40, 59, 90, -16, 0, 27, 22, 28,
   57, 39, 5, 6, 29, 51, 25, -37,
   -42, 6, -9, 20, -51, -19, 31, 39,
   14, 44, -41, 37, 66, 73, -6, 1,
   -22, 15, -49, 22, 34, -51, -29, -31,
   83, 18, -118, -29, -20, 14, -21, 65,
   70, -47, 11, 31, -73, 50, 25, 13,
   43, -33, 97, 39, 44, -66, -42, -20,
   25, -19, 81, 5, -3, 3, 58, 7,
   -49, -29, 106, -21, 51, 67, -36, -5,
   -39, 55, 66, -15, 70, -31, 99, -7,
   -84, 15, -9, 36, 12, -33, 54, 3,
   27, 10, -18, -67, -63, 13, -21, 57,
   3, 12, -59, 57, 28, 24, 11, 39,
   10, -28, -80, 49, 7, 39, -66, -65,
   -45, -8, -16, -2, 46, -98, -37, 5,
   -2, 50, -6, 14, 42, 25, 8, -7,
   -14, 33, 114, 62, 26, -35, 80, 60,
   59, 7, -26, 2, 12, 21, -21, 45,
   -19, -53, 99, 12, 37, -10, -77, 53,
   -29, -1, -27, 46, -61, -4, -20, 15,
   48, 20, -72, 82, 33, -10, -9, -117,
   3, 5, -2, 26, 21, -5, -61, -37,
   67, -50, 0, -22, 78, 7, 57, 2,
   127, -13, -4, 47, 36, 4, -40, -1,
   9, 8, -93, 30, -90, -40, -52, -2,
   58, -5, 9, -21, -46, -64, 108, 13,
   -1, 4, 86, -3, -37, 17, -16, -8,
   -17, 21, 55, -55, 29, 49, 84, -18,
   2, 15, 5, 89, -45, -30, 11, 42,
   118, -36, 1, -29, -18, 37, -11, 15,
   15, -18, -42, -21, -28, -38, 12, 48,
   59, -1, -47, -55, 57, -5, -12, 11,
   2, -20, -44, 0, 11, -95, -27, -62,
   57, 76, 53, -74, -4, -5, 82, 79,
   -31, -24, -3, 45, -46, -10, 11, -80,
   -35, 23, -39, 33, -7, -23, -14, 38,
   -21, -72, -76, -30, 27, -13, 60, -7,
   10, -29, -37, 62, 36, -4, -30, 18,
   -39, -11, 40, -20, 32, -66, -20, -21,
   8, 17, -25, -12, -19, -5, -34, -16,
   71, 30, 53, -55, -20, -7, -63, -124,
   15, -56, 14, 45, 18, 28, -58, 47,
   -1, -4, 124, -92, -69, 1, 15, 30,
   21, -17, 20, 84, -28, -13, -42, 22,
   37, 44, -127, -2, 46, 28, 19, -22,
   -74, 25, -101, -39, 48, -46, -31, -35,
   -12, 35, 9, -30, 9, -4, -14, 68,
   -26, 19, -6, 81, 34, -53, 22, -20,
   -77, -41, 7, -3, -12, 11, -5, -22,
   -126, 1, -1, 19, 38, 126, -19, -40,
   3, 30, -47, 95, 33, -20, -33, 98,
   -49, -40, 68, -40, 87, -30, -46, -5,
   -94, 75, 20, -2, 3, 38, 80, 58,
   46, -45, 18, 17, 5, 38, 35, -25,
   -57, 4, 91, 20, 14, -84, -48, 52,
   6, -65, 59, 1, -6, 39, 18, -26,
   -46, 54, 9, -59, -2, 26, 2, -11,
   21, 6, -80, -16, 81, -67, -21, 86,
   -86, -68, 22, -28, -4, 26, -61, 57,
   -25, -45, 41, -19, -57, 12, 12, -67,
   -43, 26, 48, -17, 0, 11, -42, 43,
   -31, -22, -8, 1, -40, -21, 61, -87,
   38, 17, -18, -72, -32, -13, -6, -38,
   56, -16, 34, 39, 48, 66, -71, -45,
   41, 16, -2, 31, 9, -3, 73, -6,
   -42, -30, -53, 1, 7, 49, 16, -96,
   -31, -40, 70, 64, 47, 59, -27, -14,
   42, 97, 29, 34, 42, -11, 28, 20,
   56, -107, -14, 1, 6, 27, -28, 32,
   0, 51, -17, 50, 44, -28, 55, -4,
   -8, -10, 40, -18, 26, 7, 47, 37,
   -10, -24, 40, -71, 119, 60, -33, 23,
   -35, 30, 44, -32, 39, 84, 34, -35,
   69, 19, 16, 14, -28, 7, 44, 22,
   29, -79, 13, -29, 11, -16, 55, 8,
   20, -34, -75, -86, 32, 15, -6, -37,
   -22, -64, -81, -5, 100, -7, -78, 53,
   108, -5, 0, -25, -9, -19, 3, -60,
   -39, -30, -8, 45, -11, -15, -9, 44,
   -55, -51, 48, -28, -63, -56, -19, 31,
   29, -18, 90, 12, 20, -1, 71, -7,
   -13, -3, 3, -15, 80, -73, 37, -34,
   3, -41, 10, 85, 18, -7, 10, 80,
   -3, 43, -6, -10, -66, -39, -45, 11,
   -2, -47, 115, -32, 16, 1, -3, 38,
   73, -23, -29, -45, 18, -34, -46, -113,
   34, -26, -29, -53, 32, 33, -25, 8,
   1, 3, 47, -63, -13, 1, -8, 20,
   23, 16, 17, -21, -30, 52, 43, 1,
   -74, 17, -35, -60, -44, 33, -37, 51,
   70, -30, 15, -5, 63, -107, -43, 6,
   -18, -69, -70, 35, 32, -27, -22, 4,
   -45, 11, -23, 42, -24, 51, -41, -40,
   -42, -8, -8, 14, -29, -54, -43, -4,
   8, -25, -105, -10, 24, 17, -72, 11,
   25, 2, 7, -3, -58, 9, 46, 53,
   15, 35, 65, 67, -55, -69, -116, -16,
   22, 75, -16, 7, -52, 43, 42, 38,
   -29, 2, -26, -22, -67, 44, -34, -12,
   -53, 59, 77, -17, 31, -13, 61, 18,
   44, 22, 36, 127, 22, -1, 40, -80,
   4, 7, -99, 44, -119, -96, -11, 6,
   45, -44, -17, -37, -29, 6, 51, 3,
   55, 3, -69, -74, 127, -82, -19, 68,
   -13, -43, -20, 22, -64, 7, 22, -10,
   -4, 38, 17, -31, -11, 63, 52, -78,
   78, 13, -5, -9, 78, -39, -2, -54,
   7, 72, -34, 27, -75, -82, -60, 35,
   18, -95, 13, 113, 3, -128, 12, 8,
   -51, 22, -114, -15, 33, 25, 21, -38,
   -27, -3, 58, -41, 12, -66, 16, 18,
   14, 28, -89, 50, -36, 50, -52, -71,
   -52, -76, -6, -21, -34, 46, 4, 11,
   -2, 4, 8, -41, 19, -98, 31, 51,
   -19, 1, 25, -4, 73, 55, 25, -31,
   17, -26, 55, -45, -54, 10, -95, -30,
   86, -41, -39, -28, 45, 27, 11, 36,
   10, -30, 69, 41, -51, 20, -26, -26,
   66, -35, 39, 44, 17, -34, 43, 34,
   -63, 9, -31, 18, 40, -53, 30, -94,
   -13, 12, -25, -25, 9, 14, -82, 73,
   25, -31, 20, -45, 27, -84, 7, -32,
   -69, -102, 43, 41, -38, -7, -16, 62,
   5, -10, -89, 9, -58, -15, 81, -62,
   25, -18, -52, 7, -6, -11, -118, -87,
   -11, -26, 34, -88, -39, -15, 6, 32,
   -3, 52, -2, 34, 19, -47, -74, -19,
   32, 11, -55, 10, -126, -85, -27, -14,
   -61, 67, -18, -20, -56, 92, -29, 37,
   -18, -3, 21, -32, -21, 9, -57, 77,
   -18, -127, -69, 22, 19, -65, 2, 85,
   -21, -28, 28, 6, -30, -10, 5, 17,
   -62, 1, 9, -75, 22, -85, 63, -51,
   -55, -2, 26, -76, 56, 12, 68, -59,
   17, -10, 80, -32, 11, 14, -30, 13,
   -3, 44, -68, 44, 23, 15, 47, -43,
   -51, 56, -46, 14, -13, 56, 20, 24,
   74, -21, 3, -4, -24, -22, -34, 6,
   -35, -30, 47, 31, 36, 38, -18, 25,
   -3, 54, -25, -9, -58, 23, 55, -39,
   -34, 34, -7, -69, 17, -17, -22, -34,
   -38, 79, -33, -14, 28, 27, 16, 20,
   -22, 127, -36, 20, -36, 5, 25, 19,
   21, 37, -24, 27, 22, -12, -23, -99,
   -12, 56, 5, 8, 61, 3, -38, -83,
   -57, -58, -18, -30, -74, -38, -26, -23,
   -50, -43, -42, -45, -42, 25, 71, 47,
   -50, 66, -5, 24, 38, -34, -20, -48,
   -12, 36, -3, -80, -70, 30, -8, 48,
   28, -4, 51, 93, -41, 37, 45, 11,
   99, 43, 79, 33, 127, 100, 1, 60,
   1, -11, -4, 16, 33, -11, -23, 65,
   57, -35, 14, -48, -89, 90, -22, -12,
