/*
 * SUITE: somnolent-hogwash-2018-09-01
 *
 * INTENT:
 *
 * Speech in a reasonable recording environment. Fans, AC, computers, etc. Note
 * that "speech" means speech, not other human sounds; laughter, coughing, etc are
 * not included.
 *
 *
 * SIGNAL:
 *
 * voice
 *     hamlet-002-act-1-scene-1.1626
 *         http://etc.usf.edu/lit2go/94/hamlet/1626/
 *     human_rights_un_chi_nf.mp3
 *         https://librivox.org/universal-declaration-of-human-rights-by-united-nations-volume-02/
 *     human_rights_un_cze_msed.mp3
 *         https://librivox.org/universal-declaration-of-human-rights-by-united-nations-volume-02/
 *     huntingofthesnark_01_carrol_128kb
 *         https://librivox.org/the-hunting-of-the-snark-by-lewis-carroll-3/
 *     teacupclub_01_armstrong_128kb
 *         https://librivox.org/the-teacup-club-by-eliza-armstrong/
 *     warletters_01_allan_128kb.mp3
 *         https://librivox.org/war-letters-from-a-young-queenslander-by-robert-marshall-allen/
 *     TSPspeech
 *         http://www-mmsp.ece.mcgill.ca/Documents/Data/
 *
 *
 * ./chopper voice/hamlet-002-act-1-scene-1.1626.raw voice/human_rights_un_chi_nf.raw voice/human_rights_un_cze_msed.raw voice/huntingofthesnark_01_carrol_128kb.raw voice/teacupclub_01_armstrong_128kb.raw voice/warletters_01_allan_128kb.raw voice/TSPspeech.raw
 *
 *
 * NOISE:
 *
 * rnnoise_contributions (only "other" and "none" samples)
 *     https://people.xiph.org/~jm/demo/rnnoise/rnnoise_contributions.tar.gz
 *
 *
 * COUNT: 13212874 (x87)
 *
 * NOTE: All files processed into correct raws through ffmpeg: ffmpeg -i in -f s16le -ac 1 -ar 48000 out.raw
 */

/*This file is automatically generated from a Keras model*/

#ifdef HAVE_CONFIG_H
#include "config.h"
#endif

#include "rnn.h"
#include "rnn_data.h"

static const rnn_weight input_dense_weights[1008] = {
   -16, 13, 24, 36, -17, 5, 8, 55,
   19, 3, 36, -72, 41, 11, 7, 1,
   57, -16, 0, -16, 7, 9, 7, -13,
   -28, 17, 9, -39, -10, -4, 26, 23,
   11, -16, -13, -58, 58, -17, -7, 3,
   28, -32, 60, 35, -26, 6, 13, -11,
   -15, 2, 68, -19, -40, 25, -44, -5,
   26, 10, 22, -54, 22, -18, 0, 7,
   40, 31, 18, 49, -32, -53, 22, -45,
   -50, 8, 50, -68, -10, -52, 54, -37,
   -30, 61, 40, 12, -33, -27, 5, 47,
   -28, -40, -17, 13, -17, -71, -44, 25,
   61, 20, -8, 29, -8, -55, -54, 38,
   -6, 0, 66, -23, -9, -6, 21, 34,
   0, -46, 22, -48, 25, -26, -81, -32,
   -13, 38, -15, 10, 8, 28, 59, 66,
   6, -65, -2, -20, -68, -27, -2, 16,
   8, 27, 26, -10, 33, 31, -30, 9,
   114, -87, 1, -12, 80, -19, -66, 86,
   1, 6, -91, 81, -51, -85, 72, 4,
   117, -121, -125, -125, -17, 121, 56, 99,
   65, -3, -4, 99, 123, 54, 127, 64,
   -32, -1, -53, -86, 52, -65, 72, 115,
   33, -53, 11, -40, -3, 94, 19, 126,
   127, -122, 9, 52, 127, 100, -60, 51,
   36, 2, -128, 73, -68, -69, 29, -4,
   106, -115, -126, -52, 29, 127, 29, 52,
   -64, 96, -115, -13, 126, -47, -29, 40,
   -59, -35, -59, 0, -114, 63, 18, 48,
   123, -121, -48, -87, -4, 30, -125, 66,
   30, 73, -117, 37, 70, -95, -121, -23,
   110, 110, 13, -97, -18, 58, -31, -30,
   53, -53, -69, -6, -5, 17, 46, 8,
   63, -119, -44, -107, 122, 94, 40, 14,
   -112, -77, -66, 85, -128, -126, 48, 32,
   121, -48, 50, 7, -27, 13, 9, 3,
   -112, 127, -86, 62, -51, 121, -127, -114,
   127, 88, -8, -53, 50, -10, -63, -39,
   127, 61, -20, -29, -69, 69, 83, 43,
   -124, 87, -7, 104, 51, 62, 8, 81,
   127, 21, 126, 125, 106, -41, -37, -124,
   58, 39, 1, 126, -10, -47, 53, -24,
   24, -23, -13, -23, -1, 51, -23, 9,
   127, 89, -125, -125, 127, 127, -79, 12,
   -20, 83, 1, 19, 51, 27, -51, 19,
   51, -23, -3, -39, -27, 126, 3, -30,
   99, 35, 122, -9, -109, 71, 9, 40,
   116, 90, -20, -118, 109, 32, 71, 48,
   -128, 56, 125, 57, 29, -107, -120, 23,
   127, 65, -121, 80, 94, 89, -23, -124,
   81, 36, 8, 113, 80, 124, -78, 25,
   -110, -54, 66, -8, -30, 127, 25, 122,
   -11, 55, 127, -8, 111, 99, 75, 13,
   92, 22, 73, -24, 34, -122, -123, -57,
   -47, -118, 17, 61, -6, 48, -55, -1,
   127, 108, 78, 6, -28, -32, 60, -111,
   107, -75, 1, 113, -45, 123, -11, -39,
   33, 27, 90, 77, 13, 67, -6, 90,
   -20, -15, 100, 114, 120, 114, 124, -97,
   -126, -72, 1, -128, -126, -35, -89, 117,
   6, -103, -24, 30, -21, -5, -56, 76,
   104, -11, -34, 46, -98, 52, 43, -88,
   39, 41, 114, -69, -9, 17, -32, -88,
   -119, 127, 127, 114, 98, 111, -16, 8,
   117, -9, 122, 4, 126, -97, -34, -128,
   50, -97, 41, 61, -71, 127, -54, 5,
   -71, 31, 21, -54, 15, 96, 39, 9,
   -27, 121, 8, -89, 80, 127, 125, 115,
   -128, -58, 39, 18, 127, -56, 47, -78,
   -26, 26, 119, 95, -120, -128, -6, -128,
   122, -20, -125, -80, -37, -86, -6, 43,
   -97, -101, 124, 89, 87, 102, 125, -128,
   -118, -26, 85, 114, -101, 127, -31, -48,
   -5, 91, -66, -67, 7, -86, 96, 9,
   -76, 8, 82, -47, -108, 18, 126, -128,
   -117, 117, -77, -20, -23, 81, 41, -9,
   -28, 127, 127, -115, 127, 101, 86, 117,
   2, -106, -32, 12, 58, -52, -79, 3,
   31, 46, 119, 96, -45, -101, -70, -54,
   108, 4, -45, -49, 57, -128, 86, 55,
   -105, -126, 120, 71, -57, 73, -20, -118,
   -109, -21, -74, -34, -18, 127, -2, -70,
   -13, 27, -21, 45, -70, -96, 17, 97,
   37, 32, 3, 102, -124, 3, -25, -21,
   39, 65, -2, -109, -19, 58, -60, -97,
   2, 127, 100, -52, 119, 38, 46, 32,
   3, -91, 12, 12, 87, -47, 25, -58,
   -64, 4, 80, 9, -4, -36, -20, -12,
   40, -11, 4, 31, 51, 124, 61, 57,
   -36, 54, 54, 78, -46, -46, 24, -49,
   -10, -1, 3, -65, 1, 9, -59, 110,
   -50, 14, 73, -33, -113, 15, 17, -47,
   -64, 3, 27, -37, 7, 57, 17, -78,
   -14, -71, 94, 50, 13, -50, 82, 21,
   -84, 77, 39, 110, 78, 20, 46, 36,
   -71, -18, 19, 75, -20, 47, 9, 0,
   120, 86, -48, -69, 29, -6, -69, -5,
   -5, 23, 32, -81, -116, 34, 3, 121,
   -48, 64, 31, 35, 25, -63, 11, -37,
   -6, -58, 118, -70, 59, -6, -75, 11,
   -3, -29, -37, 55, 99, 8, -20, 81,
   -31, 68, -31, 43, -74, 60, -27, 1,
   58, 118, -127, -114, -116, 123, -13, 7,
   21, 127, 27, -121, -14, -54, -128, 98,
   -53, 127, 126, 30, 118, -57, 124, -116,
   42, 127, -128, -114, -117, 123, 23, 58,
   70, 127, 3, -119, -119, 25, -128, 127,
   -82, 127, 64, -122, 120, -31, 126, -116,
   -64, 124, -111, -102, -112, -33, 26, 77,
   31, 42, -42, -82, -50, 114, 90, 117,
   -44, 127, 71, -128, 50, -71, 3, 82,
   -63, 9, 46, 118, 64, -59, -82, 39,
   106, -113, 11, 107, 59, 84, -17, -18,
   -36, 61, 37, 97, -51, 22, -127, -50,
   -77, 83, -6, -35, -77, 124, 73, 75,
   89, 74, -49, -29, 54, 99, -10, -39,
   -39, 9, 34, 58, -23, -55, -30, -81,
   -99, -25, 43, -123, 127, 0, 124, 123,
   78, -81, 43, 19, 46, 11, 119, 43,
   119, -16, 7, 49, -93, 8, -125, 127,
   -70, -15, 27, 73, -1, -31, -18, -9,
   -35, -46, -52, -34, 1, -33, 32, 20,
   -22, -46, -33, 91, 44, -42, -38, 56,
   -64, 61, -38, 28, 80, -19, -14, -55,
   39, -10, 65, 58, -25, 89, 4, 48,
   6, 58, -15, -61, 67, -128, -26, 49
};

static const rnn_weight input_dense_bias[24] = {
   -29, -110, -15, 27, -55, -124, 82, -100,
   -127, -1, -121, -32, -64, -2, -55, 104,
   -111, 27, -33, 42, 82, -34, 1, -82
};

static const DenseLayer input_dense = {
   input_dense_bias,
   input_dense_weights,
   42, 24, ACTIVATION_TANH
};

static const rnn_weight vad_gru_weights[1728] = {
   6, 91, -48, -46, 101, -56, -50, -13,
   -33, -73, -123, 79, -128, -75, 28, -6,
   19, 68, 116, -16, -30, -108, -80, 65,
   -42, -41, -58, 66, -36, 51, 48, 60,
   35, -99, -44, 6, -86, -65, -61, 14,
   -44, 58, 16, -37, -14, 18, 35, 0,
   -41, 18, -5, 11, -35, 11, 8, 29,
   -29, -63, 6, 87, 75, -38, -13, -18,
   -40, -48, 60, 11, -26, -14, -30, -13,
   -89, -111, -56, 34, -42, 16, -85, 17,
   40, -60, 114, -121, -61, 68, 73, -5,
   106, -13, 24, -56, 71, 7, 50, -57,
   -13, -54, -59, -44, 42, 61, -119, -93,
   -28, -6, 16, -32, 34, -44, 49, 32,
   -50, 17, -62, 6, -52, -5, -13, 41,
   -16, 5, 18, -44, 89, 0, -50, 14,
   1, 62, -27, -68, -33, 14, -7, -22,
   8, -29, -54, -18, -27, 69, -49, -80,
   63, 30, 127, 26, -28, 63, 48, 127,
   -2, 28, 125, 29, 124, 119, -7, 106,
   -26, -123, 63, 37, 95, 48, 113, -6,
   7, 74, 127, 74, 51, 48, -78, -1,
   -33, -11, 125, -103, -10, -26, 78, -6,
   35, -60, -87, 105, -4, -38, -14, 64,
   -17, 33, -27, -21, 5, -53, 7, 14,
   37, 45, 13, -80, 2, -45, 8, -60,
   -9, -47, 67, -35, 69, 14, 29, 6,
   -75, -68, -92, 99, 4, -120, -63, -45,
   0, -5, -102, -30, 44, 0, -66, -13,
   -86, 12, 15, 78, 19, -85, -30, 61,
   -112, 19, -50, 46, -75, 27, 126, -2,
   52, 22, -71, 14, -31, 82, 30, -22,
   47, -65, 28, 106, -12, -10, 36, -4,
   -56, 46, -27, -27, -13, -4, -6, -35,
   -58, 2, 52, -3, -13, -47, -41, 11,
   -85, -44, 12, 24, 80, -27, -32, 8,
   125, -64, 90, 18, -60, -109, 126, -59,
   64, 72, -43, 49, 72, 127, 53, 83,
   90, 107, 127, 27, 77, 59, 123, -8,
   113, 12, 41, 97, 28, -41, 83, 70,
   -50, 57, -124, -62, 7, 32, 127, 2,
   35, 113, 121, -72, 72, 126, -104, -45,
   44, 92, -30, 111, -46, 62, 74, 7,
   -106, -126, -113, -17, -65, -113, -111, 111,
   -74, -80, 90, -10, 52, -115, 85, -4,
   92, 105, 7, 110, 127, 2, 69, 77,
   3, 1, 11, -75, -62, 37, 121, 115,
   48, 96, 24, 39, 42, 67, 67, 12,
   125, -34, 35, 7, 40, -54, -72, 10,
   44, 25, 35, -126, -36, -21, 59, 19,
   -44, -8, -45, -69, -1, -90, 64, -75,
   85, 70, 85, 51, 30, 10, 41, 78,
   -11, 21, 30, -45, 3, 14, 10, -26,
   14, 18, -67, -48, -76, 27, -20, -21,
   -9, -77, 2, 127, -76, 29, 26, -30,
   127, 5, 41, 121, 127, 31, -64, -39,
   4, -49, -121, 6, 69, -67, 5, -122,
   -100, -18, -117, -23, -26, 41, 4, -96,
   -81, 11, -9, -14, 106, -97, 65, -126,
   127, -20, 44, 8, -28, -40, -102, -56,
   30, -90, -90, 11, 5, -99, 1, 43,
   59, 5, 42, -39, -31, -17, 94, -1,
   18, 87, -24, -39, -19, 52, -73, -17,
   79, 4, -67, 2, -117, 10, -9, -14,
   -13, -25, 127, -71, -79, 29, -8, -90,
   26, 35, -24, -30, -3, 106, -6, -68,
   63, 9, 28, 5, 31, 35, -74, -75,
   16, 36, 39, -122, 11, 3, 43, 74,
   -26, 124, 45, -15, 42, 64, -18, -58,
   54, 41, -9, -40, -70, -1, -16, -33,
   -3, 38, -25, -71, -31, 34, 8, -51,
   48, -33, -6, -44, 25, -72, -6, 62,
   -36, -69, -84, 17, -56, -128, -109, -14,
   -60, -88, -52, -127, -125, 90, -7, -73,
   -84, -28, -77, 39, 28, 109, 117, -124,
   -72, -1, 43, 12, 44, -5, -44, -50,
   -6, 95, 69, -106, -6, -15, -14, 11,
   -32, -57, 53, 31, 12, -4, -35, -88,
   -2, 16, 38, 9, 74, 24, 24, 13,
   -24, 109, 42, 32, 25, 31, -22, -36,
   -57, -27, -1, -11, -3, -28, -23, 17,
   19, 60, 29, -44, 74, -86, 19, -50,
   -6, -92, 28, 27, -68, -31, 22, 125,
   6, -64, -20, -124, -97, -30, -75, -37,
   25, -105, -61, -35, 120, 21, 4, -41,
   -77, -75, 54, -9, -118, -35, -112, 58,
   -81, 91, 64, -122, -89, -70, 18, 62,
   105, -119, 102, 3, 119, -17, 2, 99,
   40, -21, -9, -51, 51, 58, 103, -87,
   -10, 116, -101, 8, -43, 125, -125, -72,
   -49, -64, -9, -6, -81, -65, 85, 56,
   -20, -19, 49, -108, -38, 33, 1, 11,
   -56, -9, 5, 55, 21, -9, 42, -87,
   42, -11, 68, -37, 37, -30, -118, -82,
   -4, 5, 9, -120, 0, 33, 11, 98,
   -71, -87, -79, -49, 15, 37, -70, 21,
   -30, -34, 1, -49, 1, -58, -3, -44,
   53, -11, 63, -27, -3, 0, 55, 37,
   58, 32, -14, -2, 36, 52, 0, 6,
   -74, 26, -8, 6, 95, 77, -39, -63,
   -3, -64, -126, 57, 53, 91, 27, 95,
   -15, 23, 57, -26, 60, 20, 87, 33,
   -26, -12, 59, -58, 55, -60, -18, 77,
   -51, -4, -77, 60, 41, 14, -5, -8,
   -18, -40, 56, 21, 42, -7, 18, -12,
   20, -44, -17, -44, -9, -6, 29, -30,
   76, -49, 76, 10, -39, 28, 33, 63,
   -66, -1, -23, 25, 63, -37, 86, 57,
   99, -23, -48, -49, -79, 3, 5, 1,
   58, -9, -1, -81, -74, 39, -2, -1,
   107, 58, 42, 62, -1, -42, -3, -45,
   -9, -15, -53, -68, 4, 28, 5, -68,
   -46, -41, 73, -101, 48, 51, 38, 72,
   -41, -97, -82, 20, 64, 44, 28, -56,
   25, -22, 42, -60, -7, -7, 79, -26,
   -36, 34, -35, -27, -26, 23, 53, 30,
   24, -47, 46, 30, 29, 44, 60, -19,
   57, 70, 10, 55, -63, -41, 9, -86,
   39, 19, -61, 29, 21, -43, 75, 117,
   43, 0, 106, -126, -31, 38, 81, 60,
   122, -38, 7, -96, 124, -46, -55, 79,
   -116, 4, -110, -15, 86, -64, 5, 124,
   -41, -120, -3, 114, -117, -34, -23, 123,
   108, -43, -38, -78, 82, -34, 61, 50,
   56, 10, 41, -25, 47, -28, 23, -65,
   82, -14, -85, 61, -43, 9, 53, -76,
   0, 108, 127, 40, 82, 120, 126, 126,
   -74, 1, -111, -73, 105, 121, 115, -8,
   120, 81, 127, 58, 127, 127, 127, 122,
   119, -29, 127, 56, 126, 127, 87, 104,
   17, -81, -31, -113, 119, -56, 121, -101,
   72, 28, -95, -102, 81, 115, 59, 126,
   91, -1, 77, 8, 80, 61, 33, 31,
   123, 19, 15, -99, 21, -113, 44, -127,
   -49, -106, 23, -19, 122, 16, 92, 0,
   -42, 110, 94, -120, -81, -102, -12, 94,
   -48, -3, -43, 121, 61, 5, -107, -86,
   -77, -122, 92, -40, -75, -2, 26, 14,
   -17, -76, -15, 117, 12, 30, 75, -102,
   -60, 4, -44, 8, 1, -39, 5, -127,
   -37, 93, 29, -52, -41, -35, -2, 58,
   -17, -9, -9, -18, 109, -92, -123, 64,
   72, -13, 116, 28, -16, 34, 74, -117,
   27, 44, -71, -33, -15, 91, -119, -104,
   -106, 77, -41, 16, 6, -44, -19, -88,
   0, 7, -14, -123, -126, 62, 64, -53,
   63, 87, 23, 51, 101, 87, 59, -55,
   -12, 9, -2, -86, 35, -13, 12, -21,
   76, 14, 28, -50, -111, 52, 50, -28,
   -56, 60, -1, -89, 68, 30, -31, -51,
   -19, -20, -38, 44, 19, 118, -2, -80,
   -49, 52, -41, 48, -10, -36, -87, -5,
   -99, -26, -32, 62, -71, -97, -13, 33,
   -15, 124, 44, 35, -45, 17, -127, -13,
   -95, 21, -3, 49, -42, -83, -103, 118,
   -125, -117, -109, -56, -83, -105, -116, 25,
   -17, -82, -56, -31, -13, -81, -108, 66,
   -60, 18, 11, 120, -123, -97, -70, 57,
   14, 95, -20, 79, -13, 10, 100, 24,
   -51, 21, -2, 39, 46, 2, -52, -14,
   -22, -23, 33, 3, 24, 1, -37, 35,
   53, 16, -74, 39, -72, -32, -28, -70,
   101, -6, -11, 49, 46, 60, -122, 78,
   -5, 32, -128, -50, -67, -42, 8, 82,
   78, 127, 64, -24, -48, 115, -5, -34,
   -105, -33, -22, 19, 14, 49, -4, -86,
   -5, -10, -8, -18, 126, -53, 113, -19,
   62, 0, -50, -18, -55, -96, -17, -62,
   46, -9, -34, 8, 82, -126, -63, -3,
   81, 37, 94, -22, 26, -33, 78, -5,
   77, 104, -37, -16, -125, 5, -9, -30,
   18, -56, 48, 33, 123, 77, -33, 127,
   -65, 1, -85, -59, 77, -5, 39, -17,
   73, -32, 7, -10, -12, -39, -68, 92,
   -45, -45, -3, 20, -83, -12, 49, 55,
   1, -36, -71, 127, -9, 62, -22, -25,
   55, 35, -53, 97, 115, 117, 56, 74,
   -35, -26, 38, 85, -81, -10, 27, -36,
   -57, -36, -23, -13, -79, 20, -63, 61,
   22, -70, -59, 17, 34, -29, 84, 4,
   77, -7, 34, -11, -40, -117, -37, -122,
   48, -12, -29, -1, 68, 72, -15, 46,
   -94, 53, 94, -128, -105, -53, -50, -51,
   53, 16, -9, 126, 93, -15, 114, 45,
   -48, -97, -121, 28, -41, -47, -42, 32,
   68, 26, 121, 19, -84, -18, -84, 55,
   -20, -25, 38, -54, 70, 54, -78, 62,
   11, 33, -45, -13, 24, 10, 115, -74,
   -62, 68, 15, -106, -8, -10, -126, -111,
   30, 33, -31, 123, 47, 81, 56, 10,
   94, -59, 127, -9, -58, 118, 126, 124,
   74, 127, 38, 80, 96, 123, 102, 124,
   29, 22, -40, 65, 86, 1, -91, 18,
   98, 56, 35, 39, 81, 73, 16, 23,
   11, 60, 17, -9, 100, 13, 52, -13,
   -59, -6, 60, 77, -85, 10, 46, -44,
   -4, 32, -123, 26, 47, 43, 8, 64,
   -71, -125, 43, -14, -35, -52, 63, -40,
   106, 9, -109, 62, 37, -14, -58, -57,
   29, -54, -122, -68, -126, -101, 66, 120,
   -28, 117, 47, -42, -59, 112, -99, 98,
   -91, -25, 52, -67, 51, -27, 73, 15,
   -29, 47, -117, 71, -39, 55, 25, 25,
   -124, -19, -32, 106, -127, -105, 102, -8,
   12, -87, 9, -66, 22, 17, -113, 113,
   49, 19, 2, -52, -21, -7, 116, 21,
   68, 126, -75, -66, -109, 34, -64, 26,
   -67, -113, 102, 10, -37, -56, 122, -115,
   7, 19, 101, 61, 106, 127, 18, -6,
   90, 32, 68, 84, 73, -38, 50, -60,
   105, 117, -14, 28, 42, -114, -53, 56,
   37, -31, 29, 9, 23, -89, -13, -123,
   25, -56, 119, -124, 124, 125, -62, 10,
   -15, 127, 14, 108, -32, -17, 54, -30,
   -47, 26, -52, 85, -49, -45, -126, 70,
   -121, -69, 87, 62, -30, -72, 32, -2
};

static const rnn_weight vad_gru_recurrent_weights[1728] = {
   94, 99, 3, 47, 75, 15, 26, 17,
   43, 21, -51, -43, 52, 50, 77, 116,
   83, -33, 5, -64, 4, 127, 51, -27,
   80, 30, -35, -21, 13, 27, -121, 66,
   3, -36, -30, -96, -13, -24, -49, 32,
   52, -14, 7, -91, 31, -72, -54, -34,
   72, -111, 21, -101, 106, 1, -97, 127,
   127, 86, 21, -88, -4, 21, 127, -85,
   115, 90, -72, -36, -73, 127, -104, -101,
   -25, -76, 38, -75, -32, -123, -75, -96,
   -103, -63, -64, 50, 87, -123, -47, -53,
   -108, -112, -5, -64, -57, -120, -126, -25,
   58, -50, 43, -56, -31, -59, 109, 10,
   18, -75, -25, -57, 50, -33, 11, -43,
   -31, 44, 49, 28, -42, -92, 48, -13,
   -17, 66, 20, 3, -56, -59, 17, 27,
   -15, 31, 45, 82, -8, 17, -1, -54,
   44, 10, 54, -74, 31, 0, 63, -38,
   -115, 127, 44, -83, -128, -123, -21, -87,
   -109, 127, -128, 110, 114, 61, -128, -91,
   -127, 37, 49, 1, -25, 106, 45, -125,
   36, 78, 21, 68, -39, 43, 17, 2,
   -27, -74, 10, 75, 35, -48, -4, 1,
   62, 26, -31, 85, -114, -119, -25, -21,
   4, 48, 5, -97, 53, -51, -93, -16,
   17, -109, -100, 66, 97, 73, 115, 45,
   91, 33, -18, -125, 22, 80, -121, -121,
   -49, -115, 68, -97, -27, -5, -83, -69,
   -89, -55, -20, 92, 67, -103, -84, -127,
   -98, -109, -72, -52, -107, -126, -22, -66,
   25, -2, 27, 53, 10, -22, -16, 24,
   40, -10, -117, 76, -47, -123, 0, -76,
   -30, 19, -3, -77, 52, -96, 47, -48,
   -92, 19, 118, 13, -116, -125, 18, -49,
   -70, 42, 22, 0, 20, 17, 15, 9,
   -11, -58, 4, -9, 51, -77, 75, 3,
   26, 125, -5, 61, -75, 52, 52, 51,
   16, 45, 71, 28, 26, 114, -20, 65,
   -37, -10, 36, -19, -39, 77, 35, -10,
   61, 93, -82, 42, -57, -14, -30, -8,
   13, 9, 13, -26, -9, -18, 35, -25,
   88, -1, 23, -39, 43, 37, 0, 28,
   18, -61, 26, -44, 83, 53, 15, 90,
   90, 118, 80, 44, -4, 26, 82, 26,
   47, 47, -30, -35, -2, 79, -55, -61,
   88, -13, -50, 94, 127, -25, -19, 76,
   -1, -53, -48, -128, -40, -107, 121, 96,
   103, 70, 42, -24, 65, 77, 58, 14,
   10, 21, -12, -27, 71, -26, -79, -51,
   -26, -49, 0, -5, -2, -52, 13, -53,
   -14, 63, -59, -89, -7, 13, 68, -41,
   -42, 75, -103, 71, -76, 76, 84, -20,
   -39, 15, -74, 120, -35, -10, -127, -38,
   -127, -74, -38, -8, 106, -46, 112, 64,
   127, -112, 126, -21, 127, -62, -126, 0,
   16, -113, 43, 29, 44, -125, 125, 12,
   -72, -32, 22, -22, 26, -94, -117, 25,
   120, -47, -4, 14, 10, -34, -53, 14,
   16, -104, 57, -11, -12, 23, 14, 112,
   -4, -53, -17, 67, 47, 104, -22, -10,
   -27, 99, -56, 51, -127, 114, -13, -82,
   -125, 76, 0, 29, -88, -117, -127, 90,
   -101, 8, -36, -18, 53, -99, -7, 52,
   22, 111, -86, 112, 38, -59, 103, 40,
   126, 14, -77, -21, -42, 61, 102, 81,
   -24, 95, 69, 124, 125, 118, 71, 18,
   -8, 40, -87, 83, 1, 5, 42, 64,
   -4, 63, -3, -128, -35, 17, 23, -45,
   15, 61, 36, -20, -30, 36, -16, 21,
   91, -127, -15, -102, 97, -50, 11, 86,
   119, -1, 90, -12, 38, -37, 122, -56,
   60, 20, -61, -60, -64, 55, -34, -82,
   -4, 127, -40, 116, 114, 99, 113, 122,
   54, 115, -51, -6, 29, 123, 116, 103,
   96, 76, 100, 82, 113, 127, 127, 85,
   34, 2, 31, -1, 14, 35, -9, 38,
   22, 88, 119, -15, 26, -37, 18, -50,
   75, -42, -96, -54, 14, -30, 17, -37,
   -4, -80, 112, -43, 79, 25, -16, 18,
   51, 50, 24, -13, 82, -101, 88, -18,
   29, -34, 16, 74, 13, 11, 7, 33,
   68, -8, -74, -101, -32, -93, -116, -87,
   6, -43, 127, -118, -124, 31, -7, -38,
   -28, -40, -104, -114, -125, -51, -66, -63,
   70, 6, 6, -12, 61, -78, -122, -93,
   -105, 26, 124, 31, -104, -87, -127, -20,
   42, -67, -20, -63, -24, -11, -44, -88,
   -30, -58, -20, 6, -42, 65, 8, -40,
   31, 86, -29, -62, -96, -35, -36, 46,
   83, 14, 17, 34, -25, 15, -26, 27,
   -122, -67, 7, 40, -96, -102, 74, -66,
   -128, 65, 84, 102, -21, 72, -126, -107,
   -77, -101, 32, 70, 84, 34, 116, -123,
   -61, 117, -65, -84, -15, 105, -1, 66,
   -19, 123, 73, -108, 69, 119, -19, -117,
   7, 44, 104, -60, 120, -93, 114, -3,
   -124, 17, -95, 42, -5, -24, -45, 29,
   -85, -22, 121, -76, -102, -111, -14, 126,
   16, 20, 122, 124, 78, -99, -19, 112,
   116, 58, 105, -31, 126, 106, -10, 77,
   74, -100, -103, -128, -28, 29, 124, 50,
   97, 27, -54, 49, 114, 58, 80, -52,
   -128, 40, 116, -91, -69, -15, 71, -114,
   98, -120, -1, -34, 122, 123, -10, -51,
   19, -56, -41, -29, -66, -62, 15, -46,
   127, -128, 22, -128, 127, -88, -126, 125,
   126, -36, 6, 114, 40, -128, 127, -53,
   117, 127, -126, -97, -126, 125, -48, -126,
   -128, 120, 105, -95, -128, -128, -16, -93,
   -120, 119, -123, 94, 108, 40, -128, -115,
   -127, 95, -27, 29, -27, 116, 106, -116,
   -33, 117, 16, -36, -111, 112, -69, -102,
   -28, 127, -27, 32, 16, -48, -93, -57,
   46, -76, -29, -39, -108, -37, -40, 58,
   57, 18, 111, -68, 127, -82, -108, 83,
   99, -87, 10, -26, 51, 87, 127, -51,
   127, 33, -84, -126, 24, 109, -102, -125,
   -127, 12, -51, 6, -126, -117, 98, 13,
   -34, -63, 113, 122, -64, 79, -116, -121,
   -63, -25, -13, 37, -2, -53, 87, 66,
   -20, -92, -36, 125, -38, 37, 96, 34,
   31, 45, -83, 23, -101, 99, 60, -8,
   48, -26, 22, -19, 49, -18, 127, 74,
   10, -2, 117, -7, 127, -92, -60, 8,
   95, 29, 29, -15, 120, 66, 115, -73,
   117, -9, -10, -27, -88, 37, -86, 25,
   85, 127, -66, 113, 11, 42, -19, 34,
   20, 37, 34, 36, -49, 30, 86, 86,
   -11, 9, 62, 60, 77, 101, 71, 20,
   3, 7, -2, 59, 32, -1, -18, 25,
   -74, 115, -14, -15, -3, 17, 12, 83,
   48, 58, 61, 83, 29, 2, -27, 41,
   -17, -3, 50, -107, -8, 67, -22, 75,
   43, 73, -79, -59, 67, -91, 7, 47,
   27, -96, -18, 8, -99, -31, 37, 43,
   -65, -92, 25, 63, -2, 123, 104, 16,
   -38, -4, -84, -16, 92, 54, 31, 62,
   121, 124, 42, -64, 58, 113, 126, 46,
   -65, 28, -49, -79, -65, -49, -7, -66,
   41, -18, -98, 52, 20, 41, 30, 23,
   -13, 14, -34, 100, -52, -78, 5, -36,
   -81, -85, -93, 67, -127, 44, 80, -94,
   -40, -24, -68, -118, -77, 12, 64, 94,
   126, -92, 38, 110, 90, -105, 114, 92,
   -83, 20, -36, 0, -108, 68, 65, -3,
   -34, 39, 86, 100, 18, 85, -113, -53,
   99, -17, 23, 1, -29, -36, -6, -8,
   30, 20, 11, 64, -27, -29, 14, 89,
   48, 18, -77, 47, 74, 107, -13, 81,
   35, 35, 32, 127, 89, 13, 63, 88,
   14, -16, 123, 21, 80, -49, -55, -36,
   59, -65, -86, -70, -24, -46, 44, -57,
   56, 11, -43, 30, -19, -23, -6, -8,
   100, 22, -83, 22, -56, 42, -126, -100,
   109, -19, -66, 15, -122, -31, 2, 97,
   38, 104, -61, -37, 41, 127, -82, -127,
   -61, 12, -110, 5, -8, -81, -9, 56,
   -51, 25, -65, -56, -32, 87, 16, 33,
   -8, 84, 26, 13, -3, -64, -37, -6,
   72, -119, 13, -49, 13, -127, -61, 79,
   86, 45, 115, -34, 34, 47, 113, 37,
   33, 48, -68, -7, -103, 112, -102, -9,
   60, -18, 125, -48, -46, -76, 112, -17,
   -11, 127, 122, 95, 122, -35, -108, -127,
   -100, -87, -76, -83, -69, -118, -23, 29,
   9, -43, 40, 83, -34, -59, 63, 52,
   -27, -59, -10, -60, 97, 31, -14, -45,
   7, -6, 43, 33, -5, 55, -93, -33,
   -117, 30, -24, 69, -48, -34, 83, -42,
   -68, 19, -70, 5, -32, -7, -62, 66,
   -21, -79, 49, 49, 120, -26, -20, 8,
   -16, -109, 23, -3, 88, 49, 122, 21,
   -84, -41, 59, -38, -27, 78, 127, 54,
   47, -37, 68, -81, -13, -80, -45, 82,
   120, 35, -46, -103, 10, -82, 88, 19,
   5, 26, -54, 75, -107, -82, -52, 68,
   -68, -4, 10, 9, 83, 116, 7, 31,
   -120, 114, -76, 124, -125, 73, 63, -123,
   -127, -39, -22, 35, -121, -120, -127, 127,
   -110, -118, 77, 110, 106, -118, 114, 44,
   -105, -114, 126, -122, 12, -116, -88, -108,
   -108, 21, -28, 108, 122, -99, -120, -59,
   -112, -125, -127, -100, -85, -127, -120, -101,
   -25, -30, 119, -36, -8, -44, 18, -23,
   -13, -115, 79, -35, 90, -20, -27, -40,
   -41, -46, 25, 32, -21, -7, -54, -21,
   -38, 127, -67, 75, -78, 64, 121, -57,
   -127, -44, -2, 28, -96, -4, -128, -45,
   -124, -42, -8, -51, 90, -115, 109, -7,
   26, 94, -51, 69, -87, -2, -110, 22,
   29, 28, 71, -102, -51, 27, -85, -29,
   17, 12, -26, 56, 49, 77, -32, -12,
   -19, 29, 39, 79, -37, 7, 18, 32,
   -36, 46, 78, 4, -4, 24, 24, -50,
   35, -44, 23, -71, -15, 93, -36, -27,
   -22, -100, 13, -75, 41, 15, 7, -30,
   122, 115, -48, -62, 11, 99, 116, -46,
   89, 37, 21, -10, -1, 68, -115, -3,
   1, 59, 114, 35, 127, 71, -40, 27,
   -10, -24, -26, -28, -30, -123, 108, 18,
   117, 1, -27, 0, 93, 3, -127, 5,
   78, 33, 117, -103, 87, 22, -72, 2,
   -49, -68, 0, -32, -4, -90, 17, 20,
   -113, -46, -88, 91, -7, 5, -9, 35,
   102, 38, -122, 9, -45, 127, 47, 11,
   -48, 14, -62, -52, -43, -28, -79, -58,
   -33, -9, -37, 40, 14, 9, 75, 4,
   17, -33, 37, 86, 127, 127, 102, 127,
   -56, -49, -9, -43, -26, -21, 126, 94,
   127, 119, 107, 19, 108, 36, 121, 124,
   -1, -22, -21, -77, 98, 2, -21, -1,
   25, 96, -7, 5, 39, 7, 11, -10,
   -30, 45, 48, 17, 69, -28, 31, -6,
   -70, 116, -56, 127, -52, 68, 57, -62,
   -75, -37, -41, -25, -39, -77, -84, 94,
   -30, -52, 14, 121, 7, -105, 114, 29
};

static const rnn_weight vad_gru_bias[72] = {
   -76, -101, 94, -127, -128, -80, -124, -119,
   -112, 127, 127, 127, 126, -20, -119, -118,
   -110, -123, -121, -124, -123, -121, -121, -96,
   -15, 1, 78, -28, -55, 16, 22, 23,
   74, 8, 4, -12, 26, 32, 15, 43,
   40, 44, 32, 52, 61, 0, 11, 58,
   11, -13, 16, -39, 41, -100, -32, 9,
   25, -77, 19, -90, 7, 27, 44, -30,
   81, 21, -23, -33, -25, 13, -64, -41
};

static const GRULayer vad_gru = {
   vad_gru_bias,
   vad_gru_weights,
   vad_gru_recurrent_weights,
   24, 24, ACTIVATION_TANH
};

static const rnn_weight noise_gru_weights[12960] = {
   -6, -26, 117, -37, 37, 10, 81, 20,
   -35, -23, 51, -28, -20, -51, 12, 53,
   27, -29, -19, 75, 23, 5, -37, 59,
   -35, 5, 35, -6, -39, -9, -18, 26,
   32, -34, -16, -51, 37, -64, -43, 60,
   -14, 87, 31, 31, 14, -4, -44, 48,
   20, 13, -40, 12, 20, 22, -59, -11,
   7, -81, -95, -6, -21, 60, 13, 0,
   32, 91, -17, 6, -72, -29, -4, 10,
   -30, -41, 51, 8, 11, 4, -20, -23,
   4, -6, -35, -40, -1, -85, 48, -13,
   -4, 88, -53, -81, 32, 47, 50, 49,
   -4, 10, -47, 37, -11, 26, -34, -8,
   19, -5, 6, 50, 50, -17, -24, 9,
   3, 19, 17, 4, -72, 3, 8, -18,
   -27, 8, 16, 32, -95, 14, -33, -28,
   30, -13, 1, 19, 3, -16, 19, 21,
   30, -56, 51, -33, 62, 6, 1, -13,
   -43, 20, -48, -33, -33, -14, 28, 70,
   16, 15, 8, -49, -73, 3, -21, 25,
   -26, 19, 28, 32, 50, -78, 12, -26,
   78, 108, 78, -5, 49, -7, -60, -10,
   14, 56, -46, -40, 50, -4, -4, 36,
   -29, 28, -13, -11, 27, 3, 31, -25,
   -25, 9, 47, -47, 35, -13, -5, -22,
   27, 25, -25, 20, -29, -80, -6, 47,
   -30, -99, -43, 10, -28, 36, 50, 20,
   24, 0, 46, 12, -52, -53, -51, 15,
   -13, -19, 64, 45, -30, -66, -30, 3,
   -28, 48, 56, 31, 4, -10, -12, 1,
   -1, -12, -4, 11, 23, -29, 29, -1,
   -8, 26, -17, 8, 36, 0, -11, 8,
   19, 7, 45, 33, 56, -32, 22, -17,
   32, 49, -67, -18, 40, 8, 3, -20,
   -21, -2, 26, -46, 25, -13, 3, 13,
   22, 33, -39, -23, 55, -35, -11, -23,
   -3, 92, 60, 45, 44, 59, -28, -29,
   -7, -29, -42, 5, -24, -19, -37, 47,
   38, 29, -93, 29, -25, -39, 48, 7,
   41, -10, -24, 96, -16, 30, 33, -46,
   -6, 11, 42, 38, 29, -44, -46, -91,
   -37, 39, -63, 28, -22, 32, 75, 26,
   14, 17, 35, -61, -52, 77, -45, 13,
   -20, 65, 34, 21, -34, -56, -14, -26,
   -59, -42, 56, 19, 20, 59, -36, 15,
   57, 85, -92, 18, 53, -3, -37, -30,
   41, 39, 73, -17, -98, 18, 23, 0,
   -36, -59, 0, 93, -45, 39, -31, -19,
   31, -40, -23, 7, -3, -63, -8, 17,
   -37, 3, -23, 5, -14, -25, -28, -7,
   5, 21, 27, 15, 28, -2, 58, -5,
   29, -25, 40, -5, 48, -48, 20, -13,
   -10, -28, -16, -22, -7, -17, 20, 22,
   -28, -18, 40, -10, -33, 3, -42, -2,
   96, 44, 26, 10, -15, 30, 12, 35,
   41, -28, 62, 26, -25, -12, -5, 16,
   -20, 24, 26, -34, 9, -3, 17, 8,
   -62, -2, -60, -30, -12, -52, 61, 29,
   -11, -46, 25, 22, -12, 10, 3, -1,
   86, 41, 36, -30, -20, -10, -1, 21,
   22, 10, -3, -37, -73, 21, 5, -25,
   36, -21, 53, -18, 21, 26, 31, 21,
   -17, 30, 13, 40, 25, -31, -14, 22,
   58, 37, 51, -19, 13, -20, 49, -49,
   -3, 8, -1, 54, 23, -6, 30, 2,
   33, 20, 13, -5, 28, 1, 60, -53,
   12, 2, 14, 11, -18, 5, -15, -11,
   -17, 17, -9, 22, -21, 26, 24, 2,
   -16, 2, -30, -11, -15, 12, -10, 28,
   -7, -37, -26, 32, -22, -19, 0, 11,
   13, 4, -11, 5, 13, -18, 8, -24,
   49, -10, -8, -16, 15, 18, -19, 5,
   -61, 39, 32, -62, 20, -12, -68, 7,
   -64, 14, 37, -17, -12, -50, 15, 60,
   78, 35, -36, 0, 0, -24, 5, 22,
   11, -15, 38, -10, 32, 36, 29, 41,
   9, -56, 57, -28, -11, 7, 104, -72,
   -23, -10, -14, -30, 40, -32, -25, 14,
   37, 28, -42, -10, 10, 31, 40, 1,
   21, -42, 65, -24, -50, 55, 59, -27,
   44, 9, 5, 14, -52, -37, -14, 51,
   89, -28, 18, -6, 15, -9, 4, 30,
   27, 19, -6, 23, 14, -46, 16, 71,
   -13, 19, 40, -67, -41, -25, 47, -17,
   -21, -56, -31, 1, 1, -18, -22, 25,
   -17, 68, 45, 37, 14, -50, -11, 14,
   -16, 20, 38, -29, -36, -20, -4, 33,
   53, -12, -10, 11, -22, 45, -7, -23,
   -10, 63, -60, 31, -47, -49, 17, -14,
   1, -1, 10, 33, -4, 13, -25, 15,
   23, -15, 40, 19, 50, -38, -79, 24,
   61, 35, -24, 34, 40, -32, -50, -58,
   63, 24, 5, -19, 31, -77, 19, 2,
   -34, -42, -16, -17, -16, 74, -38, -6,
   -15, 93, -48, 40, -14, 0, 1, -41,
   -7, -44, -42, -23, 57, 2, 13, 3,
   -13, 22, -38, 45, 48, -21, 26, 23,
   12, -19, -3, 69, -40, -83, -4, -2,
   -68, -29, 80, -45, 29, 102, 22, 17,
   -45, 21, 63, 39, -61, 9, 43, -26,
   -43, -16, -6, -53, 50, -13, -23, 21,
   7, 31, -2, -11, 37, -53, -26, -21,
   -43, 15, 10, -39, -32, -50, 15, 11,
   12, -12, -27, 17, 28, -11, 46, -8,
   -14, -20, -53, -3, -3, -17, 37, -70,
   44, -7, -9, -26, -43, -15, 8, 27,
   -10, -35, 7, 52, -30, 8, 5, 2,
   3, 24, 18, 49, 24, 28, -24, 9,
   31, -16, -17, 67, 31, -47, -2, -77,
   10, -24, 32, 45, -35, -5, -5, 8,
   30, -8, -40, 59, -11, -20, 31, 52,
   -37, 10, 35, 62, 16, -21, 26, 50,
   9, 7, -35, -13, -55, 12, 16, 34,
   63, 31, 45, 12, -54, -29, 30, -2,
   -23, -9, 66, 20, -18, -24, -52, -41,
   -44, 1, -31, 1, 14, 53, -31, 71,
   6, -5, -35, 27, 29, -6, -33, -33,
   61, -16, 67, 53, 48, 24, -29, -44,
   -11, -62, -45, 1, -34, 45, -65, -22,
   2, -57, -48, 11, -49, 11, 44, -22,
   -12, -10, -6, -6, 22, 13, -33, 26,
   -18, 36, 26, -43, 13, -2, -13, -6,
   -29, -20, -32, 7, -23, 14, 5, -28,
   -17, 26, -33, -31, 26, -12, -14, -34,
   -54, -40, 22, 28, 20, 35, -59, 5,
   0, -29, -17, -20, -1, -37, 39, -11,
   89, -17, 6, 41, -17, 52, -26, -89,
   29, 4, -126, -55, -43, -28, -58, -43,
   33, 39, 92, 42, -17, 0, 2, -42,
   26, -42, 44, 30, 15, -28, 18, -42,
   -29, -24, -16, 39, -32, 47, 10, 2,
   83, -5, -15, 18, -10, 27, 40, 32,
   28, -48, -7, 66, -40, -1, 1, -15,
   -17, 56, 17, 37, -51, -78, 19, -61,
   -18, -9, 28, 9, 57, 68, -8, 8,
   49, -19, -22, -20, -7, -25, -68, 16,
   41, 2, -53, 27, -86, -37, 21, 18,
   11, 53, -5, 6, -28, 8, 10, -78,
   -2, -26, 9, -3, -12, -1, -3, -1,
   -36, -7, -1, 20, 14, -34, 8, 29,
   -3, 1, 40, -1, 58, 7, 24, -11,
   -39, 25, -37, -2, -30, 5, -7, 13,
   4, -53, -20, -21, -7, 16, -18, -2,
   22, 2, 12, 0, -6, 23, 21, -19,
   -23, 33, 28, -39, -21, 47, 19, 68,
   -25, 13, 92, 17, -27, 5, -7, -61,
   -15, -9, 17, 60, -13, -71, 21, 28,
   36, -57, -27, 33, 6, 39, -22, 41,
   93, 2, -46, -22, 12, 13, 31, -13,
   -9, -41, 46, -31, 51, -43, -27, -64,
   11, 70, -13, 11, -44, 16, -3, -32,
   -22, 47, -8, -13, -71, -45, 12, 35,
   -1, -7, -19, 9, -8, 54, 36, 5,
   15, -22, 87, -84, -9, -54, 28, -32,
   25, -77, -20, 7, -13, -67, -21, -21,
   -68, -75, 21, -32, -24, -88, 16, -56,
   -39, -36, -15, -27, 13, -15, 37, 26,
   -7, -14, -54, 13, 31, 23, -27, -25,
   12, -39, 57, -5, 47, 6, 21, -42,
   7, 23, -14, -11, 23, -8, -16, 5,
   -33, 34, 13, -36, -77, 6, 23, 19,
   58, 6, -30, 66, 47, -12, -24, 27,
   -46, 2, -83, 0, -26, -90, 39, -15,
   -33, 112, -41, -69, 19, 52, -19, -32,
   -26, -43, -17, -7, -14, -16, -66, 12,
   2, -17, -1, -14, 47, 9, -126, -121,
   -65, 15, -49, -2, 37, -6, 6, 5,
   -83, -60, -40, -41, 88, -39, 8, -36,
   -72, 72, 34, 28, -45, -54, 3, -82,
   16, 58, -9, 127, -46, -74, -57, -22,
   -67, -28, 50, -16, -37, 14, 38, -40,
   -79, -26, -10, 34, 10, -68, -40, -9,
   -70, 4, 33, 25, -12, 108, -60, -7,
   79, -19, 44, 105, 30, 2, -74, 40,
   78, 80, 12, 56, -23, 10, -18, 8,
   -114, 58, 31, 44, 21, 29, 14, -19,
   -56, 4, -88, 32, -20, -37, -23, -26,
   -7, 32, -43, 53, 62, 1, 23, 93,
   11, 28, -18, 8, -9, 28, 4, 44,
   -15, 20, 39, 37, -99, 46, -5, -9,
   -34, 61, 9, 11, -55, -35, 46, 0,
   -1, -32, -57, -40, 4, -18, -16, -19,
   -15, 43, 49, -58, 72, -71, -1, 37,
   82, 127, -12, -54, 35, -20, -37, -6,
   19, -74, -39, -16, 6, 47, 68, -17,
   67, -35, -124, -12, 80, 43, 62, 3,
   -21, -57, 58, -83, -38, 29, -34, 1,
   -12, 64, -78, 42, -21, -78, 30, -74,
   -38, -56, 18, 54, -80, 46, 19, -17,
   -18, -29, -48, -33, -44, -48, 42, -44,
   18, 13, 38, 39, 13, 6, -74, 47,
   3, -6, -25, 21, -13, -32, 3, -20,
   -5, -1, -36, 19, -37, -31, 48, 15,
   7, -62, 19, -7, 46, -11, -15, 4,
   13, 35, 35, 9, 37, 2, 0, -53,
   -28, 57, -7, 8, 12, -29, 17, -4,
   -6, 17, 26, -17, -17, -10, 4, -8,
   -24, -6, 7, -14, 17, -6, 1, -3,
   -82, -51, 46, -11, 26, -9, -25, 9,
   30, 12, 41, 50, -28, 15, 48, 0,
   -26, -29, -57, -19, 25, -45, -17, 17,
   -42, 25, -18, -21, -22, 24, 0, 3,
   -5, -2, 73, 78, 2, -41, 17, 22,
   -59, 74, 33, 41, 22, 37, -75, 29,
   9, -9, -18, 22, 42, 22, 32, 32,
   7, -48, -66, -52, -1, 43, -82, 54,
   35, 65, -56, 45, 81, -40, 52, -77,
   -55, 22, 5, -33, -48, 19, -32, 25,
   -74, -3, 36, -18, 71, 0, -7, -66,
   -7, 12, -48, -45, -57, -8, 20, -17,
   7, 6, -24, 19, 14, -10, -6, 29,
   33, -25, -4, 55, -24, -25, -31, -13,
   2, 27, 3, 35, -25, 38, -14, 24,
   22, -42, 52, -22, -21, -41, -23, 12,
   -18, -35, 3, 38, 10, -18, -6, 1,
   26, -50, 37, -43, 18, -16, -11, 1,
   0, 73, -73, -38, -3, 2, -3, 22,
   8, -20, -8, -12, 29, 0, 38, -15,
   7, -4, 30, -35, -43, -23, -8, 48,
   39, -86, 55, 21, -5, 102, -36, -54,
   -79, 10, 29, -12, 32, 60, 45, -30,
   -17, 45, -30, -116, 27, -74, -66, -34,
   -25, 120, -40, -5, -52, -17, -22, 117,
   -8, 82, -65, 5, -18, 21, 21, -9,
   14, 51, -21, -20, 45, 59, -56, 56,
   -4, -48, 47, -4, 1, -36, 29, -13,
   -7, 28, -35, 38, -100, -71, 33, 21,
   -36, 52, 19, 33, 78, 37, -20, 3,
   22, -12, 10, -5, -28, 1, -3, -6,
   -73, 5, -82, -39, -49, 18, 1, 14,
   56, 18, 4, 34, 26, 16, -2, 40,
   34, -41, 23, -19, 0, -12, 25, -9,
   6, -8, -14, 40, -11, -11, 29, -23,
   13, 22, -42, -61, 2, -11, -8, -33,
   -3, 80, -59, -47, 47, 0, 18, -25,
   46, 85, 10, -6, -27, -5, 67, -69,
   64, -40, -118, -25, -37, -65, -63, -46,
   -9, 16, 17, -84, -9, 34, -89, -61,
   -1, 3, -64, -70, -33, -5, 48, 55,
   67, 30, -55, -29, 24, -59, 49, -35,
   50, 66, 0, 43, 74, -47, 52, -50,
   -27, 48, 14, -53, 67, -22, 14, 17,
   50, -28, 22, 68, -54, -15, -20, -25,
   -24, 71, -9, -10, -17, 40, 70, -23,
   13, -81, 35, -11, 40, 3, 45, 77,
   100, 2, 64, 6, -31, 42, 20, -24,
   37, 13, 3, 1, 1, -11, 17, 64,
   -72, 63, -41, 64, -17, 30, 10, -15,
   -12, -15, -41, 29, 63, -32, 38, 40,
   0, -1, -41, 22, 19, -27, 40, 24,
   -87, 4, -39, -41, -12, 3, 28, 63,
   -57, -28, -41, -25, -13, 43, 74, -17,
   -76, 124, -48, -5, 117, 100, -93, -58,
   -62, 43, -37, 73, -58, 27, 24, -22,
   -25, -46, -84, 12, 55, 9, -4, 1,
   35, 10, 76, -50, 2, 113, 43, -34,
   -41, 23, 57, 29, 40, 17, 94, -94,
   -42, 29, 9, 6, -14, -102, 21, 32,
   19, 43, -62, 36, -8, 36, 75, -35,
   -37, 2, 41, -9, 26, -42, 30, -45,
   42, -22, -2, 3, 7, 49, -122, -17,
   -22, -1, -15, 20, 37, 78, 99, 44,
   -26, 34, 59, 26, 33, 4, 21, -41,
   35, -4, 39, 19, 8, 36, -124, -2,
   18, -107, 4, -96, 36, 19, -7, 25,
   -95, 25, 37, 22, -14, 22, -27, -59,
   -31, -11, 98, -34, 91, -6, -63, 18,
   -15, -45, -33, -81, 83, -17, -25, 79,
   -61, -101, 12, -33, -12, 38, -14, 3,
   20, 21, 23, -15, 27, -19, -4, -43,
   68, -45, -67, -45, -15, -83, -38, -39,
   -61, 2, -28, -27, -54, 7, 23, -39,
   -53, -89, -123, -24, 38, -37, 32, 8,
   -82, -15, 26, 48, -10, 66, 13, 63,
   -63, -12, 2, 79, -1, 92, 32, 106,
   17, 113, -50, 26, -57, -69, -13, 18,
   -6, 122, 18, 48, 47, 8, 10, -75,
   54, 23, 82, -4, -22, 27, 9, 15,
   2, 3, 54, -29, -56, 62, -33, -17,
   -35, -16, -2, -14, 23, 27, -19, 21,
   -38, 5, -50, 1, -8, -43, -46, 9,
   43, 55, -97, 74, 66, -43, -84, 100,
   37, 43, -21, -38, 19, 74, -43, -28,
   -50, -22, 10, -13, -17, 58, -14, -116,
   -57, 27, -52, -35, -89, 38, -51, -60,
   -45, -11, -26, 23, 31, 27, -55, 29,
   17, 29, 49, 33, 47, 57, -13, 1,
   1, 15, -4, -13, 8, -12, 15, -28,
   -28, -2, 9, -12, 5, 29, -39, 26,
   52, -31, 51, 64, 20, -47, -63, -27,
   34, 68, 31, 54, -13, -7, 34, -59,
   -1, -107, -20, -64, 35, 0, 18, 30,
   44, 18, -67, -58, 26, 17, -26, -40,
   -37, -109, -12, 21, 24, -66, -1, -39,
   -20, 5, 47, 38, -35, 78, -19, -24,
   -36, 26, -66, 28, -59, -27, -33, -21,
   -55, -52, 37, -21, 8, 54, -34, -5,
   -53, -38, 33, 1, -40, -16, 4, 8,
   -67, -1, 31, -5, -33, -36, -8, -12,
   -20, 16, 52, 10, 21, 13, 7, -45,
   -19, -18, -30, -44, 13, -13, -11, 9,
   3, -6, -22, 36, -3, -27, -37, -8,
   -16, 9, 28, -1, 4, -26, 39, -25,
   -1, 14, -28, -10, -16, 6, -1, -9,
   -15, -12, -7, 20, -8, -4, -1, 18,
   -28, -22, 21, -7, 35, -12, -3, 28,
   -35, 7, -22, 51, -1, -29, 51, 31,
   -5, -17, -18, 66, -30, -39, 21, 5,
   11, 1, -26, 46, -50, 7, -21, 38,
   2, -36, -1, 32, 12, -18, -45, -15,
   40, -39, -50, 62, 64, -12, -29, 43,
   1, -27, 0, 24, 19, 42, -34, 10,
   -53, 100, -9, 10, -92, -10, 8, -55,
   27, -6, 6, 9, 9, 0, -16, 13,
   -21, 86, 36, 49, -9, -66, 56, -53,
   -25, 55, -53, -9, -28, 20, 65, -56,
   -1, -71, -15, -3, 95, 38, 40, 6,
   -60, -46, -69, -38, -7, 42, -12, 59,
   39, 4, 35, -18, -28, -52, 16, 52,
   -9, 31, 28, 27, 1, 7, -1, -52,
   -42, -6, -14, 4, -10, 3, -26, -23,
   34, -89, 52, 17, -57, 19, 2, 25,
   10, 19, 14, -3, -7, 26, -38, -5,
   -2, -27, 21, -8, 16, 24, -30, -32,
   -60, 40, 35, 47, -60, -56, 15, -12,
   22, -37, 2, 16, 12, 13, -46, -40,
   -66, -66, -56, -67, 20, -10, -58, -27,
   -36, 19, 19, -65, 11, 11, -57, -4,
   -31, -29, -31, -45, -78, 77, 42, 12,
   -53, 44, -19, -34, -60, -42, -13, 1,
   26, 57, 24, -27, 39, -37, -12, 44,
   -44, -34, -67, 43, 50, 29, 4, 21,
   -83, 51, 33, -6, 13, -74, 30, 2,
   52, -12, 4, 16, 26, -32, -53, 3,
   -23, 34, -44, -21, 72, 10, -35, -33,
   -35, 11, 11, -4, 52, -2, 6, -70,
   64, 15, -17, 3, 16, -14, 4, -52,
   -73, -2, -22, -18, -89, 0, 28, 12,
   -51, -23, -24, 10, 45, 34, 13, -61,
   -9, 33, -55, -6, -5, -58, 35, 11,
   -16, 22, -36, -19, -60, 50, 3, -55,
   10, -31, -27, -62, 45, -64, 46, 11,
   18, 90, 50, -20, -36, -103, 30, 7,
   -6, -12, -24, 1, 6, 9, 62, -12,
   -68, -27, -79, -37, 18, 85, 14, -11,
   -29, 54, -57, 63, 47, -15, 3, 17,
   -46, 101, 76, 31, -51, -40, -20, -60,
   -43, -9, 15, -39, -60, 1, -15, 5,
   -41, -34, 27, -23, 8, -23, 45, -25,
   33, -70, 5, -41, 46, 5, -8, 51,
   35, -38, -34, -67, -122, -11, -50, -6,
   11, 10, -41, 1, 33, -27, -40, -7,
   -65, 72, 35, 0, -30, -78, 25, -11,
   61, -15, -44, -33, 22, -51, -41, 71,
   40, 3, -36, 10, 40, -41, -22, -21,
   3, -1, 22, 11, 8, 11, 49, -31,
   -17, -11, -7, 74, -65, 12, 16, 32,
   -22, -3, 34, 15, 35, -3, 20, 36,
   14, -25, 31, -4, 65, 11, -39, -22,
   -78, -28, 3, -11, 14, 22, 38, -45,
   -15, -32, -77, -58, 17, -65, 11, 24,
   -33, 22, 10, -36, 36, 4, -48, 71,
   6, -92, -77, 71, -17, -46, -43, -18,
   87, -40, 77, -63, -16, -26, -16, -27,
   18, -39, -67, 88, -74, -9, 28, 69,
   -11, -37, 0, -14, -68, 7, 16, 34,
   27, -15, -23, 16, -28, 33, 55, 6,
   36, 4, -59, 19, 93, -59, 2, 78,
   26, -1, 8, 0, -8, 28, -2, -59,
   42, 2, -23, -18, -98, 15, 68, -10,
   -12, 69, 84, 9, 7, 21, -34, -31,
   8, 85, 66, -34, 9, 38, 106, 53,
   22, 36, -11, 35, -36, 22, 2, 19,
   -66, 33, 38, -16, 5, 41, 44, 16,
   -30, -58, -66, 50, 0, -51, 36, -1,
   -21, -4, -38, 37, 2, -36, -26, 45,
   -18, 36, 20, -44, 89, -13, 14, 38,
   -77, 4, -5, 17, 7, 1, 89, -49,
   69, -22, 48, 26, 31, 43, 20, -58,
   -39, -18, -26, 79, 11, 1, -3, -28,
   69, -26, 22, 93, 35, 10, -16, -34,
   -38, -54, 14, -43, -1, 25, 72, -66,
   -30, 53, -30, -6, -11, 49, 24, -31,
   17, 70, 78, 31, 40, 84, -7, 118,
   15, 48, -56, 68, -40, -8, 44, -35,
   13, 8, -32, -8, -53, 41, 32, 42,
   -59, 36, 13, 36, 32, 14, 32, 105,
   -60, -57, -54, -11, -49, -55, 43, 75,
   19, -4, -32, 10, -50, -24, 4, -15,
   -101, 30, 39, 6, -2, -23, 54, -19,
   -29, -12, -12, 12, 3, 11, 31, 29,
   1, -48, -71, -57, -41, -35, 6, 46,
   -1, 17, 27, -5, 30, -11, -28, -6,
   -32, 42, -9, -45, -28, -5, 32, 7,
   -22, -17, 20, -9, -26, -12, -11, 24,
   21, 31, -19, 42, -17, -20, 41, 13,
   -15, -97, -52, 49, -21, -5, 28, -9,
   35, 9, 24, 75, 0, 69, -65, -98,
   -4, 10, 48, -38, 4, -95, 41, -7,
   -11, -39, -45, -15, -11, -59, -83, -59,
   -43, -41, -22, 22, -73, 58, -10, -46,
   -54, 9, -13, -102, 11, -50, -2, 14,
   -78, 8, -32, 1, -65, -27, -24, -1,
   -40, -33, -54, 17, -15, 9, -70, 23,
   -8, 17, -25, -87, -12, -28, 19, -1,
   22, -6, -36, 11, -34, -97, -71, -11,
   3, -1, 49, -33, -7, -28, -7, -16,
   -127, 16, 5, 21, -13, 10, -53, 44,
   -70, 50, -13, 7, -16, 62, 29, -20,
   -78, -8, -13, 45, 22, 41, -11, 1,
   3, 39, -11, -15, 30, 9, -68, -37,
   37, 21, -33, 35, -5, -20, 66, -41,
   -8, 21, 20, -45, -49, 67, 1, 46,
   -13, -14, -55, -14, 24, -11, -3, -54,
   -4, 7, 49, -40, 80, 86, -29, -13,
   -42, -42, 25, 30, -6, 2, 23, 40,
   97, 5, 71, 104, 50, 44, -39, -6,
   99, 47, -37, -12, 12, 36, 120, 6,
   -13, -55, 58, 72, 104, -1, 77, -14,
   26, 25, 22, 73, 17, 48, -29, 6,
   76, 45, -62, 11, -47, 36, -7, 50,
   -35, -26, 89, 5, -60, -6, -3, -30,
   48, -80, 29, 11, 81, -21, 32, -18,
   75, -59, 32, 31, -43, 32, 47, 34,
   15, 51, 15, 17, -6, -52, 14, 60,
   -23, 79, 87, 19, -34, -2, 2, 38,
   -60, -36, -24, 19, -15, 31, 29, 57,
   29, 22, 33, 43, 58, -49, -28, 13,
   21, 15, 42, -24, -30, 19, 23, 48,
   -55, 8, 55, -15, 36, 53, -66, 14,
   31, 5, -46, 5, 44, -34, -6, 30,
   -41, -18, -42, 86, -3, 37, -17, 21,
   47, 10, -10, -13, 2, 43, 5, -41,
   10, 35, 20, -7, 2, 14, -38, -3,
   56, -32, -43, -23, -34, 55, -31, 9,
   28, -8, -53, 2, -23, 22, 21, 58,
   -1, 19, 3, -37, 41, 15, -6, -43,
   -31, -32, -41, -24, -5, 19, 23, 54,
   28, 5, -4, 9, -37, -45, 16, 16,
   12, -3, 9, 0, -5, 42, -25, 29,
   -12, 17, 10, 34, 5, 4, -42, -8,
   8, -25, 42, 21, 26, 14, 17, 34,
   -5, 3, 8, -15, -44, 64, 13, 9,
   -24, 22, 31, -41, -3, 44, -14, -28,
   -13, -5, 7, 17, -17, -15, -11, -1,
   1, 48, 47, 0, 6, -43, 34, 6,
   16, 30, -23, -12, -28, -6, -7, 3,
   65, 5, 25, 16, 4, 1, 14, 26,
   -1, -37, -4, -6, -7, -10, 18, -20,
   -9, 29, 7, 13, 13, 13, 17, -3,
   6, -47, 14, 39, 64, -34, 4, -20,
   -17, 22, 52, -56, -2, -47, -7, -31,
   -6, -38, -4, 20, -7, -5, 31, 34,
   1, -69, 18, -47, -44, -42, -23, -36,
   38, 31, 15, 9, 52, -28, -14, 37,
   46, 50, 0, 10, -9, 46, 1, -70,
   52, 1, 12, -8, 21, 65, -29, 6,
   -13, 22, 60, -4, 4, 1, -21, 9,
   14, 11, -14, 15, -63, -25, -4, -11,
   -15, -18, -52, 12, -49, -38, -17, 14,
   -12, 26, 5, 3, 11, -38, 37, 51,
   -21, 9, -34, -15, 25, -40, -26, -21,
   10, 24, -27, -14, 22, 1, 8, 10,
   -29, -33, -10, -8, 44, -3, 15, -1,
   -37, -2, 6, 8, -35, -9, 3, -7,
   -45, -14, -33, 36, -29, -28, -18, -6,
   17, 11, 12, 13, 8, 13, 7, 15,
   -36, -12, -17, 35, 39, -21, -21, 4,
   38, -20, 13, -11, -34, -18, 31, 89,
   -27, -55, 28, -5, -6, -64, 42, -20,
   1, -2, 8, 81, 81, -2, -20, 41,
   -10, -56, -66, 28, 40, 32, 28, -29,
   62, 11, 44, -30, -15, -55, -5, 49,
   35, 38, -29, 54, 37, -75, -76, -10,
   0, 6, -17, 18, 30, -23, 1, -6,
   11, -49, -22, -58, -53, -4, 12, 11,
   4, 6, 22, -14, 2, -20, 52, 26,
   -1, -80, 38, 40, 12, -2, 16, 5,
   20, 34, -37, 27, 13, -61, 25, -87,
   -57, -4, -3, 22, 2, -43, 53, 45,
   38, -1, -12, -13, -22, -8, 10, 40,
   -25, 12, 0, 15, -5, 14, 0, 11,
   -20, 21, -1, 25, -20, 29, 3, 28,
   -30, -8, -38, 29, 50, 22, -10, -1,
   14, 40, 16, -5, 10, -24, -24, -40,
   -15, -13, 16, -7, 5, -13, -49, 17,
   27, -3, -13, -18, -20, 6, 36, 6,
   -31, 31, 56, 13, -33, 38, -19, 40,
   -24, -14, 11, 27, 50, 82, -36, 15,
   -35, -19, -3, 45, 34, -12, 14, 17,
   -50, -25, 0, -28, 0, 37, 60, 50,
   -37, 12, -13, 15, -15, 66, 5, -38,
   -27, 2, 28, 31, -4, 27, 34, -13,
   35, 26, 57, -22, -14, -9, -28, -34,
   18, 25, 20, 11, -46, 6, 36, 13,
   15, 37, 9, 4, -44, -4, -12, 18,
   -24, -1, 34, 5, 52, -18, -74, 13,
   21, 19, 7, 49, -27, -38, 6, 62,
   37, -1, 18, 9, -32, 13, 4, 19,
   -9, 34, -9, -22, 17, -4, 0, 19,
   16, 17, -43, -2, -21, 11, 14, -26,
   -9, 27, -22, 7, 25, 18, 13, -12,
   27, 0, 17, -23, -63, -31, -13, -25,
   -25, 4, -10, -8, -35, 19, 39, -8,
   -55, 26, 30, 42, -59, -19, 23, 9,
   0, -5, 33, -20, -59, 15, -55, 12,
   15, -16, 4, -4, -19, -54, -6, 7,
   20, -13, 6, -53, 45, -28, -49, 24,
   -22, -14, -39, 34, 15, -8, 16, 38,
   33, 24, -1, 18, -17, 9, 43, 47,
   8, -5, 13, -15, 28, -13, -14, 12,
   5, -32, -24, -29, -27, 68, -45, -32,
   42, -4, 34, 2, 16, 23, -4, -3,
   0, -14, 77, 8, 26, 27, -22, 7,
   -4, 17, -49, 13, 15, -8, 23, 11,
   -9, 9, 35, 30, 32, -11, -5, -3,
   20, 18, -10, 15, 47, 10, 19, -2,
   59, -9, -26, -21, 19, -12, 9, 20,
   42, 18, -14, 20, -52, 4, 21, 28,
   -11, 35, 27, -21, -4, -11, -22, -17,
   29, 23, 17, -8, -4, 13, -14, -33,
   19, 7, 50, 24, 0, -25, 30, -4,
   -28, 30, -43, -44, -21, 57, 26, -8,
   -10, -35, 22, 10, 15, 3, 1, -33,
   -20, -10, 23, 9, 19, -29, 12, 5,
   -2, 35, -74, 33, -13, -5, -72, -40,
   3, 15, -2, -3, -47, 26, -29, 10,
   -19, -25, -27, -60, 12, -35, -89, -18,
   -23, 1, -48, 30, -13, 6, -19, -53,
   32, 3, -55, 38, -17, 1, -13, 15,
   -20, -3, -6, -24, 32, -25, -7, -5,
   -30, 32, -6, 2, 33, -31, 54, 34,
   17, 13, 23, 10, 52, 25, 24, 41,
   -5, 38, 11, 20, 24, 5, -34, 2,
   -9, -16, -17, -8, 2, 1, 0, 8,
   -1, 0, -14, -21, 15, 16, -15, 14,
   24, 7, -31, -9, -28, -5, -13, 27,
   33, 34, 23, -37, 9, 27, -9, 20,
   -16, 7, 8, -49, -25, 15, -8, -22,
   14, -28, -38, 2, -24, 6, -14, -35,
   7, 44, 0, -27, 45, -21, -23, 24,
   -78, 7, -26, 4, 16, -4, -1, -36,
   10, 18, -1, 84, -6, 55, 38, -39,
   81, -61, -46, 12, -13, 52, 8, -71,
   26, 31, -17, -3, 19, 10, -63, -5,
   8, 32, 29, -11, 36, 6, -32, 34,
   -14, -7, 8, 19, -10, -2, -29, -6,
   27, 25, -14, 46, -12, 37, 4, 49,
   10, 62, -23, 43, -32, -5, -18, -18,
   -36, -10, 11, 4, 2, 32, 22, -38,
   -9, 17, 16, -12, 38, 22, 36, 34,
   9, -25, 2, -19, -9, -19, -19, -3,
   16, -15, 0, 22, -6, -21, -1, 7,
   23, -24, 19, -15, -6, -28, -28, 37,
   10, -2, -3, -19, 13, -12, -22, -7,
   -22, 5, 13, -26, 4, 12, 17, -34,
   28, -6, -28, 15, 24, -22, 1, -8,
   33, -28, 14, 1, 29, 13, 3, -8,
   59, 13, 11, 26, -26, 3, -21, -34,
   13, 40, 59, 7, 16, -5, -18, -25,
   19, 5, -15, 14, -67, -3, 12, -16,
   8, 18, -1, 43, 17, -56, -6, 15,
   22, -6, -2, -48, 60, -18, 11, 4,
   -11, 13, -53, -3, 16, -12, -1, -2,
   35, -23, -2, -11, 9, -17, -44, -23,
   3, -1, -9, 4, -16, 12, 7, 2,
   -14, 14, -4, 14, -42, 35, 10, -28,
   19, 10, 28, 30, 21, 65, 39, -13,
   -7, -13, -22, 18, 6, 7, -16, -10,
   36, -50, 5, -23, 34, -6, -26, -3,
   -39, 26, -20, -11, 5, 11, -2, 22,
   -29, -6, -21, -9, 18, -31, 29, 4,
   -15, 14, -27, 26, 33, 24, 15, -43,
   -12, -43, 9, 19, -31, -13, -27, -27,
   -6, 20, -21, 1, 13, -12, -8, -6,
   -36, 20, 2, 35, 10, 12, 35, -20,
   -23, -29, -10, 50, 11, 41, 13, -46,
   17, -44, -46, 27, 23, -6, 10, 26,
   26, -14, 45, 54, 22, 51, 60, 35,
   7, 43, 27, -35, -38, -1, 37, -15,
   -24, -2, -28, -7, 43, -44, -14, 4,
   6, -18, 13, -13, 21, -3, -17, 62,
   23, -59, 41, 36, 15, -2, 13, -34,
   27, 18, -29, -6, 5, 37, -43, 6,
   -4, 37, 3, 4, 79, 23, -27, 15,
   -32, -25, -1, -1, 67, -14, -19, 7,
   -4, -15, -13, -39, 11, 36, 9, -44,
   -26, 22, 7, 16, 17, 0, -33, -42,
   -12, 5, -11, -16, -7, 20, -31, -31,
   -11, -16, -22, 6, 11, -3, 44, 32,
   -17, 17, 0, -55, 26, 49, 11, -5,
   14, -36, 4, 15, 20, -6, -15, -37,
   -2, -40, 7, 5, 1, 22, -13, 0,
   34, 14, 19, 48, 10, -17, 20, -17,
   -38, -27, -61, 3, 26, 7, -17, -41,
   -32, -18, 20, 72, 49, -18, -9, -18,
   3, -3, 18, 52, 52, 26, 6, 19,
   6, -96, 0, -26, -7, 10, 15, -18,
   -32, 3, -19, 44, -26, 13, -46, -50,
   -28, 34, 0, 14, 30, -42, -19, -21,
   30, 22, -44, 74, -29, -4, -11, -2,
   1, 10, -58, -7, 57, -44, 10, -13,
   -13, 7, 6, -13, -20, 81, -27, -22,
   18, -7, 11, -12, -5, 4, 34, -13,
   54, -7, 2, -23, -51, -13, -9, -37,
   -34, 49, 61, 30, 39, -3, -57, 3,
   -31, 17, -22, 16, -33, 19, -9, -1,
   65, -32, 6, -38, 16, 21, -3, 16,
   14, 7, 29, -57, 19, -33, -5, -13,
   53, 63, 0, 4, 37, -24, 53, -39,
   9, -91, -1, 38, -17, 19, -37, -41,
   -12, -15, 29, 4, 21, -15, -31, -8,
   12, -16, -4, -24, -118, 12, -11, -64,
   59, -8, 28, 24, -69, -10, 20, 27,
   -20, 55, 29, -69, -14, -29, -12, 36,
   -50, 74, 57, -116, 22, -28, 80, 16,
   -20, -38, 10, -2, -1, 35, 13, 3,
   29, 46, -45, -25, 15, -26, 62, 2,
   -1, 31, 98, -53, 49, -3, 18, -25,
   45, 36, -43, -49, 22, -6, -36, 35,
   42, 9, -19, -22, 54, -3, 12, 12,
   49, -16, 35, -20, 34, 75, -42, -33,
   42, -77, -8, -15, -5, -27, -12, -45,
   55, -5, 51, 19, 12, 30, -33, -43,
   -58, -12, 15, 5, 52, 38, -16, 3,
   0, 3, -25, 26, 11, 38, 44, 41,
   -27, -23, -7, -45, -24, -29, -13, -12,
   44, -3, -21, 36, -56, 22, -50, 50,
   18, -9, -59, 38, 31, 30, 5, 21,
   -1, -46, -2, 7, 2, -26, 10, -31,
   -6, -10, 33, -74, 74, -86, -105, -30,
   -13, -78, 33, -37, 1, 33, -72, 14,
   3, -96, 23, 31, -19, 52, -53, 6,
   47, -52, -36, -27, -50, -86, 22, 29,
   -19, 24, -63, -96, -19, -33, -49, -113,
   3, -23, 107, 34, 25, -26, 11, 49,
   39, -28, -15, -31, -4, -19, -8, -12,
   -42, -7, -20, -6, -32, 86, -17, 10,
   -96, 38, 14, 10, 42, -74, -17, -53,
   13, 4, 26, -18, -11, 76, -8, 55,
   -29, -11, -25, 31, 39, 63, -14, -26,
   -21, 20, 6, 5, 104, 40, 5, 22,
   -25, 4, 4, 24, -32, 6, -29, -3,
   -52, 66, 20, -30, -28, -23, -32, 8,
   -16, 13, 16, -2, 29, 28, -31, 3,
   -13, -77, 10, 16, -3, 24, 3, 35,
   17, 10, 16, -11, 36, 4, 6, 43,
   56, -11, -23, 28, 26, -7, -44, 1,
   -1, 15, 39, 49, 30, 16, 15, 58,
   59, -59, 50, 25, 1, -93, 43, 35,
   -8, 19, -114, -101, -25, 24, 27, 11,
   -12, -19, -14, -12, 40, 27, 14, -21,
   32, 13, -9, -47, -25, -106, 11, -22,
   -4, 33, -55, -33, -25, -67, -113, 7,
   -25, -34, 26, 16, 42, -14, 20, -2,
   5, -25, -1, -31, -85, 12, -2, -51,
   40, 18, -27, -17, -15, 21, 10, 15,
   15, -54, -8, 17, -72, 16, -38, -29,
   -26, 0, -52, -18, -21, -51, 46, -41,
   13, -102, -28, 45, -56, -38, 90, 28,
   16, -4, -27, 1, -14, -22, -18, 30,
   -74, 25, -1, -12, 17, 9, 5, 35,
   5, -6, -9, -16, 16, 21, 22, 63,
   28, 20, -10, -31, -36, -9, -40, 12,
   -41, 4, 8, -26, 47, -34, 3, 2,
   19, -14, 5, -4, 26, -1, -27, -1,
   22, 34, -13, 24, -78, 64, 30, 35,
   13, 51, -8, -76, 38, 52, -31, 23,
   -22, -27, 34, -108, 0, -43, -59, 17,
   -109, 56, -5, -16, 20, -8, 51, 3,
   12, -8, -45, 5, 32, -12, 9, -28,
   14, -114, -42, -29, -68, -15, -34, -9,
   -71, -40, -28, -78, -5, -1, 34, -27,
   23, -19, 31, 23, -5, -33, 20, -17,
   -16, -25, -92, 45, 29, 24, 3, -15,
   -29, -6, 31, 37, -57, -48, 34, -76,
   -37, 26, 38, 111, 27, -41, -6, -27,
   67, -48, -37, 26, -62, -90, 25, -69,
   47, -27, 24, 18, -4, 13, 26, -38,
   -37, 37, -1, 13, 29, 0, 44, 15,
   -41, -2, -13, 31, -6, 31, 2, -28,
   0, -16, 15, 5, 0, 14, -12, 43,
   -43, -41, 23, -59, 65, -11, -17, -9,
   45, 25, -47, -14, -48, -11, 4, 12,
   -26, -20, -5, -9, -43, -11, -1, -11,
   -29, -15, 23, -17, -3, -2, 69, 10,
   14, -38, 12, 30, -3, 45, 52, -1,
   19, 34, -8, 30, 16, -37, -23, -85,
   -5, -11, -12, -46, 29, 42, -5, 10,
   -14, 23, -27, 9, 16, 24, 12, 15,
   -8, -2, -15, 13, 24, -3, -3, -28,
   -40, -9, -32, -6, 40, -20, -20, -22,
   7, 6, 19, 7, 37, 20, -29, -29,
   2, -24, 34, 11, 64, 46, -34, -7,
   22, 3, -9, 20, 0, 30, -7, -20,
   16, 23, -23, 7, -17, -2, 11, -29,
   10, 35, 5, -5, -13, -23, -9, 9,
   -6, 23, 6, 13, 1, -23, -11, -22,
   -20, -33, 2, 26, 5, -16, 37, -10,
   -15, 25, -10, -19, -14, -3, 41, 23,
   -1, -11, -8, 9, 27, 9, -5, 15,
   -10, -23, -13, -34, -3, -6, -10, 27,
   -23, -23, 45, -79, -10, -43, 1, 6,
   27, -51, -17, 53, 1, 1, 14, 28,
   -26, 24, 81, 24, 37, 0, 29, -25,
   33, 23, 0, -37, -17, 55, -51, -12,
   -32, -66, 59, 55, -22, -36, 52, 47,
   0, 3, -3, -52, -31, -55, -30, -4,
   -15, 27, -51, -43, 29, 18, -5, 42,
   -4, -57, -48, -62, 23, -5, 2, -18,
   -5, 1, -14, -28, -30, -29, 22, -53,
   68, -16, 11, 17, -15, -28, -4, 48,
   19, -32, -12, -50, 31, -37, 5, 1,
   -52, 2, 6, 13, 27, 1, 26, 35,
   -56, -10, 6, 19, 3, -21, 3, 4,
   -19, -28, -20, -25, -17, 8, -13, -5,
   41, -38, 15, 28, -5, 0, -10, 46,
   -69, 17, 4, 21, -41, -8, -15, -24,
   7, -2, 0, 3, 11, 15, -1, 2,
   13, -2, -12, 9, 1, -12, -66, -5,
   27, 32, -25, 5, -19, -14, 8, -31,
   3, -31, -34, -36, -25, -48, 35, 21,
   -11, -30, 6, -32, -52, 9, -12, 24,
   0, -2, -33, 24, 35, 16, -34, 5,
   -24, -28, 45, -4, 10, 7, 21, -43,
   6, -12, -32, 15, 24, -15, -7, 22,
   -19, -17, -6, -25, 30, 38, -21, 2,
   -23, 8, 22, -6, -7, 18, 0, -15,
   19, -46, 9, -17, 55, 12, 0, -10,
   14, -11, -4, -34, -21, -27, -3, -2,
   10, 4, -15, 15, 23, -39, 22, -4,
   -27, 22, -4, 35, 28, 10, 19, 3,
   -34, -17, -10, 1, -43, 17, -33, -24,
   18, -18, 7, -8, -15, 27, -18, 3,
   29, -17, 38, -28, 4, -32, 4, 2,
   -21, 4, -20, 1, -20, 17, 46, 19,
   25, -27, -23, -1, 23, -16, -14, 29,
   -25, -21, -51, 41, 0, 11, -23, -3,
   -31, 9, -16, 14, -51, -36, -18, -5,
   -76, 43, 39, 52, 35, -21, -3, -29,
   -1, 14, -25, -15, -67, 27, 4, 2,
   0, 8, -4, -42, 25, 26, -49, -5,
   -9, -26, 31, 59, 18, 7, -20, 7,
   55, -46, -40, -56, 2, 35, 52, 36,
   -23, -21, -15, 3, 58, 6, -24, 27,
   -12, -11, -14, 15, -36, 14, -16, 15,
   24, 3, 40, -7, -39, -24, 22, -36,
   -23, 1, -21, 6, -45, 2, 15, -53,
   35, 20, 13, -11, 31, 17, 9, -16,
   -58, 45, -23, -10, 7, 43, 14, -24,
   -47, 6, -46, -65, 35, 5, -11, 15,
   -16, 9, -17, -33, -7, -10, -8, -20,
   -39, 12, -20, 24, 30, -46, -19, -25,
   -28, 31, 20, 6, 23, 15, 32, -38,
   10, -26, 5, -40, 58, 6, -11, 5,
   -15, 5, 30, -10, 11, -17, -46, -13,
   -5, 32, -40, 42, 44, -30, -14, 7,
   27, -15, -19, -12, 32, -7, 65, 76,
   13, -17, 46, 41, 42, 35, -7, 27,
   89, -23, 29, -18, 16, 42, 27, -49,
   30, -30, 30, 61, 8, -15, 57, -20,
   29, 36, 2, 26, -34, -46, -24, 32,
   12, 30, 1, -19, -1, 70, -33, 53,
   -37, -6, 38, 53, 43, -40, 29, -36,
   -39, -31, 2, -5, -10, 13, -32, -10,
   64, -53, -17, 21, -36, 2, -36, 24,
   39, 4, -15, 28, -46, -41, 18, -10,
   -28, 35, 8, -23, -43, -11, 10, 44,
   17, -2, 11, 24, -46, 28, 10, 25,
   19, -22, 17, -1, -41, -49, -40, -19,
   20, 25, 43, -21, -57, -1, 19, 58,
   -16, -8, 2, -19, 0, -20, -18, -30,
   -5, -16, 19, -21, -35, -32, -28, -19,
   15, 33, 9, 37, 54, 39, -20, -6,
   22, 61, -20, 31, -20, 46, 28, -36,
   54, -78, -24, 97, -18, 75, 40, -50,
   45, -43, 41, 26, 88, 15, -70, -21,
   -17, 44, 6, -69, -11, 72, 6, 9,
   -2, 2, 18, 15, 70, 2, 5, 49,
   -43, 63, -32, 67, 37, -28, -45, -77,
   -12, 63, -46, 24, 28, -3, -40, -54,
   26, -26, -46, 10, 39, 74, -23, -48,
   88, 12, -13, -58, 51, -7, 65, 29,
   -49, 17, 9, 38, 74, 12, 47, 31,
   9, -16, 10, 4, 54, 14, 28, 67,
   45, 52, 51, 74, -31, 1, -45, 2,
   3, -32, -37, 9, 32, -23, 28, 0,
   1, -11, 14, 12, -54, 0, 12, 24,
   7, -22, 16, 3, -31, 15, 4, 18,
   -1, -26, -13, 47, 10, -2, 37, 4,
   4, -77, -20, -36, -23, 11, -26, -44,
   -47, 25, 19, 12, 2, 1, -2, -1,
   1, 34, -20, 14, 53, -31, 32, 37,
   -51, 15, 102, 17, -19, -15, 29, -18,
   -6, -17, 39, 43, 56, 28, 0, -28,
   10, -61, -10, -26, 41, -27, 15, 65,
   -72, -11, 10, 23, -28, 27, 21, -2,
   69, 14, 34, -28, 21, -32, -7, 27,
   -31, -16, -26, 0, 4, -14, 48, 25,
   -4, 4, 65, 3, 11, -32, -4, -25,
   41, -52, 7, -21, -103, 41, -13, 49,
   -8, -1, -62, 4, 1, -21, -9, 16,
   -6, 20, 36, 37, -33, -10, 16, 17,
   63, 3, -23, -30, 11, 3, -16, 43,
   -27, -44, 16, -36, -37, 0, -28, 17,
   32, 37, 31, 5, -17, 25, -7, -11,
   -35, 14, 17, -19, -31, -15, 6, -4,
   -8, 39, 15, -14, 4, 12, 6, -28,
   -18, -27, 27, 0, 5, -55, 0, -28,
   30, 7, 14, -20, -2, -13, -17, -28,
   -3, 24, 8, 12, 11, -12, 5, 48,
   -30, -50, -28, -30, 15, 14, 19, 23,
   -3, 25, 26, -16, 14, 20, -1, -18,
   0, -69, 61, 2, -20, 33, -12, 23,
   7, -12, 0, 54, 12, -1, -29, -21,
   -6, -22, -29, -36, 5, 29, -36, -4,
   -31, -43, 38, -21, 47, 8, 4, 47,
   -16, 5, -42, 40, -28, -46, 3, 28,
   18, -27, 7, 1, 26, 9, -21, 2,
   -20, 25, 0, 25, -26, 4, 43, -10,
   -9, -24, -37, -1, -13, 30, 16, 14,
   -9, -35, -39, -27, 22, -32, -22, 20,
   -19, -32, 26, 16, 21, 10, 34, 21,
   -34, -21, -5, -2, 15, 19, -3, -3,
   14, -22, 30, 2, -18, -30, -24, -7,
   -19, -12, -16, -1, -22, -9, 6, -20,
   13, -26, -8, -9, 6, -34, 9, 36,
   -18, 12, 8, -33, -6, 23, -37, 5,
   11, -29, -7, 62, 12, 10, 14, -50,
   -49, -24, 50, -8, 5, 25, -6, -6,
   -27, -10, -59, -10, 41, 52, -55, 4,
   -23, 28, -15, 15, 42, 3, 38, -8,
   -76, 34, -36, -59, -1, 3, -15, 46,
   24, 69, 56, 31, -29, -29, -5, 38,
   42, 6, 7, 4, -43, -31, 45, 11,
   27, 41, -18, -21, -8, -9, -8, 21,
   -26, -3, 41, 40, 14, -10, -42, -25,
   -17, 8, -52, -17, 54, 25, 44, 5,
   21, 25, -6, 15, 27, 2, 24, 18,
   -17, 46, -12, 43, 10, 11, 5, -7,
   -22, 4, 2, -38, -12, -14, -16, 6,
   -25, 17, -23, 13, -24, 35, 22, 29,
   41, -26, 0, 22, 38, 37, -8, 40,
   -12, 54, 17, -10, 45, -8, -17, 31,
   -27, -12, -38, 0, 32, -15, -8, -8,
   5, 40, 32, -21, -15, -41, 6, -7,
   -27, 62, -30, -24, 21, 8, -56, -36,
   -37, -27, -41, 63, 0, -1, 45, 65,
   2, 61, 9, -18, -11, -24, 29, -55,
   65, -23, 22, -29, -36, 56, -5, -32,
   58, 13, 61, 28, -37, -11, -70, 14,
   -92, -22, -4, -9, -6, 13, -50, -53,
   -16, -19, -14, -46, 2, -5, -7, -18,
   -25, -5, 6, -11, -11, -14, 34, -6,
   -37, -12, 8, -4, 58, -31, -20, -15,
   -19, -7, -59, -7, 15, -15, -13, 53,
   22, -16, -31, -57, 8, -1, 67, 25,
   -17, -25, 4, 35, -6, 10, -61, -63,
   4, -23, -7, -19, 31, 0, 23, -7,
   31, -10, 0, -6, -16, -21, -9, -11,
   -13, -18, 2, -18, 38, -8, 14, 6,
   13, 16, -60, -25, 38, 33, -19, 35,
   -18, -22, -7, -5, 10, 14, 9, 6,
   42, -25, 0, 2, 35, 24, 15, 42,
   3, -12, 12, 0, 20, -10, -5, 20,
   9, -15, 15, -8, -3, -6, 8, 19,
   12, -14, -20, -6, 12, 12, -10, 14,
   -4, 42, -20, -24, 13, -4, 21, -9,
   11, 13, -6, -12, 2, -21, -5, 5,
   -1, -7, 1, 0, -34, 20, -31, 4,
   7, -12, -11, -25, 28, -2, 41, 15,
   -9, -22, -18, -28, 5, 14, -10, 10,
   19, 11, 12, -7, -41, 1, 35, -19,
   -32, -10, -25, 8, 19, 6, 8, -30,
   -12, 9, -24, -19, 15, 18, -8, -22,
   -14, -43, -17, 0, 2, 1, 19, 18,
   21, 2, 2, 8, 3, 0, -4, 3,
   -6, 19, 16, 7, 2, -2, 3, 0,
   -9, 0, -3, 9, -18, 10, -1, 16,
   0, -16, 13, -4, -7, 8, -4, 5,
   6, 14, 16, 20, 13, -6, -1, 2,
   -1, -5, 9, -13, -3, 8, -16, 0,
   -17, -16, 28, 47, -6, 8, 11, 14,
   5, -16, 26, -8, 21, 32, -20, -9,
   -12, -5, -2, -60, 12, -25, 9, -15,
   -26, -33, -55, 10, -39, -10, -19, -10,
   -16, 36, -21, 5, -6, 26, 15, -9,
   16, 19, 46, 14, 26, -1, -26, -4,
   10, 13, 40, 49, -8, 5, 17, -22,
   38, -35, 40, 2, 72, -33, 62, -8,
   15, -17, 15, 33, -23, -111, -32, 53,
   37, 6, 41, -48, 1, -5, 46, -12,
   5, -13, 1, -21, 11, 6, 18, -23,
   12, -36, -51, -12, -7, 23, -32, -14,
   16, 15, 5, 9, 15, 16, -37, 9,
   13, -42, -16, -21, 13, 1, 19, -31,
   27, 13, -6, 2, -24, -18, -10, 13,
   -23, 22, 22, 35, -1, 19, 9, -7,
   -34, 8, 21, 1, 8, -9, 0, 25,
   -36, 22, -26, 8, -29, -44, -19, 2,
   -19, -28, 13, 22, -4, 43, 14, -23,
   11, 10, -13, 40, 35, -24, -40, 5,
   -48, -17, 1, 29, -6, -1, 22, -42,
   -9, 11, 14, -9, -21, 16, -24, -14,
   -22, 35, -13, -5, -9, -1, 22, -39,
   4, -27, -34, 7, 53, -25, -17, -8,
   13, 12, 12, -50, 29, -35, 5, -53,
   10, 38, 46, -25, 5, -55, 7, -43,
   39, 5, 36, -18, -32, 47, 10, -29,
   45, -28, 52, 2, -35, -40, -18, -83,
   4, -14, -14, -18, 10, 41, 11, -3,
   33, -75, -10, 36, 9, -51, -116, -4,
   9, -6, 50, 15, 18, 8, -54, -23,
   19, -18, -24, -1, -33, 1, 57, -35,
   30, 5, 17, -5, 11, 0, -34, 9,
   45, 32, 39, -25, 30, 30, 30, 22,
   -34, -13, 22, 6, 22, 14, -23, 7,
   -66, 14, 15, -22, -31, 30, 28, 12,
   -27, -24, 33, -6, -45, -55, 30, -56,
   21, 11, 16, -17, 3, -19, -41, -2,
   17, 14, -27, -7, 77, -5, 11, 12,
   37, 8, -17, 43, 0, 0, 20, -8,
   12, 29, -13, -28, -27, -52, -4, -29,
   49, 30, 8, -10, -74, -4, -5, -17,
   -8, 57, 15, 2, 26, 18, -60, 22,
   47, 31, -47, 2, -16, -13, -38, -9,
   -35, 52, 4, 7, -3, -52, -21, -50,
   -21, -41, 33, -23, 45, -3, 37, 36,
   3, -3, -37, 40, -7, -15, -43, 32,
   80, -24, -122, -1, 22, 29, -3, 13,
   -3, 13, -50, 62, -25, -38, -19, -17,
   -20, 31, -15, 33, -14, 11, -26, -18,
   -47, 23, 26, 24, -11, 11, -18, -18,
   23, 20, 0, -2, 22, 6, -8, -34,
   36, -37, -18, -2, -21, 18, -41, 28,
   12, 24, -84, -16, 18, -6, -17, 16,
   -26, -23, 71, -4, -16, -70, -38, -9,
   32, -33, 23, -25, 6, -27, 8, -22,
   -75, 44, -18, -120, -43, 4, 64, 11,
   -58, 82, -1, -53, -11, 7, 35, -43,
   -14, 67, -26, -3, 4, 70, 4, 7,
   51, 10, -16, -18, -12, -52, 21, 28,
   -16, 18, 15, 8, 9, 34, -39, 0,
   -37, 4, -45, -16, -38, 18, 28, 39,
   23, -36, -15, 51, -41, -4, 39, 105,
   48, -52, -21, -1, -5, -12, 0, 98,
   -26, 100, -63, 79, -44, 33, -77, -43,
   81, -33, -93, -42, 16, 56, -22, 7,
   -18, -8, -50, 19, 36, -66, -35, 9,
   -34, -10, -23, -56, -27, 47, -45, 20,
   -6, 23, -32, 13, 16, -10, -36, -9,
   -35, -20, 9, -7, -7, 14, -3, -9,
   -19, -19, 26, 2, -12, 11, -10, 30,
   40, -4, 100, 13, 14, -45, -35, 7,
   2, -39, 17, -40, -58, 10, 9, -13,
   -65, 6, 53, -51, 51, -19, 13, 8,
   -74, -36, 46, 45, 31, 16, 26, -9,
   -43, 61, 48, -20, 56, -10, -24, -20,
   -23, 80, 23, 11, 13, 1, -36, -47,
   27, -40, -82, -26, -36, -2, -16, -11,
   -13, 39, 64, -70, 0, -64, -8, 54,
   0, -36, 8, 59, 20, -10, -38, 3,
   -119, -63, -36, -14, 1, 14, 58, -70,
   30, 24, -45, 26, -44, 17, -41, 16,
   -66, 23, -42, -19, 73, -2, -35, -8,
   27, 31, -85, 41, 94, -50, 28, -27,
   5, -12, 87, -20, -13, -16, -55, -2,
   -6, -1, -5, -19, -62, 25, -59, 37,
   -5, 7, -10, 17, -25, -25, -24, -22,
   32, -28, -3, -24, -2, 4, -3, 6,
   -33, -15, 9, -26, 29, 13, 35, 27,
   50, 20, -38, 29, 1, 47, -11, -19,
   -22, -121, -9, 14, 67, 125, -88, -78,
   -30, -69, 42, -58, 89, -34, -18, 0,
   -13, -95, 114, 40, 21, -119, 53, -40,
   127, -87, 114, 30, -127, -74, 127, -75,
   125, 24, 40, 66, -52, -35, -117, -96,
   -11, 5, 73, -6, 19, 124, -42, 89,
   -13, 19, -127, -7, 7, 79, -6, 58,
   126, -71, 127, 5, -116, 91, -44, -113,
   90, -7, 4, -66, -45, 28, -56, -101,
   -70, -87, -45, -31, 42, 97, -53, 37,
   82, -9, 9, -28, 25, -24, 28, -99,
   -104, 15, -31, -24, 59, 78, -15, -118,
   -34, -68, 35, -9, -69, 107, -110, -45,
   79, -11, 66, 127, -28, -5, -124, 42,
   124, 1, -7, -127, 119, -10, -93, 99,
   67, 18, 36, 8, -31, -33, -74, 32,
   36, -120, -80, -34, 72, 22, 63, 63,
   21, 34, 123, 9, -29, -126, 85, -36,
   126, -68, -18, 10, 13, -4, 20, -27,
   -101, 9, 99, -31, 120, -88, 120, -56,
   11, -4, 58, 3, 30, -51, 7, 29,
   -122, -22, -32, -125, 5, -91, 114, 127,
   -31, -61, 2, 41, -102, 63, -44, -74,
   70, 49, -29, -5, -7, 112, 88, 126,
   -37, 68, 49, 51, -126, 109, -87, -126,
   -56, -73, 81, 4, -15, 121, -39, -68,
   -65, 10, 127, -26, -100, 63, 45, 105,
   78, -37, 77, -10, 79, 50, -65, -5,
   75, -8, -42, -1, -128, -104, 115, 35,
   -14, -7, -70, 3, -20, -54, -20, 11,
   -97, -85, -128, 8, -26, 112, 78, 35,
   11, 39, 118, 51, 119, -117, -99, -60,
   -127, 10, 38, -24, -125, 86, -77, -26,
   24, -5, -6, 6, 34, -23, -127, 10,
   6, -66, 24, 2, -7, 12, -62, 25,
   32, -31, -42, 48, -104, 96, -125, 84,
   127, 48, 125, -54, -36, 31, -33, 117,
   -42, 22, 127, -8, 4, 10, -89, 49,
   52, 96, 18, 57, 43, 42, 119, 14,
   -90, -86, -78, -100, -22, -6, 83, -87,
   7, 126, -28, 38, 31, -18, -110, -86,
   -14, 38, 120, 108, 56, -69, 40, 127,
   -54, 15, -55, 68, -77, 55, -125, 9,
   63, -7, 28, 31, -82, 67, 36, 52,
   39, 61, 94, -39, 126, -57, -70, 125,
   65, -81, 17, -35, -12, 31, 35, -24,
   -41, -116, -14, 34, 49, -17, 127, 37,
   -124, -10, 39, -125, -35, 69, 126, 127,
   -31, 16, -60, -23, 25, -12, 29, -26,
   -54, 26, -55, 45, -63, -106, -10, 29,
   14, -42, 41, 0, 127, 7, 30, 127,
   122, -67, 55, -11, -54, 56, -97, 42,
   -112, -98, 44, -60, 47, 28, 64, -30,
   0, -34, -17, 0, -127, 42, 27, 56,
   -126, 3, 46, 48, -114, 108, -73, 8,
   -59, 122, 44, 30, -41, -37, -29, 85,
   69, 60, 11, -87, -26, 87, 20, 16,
   79, -99, -35, -48, -54, -39, -42, 13,
   62, 44, 45, 49, 47, -91, -103, -116,
   -4, 124, -23, -18, -128, 74, 66, 84,
   20, 72, 127, 48, 84, -26, -8, 20,
   57, 109, 64, 127, 40, -66, 13, 120,
   -95, -128, -93, 28, -126, 122, 3, -47,
   -2, 44, 55, 19, -101, -120, 70, -8,
   33, 127, -45, -97, -76, 84, -70, -22,
   33, 22, -17, 22, -26, 61, -44, 14,
   -27, 4, -120, -85, 55, -52, -104, 43,
   18, 19, -35, 30, -126, -91, 104, 126,
   -7, -7, -46, 125, -123, 2, -48, -56,
   40, 55, 6, -53, -50, 124, -34, -48,
   -14, 69, -23, -32, -101, -105, 26, -6,
   -2, -87, 108, 9, 77, -75, -24, -79,
   28, 87, 20, 15, -62, 64, 24, 26,
   59, 67, -31, 89, -60, -73, -46, -58,
   -21, -61, 44, -111, -127, -26, -93, -105,
   -52, 43, -123, -94, -10, -53, -90, -71,
   -33, 22, -85, 37, -105, -125, -76, -127,
   125, 127, 64, -123, 83, -94, 90, 0,
   -9, 126, 38, -81, 77, -83, 61, 59,
   126, -120, 71, -4, 14, -124, 92, 127,
   -6, -3, 125, 36, -127, -79, 127, 127,
   -127, -72, 127, -38, -9, 107, -19, 16,
   124, 103, -128, -65, 30, -70, 28, -66,
   21, -121, -43, 44, -69, -127, 60, -119,
   -36, 4, -81, 32, 27, 24, 78, 55,
   -18, -47, -127, 64, 25, -51, 65, 125,
   -3, -95, 56, -20, -105, -9, 56, 126,
   118, 10, -21, -18, -128, 66, 40, -19,
   85, 126, -128, 78, -127, 49, 40, 26,
   -127, -116, -126, -65, 122, -2, -22, -58,
   -20, 107, 127, -85, 0, -84, -47, -120,
   -23, 74, -21, -56, -100, 5, -128, 7,
   -53, -8, -125, -41, -107, -11, -53, -127,
   -54, 36, 79, 11, 26, -128, -75, 52,
   53, -27, -37, -124, 7, -109, -22, -128,
   -40, 125, -4, -84, 99, 103, -34, -20,
   -127, -107, -92, 119, 63, 82, 123, 98,
   40, 123, 93, -124, 33, 43, 34, -31,
   -113, 16, 123, 2, 126, 75, -48, 127,
   -50, -61, -35, 31, 62, 37, 127, -128,
   58, 122, 112, -39, -96, 58, 32, 126,
   -16, -67, 39, -87, -108, 127, 39, -108,
   65, -1, -96, 22, 18, 67, 78, 24,
   70, 127, 47, 2, 127, -127, 23, 39,
   10, -94, 99, 23, 8, -45, 56, -12,
   115, 117, -38, 27, 20, 92, 20, 101,
   -71, 116, -122, 77, -109, -23, -80, 62,
   50, -69, 127, 94, 20, -108, 101, 41,
   -69, 127, 41, -77, -16, -26, -126, 126,
   -115, 77, 39, 127, -70, 73, -126, 50,
   50, 55, 127, -10, 12, 10, 22, 72,
   45, 54, 2, 18, -45, -120, -122, -100,
   -63, 0, 87, -7, -63, -92, 4, -96,
   -50, -21, -75, -86, 46, -124, -4, -39,
   -125, 55, 82, -59, -72, -67, 57, 1,
   22, -92, 70, 118, -100, 1, 37, -110,
   -120, -127, -9, -47, -122, -83, 54, 125,
   -122, -25, 17, -65, 1, 94, 107, -10,
   11, 5, 17, -34, 35, 57, -124, 52,
   103, 36, 65, 5, -14, -97, -35, -4,
   -40, -6, 23, 5, 43, -67, 126, 99,
   -38, 12, 127, 127, 96, -19, 109, -68,
   -122, -118, -124, -31, 3, 34, 48, 46,
   47, -16, -13, -29, 37, 8, 107, 4,
   79, 104, -3, -61, -88, 48, -127, -18,
   24, -18, -106, 39, -33, 85, -81, -91,
   -11, 127, -125, 122, -33, 22, -127, -90,
   -101, -126, 122, -128, 10, 51, -81, -15,
   65, 56, -13, -83, 16, -125, 10, 95,
   21, 28, 125, 45, -59, -127, -65, 34,
   -127, 52, 114, 127, 68, -89, 8, -29,
   46, 15, 53, -122, 52, -71, -30, -16,
   124, 50, -43, 8, -100, -71, 30, 101,
   60, -18, -113, 126, -122, 121, 2, 12,
   -59, 6, 0, 123, 113, 35, 3, -18,
   40, -68, 59, 5, -9, 21, 9, 17,
   -6, 111, 20, 92, -100, -32, -36, -90,
   -98, 2, -79, 105, 54, -99, 13, -85,
   -34, 100, -123, 73, 28, -128, 16, 75,
   67, 0, -85, -7, 0, 55, 38, -121,
   -123, -127, 60, 2, -19, -1, -125, 127,
   -127, -122, -81, -34, 60, 72, 83, 96,
   115, 126, -25, 33, -98, -30, -89, -125,
   96, -37, 112, 86, 25, -68, -46, -31,
   -127, 127, -6, -116, 10, 45, -125, -104,
   -127, 124, -124, -76, -122, -115, -75, 48,
   -14, 76, 13, 36, 70, -87, -39, -127,
   115, -66, -93, 127, -17, -69, -117, -127,
   116, 117, 120, -36, 123, 0, 40, -33,
   127, -43, 103, -5, -127, -37, 84, -3,
   97, 126, -127, 36, 25, 116, 127, 61,
   3, 125, 30, 42, 2, 56, -56, 125,
   125, -59, -122, 20, -117, 77, -79, 106,
   29, 109, 127, 53, 17, -88, 93, -120,
   -28, 125, 59, 32, -28, -75, -127, 39,
   9, -59, -126, 18, 20, -126, -1, -62,
   36, 45, 27, 123, -29, -78, 106, 110,
   37, 13, -126, 81, 127, -52, -68, 72,
   -54, -127, 65, -85, -117, -102, 29, -38,
   -12, -52, -106, -13, 55, -6, 37, -52,
   -38, 126, -120, 127, -98, -114, -128, 28,
   2, -78, -53, -30, 117, -44, 69, -51,
   -14, 127, 34, -5, 23, -40, -128, -8,
   21, 120, -2, 50, -118, -82, -66, -73,
   88, 126, -28, 21, 41, 17, -91, 91,
   48, -121, 3, -13, 18, 123, -127, 68,
   -9, 39, -23, 88, -121, 15, 121, 99,
   127, 80, 49, 53, -76, 114, 58, -83,
   -125, 127, 66, -123, 98, 120, 55, 114,
   27, -20, 47, -2, 13, -111, 5, 124,
   107, 4, 78, -22, -35, 127, 3, 127,
   32, 23, 122, 30, 99, 21, 58, -56,
   -123, 75, 111, -128, -105, -97, -127, 11,
   13, -44, 46, 46, -35, -108, -49, 47,
   -128, 13, 28, -24, -81, 121, 127, 98,
   -69, 27, 29, -11, 23, 36, -128, 126,
   3, -114, -122, 1, 123, 6, 119, 127,
   -86, -127, -119, -14, 37, -1, 24, 41,
   -4, 39, -36, -106, 0, -49, -127, -79,
   -114, -116, 4, -2, 120, -63, -86, -9,
   -92, 110, 31, 73, -70, -42, -119, -14,
   -47, 127, -117, 108, 127, 26, -18, -18,
   -92, -96, 84, -2, -96, 50, 57, -52,
   126, 88, 50, -94, -36, 95, -26, -31,
   91, 124, -13, -85, -82, 127, 67, 87,
   94, 93, 59, -103, -40, -22, -19, -62,
   55, 127, 42, 30, 39, -114, -19, 68,
   85, 24, -26, 67, -125, -1, 75, 124,
   -22, -106, -18, 43, 12, -128, 105, 117,
   -67, 120, -31, -72, -71, -113, 48, -78,
   -93, 18, -58, -86, 110, -118, -102, -128,
   -56, -15, -128, 6, -88, -43, 66, 48,
   69, 112, -49, 127, -31, -127, 127, 127,
   31, -11, -25, 80, -90, -60, -39, 40,
   -32, -124, 78, -31, -71, -112, 4, -26,
   -49, -61, -74, 127, -32, 14, 94, -42,
   50, -101, 8, -2, 127, -79, 48, -125,
   56, 20, 40, -20, 49, -83, 17, 36,
   45, 107, -41, 119, -52, 91, -56, 127,
   -69, -13, 52, -31, 87, -21, -29, -17,
   -92, 127, -117, -78, 71, 6, -1, -63,
   -127, -9, 112, -76, -123, 70, -63, 42,
   40, 125, 29, -104, -83, -127, 63, 76,
   49, -114, 39, 82, 106, -127, 70, 48,
   9, 9, -58, -18, -54, -31, 56, 66,
   1, -61, -114, 47, 46, -55, 4, 127,
   -13, 100, 83, 29, -102, 10, -48, 29,
   126, 20, 19, 32, -97, 26, 97, -37,
   -85, 127, -112, 29, 1, -115, 0, -121,
   -100, -41, -120, 32, -116, -11, 126, 67,
   1, -46, -127, -94, -69, -124, 127, 125,
   -24, -127, 5, -107, 39, -108, 46, 125,
   52, -126, 115, -41, 121, 95, -122, 17,
   -45, -101, -122, 40, 9, -126, 3, -48,
   -21, -6, -125, 117, 81, 20, 14, -115,
   -72, 7, -40, -60, 46, -11, 103, 27,
   -56, -124, 4, 106, 51, -128, -61, -89,
   -78, 124, 30, -89, -119, 51, 75, 127,
   -35, 123, 127, 123, 95, 79, -121, 101,
   54, 59, 27, -105, 2, 25, -81, 126,
   15, 57, -52, 111, -9, 25, 115, 95,
   -30, 121, 95, 40, 59, 124, 124, -84,
   2, -48, 76, -18, -126, 39, 65, 0,
   -71, -59, 3, -57, 63, -58, -37, 28,
   -50, -8, 9, -56, 0, -75, 125, -125,
   -51, -46, -119, 73, 8, -96, 5, 24,
   45, 39, -28, -126, 9, 16, -78, -105,
   -23, -65, -3, -88, -47, -36, -49, -38,
   -125, 34, -95, 39, -78, -87, 102, 84,
   -12, 105, -38, -23, 73, -112, 17, -35,
   -125, -32, -58, -26, 2, -49, 88, 34,
   -52, -14, -57, 103, -91, -60, -20, -49,
   93, -115, 75, 26, 87, -47, -53, -125,
   57, -5, -87, 48, 9, 22, -67, -12,
   102, -72, 96, 37, 122, -48, -48, -128,
   124, -36, -126, 92, -74, 1, 5, -128,
   6, -115, -77, -75, 27, -50, -45, 39,
   127, -75, 125, -115, -48, 110, -16, -126,
   -126, -1, 51, 112, 126, 123, 29, 127,
   -89, 69, 55, 62, -113, -30, 112, 127,
   -35, -128, -10, -124, 97, -6, -18, -54,
   -123, -125, 76, 86, -33, -122, 83, -85,
   125, -128, -61, 0, -32, -93, 32, -24,
   -5, -86, -114, -20, -3, -128, -12, -47,
   11, -92, -84, 4, 49, -85, -127, 21,
   -43, -6, 113, -114, -97, 40, -125, 123,
   -109, 38, -16, 125, 29, 89, -91, -31,
   -97, 127, -71, 41, -19, -54, -121, 115,
   125, -46, 105, -127, 127, 8, 120, -9,
   -14, 127, 4, 34, 24, -69, 123, 72,
   57, -115, 83, -56, 95, -76, -52, -128,
   -70, 61, 21, -75, 10, 26, -125, -18,
   33, -91, 118, -127, 121, -94, 126, -60,
   17, -57, -54, -41, 127, -43, 107, -118,
   -18, 7, 58, 3, -41, 5, -121, -15,
   -128, -61, 66, 21, 71, 127, -128, 124,
   -30, -121, -18, -119, 14, 53, 116, 73,
   24, -72, 84, 108, 118, 17, -106, 126,
   -86, -127, -106, 0, -37, 38, -8, 18,
   -125, -108, 71, -3, 76, 4, -117, -92,
   -81, 20, 34, -10, 69, -65, -35, -90,
   98, -11, -41, -83, 37, 0, -47, -38,
   -3, 60, -73, -111, 49, -124, 127, 82,
   -123, -7, 49, 49, -82, 31, 78, -126,
   127, 42, -64, 35, 93, 127, -55, -125,
   37, -33, -90, -25, 74, -69, -84, -32,
   -118, 111, 72, -127, -88, 83, 47, 92,
   -39, 121, -45, -19, 2, -116, 68, -91,
   30, 39, 14, 125, 99, -35, 127, -128,
   40, -68, -64, -63, -126, -116, 127, -6,
   -17, -45, -29, -84, 105, 126, -77, -66,
   -45, 66, 127, 122, 35, 123, 71, 127,
   -53, -34, -127, 126, -22, 49, 80, 74,
   -19, -62, -69, -118, -41, 98, -128, -98,
   -103, -94, -77, 127, 11, 9, -68, -81,
   111, -9, 97, 25, 60, 127, -56, 122,
   115, -36, 29, -20, 57, -66, 85, 16,
   -126, -53, 82, -127, -5, 47, -29, -125,
   -122, -73, -80, 9, 80, -90, 112, -59,
   -29, 6, -125, 67, 17, -68, -39, 26,
   -39, 18, 17, 14, 34, -98, -48, -83,
   126, 113, -22, 115, -29, -10, -89, 70,
   -123, 24, -32, 121, 44, -126, 92, 32,
   -66, -50, 20, 84, 63, -16, 101, -97,
   -122, -127, -120, -4, 57, -51, 81, -112,
   63, -120, -80, 100, 90, -123, 65, 53,
   -9, -27, 87, 33, 62, -23, 118, -78,
   126, -126, 127, 9, 79, -9, -47, -3,
   27, 2, -7, 41, -97, -53, -29, -23,
   4, 46, -34, -4, 14, 26, -31, -72,
   46, -29, -29, -52, 41, -80, -16, 6,
   4, -7, 31, -3, 15, 82, 77, -27,
   -2, 28, -52, 124, -48, -13, -28, 23,
   -21, 35, -20, -114, 37, -86, -43, 73,
   -49, 92, 90, 32, 51, -17, 41, -4,
   -1, -53, 32, -25, -24, -16, -15, -43,
   84, 44, -74, -4, -10, -54, 6, 23,
   -38, 2, -110, -16, 47, 8, 27, 18,
   -6, 57, -42, 0, 20, -12, 17, -47,
   61, 22, 35, 127, 122, 71, -24, -46,
   -9, -6, -22, 15, 42, -9, 19, 37,
   -126, 2, 71, 46, -38, -45, -22, -120,
   45, -127, -84, -17, 107, -73, -24, 75,
   -5, 15, -23, -63, -14, 3, -43, 35,
   -126, 21, -68, -19, 41, -45, 126, 2,
   -34, 10, 25, -12, 43, 4, 9, -128,
   -3, 124, -43, 19, 0, 64, 58, 41,
   -34, -28, 27, -42, -39, 18, -5, -14,
   -47, -1, -81, -3, 50, -58, 12, 6,
   -87, -5, 9, 119, 79, 22, 5, -20,
   75, 14, -32, 38, -68, -12, -21, -33,
   51, 121, 102, -69, -120, -33, 2, 70,
   -35, -62, -25, -47, -38, 10, 78, 5,
   51, -23, 33, -105, 84, -28, 78, -99,
   16, -77, -127, -49, -49, -107, -60, 127,
   124, 127, -45, -80, 74, -65, 47, 38,
   16, -68, -6, -3, -79, -9, 68, 109,
   -50, -65, -114, -13, 69, -10, -117, 81,
   98, -32, -19, -38, 9, 60, 6, 39,
   39, -15, -10, -125, -17, -17, 94, -120,
   20, -71, -39, 39, -63, 55, 65, 74,
   -15, -53, -25, -102, 25, -124, -50, -123,
   46, 15, -125, -76, -54, -41, -30, 7,
   -52, 9, -56, -8, 28, -128, -10, -126,
   -9, 127, 18, -60, 11, 6, -74, -74,
   127, -34, -44, 94, 78, -37, 37, -41,
   -19, 127, -12, -12, -92, 64, 22, -28,
   37, 6, 8, -17, 22, 121, -34, -22,
   -5, 39, -7, 74, 5, -14, 55, -78,
   26, 97, -72, -101, -99, 93, 100, 100,
   38, -38, 47, 68, 100, 9, 28, -5,
   116, 115, 63, 113, 28, -103, -55, -124,
   31, -65, -124, -116, -51, -31, 65, -68,
   -13, -22, -62, 38, 41, 87, 7, -10,
   19, -23, -10, -47, -21, 118, -25, -63,
   121, -42, 126, -36, -46, 56, -93, 16,
   22, 4, 127, 94, 18, 15, -115, 43,
   124, 89, -14, 30, 52, 124, 127, -57,
   71, 84, -82, -45, 56, 10, -6, -46,
   85, -40, 4, -66, -59, -126, 6, 127,
   33, -94, -56, -41, 91, 33, -73, 77,
   -66, 47, 50, -40, -113, 121, -60, 59,
   126, 4, -112, -66, 105, -126, 95, -61,
   -40, 6, -29, 84, 21, -9, -117, -45,
   -90, -28, 19, -18, -16, -21, -36, 32,
   8, 22, -115, 41, 27, 61, -4, 47,
   2, -18, 1, -43, -35, -79, 12, -103,
   127, 89, 68, 26, 52, 31, 5, 77,
   5, 99, 22, -30, 25, -126, -45, -2,
   -32, -46, -71, 21, -6, -32, 32, -125,
   -14, 38, -49, -8, -17, -42, -21, -84,
   -49, -49, 108, -2, -95, 59, -3, 7,
   -43, -49, -9, 65, 127, 32, -128, 2,
   -62, 114, -99, -4, 54, -35, -110, -18,
   49, -1, -64, 121, -114, -117, -62, -27,
   -89, -99, 18, 127, 12, 30, -71, 65,
   63, 114, -82, 67, 34, -53, -123, 15,
   -70, 68, -49, -16, -13, -94, -28, -70,
   -34, -81, -127, -58, -46, 25, -123, 107,
   -25, 8, -127, -29, 78, -41, -12, 71,
   28, -45, 34, -8, -42, -96, 116, 12,
   103, -127, -117, 25, -46, -124, -109, 3,
   -114, 13, -26, -59, -5, 65, -39, -40,
   112, 80, 103, 18, 28, -47, -7, 23,
   -77, 32, 122, 103, -19, -24, -22, -101,
   55, -127, 92, 103, -4, 13, -17, 7,
   -104, 36, -33, -80, 95, -104, 51, 87,
   -12, -23, -59, -127, -58, -93, 16, 97,
   -44, -124, -124, -12, -67, 50, -120, 54,
   -7, -5, -83, 95, -32, -107, 24, -23,
   -124, -56, 20, 104, -106, 20, -77, 21,
   53, -126, -18, -33, 93, 127, -111, -62,
   39, -1, -87, -24, 52, -120, -47, 9,
   51, 76, -21, -128, -50, 126, -71, -25,
   89, 24, -102, 51, -76, 16, -25, 4,
   -65, 19, 74, -125, 34, -101, -46, 52,
   -33, -90, -45, -37, 66, -120, -18, 53,
   121, -93, 127, -24, 125, -24, 12, 127,
   18, 21, 73, 79, 21, 61, -103, 84,
   -78, 67, -11, -63, -126, 2, -5, 97,
   -33, -49, -114, 1, -69, 0, -65, -26,
   61, 16, -13, -38, -79, 53, 102, 19,
   35, 91, 54, 22, 5, -7, -49, -16,
   -119, -5, -106, 19, 101, -8, 102, 68,
   -8, 123, 15, -52, -8, -110, -86, 89,
   -5, -66, -56, 107, -35, 77, 115, 90,
   -63, -44, -22, -58, -62, -10, -44, -66,
   -80, -86, 86, -44, -41, 82, 8, 90,
   -80, -109, 67, -87, 127, 56, 24, -127,
   -33, -25, -127, -22, -52, -65, -5, -45,
   -73, -4, 127, 25, -106, 20, -78, -31,
   -21, -47, -58, 53, 1, 47, -87, 76,
   113, 82, -60, 33, -107, -60, -62, -13,
   40, 1, -3, -103, -65, -9, -46, 1,
   -29, -70, -5, -51, -2, 44, 14, 62,
   127, 30, -107, -62, 15, 71, -88, 95,
   -29, 33, 39, -52, -14, 12, -27, 27,
   -17, 36, -60, 2, -41, -74, 6, -48,
   -46, 42, -29, 38, 36, 64, -22, 0,
   60, 10, -37, 22, -24, 3, 1, -32,
   11, -16, -27, 77, -71, 63, 8, 93,
   5, -113, -67, -49, 126, -64, 14, -105,
   47, -89, -49, 12, 34, -73, -27, -16,
   -17, -53, 27, 12, -6, -4, -31, -84,
   9, -126, 62, -113, -11, 44, -114, -56,
   41, -14, -53, 72, 88, -61, 92, 26,
   -127, 48, 31, -24, 44, -28, -12, 50,
   -14, -12, -11, 86, 85, 106, -32, 31,
   -74, -34, -8, -27, 34, 1, -8, -125,
   -77, 8, 40, 38, 43, 5, -33, -119,
   -6, -14, -27, -19, 92, 6, 33, -69,
   -42, -8, -82, 101, -5, 34, -25, 92,
   -88, 24, -37, 49, 62, -12, 90, 38,
   -49, -3, -23, 3, 13, -39, -7, -115,
   98, 58, -125, 17, -39, 56, -73, 70,
   -13, -93, 81, 98, 2, -2, 26, 64,
   -58, 1, -35, -59, -41, -83, 50, -9,
   -41, -16, -12, 81, 74, 37, -49, 99,
   53, -18, -36, -36, 127, 58, 0, 53,
   -25, 124, -84, 12, 6, -56, 23, 55,
   67, -80, -43, -61, -14, 33, 33, 70,
   109, 29, 49, -6, -14, 47, -28, 27,
   -121, 2, -80, 91, 32, 30, 28, 57,
   -86, 42, 0, -69, 50, -8, -64, -19,
   27, -43, -11, 42, 39, 78, 119, 120,
   -112, -19, -49, 23, 2, -52, 8, -1,
   102, -46, -10, 72, 26, 18, -10, -21,
   1, 40, -45, 14, 27, 45, 77, -86,
   -102, -71, 38, -36, 9, -59, 75, 16,
   -86, 58, -12, 73, 49, -30, -54, -128,
   72, 9, 75, 46, -25, 68, 42, 34,
   11, 88, -56, -32, 44, 13, 111, -70,
   51, 54, -33, 85, -55, 24, 102, -67,
   106, -74, -18, -76, 121, -18, -32, 1,
   -4, 126, -70, 79, -32, 123, 108, 58,
   -8, 25, -25, -37, -38, 107, 2, -47,
   -70, 63, 3, 91, 20, 21, 25, -33,
   -31, 15, 47, -1, -13, -3, -10, 7,
   -8, -45, -3, 11, 33, -33, 86, -22,
   42, -7, 3, 117, 18, -23, -42, 42,
   33, 40, 113, 24, -40, 23, 29, -30,
   -47, 32, -51, 60, -14, 5, 25, -19,
   -34, 2, -90, 57, 127, 70, -33, -2,
   123, -44, -26, 38, 68, 15, -15, -81,
   47, 32, 99, 37, 71, -2, 44, 110,
   127, -11, -50, 77, 19, 21, 36, -8,
   8, 4, -1, -2, -96, -17, -60, 105,
   29, 48, 14, -8, -121, -52, -2, 118,
   51, 13, -46, 43, -33, 82, 0, -59,
   -49, 21, 63, -8, -36, -28, 20, 35,
   -73, 65, -76, 19, -19, -13, 35, -119,
   127, -22, 86, 37, -57, 85, -74, -35,
   -55, -90, -72, 18, -67, -38, 82, -17,
   -29, -114, 5, 78, -7, 3, -18, -22,
   17, 5, -63, -114, -109, 127, 10, -61,
   35, 54, -59, -116, -45, 7, 56, 85,
   -71, 74, 84, 11, 50, -114, 27, 7,
   84, -108, 37, -22, 56, 22, 76, 15,
   -123, -7, -5, 91, 13, -27, 109, 22,
   72, 68, -27, -86, -91, 18, 32, -30,
   0, 27, 51, -89, -76, 74, -85, 4,
   -30, -64, -24, 14, -25, 58, -18, -101,
   -102, 51, -14, -66, 15, -75, -9, 127,
   -62, -95, -2, 19, 66, 64, -15, -34,
   86, -94, 30, -3, 107, -12, 81, -80,
   -1, 71, -74, -61, -79, -124, -45, 27,
   -10, -6, -102, -30, 6, -38, -39, 24,
   -23, 37, -91, 13, -34, -8, 32, 19,
   125, 115, 121, 98, 22, -10, 47, 8,
   40, -3, 47, -20, 21, 23, -113, -118,
   -14, 6, 5, 33, -11, -120, 86, 76,
   34, 68, 14, 127, 77, 126, 8, 10,
   80, 39, -22, -27, -21, -57, -44, -60,
   -42, -12, -14, -24, 10, -24, 37, 29,
   -91, 77, 52, 43, -80, 106, -23, -70,
   -23, 66, -82, -31, 49, -43, -3, -92,
   -51, 35, -30, -15, -8, 126, 98, 17,
   -45, 71, -38, 72, 27, 55, -26, 89,
   -18, -60, -16, 87, 40, 36, -40, -115,
   -13, 39, -49, -34, -117, 3, -55, 2,
   -17, 60, -14, -70, -33, -38, -4, 104,
   115, 16, -61, -38, 36, -4, 5, 35,
   -28, 60, 15, 6, 27, -3, 63, -122,
   27, -7, 11, -16, -45, 10, 30, -28,
   -20, 0, 104, 33, 53, -32, 37, 86,
   82, -16, 14, 46, 32, -9, -55, 87,
   -15, -87, 5, -7, 62, 14, -61, 41,
   20, -89, -20, -58, 88, 62, 20, -60,
   51, 125, -126, -53, -16, 21, 61, 16,
   -11, -31, -44, 24, -71, 80, -104, -8,
   -75, -123, -70, -60, -70, 29, 22, -128,
   62, -23, 17, -28, 31, 2, -36, -27,
   -21, 111, 4, 127, 32, -18, 32, -125,
   70, -123, -25, 46, -36, 50, 38, -20,
   85, -28, -26, 35, 16, -117, 59, 12,
   -52, -16, 34, 36, 39, -6, 127, 8,
   -106, -26, -3, 24, -1, -34, -28, -92,
   40, -63, -124, 80, -15, 27, -24, -36,
   -6, 15, 23, 15, -52, -8, 2, 28,
   -105, -126, 102, -9, -64, 27, -36, 93,
   31, -11, 13, 9, -47, 23, 35, 8,
   16, -3, -11, -90, -40, -72, 52, 105,
   -23, -9, -105, 9, 61, 127, 63, -3,
   10, -18, -51, 20, 15, -28, 84, 73,
   43, -128, 109, 99, -126, -128, 51, -71,
   77, -62, -63, 74, 79, 26, -35, 125,
   -14, -101, 8, -109, 31, -126, -126, -51,
   38, -52, -73, -3, 31, -127, -80, -57,
   -67, 8, -15, -29, -28, -12, 13, 125,
   -127, -2, 63, 24, 127, -51, 31, 53,
   -91, -65, 42, -127, -57, 122, -62, -68,
   101, 7, -63, -104, 106, -102, 81, 24,
   -125, -42, 1, 82, 54, -118, -1, -55,
   5, 10, -122, -128, -125, -124, -123, -63,
   -20, 22, 62, 44, 28, -114, 35, -128,
   -65, -127, -31, -41, 127, 124, 95, 126,
   61, 127, -37, 63, -125, 127, -48, -76,
   6, -47, 39, -82, 6, 127, 6, -72,
   -91, -115, -22, 127, -68, -125, 28, -87,
   11, 25, -126, 79, -10, -102, -63, -47,
   53, 16, 10, -41, -28, 44, 127, -11,
   17, 29, -30, -31, -78, 32, 73, 85,
   -76, -128, -3, 54, -125, -118, 66, -56,
   105, 44, -19, -71, 53, 77, 27, 40,
   47, 95, -12, 13, 5, -99, 26, -11,
   39, -74, -90, 74, -3, -127, 12, 21,
   71, -23, -102, -52, 16, 103, -13, 84,
   11, -69, 26, 13, 18, 87, 40, -11,
   -119, -32, 34, 54, 3, 111, -24, -69,
   -2, 104, -32, -35, 80, -127, 8, 10,
   -124, 72, 6, -79, 19, -80, -4, -92,
   -29, -10, 0, -128, -125, -122, -115, 14,
   -62, 88, 64, 35, -90, 0, 6, -125,
   46, -52, 47, 4, 115, 22, 52, 126,
   79, 127, 0, -39, -125, 127, -3, -69,
   -41, 77, -42, -18, 65, 127, -69, -44,
   -30, -53, -123, -6, 33, -24, -34, -108,
   -41, -21, -74, 29, -37, -121, -78, 23,
   -46, 125, 92, -38, -23, -11, 32, 20,
   -21, 72, 19, -14, -39, -34, -17, 125,
   12, -74, -41, 61, 118, 120, 102, -106,
   104, -4, -124, -58, -30, 126, 85, -37,
   123, 124, 81, 127, -71, 28, 11, 108,
   44, 21, 127, 36, 102, 127, 29, 7,
   93, 127, -77, -121, 127, 40, -74, 33,
   127, -38, 25, -89, -57, 18, 57, -117,
   68, 54, -41, 127, 120, 20, 62, -89,
   -65, 99, 22, -118, -85, -127, -7, 67,
   126, -29, 51, 14, 1, -123, 29, -37,
   48, 64, 93, 54, -11, 127, 121, 98,
   -21, 40, -31, -34, -28, 119, 17, 73,
   96, 121, 92, 45, -23, -83, -91, -67,
   115, 123, -19, -124, 64, -20, -103, 10,
   46, 46, -30, 18, 95, -66, 90, 13,
   54, 77, 15, -128, 121, 121, 84, -30,
   -43, -15, 127, -117, -124, 62, -56, -36,
   -128, 20, 42, 17, -54, -34, -125, 71,
   -38, -46, 14, 11, 127, -38, -14, 103,
   35, 127, 58, 9, 123, 72, -16, 68,
   -61, -126, -128, 16, -84, 74, 71, 79,
   73, -12, 76, -127, -5, 126, 77, -37,
   100, -41, -12, -9, 114, 29, -16, -126,
   -125, 124, 50, -15, 17, -23, -85, 39,
   105, 105, 10, 5, 113, 127, 60, -82,
   91, -27, 12, -37, 122, 11, 51, 10,
   33, -73, 44, -128, 121, -77, -7, 14,
   119, -21, -91, 62, -22, -120, -62, -100,
   4, 52, -42, -16, 36, 127, -3, 73,
   -12, -124, 33, 11, 20, 65, 127, 109,
   71, -28, 8, 29, 63, 50, -75, -15,
   62, -127, 45, -13, -8, -15, -58, -55,
   -3, -106, 38, -113, -26, 74, 127, -30,
   -36, -52, 10, 109, 82, -127, 126, -6,
   43, -36, -4, -108, 3, -7, -65, -125,
   127, -125, 74, 19, -122, 28, 46, 57,
   -35, -66, -17, 48, -21, 5, 15, 86,
   -23, 42, 57, -44, -42, -58, -41, 5,
   -90, 120, -77, -128, -85, -49, 62, 25,
   -30, -55, 2, -118, -82, 50, 106, -11,
   127, 29, -44, -7, -27, -99, 4, 73,
   -34, 121, -35, -69, 28, 75, -109, 55,
   -72, 122, -2, 21, 94, 56, 123, -95,
   114, -107, 7, 127, 114, 32, 102, 69,
   -16, -94, -30, 69, 127, -106, 47, 51,
   46, 71, -112, 48, -73, -42, -49, 22,
   -43, 62, -21, -6, -46, 122, 36, 113,
   -109, -127, -111, 70, 40, 101, 127, 123,
   -19, -8, -109, 16, 36, -45, 16, -42,
   66, -128, 52, -32, -42, -7, 59, 7,
   8, 55, -20, -11, 19, 126, 60, -19,
   -57, -45, -49, 126, -42, -28, -43, 62,
   77, 58, -7, 6, -71, 3, -53, -34,
   13, -107, 127, 42, 24, 8, -81, -1,
   46, -4, 41, 99, -48, 18, -98, 6,
   -62, -60, -55, 9, -16, 22, 122, 16,
   62, -32, -33, 47, -128, 80, 4, -57,
   4, -17, 84, -36, -125, -73, -56, -3,
   33, -24, 122, 82, -126, -5, -39, -126,
   12, 94, 3, 25, 124, -67, -90, -59,
   -125, -8, -15, -69, 5, -128, 75, 87,
   102, -91, -89, -70, 5, 34, 37, 64,
   -9, -126, -39, -68, 63, -110, 75, 41,
   0, 29, -98, 94, -59, -33, 0, -67,
   -21, 47, -17, -19, 6, 127, 66, 80,
   1, -126, -59, 26, 91, 21, 82, 42,
   -85, 34, -65, -38, 83, 71, -1, 83,
   -68, -128, 3, -4, 2, 9, -31, 37,
   -52, -121, -17, 32, 45, -26, -39, 16,
   30, 127, 102, -24, 49, 57, -37, -67,
   -67, -14, 56, -56, 117, 38, -107, -87,
   90, -71, -10, 15, 3, -14, -3, 111,
   64, 126, 18, 7, 54, 24, 59, -75,
   87, -15, -61, 77, 60, -5, -64, -28,
   25, 28, 43, 10, -28, 25, -57, -1,
   -24, -36, 71, -44, 15, 12, 38, -48,
   1, -3, 30, -14, 23, 6, 93, -5,
   -61, 67, 10, 22, -48, -47, 23, -15,
   5, 36, -24, -7, -24, 37, -47, -10,
   83, -4, 9, -17, -110, 103, 54, 70,
   -2, -49, 59, 15, 11, -92, 51, 70,
   81, 38, -8, -75, -27, 83, 33, 8,
   20, 17, 34, 40, 11, -26, -92, 14,
   25, 56, 62, -43, 11, -124, 24, -81,
   25, 81, 5, 7, 53, -23, 27, 49,
   3, -11, -15, -111, -127, -24, 18, -4,
   3, 2, 14, 11, 29, -49, 26, 16,
   -56, 34, 39, -40, 7, 8, -1, 79,
   43, 3, 28, -11, -7, 9, -128, 8,
   -52, -55, 30, 35, 36, -15, -31, -33,
   -38, -10, 0, 18, -17, 4, 13, 19,
   2, -9, -33, -110, -65, 7, -35, -10,
   61, 32, 21, 63, 8, -126, -41, -16,
   -12, -38, -121, 27, -47, -123, 26, -55,
   -6, 21, 53, -31, -13, -45, 2, -8,
   21, -102, 38, -95, -64, -1, 15, -58,
   -53, -35, -19, 8, -49, 7, 63, 92,
   -15, -18, -58, -20, 48, -15, 24, -4,
   17, -73, -2, 43, -21, 38, -43, -109,
   -40, 57, -63, 99, 5, -10, -81, -8,
   49, 13, 85, 106, -15, -128, -72, 42,
   30, -90, 86, -4, -44, -108, 17, -20,
   -43, -16, -13, 8, 103, 18, 20, -94,
   24, -47, -5, -27, -23, 0, -8, -3,
   -5, -17, -8, -6, 12, 37, -29, 6,
   -40, -77, -95, -10, 5, -126, 71, -29,
   36, 41, 24, -61, -18, -16, 39, 15,
   -62, 11, -72, -5, 31, 33, 45, -28,
   34, -45, 25, 8, -27, 15, 1, -22
};

static const rnn_weight noise_gru_recurrent_weights[6912] = {
   -36, -43, 8, -25, -42, -31, 127, -51,
   -25, 26, 23, 31, 73, -36, -37, 72,
   15, -2, -103, -56, -58, 0, -15, -38,
   -45, -46, 30, 32, 20, -1, -33, 36,
   -78, 44, 4, 12, -63, -95, 40, -18,
   21, 48, -26, -5, 24, -29, 82, -17,
   -21, 44, 41, -12, 7, 19, 47, -38,
   -26, 22, -60, 57, -51, -36, 83, 47,
   -30, -11, -50, -14, 66, -85, 58, 14,
   46, -18, 8, 6, -4, -42, 21, 7,
   74, 8, -12, 28, 11, -94, 0, -11,
   6, -12, 10, -23, 11, 3, 16, 24,
   -29, -20, 45, 17, -4, -71, -97, -62,
   -26, -76, 4, 20, -61, 43, 20, -42,
   4, -9, 81, -45, -55, -9, -62, 61,
   -31, 100, -11, 4, -13, 4, -21, -49,
   -15, 77, -14, 49, 12, -30, -7, 4,
   36, -73, -11, 82, 53, -45, 8, 42,
   125, 106, 75, 70, -44, 38, 18, -41,
   -41, 32, -33, -48, 91, -104, -128, 125,
   78, 42, -64, -40, -101, 64, 76, -56,
   -28, -69, -36, -30, -37, 31, 28, -41,
   -120, -49, -61, 7, -68, 26, 35, 36,
   -15, -21, -58, -59, -6, 27, 80, 16,
   0, 40, -6, -38, -60, -60, -1, 56,
   0, 21, -55, -44, -88, 38, 81, 47,
   18, 63, 14, 67, 2, 22, 36, -49,
   12, -26, 35, 1, -6, -64, 12, -87,
   25, -46, 24, 38, -3, 46, -74, 27,
   -6, 30, -8, -13, 70, 22, -30, -30,
   -85, -27, 32, -33, 19, -24, -14, -1,
   -124, 33, -48, -70, -17, -38, 13, -115,
   37, -42, -64, -19, 40, -31, -8, -35,
   -16, -89, -17, -16, 9, -85, 36, 59,
   -11, -4, 14, 6, 47, 66, 3, -16,
   30, -75, 33, -5, -92, 51, 9, 118,
   -110, -45, -82, 50, -65, -39, 46, -7,
   15, 68, -26, 24, 56, -126, 24, 42,
   -17, -12, 5, 26, -6, -113, -5, 76,
   127, 32, 93, 12, 51, -6, 14, 84,
   126, 52, -43, 47, -6, 48, 20, -7,
   8, 1, 59, 70, 37, 8, 15, 30,
   33, -6, -38, 56, -65, 37, -38, 53,
   -58, -19, -5, -7, -32, 22, 1, 113,
   -10, -66, -3, -37, 125, -26, 41, -102,
   -63, 127, -64, -2, -24, -27, -9, -13,
   -3, -42, -105, 99, 75, 72, -27, 13,
   4, 27, 11, 16, -36, 36, -19, -112,
   -100, 9, 10, 42, -30, 36, -128, -26,
   -77, -6, -63, 94, 33, -37, 43, 75,
   -71, -11, -85, -7, -62, -73, 67, -4,
   13, -2, 70, -41, -20, 4, -6, 54,
   40, 52, -32, 117, -36, 15, -13, 6,
   -45, -71, 30, 27, 43, 18, 35, -16,
   45, 39, 20, -33, 38, 55, -93, 67,
   79, 72, -8, -29, 9, -9, -60, -18,
   47, 21, 127, 90, -37, 39, 35, 31,
   -10, 54, 1, 39, 48, -68, 18, 8,
   -64, -99, 29, -40, 80, 101, -46, 60,
   -47, -48, -47, 52, -10, -2, 102, 21,
   -22, 27, 54, -6, -46, 2, -46, -87,
   4, -30, -56, -47, 1, 51, -24, -17,
   15, -17, -15, 7, -5, -60, 28, -32,
   -67, -48, 2, 11, 51, 28, 12, -95,
   11, 29, -26, 33, 16, 21, 27, -10,
   -12, -15, -60, 7, -85, -9, -1, -34,
   13, -47, -37, -31, 7, -26, -13, 13,
   32, 10, 12, 1, -22, 54, 33, 9,
   12, -47, 11, -4, -20, 90, -35, -17,
   34, -38, 72, 62, -62, -6, 0, 37,
   -117, 40, -48, 28, 12, -15, -11, -76,
   -39, 77, 34, -2, 49, 89, -49, -15,
   56, -32, 4, -39, -76, -44, -29, 22,
   -12, 10, -50, 25, 11, -55, 14, 83,
   -90, 60, 62, 32, 17, 9, -10, 78,
   28, 50, 31, 4, -30, -30, -13, 51,
   -10, -15, 57, 32, -124, 57, -69, -43,
   -1, 9, -51, 57, -76, 127, 55, -53,
   24, 42, 46, -36, -26, 6, -72, 51,
   -41, -2, 20, 43, 27, 57, -51, -46,
   30, 9, 1, 35, -18, -83, 18, -2,
   66, 7, 15, -44, 50, 82, -32, 35,
   -64, 4, -11, -4, -4, -35, 0, -61,
   -26, -45, -26, -20, -27, -12, 45, -26,
   -94, -29, 6, 25, 24, 63, -44, -18,
   126, 54, 4, 14, -35, 45, -3, 89,
   -23, 11, -44, -29, -8, 18, 25, 80,
   -24, 15, 41, 0, -27, -40, 1, 17,
   -4, -29, -26, 9, 24, -33, 5, -22,
   -40, 20, 29, 20, 89, 40, 18, -18,
   101, 17, 31, 65, -39, -15, 42, 19,
   -46, 36, -87, -80, 4, -66, -28, 16,
   87, -9, -50, 51, -66, -102, -33, -26,
   -13, -7, -87, 15, 28, -14, -5, -69,
   3, -66, -17, -56, -11, 71, 22, 72,
   -49, -39, -26, -60, 32, 18, 76, 24,
   -2, 42, 15, 50, -45, -8, -19, -22,
   -75, 63, 23, -40, -44, -21, 100, -88,
   -38, -51, 13, 19, -46, -6, 14, -50,
   -11, -27, 27, 23, 13, 6, 8, -6,
   82, -18, 1, 59, -34, 62, -31, 84,
   -60, 53, 8, -1, 23, 74, 50, -44,
   -53, 32, -7, 20, -44, 54, -39, -109,
   -127, 2, -117, -61, -21, 31, 40, 32,
   5, -10, -19, -7, -66, -127, 45, -19,
   17, -126, -1, 22, -16, 35, -21, -73,
   -14, 125, -18, -13, -35, 75, 63, 87,
   -7, 8, -11, -52, -30, -79, -48, -13,
   28, 30, -79, -17, -56, 10, -17, 3,
   -30, -10, 2, 34, -45, -63, 28, -37,
   39, -66, -9, 58, -67, -18, 15, -37,
   25, 66, 87, 8, 7, -111, 53, -50,
   44, -36, 111, 22, 72, 67, -77, 10,
   -7, 42, 22, -1, 26, 3, 103, 22,
   -65, -10, 69, -48, -44, -30, -21, 18,
   -82, 2, -13, -43, 1, 8, 87, -28,
   -56, 66, -58, -10, 5, 23, -33, 47,
   -48, -46, -46, 63, 22, -112, -58, -29,
   -22, -13, 106, 27, 25, -31, 21, 71,
   -36, 20, 9, 51, -19, -63, 91, -38,
   -77, 5, 52, -20, 78, 27, 20, 22,
   -1, -12, -20, 33, 57, -25, 9, 39,
   -49, -28, 39, -60, -15, 74, 35, -35,
   -14, 9, -27, 39, -127, -103, 19, 55,
   20, 73, 59, 25, -29, 42, 10, -17,
   -11, -18, -29, 21, 40, 12, 53, -68,
   -27, -77, -68, 67, 111, -15, -2, -29,
   31, -20, 5, -128, 94, -11, 43, 37,
   -31, -35, 34, 73, 33, 46, 41, 85,
   -85, -42, 19, 37, -68, -2, 5, -2,
   -3, 11, -61, 93, -63, 23, -106, 74,
   97, -48, -46, -27, -23, 31, 1, 48,
   -8, 33, 54, -128, -90, 37, -9, -63,
   44, 127, -45, -35, 7, -33, 16, -2,
   19, -48, 48, 48, -71, -62, -63, -65,
   -38, -83, -5, -95, -32, 23, -41, 43,
   -11, 50, 11, -16, -78, -54, -12, -34,
   14, -27, 57, -49, -18, -2, 109, -10,
   -7, -30, 30, -21, -126, -18, 84, 39,
   12, 7, -38, -40, -34, -8, -16, 71,
   32, -40, -8, 74, -11, -47, 44, 12,
   14, 0, 96, 33, -17, -51, -9, 25,
   0, -13, 42, 27, -25, -88, -23, -38,
   32, -28, 47, -3, 28, 13, 80, 14,
   -18, 3, -15, 4, 19, -15, -12, 12,
   -3, -114, -37, -72, 13, -3, 126, -62,
   -1, -99, 41, 56, 11, -117, 31, 12,
   -12, -21, 60, -6, 87, 13, 110, -125,
   44, -75, 5, -7, 5, 126, 53, 46,
   -27, 5, 2, -2, 56, 66, -20, -127,
   -58, 21, -70, 15, 28, 45, -25, 84,
   -58, -114, 16, -84, -42, -49, -64, 92,
   51, 56, 36, -77, -53, 12, -115, -5,
   -17, 13, 23, -25, -25, -14, -123, 10,
   44, 126, 111, -53, 1, -40, 38, 21,
   3, 1, -107, 45, 9, 69, -36, 12,
   55, 93, 102, -20, -10, 46, -75, 24,
   66, 21, 7, 48, 122, 19, 9, 59,
   69, -37, 31, 25, -43, -1, -23, 30,
   -46, 4, 1, -6, -41, 23, -93, 79,
   60, 77, -60, -77, -23, 53, -31, 2,
   -127, 7, -25, 28, 74, 8, 17, 14,
   -79, -14, -82, 32, 44, -124, -55, 65,
   -41, -25, 21, -56, 40, -70, -19, -14,
   -15, -57, 32, 66, 13, -19, -44, -18,
   2, -1, 48, -22, 1, -30, -29, -59,
   -11, 44, -65, 4, 118, 26, 53, 40,
   -31, -15, 24, -36, 24, 13, -18, 20,
   -5, -2, 12, -36, 14, 118, 10, 43,
   31, -8, 3, -28, 2, -26, 9, -48,
   89, 24, -13, 47, 55, -48, 11, 61,
   -22, -25, 45, 15, -6, -94, 14, 37,
   19, 6, 46, 9, -33, -27, -128, -15,
   -20, -126, 13, -97, 21, -45, 7, 14,
   37, 94, -35, -48, -5, 24, -36, -1,
   38, -93, -82, -39, 95, 10, 8, -68,
   -27, 5, 62, 8, 37, -37, 63, -79,
   -3, -88, -3, -108, -37, -16, 45, 67,
   23, -1, 44, 89, -56, -26, -66, -11,
   -32, 80, -28, 42, -31, -67, 17, 76,
   32, -50, -36, 75, -36, -62, -86, 8,
   12, -62, 21, 4, 73, -15, 17, -44,
   -13, -60, 37, -5, 1, -11, -8, 53,
   -13, 26, -31, 101, 39, 9, -3, -59,
   1, -27, 19, 80, -7, 39, -16, -15,
   54, 60, -24, -53, 106, -128, 5, 58,
   -8, 53, -19, -16, -2, 58, 4, -3,
   40, 9, -60, -29, -14, 17, -91, -58,
   -21, -17, -1, -12, 32, -94, 42, 38,
   18, -61, 9, -7, 11, 38, -35, 44,
   5, -22, 42, -17, -18, -35, 26, -9,
   61, 80, -10, -5, 39, 34, 44, -100,
   41, -10, 28, 103, -30, 127, 37, 80,
   -31, -34, 60, -8, -65, -121, -5, 11,
   53, -30, -18, 25, 20, 37, 80, 48,
   -21, -29, -44, -76, 23, -15, -112, -88,
   -108, -53, -41, -116, -22, -2, 18, -19,
   -75, 49, 22, -12, 12, 97, -32, -42,
   90, 32, -53, 2, 42, 64, -36, 86,
   45, 25, 50, -81, 32, -27, -15, -115,
   -8, -90, -6, -13, 11, 68, 42, 18,
   63, -26, 40, 24, -89, 62, 69, 33,
   77, 40, 54, -44, 50, 49, -68, 9,
   7, 16, 43, 108, -58, -92, 16, -15,
   -57, 72, -56, 33, 9, -31, 70, 4,
   -52, -5, -72, -21, -19, -47, 42, -30,
   -39, -24, 49, -7, 10, -15, 25, -6,
   -68, 49, 98, -28, 86, 2, 70, -1,
   75, 32, 31, 4, -6, -91, -13, -59,
   52, -23, -13, 37, 68, 45, -10, 12,
   9, -22, 38, 35, 38, -71, -24, 27,
   -60, 73, -37, 28, 46, 38, -49, 43,
   -120, -4, -70, -40, -75, 42, -33, 10,
   26, -78, 5, 9, -55, 17, 4, -75,
   -90, -2, -127, 72, -47, -43, -40, -15,
   -11, -23, -49, -20, -9, -13, 66, -8,
   46, -8, -8, -21, 15, 30, -111, 13,
   -9, 80, -2, -29, 18, -38, 24, 28,
   63, -21, 49, 9, 23, -14, 68, 4,
   14, 27, 53, -6, -14, 25, -33, 105,
   80, -29, 78, 27, 64, -9, -1, 38,
   -31, -10, 2, 88, -17, 55, -91, -39,
   2, -7, -98, 46, -62, -33, 59, -71,
   -127, -47, -91, 43, -19, 50, 2, -79,
   55, 37, -113, 26, -12, -17, -17, -23,
   25, 61, 3, 52, -30, -22, -2, -13,
   33, -104, 48, 97, 62, 11, -32, 31,
   55, 14, 26, 57, 53, 71, 3, -39,
   -8, -2, -29, -45, -72, 21, 10, -2,
   -95, -127, -43, -10, -2, 19, -24, -13,
   -60, -12, 14, 47, 124, -83, 13, -34,
   37, -26, 13, 9, 7, -14, -6, -80,
   -32, -104, 55, 9, -77, 63, -19, -13,
   -25, 92, -19, -15, 70, 7, 0, -8,
   -29, -69, -15, 18, -36, -11, 65, -6,
   -24, -10, -37, 0, -55, -17, 27, 21,
   59, -18, -18, -21, -60, -115, 74, 37,
   -3, 12, -34, 116, -12, -77, -57, -3,
   -95, -11, 29, 77, -29, -23, 37, 41,
   -26, 8, -31, -42, -9, -43, 40, -50,
   16, -19, -45, 41, 110, 40, 101, -44,
   -37, 52, -18, 1, -23, -23, 50, -21,
   5, 50, -125, 125, 0, -121, 5, -24,
   8, -47, -42, 58, -36, -96, 27, 17,
   9, -58, -20, -2, 1, 97, 11, 75,
   46, 33, -15, 70, -25, -9, 27, 1,
   -58, 26, -18, 32, 29, -100, -25, -68,
   -42, -72, 85, 50, -19, -115, -91, -63,
   8, 34, -11, 2, -10, -84, -64, 33,
   15, -22, 40, -11, -28, 67, -12, 36,
   83, -61, -26, 29, 57, 24, -5, 30,
   20, -51, 21, 90, -98, -48, 77, 20,
   0, 44, 24, 49, -113, -3, 73, -33,
   122, 10, -76, -1, 92, -114, -42, 49,
   -36, 99, 24, 99, -51, -102, 51, 69,
   -107, 74, 90, 2, 67, 9, -6, -48,
   -98, 0, 37, 52, 36, 89, 0, -39,
   -8, -58, -70, 42, 1, -46, 42, 21,
   59, -50, 36, -15, -77, -32, 83, 70,
   -90, -56, -11, -71, 1, 70, 5, 22,
   52, 64, 51, 40, -15, 49, -29, -56,
   46, 87, -29, -46, -70, 41, -21, -21,
   -84, -86, 43, 23, 35, -23, 22, 31,
   37, -46, 37, 36, -29, 126, -22, 30,
   -72, -22, 20, 9, 50, 23, 4, 46,
   -64, 52, 20, -98, 22, 39, 40, 50,
   24, 34, -30, -16, 65, 17, 11, -45,
   17, 2, -28, 84, 46, -12, -13, -7,
   44, -39, -20, 33, 54, -6, 82, 85,
   55, 5, 54, 53, -18, -108, 106, 10,
   11, 42, 56, -79, -47, -97, -36, -38,
   96, 25, 19, 5, 2, -14, -34, 28,
   53, -46, 73, 24, -24, -43, 28, -33,
   -9, -10, -18, 47, 80, 38, 13, -54,
   26, -3, 61, 51, 2, 4, -19, 28,
   -22, 4, -43, 24, -34, -105, 54, -111,
   -6, 53, -45, 76, 85, 60, -17, 6,
   45, 41, 12, -48, 39, 8, 64, -43,
   -23, 14, -18, -28, 58, -25, -38, -14,
   -85, 81, -86, -15, -71, -46, -22, 84,
   37, -6, 17, 7, 4, -47, 54, 27,
   51, 58, 34, 97, 34, 10, 86, 18,
   -46, -75, -30, -29, -15, 6, 42, -40,
   30, -34, -29, -46, -8, 6, -5, 117,
   -2, 45, 68, -3, -13, 10, 6, -16,
   -105, -128, 16, 40, -2, -18, 77, -53,
   -18, -41, -44, -17, 39, -25, 17, -28,
   37, -19, -5, 18, 12, 19, 10, 1,
   -51, -38, 89, -61, 7, -24, 39, 37,
   -29, -7, -88, -18, 80, -126, 21, 49,
   -64, -44, 44, 7, -58, -124, -112, 86,
   0, -16, 83, -33, -42, -55, -24, -21,
   -15, -59, 11, -44, 19, 123, -46, 47,
   -25, 124, -18, -31, 89, -49, 46, -29,
   51, -12, 28, 46, -14, -33, 55, 23,
   6, -37, 7, -92, -1, 12, -21, 41,
   -8, 11, -75, -8, -44, -61, 23, -100,
   94, 29, 4, -26, 32, -4, 52, 122,
   20, 102, 4, -60, 29, 6, -1, -24,
   17, 27, 18, -3, 20, 66, -7, 41,
   -99, -50, 13, -7, 25, 0, -2, 70,
   -70, -72, 36, 41, 29, -32, -28, 114,
   -39, -22, 25, 8, -96, 25, -19, 20,
   38, -11, -15, 27, -32, 11, -36, 32,
   -24, -2, -4, 15, 0, 11, -53, 21,
   -65, -1, -34, 10, 107, 23, 69, -91,
   2, -93, 107, 38, -3, 3, 13, -13,
   49, 30, 2, 0, 43, -61, 25, -55,
   49, -59, 85, -9, -66, -86, 127, -47,
   60, -4, 80, 24, 26, -52, 35, -17,
   118, -81, 27, 107, 1, 4, -62, 25,
   -30, 18, -12, 127, 35, -17, -7, -115,
   63, -89, -2, 0, -23, 87, 38, -7,
   -53, -30, 7, 7, -45, 60, -80, -30,
   33, -28, -62, 12, 36, -10, 68, -64,
   12, -85, 9, 19, 38, 20, 36, -15,
   53, 2, 18, -25, -9, 20, 62, -27,
   -38, -13, -42, -53, -6, 43, -58, -35,
   -33, -39, -22, -7, -44, 44, -97, -34,
   -3, 11, -76, 23, 3, 8, -59, 15,
   -35, 38, -12, -79, 8, 60, -38, -17,
   -56, -107, 16, -50, 6, 29, 67, -21,
   -15, -30, 72, -18, -29, 37, -2, 7,
   25, 38, -21, 3, -12, -53, -16, 14,
   -58, -4, -121, 84, -98, -125, -122, 64,
   -22, 2, -46, -64, 84, -68, 70, 7,
   83, 30, 50, 43, -13, -17, 0, 52,
   30, -34, 79, 60, -27, 98, -4, 63,
   72, -126, 44, 72, 49, -28, 47, 78,
   73, 47, 7, 87, 23, -41, 78, 10,
   -47, 40, 77, -37, -2, 115, 22, -13,
   -37, -30, 17, 44, 84, -52, 117, 8,
   2, -30, -18, 98, 50, 112, -105, -57,
   44, -22, 44, -8, 35, -7, -1, 56,
   26, 31, 24, 26, 8, 4, 49, 36,
   -56, -9, 1, 45, 49, 41, -27, 75,
   -33, 42, -15, 26, -39, 39, 16, -24,
   116, -73, 17, 82, 72, -26, -34, 12,
   -26, 35, 70, -15, -127, 36, -48, 31,
   -97, -20, -20, 9, 28, 76, 19, -127,
   95, 49, -7, -17, 9, 19, 43, -35,
   -18, -105, 43, 54, -95, 37, -77, 15,
