/*This file is automatically generated from a Keras model*/

#ifdef HAVE_CONFIG_H
#include "config.h"
#endif

#include "rnn.h"

static const rnn_weight input_dense_weights[1008] = {
   -1, 0, 3, -26, 25, -10, 7, -4,
   2, 20, -8, 7, -22, 8, -5, -1,
   59, -31, -5, -64, 29, 3, 11, 5,
   -23, 38, -32, 14, 54, 7, 30, 28,
   4, -29, -41, 10, 72, -11, 26, -25,
   -5, 66, 6, -36, 28, -4, 6, 1,
   -10, 13, 30, -44, 35, -27, 30, -11,
   8, 18, -34, 8, -29, -10, 27, -16,
   60, -13, 24, -4, 5, 79, -11, -16,
   -8, 8, -36, 21, 61, 4, 0, 3,
   -32, -17, 37, 28, 36, -102, 10, 25,
   12, 38, -2, 74, 26, 6, 36, 0,
   20, 16, 32, -24, 7, -57, -9, 12,
   -12, 14, -45, -16, -13, -42, 21, 2,
   4, -23, -18, 20, -9, -38, 18, 4,
   27, 0, -24, 25, -15, 43, 11, 22,
   -15, -13, 13, 13, 27, -101, -10, -5,
   54, 55, 50, -58, 25, -20, -19, 50,
   97, 15, 22, 48, 31, -128, -49, 51,
   6, -121, 7, -120, 100, 65, -50, 83,
   84, -124, 17, -31, -44, 87, 19, -25,
   70, 9, 26, 101, 24, 28, 22, -5,
   -17, 124, 11, 67, 91, -73, -61, -6,
   7, 127, 58, 75, 83, -128, -96, 99,
   6, -91, -33, -116, 80, 29, -67, -26,
   47, -81, -29, -101, 10, 84, -128, -16,
   66, -112, 14, -128, 27, 78, -39, -83,
   92, -9, 23, 53, 79, -13, 124, -58,
   45, -8, 120, 45, 126, 44, -51, 36,
   100, 71, 38, 15, 30, -12, -121, -52,
   12, -101, -34, -118, 57, 76, -63, -36,
   74, -12, 68, 34, -19, 127, -44, 80,
   37, -25, -124, 108, -77, -26, -23, -127,
   32, 66, 6, 104, 124, -29, -104, 127,
   25, -62, -73, -2, 37, 88, -8, 25,
   -3, -34, 99, 16, 12, -34, -13, 46,
   -67, -127, -63, -16, 46, 74, 45, 18,
   -24, -16, 74, -43, -65, 127, -78, 122,
   -72, -1, -19, -125, 43, -48, -40, -126,
   103, 69, 27, 56, 54, 48, -15, -62,
   25, -12, -13, -44, -1, 33, 115, 27,
   -55, -124, 50, 83, 20, -89, -97, 67,
   -32, -121, -111, -127, 6, 80, -44, -29,
   61, 29, 15, 29, -119, 127, 8, 64,
   68, 58, 4, 13, 30, -114, 0, -127,
   31, 82, -4, -23, 104, 27, 25, 41,
   118, -127, -6, -68, -123, 127, 127, -14,
   11, -70, 87, 118, -25, -2, -96, 98,
   39, -118, -68, -75, 96, 121, 7, -126,
   16, 127, 98, -45, -71, 77, -76, -127,
   16, 127, -22, 103, 110, -120, -68, -125,
   127, 63, -45, 0, 8, -115, 101, 39,
   93, -126, -97, 28, -5, -78, -32, 82,
   -49, -127, 127, -35, -40, -23, -119, -15,
   -101, -73, -95, -61, 33, 24, 42, -38,
   -51, -71, 46, -120, -125, -15, 81, 81,
   -127, 18, -50, 42, -47, -128, -51, -99,
   90, 93, -31, 41, 127, -14, -55, 52,
   -31, -34, -21, -37, -6, -70, -93, 87,
   127, -128, 106, -126, 90, 50, -62, -95,
   30, -26, -26, -94, 41, -14, -27, -75,
   60, 15, 27, -41, -125, -126, -127, -7,
   -128, 127, 45, 127, 97, -112, -80, 6,
   -64, 39, -27, 46, 115, 104, 43, 55,
   -65, -125, 32, -97, 37, 2, 35, 121,
   -2, 15, 47, 124, 63, -4, 19, -22,
   125, -4, -18, -47, -89, 76, 17, -112,
   -127, -7, 102, -7, 99, 17, 90, -42,
   -15, -77, -37, 22, 59, 95, 39, 60,
   -47, 70, 26, 23, -124, -72, 79, 94,
   -22, 3, 20, 18, -68, 54, 40, -126,
   -14, 97, -95, 126, -5, -127, -11, 0,
   26, -1, 14, -36, -123, 7, 39, -113,
   28, 29, 105, -33, 73, -66, 70, -119,
   6, 8, 16, 111, 56, 65, 17, 12,
   31, 3, -18, 15, -98, -109, 23, -24,
   -127, -57, 17, 93, -72, -128, -8, -3,
   -46, 108, -30, -53, 14, -47, 7, 15,
   33, 36, 2, -7, 37, -62, -44, 2,
   44, 65, 127, -114, 50, -127, 12, -82,
   -18, -13, 60, 89, 37, -69, 82, 63,
   127, -34, 0, 42, -46, -53, 87, -60,
   -40, 12, -36, 83, -123, -113, 14, -26,
   -66, 77, 55, -105, 0, 4, -47, 32,
   127, 14, 20, -21, -38, 67, 24, 127,
   -115, -9, 33, 23, 44, 45, 81, 0,
   -8, -52, -22, 32, 25, 89, 38, 5,
   -116, 32, -59, 61, -30, -126, 15, -10,
   -34, 0, -49, -15, -57, -60, 8, 35,
   -90, -15, -17, 26, 16, -116, -14, 45,
   -31, 25, 55, -126, -91, 58, 75, -61,
   4, 48, -127, -35, 19, 14, -99, -46,
   -49, 101, -10, -44, -21, 29, -7, 17,
   17, -27, -59, 75, 121, -63, 20, -29,
   -88, -90, -82, 38, 50, -86, -8, -1,
   -45, -63, -11, 61, -13, 44, -7, 17,
   -27, 59, 64, -38, -77, -49, -51, -12,
   61, 88, 20, -31, 103, 37, -68, -18,
   54, -42, -19, -75, 33, -99, -3, 16,
   -4, -14, -29, 19, 8, 95, -8, -23,
   -46, 40, -128, 18, 24, -110, 78, -9,
   -21, -126, 61, 83, -44, 69, 59, 40,
   -117, -12, 3, 31, -73, 32, 77, -127,
   -118, 11, 125, -127, 10, 92, -36, -124,
   -128, -48, 126, 36, -86, -30, 126, 58,
   69, -5, 19, 12, -45, -121, -12, -127,
   -87, 15, 125, 11, -58, 48, -127, -126,
   -118, 40, 49, 0, -103, -68, 119, -83,
   122, 2, -31, 88, -113, -118, -39, -80,
   -16, 5, 118, 24, 47, 66, 55, -96,
   -126, 47, 29, -35, -33, -49, -21, -30,
   -3, 2, -13, 68, 11, -121, 15, 60,
   -14, 10, -108, 20, -16, -14, 92, -42,
   5, -18, 89, -15, -15, 52, -14, 57,
   86, 41, -18, 127, 90, -44, -79, 31,
   -17, 77, -128, 65, 83, 37, -33, -56,
   63, 22, 108, -1, 4, 2, 64, -52,
   41, -24, 2, 3, -5, -89, -1, 20,
   36, 79, -8, 76, 36, 13, 52, 96,
   33, 68, -86, -11, -67, -47, -56, 80,
   15, 12, 32, 44, -40, -48, -15, 11,
   -43, -56, -66, -3, -43, 52, -9, 52,
   36, 10, 14, 43, -29, -29, 7, 33,
   2, -19, -2, -4, 0, -29, 11, 8,
   -127, 71, -19, -10, 20, -21, -40, -15,
   -38, 15, -15, 72, -8, -5, -9, 7
};

static const rnn_weight input_dense_bias[24] = {
   -68, -128, 127, 127, 15, 116, -127, 127,
   39, -128, -67, -12, -56, -107, 78, 76,
   109, 127, 125, 127, -127, 4, -48, -128
};

const DenseLayer input_dense = {
   input_dense_bias,
   input_dense_weights,
   42, 24, ACTIVATION_TANH
};

static const rnn_weight vad_gru_weights[1728] = {
   -49, 18, 50, -71, 60, -21, -6, 11,
   112, -26, 24, 28, -51, 34, 127, 127,
   106, 125, 84, 127, 74, -89, 38, 59,
   35, -62, 26, 34, 29, 51, 46, 6,
   -39, -65, 111, 22, 113, -14, -90, -8,
   -120, -27, -26, -8, -7, 120, -38, -25,
   -8, -91, 31, -76, 28, -56, -32, 79,
   -20, 27, 115, 0, 25, 127, 6, -76,
   17, -20, -100, -25, -37, 127, -42, -18,
   -127, 83, 93, -115, -43, -37, -99, -127,
   -38, -60, 2, -30, -31, -61, -70, -128,
   109, -126, -124, 7, -106, 15, -69, -68,
   -24, -14, -126, 20, 34, -128, 13, 85,
   -79, -2, -127, -122, -108, 23, -36, 40,
   44, -40, -125, -24, -51, 119, -67, -57,
   -16, 76, -26, 45, 126, 10, 101, 28,
   -128, -18, 62, -126, -82, -13, -70, 8,
   47, 127, 83, 103, 28, 127, 64, 39,
   35, -24, 88, 126, 80, -102, 127, 40,
   -40, -97, 121, 68, 75, 99, -47, -125,
   7, 22, 127, 127, 66, -32, 109, -68,
   -124, -9, -27, -62, 126, 79, 59, 61,
   1, -126, 75, 127, 62, -124, -122, 127,
   -105, -89, -95, -17, -5, 83, 26, -16,
   21, 11, -70, 1, -76, -61, -20, 39,
   21, -13, -97, 17, 124, -81, 127, 22,
   45, -15, -127, -115, 6, -65, 32, 1,
   117, 10, -34, 18, -89, -20, 32, 80,
   -1, 56, 93, 27, -24, 127, 35, 76,
   106, 102, 57, -56, 118, -22, 86, -58,
   122, 5, 5, -44, 76, 20, -31, 69,
   8, 3, 2, -16, 9, 8, -64, 9,
   38, 72, 49, -61, 15, 27, 126, 109,
   -4, 58, -25, -48, -19, 21, 11, -56,
   52, 39, -57, -12, -25, -10, 65, 21,
   67, 4, -24, -17, 94, -2, 27, -7,
   -16, -14, 127, 4, 64, 77, 45, 43,
   20, 46, -84, 124, -3, -70, -66, 54,
   -118, 39, -2, 43, -23, 39, -35, -66,
   30, -42, -69, -3, -81, -43, -52, -22,
   -17, 21, 3, 19, -35, -75, -18, -50,
   -8, -25, 50, -13, -60, 91, -78, -73,
   4, -47, -9, 23, -34, 8, -58, -1,
   8, 33, -26, 46, -70, -17, 29, 27,
   -21, 49, 30, -59, 33, -15, 70, -8,
   21, 57, -128, 32, -40, 22, -108, -50,
   9, -70, 76, -109, 5, 88, 61, 127,
   127, 95, -100, -69, -65, 18, -13, -128,
   66, 122, 5, 90, 34, -56, 9, 9,
   11, 62, 1, -62, 12, 44, 7, -24,
   18, -16, 113, -23, 81, 11, 104, 127,
   52, 42, 39, -29, 65, -12, -75, -35,
   34, 29, 38, 6, -42, -69, 45, -53,
   45, -51, -30, -14, 25, -44, -25, 56,
   7, -126, 16, -65, -57, -53, -87, -94,
   -1, -25, -127, 11, 20, 70, -38, -105,
   -67, -71, 8, -46, -83, 126, 11, -80,
   77, -75, -127, -28, -115, -30, 4, -56,
   -12, -1, -82, 11, -69, 12, 77, 60,
   -78, 103, 2, 61, 3, -99, -126, -71,
   -37, 25, 58, 17, 71, 32, 69, -21,
   -86, -22, 33, -12, 7, -64, -100, -70,
   0, -2, 23, 5, -15, -19, 26, 80,
   39, -1, 4, 76, -19, 125, -34, 126,
   -60, 116, -73, 52, -17, -75, -38, -107,
   63, 63, -21, -123, -25, -126, 124, 14,
   21, 13, -51, -30, 49, 44, -59, 26,
   73, 90, -71, -126, 48, -44, -66, 36,
   -36, -3, 76, -9, 29, 0, -36, 51,
   13, 76, -25, -13, 34, 44, 7, 49,
   54, 34, -78, 71, -6, -37, -62, 0,
   -44, 44, 23, -28, 14, -21, 13, -69,
   -32, -94, 88, 96, -2, -47, -15, 13,
   76, -2, -61, 57, -34, 55, -68, -105,
   -39, 64, 57, -103, 127, 127, 24, 127,
   13, 110, -65, 96, 53, -59, 52, 41,
   21, 127, 24, 125, 8, 67, -127, -37,
   -103, -6, 0, 23, 107, -27, 35, 106,
   27, -86, -39, 42, 18, -9, -58, -2,
   10, 116, -57, 29, 24, -33, 22, 9,
   1, -56, -76, -76, -24, -99, 32, -127,
   11, -23, -127, -1, -47, -19, 75, -105,
   30, 76, -128, 29, 78, -41, -125, -15,
   -53, 5, 55, -5, -23, 0, -13, 34,
   15, -88, -48, 7, -1, 82, 54, 50,
   -63, 20, 28, 30, -84, 121, 63, -15,
   -40, 0, -5, -9, -39, 32, -27, -55,
   -87, 38, 45, 42, 15, 1, -24, -89,
   -7, -26, 6, 46, -5, 74, -23, -10,
   48, 72, 47, 14, -19, -1, -23, 34,
   -70, 126, 59, -121, 69, -72, -57, -127,
   -16, 2, -64, -81, 54, -66, -127, 50,
   -17, 84, -63, -5, -125, -126, 47, -45,
   -40, 31, 47, -47, -81, 12, 14, 79,
   -57, -99, 69, 10, -127, -41, 72, -83,
   79, 3, 15, -86, -14, -52, 13, -55,
   12, -4, 35, -88, -9, -21, 45, -66,
   -10, 32, 55, -25, 48, 4, -30, 79,
   -5, 14, 23, 39, -54, 45, -106, 22,
   80, -126, -95, -17, 125, -45, 109, 34,
   -7, 120, -64, 2, 96, -81, -23, -19,
   7, 57, -18, 11, 127, -28, 81, -12,
   106, -109, -113, 99, -28, -48, 105, -128,
   -48, 78, -53, -24, 30, -20, -125, -45,
   54, 82, -52, -99, -18, -12, -54, 18,
   -40, -13, 41, -15, 58, 68, -11, -61,
   -33, 52, 2, -44, 4, 115, -19, -97,
   14, -58, -33, -20, 112, 57, 98, 12,
   71, 118, 56, -110, 91, 80, -72, 29,
   77, -24, 107, 4, -17, 92, -21, 71,
   -18, -93, 12, -126, 1, -22, -45, 32,
   6, 7, -7, -127, 43, 65, -31, -26,
   90, 100, -13, -79, 97, 6, 43, 105,
   24, 53, 72, -65, -18, -19, -36, 25,
   -28, 2, -68, 17, 88, -3, 4, 54,
   54, -61, -6, 43, -4, 30, -30, 33,
   81, 25, -11, 45, -44, -55, -17, 58,
   8, -32, -11, -116, 77, -55, -26, 21,
   65, 47, 99, 29, -40, -36, 22, -95,
   -84, -57, 75, 23, -85, 127, -41, -80,
   -37, -8, -29, 21, -58, 2, 31, 73,
   -114, -32, 12, 37, 77, 37, 116, -21,
   -36, -90, 21, 97, -8, -54, -46, -115,
   -42, -6, 38, -46, -6, 61, -13, -12,
   -94, 10, 66, -101, -47, -23, -34, 0,
   -42, 24, 95, 52, -21, -14, 9, -5,
   85, 35, 39, 124, 109, -49, -101, -12,
   -94, -25, 121, -35, -78, 69, -12, 122,
   2, -123, -68, -61, -47, -35, -85, 4,
   23, 8, -24, -29, 96, -28, -50, 30,
   86, 86, -10, -37, -6, -69, 2, 39,
   6, 12, 126, -58, -17, -60, 5, 62,
   57, 41, -11, 39, -28, -25, 25, 75,
   -15, 16, -73, 2, 40, 30, -20, -13,
   -35, 120, 24, -44, -53, -67, 2, -81,
   -9, -64, 51, -12, 61, 34, 107, 20,
   122, 100, -70, 62, 65, -64, 127, -56,
   59, 127, 124, -18, 23, -127, -15, 68,
   -6, 35, -20, 94, 93, -20, 1, -41,
   22, 87, 24, 23, 83, -70, -120, -107,
   -66, 59, 106, -15, 14, 127, 11, 20,
   1, 78, -64, 60, -43, 33, -71, -23,
   66, 127, -61, 38, -20, -50, 39, 61,
   44, -75, -29, -103, 70, -59, 61, -70,
   37, -45, 56, 126, -44, 62, 54, -24,
   9, 17, -73, 126, 64, -7, 0, -58,
   -44, -2, -60, 37, 89, -43, -100, 97,
   -47, 69, 3, -34, -64, 38, 71, -35,
   8, -19, 9, 49, -37, 68, -10, 22,
   -6, 11, -108, -28, -13, -56, -14, -89,
   -16, 53, -17, 6, 25, 18, 35, 7,
   35, 31, -27, -61, 33, 20, -10, -16,
   20, -79, -38, -37, 71, -47, 23, -55,
   127, 55, 10, 9, -67, -26, -47, 119,
   -9, -41, 9, -32, 91, 68, 10, 96,
   77, -51, -51, -122, 127, 12, 87, -32,
   46, 9, 11, -8, -42, -60, 28, -23,
   46, -36, -35, -41, 12, 62, 113, 44,
   -7, -6, 48, -57, 39, -121, 72, 38,
   -4, 28, 50, -15, -65, -35, -26, -59,
   -24, 9, -87, 31, 26, -41, -21, 5,
   33, 60, -28, -10, -22, 35, -4, 25,
   55, 127, -46, 55, 123, -53, -39, 48,
   -35, 72, -8, -6, 28, -54, 100, 82,
   -10, -18, -38, -111, -81, 13, -65, -125,
   -46, 121, -121, -55, -58, -126, -112, 11,
   77, -112, 19, 65, 104, -123, -85, 3,
   -19, 25, -54, -19, 2, 36, 11, 19,
   -50, -81, -80, 8, -5, -5, -27, -15,
   -42, 123, -27, 13, 73, 29, 50, 10,
   -33, 25, -53, -80, -17, -103, 22, 85,
   -9, -14, -127, -39, 24, -2, 36, 36,
   14, -62, 11, -123, 7, 74, 49, 95,
   57, -101, 43, -2, 92, -112, 44, 47,
   17, 41, 44, -59, 36, -12, 0, 42,
   -12, 14, -38, 58, 6, 10, -34, -49,
   -5, -6, -43, 110, -43, -25, 38, 84,
   74, -7, 38, -21, -6, 17, -4, 14,
   -48, 10, 12, -29, -46, -7, -54, 7,
   -21, -34, -6, 35, 32, 18, 32, 12,
   -36, 41, 62, 60, -11, -20, -19, -126,
   -12, -21, -98, 49, -3, 6, -2, -60,
   22, 51, -9, 21, 10, 23, -30, 23,
   -79, -59, -1, -17, 4, -7, -41, -91,
   87, -66, -59, 9, 18, -27, -93, -48,
   -37, -21, 47, -125, -59, -32, -126, -101,
   -49, 52, 38, -62, -18, -71, -11, -33,
   2, 4, 33, 2, -21, 10, -48, -23,
   -1, 29, 49, 24, -20, 27, -5, 11,
   -41, -128, -34, 51, -43, -40, 51, 127,
   5, -73, 31, -108, -22, 10, 124, 106,
   57, 21, 127, 127, 53, 42, 102, 1,
   113, 5, -107, 63, -38, 127, 11, -69,
   -17, -23, 56, 35, 49, -5, -36, 51,
   -106, -126, -64, 23, 32, 72, -44, -20,
   -24, 80, 44, 4, -9, 125, 34, 10,
   43, -53, 56, -58, -8, 16, -13, -17,
   34, -45, -81, 42, 47, 44, -62, -6,
   59, 34, 18, -24, -29, -66, 17, 21,
   -47, 41, -49, 80, -11, -6, -23, 0,
   -49, -108, 14, 11, -42, 37, -41, -54,
   36, -67, 8, 47, -44, 22, -58, -18,
   -71, 127, -84, -98, -74, 75, -74, -110,
   -36, -20, 66, 89, -91, 23, -2, -87,
   -53, 30, 33, -43, -10, 62, 41, 28,
   -47, 16, 62, 6, -4, 18, 13, -13,
   -18, 43, -17, 51, -34, 62, 45, 36,
   -15, -15, -45, -116, 24, 98, 27, -37,
   97, -69, -71, 80, -50, 45, 77, 21,
   -7, 103, -41, 80, -76, 27, -21, 122,
   -68, -128, -84, 63, -10, -45, 114, -127,
   74, 25, -86, -114, 40, 95, -75, -44,
   -25, 71, 79, -40, -37, -36, -127, 62,
   -69, 6, 118, -28, 102, -44, 19, -17,
   -8, -19, 106, 50, -11, 57, 36, -67,
   -19, -26, 52, 13, 58, 16, 55, -15
};

static const rnn_weight vad_gru_recurrent_weights[1728] = {
   113, 33, -47, 50, -12, 32, -128, 127,
   17, 124, -104, -25, 4, 127, -62, 40,
   121, 9, 31, 2, 127, -51, 127, 126,
   63, -62, -62, 27, 8, 30, -10, -75,
   93, 24, 10, -95, 32, 19, -21, 2,
   -9, -27, -46, 108, 110, 54, -51, 127,
   60, 127, 56, -36, 81, 33, -61, -3,
   -58, -112, 58, -50, -128, 63, -57, -88,
   -101, -7, 34, 23, 8, 35, 43, 9,
   -28, 38, 17, 1, -127, 90, -127, 55,
   79, 122, -36, 60, -41, 96, -60, 10,
   126, -17, -38, -95, 127, 40, 77, 100,
   49, -18, -124, 58, 35, 16, -112, -79,
   48, 54, -107, -77, 37, 107, -73, 105,
   -57, 3, -36, -56, -14, 58, -26, -41,
   79, 127, -7, 56, -120, -85, 105, -127,
   -9, 77, -90, 80, -49, 64, 61, 36,
   -67, -70, -1, -48, 65, -18, 67, -59,
   112, -101, 127, 80, 36, -128, 55, 5,
   -127, -111, -128, -65, 7, 127, -103, -51,
   -23, 16, -4, -4, 125, -65, 76, 22,
   38, -126, 127, 22, 12, -22, 104, -39,
   -47, -30, -45, -114, -18, 44, -42, -91,
   30, 61, 85, 0, 14, -127, -17, -73,
   -8, -79, 127, -20, 66, 0, -44, -127,
   83, -32, -5, -32, -40, -23, -35, 61,
   55, 92, -48, 13, 27, -13, 70, -33,
   -127, 43, -51, -121, -54, 75, 0, -126,
   -10, -21, 94, -116, 126, -127, -37, -19,
   110, -59, 75, -126, -127, 12, -128, -78,
   -53, 26, -127, -29, 32, -80, -80, -50,
   -53, 82, -10, 126, 5, -56, -4, -63,
   65, 29, 103, 31, 0, 45, 24, 14,
   -38, -40, -88, 117, -109, -88, 127, 64,
   124, 92, -127, 127, 103, -103, 35, 67,
   78, -11, -115, -84, 88, -68, -48, -18,
   127, 30, 127, 25, -22, 126, -63, 67,
   107, 66, -104, 81, 79, -63, 127, -128,
   -95, -3, 113, -120, -24, -3, -66, 127,
   -9, -6, -2, -1, -31, -24, 10, -80,
   96, 103, -98, 41, -58, -8, -15, -74,
   30, 37, -65, -13, 89, 40, -27, 88,
   71, 22, -16, 58, 90, 3, -18, 111,
   50, 36, 29, -2, -25, 12, -18, -10,
   115, -31, -63, -3, -64, -102, 40, 20,
   3, -63, 84, 126, 104, 63, 31, 8,
   127, 104, 126, 122, 74, 78, 127, 127,
   -108, -102, 127, 72, 70, 127, 34, 127,
   -14, 74, 13, -80, -36, 64, -15, 49,
   -26, 24, -39, 49, 66, -34, -98, -21,
   -99, 7, -88, 31, 5, -23, 81, -32,
   -21, -50, -33, 63, 123, 123, -20, 46,
   25, 35, -59, 3, -10, 80, -32, -89,
   -18, 127, -6, 48, -36, 124, -17, 28,
   -48, 1, 36, 3, 127, 25, -49, -58,
   127, 122, 116, 21, 39, -44, 75, 28,
   -54, 10, 85, 34, -85, 103, 57, 110,
   -126, -25, -41, 30, -60, 11, -60, 15,
   -14, 55, -10, -39, 20, 43, 43, 31,
   67, 36, 24, -51, -34, 2, -42, -63,
   -128, 30, -81, 94, -126, -92, 127, 2,
   21, 86, -85, 5, 18, -128, 76, 114,
   15, -13, 3, -128, 64, -31, 14, -71,
   -128, -124, -127, -100, 65, 125, -30, -128,
   19, -36, 118, -57, 4, -74, 46, 123,
   29, -128, 22, 124, -127, 99, -128, 117,
   38, 126, -126, 82, -41, -32, 16, -59,
   7, -20, -127, -28, 105, 77, -127, 78,
   -21, -102, -126, 113, 111, 42, 15, 33,
   109, 111, -76, -28, -19, 98, 87, 95,
   -121, -15, 111, -86, -120, 5, -86, -127,
   -116, -55, 127, 82, 48, 127, -51, 24,
   74, 48, 65, 104, -128, -6, 57, 6,
   -128, -127, -8, 2, -50, 64, -126, -49,
   54, 53, -126, -9, 70, -126, 13, 26,
   -23, -51, -18, -95, 102, 42, 15, 9,
   -94, -4, 9, 36, -46, 9, -9, -82,
   49, -23, -61, 3, 103, 20, 51, 36,
   112, 9, -25, -19, -81, -128, -87, 68,
   92, -13, -79, 83, 112, -3, -28, 25,
   81, -127, -31, 32, 77, -54, -69, -42,
   10, -8, -17, 48, -109, -43, 73, 8,
   -7, -127, 34, 107, -65, -127, -19, -67,
   127, -7, -126, -127, -4, 5, -51, -127,
   -2, 127, -127, 23, -80, -61, -118, -70,
   -87, -33, -28, 127, -63, -67, -20, -27,
   11, -37, 5, -57, -15, 89, -36, -28,
   -44, -26, -90, -41, -118, -109, -45, -53,
   -43, 127, 21, 46, 27, -94, 42, 68,
   -16, 11, -91, -72, 9, -31, 15, -82,
   -127, -66, -126, -127, 64, -122, 76, -127,
   1, -67, -10, -127, -126, -95, 110, -66,
   -91, 115, -24, 64, -128, 67, -128, -127,
   -69, 37, 39, 57, -103, -18, -2, -30,
   34, 56, 60, 32, -3, 24, 51, -40,
   17, -13, -2, 48, 20, 93, -50, -56,
   -90, -76, 81, -80, 99, 1, 15, -9,
   -128, -26, 63, -85, -121, -4, -112, -39,
   6, 86, 14, 48, 14, 95, -8, 112,
   -83, 55, -33, 6, -33, 121, -13, -3,
   -13, 84, -25, -127, -60, -89, 0, 29,
   122, 75, -89, -121, 8, -123, -7, 6,
   35, -27, -76, -28, 98, -17, -30, 23,
   -20, 25, -68, 0, 77, 11, -30, 21,
   -18, 31, 43, -79, -23, -40, -1, 13,
   0, -65, -95, 115, -17, -97, -10, 21,
   127, 75, -5, 125, 127, -26, 35, -45,
   112, -100, -34, -123, -11, -123, -73, -62,
   18, -30, -107, -95, -63, -96, 73, 15,
   -114, -127, -11, -121, -127, -80, -128, -36,
   3, -72, -126, 68, -44, -122, 6, -128,
   -89, 17, 85, -109, 43, -34, 61, 126,
   -19, -31, 59, 34, -1, -80, 27, 81,
   47, 27, 43, -53, 34, -26, 29, -47,
   74, -7, -52, 40, -54, -35, -95, 30,
   -4, -16, -63, -68, 39, 10, 56, -34,
   -11, -15, -46, 83, -51, 46, -125, -2,
   127, -127, 106, 68, -110, -82, 9, 126,
   -49, -31, -127, 34, -67, 127, 39, 74,
   -5, -114, -21, 43, 127, -53, 127, 57,
   24, -91, 127, 5, -84, 73, -19, -4,
   80, -7, 11, 10, -32, -5, 120, 8,
   -26, 91, 14, -34, -2, 56, 45, 54,
   43, -7, 82, -61, 56, 60, -3, 19,
   -29, -110, -15, -67, -32, 73, -29, -35,
   -110, 56, 61, 51, -20, 16, -112, 115,
   29, 98, 19, 113, 0, 98, 65, -39,
   88, 127, 6, 118, -20, 71, -83, -19,
   127, 64, 16, 5, 58, 51, 28, 118,
   12, -41, -1, 127, -23, -24, 72, -22,
   -92, -52, -14, 54, 58, 17, -12, 41,
   -83, -45, -29, -25, -36, 63, -8, 31,
   -16, 95, -60, -47, -38, -68, -128, 1,
   34, 7, -58, 127, 76, -99, 69, 16,
   121, -76, -83, -2, 35, -41, 51, 5,
   -16, 5, 3, 72, 120, 112, 127, 78,
   -71, 127, -128, -37, -36, 111, -79, -128,
   122, 127, 58, -30, 57, -75, 126, 30,
   44, 17, 39, -2, 26, 30, 66, 19,
   -96, -118, 43, -58, -27, 0, 18, -38,
   50, 19, 57, 25, -70, 2, 27, -57,
   -86, -39, 86, -31, -127, -67, 17, -128,
   46, 33, 3, 5, 34, -17, 41, 95,
   34, 3, -74, 0, 67, -105, 39, -4,
   -29, -80, -81, -27, 18, 92, 61, -68,
   2, -63, 112, 29, -84, 71, 28, -3,
   120, 111, -126, 95, -69, -124, -127, 95,
   125, -113, -44, 30, 85, 101, -26, 47,
   -56, 17, 60, 18, -118, -12, 17, 84,
   32, 98, -50, 21, 47, -77, -53, 66,
   -66, 32, -37, 54, -127, -88, -1, -34,
   36, -3, -13, 12, 51, -127, 90, -12,
   68, -116, -127, -127, 115, -7, 127, -97,
   127, 55, 19, 17, 36, -126, -8, 60,
   100, 1, -68, -125, -36, -51, 65, -6,
   -36, 53, 69, -128, 126, 14, -4, -54,
   -46, 59, 37, 24, 35, -12, -4, 39,
   -11, 29, 62, -95, 33, -83, 19, -16,
   -97, -44, 97, -87, -2, 80, 17, 11,
   20, -77, 23, 8, 13, 51, 15, -118,
   -48, 92, 37, -70, 33, 58, 36, 47,
   -12, 72, -54, 10, -45, 15, 10, 100,
   -72, 15, 8, -30, 101, 21, -32, -46,
   -102, 124, -21, -71, -97, -75, 127, -20,
   -127, -22, 119, -121, -63, 81, 2, -111,
   -55, -10, 35, -125, 21, -98, -116, 29,
   109, 71, -68, -120, 39, 39, 75, 7,
   -12, 26, 43, -45, -93, -47, 11, -70,
   8, 45, 88, 79, 87, 122, 127, 22,
   -70, -33, 98, -17, -99, 47, -76, -21,
   -70, 98, 44, -3, 77, -26, 1, 11,
   -45, 63, 9, 69, -120, -113, -127, 64,
   -70, 72, -26, 13, -95, 28, -128, -76,
   -123, -79, -126, -76, 7, 33, -28, -126,
   57, 24, 22, 24, -2, 38, -123, 85,
   99, 57, 127, -35, -17, 48, 111, -58,
   -46, -79, 22, 37, -14, 24, 107, 46,
   -83, 49, -9, -126, 46, 96, -86, 7,
   -52, -92, 93, -80, -59, 85, 55, -36,
   -60, 57, 82, 59, -97, 66, 13, 126,
   -125, -26, -121, -128, 123, 127, 116, -125,
   63, -45, 127, 36, 125, -113, 35, 121,
   -8, 76, 39, 97, -128, -91, -128, 30,
   -127, -108, -127, -71, 18, -42, 52, -38,
   -58, -88, -11, 26, 77, -44, -127, 21,
   75, 32, -20, 31, -43, -21, -95, 19,
   -28, -60, -37, 127, 40, 64, -40, -36,
   73, -20, -20, 80, -5, -127, -19, 36,
   73, -16, -51, -98, 127, 6, 17, -46,
   36, 5, -125, -89, 69, -82, 36, -37,
   -71, 32, 50, -2, 18, -33, -73, -81,
   -56, -127, 2, 127, -14, 62, 22, -126,
   34, -39, -10, -3, 11, 83, 10, -15,
   116, -38, 112, -3, -30, 64, -30, 52,
   46, -35, 52, 80, 59, 66, -2, -42,
   -38, 63, 52, -85, -9, 111, 14, 2,
   -88, -128, 62, -7, -78, -38, -60, -98,
   -41, -58, 82, 69, -20, 123, 119, 108,
   127, -75, 43, 111, 4, -76, 78, 127,
   77, 86, 48, 16, -39, -9, 54, 21,
   -51, -113, 33, 47, 127, -20, 127, 42,
   43, -108, 8, 29, 15, -10, -61, 13,
   97, 106, 74, 79, 65, -53, 77, 35,
   -29, -12, 116, -101, -79, 23, -23, -25,
   -68, 2, -127, -48, -111, -38, -10, -92,
   73, 112, -120, 103, 127, -76, 127, 64,
   118, -80, -128, -13, -2, -59, 127, -36,
   68, 7, 82, 73, 68, 37, -123, 118,
   14, 86, -52, -52, -16, 99, 14, 35,
   -113, -46, 61, -53, -38, 64, -5, 91,
   75, 5, 32, -2, 22, 40, -39, 86,
   6, -68, -49, -48, 10, -17, -52, 7,
   -49, 27, -42, -48, 2, -103, 17, 6,
   23, 28, 45, -123, 84, 57, 67, 11,
   -37, -42, 12, -41, 1, 109, -8, -69,
   -65, 83, 20, -15, -128, -4, -26, 84
};

static const rnn_weight vad_gru_bias[72] = {
   127, 74, -22, 110, -106, 51, 127, 127,
   -80, 35, -99, -116, -79, 127, -126, 93,
   46, -16, -86, 87, 127, -127, 127, 43,
   63, 27, 35, 76, 39, 2, 64, 22,
   31, 10, -18, -9, 11, 40, -64, -28,
   55, 41, 9, 114, 114, 13, 60, 94,
   39, 26, 41, -74, 74, 34, -9, -23,
   -23, -62, -9, -80, -80, 37, -49, -5,
   -16, 49, 27, 58, -28, 62, 33, 24
};

const GRULayer vad_gru = {
   vad_gru_bias,
   vad_gru_weights,
   vad_gru_recurrent_weights,
   24, 24, ACTIVATION_TANH
};

static const rnn_weight noise_gru_weights[12960] = {
   -7, -25, 17, -35, -27, 32, -66, 13,
   -17, -48, 43, -62, 22, 51, -22, 14,
   57, 57, 3, -30, -44, -38, -5, 38,
   -102, 21, 34, -49, -6, -14, 41, -26,
   -2, -45, 62, 43, 35, 0, 12, 38,
   -9, 58, -3, -11, -12, 53, 0, -52,
   -57, -69, 22, 77, 12, -33, 20, 0,
   -11, -17, 39, 19, -6, 29, -23, -14,
   -19, 41, 14, -106, 33, 56, -33, 90,
   58, 18, 60, 3, -6, 36, 5, -28,
   30, -9, -23, -33, -25, -4, 73, 19,
   28, -32, -12, 11, 9, -5, -36, -18,
   16, 39, 16, 13, -13, -5, 59, 25,
   18, -33, -6, -1, -18, -9, 52, -16,
   -55, 58, -31, 9, -18, -46, 120, -25,
   124, 81, 11, 55, -43, 29, -34, 26,
   -9, 30, -11, 26, -16, -26, -3, 52,
   -8, -17, -65, -41, 0, 32, 11, 57,
   -2, -22, -43, 26, -40, -3, -75, 35,
   -36, -2, -22, 28, -107, 29, 43, -6,
   -12, -35, -20, -56, -62, 18, 0, 40,
   37, 13, -3, -28, -97, -21, -77, -4,
   -43, 67, 35, 46, 27, 4, 11, 37,
   -4, -29, 26, 46, 34, -35, 5, -74,
   17, 6, 75, -89, -61, 16, -50, -2,
   8, -1, -43, -51, -35, -1, 81, 5,
   72, 65, -52, -23, 20, -28, 2, 29,
   -50, -75, -3, -18, 1, 8, 27, -3,
   78, 32, -37, -38, 8, 14, 15, -9,
   -28, -2, -11, 59, 27, -22, -63, 41,
   -29, 37, 3, -19, 20, -17, -34, -35,
   -76, -40, 38, 58, 34, -4, -9, 36,
   52, 22, 9, 17, 31, 59, 23, -36,
   -7, -64, 10, -59, -4, 5, -4, -14,
   -8, 59, 39, -31, -76, 43, 92, -22,
   -5, -6, -55, -59, -30, -46, 38, 48,
   -12, 2, -76, -48, 25, -36, 17, 5,
   -26, -39, -48, -14, -8, 32, -2, -30,
   -11, 13, -48, 3, 60, -16, -47, 3,
   20, -14, 7, -18, 19, -26, -23, -51,
   -45, -15, 64, -65, -41, 9, -40, 3,
   25, 37, -41, 15, -23, -8, 4, -33,
   21, -44, -15, -31, -65, -21, -27, 0,
   -79, 50, -20, 19, 34, 12, -30, 20,
   38, 18, -87, -9, -1, -8, 54, 62,
   -45, -11, 34, -10, 91, -94, -17, 25,
   -13, 50, -10, -5, -33, 13, -53, 7,
   25, 29, -10, 23, -13, -7, 17, -58,
   0, 46, 6, -28, -9, -61, 21, -6,
   -42, 56, -38, -41, 82, 22, -49, 80,
   -15, -16, 18, -22, 2, 20, -28, 23,
   -51, -59, 45, 29, 3, 36, -35, 34,
   -35, -2, -35, -20, 38, 37, -26, 52,
   2, 67, 10, -26, 25, 20, -59, -22,
   -3, 9, -51, -27, 64, -14, -15, -22,
   -17, 43, 45, -21, -1, 12, 42, 43,
   -15, 70, -61, 11, 38, -5, 25, 31,
   67, 26, -44, 10, -32, 35, 14, 20,
   32, -54, 39, -38, -51, 18, -24, 20,
   -45, 19, -41, 23, 32, -27, -6, 27,
   15, 6, -16, 49, 15, 30, 51, 11,
   60, 5, 29, 18, -18, -47, 34, -15,
   -18, -1, 7, 31, -30, 31, -27, 75,
   -9, 26, -16, 24, 22, -23, 88, 30,
   49, -27, -23, 5, 0, -19, 64, 5,
   -3, 3, 16, 39, 96, 38, 25, -5,
   -46, -29, 44, 49, -42, 36, 66, 63,
   -16, 82, 14, -33, -31, -25, 9, -2,
   1, -61, 48, -25, 40, 37, -4, -29,
   4, -19, -12, 59, -4, -23, 52, 26,
   -6, 31, 10, 3, 50, -20, -14, 35,
   33, -8, 3, -23, 55, 20, 29, 46,
   -26, -4, -51, 31, 28, 41, 67, 59,
   15, 35, -17, -1, 40, -10, -47, -24,
   4, 40, 23, 6, -35, -64, -28, -4,
   14, -61, -15, -38, -42, 18, -59, -45,
   0, 27, 34, -8, 23, 3, -11, 47,
   -41, -1, 36, -7, 16, -7, 17, -14,
   -8, 67, -8, -26, 7, -53, -35, -23,
   34, 4, -19, -38, -1, 42, 26, 11,
   16, 31, 31, 11, 3, -47, 7, -53,
   19, 10, 16, 10, -42, 59, 11, -33,
   36, 19, -26, 29, 28, -14, -29, -28,
   -62, 38, -5, -56, -39, 8, 6, 41,
   47, -14, 14, 10, 37, 1, -29, -45,
   -5, 15, -27, -37, 11, 16, -9, 39,
   16, 29, -12, 45, -26, 7, 3, 53,
   27, -16, -38, -8, 2, 51, -36, -56,
   41, 0, 52, -36, 31, -10, 33, 9,
   -28, 65, 49, -26, 68, 5, 27, 9,
   49, 43, -9, -15, -20, 14, 15, -39,
   19, 10, -42, -30, -14, 10, 8, 0,
   -5, 45, 32, 30, 14, -10, -11, 5,
   72, 44, -57, 33, 79, -4, -26, 19,
   3, -14, 42, -10, 21, -30, -40, -9,
   -69, 26, 26, 10, 13, -5, -116, 32,
   -48, 49, 51, 16, -12, 14, 34, 19,
   -17, -49, -15, 9, -14, -19, 14, 2,
   -18, -49, 30, -24, 7, -8, 7, 30,
   66, 15, 20, -46, -5, -7, 0, 26,
   15, -6, 11, -8, -63, 5, 67, -2,
   -16, -16, -9, 50, -50, -20, -4, -27,
   -22, -60, 10, -13, -13, 23, 43, 41,
   30, 29, 0, 22, -24, 11, -9, 6,
   -6, -62, -23, 36, 22, 12, 62, 8,
   6, -20, 23, 18, 34, -16, -4, -11,
   40, 55, -16, 32, 43, -19, -38, -20,
   7, 6, 17, -35, -24, -56, 32, 42,
   -46, 6, 62, 11, 29, -18, 51, 52,
   -6, -67, -84, 3, 20, -51, -85, -15,
   -30, -27, 95, 15, -72, -55, 21, 14,
   56, -7, -25, -55, 47, 5, -47, -46,
   27, 45, 24, -12, 34, 24, -2, -6,
   48, -35, -9, 23, -35, -59, -54, 40,
   -8, 35, -13, -70, 22, -53, -42, -57,
   -18, 38, -4, 11, 38, 43, 4, 6,
   25, 11, -14, -49, -23, 3, 25, -24,
   -38, -13, -20, -27, -35, 24, -37, 23,
   15, 81, 45, 29, -23, 48, 5, -34,
   3, -2, -8, -37, 49, -75, -47, 46,
   23, -36, -6, -34, 72, -39, -13, -75,
   -28, 7, 18, 27, 19, 1, 37, 37,
   29, -31, -15, 16, -25, 45, -34, 45,
   -63, -42, -12, -2, -89, -4, 17, -50,
   10, 21, 73, -40, -44, -17, 32, -53,
   26, 3, 83, -48, -1, 32, 10, -12,
   20, -47, 49, 34, -15, -37, 12, -61,
   9, -11, 10, -44, -102, 11, 10, 61,
   -15, 6, -91, -105, -13, 22, 17, -24,
   -22, 16, 10, 58, -11, 26, 8, 4,
   62, 34, 51, -18, -19, -26, 41, -1,
   -67, 24, -24, 65, -28, -5, 35, -8,
   -4, 24, -13, 15, 8, 62, -15, -6,
   72, 7, -2, -9, -29, -13, 47, 4,
   -12, -29, -3, -1, -12, 17, -5, -4,
   -4, 13, -25, 26, -11, 19, 70, 18,
   36, -25, -18, 11, 30, 37, 1, 2,
   -18, 17, 29, 41, -11, 39, -14, -39,
   52, -6, 38, 18, -33, 32, -78, 9,
   -14, -1, -39, 17, -32, 14, 28, -13,
   15, 42, -1, -9, 59, -28, 25, -19,
   -22, 42, 51, -62, 8, -25, -20, -38,
   60, -19, 51, 39, 8, -4, -9, -26,
   17, -73, 35, -50, 45, 33, -8, 4,
   105, -11, -12, 17, 37, 35, 41, -41,
   9, -25, 62, 27, -18, -14, 5, 58,
   -14, -4, -76, 62, 24, 116, 35, 52,
   63, 42, -7, 68, -114, -6, 45, 25,
   37, 6, -21, 0, 19, -18, 13, -3,
   4, -37, 19, 52, 50, 96, 5, 38,
   8, -64, 6, -110, -37, 0, 6, -20,
   -9, 10, -51, 3, 2, 28, -17, -13,
   -8, 18, -6, 1, -90, 85, -19, -81,
   57, 10, -5, 49, 24, -73, -3, -5,
   8, 24, 33, 13, -34, -18, -25, -34,
   -61, 1, -2, -51, -5, -32, 25, 22,
   25, -12, -32, -21, 47, 23, -83, 31,
   -3, 59, -41, -88, 45, -75, -40, -59,
   0, 25, -74, 3, -31, -48, -36, -20,
   -62, -61, 85, -35, 36, 6, -43, 41,
   -34, -1, 43, -10, -45, 87, 29, -17,
   27, -7, 8, -51, 46, -27, 5, -51,
   5, -28, 23, 24, -81, -24, 29, -12,
   -7, -50, 53, 15, -38, 13, -29, -73,
   97, 26, 28, 9, -31, -39, 34, 3,
   13, -10, -61, 44, 16, -42, 1, 13,
   -7, 47, -13, 17, 63, 65, -25, -67,
   12, 34, 57, 24, -8, 3, -1, -48,
   42, 4, 52, -40, 21, -57, 7, -31,
   -20, -16, -12, 17, 48, 26, -78, 24,
   11, 10, -7, -47, 3, -12, 19, -46,
   -8, -55, 43, 6, -53, -51, -66, -38,
   16, 44, 47, 17, 36, 26, -56, -35,
   19, 29, 56, -77, -45, -32, -1, 48,
   -36, -44, -34, 1, 16, -8, 2, -1,
   29, 45, 18, 27, 75, -21, -24, -8,
   0, 34, 22, -29, -11, -5, 10, 23,
   -37, -4, -23, -25, 10, 76, -26, -72,
   -2, -16, -28, -22, -54, -21, 34, -4,
   -50, 3, -52, -18, -15, 41, -2, -18,
   -23, 31, 67, -35, 22, -29, 26, 19,
   67, 31, -5, -23, -22, -12, -17, -34,
   -18, 46, -15, -32, -30, 24, 30, -33,
   8, 33, 18, -26, 41, -10, 56, 42,
   -81, 36, 51, 47, 33, 10, 13, -4,
   1, 21, 16, 79, 7, -39, -30, -1,
   31, -51, 37, 10, -15, 30, 19, 7,
   11, -39, 33, 0, -48, -49, 7, 14,
   10, -21, -4, -29, -33, -2, 24, 7,
   28, 3, 0, -5, -16, -17, 12, -8,
   -37, 21, 23, 35, 12, -26, 27, 101,
   -27, -16, -32, -7, -12, -2, -56, 31,
   -6, -7, 29, -17, -26, 3, 54, -15,
   -24, -31, 75, 22, 51, 4, 6, -26,
   -34, 76, 0, -67, -17, 52, 43, -27,
   0, -7, -19, -8, 17, -12, -22, -16,
   -9, 25, -15, 40, 28, 10, 23, 17,
   -13, 14, 57, -18, 20, -7, 16, 37,
   33, 43, 9, 38, 11, 29, -8, 52,
   31, 20, -27, -4, 53, -20, 23, 36,
   -7, 27, -48, -45, -24, -9, 52, 16,
   -2, -26, 10, 7, 7, 32, -54, 40,
   72, -34, 48, 19, 69, -93, -25, -16,
   1, 15, 29, -50, -23, -11, 22, 56,
   -24, 25, -31, 44, -29, 22, -49, -35,
   89, -1, 30, -9, 43, -2, -30, -66,
   -52, -1, 26, 4, 29, -12, -3, -14,
   -43, 12, 2, 64, 14, 74, 8, 14,
   -59, -23, -35, 43, -6, -43, 56, -46,
   -46, 1, -16, -20, -9, -82, -7, 58,
   26, -4, 42, -12, 19, -50, 5, -11,
   -29, 17, -34, 12, -8, 21, 14, 8,
   15, 13, 8, -31, 0, -5, -3, 15,
   -16, 2, -14, -29, -18, 60, 33, -16,
   1, 33, 3, -14, -42, -44, 19, -2,
   -42, -59, 16, 6, -30, 40, -37, -8,
   18, 7, -40, 9, -12, -52, -9, -8,
   35, 33, 65, -41, -17, 66, -29, -26,
   -6, 65, 22, -54, -63, 47, 26, 6,
   -14, -1, 14, -45, -29, 19, 16, -19,
   -15, -14, 13, 34, 12, -13, -12, -28,
   -78, 36, -15, -10, 42, -64, 3, 6,
   -20, 12, 49, 35, -59, -24, 43, 44,
   42, 4, 1, 46, -22, 11, 4, -17,
   25, 80, -43, -2, -30, -45, -34, 13,
   -18, 34, 0, -74, 41, -56, 92, 43,
   54, 0, -50, -10, 16, 16, -4, -31,
   -18, 4, 7, -27, 52, 9, 7, -14,
   21, -24, -5, -38, -22, 52, -3, 75,
   -20, -21, -64, -12, -60, -35, 23, 3,
   -23, -48, 33, 21, 17, 10, 26, 21,
   10, 35, 80, 4, 34, -9, -3, 17,
   70, -32, -11, 15, -33, 34, -7, -12,
   1, 2, 16, -13, 38, -4, 5, 16,
   31, 26, 25, 125, 17, 5, 80, 51,
   63, 41, -86, 4, 16, -16, -35, 18,
   30, -16, 62, -21, -67, -17, -22, 14,
   -65, -32, 65, 61, -2, 5, 60, 17,
   -65, 23, -39, 57, -34, -22, 24, 22,
   58, -21, -21, 5, -45, -18, -22, -28,
   5, -20, -54, -42, 33, 2, 3, -29,
   25, 63, 14, 23, 28, -34, -6, 32,
   32, 14, -49, -58, -31, -14, -3, -29,
   60, -8, -41, -86, -70, 3, -85, 16,
   18, -1, 7, -31, 23, 10, 21, 42,
   21, 11, -7, 5, -16, -38, 21, 35,
   18, 4, 30, -66, 20, -38, 48, 15,
   35, -42, 22, 71, -18, 43, 29, 30,
   15, 14, 16, -72, -18, 78, -9, 17,
   1, 64, -68, -24, -14, -52, -34, -27,
   14, -12, -9, -25, 11, 9, 8, 41,
   -3, -15, 49, -16, -39, 29, 13, -82,
   1, 12, -49, 10, 0, -24, -25, -17,
   -22, -86, 24, 15, 91, -4, 89, 8,
   -7, 30, -18, -65, -62, -2, 38, 40,
   28, -47, 79, 44, -43, -15, 30, 44,
   -60, 24, 5, 11, 2, -80, 32, 10,
   -5, -53, -8, 12, -10, 30, -3, 0,
   -52, -5, 34, 14, -23, 52, 17, 43,
   -59, 37, -3, -2, -18, -26, 50, -18,
   -7, 42, -9, 13, 8, 38, 16, 5,
   18, -10, 17, 16, 58, 2, 85, 57,
   77, -16, -38, 10, 20, 13, 41, -19,
   -8, -12, 2, 27, 23, 45, -45, -18,
   54, -35, 2, 4, -32, 32, 55, -20,
   -1, 2, 8, 38, -65, 17, -5, 1,
   27, 11, 3, 53, 65, 24, 20, -52,
   1, 44, -8, 3, 12, -22, -13, -37,
   48, -34, 43, 60, 55, 0, 35, -5,
   -50, -2, 8, 4, 11, -24, -8, 0,
   89, -6, -55, 127, 28, -21, 45, -45,
   -49, -21, 21, 28, 50, 114, 54, 16,
   10, 41, -61, 19, -5, 6, -13, 9,
   -17, -26, -37, 62, -34, 39, 30, 18,
   30, -58, -18, -13, -19, -15, 70, -57,
   -28, 22, 35, -23, 24, -20, 34, 8,
   -54, 7, 40, 77, 6, 25, 3, 89,
   1, -6, -23, -54, 32, 83, 3, -15,
   -34, 5, 19, 48, 31, 80, -15, 44,
   39, 40, -14, 26, 31, 72, 33, -28,
   -34, -124, -36, -7, 37, 2, -19, 25,
   -36, -6, -16, -8, -2, 65, 6, -72,
   12, -55, 21, 36, -24, 39, -22, 38,
   30, -24, 46, -75, -23, -52, -22, -2,
   -54, 3, 19, 78, 52, -68, -21, -28,
   52, 16, 70, -31, -16, 13, 17, 37,
   -6, 18, -21, 56, 23, -4, -44, 1,
   -4, -51, 6, -9, 79, -20, -18, 20,
   50, 29, -20, -32, -42, 43, -7, 24,
   23, 93, 57, 15, 17, 70, -41, 38,
   -28, 17, -27, -2, 2, 50, -8, -41,
   69, 42, -46, 8, -10, 26, -7, -120,
   75, -12, -6, 29, -37, 26, -8, 48,
   52, 7, 13, 8, -66, -19, -7, -9,
   -3, 63, 27, 9, 16, -39, -45, -59,
   31, -5, -29, 29, 11, 9, 39, -22,
   -18, -1, 15, 23, -11, -31, 19, -45,
   -12, -41, 86, 14, -3, -12, -18, -24,
   -27, 123, -63, 3, 7, 14, -16, 12,
   -37, 26, -9, 5, -63, -19, -51, 66,
   52, 29, -16, -48, 40, -58, 18, -66,
   -20, -33, 51, 6, 55, -17, -45, -19,
   79, 5, -1, 0, -69, -21, 38, 18,
   10, -13, -24, -21, -52, 4, 22, -52,
   7, 36, 40, 27, 34, -45, 18, -61,
   8, 51, 15, -12, -39, 31, -63, -19,
   -4, -4, 27, -46, -12, 1, -37, -31,
   18, 49, 4, -3, 58, -37, 90, 53,
   18, 112, -39, -35, -41, -4, 76, -7,
   -37, -8, 18, -35, 69, 33, 27, -32,
   43, 18, 49, 5, 1, 9, 17, 19,
   7, -5, -25, -1, 48, -3, 30, 70,
   -12, 25, -44, 61, -46, 42, 33, 48,
   38, -20, 14, -22, -48, -30, 64, -43,
   -6, -27, 47, 27, -3, -4, 6, 42,
   74, -6, 29, -10, 10, -4, 92, 15,
   3, -28, -31, 14, -2, 32, 16, -17,
   -67, 2, 39, -19, -13, -16, 20, -14,
   -7, -50, 16, 40, -69, -9, 19, 84,
   -49, 38, -3, -27, -6, 5, 43, -20,
   2, -24, -13, 27, 63, 8, -17, -47,
   12, 27, 80, 41, 46, -21, 14, 23,
   39, -50, -19, 39, 18, -51, 53, -18,
   4, -8, 71, -23, -2, 20, 23, 11,
   12, -38, 61, 33, 37, 23, -16, -19,
   -5, 41, -41, 18, 75, -24, 38, 17,
   -24, 6, -70, -10, 53, 28, -46, 32,
   25, 45, -88, 28, 15, 26, 12, -2,
   -34, 32, 36, 14, 5, -25, 39, 14,
   49, -26, 1, -8, -21, 67, -14, -60,
   -10, 28, -1, 49, -6, 66, 12, 23,
   -24, 1, 23, -71, -41, -6, 8, -7,
   -63, 8, 50, -30, 23, 6, 7, 27,
   -43, -17, 24, 34, -16, 19, 55, 24,
   -11, -27, -36, -41, -17, 13, -2, -13,
   -28, 11, 4, -18, 39, 17, -27, 4,
   -47, -20, 7, 27, -31, 33, 0, 18,
   -71, 22, -19, -120, -12, 21, -27, 10,
   -15, 41, 55, -26, 41, 10, 7, -6,
   -26, -76, 7, -15, 2, -18, -22, 27,
   -11, -15, -45, 30, 8, 44, 6, -41,
   3, -13, -3, 13, -20, 24, -4, 30,
   24, 12, -26, -8, -21, -2, -9, -41,
   2, 47, 29, -57, 73, 80, 59, 61,
   -1, 14, -84, 24, 102, 50, -61, 32,
   73, -58, 15, 19, -20, -13, 34, 48,
   -25, 19, -12, -5, 29, 54, 69, 7,
   -12, 3, -16, -6, 22, 48, -8, -66,
   -55, -104, -20, -20, 0, 20, 11, 68,
   15, -47, 28, 16, -32, 15, -7, -4,
   -13, -33, 25, -12, -19, 41, 2, 94,
   -14, 7, -32, 9, -1, 2, 29, 31,
   7, -69, -24, 22, -27, 24, 52, 14,
   -21, 2, 14, 8, 69, -23, -4, 0,
   -21, -5, 53, 26, 5, -2, 65, -13,
   -37, 25, -37, 46, -44, -51, -5, -54,
   12, 4, 7, -50, 18, 39, -2, -40,
   47, -6, 18, -14, -14, 14, 24, 3,
   10, -5, -32, 21, 25, 36, -41, -2,
   -5, 36, -58, 36, -20, -32, 33, 10,
   -16, -37, 75, -10, 104, 6, 19, 28,
   24, 3, -29, 25, 36, -4, -75, -65,
   24, 70, -1, -47, -74, -40, 24, 38,
   -88, -5, 21, -32, 19, -55, -38, -44,
   41, -19, 31, 71, -37, 8, -56, 21,
   20, -30, 27, 30, 11, -10, 5, 3,
   -45, 95, -22, -36, -46, -35, -54, -62,
   -59, -23, -42, -21, 2, 54, -24, -2,
   57, 9, -8, -6, -13, -10, -16, -48,
   -3, 17, 2, 22, -57, -32, -42, -60,
   14, 36, 9, 56, 40, 21, -70, 3,
   -8, -5, -62, 2, -1, -39, 11, 25,
   24, 9, -43, -20, 67, -39, -47, -35,
   -6, -21, -44, 35, 16, -14, -44, 30,
   -40, -18, -40, 29, 30, -8, -21, 16,
   11, 10, -56, 0, 15, 49, -12, -49,
   27, -6, 22, -5, 21, 11, -14, -17,
   -25, 18, 4, -52, -34, 9, -24, 7,
   -23, 17, 52, 42, -44, 23, -48, 36,
   70, -72, 20, 9, 0, 1, -24, 40,
   59, 9, 55, -22, -37, -47, -74, 38,
   -78, -21, 43, 55, 56, -7, -56, 16,
   -7, -39, 5, -62, 38, -7, 12, 14,
   -27, -8, -12, 8, -32, 14, 2, 104,
   -11, -24, 62, 85, 34, -18, -3, 52,
   -41, -13, 57, -16, -32, 34, -2, 25,
   -9, -10, 50, -73, 40, 5, -14, -4,
   24, 69, -9, -26, 58, 24, 26, 11,
   -18, 75, 10, 14, 43, 5, 3, 11,
   -27, -17, -26, -3, -57, -39, -84, -23,
   36, -3, -6, 16, -27, -23, 32, 27,
   -37, 46, -31, -43, 69, -8, 29, 56,
   83, 59, 0, 25, 6, 7, 66, 7,
   50, 29, 19, 35, -32, -35, -32, 11,
   -43, 27, 60, 16, 89, 14, -43, 23,
   -11, 43, 47, 14, 17, 19, -8, -50,
   -45, -23, 15, -62, -6, 25, 28, 52,
   13, -19, -53, -18, 23, 21, 59, -87,
   -30, -19, 38, -5, 1, -40, 28, -10,
   -19, -34, 29, -16, 29, -31, 4, -15,
   -34, 30, 33, 18, 6, -32, 54, 23,
   48, 39, 59, 39, 35, 11, 34, -5,
   -14, 77, -8, -17, -40, 22, -66, -61,
   -16, 35, -28, 20, 33, -14, 12, 37,
   33, -4, 34, -10, -23, -37, 1, -29,
   28, -3, 17, 8, 4, 39, -27, -3,
   47, 14, -19, 51, 74, 6, -21, -22,
   -52, 12, -27, -25, -18, -8, 11, 86,
   43, -5, -10, -29, 19, 39, -29, -76,
   -28, -12, 27, 49, 42, -24, -40, 44,
   2, -30, -55, -5, -42, 33, -34, 40,
   -25, 15, -34, 3, -21, 1, -23, -46,
   23, 27, 46, -18, 0, 39, -9, 42,
   -26, -53, 52, -35, -11, 42, 18, -5,
   -52, 34, -11, -63, -46, -41, -37, -3,
   -47, 54, 20, 22, -71, 23, 63, 14,
   2, 69, 21, 41, -114, 30, -16, 33,
   11, 7, 49, -19, -66, 34, 44, 71,
   42, -8, 16, 19, 45, 36, -34, -43,
   33, 35, -1, -12, -41, -35, 0, 5,
   24, -7, 62, -60, -62, 20, 37, -56,
   51, 41, -47, 18, 9, 67, -21, 19,
   -32, 46, 20, -9, 3, -51, 28, -27,
   -88, 16, 51, 54, -24, -17, -44, 25,
   0, 87, -64, 49, 0, -44, 18, -20,
   -9, 20, -11, -38, 50, -74, 77, 20,
   -8, 110, -17, -19, 70, -22, 51, -11,
   -26, 67, -20, 26, 39, 29, 13, 5,
   -81, -11, 5, -58, -19, -7, 2, 55,
   -37, 24, -22, -25, -58, -23, -48, -17,
   -34, -4, 30, -1, 37, -19, 17, 37,
   -17, -20, 50, -2, 22, 20, 2, -69,
   38, 75, 23, 26, -26, -27, -10, -3,
   -3, 71, 8, -20, 8, 18, 17, 17,
   30, 72, -52, -26, 63, -14, 20, 30,
   5, -8, -55, 46, -34, -11, 40, 59,
   -50, -65, -20, -1, 78, -5, -18, 15,
   -14, 80, -12, -37, -14, 11, 68, 2,
   -24, 44, -1, -7, -8, 7, -1, 2,
   39, -5, 25, 40, -21, 15, 78, -12,
   -58, -16, 55, 10, 14, 54, -18, 77,
   31, -29, -3, 27, 6, 45, 82, 27,
   -7, -13, -12, 27, -13, 11, 83, -45,
   -4, 20, 32, 19, 34, 21, 17, -40,
   11, -10, 19, 3, -9, -3, 25, 3,
   9, 2, -11, -45, -31, -37, -12, -8,
   6, -31, -28, 12, -25, -1, -3, -3,
   5, 16, -14, 9, 29, 9, 1, 18,
   9, -18, 40, 16, 0, -22, 26, -21,
   -15, -22, -3, 50, -21, 16, -25, 18,
   -22, 65, 3, 69, 23, -24, 21, 21,
   -88, 53, 66, 27, 6, 2, -22, -32,
   56, 31, -54, 21, -10, 45, 12, 29,
   9, 41, 9, 44, -5, 5, -48, -19,
   69, -47, 7, -13, -44, -28, 6, -35,
   25, -10, 28, -80, -14, 28, 42, 34,
   61, 55, 123, 8, -9, -12, -18, 29,
   54, -29, -4, 38, -9, 26, 28, 15,
   49, -19, 47, 0, 41, -19, 27, -23,
   17, -58, -51, 57, 29, -25, 9, 3,
   11, 42, -5, -8, 59, 43, 23, 8,
   8, -16, 10, 86, 22, 1, -123, 11,
   -10, -47, 27, 29, -10, 2, 7, 45,
   -23, -20, -4, -58, 21, 17, -43, 22,
   86, -47, 22, 22, -6, -70, 35, 42,
   15, 42, 5, 43, -8, -11, 32, -33,
   12, 6, 62, -1, -13, -9, -9, 45,
   -47, -63, -4, 61, -7, 27, -13, -8,
   25, -17, -16, -27, 48, 43, -18, 12,
   8, 60, 10, 26, 22, -7, -15, 5,
   20, 14, 41, 17, -67, 53, -47, 32,
   -6, -5, 14, -34, 37, -4, 29, -4,
   -21, -26, -9, 42, -25, 3, -1, -8,
   23, -29, -70, 69, 27, 9, 40, 54,
   -9, 72, 40, -28, 12, -20, -63, -51,
   17, -18, 22, -5, -20, 14, -67, -28,
   31, -8, 39, 5, -32, -23, -19, -62,
   4, -30, -49, -18, -39, -14, -31, -12,
   28, 41, 24, 42, 7, 9, 13, 8,
   -56, -3, -4, -34, -9, -5, 37, 24,
   42, 7, 42, -47, 35, 1, -39, 15,
   24, 4, -8, -3, -2, -26, -29, -14,
   -16, 18, -39, 22, -28, 23, -20, 22,
   21, 14, 2, -6, 16, 6, -32, -46,
   19, 3, -26, 6, 29, -9, 21, 29,
   18, -11, 74, 28, 8, 28, -31, 46,
   -16, 18, 13, 4, -94, -41, -44, -33,
   88, -19, -10, 6, -40, 15, 81, 63,
   -12, 62, -2, -9, 13, 60, -22, 7,
   64, 12, -43, 36, 18, 9, 33, 44,
   -15, -51, -36, -70, 75, 37, 47, -51,
   62, 20, 6, -40, 34, 1, 39, 13,
   -19, 4, -16, 14, 7, 53, 57, 0,
   -22, 10, -55, -1, 65, 39, -1, 7,
   -41, 2, -20, 4, -12, 4, 35, -30,
   -32, 2, 18, 5, -16, -13, 64, 12,
   2, -5, -14, -8, -34, 44, -30, 18,
   7, -10, -21, 52, -23, -48, -55, -3,
   19, 25, 5, -42, 42, -28, -10, 38,
   24, -9, -1, -87, 17, -10, -27, -7,
   -24, 31, 11, -53, 20, -12, -62, 5,
   -53, 31, 23, 12, 81, 4, 15, 4,
   9, -5, 25, -5, -6, -4, -28, -28,
   7, -75, -6, -63, -1, -15, -21, -14,
   -6, -13, -3, -29, -10, 11, -37, -23,
   -23, -33, -33, 39, -16, 41, 73, -13,
   17, -2, -43, 11, -12, 5, 17, -5,
   28, 26, 23, -23, 4, -4, -4, 38,
   -6, -69, 28, 34, 7, -24, -4, 24,
   -2, -12, -50, 17, 24, -8, -18, 15,
   3, 8, 89, 5, -8, -26, -25, 4,
   -29, -14, 12, -15, -18, 34, 2, -30,
   9, 30, 25, -6, -22, 10, -17, 3,
   -7, -35, -2, 18, 16, -20, 7, -10,
   27, 42, -26, 30, 7, -37, 0, -17,
   -39, -26, -11, -13, -1, -2, -22, 27,
   5, 9, 9, 38, -3, -2, 9, -17,
   13, -6, 27, -7, 17, -5, -16, 21,
   -13, 2, 13, 7, -10, 30, 2, 0,
   -55, 14, 4, 7, 14, -34, -13, -1,
   -30, 50, -50, 5, -34, 9, 22, 21,
   23, -6, 0, 22, -33, -37, -20, 19,
   -14, 35, -66, -27, -4, -22, 22, 10,
   -20, -53, 56, 29, 18, -23, 22, -9,
   10, -70, -4, 54, 35, 61, 92, -7,
   20, -22, 44, -42, -7, 12, -9, -15,
   65, -5, 7, 28, -83, -8, 60, 5,
   -9, -32, -31, 79, -80, 26, 48, 45,
   8, 48, 86, 61, -32, -13, -12, 12,
   2, 0, 37, 14, -23, 22, -53, 8,
   -26, 38, -9, -2, -33, 15, 4, 0,
   7, -6, 25, 16, 13, 23, -16, 3,
   -24, 27, -15, 14, 31, -10, 46, 4,
   -38, -10, 0, -9, -10, 4, -11, -21,
   -27, 10, 30, -20, -4, -23, 4, 21,
   5, -35, -7, -32, -5, -34, 18, -5,
   11, 19, -29, 3, 1, -71, -39, 39,
   20, 10, -39, -17, -16, 18, -30, 19,
   27, -50, -34, -10, -22, -5, -25, 3,
   -51, 19, 16, 47, 15, 23, -39, -53,
   -84, 3, 18, 14, 27, -1, 20, 10,
   0, -37, 0, 5, 95, 21, 18, -7,
   13, 31, 7, 35, -10, 32, 45, -17,
   18, 27, 66, -42, 5, -15, -30, -57,
   45, -6, 3, 36, 27, 2, 49, 12,
   -57, -47, -78, 26, -21, 24, -41, 32,
   29, 55, 21, -30, 10, 10, -39, -55,
   14, -28, 30, -32, 6, -25, -15, 18,
   -22, 0, -48, -49, -5, -24, 39, -6,
   -71, -4, -21, 9, -1, 44, -19, 62,
   11, 21, -11, -6, -16, 8, 29, -4,
   -52, 29, -8, 14, 16, 21, 17, 35,
   11, 42, 38, 11, 28, -31, -24, -22,
   -3, -24, -14, -7, -9, 33, 48, 16,
   6, -8, -19, 20, 11, -24, -26, 37,
   -2, -22, -79, 28, -23, 47, -13, -1,
   10, 23, 0, -7, -10, -41, 63, -20,
   -43, 71, 17, -1, -11, 43, -20, 13,
   11, -25, -20, -36, -107, -45, 73, -37,
   3, -9, -40, -3, -13, -28, 42, -1,
   9, -22, 29, -21, 2, 21, 0, -57,
   -37, 37, -65, 49, 22, 0, -5, 11,
   -4, -45, 6, 32, 36, -39, 4, 46,
   12, 5, -47, -87, -40, 37, -34, -20,
   -42, -43, 2, 57, 29, -25, -34, -6,
   14, -36, 84, 27, -11, 18, 3, 5,
   -54, 20, 7, -39, -22, 35, 16, 40,
   0, -14, 9, 26, -11, 57, 14, 16,
   0, -36, -4, -39, -30, 30, 52, -23,
   55, -10, 20, -3, 6, -40, -44, -87,
   43, -2, 15, 8, 25, 17, -8, 34,
   -34, -15, -21, 75, 24, 18, -17, 18,
   30, -5, 12, 23, 7, 38, 24, -24,
   51, 30, 17, -5, -40, 41, -30, 58,
   -18, 31, -6, -25, -61, 45, 16, -24,
   81, 1, -68, -61, 26, -2, -11, 29,
   41, 64, -7, -6, 17, 33, 1, -45,
   -13, 24, 55, -14, -15, -5, 28, 56,
   -21, 52, -31, 20, 8, 35, -36, -14,
   26, -5, -9, 45, -6, 28, -20, 6,
   11, -10, -8, -50, 36, -1, -13, 26,
   -53, 31, -13, 10, 33, -32, 3, -2,
   -16, -22, -8, 33, 18, 26, 6, 46,
   -9, 14, -15, 28, 13, 13, 26, 8,
   -26, -1, 18, 21, 14, 15, -15, -3,
   -26, 6, -11, 5, 14, -23, -1, -18,
   -23, -11, -5, -3, -8, 6, -11, 12,
   26, 36, 25, -27, 1, 29, 10, -10,
   4, 18, -5, 9, -38, 18, -13, 60,
   -13, 2, 13, -36, -29, -25, -10, 22,
   16, -18, 42, 6, -27, -54, -31, -2,
   34, -30, 21, -13, 3, 20, -6, -12,
   -56, 16, 4, -17, 32, 4, -41, -27,
   24, -38, -1, -8, 8, 31, -37, -8,
   -3, 11, 3, -1, -20, 0, -22, -2,
   0, 25, -45, 22, 17, 29, 108, 51,
   60, 60, -81, 17, -13, -4, 40, 68,
   -40, -9, -27, 75, 8, -10, 0, 58,
   -36, 19, -27, 32, 0, -34, 25, 28,
   -11, -4, 19, 58, -13, 13, -6, -10,
   -35, -44, -46, 11, 16, 48, 54, 19,
   -33, -6, -18, -10, 43, 17, 19, 2,
   3, -43, 2, -28, -2, 52, 14, 26,
   21, 36, -8, 37, 11, 25, 5, 14,
   3, 7, -19, -57, -3, -33, 2, 29,
   -13, 4, 6, -37, -30, -31, -5, 22,
   34, 5, -57, 15, 39, -28, 0, -70,
   -35, 43, 23, -18, -7, 17, 6, 17,
   15, 19, -27, 21, -39, 3, -1, 12,
   10, -3, 37, -22, 6, 2, 27, -5,
   -23, 5, -24, -3, -1, 31, -53, -20,
   -17, -24, -28, -111, 31, 23, -17, -10,
   -45, -25, 24, -47, -25, 48, -22, -15,
   31, 34, -47, 44, -34, -9, -2, 1,
   33, -45, 5, 22, -54, -34, -1, 1,
   -20, 0, 10, -26, 41, -51, 7, -3,
   -75, 12, -62, 34, -4, 54, -31, -17,
   20, 20, 8, -37, 12, 39, -47, 26,
   -68, -32, 22, 26, 68, -22, -5, 1,
   -78, -36, -28, -32, -14, 34, -48, 0,
   18, -32, 21, -35, -27, 43, -4, -31,
   38, -16, -14, -15, -43, 10, -23, -4,
   37, 33, 41, 22, 19, -11, 1, -19,
   28, -21, -29, 22, -32, 5, -40, -11,
   6, 17, -5, -48, 3, 7, -3, -27,
   -8, -30, 3, -48, -10, -25, -31, -3,
   -21, 42, 36, -35, -8, -26, -54, 2,
   -1, 8, -38, -7, -27, 31, 31, -2,
   -15, 26, 10, -2, 18, 32, -26, 24,
   -9, 29, 0, -44, -8, -23, -53, -43,
   8, 1, 20, -56, 27, -2, 12, -32,
   -34, 0, 21, -45, 10, 7, 25, 9,
   -15, 51, 2, 38, 0, 39, -36, 23,
   -19, -5, -12, -12, 30, 67, -28, 46,
   14, -16, -17, -79, -26, -22, -8, -49,
   -10, 73, 36, 15, 3, -9, 22, 1,
   -17, -50, -13, -30, -26, -5, -5, 29,
   -22, -32, -25, -4, 39, -8, 32, -9,
   -19, -20, 51, -1, 16, 23, -8, 22,
   -10, 30, -10, 30, 10, -64, 42, -2,
   -20, 5, -1, -3, 1, 4, 1, 15,
   49, 34, 2, -50, -10, 11, 8, -8,
   -47, -37, 37, 39, -19, -32, 30, 45,
   5, -26, -4, -5, -38, 6, 39, -2,
   -46, 1, -2, 13, 13, -45, -17, -23,
   -29, 3, 63, -32, 29, 18, -17, 55,
   -20, -26, 14, 1, 24, 37, -23, -2,
   23, -45, 12, -22, 16, -31, -27, -7,
   3, -30, -11, -42, -17, 3, 35, -33,
   -17, -4, -29, -56, 38, 4, -1, 21,
   -11, 60, -43, -23, -21, 19, 6, -24,
   7, -10, -74, -59, -21, 37, -20, 10,
   6, 65, 13, -28, 64, -16, 75, 8,
   -14, 4, 46, -30, 28, 38, 60, -30,
   12, -61, -36, 13, 17, 9, 42, 25,
   -19, -7, -10, 41, 5, 35, 72, -11,
   -20, 27, -33, -3, -6, 37, 43, -12,
   -45, -15, -3, -1, 46, 5, 8, 7,
   -36, -44, -16, -33, -36, 18, 24, 20,
   37, 14, 28, 5, -52, 36, 36, 23,
   7, -4, 49, 13, 18, 1, -28, -20,
   7, -24, -8, 25, 5, 13, 8, 22,
   -42, 38, -31, -56, -45, 1, 49, -56,
   -10, -12, 8, -9, 1, 7, 21, 17,
   -2, 21, -10, 31, -50, 19, 75, 20,
   -24, 18, -6, -34, -27, -13, 24, -16,
   7, 25, 4, -11, 15, 13, -24, 22,
   -71, -41, 18, 57, 8, -38, -22, -44,
   16, -19, -33, -24, -2, 34, 47, 15,
   54, -32, 36, 14, 5, -14, 63, -95,
   15, 51, -18, 15, 9, 22, -13, 29,
   -8, -1, -4, 50, -77, -3, -8, -11,
   -24, 17, 70, 20, 10, -45, -9, 0,
   32, -14, 22, 3, -20, -37, 14, -1,
   21, 16, -5, -10, -8, 32, -51, 2,
   -27, -2, -26, 44, -23, -15, -40, -4,
   -11, -18, 8, 30, 54, -15, 12, -3,
   -32, -5, -26, -23, -16, 7, 13, 37,
   -28, -11, 20, 0, 31, -10, -11, 2,
   21, 29, 33, 37, 14, 6, 26, -4,
   -25, -18, -1, -19, 21, -16, 2, 33,
   22, -14, 20, -66, -23, 4, 17, -9,
   -40, -12, -29, -17, 0, 16, 32, 2,
   31, 40, -41, 9, 13, 16, -6, 9,
   -4, 17, -21, -68, -10, 22, 38, 1,
   3, -6, -16, 18, 3, -20, 0, 16,
   40, 23, 24, 35, 46, 5, 13, 1,
   18, -9, -4, -52, -27, 28, 15, -41,
   -20, 37, -23, 14, 52, 3, -8, 17,
   14, -8, 20, -27, 2, 19, 6, -17,
   -7, -12, -49, 4, 3, 18, -7, 6,
   -31, 24, -71, 12, 29, -6, 55, 18,
   6, 7, -46, 46, 7, 12, 25, 9,
   -31, 16, 6, 35, 35, 1, -7, 20,
   -12, 6, -13, -63, -2, 18, -15, -6,
   6, 44, -5, 26, 3, -5, 44, 21,
   -40, 0, -25, -46, 30, -16, 14, -8,
   4, 12, -3, -33, 14, 0, -8, 52,
   -24, 47, -33, 12, 19, -5, -27, 2,
   -35, 31, 13, 21, -31, 17, -32, 21,
   9, -23, -5, -33, 9, 37, -7, 10,
   43, 12, -24, -1, 33, 0, -32, 15,
   27, -56, -63, -15, -7, 30, -13, -66,
   59, 9, 41, -30, 30, 24, 2, 15,
   -18, 20, 2, 45, 59, -51, -39, -5,
   -59, 66, 27, -4, 10, -9, 21, 43,
   1, -37, -36, 40, -6, 27, 39, -6,
   6, 11, -13, 25, 62, 5, 71, -33,
   23, -19, -36, -10, -25, 46, 43, 17,
   -24, -18, -18, -20, 19, 8, 50, 23,
   -2, -12, -53, 47, 16, -31, 22, 41,
   -46, -33, -22, -24, -16, -33, 27, 9,
   14, -2, 1, -20, -22, 10, -9, 0,
   1, 22, 26, -19, 7, 36, -6, -24,
   -38, -40, 32, 5, 11, -19, -43, 9,
   2, 43, 18, -17, -40, 19, -10, -9,
   9, 13, -2, 17, 4, 18, 32, 13,
   9, 4, -50, 31, -8, 27, -7, -10,
   -23, -30, -2, -21, 50, 22, 40, 59,
   -12, -29, 73, -22, -8, -4, -25, 20,
   -38, -78, -11, -27, -1, 16, 25, 40,
   20, -8, 18, -51, -15, 105, -6, 51,
   6, 93, -25, 18, -25, 36, -25, -82,
   -22, 36, -55, -67, -19, 55, -3, 41,
   39, -33, -4, -78, -21, -64, -42, -16,
   -18, 26, -10, 24, 26, -37, 91, 21,
   12, -53, -13, -83, 17, -26, 8, -3,
   23, -21, -48, -39, 37, -34, 3, -10,
   -16, 35, -10, 9, -7, -28, 8, 11,
   -30, -47, 34, -27, -2, -88, -13, -38,
   -36, 55, -16, -19, 1, 7, -34, 21,
   -3, 20, -16, -4, 26, -24, 87, 23,
   2, -25, 82, -18, 0, -18, 28, -36,
   34, 9, -3, -18, 6, -12, -76, 33,
   -23, -19, 16, 7, -39, 0, -20, -16,
   -73, 10, 6, -12, 38, 10, -8, -36,
   -42, 79, 53, -32, 43, 106, 4, 59,
   21, -28, 1, 95, -8, -15, -42, 1,
   -39, -29, -59, -39, -23, 17, 4, -15,
   -52, -30, -1, 34, 1, -22, 15, -46,
   42, 17, 14, -12, 10, -8, 74, 1,
   -94, -24, 68, -22, -56, -12, -53, -47,
   14, 28, 31, 9, -18, 8, 45, 44,
   -45, -70, -84, 4, -42, 6, 23, -75,
   32, 24, 5, 4, -73, 8, -2, -5,
   10, 1, 46, -30, -46, 18, -7, -12,
   50, 45, -27, 8, 6, -27, -14, 16,
   -7, -16, -11, 2, -19, 1, 2, -12,
   39, -20, -24, -6, 21, -21, 11, -47,
   -65, -23, -34, -48, 3, 46, 27, 9,
   27, 16, -17, 16, -7, 30, 36, 17,
   22, -1, -12, 3, -12, -43, 17, 8,
   -27, -50, 24, 50, 50, 1, 0, 23,
   78, -17, -20, -49, -21, 43, -14, -9,
   45, -10, -69, -10, -36, -53, 14, 4,
   -48, -15, 0, 1, -39, 14, 53, 20,
   -10, -35, -17, -13, 0, -63, -19, -4,
   15, -1, -28, -27, -22, 32, -37, -50,
   -28, -30, 36, -5, -12, -88, -37, -16,
   -14, -2, 21, 66, 15, -38, 50, 13,
   8, -22, -13, -20, 19, 13, 34, 5,
   -20, -1, -33, -2, -2, 14, -12, -35,
   25, 46, 15, -35, 1, -28, 16, -3,
   -18, 25, 44, -31, -16, -4, -47, -26,
   -9, -24, -5, 1, -46, -22, -18, -22,
   -29, 9, -24, 6, -7, 15, -10, 27,
   -30, -21, 13, 8, 22, -29, 9, -29,
   -6, -47, -22, 11, 15, -11, -17, -7,
   -6, 43, -1, -33, -14, -17, -8, -17,
   -2, 12, 23, 28, 12, 15, -5, -8,
   -30, 15, 18, 4, -4, 0, 35, 1,
   -31, -15, -21, 9, -38, -27, -31, 4,
   18, 5, -39, 5, -23, 16, -19, 12,
   25, 29, -4, 10, -40, 8, -11, -1,
   -35, 34, 20, -58, -38, -5, -6, 4,
   13, 16, -5, 31, -41, -2, 16, -27,
   28, 5, -7, -3, 32, -52, 44, -40,
   -34, 3, 65, -1, 50, -28, 3, -1,
   -1, 13, -14, 38, 6, 11, -23, -38,
   -3, 60, -32, -12, 4, 12, -13, 69,
   22, 16, 15, -18, 13, -7, 0, -16,
   -6, 9, 31, 13, -26, 19, -5, 8,
   42, 4, -17, -17, -10, -45, -16, 7,
   20, -15, -17, -4, -49, 37, -32, 19,
   14, -23, 8, -6, 8, -16, 4, -17,
   2, -13, 1, 17, 52, 1, -44, -4,
   50, 26, -4, 29, 6, -12, -19, -23,
   -25, -9, 7, 27, 26, -22, 25, 48,
   40, 9, 2, -56, 21, -7, -4, -18,
   6, -30, -69, 57, -11, 39, 22, -31,
   20, -5, -37, -23, 14, -14, 32, 22,
   14, 63, -6, 16, -16, 32, -1, 17,
   -52, 26, 26, 14, -18, -17, 8, -12,
   -1, 25, 26, 7, 37, 69, -8, 63,
   5, 63, -12, 15, -37, 70, -26, -22,
   57, 32, -72, -39, -19, 45, -27, 97,
   19, -40, -8, 22, 68, -9, -11, -9,
   10, 39, 13, -53, 38, 50, 33, -27,
   14, -47, 1, -50, 28, 25, 24, 26,
   32, -2, -48, -11, 16, 18, 29, -20,
   -46, -66, 33, 4, -12, -52, 74, -41,
   -45, -57, 19, -21, 29, -14, 40, 2,
   25, 0, -8, -8, -2, 6, 11, 21,
   -7, 9, -10, 12, -2, 15, 0, 6,
   -32, -4, 8, -21, 1, -25, 36, 26,
   11, -75, 42, -23, 14, 23, 25, 18,
   -32, 18, 12, -63, -3, 4, -16, 21,
   -37, 28, 1, -50, 48, -14, 43, -55,
   -55, 52, 45, 5, 4, -31, -33, -34,
   -11, -51, -12, 35, -49, -14, 1, -6,
   -47, -46, 3, -30, 24, -23, -26, 11,
   12, 55, -13, -82, -22, 5, -68, -22,
   77, 4, 43, -47, -5, -57, 60, -20,
   9, 38, 34, -79, 21, -38, 40, 63,
   31, 82, 15, 64, -4, -1, 2, -28,
   6, 5, 47, -25, -6, 23, -13, 4,
   16, 63, 62, -13, -7, -57, -41, -13,
   21, 6, 14, 8, -35, -3, -38, -35,
   37, -30, 5, -19, 1, -72, -1, 4,
   104, -5, -1, -19, -40, 18, -25, -27,
   81, 29, 11, 41, 16, 15, 30, -2,
   -25, -19, -7, -5, 35, -6, 1, 36,
   26, 25, 14, 17, 8, 13, 4, -11,
   0, 14, 60, 10, -22, 14, 19, 22,
   0, -50, 16, -10, -33, -6, 60, -19,
   53, 21, -32, 55, 7, 10, 3, -50,
   -20, 17, -4, -11, -7, -21, -5, -22,
   17, -1, -39, 52, 0, -22, -27, 6,
   32, 7, -28, -58, 53, -35, -15, 62,
   -54, -57, 23, -51, 30, -8, 33, 14,
   -39, 55, -54, 30, 86, 21, 6, 8,
   8, -5, -13, -85, -31, 32, 11, -34,
   36, -28, 27, -29, -35, -36, 13, 30,
   15, -16, -62, 23, 35, -60, 28, -59,
   -15, 42, -37, -36, -22, -28, -36, 6,
   -11, -17, 12, -5, 7, -30, 44, 22,
   5, 36, 6, 25, 15, 8, -6, -15,
   -4, -13, 9, 0, -21, 16, 54, -24,
   -41, 2, -24, -15, 22, -49, 17, -6,
   -85, -28, -1, -24, -23, 18, 18, 25,
   16, 25, 7, 19, 2, -72, 2, -23,
   63, 16, -35, -42, -30, 5, -9, 5,
   26, -7, -27, 63, -26, 3, -4, 28,
   68, 7, -22, -78, 35, -42, -3, -37,
   -14, 23, 3, 4, 17, 15, 14, 21,
   -14, -4, 54, -6, -17, 27, 54, 19,
   39, 63, 52, -17, -2, 25, 15, 44,
   -22, 8, 27, -13, 35, 2, 5, -29,
   21, -81, 2, 28, 46, -4, 60, -39,
   -14, -34, 43, -34, -5, 12, -56, -35,
   19, 17, -1, 59, -55, 3, -9, 9,
   5, -34, -73, -6, 15, 4, -36, -16,
   38, 26, 26, 37, -30, -38, 7, 8,
   19, -30, 60, -12, -35, -18, -38, -4,
   -17, 29, -6, -15, 33, -18, -22, 9,
   -18, 3, 2, -18, 0, -12, 21, 10,
   16, -37, -4, 12, 8, -30, -2, -36,
   -46, 2, 11, 10, 13, -20, -23, -11,
   27, -8, -27, 3, -14, -19, -6, -22,
   26, 7, 21, 41, 17, 15, 20, -11,
   1, -15, -11, 21, 33, 11, 35, 4,
   8, -13, -55, -16, -15, 34, 46, -8,
   2, -10, -19, 20, -44, 14, 4, 56,
   21, 24, 16, 53, -78, 11, 14, -15,
   8, -14, -13, 29, -2, -2, -3, -15,
   4, 4, 11, -3, 7, 10, -7, -13,
   15, 7, -4, -16, 12, 2, 1, -19,
   -1, -2, 27, 14, 18, 29, 10, -21,
   -24, -22, -32, 2, 16, -22, -36, -14,
   9, 14, -41, -29, -17, 9, -2, 18,
   -17, -51, 11, 7, -17, 8, 17, 30,
   13, -23, 26, -43, -11, -22, 3, -28,
   25, -37, -41, 0, 16, -11, -4, 22,
   0, -13, 62, -19, 24, -7, 31, 10,
   -6, -8, -67, 36, -23, 13, 12, 4,
   46, 11, -43, 25, -6, 12, -40, -20,
   14, 24, -9, -4, -25, 17, -2, 4,
   -5, 17, -13, -1, -18, -32, 11, -17,
   48, 13, -9, 19, 15, 1, 16, -27,
   20, 1, 23, 20, -15, -14, -18, 16,
   17, -15, -16, 1, 9, 36, 11, 24,
   17, 3, -18, -12, 21, 2, -23, 20,
   -3, 15, 9, -25, -17, -2, 17, -21,
   -43, 7, 2, 14, 16, 33, 68, 74,
   -3, -24, -26, 4, 5, -36, 25, 19,
   -18, 37, 51, 32, -9, 43, 15, -31,
   -33, 28, -3, 19, -18, 30, -15, -25,
   -45, -6, 14, -11, 14, 11, -11, -18,
   -31, 5, -8, 22, 60, 50, 23, 15,
   13, 36, -32, -29, 3, -28, 41, 4,
   0, 31, 28, 59, -19, -3, 32, 9,
   -13, 11, -42, 1, -60, -28, -3, 11,
   -22, -46, -3, 0, -14, 71, 12, -4,
   14, -50, 27, 15, 14, 49, 16, 45,
   18, 24, -21, 21, 28, -7, 7, -31,
   -13, -13, 42, 30, -17, 4, -22, -28,
   -9, 25, 9, -19, -23, 55, 47, -12,
   -30, -12, 11, 25, 30, 37, -30, -26,
   -14, 28, 48, 24, -19, -20, -35, -23,
   41, 9, -32, -2, 57, -46, -2, -5,
   -4, 15, 11, 21, 10, -37, 26, -27,
   4, 9, -9, -4, 19, 11, -34, 14,
   -3, 16, -21, 21, -15, -8, -6, -1,
   2, 15, -2, 41, -14, 3, 18, -11,
   38, -32, 2, 10, 41, -50, 1, 17,
   29, -20, -40, 6, 9, 17, -7, -21,
   13, -23, 20, 12, -23, 28, -23, -25,
   23, -29, 16, -52, -19, -10, 22, -18,
   0, 4, 29, 46, 27, -11, -3, 54,
   -37, 9, 22, -22, 56, -31, 40, -4,
   -8, 86, -4, -29, 43, -21, -32, -69,
   -9, 4, 15, -45, -43, 32, -34, 53,
   35, 2, -38, -15, -2, -2, -2, -21,
   -59, -70, -7, 21, 36, -15, -13, -22,
   54, 6, -63, -46, 11, 9, -42, -27,
   9, -37, -17, 9, -7, 21, -44, -17,
   -32, 15, -17, 39, 63, 60, -32, 6,
   4, 15, 5, 25, 19, 30, 25, 20,
   -2, 0, 63, 20, 9, 13, 14, 10,
   -30, 38, -31, 6, -42, -4, 7, 30,
   12, -6, -5, -47, -2, -16, -16, 6,
   34, 36, 16, -6, -64, 34, 23, 17,
   16, 53, -6, -23, -6, 23, -50, -52,
   9, -3, 0, -7, -10, 32, 4, -23,
   19, -40, -8, -50, 10, -35, 14, 46,
   -24, 1, 4, -21, -54, -23, 23, -63,
   -11, 28, 70, 37, -6, -6, -7, -27,
   -14, -56, 37, 91, -26, -6, 10, -15,
   -6, -25, -53, -38, 3, 50, 58, 58,
   -4, -47, -63, -52, 13, -52, 5, -46,
   -7, 36, 21, -4, 17, -52, -20, 16,
   -44, 10, -3, 14, -40, 40, 47, -23,
   25, 34, 48, -14, -48, -30, -5, -9,
   12, 20, -4, -29, -6, -72, -37, 3,
   -9, -24, 4, 23, -59, -23, 21, 16,
   64, 25, 1, 8, 28, 34, -1, -19,
   15, -32, -29, -33, 40, -27, 30, 38,
   31, -40, -36, -14, 18, -25, 20, -79,
   18, 21, 58, -1, -28, -9, 12, 41,
   -10, -48, 17, -7, 102, -33, 2, -35,
   12, 7, 24, 37, 19, 28, 7, -3,
   -25, 17, 11, -1, 7, -12, 32, -9,
   -87, 3, 12, -82, -33, 46, -59, -51,
   -105, -45, 15, 98, 0, -27, -34, -26,
   -4, 75, -86, 26, -52, -23, -5, 22,
   -59, -57, 46, 32, 123, -70, -2, -41,
   59, -1, -75, 1, -69, 8, -14, 44,
   51, 30, -27, -37, -19, -32, 8, 8,
   -8, 18, -71, 22, 24, 70, -29, 0,
   -17, -10, 7, 23, 46, -21, -28, 46,
   10, 3, -78, -38, 23, -37, -27, -3,
   -28, 34, 9, -4, 9, 49, 32, -4,
   -3, 16, -9, -25, -31, 51, -13, 40,
   0, -44, -17, 17, -20, 54, -19, 2,
   -10, 55, 46, 36, 8, -19, -33, -32,
   34, 18, 2, -20, -4, 14, 4, 62,
   -11, 19, 19, -21, -68, -14, -14, -23,
   11, 47, -16, 15, -7, 58, -10, 42,
   11, 44, 40, -33, 13, 58, -11, -16,
   -8, -13, 25, 23, -9, 12, -15, 25,
   52, -15, -47, -34, 43, -71, -4, -57,
   -48, 18, 5, -28, -61, 67, 15, -23,
   -58, -49, 48, 27, -39, 69, 21, -22,
   -3, -29, -56, 10, 8, -31, 19, 38,
   -47, -30, 17, 54, -27, -36, 31, -25,
   3, 3, 8, 35, 50, -43, 63, -33,
   -1, -22, 8, -4, -7, -35, -11, -45,
   -14, 20, -31, -14, -57, 25, 4, -67,
   9, 26, 55, -14, 29, 31, 7, -2,
   -7, -39, -41, 21, -6, 9, -6, 56,
   -41, 37, -12, -24, -45, -55, 21, 10,
   17, -62, -10, -44, -18, -4, 21, 0,
   -53, 3, -12, 37, -68, -83, 9, 86,
   0, -20, 123, 123, 4, -40, -96, 45,
   -13, 58, -22, 81, -48, 3, -61, -23,
   -50, -57, -27, 60, 10, 21, 46, -126,
   41, -13, 37, -54, -63, -16, 77, 18,
   -24, -69, -119, 12, 27, 15, -39, 5,
   -38, 49, 4, 31, 80, 1, -6, -85,
   126, 73, -11, -3, 37, 70, 33, 44,
   101, -11, 0, -10, 60, -24, -31, -45,
   -99, 72, 61, -107, -26, 64, -2, -54,
   63, 71, -11, -3, 33, 44, 0, 57,
   -70, -22, -19, 4, 56, 13, -89, -126,
   -22, 31, -31, -118, 52, 42, -104, 80,
   47, 4, 16, -105, 106, -6, -47, 127,
   91, -8, -71, 27, -30, -26, -114, 6,
   -24, -26, 127, 40, 57, -94, -10, 5,
   6, -42, -8, -84, 16, 127, -90, -24,
   14, -60, -20, 55, -62, 20, -13, -36,
   -8, 44, -1, 28, 43, -66, -53, 60,
   -40, 12, 116, 55, -25, -35, 71, -27,
   -59, -58, -128, -43, 28, 89, -39, -68,
   127, 10, -37, 39, 59, -33, -13, -27,
   -68, -40, 60, -128, 43, 64, -18, -22,
   -128, 47, 14, -17, -74, -8, 52, 36,
   48, -115, 26, 60, -127, -124, 77, -85,
   125, -65, 17, -19, 50, 42, -112, -71,
   -95, 126, 16, -40, -65, -18, -3, -23,
   -115, 25, 92, 45, -65, -70, 33, -23,
   118, -78, 34, 90, -78, 1, 87, -42,
   -15, -33, -49, -128, -16, -128, 126, 15,
   -105, 11, -90, 63, -78, -52, -107, 14,
   -45, -19, -24, -65, -29, 6, 87, 110,
   22, 20, 83, -21, 126, 15, 13, 0,
   53, -105, -103, -6, -52, 127, 30, 62,
   -58, -91, -57, -105, -21, -77, 89, 0,
   43, 98, -83, -124, 53, 63, -4, 13,
   -83, 94, -38, -72, -96, 127, -3, -53,
   127, -102, 127, 17, -31, -71, 41, 35,
   -56, 20, -57, 50, -78, 12, 18, -70,
   -128, 8, 37, -4, 55, 7, -6, -57,
   113, -114, 10, -82, -128, -98, 60, 80,
   -77, 21, 29, 5, -25, -59, 86, 55,
   12, 64, 66, -43, 127, -71, -34, -109,
   -11, -2, 15, -8, 54, 78, -37, 0,
   -127, -103, 19, 45, 42, -65, -56, -116,
   49, 25, 14, -22, -29, -5, -103, 39,
   -24, 21, 30, 43, 40, -37, 12, 12,
   9, -20, 51, 126, -72, -126, -110, -84,
   -108, -93, 27, -57, 37, -32, -1, 40,
   -16, -38, 30, -71, 93, -30, -90, 72,
   -38, -18, 26, 47, -68, -13, -127, 76,
   -43, -8, 68, 126, 58, -85, 88, 58,
   28, 15, -55, -84, 62, 27, -36, -51,
   51, 119, 104, 1, 4, 35, -37, 11,
   -36, 114, -52, 100, 22, -22, 46, 42,
   29, -21, -50, 66, -96, 92, 50, -65,
   28, -20, 51, 19, 17, 52, -70, 94,
   -102, 12, -73, -69, -14, 113, -125, -22,
   1, -124, 110, -32, 29, -1, -91, -51,
   -19, 33, 17, 0, -26, -26, -1, -7,
   48, -18, 47, 46, -127, 53, 28, -21,
   46, 15, 42, 48, 22, 43, -64, -56,
   15, 90, 20, -79, 16, -33, 9, 23,
   66, -39, 13, -35, -12, -73, -9, 22,
   107, -27, 14, -45, -72, 45, 49, 2,
   -90, -37, -16, 13, 34, 38, -25, 0,
   -76, -29, -48, 38, -35, -61, -88, -3,
   25, 59, -22, -128, 22, 25, 58, 125,
   -48, -20, 80, -38, 94, 107, 46, -126,
   -62, -126, -19, 62, -9, 76, 109, 46,
   -58, 20, -43, -31, 62, -31, 18, 10,
   -49, 74, -35, -38, 38, 13, -7, -54,
   -43, 36, 2, -112, -75, 43, -97, 56,
   123, -24, -50, -32, 30, 17, 2, 63,
   -2, -51, -68, -22, -4, 8, 57, -31,
   51, -12, -47, -68, 60, 80, -75, -28,
   -49, -96, 75, -95, -11, 12, -88, -17,
   -43, 20, -34, -101, 18, 41, 39, -29,
   -125, -31, -56, 52, 71, -27, -69, -34,
   33, -76, 36, 31, -7, -72, -91, 9,
   -2, -73, -21, 94, 10, -16, -31, 64,
   -43, 23, -48, -35, 127, 67, -32, 24,
   -20, 76, 68, 24, -10, 52, 35, -42,
   8, -9, 13, -104, -34, 82, -74, 64,
   -84, 4, -86, -64, 127, 93, 123, 127,
   39, -106, -2, -100, -21, -65, 7, -103,
   -5, 15, -90, 27, 99, 8, -56, 78,
   4, -60, 52, 42, 56, -12, 51, 41,
   9, -96, -40, 50, 35, -33, 3, -36,
   -119, 6, 39, 111, 38, 51, 16, -30,
   -15, 32, -9, -72, 51, -49, -127, -80,
   6, 43, 26, 36, 18, 64, -51, 17,
   -10, -5, -65, 64, -53, -62, 7, -64,
   -35, 112, -56, 33, 1, 14, -86, 74,
   29, -74, -30, 2, -11, -81, 56, 91,
   -92, -20, 11, -36, -26, -10, 66, 45,
   16, 73, 71, -23, -52, 38, -40, -27,
   90, 75, 99, -8, 83, -37, 2, -7,
   -64, -7, 34, 30, 19, -79, -3, -16,
   25, 18, -8, -26, -79, -25, 59, -43,
   54, 127, -16, -74, -29, -18, -26, 43,
   -8, 123, -26, 111, 111, -119, -127, -36,
   -32, -18, 22, -11, -51, -128, -36, -82,
   44, 22, 29, -128, 77, 86, 43, 99,
   -34, -5, 127, -128, 76, -78, -5, -39,
   -33, -128, 61, 79, 20, 27, 109, 51,
   -21, -3, -21, 108, 3, 27, 22, -69,
   -15, -70, -84, 26, -47, -15, 17, -55,
   99, 25, 123, 14, -5, -87, -6, 23,
   -116, -17, -5, 13, 51, 21, -77, 63,
   37, -26, 84, 30, -27, 19, 72, -115,
   -24, 94, 40, 0, 108, -26, -31, -111,
   55, -22, 27, 25, -35, -13, -126, -1,
   28, -66, -59, -51, 106, -105, 84, 108,
   -54, 7, 50, 46, 127, -105, -69, -78,
   -62, -62, 17, 55, 103, 22, -13, 43,
   3, -65, -12, 115, -18, -63, 2, 22,
   13, -53, -93, -65, -69, -1, -35, -55,
   -107, 76, 4, 61, 26, 57, -110, -20,
   50, -5, 48, -127, -84, -76, -33, -15,
   -19, -45, -35, 15, 72, 55, 17, 14,
   -15, -62, -31, 1, 38, 71, 15, -1,
   19, -32, -53, 55, -41, -101, 45, 119,
   100, 30, 11, 25, 68, 14, 61, -8,
   14, -20, -37, 98, -20, 18, 19, 31,
   -5, -116, 88, -14, -66, 29, -53, -53,
   13, 18, -110, 127, -40, -14, 57, 9,
   1, -42, -35, -30, -11, 35, -72, 82,
   -58, 92, -24, 9, 0, 32, 25, 16,
   127, 76, -119, 1, -83, -22, -17, 15,
   37, -18, 28, -38, -44, -45, -34, 34,
   21, 30, -84, -27, 55, 94, 14, -117,
   -128, -34, -48, 17, -123, 47, -56, -35,
   -89, 30, 45, -59, 50, -32, 14, 23,
   -25, -18, 11, 62, 94, 95, 10, 92,
   -33, -64, 7, 70, -95, 87, 6, -19,
   80, -35, -4, -37, -23, 35, -8, -22,
   29, -12, -68, -96, -28, 108, -66, -30,
   -108, -74, 120, -103, -86, -91, 73, 26,
   58, 25, 32, -114, 76, -18, 30, 125,
   27, -72, 127, -30, -23, -57, -99, 43,
   30, -86, 59, -96, -89, -100, 82, -42,
   102, -14, -63, 97, 26, 104, 75, -125,
   -114, 2, -100, -61, -11, 49, 46, 25,
   38, -60, 12, 53, 25, 27, 4, -75,
   15, 96, -27, -21, 83, -102, -60, -15,
   9, -45, 88, -28, 30, 3, 89, -6,
   61, 5, -68, -96, 13, 48, -22, -47,
   -30, -12, -4, 47, 39, 9, 35, -74,
   -15, 22, -14, -73, -15, 68, -33, -72,
   -119, 114, -49, 126, 106, -33, -40, -52,
   -106, -30, -35, -68, 6, -7, 1, -44,
   -65, 34, 21, -13, -72, -24, 26, 81,
   -38, -43, 39, 40, 101, 20, 2, -13,
   78, 3, -14, 43, 38, -17, -9, 20,
   -38, 20, -18, -93, -48, 31, 126, -104,
   -118, -64, 76, -51, 94, 24, -54, 44,
   54, -53, 12, 17, -43, -53, 127, 36,
   -99, -72, -128, 47, 19, -31, 104, 1,
   127, 82, -4, -48, 127, 125, -1, -3,
   36, -77, 62, -39, -103, -103, -60, -35,
   44, -22, 71, 33, -52, -44, -24, 15,
   -34, -84, 58, 35, -109, -53, -42, -40,
   -68, -18, 4, 77, -120, 22, 8, 24,
   -60, 94, -11, -49, 34, 22, 26, -3,
   -122, -11, -44, -75, -96, -13, -73, -69,
   21, 27, 18, 68, 57, 27, 49, 114,
   -38, 31, -119, 38, 63, 58, 121, -39,
   -41, 58, -56, -55, -118, 23, -8, 3,
   -4, -70, -27, -3, -79, -8, 26, 34,
   58, 21, -9, -2, -83, 58, -42, -42,
   37, -76, -32, 50, 55, 30, -19, 16,
   48, 112, 7, 4, -16, -61, -12, -5,
   -94, 12, 14, 81, -34, 125, -57, -58,
   -56, 71, 50, -58, 5, -55, 50, 99,
   -43, -75, -20, -28, 2, -61, -20, 7,
   -104, 22, 102, 6, 99, -92, -99, 43,
   -128, -127, 121, -72, -128, -120, 8, 87,
   -27, 1, 23, 80, -101, 29, 39, -40,
   9, 89, 112, 87, -9, 62, -45, -2,
   16, -92, 88, -6, 126, -49, 58, 11,
   -125, 82, -106, 46, 61, 98, -128, -65,
   70, 8, 97, -10, 36, 41, 120, -53,
   44, 32, 0, -74, -22, -29, -46, -89,
   -48, 103, 17, 58, -4, 14, 44, 59,
   -15, 38, -119, 59, 30, 25, -45, -16,
   -77, 17, -7, -26, 92, -19, -17, -23,
   -29, -31, 57, 50, 5, -3, -87, -17,
   -21, -14, 39, -16, 15, 127, -5, -45,
   45, -12, 36, 1, -70, 12, 32, -37,
   13, -119, 22, -42, 3, 22, -34, 7,
   44, -7, -14, -126, -64, 53, 97, -27,
   15, 8, -67, -88, 43, 116, 31, 0,
   93, -63, -86, 66, -19, -48, 25, 51,
   14, -70, -128, 42, -19, -120, -18, 11,
   127, 42, 17, -126, 125, 104, 22, 19,
   127, 66, -65, -66, 53, -44, -7, -107,
   84, 126, 6, 17, 26, 57, -54, 73,
   -60, -115, 71, -23, -78, -1, 46, -16,
   -6, 45, -23, 3, -58, -60, 106, 36,
   -25, -65, -4, 37, 35, -23, 51, 31,
   -44, 14, -59, -89, -38, 8, -73, -70,
   30, -6, -3, 109, -24, -19, 69, 38,
   69, -1, -74, 31, 85, 127, -89, -54,
   -9, 46, -35, -37, 18, 51, 30, 49,
   -42, -6, 63, -79, -115, -38, 65, 27,
   7, 38, -61, 70, -56, -24, -44, -10,
   24, -81, -70, -17, 80, 25, 5, 72,
   39, -35, 0, -36, 26, 17, 9, 8,
   78, -36, -20, -57, -24, 71, 7, 16,
   -75, 23, 66, -84, 28, 86, 80, 88,
   46, -35, -4, 53, 23, 19, 21, -120,
   -5, -98, 69, 2, 51, -42, -114, 65,
   -108, 6, 98, -85, 21, -54, 73, 126,
   79, -36, -18, -57, -72, 60, 103, -107,
   113, 114, 103, -107, 20, 38, 95, 24,
   116, -19, 34, 48, 35, -16, 58, -11,
   1, -58, 44, -21, -4, 85, -63, -44,
   -126, 89, 33, -43, -40, 61, 12, -66,
   -2, -45, -9, -11, -2, -47, -33, -52,
   9, -115, -28, -1, -26, -24, -74, -7,
   -53, -58, -48, 56, 14, 43, 79, -93,
   -40, 40, 55, 56, -9, -32, 30, 16,
   -31, -61, -13, 32, -67, 53, 23, 6,
   80, -4, -2, 10, 31, 16, -26, 1,
   96, -29, 78, 2, -56, -52, -90, -40,
   -26, 83, 12, -20, -22, 8, 38, -23,
   -6, -22, 39, 20, 22, 113, 12, -20,
   59, -51, -92, 9, -19, -31, -5, 59,
   -68, -44, -52, -1, 53, -75, 124, 61,
   24, -111, -51, 68, -4, -37, 117, -13,
   125, 40, 60, 53, -4, 127, -18, 105,
   85, 11, -12, -120, 39, -13, -14, 36,
   54, 14, 110, -20, 25, -16, -25, -53,
   -120, -47, 53, 38, 39, -20, 4, -71,
   -128, 0, 15, -59, -102, 31, 75, 46,
   -49, -73, -19, -26, 0, -17, -21, -68,
   7, -2, -15, -66, -27, 31, -18, -85,
   3, -46, -39, 43, 41, 26, 6, -28,
   -26, -8, -2, -41, 38, -88, 23, -43,
   26, -25, 18, 0, 42, 18, -1, 53,
   33, -50, 26, 22, -109, 35, -1, 10,
   55, -28, -12, -1, 8, -18, -21, 13,
   -30, -23, -110, 38, 81, 40, 61, 68,
   -25, 94, -10, -67, 40, 19, 19, 1,
   74, 5, -18, 127, -78, -5, -7, -1,
   -86, -57, 22, 14, 69, 6, -8, 51,
   -19, -68, 10, 57, 18, -6, -48, -127,
   127, -90, 36, -37, -21, -112, -13, 15,
   -128, -30, 52, 59, 18, -69, 66, 46,
   122, 71, -8, 6, -41, -51, 83, 11,
   66, -27, -61, -5, -24, 26, 14, -4,
   41, -21, -9, -2, -22, 21, 10, 2,
   63, 68, -15, -37, -29, 55, 50, -75,
   -39, -37, -27, -50, 72, -1, -13, -34,
   -8, 1, -16, -121, -49, -17, -26, -33,
   13, -4, -6, 44, 53, -29, -11, 62,
   3, -75, -125, 41, 3, -27, 63, 24,
   -68, 80, 22, 85, 66, 4, -60, 50,
   3, -72, -16, 32, -26, 9, -16, -13,
   -10, 29, 27, -26, 63, -48, -13, -19,
   6, 17, 5, -11, -7, 49, 18, -21,
   28, 32, -11, -35, 23, -9, -6, -17,
   -8, 0, -7, -11, -20, -48, -123, 71,
   29, -3, -18, -83, 5, -24, -31, 122,
   -45, -5, -42, -9, -43, -29, 40, 89,
   29, -119, -85, 79, -16, -68, 0, 17,
   53, -5, 8, 90, 84, 67, 4, 120,
   -18, -54, -9, -60, 22, 52, 31, 36,
   74, -45, -122, -83, -42, -41, -5, -4,
   -6, 60, 29, -62, -63, -10, 20, -42,
   11, 17, 58, -34, 10, -9, -41, 3,
   -15, 80, -8, -7, -10, 8, -25, -33,
   -33, 32, -87, -97, 1, -33, -93, -15,
   10, -59, -89, 38, 51, 55, -5, 57,
   -71, -61, 22, 27, 28, 26, -27, -31,
   26, 30, 21, 48, -31, -2, 7, -11,
   44, -72, 31, -1, -12, -4, 63, 7,
   -15, 71, -26, -54, -37, 43, 29, 10,
   18, 8, -30, 28, 21, -77, 65, -10,
   -34, 94, -2, -5, 18, -11, 46, 33,
   16, -41, 9, -27, 53, 0, 4, 32,
   9, -82, 33, 14, 35, -79, -24, -15,
   25, -120, 66, 31, 27, -44, 45, -52,
   2, 48, 7, -17, -20, -47, 95, -90,
   -86, 45, 31, 43, -63, 85, 40, -18,
   -91, -1, 62, -18, -25, 11, 1, 67,
   15, 25, 30, 3, -70, 24, 69, -42,
   -18, -19, 23, 17, 25, 4, -36, -53,
   16, 11, 13, 0, 2, 28, 25, -14,
   9, -37, -13, 10, 44, 9, 1, -50,
   6, 5, -3, -14, 2, 17, 0, 31,
   -1, -85, -31, 52, 60, 40, 41, 50,
   6, 24, 11, 14, -3, -12, -50, 53,
   -39, -34, 127, 112, -21, 68, 68, 5,
   25, -126, 58, 0, -55, 53, -23, -16,
   16, -42, -46, -98, 113, -21, 28, 127,
   9, 31, 28, -12, 96, 58, 28, 34,
   -60, 25, -12, -9, 2, 43, 3, 73,
   -54, -68, -4, 60, -75, -8, -105, 2,
   -45, 27, -51, -56, -115, -35, 127, -25,
   32, 47, 24, 67, 109, -42, -1, -46,
   29, 1, 10, -30, 95, -3, 42, -2,
   22, -94, 24, 127, -115, 13, 17, -20,
   30, -5, 66, -80, 127, 88, 24, 74,
   -28, 18, 45, 2, -26, -31, 2, 100,
   13, 43, 1, -55, 12, -67, -4, -80,
   -6, 63, 92, -83, -17, 53, 51, -25,
   -70, 40, -106, -17, 69, 14, 4, -13,
   -64, 64, -7, -13, -23, -53, 5, -119,
   36, -61, 57, -72, -128, -21, 6, -33,
   -54, -20, -39, 23, -54, 17, 29, -114,
   -42, -56, 80, -60, 127, 54, -28, 66,
   49, 77, -106, 33, -54, -41, 85, 1,
   49, 72, 47, 127, 3, -3, -68, 80,
   -20, -110, -97, 36, -125, -53, 1, -23,
   -34, 17, -25, 21, 74, -25, -12, 52,
   26, 53, 80, 28, 55, 127, 66, -7,
   54, 53, 18, 16, 127, 49, 37, 21,
   39, -39, 97, 127, -128, -15, -18, -99,
   34, 63, -1, -85, -95, 106, -50, 21,
   10, -44, 51, 53, 90, 35, -9, -48,
   12, 8, -77, 70, 49, -94, -2, -72,
   127, -23, -82, -9, 40, 22, -44, 85,
   -69, 8, 69, -12, -43, 75, 53, -48,
   49, -110, 2, -20, -28, 4, -14, 1,
   -7, 46, -94, 16, -21, 39, 24, 34,
   98, 86, 34, 67, -32, 34, 34, -38,
   3, -65, -26, 94, -60, -44, 62, 36,
   23, -47, 12, 39, 2, -5, -1, 37,
   -111, -90, 127, -113, -74, 33, -1, -11,
   127, 11, -1, -14, -93, -3, -6, 84,
   87, -58, 24, -13, -76, 46, 19, 69,
   -33, 12, 24, 77, 71, -88, 86, -72,
   -40, 123, 6, -8, -9, 60, -19, -79,
   39, 23, 35, 5, 60, 45, -116, 48,
   55, 22, -127, -35, -112, -88, -126, -53,
   -101, -8, -53, 46, 119, -35, -43, -35,
   -1, -36, -115, -97, -41, -4, -13, 12,
   -107, -128, -4, -65, -67, 25, -21, -10,
   -49, 2, 21, 102, -79, 86, -10, -93,
   -68, 52, -20, -57, 32, -14, 40, -60,
   19, 55, 36, 32, -11, -20, 32, 79,
   -18, 25, 22, 20, 23, -18, 24, -69,
   21, -56, 44, 85, -12, 0, -7, 53,
   44, -3, -23, 25, 8, -1, 38, -14,
   -4, -81, -58, -8, -72, 72, -47, -57,
   -64, 56, -17, 65, 44, -86, -54, 126,
   43, -19, -99, -12, 88, -63, -25, 42,
   -24, -12, -57, -6, -98, 70, 40, -26,
   52, -14, 39, 34, 98, 7, -21, -62,
   85, -32, -54, 113, -20, 127, -44, -128,
   -83, -36, 14, -62, 50, -18, 16, 41,
   -46, -55, -7, -53, 84, -66, 116, 37,
   63, 82, 73, 17, 51, -64, 28, 102,
   -96, -55, -75, 55, -122, 93, 127, -128,
   -25, -9, 118, -38, -48, -126, -6, 33,
   127, 127, -105, -25, -20, -39, -42, 56,
   93, 12, 11, 11, -37, -101, -6, 81,
   76, 82, 59, -48, -42, -34, -58, -12,
   -38, -32, 53, 36, 16, -51, -100, -110,
   -7, -8, -34, -48, -61, -40, 92, -17,
   0, -25, 31, 38, -59, 22, 14, 19,
   51, -35, -5, -9, 18, -8, 81, 59,
   33, -11, 50, 34, -8, 24, -78, 52,
   27, 8, -88, -33, 22, -41, -56, -62,
   3, -33, 126, -122, -41, -31, -36, -99,
   -96, 2, -66, 16, -12, -15, -35, -45,
   23, 34, -64, -40, -2, 6, -18, 53,
   -109, -35, 93, 58, 125, -126, -20, 62,
   90, 89, -12, 55, 95, 5, -44, 0,
   45, -9, 33, -19, -61, 25, -71, 1,
   -51, 113, -100, 56, -14, 69, -76, -60,
   -32, -3, -33, 8, 126, 19, -126, 125,
   -9, -42, -127, 5, 29, -72, -116, -31,
   -127, -40, 116, 9, -17, 55, -98, -82,
   64, -27, -17, -60, -22, 94, -14, -117,
   -22, -2, -16, -106, 9, 26, 38, 36,
   -17, -5, 85, 37, -4, -21, -37, -49,
   0, 8, -22, 35, 72, -12, 77, 22,
   -16, 92, 32, -9, -7, -39, -37, -38,
   37, 9, 11, -19, 75, 43, 28, -99,
   35, 6, -47, 69, -69, 71, 16, -9,
   76, -3, 34, -110, -11, -35, -14, 68,
   39, 0, 73, -78, 50, -43, -26, 20,
   89, 72, -46, -8, -95, 1, 20, 52,
   -88, -1, 15, 41, -123, 52, -19, -87,
   -43, 11, -97, 43, -2, -20, 9, 9,
   -94, -44, 28, 50, 46, -9, 7, -30,
   4, -11, 20, 12, 55, -40, 106, 46,
   -1, -76, -19, 27, -36, -72, -77, 33,
   -126, -5, 1, -82, -124, 6, 45, -128,
   0, 12, 127, 19, -50, 28, 121, -88,
   42, 5, -128, 18, 43, 1, -66, 54,
   -37, 39, 49, -16, 19, -88, 43, 127,
   9, -30, -11, 34, -56, 4, -64, -49,
   -18, 13, -35, 4, -5, 5, -40, 1,
   8, -10, 10, -37, 19, 65, 9, -37,
   1, 25, -62, -53, 13, 3, -10, 71,
   -37, -19, -24, 23, 8, 24, 12, -79,
   -2, -4, 46, 24, -22, -20, -13, 31,
   -8, 42, -49, 2, 16, -31, 33, 26,
   -90, 1, 123, 13, -90, 16, 41, -12,
   9, -113, 35, -23, -3, 1, -34, -57,
   -6, -27, -49, -121, 16, 17, -23, 74,
   -43, -38, 12, 1, 65, 23, 33, 110,
   -32, 12, 26, 1, 51, -69, 46, 7,
   37, -62, 47, 53, -18, 30, -49, -42,
   -59, 0, -54, 58, -57, -49, -30, -26,
   29, -15, -13, 57, 101, -49, -16, -23,
   -61, -19, -73, -105, 35, 36, 40, 13,
   27, -54, -41, -53, -50, 31, -4, -9,
   -37, 15, 18, -64, 64, -27, 35, 30,
   -24, -33, -43, -10, 0, 17, -1, 70,
   -1, 14, 37, -28, 60, -54, -22, 37,
   -48, 94, 49, 46, 4, 18, 7, 22,
   -29, -29, 14, 47, 64, 22, -20, 22,
   -63, -1, -19, -59, -77, -49, -30, 76,
   -25, 42, 7, 7, 64, -3, -44, -7,
   -21, -41, 13, -66, -8, -30, 52, -14,
   -19, -35, 96, 2, 121, -1, -19, -5,
   19, 105, -109, 11, -66, 48, -14, -29,
   14, 5, -12, 127, -88, -48, -85, 67,
   -30, -16, -79, 94, -45, 14, 21, 11,
   -12, -52, -22, 45, 113, 45, 0, -24,
   28, 15, 23, 2, 38, 76, 28, -14,
   7, 28, 32, -40, 108, 112, -77, 22,
   67, -14, -48, 67, -47, -72, 53, -16,
   -14, -52, -29, -12, -59, 108, -80, 38,
   -6, 6, 15, 101, 82, 16, -30, -42,
   39, -10, 23, 82, -34, -32, 14, 11,
   17, -38, -28, -12, -12, 47, -41, 21,
   32, 8, -25, -4, -52, 64, -31, -40,
   69, -12, -6, 23, 13, 44, -103, -61,
   28, 2, 83, 83, -57, 10, -42, 126,
   77, -8, -94, 45, 45, 23, -64, -5,
   -41, -62, 40, 46, -89, 12, 43, -32,
   -3, 44, -88, -15, 51, 19, 3, -1,
   -54, -91, 83, -25, -1, 29, 84, -43,
   40, -12, 36, 8, -34, 9, 27, 18,
   24, -47, -31, -26, -38, -31, 8, 1,
   18, 27, 68, 51, 50, -49, 15, -128,
   -56, 126, -8, -44, -98, 47, 22, 41,
   0, -116, 12, 40, -45, -3, 19, -33,
   16, 36, -22, -36, -111, -96, 67, -36,
   -23, 23, 32, 81, 47, -45, -20, -66,
   -32, 2, -8, 12, -37, 35, 51, 38,
   -84, -57, -6, 34, -37, -3, -43, -13,
   26, 57, -121, 13, -27, -2, 33, -75,
   -12, 56, 18, 0, -50, -31, 38, -94,
   39, -31, 95, 57, 34, 25, 122, 34,
   51, -62, 6, 35, -72, -3, -45, -13,
   -48, 0, 104, -40, -1, 28, 17, -35,
   9, -8, -17, -45, -22, -19, 0, -13,
   36, 58, -127, 31, -26, 69, 3, -1,
   59, 84, 4, 99, 31, 13, 31, 33,
   -50, 56, -25, -66, 55, 5, 8, 13,
   -105, -16, 5, -23, 29, -60, 47, -16,
   -12, -7, 25, -45, 67, 3, 0, -45,
   93, 4, -54, 6, -31, 11, 44, -46,
   -49, -56, -12, -5, -2, -71, 13, 9,
   61, -29, -1, 42, -6, 72, 23, -41,
   28, -20, 67, 12, 120, 71, 45, -42,
   -67, 42, 21, -38, -91, 15, 3, -89,
   -8, -68, 60, -78, -73, -81, -18, -11,
   96, 127, -64, -71, 44, -12, -36, 35,
   48, -1, 83, -17, 15, 13, -124, 125,
   26, 21, -40, 82, -51, -51, -5, 5,
   9, 9, -12, -43, -2, -49, -51, -1,
   21, 53, 33, 29, 14, -12, -9, 11,
   -17, -53, -23, 2, -25, -17, -1, 63,
   49, 14, -1, -47, 54, 20, 14, 44,
   27, -58, 78, 32, -18, 49, -89, 61,
   4, 17, -104, 5, 52, 28, 73, -21,
   -31, -98, 72, -10, -27, 63, -57, -1,
   30, -53, -81, 32, -34, -65, 6, 29,
   8, 37, -6, -21, -44, -13, 16, 51,
   -31, -29, 52, 9, 97, -18, 31, 51,
   34, 63, 4, -18, 31, 70, 28, -37,
   2, -85, -46, -28, -71, -69, -56, -3,
   -37, 21, 0, 5, -83, -7, -43, 42,
   42, -26, 27, 27, 72, -12, -5, 62,
   39, 19, -99, -13, 50, -29, -49, 66,
   -83, -33, 51, 40, -1, -19, -45, 76,
   -44, -15, -31, -6, 22, -23, 83, -74,
   -1, 127, 9, -47, -43, -41, 27, 79,
   39, -27, -14, -28, 41, 38, 44, -62,
   35, -46, -13, 35, 5, -60, -30, 21,
   40, -62, 57, -35, 93, -9, 40, -55,
   -48, 59, -77, 33, 8, 98, -35, -50,
   58, 35, 63, -1, -41, 38, 28, 46,
   -27, 28, -61, 127, 28, 33, 20, 34,
   -32, 19, -11, -1, 23, -49, 108, -19,
   39, -46, 119, -2, -52, -54, -11, 63,
   1, 38, 58, -26, -9, -4, -27, -56,
   1, 17, -79, 39, -18, -61, 67, 21,
   -9, 11, -3, -39, 17, -34, -14, -43,
   1, -88, -18, -117, 48, -47, 12, -56,
   32, -60, 0, -17, 78, 1, 5, -8,
   -71, -57, 41, -57, -52, -11, -19, -61,
   2, 57, 48, -25, 37, -2, 70, -65,
   5, 45, -36, -40, 3, -5, 15, 21,
   -30, 68, 36, -2, 28, 6, -77, 73,
   30, 54, -30, -112, -67, -5, 10, -51,
   -103, -60, -2, -61, 20, -56, 103, 88,
   7, -31, -125, 28, 23, -38, -27, -61,
   57, -31, 71, -20, -45, -47, -51, 34,
   13, 30, -15, -7, 17, -82, 49, 0,
   -101, 19, 3, 60, -62, -1, -21, 5,
   100, 27, -27, 4, 5, -13, -84, -92,
   92, 17, -38, 3, -39, -19, 8, -3,
   -36, 41, 96, -11, -6, -33, 23, -22,
   6, -27, -28, 29, -52, -127, 48, 4,
   -58, -48, 32, -56, 32, 57, -84, 34,
   25, -76, 22, 16, 3, 20, -17, 3,
   17, 24, -43, 57, -33, -5, 2, 58,
   37, 14, 34, 14, -70, 16, -82, -13,
   -83, 59, 126, -71, 0, 36, 44, 27,
   -30, -44, 25, -105, 26, 127, 66, 43,
   -105, -19, -51, -49, 25, 62, 11, 7,
   -9, -53, -36, 47, -36, 12, 26, 15,
   -27, 6, 40, -22, -127, -55, 89, 24,
   -104, -32, -21, -112, -3, 19, 64, 16,
   21, 102, -71, 22, -19, -38, -11, -66,
   100, 13, -2, -24, -30, -39, 109, 32,
   22, -16, -36, -5, -1, -43, 67, 12,
   -121, 85, -63, 2, -33, -61, 27, 15,
   31, -8, 44, -58, -35, 4, 13, -45,
   72, 29, -35, -23, 30, -16, 1, -44,
   -66, 3, 54, -6, 48, -58, 31, 27,
   0, -41, -63, -19, -36, -100, 28, 19,
   42, -69, 8, -41, -15, 53, -54, 11,
   55, -60, 12, -13, 26, -1, -7, 38,
   -8, 26, 9, 62, -25, -20, -6, 20,
   10, 67, 29, -71, -63, 37, -27, -9,
   -79, -69, 110, -103, 67, 20, 16, -35,
   -35, 37, -54, -1, -30, 127, 9, -10,
   18, 25, 1, -61, -18, -29, 71, 26,
   -49, 24, -3, -16, -15, -18, 56, 53,
   9, 127, -17, 11, -128, 14, 54, 17,
   65, 12, -12, -12, 16, 26, 66, 71,
   -19, 117, 127, -36, -17, 8, 4, 23,
   76, -16, -75, 7, 19, 39, 11, -55,
   -105, -8, 37, 37, 4, 65, 55, -64,
   -13, 62, 62, 53, -41, -6, 78, -4,
   7, 43, 40, -33, -17, 72, 100, 0,
   69, -1, -46, -36, -20, -37, -10, 2,
   -7, -9, -53, 1, 39, -47, -39, 11,
   -48, -5, -11, -6, -13, 16, 1, -71,
   28, 29, -30, 11, 0, 108, 56, 6,
   3, 41, -2, 8, 49, -53, 25, -8,
   -41, 1, 4, -52, 12, -66, -71, -2,
   43, 32, -12, 5, 16, 11, -28, 3,
   82, -72, -67, -14, 38, 5, -63, 3,
   -41, 55, -62, 58, 20, -37, -27, 124,
   6, 70, 79, 14, -55, -21, -36, 47,
   -122, 45, 7, -7, 70, 17, 38, 80,
   -65, 120, 41, 27, -64, 121, -118, -14,
   -26, -21, -60, -46, 28, -62, -17, 81,
   -20, -13, 127, -28, -74, -39, 85, -2,
   24, -23, 4, -54, -21, 11, -126, -14,
   -40, 5, 35, -44, 1, -2, 76, -15,
   -46, 31, 62, 58, -31, 5, 62, 11,
   36, 4, 20, -1, -3, 42, -49, 7,
   -18, -80, 39, -22, -25, -15, -17, -13,
   34, 61, 71, 15, 38, -7, -44, -54,
   -34, -29, -4, 43, -77, -71, -11, -37,
   -122, 36, 50, 8, 53, 96, -11, -41,
   4, -7, -12, 7, 13, -9, 1, -67,
   -6, 2, -6, -48, -42, -69, -25, 27,
   -7, 39, 32, 50, -19, 29, -21, -31,
   97, 32, -32, 36, -52, -77, -15, 47,
   17, 73, -21, -111, 20, -74, 54, 60,
   -122, 16, -26, -6, 73, -14, 48, 13,
   12, -30, -40, 4, 69, -17, 39, -56,
   -21, -56, 57, -48, -98, 10, 69, 70,
   -42, -1, -70, 62, -47, -1, 40, -36,
   42, 37, 41, -7, -13, -13, -68, -37,
   -37, 20, 14, -38, -7, 37, 7, -45,
   -88, 8, -37, 12, -23, -25, -45, -17,
   -65, 10, 77, 5, 23, -25, 66, -13,
   -35, -121, 88, -28, 25, -10, -2, 17,
   -92, -45, 29, -62, 19, 39, -4, -8,
   52, 31, 51, 23, 26, 7, 21, -36,
   -42, -15, -13, -17, -38, -86, -56, -28,
   30, 1, 21, -21, 12, 7, -24, -64,
   7, -34, -37, -21, 6, 13, -11, -13,
   19, -26, 17, 36, -47, 63, -10, 52,
   -85, 122, 46, -24, -31, 36, 11, 19,
   -9, -24, 3, 2, -6, 28, -1, -30,
   17, 55, -21, 7, -50, -113, -28, -1,
   16, 23, -11, -24, -27, -35, -6, -31,
   -96, -13, -22, 11, 7, -12, 22, 14,
   35, -113, -58, 12, 69, -11, -5, 0,
   -3, 22, -50, -13, -32, -5, 109, 10,
   3, 85, 15, -66, -29, 14, -21, 21,
   20, 72, 43, -4, -34, -51, -87, -113,
   -68, -9, -20, 20, -62, 19, -122, -18,
   40, -8, 58, 2, -35, -66, -12, -65,
   -44, -46, -54, -56, 23, 29, 64, -10,
   -9, -26, 87, -15, -6, -30, 15, 6,
   31, 19, -10, 90, 69, 26, -22, 5,
   10, 13, 7, 6, 17, -61, -6, 21,
   49, 30, 1, -18, 8, -15, -1, -3,
   -24, 4, -28, 5, 37, -13, -14, 3,
   -43, 0, 12, 92, -12, 26, 53, 4,
   -5, 30, 34, 21, 11, -79, -16, 0,
   -6, -30, 14, 18, 17, -13, -28, 10,
   -5, -14, 39, 16, 15, 15, -2, 32,
   -18, 21, 23, 9, 56, -32, 102, -20,
   -111, -4, -14, -5, 98, 12, 25, 84,
   -5, -126, 123, 7, 36, -8, -75, 43,
   45, 3, 17, -15, -12, -11, -6, 15,
   -7, 78, 10, -12, -2, 37, 8, 42,
   -50, 52, 7, -7, 1, 31, 48, 39,
   -4, 12, -3, 19, -22, 93, -18, 71,
   -58, -25, 32, 26, -26, 27, 60, 12,
   21, 18, -58, -36, 7, 71, -53, 20,
   -89, 7, 17, -3, -7, 60, -38, 5,
   3, 47, 28, 6, 89, 11, 32, 27,
   51, 13, -25, 15, 50, -10, 63, 16,
   -4, 23, 31, 35, 3, 16, 7, -1,
   -29, 30, -24, -64, 68, 18, -3, -38,
   -10, 40, 22, -34, -9, 16, -47, 25,
   -118, 16, -34, -25, 16, 5, -26, -3,
   36, -80, 1, -20, -28, 17, -9, -38,
   23, -9, 17, 42, -2, -17, 42, 5,
   22, -18, 22, 1, -12, -48, -3, -35,
   -85, -17, -21, 15, 20, 0, 63, -25,
   31, -8, -9, -28, -26, -21, -6, -4,
   6, 27, -5, 0, 28, -10, 26, 59,
   -7, 17, -9, -119, 12, -36, -74, 0,
   31, -2, 33, -66, -32, -45, 12, 7,
   -128, 50, -16, -47, 42, -30, 12, 10,
   72, 43, 40, 28, 0, 8, -7, 19,
   -11, -57, 24, 12, -8, 0, 49, -26,
   -30, -27, -49, -127, 45, -5, -120, -7,
   -26, -25, 3, -25, -36, 17, -31, 2,
   -7, -10, 28, -72, -23, 69, 1, 40,
   6, 54, -47, 29, -9, -25, 31, 46,
   7, 25, 76, -79, 9, 87, 19, -18,
   1, 6, 78, -18, 44, -28, 18, -6,
   -22, -13, 9, -33, 7, 14, -59, 16,
   30, 6, 28, 0, 33, -4, -3, 10,
   -16, 21, -51, -17, -35, 6, 20, -20,
   -5, -12, 33, 7, 7, -9, 10, 40,
   47, 21, 29, -40, 18, 51, 16, 24,
   -30, 1, -32, 9, -20, -8, 94, 0
};

static const rnn_weight noise_gru_recurrent_weights[6912] = {
   -26, 4, -9, 62, 52, -33, -28, -66,
   -44, 25, -40, -26, 30, 27, -62, -51,
   67, 49, 53, 1, 2, -57, -18, 37,
   -32, -18, -18, 56, -18, -80, -10, -6,
   45, 22, 2, -112, -4, -23, 19, -5,
   70, -4, 48, 37, 105, 26, 45, 9,
   3, 19, -27, 46, 17, -9, -38, -11,
   -45, 8, -35, -1, 16, -2, -7, -49,
   20, 34, -28, -26, -104, 35, 8, -5,
   -20, 31, 66, -15, -124, -13, 35, 9,
   -11, 8, -70, 48, -26, -28, -4, -4,
   -45, -5, 2, -110, -43, 43, 112, -29,
   -31, -23, -24, 69, 42, 32, -51, 9,
   73, 19, 91, -65, -41, 30, 26, 2,
   -20, 53, -24, -27, 28, -84, -39, -50,
   -14, -5, 6, -69, 127, -25, -32, 0,
   30, 1, -87, 48, -39, -49, 33, 24,
   -32, -19, 14, -105, 68, 56, -35, 3,
   -8, 3, -46, -30, 65, 21, -48, 8,
   5, 48, -25, -26, 49, 6, -128, 29,
   35, -18, -60, -61, 49, 20, -25, 53,
   25, -100, 50, 43, -56, 3, 23, -7,
   28, 46, -29, -3, 40, 17, 39, 20,
   -4, 9, -1, 80, 62, 4, -23, -52,
   11, -49, -26, 5, -47, -8, -13, -51,
   29, 63, -7, 23, 37, -12, -50, 20,
   11, 46, -13, 0, -14, 9, 13, -3,
   -3, 14, -52, 72, -63, -41, 5, 6,
   -54, 8, 17, -49, -1, 1, -65, 12,
   4, -65, -17, -60, -11, 67, 56, 24,
   2, -23, 69, -37, -40, -23, 24, 54,
   95, 28, 1, -85, -63, 23, -7, -64,
   -33, -83, 24, 30, 68, -102, -16, -3,
   30, 31, 10, -87, 3, 11, 38, 30,
   31, 49, 55, 7, -36, -17, -11, -66,
   -26, -19, 15, 41, -21, -3, 50, -23,
   11, 6, -14, 72, 61, 11, -1, 47,
   89, -88, 20, -19, -46, 16, 48, 18,
   -21, 27, -37, 2, 30, -2, -47, -4,
   -76, -95, -12, 44, -63, -38, 4, 65,
   -13, 39, -51, 54, 13, -48, 115, -50,
   -28, -18, 14, 27, 110, 5, 102, 20,
   16, 51, -40, -63, 24, 34, 20, -36,
   -4, 31, -4, -7, -18, 21, -2, -40,
   -31, 12, -18, -28, -48, 23, -10, -45,
   -26, 5, 35, 6, 31, -23, 19, 41,
   21, 22, -55, 17, -4, -27, -26, 1,
   -4, 22, 0, 23, -24, -23, 25, 9,
   9, 30, -22, -7, 38, 93, -18, -72,
   43, 36, 19, 127, 57, -27, -24, -117,
   -52, 11, -66, -53, -4, 41, 63, 3,
   -18, 9, 44, -49, -11, -44, 50, -50,
   -30, 31, -15, -24, 19, -15, -47, 20,
   48, -57, 52, -3, 6, -30, 7, 96,
   17, 56, -6, 63, -46, -3, -68, 64,
   77, 60, -11, -10, -77, 3, 48, 5,
   62, 58, -42, 4, -16, 49, 14, -8,
   -127, 0, 32, 26, -40, -34, -43, 65,
   -26, 50, -3, -36, 52, 59, -28, 64,
   33, 17, 47, 50, -12, 42, -31, 27,
   -17, -25, -22, -25, -53, 10, -29, -13,
   -39, -49, -16, 40, 1, -9, -47, -36,
   -9, 70, -4, -19, -28, 70, -36, -11,
   17, -6, 7, -48, -12, -23, 13, -43,
   3, -20, -17, -12, -21, 47, -16, 5,
   22, -22, 17, -8, 16, 0, 12, 47,
   8, 17, 9, -2, -76, 87, 61, 115,
   2, 40, -21, 119, -40, -19, 48, -86,
   106, 23, -29, -17, 67, 11, 127, -20,
   127, -1, 55, 74, -17, 29, 15, -30,
   -3, -123, -12, 14, 13, -3, 13, 48,
   -44, -6, -19, -12, 23, -60, -23, 111,
   13, -21, -74, -98, -81, -25, -9, -3,
   -18, -77, 69, -20, -33, 3, 59, -24,
   89, -5, -90, 30, -125, -33, -19, -10,
   7, 73, 17, -73, 16, -62, -23, -50,
   44, 15, 35, 35, 36, 82, 37, -19,
   -45, 29, 45, -5, -75, 5, 1, 15,
   19, 44, -110, -2, 9, 11, 30, -29,
   -8, -29, -50, -5, 41, 7, -26, 43,
   -39, 41, -73, 43, -6, -1, -8, -48,
   15, -3, -56, -22, -52, 0, -43, -123,
   16, 5, 62, -3, -61, 36, -51, 6,
   -6, 0, 1, -40, 29, 29, 37, 29,
   0, -15, 74, 7, 100, 35, 76, -76,
   -64, 92, 36, -91, -8, -19, 0, -57,
   -8, 24, 43, 81, 4, -110, -48, -19,
   -25, 12, -3, 40, 73, -27, 6, -16,
   5, -5, -1, 52, -20, -51, -24, -61,
   97, -5, 25, 4, 8, -23, 41, 11,
   9, -46, -79, -58, 31, -8, -63, -19,
   -13, -8, 7, 55, -5, 62, -30, -6,
   -16, 5, 15, -64, 16, -56, 39, 44,
   5, 31, -46, -4, -30, -25, 58, -119,
   -17, 35, 10, -58, -4, -53, -21, 2,
   44, -48, 76, -19, 29, 27, 25, 17,
   -63, -41, -20, 10, -4, 9, -12, 21,
   -4, -5, 22, 11, -18, 1, -96, 12,
   29, 7, -9, 34, 4, 32, -28, 126,
   18, 24, -19, -38, 122, 42, 8, -34,
   27, -73, 15, -83, 11, -30, -5, -39,
   76, 5, 71, -4, -22, 37, 25, -95,
   -63, 34, 8, -41, 40, -6, -7, -21,
   60, 34, -18, -25, -86, -36, -26, 31,
   -12, 3, -70, -25, 4, 25, -10, 1,
   -112, 2, 11, 38, 22, 10, -39, 40,
   -14, -7, 29, 51, -8, 46, -1, -27,
   21, 10, 22, 73, -6, -21, 24, 26,
   33, 7, 71, -65, 45, 21, -20, -36,
   12, -23, -45, -38, 16, -5, 78, 2,
   -34, -5, 11, -5, 44, -41, 41, -4,
   41, -90, 6, -41, -40, -37, 74, -17,
   -62, -40, 4, -8, 13, 1, 39, -36,
   -27, -51, 9, -47, -1, -32, 52, -42,
   25, 46, -19, -1, -12, 14, -14, 12,
   9, -30, 29, -27, 2, 7, 51, 95,
   40, -11, -32, 47, 92, -6, -4, 27,
   3, -65, -56, -56, -42, 18, -38, -68,
   -16, -1, 19, 19, -24, 37, -65, 61,
   -8, 42, 36, -34, -46, -26, 48, 41,
   -28, -27, 73, -6, -60, -10, 73, 0,
   -5, -18, -29, -7, -64, -53, -44, -46,
   -20, -58, 49, 5, 93, -49, 41, -45,
   -70, -24, -71, 39, -12, -80, 12, 26,
   74, -16, -4, -10, 47, -64, 20, 70,
   13, 11, -72, 48, 17, 16, -84, 6,
   123, -61, 22, 29, -12, -41, 24, 40,
   68, 47, -6, -53, -3, 9, 57, -11,
   47, 125, -56, -69, -74, -8, -73, 84,
   -23, -49, -73, 55, 23, -32, 93, 4,
   1, 28, -56, -68, 12, 125, 28, 9,
   81, 10, 13, 32, 24, 37, 35, -36,
   -82, -23, -27, -21, -73, -3, 30, 7,
   35, 22, 21, 37, 14, -24, -24, -5,
   -17, -5, -55, -42, -78, 3, -70, 11,
   0, -19, -21, -61, 33, -1, 7, 17,
   26, 42, -36, 36, -11, 14, 8, 32,
   51, -23, -11, -16, 58, -10, -57, -22,
   70, 54, 3, 9, -29, 53, -35, 19,
   26, -63, 47, 45, -70, -68, 4, -36,
   37, -96, 17, -10, 2, 17, 33, -16,
   34, 0, 2, -32, -84, -58, 28, 94,
   25, 2, 91, -24, 16, 14, 8, 16,
   -128, -9, -54, -2, 65, -31, 18, 29,
   50, -7, 28, 53, -29, 0, 43, -7,
   -1, 19, -34, -37, 72, 63, 10, -30,
   9, 17, 13, -9, 13, -83, -30, 20,
   42, -112, -41, -11, -47, 57, 39, -3,
   84, 28, -2, -106, 9, -15, 52, -25,
   19, -37, 73, 77, 85, 62, 5, 34,
   17, -8, 1, -63, 2, -53, -65, -119,
   -38, 97, -9, -23, 46, -103, 27, 19,
   22, 62, 5, -24, -39, 29, 27, 33,
   18, 9, -88, 5, 65, 68, -27, -16,
   55, -117, 38, -38, -36, 60, 19, 4,
   31, -9, -24, -41, 31, 10, 24, 3,
   0, -42, -15, 57, -7, 34, -13, 6,
   66, 22, 41, 98, 57, 39, -2, -80,
   9, 0, -101, -93, -57, 113, -34, 32,
   -43, -3, 3, -127, -104, 15, 24, 86,
   40, -14, -61, 23, 33, -5, 54, 18,
   -43, 70, 53, -38, -46, 41, 68, 53,
   2, 9, -28, 3, 9, -7, -40, 14,
   28, 23, 12, -16, -70, 11, 12, -35,
   21, 125, -125, 34, 40, -9, -5, 48,
   -33, 0, 18, -30, -69, -29, -16, -2,
   -10, 8, 126, 27, -23, 83, 104, -79,
   -3, 25, 127, 0, 103, -11, -26, -52,
   26, 3, -3, -19, -31, 13, 12, 36,
   21, -4, -53, -83, -51, -10, -23, 4,
   -77, 13, 25, 6, 5, -19, -37, 48,
   -10, 33, 33, 24, -77, 23, 24, -12,
   58, 22, -17, -20, 14, -47, -33, 17,
   10, 31, -12, 27, 7, 51, -74, -21,
   51, -46, 6, 26, 44, -21, 6, -34,
   -6, 9, 17, 22, 121, 34, -76, 16,
   23, -17, -49, -46, 15, 38, -107, 18,
   -80, 3, -39, -33, 80, -31, -30, -69,
   -57, 35, -63, -22, -3, -41, -51, -54,
   -10, 2, 43, 20, 19, 15, 56, -44,
   -26, -8, -18, 79, -44, 31, 19, -80,
   -26, 6, 39, -76, -11, 52, -8, -57,
   59, 15, -6, 59, -71, 21, 33, 4,
   -37, 46, -21, 19, -17, -31, 67, -5,
   21, -10, -13, -18, 5, -13, 62, 34,
   16, 80, 35, -2, -39, 28, 18, 12,
   4, -7, 18, -4, -3, -27, 51, 19,
   0, -40, -9, 38, -26, -26, -3, -20,
   12, 66, -3, -27, 73, 6, 52, 1,
   -27, 13, 15, -37, -54, -29, -32, 23,
   -49, -16, 15, -28, -26, -51, 16, 7,
   -52, -20, 20, -7, -30, 39, -48, -9,
   -4, 25, 27, -46, -70, 43, -42, 21,
   36, 60, -14, -59, -1, -2, 4, 14,
   7, 30, -79, -46, 24, -28, 52, 27,
   -2, 1, -22, -124, -87, 61, 36, -4,
   25, 43, -67, 7, -3, -23, 5, 31,
   3, 10, 37, -8, -1, -38, 10, 70,
   -31, 30, 24, -84, -7, -55, -5, -4,
   15, 12, -77, -10, -66, -9, 9, -6,
   -3, 24, -19, -24, 7, -94, -33, 2,
   4, -20, 19, -57, 15, -54, 9, -38,
   -28, -1, -5, 7, -32, -7, -4, -7,
   -51, -128, 86, 50, 1, 64, -3, 36,
   41, -13, -27, -84, -61, -56, 16, -44,
   -50, 55, -2, 14, 12, -28, -18, 23,
   94, 40, -35, -8, -49, 3, 8, 59,
   8, -25, 37, 27, -76, -47, -12, 20,
   35, 23, -53, 20, -28, 56, 4, -13,
   34, 16, 30, 3, -26, -22, -26, -4,
   49, 21, 19, 33, -1, 63, 7, 2,
   9, 16, -52, -61, -19, -1, 6, 29,
   64, -52, 20, -21, -88, 10, -2, -25,
   -9, 42, -7, 0, 20, -25, -61, -54,
   4, 3, 10, 45, -85, -23, -30, 72,
   10, 29, -46, 61, 51, 9, -13, -17,
   -25, 29, 54, 59, -28, -20, -19, -58,
   -67, -29, 7, 85, 55, -40, 5, -115,
   5, 38, 12, -65, -14, 41, -73, -79,
   -125, 18, -34, -27, 75, -20, -14, -55,
   -28, 9, -60, 25, -18, 65, -104, -41,
   54, 59, -45, -2, -17, 24, -61, 4,
   -45, -12, 44, 31, 24, -13, -49, -39,
   44, -36, 68, 66, -55, 46, -28, 29,
   -79, 38, 23, -15, -32, 26, 13, 16,
   84, 26, 57, -27, -2, -35, 29, -77,
   15, 31, -22, 0, 41, -72, -114, 32,
   22, 26, 28, 49, 50, 0, -46, -1,
   -104, 19, -59, -54, -7, 28, 7, 4,
   -41, -28, -9, -42, 46, 80, -86, 54,
   -16, -50, -46, 65, -13, -7, 35, 27,
   -64, -18, -28, 38, 6, 42, 27, 13,
   5, -55, -94, 39, -3, 32, -3, -64,
   -92, -98, -54, 26, -54, -20, 30, -24,
   5, -5, 10, 31, 15, -52, -35, -39,
   34, 2, -70, 41, -6, 20, -16, -23,
   8, 59, 25, -36, -52, -10, 7, -29,
   -7, 32, -4, 20, 6, -53, -35, 54,
   -34, -60, 7, -86, 22, -46, 2, -2,
   27, 22, -6, -4, -4, 21, -49, 52,
   -34, -49, 24, 1, -12, -40, 15, 54,
   -25, -56, 48, 19, -6, -31, -4, -27,
   -33, -27, -10, -9, 19, 14, -49, 19,
   61, -27, 39, 48, -28, 3, 30, 57,
   -32, 17, 4, -67, 2, -19, 3, 13,
   32, -6, 13, 62, -87, 9, -65, -41,
   41, 16, -32, -28, 1, 15, -21, -45,
   -36, 19, 39, -18, -19, -13, 18, -3,
   -39, 7, 41, 5, 10, -12, 36, -10,
   13, -5, 53, 100, -6, -2, -37, -59,
   66, -20, -82, -46, 36, 2, 4, -16,
   -26, -21, 4, -46, -96, 34, -11, 35,
   16, 23, 81, -9, -39, 77, 27, 26,
   30, 43, -30, 15, 22, 12, -79, -53,
   67, 13, 2, 44, 42, -32, -2, 56,
   -13, -18, 22, 25, 18, 21, 64, 26,
   9, 58, 19, 20, 22, -17, -33, 31,
   40, 45, 67, -4, 65, 56, 34, 6,
   9, 11, 28, -89, -19, 27, -16, -53,
   -41, 12, 21, 27, 11, 3, -21, -39,
   12, -30, 21, 8, -14, 19, 10, -31,
   -27, 59, 16, 0, 52, -27, -53, -27,
   39, 25, -19, -22, -16, 33, 23, 4,
   -42, -31, -28, 1, -11, 101, 17, 58,
   24, -76, -19, -59, 23, -19, 20, 45,
   22, -1, 16, 27, 85, 18, -18, 51,
   16, -1, -81, -38, -83, 34, 38, 12,
   7, 40, -39, -34, -20, -25, -4, -9,
   -51, 39, -43, -2, -23, -100, 14, -9,
   -19, 78, 95, 22, -102, 16, 42, 2,
   13, -39, -24, 7, 33, -28, 2, -2,
   28, -36, -88, -16, 61, -4, 1, -92,
   -65, 71, -3, -4, -4, -46, 126, 25,
   -66, 35, -10, -16, 63, -27, -38, -10,
   22, 12, 43, -1, -30, -86, -21, 35,
   -45, 0, 6, 20, -14, 28, -10, -7,
   -8, -8, 3, -23, -29, 12, -21, -18,
   52, 5, 31, 33, 85, 93, -44, -3,
   -22, 63, -19, 4, -5, -85, -19, 22,
   8, 10, 98, 17, 0, -30, 5, 21,
   1, 15, -11, -2, -2, 11, -37, 1,
   -74, 21, 28, -27, -48, -31, -71, -4,
   -29, 47, -60, -25, 29, 42, -12, 19,
   -7, -73, -34, 30, -50, -13, 14, -8,
   -61, -78, -18, -1, -33, 39, 62, 63,
   -8, -23, -13, -4, -73, -23, 34, -18,
   24, -60, -33, -2, 54, 11, -70, -14,
   -67, -45, 49, -44, -29, 61, 27, 27,
   -8, -13, -32, -38, -21, 16, -59, 22,
   -54, 20, -19, -51, 35, -100, 56, 66,
   93, 23, 5, 45, 116, 15, -30, 35,
   -24, 47, -58, 37, -6, -36, 21, -73,
   -42, 126, -17, -39, 34, -8, 81, 26,
   39, -35, 82, 99, 77, -22, 57, -46,
   36, 21, -20, 55, -66, -12, 46, 15,
   -55, -15, 10, 32, 12, -17, -29, 21,
   2, 39, 21, -25, 9, -1, -12, -6,
   6, 68, -53, -1, 9, -3, 20, 1,
   -92, 88, 14, -22, 70, 24, -8, 9,
   -35, -55, -13, 34, -34, -4, -10, 51,
   -21, 5, 37, 20, 10, -33, 51, 50,
   58, -59, 23, -30, -3, -1, 58, 14,
   17, 8, -37, -46, 13, 17, -30, 5,
   -35, 27, -33, 9, 12, 13, 4, -9,
   -38, 19, -4, 90, 1, 83, -102, -59,
   12, -42, 8, 15, -37, -3, 82, -79,
   27, -34, -10, -26, -95, 44, 27, 24,
   -14, -6, 3, -17, 2, 81, -57, -64,
   3, 113, 25, 23, -10, 39, -82, -14,
   -61, 8, 17, -60, -30, -17, 58, 30,
   43, 45, -38, -44, 40, 18, 73, 20,
   -30, -5, 84, 54, 87, 43, 17, -43,
   -28, -15, -20, -29, 2, 22, -46, -50,
   29, 48, -16, -8, 11, -40, -28, 29,
   58, 51, 5, -55, -20, 44, 16, 8,
   -15, -10, 33, 52, -9, -106, -21, 120,
   -57, -1, -32, 25, -28, -64, 28, 4,
   -1, 18, 69, -128, -65, -60, 57, 3,
   -39, 18, 127, -31, 60, 24, 36, 7,
   6, -20, -34, -15, 57, 33, 9, 10,
   -43, 11, 33, -36, -26, 28, -17, -5,
   -30, -31, 30, -33, 20, -29, 34, -13,
   -38, 83, -31, -11, 25, -74, -18, -5,
   8, -9, 15, -39, -9, 13, -1, -24,
   18, 13, 60, 13, 23, -40, 67, -12,
   15, -13, -55, 2, -115, -14, 23, 37,
   -28, -50, -126, 20, 7, 3, -72, -35,
   -104, 40, -87, 127, -53, 72, -63, -10,
   22, 35, 65, -43, 23, -38, -5, 51,
   -5, 50, -1, -35, 44, 40, -4, -15,
   42, -44, 22, -22, -25, -9, 32, 25,
   56, 0, 21, 9, -39, 25, -21, -29,
   -93, -35, 25, -36, -13, -94, -16, -68,
   7, -19, -41, 78, -44, -1, 3, -61,
   56, 8, -18, 39, -40, -18, -14, 46,
   42, 3, -31, -12, 77, -68, 36, -5,
   21, 16, -49, -2, 26, 22, -51, -11,
   34, 45, -7, -11, 26, -33, 42, 9,
   -127, -72, -5, 13, 59, 47, -70, 76,
   38, -4, 2, 35, 25, 10, -39, 74,
   -35, -15, -44, -27, 13, -69, -72, 19,
   9, 30, -40, 42, -26, 60, 15, 43,
   40, 16, -50, 48, 40, -2, -25, 56,
   45, 15, -12, 53, 49, -25, -13, 54,
   5, 92, -50, -23, -16, 25, -87, 42,
   -24, 16, 4, 71, 23, 51, -77, 46,
   72, 57, 127, 31, -48, -30, 10, -13,
   50, -30, -41, 86, 75, 34, -39, -72,
   17, 6, 32, -40, -17, -32, -99, 55,
   -43, -10, 21, -8, -4, 1, -38, -6,
   -20, -2, -18, -8, 19, 2, -18, 58,
   46, 38, -20, 5, -13, 1, -62, -31,
   -22, -98, 24, 27, 44, -2, -14, -37,
   0, -54, -22, 3, 12, 39, -32, -94,
   -31, 9, 26, -38, -57, 11, -35, 18,
   -8, 4, 33, -1, 60, 26, -57, 68,
   -13, -23, 36, -16, 17, -35, -80, 69,
   -75, -89, 21, -78, 42, -29, -106, -32,
   -12, -2, -15, -49, 97, 32, -4, -69,
   6, 6, 124, -8, -4, 30, -29, -48,
   16, 53, -31, 47, -3, -58, 18, 30,
   0, 19, 63, -15, -17, 40, 62, -16,
   6, 108, -18, 24, 13, 17, 50, 59,
   -39, -43, -93, -28, -29, 90, 28, 11,
   -39, -33, 12, -1, 52, -24, -66, 76,
   47, 53, -51, 33, 5, -3, 89, 16,
   -17, -47, -12, 39, -31, 46, 30, -5,
   57, -119, 27, -1, 0, 49, -3, -39,
   -52, 13, 8, -86, -14, -21, 48, 40,
   -1, -11, -20, 40, 62, -2, 40, 29,
   64, -47, 3, -28, 32, -8, -8, 19,
   -53, 5, 25, -12, 34, 1, 32, -12,
   13, 3, 30, 56, -47, 17, -26, 26,
   35, -45, -16, 53, 14, -2, 67, 27,
   -67, -46, -28, 69, 1, 16, -25, 16,
   27, 42, 75, 23, -50, -10, 13, -21,
   5, -49, -20, -64, 17, 2, -24, 14,
   -51, 125, 26, -5, 4, 20, 5, 95,
   -4, -55, 15, -81, -4, 47, 13, 46,
   14, 49, 7, 24, -34, -6, 2, -10,
   18, -2, -31, 17, -18, 19, 1, 46,
   16, 4, 12, -40, 29, 3, 23, -28,
   11, 13, 49, 0, 40, 39, -20, -10,
   20, -91, 2, 101, -4, 41, 79, -15,
   13, -22, 11, -59, -35, 53, 28, -6,
   37, 41, 44, 10, 22, -16, -9, 8,
   -5, 75, -8, -36, 15, -13, 30, 0,
   -22, 12, 18, 0, 96, 30, -16, 8,
   -21, 34, 33, -22, -13, -12, 45, -47,
   -40, -21, 25, -44, -33, -2, 73, 46,
   27, 2, 23, -23, 31, 11, -29, -62,
   -127, 24, -66, -30, -24, 33, -31, 68,
   52, 24, -28, 1, -8, -41, -42, -13,
   -64, 48, -49, -26, 1, -26, 14, 29,
   24, 15, -13, 33, -31, 5, -1, 30,
   -21, 22, -2, 10, 48, 63, 17, -63,
   8, -13, 5, -68, 18, -17, -60, -12,
   91, 71, -20, -9, 16, 48, -11, -6,
   37, 4, -33, 25, 14, -6, 2, 86,
   61, 51, 18, -70, 8, -33, 49, -42,
   43, 14, -85, 24, 62, -13, 11, -55,
   25, 3, 19, -5, -10, 78, 99, 36,
   56, 26, 11, 64, 12, 32, -15, -17,
   -1, 8, 43, 2, 9, -16, -4, -8,
   39, 27, -25, 20, 29, 15, 23, 64,
   -30, 57, -59, 40, 28, -27, 14, 27,
   -21, 0, -1, 18, 1, -31, -5, -23,
   -36, -27, 1, 52, -6, 11, -34, 53,
   -26, 39, 13, -19, -14, -34, 23, -30,
   20, -8, 18, -14, 27, -38, 76, 43,
   -24, 23, 35, 17, -61, 15, 8, -32,
   -4, 29, 33, -45, -2, -12, 54, -58,
   9, -22, -9, 33, 5, -17, -15, 33,
   14, 8, 46, 53, 13, 68, 24, 46,
   24, 24, 43, 92, -49, 5, 0, -13,
   20, 52, 17, -29, 12, 125, -20, -47,
   13, -36, 56, -28, 12, -45, -42, 15,
   -13, -21, -4, 66, 69, -9, 116, -65,
   24, -47, 68, 3, 119, -36, 47, 80,
   42, 54, 23, 11, -32, 16, 109, 11,
   25, -7, 23, -41, 13, 7, -40, 34,
   50, -90, -43, 101, 2, -25, -58, -3,
   -7, -2, 1, -52, 16, -54, 15, -16,
   -2, -12, 34, -10, -29, -1, -58, -32,
   -2, -44, 3, -36, -14, -13, -62, -16,
