/*This file is automatically generated from a Keras model*/

#ifdef HAVE_CONFIG_H
#include "config.h"
#endif

#include "rnn.h"

static const opus_int16 input_dense_weights[1008] = {
   -48, 410, 68, 547, -1168, 346, 1493, 25,
   48, 166, 1186, -153, 1068, -99, -672, -2345,
   -95, -160, 151, -43, 339, -1760, 199, -73,
   -1028, -1189, -1370, 486, 754, -1186, -1081, 1014,
   -295, 243, 2005, 822, 1170, -1027, -2581, -1079,
   763, 1346, -1143, 1063, -916, 1435, 129, 1248,
   734, 5163, 164, 923, -540, -655, 1670, 610,
   -382, -534, 1100, -338, 1484, -1090, 342, -2073,
   -1139, 1325, 1572, 115, -582, -934, -322, -156,
   -1979, -2754, 1166, 710, -494, 212, -1035, 65,
   -182, -1577, -1503, -670, -781, -778, -1729, 520,
   1186, 1951, -126, -212, 526, 312, 473, -389,
   833, -596, -464, -783, -28, 83, 1096, 265,
   160, 771, -295, -1056, 515, -302, -611, 5,
   -1418, 1231, -109, -478, -594, 410, -1022, 729,
   -691, -333, -2575, -19, 1838, 1049, -1220, 534,
   223, -2514, -175, -30, 68, 909, -145, 1486,
   425, 851, 228, 1614, 461, -1447, 1765, -673,
   -663, 3250, 391, -6721, 1137, -3058, 379, 754,
   1790, -1917, -1877, -302, -4412, 2643, -400, -5006,
   -1180, -3192, 220, 586, -151, -2639, -2192, 345,
   -47, -1446, -2360, 2233, -918, -2271, -1429, 1890,
   779, -3908, -97, 3263, 618, 886, 1395, 2835,
   -1698, -2021, -2134, 156, -23, 656, 5564, -48,
   2353, 2273, 1291, -5867, -1323, -3278, 3937, -1730,
   2656, -1755, -1374, -731, -4665, 3722, 539, -2177,
   1837, -2553, -1483, -606, 3547, 2423, -1586, -948,
   2089, 4283, -3046, 1686, 1783, -4084, -526, 330,
   -1154, -3265, -3002, 1316, -1490, 1853, 1554, 502,
   -208, -376, 653, 2191, -948, -1583, 1228, -188,
   -365, 4956, 4276, -2590, -478, -700, 2924, -3384,
   1428, -925, -3692, 542, -3373, 944, -4632, -401,
   2627, -3232, 806, -117, 1619, 1076, -1217, -3106,
   -124, 1021, -324, -1808, -2175, -3563, 36, 2908,
   2303, -629, 2754, 1760, -2079, -2132, -1213, 1055,
   -2075, 224, 1433, 4280, 1153, -552, -1052, -1319,
   -453, 2713, 3136, -2449, 586, 2199, 1299, -3108,
   1950, 1308, 1299, 1232, -3757, 2331, -1620, -1447,
   2349, -32, 1163, 1809, 1995, -1838, -1922, -1893,
   933, -2141, -1804, -3961, 2283, 779, 1586, 2180,
   -324, 2502, -118, -302, -1137, -707, -2214, 1702,
   -1240, -382, 500, 4224, -3098, -508, 2972, -2510,
   -1573, -189, 1832, -772, -99, 3400, 6708, -5554,
   1086, 225, 2099, 734, -3102, 2946, -8532, -1482,
   3713, -919, 130, 1153, 1398, 1064, -6452, 769,
   1350, 1659, -2159, -4118, -98, 546, 4095, 224,
   -962, 553, -1870, 3965, -1988, 1897, -3920, -1957,
   2805, 1120, -588, 1509, -1502, 1733, -1970, 1411,
   4111, 883, -150, -4981, 2338, -1206, 1663, -2973,
   -1412, 1254, 3674, 78, 1624, 276, 1260, -5873,
   3144, -3058, -5561, -2489, -1424, -3469, -2848, 712,
   -820, -769, -1450, 1683, -5434, 1236, 2595, -607,
   1049, 4962, -1295, -206, -2212, 318, -8711, -3253,
   1430, 1601, 1201, 1608, -1774, 2942, -5235, 105,
   3453, 1296, -3522, -1277, -591, 991, -1874, -3891,
   -902, -282, 536, 740, -3506, 1782, 1331, -2783,
   3679, -2171, -2177, 1139, 1658, -301, 2089, -2087,
   -2006, 699, 2091, -4444, 3594, -1016, 5196, 3549,
   2752, 692, 2750, 96, -870, -4947, 2842, -3923,
   -1916, 1251, 1530, 324, -630, -7194, -2648, -1,
   4092, -3014, 726, -2476, -2600, 3179, 2036, -2280,
   1126, 561, 3499, 179, 321, -392, -260, -1887,
   1845, 403, 1833, -972, 65, -192, 352, -1831,
   1009, -2501, -489, -366, 281, -1871, -2284, -2260,
   -56, 342, -4848, -978, -211, -1544, -2100, 1113,
   2325, 3682, -1092, 2903, -2178, -2339, -2285, 420,
   -3036, -481, 1173, 92, 708, 3327, 4027, 1472,
   -928, -4874, 542, -4697, 231, 769, -1295, -337,
   1022, -9057, -4012, -4966, -2517, 1652, -393, -830,
   2509, 2060, -3596, 1809, -2557, 4359, -1062, 1760,
   -3088, -1962, 3409, -76, 1328, -3933, 2173, 876,
   -245, 281, -4868, 5119, -4926, -1132, 20, 1980,
   -3385, 1432, -2163, -2479, 3697, 3444, 2561, -417,
   -2914, -3713, 2167, 143, 4241, -847, 978, -461,
   374, 5596, -1240, -4877, -2457, -1418, 56, -682,
   367, 3742, -2498, 2633, -4569, 963, -9, 3446,
   -764, -1443, 642, -3250, -168, -875, 3826, 1110,
   -111, -799, -3731, -4321, -1759, 910, 874, -3042,
   -1290, -4696, -5805, -3770, 1459, 1044, 2037, -2111,
   -476, -1473, 1863, 2372, -2602, -656, -763, -1474,
   460, 3329, -1998, 644, -2468, 2992, 426, 1954,
   -4046, 2432, 5098, 2939, -2686, -1980, -3288, 1368,
   -918, 748, 1811, -2567, 5731, 150, -124, 271,
   -1304, 4135, -1531, -4882, -2551, 426, 258, -2147,
   -1735, -226, -36, 1774, -1256, -2919, 2141, -110,
   -3211, -1429, 3142, -3779, 2237, -309, 809, -199,
   -971, -2062, 1115, 2028, 1263, -2172, -372, 235,
   -403, 2611, -626, -865, -588, 4490, 1761, -299,
   -2612, -86, -2157, 345, -3702, -1823, 784, 1976,
   2211, -3012, 2589, -2061, -1866, 631, 732, 1017,
   -587, 277, -3502, -215, -2304, -1852, -232, 558,
   -3402, 531, 260, 1089, 4459, -1214, 647, 2323,
   -1610, 3908, -482, -786, 792, 318, 706, 223,
   -1943, 3653, -100, 159, -1694, 1936, -2314, -925,
   -1325, 490, -2822, -1708, -2023, -500, 1281, 2152,
   1981, 873, -755, 1099, -230, -2752, 453, -163,
   3632, -3965, -2061, -3336, 246, -513, 571, 2074,
   622, -1402, 568, 884, -5426, -345, 1545, 4213,
   -2660, -1715, -425, 147, 4126, 1858, -140, 2778,
   2007, 1568, -277, 413, -72, -846, -1978, -940,
   -1029, 2140, -5100, -1265, 4102, -253, 1286, 1905,
   2803, 629, 41, 1902, 670, -983, -1573, -1696,
   1801, -1780, -2591, 1005, 1279, -769, -1007, 499,
   -5800, -380, -120, -3143, 613, -3043, -941, 2005,
   -570, -1739, -2383, -4037, -13, 1351, 1784, 215,
   2359, -690, -2170, -3101, -1982, 27, -3505, -838,
   -6453, -1234, -1709, -4238, -2507, -1014, -115, 2739,
   -564, -2025, -4424, -3245, 668, 2158, 1503, -150,
   249, 4571, -1550, -5420, 2779, -4019, 442, 2891,
   -4451, -449, -3884, -834, -3259, 895, -1105, -79,
   1837, -2221, 344, -2761, -680, 1298, -3313, 150,
   -469, -489, -1806, -835, -2648, -1294, 63, 791,
   -881, -1293, 86, -659, 4141, 884, -169, 452,
   311, 1297, -977, 125, -3288, -1826, 2203, -2107,
   -2096, 192, 1202, 1461, 1635, -2161, -23, 464,
   1018, 1690, 2424, -2237, 1787, -946, -3967, 370,
   447, 3298, 2172, -1189, 243, -1120, 1603, -889,
   2008, 133, 265, -2673, 465, 1113, -828, 2231,
   1629, -1878, -401, 3087, 543, 2399, -521, -545,
   1180, -220, 2850, -1114, 10, 64, 3478, -1277,
   -508, 520, -1670, 2699, -619, 421, -2140, -1532,
   2407, -1082, -2973, -1352, -763, 145, -3107, -2173,
   -636, -249, 666, 615, -3279, -1223, 113, -523,
   622, -60, 2728, -593, -552, 1556, 472, 276,
   476, -2543, -1360, -2179, 582, 1076, 1206, 1738,
   -73, 15, -2403, 560, -1795, 474, 2453, 610
};

static const opus_int16 input_dense_bias[24] = {
   1742, -1336, 2958, 1035, 2744, -2838, -5357, -2715,
   1017, -237, -4903, 1285, -1143, 3352, -688, 1722,
   -5365, 2260, 1272, 1165, -1698, -2105, -2742, -3280
};

const DenseLayer input_dense = {
   input_dense_bias,
   input_dense_weights,
   42, 24, ACTIVATION_TANH
};

static const opus_int16 vad_gru_weights[1728] = {
   2871, 3982, 1112, -1046, 412, 5146, -656, -512,
   -1847, -1269, 1466, -783, -3831, -1089, 1285, 3662,
   -3727, -3192, 794, -688, 1558, -2425, -222, -31,
   -843, 856, 2370, -172, -535, 2329, -1484, -2800,
   -1105, 887, 494, -69, 675, -3421, -1693, -1983,
   1287, 194, -738, -729, -595, -1521, -76, 1217,
   -746, 685, -30, -2170, 457, 587, 840, -788,
   -818, -1665, -389, -818, -1649, -792, -2065, -878,
   -1175, -821, 1062, 166, -114, 572, 568, 207,
   2621, -1818, -1213, 218, 1483, 870, 4687, -767,
   -401, -3802, 832, 1620, 1578, -437, 3056, 4700,
   3196, -2558, 2416, -853, -207, 3854, 1866, -1324,
   -1715, -1359, 616, 502, -4148, 754, -178, -1173,
   -1285, 3193, 549, 151, -44, -766, -2469, 746,
   72, -2044, -2417, 1783, -799, -810, -800, 3022,
   3021, 62, -1013, 1206, 515, -1049, 1286, 74,
   -1661, -1130, -1032, -192, -1785, -1029, 564, -1503,
   -330, 1357, 1203, -460, 381, 144, -1254, 1118,
   -2289, 415, 1904, -2555, 281, -241, -1574, 21,
   894, 1765, 785, 1693, 1274, 1649, -24, 2562,
   -1565, 1900, -150, 2704, 2102, 1222, -880, -2859,
   2427, -260, 691, 3112, -2025, 2454, -2075, -1271,
   -1429, 384, -755, 1096, 1946, 2196, -1897, -606,
   857, -3242, -2647, 2736, -1629, -3750, 2274, -66,
   56, -720, -915, 1675, -262, -929, 1877, 1845,
   -1229, -919, -303, -462, 529, 403, 48, -977,
   -1542, -538, 1205, 122, 844, 1532, 383, 321,
   1089, -3846, 1093, 1513, -936, 2867, 776, 3460,
   281, -2027, -5533, 512, -1329, 1698, -3526, 2074,
   1189, -368, -786, -496, -130, -1919, 647, -571,
   -3149, -3062, 611, -166, -679, 1057, 489, 677,
   -2754, 2372, -2052, -1043, 119, -354, 2316, 533,
   -1456, -2672, 1266, 1233, 1950, -60, -944, 50,
   -1566, -1438, -465, 1231, -157, 1869, -722, -511,
   908, 383, 4211, 1355, -697, -2081, 597, -673,
   978, 1209, -864, 982, -1858, -1778, 1386, -347,
   -2588, 5567, 837, 987, 634, -4195, 838, -766,
   914, 2717, 1751, 1385, 255, 1663, 319, -1447,
   1175, -3623, -1607, -2050, -1785, 1961, 1129, -2186,
   -1600, -654, 2137, -1264, -546, -2268, 2617, -1467,
   -71, -863, 604, 282, -529, 712, 495, 1601,
   -492, 3193, -680, -485, 77, 1239, 2172, 51,
   -577, 1380, -548, 315, -2306, 367, 355, 408,
   -1924, 1343, -1259, -637, 1658, -565, 1109, 2599,
   -446, -549, 945, -1227, 842, 164, 148, -633,
   2468, 464, -1856, 2700, -7, 3962, 184, 1160,
   -1179, 75, -2079, 1430, 369, -3377, 3151, 915,
   -425, -2441, -1831, -4663, -237, 395, 1539, -4265,
   2037, -955, -918, 627, -149, -82, 319, 500,
   -288, 539, -4074, -1591, 666, 2602, -863, -800,
   1564, 37, 1432, 600, 957, -1630, -1300, -559,
   2602, -3083, 227, 4, -124, -2029, 1832, 241,
   563, 437, 1096, 2131, -111, 2251, -429, -957,
   872, 1239, 1073, -342, -2005, 1274, 1398, 1395,
   3833, -2532, 720, 124, 2049, 3274, -2032, -933,
   2074, -3771, -2594, 399, 226, 930, 178, -3061,
   2860, -1457, 1661, 1106, -68, -438, -2447, 1902,
   -1678, 1879, -83, -677, 946, -1536, -42, 89,
   -582, -576, -1321, -2566, -2941, 416, 721, 768,
   594, -2100, 352, 453, 525, -243, -2512, -1960,
   1576, -1772, -1188, 1618, -617, -1296, -434, 1846,
   1548, -393, -295, -1950, -17, 1209, 698, 358,
   1593, -466, 177, -1896, -1540, -1837, -840, -466,
   -574, -1954, 121, 588, -2846, 2338, -2832, -1326,
   -4739, 1006, 3535, 1673, -148, 186, 775, -1416,
   -829, -3159, 305, 327, -3166, -1538, -674, 365,
   -735, -1513, -248, 437, 976, -2757, 2928, 2389,
   2358, 213, -2172, 2059, -1644, 1682, 1781, -856,
   -1665, 2829, -371, 1678, 1022, 1076, -1435, -380,
   -1580, -595, -1025, -772, -242, 766, 174, -1822,
   1597, 1248, 65, -147, 516, 968, -1717, 382,
   2143, 2249, -548, -1558, -374, -1543, 1888, -1328,
   -1729, -112, 603, 2944, 2705, 26, 3245, 4986,
   2065, 733, 1245, 3350, -2059, 839, 3380, 37,
   -1592, 572, -1056, 1221, -403, 391, 4552, 915,
   74, -925, -2334, 4315, 621, 862, -2181, -627,
   -3555, 2309, -2628, -1998, -255, 942, -1194, 369,
   3360, -3856, -548, 2849, -2880, -3344, -1542, 1540,
   -670, 279, 278, 955, -2558, 2748, 88, 869,
   -1688, 1282, -573, -768, 254, 670, 2896, -639,
   -942, 593, -810, -287, 1449, 111, 3010, -1593,
   -45, 1251, 1122, -724, 5664, -749, 1787, -971,
   -216, -2940, -334, 809, -1181, 1987, 24, -144,
   1328, 2607, 1864, 2533, 932, 2776, -4402, 4305,
   937, 675, -606, 1395, 893, 1476, 1544, 75,
   -1705, 2133, -488, 1860, 2100, 532, -1086, -1512,
   -2282, 1104, -153, -2657, 1101, -203, 1379, 842,
   1129, -278, -1948, 1136, -864, 1283, 170, 1306,
   53, 796, -607, -78, 3022, -1335, 472, -286,
   -1892, -51, 570, 24, 1913, 1247, -976, -1733,
   -36, -2484, -1515, -3350, 2264, 1030, -1789, -455,
   -2650, -2278, -2289, -2031, -3072, 2557, -3054, -1507,
   -2939, -1311, 587, 550, 2459, 1064, -3120, 2604,
   -1479, 70, 1975, -1614, 2492, 376, -363, 1755,
   1876, -1447, -2684, 1655, -323, 881, -473, -469,
   -1346, -510, -274, -1926, -2542, -551, -2275, 139,
   -1740, 721, -571, -232, -1152, -357, 1039, -1181,
   -1333, -587, -66, -1320, 523, 989, -2684, -889,
   605, -1074, 2458, -1558, -1170, -551, -2141, -69,
   1724, 2341, -60, 4671, 2422, -1080, 1212, 2152,
   -581, 210, -354, -797, -1023, 4185, 485, -5060,
   -1895, 1925, -3970, 511, 1798, -3090, 37, 3242,
   -1610, -1753, -2390, 885, 2818, 1638, 84, 304,
   -4772, 1637, -1245, -121, 1558, 57, 4010, 1019,
   798, -231, 4077, -586, 876, 1957, 425, 644,
   -3356, -126, 252, -2270, -2733, -1046, -1526, -1926,
   -749, 2528, -2232, -340, 1047, -3695, 917, 913,
   -2691, 589, 367, 1919, 682, 1340, 1714, -3280,
   2000, -1050, -77, -336, 1406, 569, 1560, 1360,
   -780, 995, -2427, -557, -2207, 3637, -2370, 801,
   -610, -1040, 9, -1219, 2360, -1097, -1099, 4717,
   -562, 553, 1637, 332, -144, 3304, 1093, -493,
   -644, -971, -2654, -771, -779, 1125, 2204, -1376,
   116, 136, 187, 1019, 289, 812, -788, 1951,
   -1666, -519, 740, -997, -1303, 73, 1119, 2154,
   2148, 73, 891, 772, -1183, -2027, -174, 858,
   1501, 713, 209, -1266, 1506, -1220, -478, -30,
   -636, -2617, 765, 1247, 2157, 1262, -2488, -331,
   2811, 2546, 1432, 2005, -2626, 2444, 5097, -457,
   -1583, 906, 1057, 3972, 2105, 1866, 2394, 58,
   1680, 1594, -450, -138, 922, -492, 144, -1817,
   -1951, -1206, -1033, 775, -178, -289, -1330, 87,
   1864, -554, 1346, 1707, -614, 505, -1014, -11,
   -928, -827, 1951, -1462, -299, -715, -1394, 1370,
   -1000, 17, -271, 2111, -2978, -225, 1718, -1363,
   -1554, -1045, 3283, -52, 618, 736, -1920, -608,
   -1694, -521, 293, 1103, -728, -295, -2534, -2175,
   1281, 493, 1911, 293, 5105, -2829, 1760, -453,
   -1695, -27, -563, 1122, 332, 472, 3661, -2269,
   -99, 3795, 239, -1509, -3812, 1206, -712, 75,
   824, -2803, 787, -2084, 1207, -1112, -1107, 497,
   198, 2046, 80, -1097, 475, 260, 765, -2479,
   -182, 506, 778, -752, -1621, -2784, -385, -483,
   1085, 824, -1930, 159, -771, 406, -954, -290,
   804, 930, 2414, 2311, 635, -1226, -293, 1726,
   -2351, 1703, -852, 1817, -1384, 2453, -393, -1115,
   523, -291, 2336, 816, 923, 338, -409, 2428,
   -1185, 45, -1632, 1128, 933, 2584, 867, -3234,
   -2575, 787, -126, -692, -267, 74, 1539, -2327,
   2233, -1573, -109, 2425, 33, -2006, 2376, 4008,
   -2813, 1120, 313, -1448, -462, 283, -809, 1739,
   -1708, 2989, 1272, -1067, 2104, 1123, -1494, -86,
   909, 2367, 148, 1001, -284, 1243, -160, 335,
   2642, -672, -2426, 1365, -2157, 184, -1579, 894,
   -683, 176, -2737, 1557, 325, -3032, 663, -2692,
   -546, -1751, -4108, -1382, -185, -1759, -1595, -839,
   -4083, -539, -355, -203, 1434, -1215, -3173, -410,
   -1152, -2349, -1737, -980, 1137, -3290, 2578, -143,
   1383, 745, -1348, -1792, 560, -2106, -479, 632,
   198, -1198, -554, -1257, 824, 1999, -1957, 2056,
   3191, 104, -2484, -462, -290, -51, -1594, -1149,
   2108, -830, -1774, -1177, 99, -2091, -1132, 2180,
   532, 129, 256, 1355, 1017, -1867, -624, 2557,
   -1072, -3019, -1766, -1362, -603, -3374, 660, -1349,
   -2576, -1312, 1768, -1849, 1854, 2110, -1254, -1338,
   -3959, -1373, -174, -2166, 3534, -2878, -1160, 1164,
   -1855, -1721, -2303, 155, 437, -960, -787, 1334,
   1542, 112, -207, 2003, -1014, 295, 2122, 1844,
   -287, 1964, 353, -921, 1355, 2884, 1855, -1631,
   -1272, 1453, 2063, 232, -413, 2997, 322, -1429,
   -280, 2167, -2344, -297, 1681, -1402, 63, 670,
   1218, -297, 75, 705, 2413, 2564, 839, -2906,
   -1091, -804, 2343, -615, 1103, -1089, -329, -2465,
   1193, -1624, 2559, -551, -1467, -1977, 644, 2666,
   -1632, -513, 1567, 1756, -3465, 260, 3226, 1777,
   -1665, 323, -208, 1921, 2329, 1161, -3410, -2036,
   -316, 752, 39, -2054, 449, 3975, -105, -229,
   1868, 669, -959, 1606, -1316, -1695, -392, -116,
   -1251, 1243, 188, 467, -1482, -165, -2486, -1573,
   1553, 1380, 383, -1113, 1735, -283, 1542, 423,
   -389, -1083, 448, -2239, 1822, 2968, -23, -1633,
   965, -1090, 924, 3517, 920, -961, -1003, 3245,
   445, -1234, 2498, -775, 510, -278, -1221, -2155,
   -218, -1761, 60, 1248, 969, -3035, 2504, 786,
   -3004, -3837, -2212, 817, -91, -668, 182, 2643,
   1240, 2387, -340, 2560, 146, 305, 3262, -301,
   -274, -115, 102, 777, 115, 2969, 1656, -2076,
   -367, 2321, 1327, -2421, -651, 2418, -2664, -249,
   840, 1871, 531, -1642, 1529, -2026, 1145, 207,
   -516, 1896, 522, 942, -1116, 900, 202, -425,
   1738, 39, 1740, -2507, 1967, 1966, -241, -882,
   2345, -4075, 935, -2824, 479, -3633, 3329, -1452,
   -975, -247, -535, 137, 2268, 2428, -2763, 2049,
   -956, 388, -4681, 2410, 384, 3783, -64, 341,
   -1954, 1447, 2448, -708, 3285, 162, -243, 1088,
   2138, -48, -522, -203, -2179, -331, -2668, 2609,
   2962, -2021, 1356, 761, 65, 402, 228, -335,
   -1404, 571, -649, 121, 989, -804, 3006, -150,
   697, -460, -1355, -2243, 808, 731, -122, -1262,
   -1938, 5896, 1199, 413, -695, -3695, -824, -1485,
   -960, 2099, 182, -396, 778, 1069, 473, -2845,
   728, 1074, -418, -1384, -1212, -2557, 1659, -2828,
   -1432, 931, 2163, -344, 524, 92, 277, -3216,
   290, 349, 532, 21, 1253, 925, 2254, 205,
   -1561, -484, -816, 429, 63, 1557, 1909, 1248,
   520, -1550, 914, -1225, -263, -2761, -2225, -1611,
   316, -914, 1583, 505, -1492, -1337, -1473, 1211,
   312, -1334, -1115, 182, -34, -1026, -545, -580,
   108, -3492, 2028, 277, -857, 2566, -714, -2093,
   -694, -1712, -4031, 435, 3263, 2183, 2174, 2819,
   255, -701, -30, -591, -1450, 784, 396, -1626,
   -2813, -351, 839, 1107, 35, -464, 1811, 2114,
   1109, -1462, -3242, -580, 728, -1930, 1687, 2038,
   548, -1874, 897, 1354, -1687, 88, -1237, 900,
   1903, 280, -1535, -1625, 2335, 201, 3077, 682,
   559, 2118, -594, -1065, -1291, 462, -1587, 994,
   2090, -1155, -1098, 1607, 400, -113, 2570, 1077,
   474, 1886, 1469, 2825, -2549, -654, -822, 666,
   -3744, -2765, 1218, -986, -53, -2335, -6426, -2768,
   -160, -457, -1768, 1215, 79, -1786, -3382, -2668,
   -221, 95, 650, -3217, -444, -192, 3048, -131,
   2734, 987, -87, 144, -715, -4146, 1735, 982,
   1304, -425, 1334, -1471, 1949, -343, 1336, -1185,
   2313, -1157, -3276, -13, 2196, -2489, -509, 1430,
   -1305, -607, 174, 1089, 1569, -236, -1283, -2690,
   2052, -879, -3633, -2059, 1354, 686, -1215, 456
};

static const opus_int16 vad_gru_recurrent_weights[1728] = {
   1892, -2065, -5646, -1532, -1561, -743, -1508, -1996,
   327, -3170, -4124, -1565, -25, -3570, -3395, -1013,
   1279, 398, -2121, -1930, -4804, 3643, -2392, 1788,
   1879, -404, -425, 486, 243, 1860, -516, 380,
   -1778, 2571, -2618, -901, 1276, -810, 277, 212,
   1427, -4302, -73, -1217, 1764, -1453, -322, 1989,
   2725, -5496, -2143, 2140, 1334, -733, -267, 3087,
   2171, -2233, -2306, 669, 1043, -159, 1664, 2430,
   765, 2012, 671, -2885, 862, 268, -2943, 848,
   536, 2816, 483, 2459, 918, -801, 6214, -801,
   -788, 2354, 6488, 2431, 414, 3734, 4622, 2161,
   118, -2513, 2581, 1346, 1374, -2529, 2293, 560,
   -66, -340, 2057, 907, 980, -3382, 471, -1548,
   -38, -947, -253, 519, 1301, -2664, 463, 811,
   -515, 773, 769, 2513, 1882, 603, 808, 655,
   -1725, 2790, 1952, -271, -776, 1221, -633, -447,
   -798, 2715, 239, -99, 88, 193, -1468, 2212,
   -1480, -2509, 1711, -199, -1845, 592, 86, -1248,
   -1599, 2286, -1762, 1951, -1353, 4050, 3848, 1718,
   157, 1475, 4051, 283, -603, -269, 965, 2635,
   -14, 1967, 2088, 1817, 1040, 4421, 3981, -3156,
   -1638, -154, -527, 938, -186, -461, 414, -1086,
   943, -1299, -1178, 2502, -230, 1494, 2030, 1618,
   -169, -1680, -934, 149, -933, 650, 1291, 1636,
   -2325, 1277, 3156, 627, -1950, -724, 1634, -4274,
   -1782, -636, -82, 611, -415, 667, 323, 380,
   -3376, -309, 424, 1847, -3562, -611, -1653, 82,
   -91, -902, 1217, 1927, 2287, -960, 4103, -2421,
   2238, 2365, 3296, 2037, 2118, 3459, 2581, 759,
   -3312, -172, 215, 309, -26, 1447, 2907, 1096,
   2877, -707, 3514, -790, 1140, 78, 1196, -1315,
   -1809, -1119, 2410, -3167, -316, -814, 2257, 1271,
   -31, -1361, -908, -77, 639, 1321, -3017, 758,
   -345, 455, -1125, 4983, 427, -973, -1497, 2489,
   1171, -2231, 3133, 2638, -1340, 837, -860, 508,
   400, 812, -477, -883, 513, -883, -3838, 3678,
   3068, 305, 2812, -2680, 2834, 3764, 3385, -950,
   1895, 1882, 1452, 1196, 2725, 2678, 2561, 2975,
   2678, 1776, 1018, 285, 2535, 2798, -4791, -320,
   2241, -726, 1549, -874, 550, 59, 3155, -1449,
   320, 1213, 193, -414, -2072, -2853, -339, 3720,
   -924, -596, -160, -220, 1156, 673, 1227, -2410,
   -327, 633, -2614, 2585, 3034, -686, 1464, 3156,
   810, -1694, 4504, 49, 102, -534, -3105, -379,
   1777, 111, -2209, -261, 979, -1406, -509, 169,
   -3550, -783, 1121, 2537, -556, 4415, 2224, 3172,
   7, 446, 1593, 2179, 367, 925, 792, 3408,
   -3137, 2154, 2288, 1532, 65, -1363, 2520, -218,
   955, -2328, -1658, -1818, 401, -153, 3136, 1018,
   4771, -772, -317, 2450, 404, -782, 521, 1629,
   -591, -832, 430, -1101, -1928, 1722, -477, -1043,
   -5107, 299, 662, -1991, -1607, 4494, 1415, -1767,
   -2882, 1129, 1454, -1916, 494, -542, -263, 972,
   -596, -2419, -1316, 2482, -3407, 2328, 4764, -1754,
   252, 980, -277, -4459, -324, 3684, 4710, -2114,
   -557, -2252, -5151, 801, -1055, -1145, 106, 797,
   1188, -96, 1837, 227, 1083, 441, -1406, 66,
   -125, 697, 599, -205, -2253, 2740, -913, -405,
   1264, -2442, -842, -1159, -998, -3444, -1264, -979,
   518, 499, 1424, 102, -134, -217, -642, -678,
   -3280, -253, 1221, -1181, 417, 3472, 2304, -972,
   -2374, 106, 796, -3149, -331, 250, 243, -2278,
   -498, -3119, 675, 2613, 743, 1371, 3744, -825,
   1411, -2797, 713, -1736, 1552, -1266, 868, -1993,
   3255, 226, -2281, 694, 155, 2379, 1986, -860,
   -1044, 1262, 1865, 1913, -3021, 705, 1329, 5679,
   172, -3400, 588, 1220, 1198, 2261, -337, 1101,
   -1608, 541, -1254, -1413, -959, 420, 155, -417,
   976, -1583, 568, -565, -1306, 937, -1851, -2258,
   1223, 186, -384, 3578, 1338, 1012, 3215, 1361,
   -303, -2504, 399, 2434, 565, -1140, -1719, 86,
   -1199, 1, 126, 987, 252, -336, -348, 30,
   -763, 115, 508, -286, -4233, -2143, -2591, -987,
   -43, 930, 675, -590, 1991, 471, -1705, -850,
   -2592, -320, -4949, 1321, -459, -489, -730, -131,
   -1300, 22, 138, -681, 2187, -4498, 2179, 75,
   233, -1215, 160, -878, 2072, 221, 34, -186,
   -572, 355, 145, -3018, 542, 1310, 781, -2089,
   2974, -384, -594, 892, -1061, -2519, -1464, 4045,
   1890, -924, 1253, 517, 555, 1428, 84, 272,
   2777, 1950, -1122, -2995, 888, 591, -2127, -872,
   -1392, 632, 3103, 6863, -2330, -3706, -6444, 6585,
   2073, 860, -4128, 3325, -3168, -2726, 805, 2864,
   1617, 2680, 2330, 617, 1149, 1938, 2968, -3703,
   -4815, 324, -3814, 1304, 2996, 886, -2568, 703,
   932, -737, -3188, -651, 669, 1737, 75, 1189,
   -1473, -1891, 1477, 229, -728, -1446, -1523, -507,
   -1014, -1138, 3661, -2643, -2450, 317, -963, -1193,
   -1959, 748, 2388, -3020, 548, -512, 2671, 679,
   -1283, -1585, -398, 3201, -1378, 1705, 1806, -1904,
   -1776, -1332, -1566, -2914, 717, -2055, 5880, -3940,
   -1686, 397, 11383, -775, 503, 4665, 1248, 2919,
   -4012, -2311, 1066, -1240, 3002, -1061, -1905, 1514,
   2152, 3187, 3085, -3453, -848, -1427, 683, -2990,
   1022, -1480, 1419, -1713, -326, -1915, 169, 1656,
   -1263, 2997, -1700, 1029, -464, -260, -2629, -1909,
   -4075, 3842, 3921, 2381, -1385, 2090, -395, -1729,
   -4485, -1480, 371, -303, 1404, 163, 193, 1170,
   -4075, -3428, 1788, 482, -2562, 2565, 3185, -3380,
   298, 3363, -1700, -1504, 1708, -735, 2397, -2418,
   2149, 1191, 4327, 733, 3185, 2969, -88, 485,
   670, 731, -1462, -289, 727, 350, -2891, -357,
   1669, -785, 1167, -1892, 2217, -1960, 1267, -732,
   -849, 1655, 1987, 2544, 898, 377, 1693, 253,
   -2188, 84, -2064, 799, 671, 2961, 168, -1416,
   -499, 2074, -2041, 4457, 3181, -1810, -320, 1463,
   -355, -1081, 2541, -1510, 1163, 1181, -1007, 1071,
   847, 1102, -2232, 129, -57, -1251, -1871, 3125,
   -2242, -659, 2056, 4035, 1324, -4796, -625, -454,
   -1995, -2769, 3518, 2877, -463, 3358, 2725, -1469,
   -2864, 2181, 1935, 2451, 1154, -1045, -2926, 318,
   -2429, -2642, -2471, 925, 2233, -614, -1133, 94,
   357, 1381, 61, -73, 798, 1462, 889, 1626,
   -25, -949, -2203, 389, -596, -2396, -1685, 734,
   -1803, 908, 2249, -1674, -2560, 1581, 994, -1559,
   -1910, 1757, 3254, -633, 1220, -2227, 414, -1134,
   843, -1925, -965, 2043, 1475, 1156, 1143, -1443,
   21, 1556, -482, -3635, 3039, 811, 6926, -2396,
   1920, 3047, 3878, 1819, 1768, 3654, 2872, 1907,
   965, 504, -1695, -1113, -581, 865, 982, -764,
   1082, 314, 3157, 1523, -960, 1205, 1564, -1945,
   1766, -633, 2264, -165, -1863, 1274, 175, -639,
   -918, -802, -345, 1211, 2743, 245, 1045, -3058,
   -5, 94, -1402, 1392, 1746, -2220, -1686, 1950,
   1429, -2571, 1855, 1375, -2006, 2338, -1643, -1781,
   1830, 1198, -259, -5061, -1339, -3496, -2621, 1958,
   3091, -4033, 774, 1909, 1721, 2371, -2836, 4592,
   1259, -1017, -689, 120, -2018, -2126, -607, -2212,
   793, 309, 3451, -190, -1098, 1989, 2577, 3037,
   -289, 1153, -2653, -312, 261, 2186, -1957, 2762,
   -607, 2508, -405, -1749, 1272, 3080, 654, -548,
   1760, -3289, 1023, -1828, -2351, -836, -969, -155,
   672, 443, 1488, -3925, -2238, 3391, 521, -2904,
   -845, 3048, -95, -2861, 600, -620, 3279, -3052,
   1617, -1498, 812, 114, -371, 960, 1826, -17,
   -3341, 2858, 575, 1837, 1710, -4342, 3136, 1343,
   2731, 2783, 923, 739, 651, 3156, 1670, 1384,
   -1361, 2374, 1660, 1174, 226, 682, 1542, -1459,
   2029, -1054, -2253, 1837, 2022, -2448, 168, 195,
   863, 689, 216, 1275, -218, 664, 1658, 2308,
   -707, -676, 298, -2081, 1604, 1805, -297, 1073,
   89, -272, 374, 3487, -616, -1695, -582, 1086,
   1159, -1573, -160, 798, 1743, 1702, 627, 1020,
   2721, -1429, -2652, -1789, 69, -757, 945, 752,
   517, -2651, 2921, -1380, -1020, -2535, 1781, 99,
   -3706, -2503, -3132, -749, 1082, 283, -749, -1451,
   -202, 2225, -610, 514, -1289, 2352, -2080, 513,
   1009, -1271, 418, -1969, 983, 161, 762, -316,
   2994, 530, -374, 2132, 1370, 1420, 1331, 1608,
   109, -526, 133, -1951, 1235, 1014, -1084, -398,
   -709, 286, 1506, 676, -539, -925, -657, 2704,
   101, 2137, -501, -427, 2913, -1205, -846, -3199,
   -76, -202, -1246, 2486, 871, -390, 665, -1113,
   1581, -1358, 1426, 826, 332, 487, -733, 3019,
   5360, -498, 344, 3616, 1298, 3624, 830, -4129,
   2667, 2615, -702, 5183, 772, 2673, -3470, 2380,
   401, -2364, 1299, -2600, 367, 877, 1917, 2402,
   -445, 2334, -1104, 1388, 1278, 1062, 3823, 254,
   1495, 2376, 793, -1635, 5958, 209, -566, -2287,
   1242, -247, 26, 2640, 231, -1413, 423, 5339,
   236, -3288, 60, 682, 263, -1350, 901, 1202,
   2005, 2034, -2651, -2953, 1213, -710, -2780, 2404,
   92, -115, -4320, -1563, -1895, 3641, -2676, -101,
   -3913, -2141, 284, -1676, 204, -3144, -3487, 1773,
   -567, -1777, -3064, -3712, 282, -3022, 2663, 818,
   1168, 228, 705, -12, 422, 898, -2529, 333,
   -1087, -2769, -91, -1447, 1394, 82, -329, -2358,
   -717, 1604, -2508, 752, 258, -829, -395, 178,
   450, -1604, 1448, 628, -597, 1533, -1858, -1309,
   1705, -256, -419, 500, -1778, 2002, -29, -593,
   -1303, 45, 4147, 1211, -1023, -1078, 942, -1882,
   -3489, 495, -6772, 3150, -2590, -605, 114, 924,
   -2700, 284, -4643, -1451, -323, -2392, -783, 3981,
   -4420, -297, 2080, -3554, 1772, 514, 2973, -2712,
   -3583, 1214, -4237, 708, 306, 1819, 358, 664,
   1266, -1564, -784, -686, 382, -776, -133, 1807,
   -1458, 854, 56, -1618, 351, -415, 104, 1495,
   1014, 1287, -1008, 46, 531, 660, 1810, -1251,
   -1244, 1623, 1428, -1825, -220, -742, -500, 3926,
   -3167, -2175, 911, 2218, -2148, -1670, -74, -576,
   -720, -425, 3202, 152, 2319, -2985, -2507, -1427,
   682, 2589, -717, 43, 1361, -359, 1381, -3316,
   -4064, 1807, -679, 2433, 688, -322, -2090, 2185,
   169, 512, 241, 1049, -499, -1219, 2, -605,
   -276, 1943, 111, 256, 1148, 137, -1210, -1630,
   340, -891, -142, 879, -146, -488, -2300, -344,
   1561, 319, -3130, 87, -1332, 1996, 1544, 1819,
   1603, 705, 410, -1671, 588, -948, 1647, -868,
   2926, -1974, -2205, -460, -39, 1368, 459, -805,
   1074, 164, -27, 3375, 1337, 3880, 2399, 540,
   -2302, 78, -718, 325, 630, -1937, 1773, -658,
   -3248, -823, 1839, -598, 758, -2435, 2481, 2920,
   -2452, 1892, -2882, 460, -593, -496, -1388, -266,
   -2130, 153, 603, 46, -92, 245, -1295, -2073,
   1496, -228, 35, 1487, -3091, -2173, 3, -553,
   -2675, -2781, 2262, -2091, -2892, 772, -1527, -674,
   -674, 1752, -184, -1570, -408, -93, 1843, -2159,
   3290, -1663, 2748, 2139, 206, 1911, 331, -2340,
   1414, 3392, -1343, 1991, -2114, 5208, -3819, 3010,
   -972, -844, -3894, 6688, 129, -2337, 2617, 2300,
   -1291, 3597, 1161, 1397, -1434, -980, -2843, -771,
   -558, -1062, -849, 2060, 7, 1579, 673, -341,
   1480, -1402, -1717, -787, -1620, -273, 869, -1093,
   -1634, 470, -3691, 3394, -2894, -1437, -1178, -1428,
   -570, -492, 2213, 259, -412, 1743, 4336, -2128,
   -2720, 1987, 1787, 208, 2940, -3337, 2305, -274,
   -2089, -478, 1906, -158, 374, -199, 2164, 110,
   4579, 3674, -3327, -2537, -1378, 5362, 4022, -1810,
   -1420, -121, 3070, 336, 2805, 2083, -1619, 89,
   1463, -947, -1607, -1862, 1335, 3508, -1424, 1169,
   1907, -3041, 1863, -1698, -139, -588, 2079, -2423,
   -2927, -1355, -409, 450, -2489, -1857, -786, -278,
   -1557, -3096, 224, 305, 2603, 978, 1673, -294,
   2314, -620, -364, 1077, 776, -456, -533, 703,
   -1026, -1444, 2578, 780, 2145, 907, -966, -1815,
   1437, 3040, -3893, -2528, 31, 1194, -3011, 997
};

static const opus_int16 vad_gru_bias[72] = {
   -962, 3615, -2065, 2351, 891, 2690, 7608, 4256,
   289, 2236, 5141, 1086, 2282, 1848, 2070, 2945,
   -4742, 141, -679, -678, 2028, -469, 2155, 81,
   1182, 206, -197, 1683, 442, 1266, 430, 424,
   -393, 2132, 242, 1076, 1563, 1396, 737, 315,
   236, 317, 1418, 342, 602, 573, 1872, 332,
   -229, 1238, 283, 1035, 1710, -135, 225, 664,
   630, -563, 1948, 1049, -71, 956, -1176, 1478,
   844, 961, -1589, -250, 55, -539, -391, 1433
};

const GRULayer vad_gru = {
   vad_gru_bias,
   vad_gru_weights,
   vad_gru_recurrent_weights,
   24, 24, ACTIVATION_TANH
};

static const opus_int16 noise_gru_weights[12960] = {
   -242, -519, 385, -42, 476, -1528, -2192, -289,
   13, 293, -1727, 424, -43, -678, -1513, -644,
   331, -1097, -1170, -743, -987, -601, -1848, 98,
   293, 35, -3029, -1244, -982, -2180, 1050, 1281,
   -944, 17, -823, -232, -323, 751, -182, -1200,
   -1206, -392, -621, 86, 356, -1092, -940, -1833,
   -183, -88, 957, 1413, -657, -1064, 493, -765,
   530, 1246, 235, 403, 160, -1175, 767, 111,
   -1151, 27, -79, -588, -65, -631, 216, 379,
   -156, -1367, -581, 378, -1137, 465, 656, -1188,
   970, 208, 489, 1134, -726, 1526, 935, 1321,
   128, 1512, -720, 243, 291, 213, -387, 454,
   498, 1396, -777, 979, 306, -1242, 426, -1777,
   -515, 2127, 850, -1162, -1373, 785, 486, 739,
   1575, 543, -388, 1312, 1498, -230, -598, 924,
   228, -1021, 1568, 1398, -238, -856, -317, -1970,
   -143, 1114, 294, 487, -1250, 358, 863, 74,
   148, 675, 402, -390, -740, -2115, 668, 817,
   55, -1803, -1068, -1070, -752, -1074, -46, -1165,
   1348, 777, -993, 1794, 1479, 1794, 297, -139,
   -959, 1935, -216, 184, -922, 994, 1817, 703,
   -2083, -1306, -728, -331, 2052, 258, 1274, 328,
   -1518, -1771, -1012, -929, -23, 256, -288, -500,
   -236, -437, 921, 567, -153, 867, -1700, -850,
   -1666, 3970, -569, 529, -1718, -394, 2, -8,
   -192, -1114, 1382, -923, 155, -597, 1077, -1107,
   463, -624, 635, -378, 1185, -740, 485, -500,
   969, -1410, 921, -103, -850, 1243, 1559, 289,
   1741, 1383, -428, -944, 781, 1669, -78, 899,
   1368, 271, 391, 328, -826, -484, 499, -1229,
   -50, 1499, 1744, -539, 1543, 335, -393, -683,
   216, -230, -2002, 331, -1239, 659, 1278, 478,
   1394, 771, 1483, 2435, 235, -920, 678, -558,
   517, 5, 2462, -55, 389, 757, 2478, 552,
   -2336, -794, 1384, 217, -1686, 307, -433, 197,
   -503, 1189, -7, 217, -518, 678, 280, -532,
   1396, -237, 1264, 350, -1080, -104, -194, -1259,
   1577, -578, 535, 679, 1138, -644, -23, 792,
   -491, 3349, 837, -196, -24, -1791, -656, 2762,
   -892, -1746, -1494, -454, 1412, -707, 809, -1681,
   1236, -561, 755, 981, -2503, -1024, -466, 588,
   -1463, 231, 1148, 1339, -695, -662, -34, 132,
   483, 892, 175, 889, -677, 957, 826, -602,
   -792, -1061, 501, 159, -1747, 178, 75, -574,
   222, 724, 44, -1302, 180, 927, 882, 1646,
   150, 475, -334, 902, 257, -426, -24, -735,
   -171, -217, 561, -3087, 1515, 271, -914, 419,
   783, 905, 1837, -1564, -251, 1243, 379, -4,
   -801, 63, -95, -703, 1008, 568, -960, 665,
   -1681, 481, 519, 1530, 934, 69, 487, -273,
   -362, 819, 285, 27, -628, -206, 582, -119,
   21, 1620, -424, 254, -1524, -730, 1509, 162,
   1843, 559, 958, 971, -912, -1425, 1880, -1466,
   -469, -1739, 359, 781, 562, -182, 1681, 616,
   -276, -1965, 356, -19, 30, -1697, -683, -1279,
   10, 376, 1311, 262, -268, 130, 142, 212,
   -410, -623, 1847, -45, -614, -497, -2366, 434,
   1279, -719, 878, -1136, 1497, 892, 446, -349,
   753, -333, 1506, -445, -393, -602, 806, -760,
   -592, -135, -142, 1439, 878, -1652, -2038, -368,
   129, 643, -1135, 468, 1237, -1389, 1597, -655,
   55, 319, 151, -1258, 570, -643, -449, -768,
   318, -1621, 845, 692, -946, -1082, -1122, -1264,
   555, 664, -40, 384, -220, -1657, 276, 2393,
   -370, -407, -590, 506, 1189, 389, -1168, -1268,
   -2646, -129, 16, 70, -814, -157, 685, 642,
   150, 136, 260, 313, 1466, 2226, -589, 437,
   -534, -107, -674, -1789, 681, 1656, -929, -943,
   297, -1457, 343, 1289, 535, -39, 458, -988,
   -48, 2266, -1375, 146, -106, 712, -713, 574,
   1800, 1057, -467, 832, 171, 446, -149, 324,
   -1093, -478, -491, -687, -1192, -233, -770, -133,
   -1523, 826, 1353, -128, 250, 1397, -942, 728,
   1098, -1347, 1105, 549, 82, 987, -250, -1158,
   -472, -522, 943, -411, -1050, -1043, -891, -472,
   -708, 231, 1280, -553, -1715, 1394, -1373, 112,
   -771, -689, -1303, -581, -995, 184, -2403, 962,
   1610, 699, -505, 956, -1494, 640, -104, 281,
   -95, 386, -25, 882, -403, 312, -327, -210,
   -674, -300, 106, 834, -438, 59, -1073, 147,
   1324, -1987, -748, -429, -414, 372, 1588, 429,
   -823, -332, 661, -127, -19, 747, 189, -400,
   634, -1421, -248, -1492, -1910, -710, 1662, -217,
   1685, -689, 265, -662, 459, -526, -609, -135,
   -68, -381, -185, -601, -973, -1576, 1275, 393,
   727, -31, 315, -459, 607, -1188, 662, 407,
   -1045, -173, -1300, -1145, -119, -274, -952, -57,
   209, -1622, 1229, 1733, 733, 7, 907, -1491,
   939, -784, -1067, 111, -944, 873, -232, 1509,
   1060, -697, -823, 396, -301, -924, 248, -345,
   -1980, 2243, 740, -652, -247, -535, -86, -25,
   -149, 1406, 2161, 976, -830, 716, 1273, 1986,
   -266, 1532, 895, -1173, -550, -1095, 311, 1105,
   -1886, 618, 419, 89, -415, 1177, -875, 1626,
   121, 3110, 252, 1339, -1040, -1245, 353, 584,
   -972, 888, 197, -835, 946, 2595, 1200, -274,
   501, -479, 408, 463, -113, -749, 2181, 999,
   -1411, -745, -311, -44, 1050, 339, 252, 355,
   -1101, 1255, -894, 1807, -1753, -183, 608, -644,
   -338, 1829, 625, 551, -190, -981, 121, -621,
   -349, 776, -16, 1025, 997, 366, -903, 728,
   -618, -699, -547, 283, -282, 58, 453, 941,
   1483, 1134, -877, 405, -330, -714, -651, 76,
   691, 966, -514, 1426, 35, 1847, -781, 522,
   340, 552, 21, 487, -1404, -700, -324, 1105,
   867, -311, -2183, -851, 105, 358, -1299, 33,
   -845, 1627, -948, 542, 1326, -1325, -1066, -1222,
   1119, -517, 165, -68, 208, -1407, 503, -807,
   633, 502, -598, -1321, -674, 134, 291, -327,
   37, 1411, -831, -1008, -1196, -390, -79, -1535,
   1253, 154, -875, 720, 965, 441, 602, 1282,
   -266, 1691, 1460, 527, -345, 27, -152, 393,
   138, -491, 1095, -813, -948, -310, 1478, -579,
   -12, 2026, -24, -2137, 366, 311, -936, -1245,
   -2292, 295, 76, 488, -507, -64, -1541, -138,
   -505, -639, 656, 652, -1546, -1497, -736, 1107,
   1034, 704, 775, 122, -9, -1187, -1505, -1440,
   -5, -1110, -755, 495, -208, -1634, 919, 800,
   -124, 490, -368, 795, 123, 1671, -1833, 64,
   -99, -529, -667, -325, 23, -66, 572, 1440,
   -1745, 524, 602, 1001, 610, -962, 158, -645,
   -342, 351, 947, -763, -446, -1169, 138, 522,
   1317, -45, 483, 234, -518, -742, 1179, 1043,
   1671, -31, -60, -891, 722, 388, -2228, -1731,
   647, 843, 123, -113, 841, -964, -1447, 338,
   -440, 522, -818, 549, 167, -108, -831, -961,
   -458, -1257, 436, 1974, 616, 1017, -189, 1787,
   205, -13, 601, 918, -81, -886, 305, 232,
   -1481, 864, -339, 33, -1351, 1430, -2, -989,
   720, -2327, 143, 1459, -1288, -63, -1578, -705,
   464, -1051, 1194, -126, -636, 1569, 91, 583,
   -840, -954, 300, -1244, 306, -413, 857, -1535,
   -193, 1355, -834, -566, -1321, -381, -606, 1121,
   39, -138, -355, -287, 414, -887, -467, -885,
   -327, -1709, 549, 1196, 170, 877, 488, 1522,
   298, -410, -938, -894, 1257, -918, -819, 505,
   -2389, -2092, -26, 481, 28, -1711, -162, -653,
   459, 644, -202, 244, 428, 277, -1051, -464,
   -1424, -1099, -121, 888, 847, -102, 81, -975,
   -969, 708, -296, -1135, 1231, -852, -821, -139,
   -344, 959, -1270, 784, 1456, 286, -17, 881,
   -201, 1621, 533, -55, 950, -670, -1131, -1778,
   514, 819, -815, 1822, 838, -419, 283, -605,
   -194, 848, 465, 1192, 225, -703, 599, 632,
   -1247, 762, 839, -1520, 909, -836, -2002, 34,
   153, -466, -336, 2023, -389, 1187, -814, -152,
   1390, 2189, -1094, 1455, 283, 362, 1291, -34,
   375, -40, 1089, 997, 705, 1138, 1222, -836,
   -140, 620, 433, 515, 197, -1711, -1904, 286,
   282, -694, -311, -291, 604, 1371, -582, 2785,
   335, -619, 168, 258, 468, 956, 236, 1220,
   -1539, -1065, 762, 1623, -265, -87, -1482, 389,
   -2078, -30, -1459, -382, -198, 131, -1382, 292,
   -299, 395, -786, 2183, 316, 2186, 814, 447,
   1025, 392, 224, -809, -300, -318, 1425, -1093,
   -595, -267, 1106, 187, -1093, 591, -23, -117,
   1109, 690, -910, -748, 923, -350, 1657, 362,
   97, 610, -977, -430, 1230, -14, 332, 1236,
   129, -3021, -781, -869, 34, -3683, 105, -1313,
   1066, -687, -207, -396, 1466, 1074, 739, 1730,
   -1852, -415, -955, 676, -985, 40, 499, -1682,
   676, -184, -851, 967, 339, -1017, -1180, -863,
   -323, 1720, 582, -1320, -15, 756, -69, 1807,
   141, -302, 1713, 601, -1532, -715, -416, -666,
   -157, -232, -443, -1844, 430, -3786, -560, 12,
   -2043, 2300, 151, 416, 202, 1051, 1447, -681,
   464, -1996, 676, -601, -1330, 283, 1711, 629,
   -1122, 1344, 678, -724, 1011, 488, 299, 379,
   1508, 1729, -73, 944, 1336, 488, -277, 128,
   1255, -32, 101, -706, -332, 925, -511, 335,
   -338, 2012, 1031, -41, -914, -793, 216, 27,
   60, 385, -1384, -1128, 332, -1413, 246, -523,
   642, -1238, 309, 1447, -659, 503, -847, -1131,
   -1895, 413, -1060, -2125, 754, 808, -157, 331,
   256, -157, 1068, -649, 1155, -1121, -2294, -149,
   318, 346, 422, 794, 1077, -754, -2757, 1145,
   291, -673, -326, -169, -304, -326, 1424, -528,
   -1173, 1387, -292, -1654, -1724, 1205, -176, -913,
   -1534, 418, -836, 1621, -1168, 991, -198, -145,
   -122, -646, -1588, -270, -1055, -1793, 929, -162,
   413, -546, -1400, 909, -217, 245, -242, 1542,
   234, -63, -121, 786, 227, -860, 1751, 327,
   359, 1945, -1608, 699, -2122, -1373, -161, 1508,
   799, 1342, 531, 179, -829, 691, -859, -763,
   163, -673, -104, -1242, -1735, 737, 1764, -207,
   -469, 2083, -309, 728, 1423, 773, 344, -625,
   287, 1221, -995, 303, 303, -1270, -2550, -263,
   -12, -127, -675, 1317, 402, 230, 882, 337,
   380, -92, 1511, 2815, -29, -401, 1307, -722,
   294, 1220, 1123, -566, -75, -1656, 864, -359,
   1090, 807, 1014, 908, -394, 139, -1149, -1447,
   -995, -622, -131, 714, 654, -490, -517, 565,
   153, 1932, -582, 474, 579, -1137, -1691, 585,
   -1626, 1207, 239, -678, 704, -118, -2548, 270,
   738, 143, 231, 802, 244, -324, 650, -874,
   177, 1728, 40, -517, -36, -345, 456, -1889,
   14, 1067, -1361, 1160, 91, 896, -433, -2186,
   -285, 688, -855, -1356, -973, 66, 677, -969,
   -378, 2253, 874, 578, -9, 936, 216, 983,
   712, 1277, -1527, 3324, 56, 459, 690, 945,
   2998, 620, -600, -243, 86, 1660, 1256, 305,
   816, 3661, -1127, 960, -1455, 726, 1049, 711,
   3230, -47, -1962, 1479, -915, 125, -930, 1748,
   1284, 1054, 45, 995, -166, -71, -1863, -537,
   -936, -242, 72, 598, 1728, -119, -983, 1195,
   223, 1289, -1011, -886, -1445, -149, -167, 2,
   748, 194, 894, 1169, 407, 230, -291, 1019,
   2458, -1545, 560, 871, -402, -1067, -519, 865,
   251, 1087, -143, 1236, -1196, 832, -195, 1722,
   1027, -662, -691, -706, 61, -517, -1153, -514,
   -1505, 517, -1270, -805, 63, 465, -1060, 1549,
   5, 1279, -614, -2229, 440, -81, -47, -2716,
   28, -1022, -744, 1312, 119, -611, -339, 514,
   174, -1430, 1133, 1414, 341, 823, 134, -691,
   -2464, 1254, -596, -1837, -124, -1209, -892, 170,
   84, 338, -2412, 558, -600, -365, 1459, -10,
   427, -1500, -1084, 497, 139, -1553, 801, 1546,
   102, 291, 710, 88, -1271, 1170, 2360, -1241,
   1055, -200, -877, -93, -948, -453, -757, 390,
   194, -319, -167, 1660, -1186, 1449, -763, 1520,
   1099, -761, -1023, 361, 98, 2648, 725, 944,
   465, 865, 844, 247, 154, 942, -887, 1904,
   47, 1612, -134, -512, 1072, -1748, -744, 696,
   670, 630, -1622, 550, 41, -1118, -278, -685,
   1047, -206, 1417, 1850, 788, -151, -498, -822,
   1401, 131, 927, -573, -340, -403, 845, 605,
   1022, -54, -474, 1409, 326, -126, -307, 807,
   -1923, 282, -1444, 857, -554, 53, -411, -530,
   -2105, 648, 90, 1689, 28, 701, -1567, -508,
   -1119, -956, -349, -328, -310, -264, -1069, -1049,
   1004, 563, -479, 700, 269, 54, 1285, -661,
   639, 1994, -181, -1388, 999, 1188, 1478, 26,
   335, 2335, -430, 1867, 1523, 466, -93, -357,
   1820, -656, 171, -1050, -751, -1151, 620, -478,
   -1030, -341, 1534, -1127, -651, -1384, -1119, -608,
   1265, -608, -206, -783, -1583, 2, -289, -247,
   -491, 314, 1416, 1229, 1769, -1326, -58, -118,
   1181, 1133, 1887, -292, -1497, 789, -942, -650,
   1660, -108, -1036, 227, 839, -813, -465, -1247,
   544, -294, -1269, -878, -614, 215, -740, 387,
   383, 612, 1016, 490, 26, -2074, 2346, -800,
   -1171, -1004, 1051, 1732, -1349, 298, 1493, 641,
   -1264, 365, -469, 300, 1738, -1453, -1302, -624,
   -1472, 513, 181, 1210, -400, 1959, -322, 675,
   1635, -219, -1195, 108, -171, -499, 1918, -534,
   869, -555, -153, -973, 359, -1321, -392, 251,
   1268, -439, 494, -1095, 531, -1545, 1994, 489,
   825, 607, -1099, -469, -1280, 745, 1272, 1655,
   593, 228, -104, -579, 2106, -2032, 697, -851,
   -227, -1453, 448, 604, 1772, -90, -89, 385,
   745, -1749, 969, -998, -1600, -933, 1855, 854,
   -663, -376, 609, 1158, 554, 1288, -467, -966,
   1456, -994, -530, -87, 473, 515, -339, 519,
   -1522, -713, -1036, -604, -429, 589, -959, -722,
   -931, -493, 300, -1672, 1048, 116, -385, -200,
   641, 72, -999, 539, -1375, -1184, 812, -863,
   -253, 794, 324, 638, -613, 293, -106, -1532,
   103, 619, 245, -862, -424, 474, 1002, -677,
   2316, -1241, 1123, -196, -683, 659, 566, -367,
   -121, -542, -89, -236, 96, 845, -230, 36,
   -1233, -220, -582, 43, 1294, -785, 482, -378,
   -1098, 666, 58, -1359, -1154, -43, 272, 275,
   -1469, -582, -755, -602, -948, 841, -617, 1422,
   2021, -425, 466, -709, 373, 520, -1186, -970,
   -534, -797, 848, -348, -919, -1185, -227, 3,
   -864, -1225, -222, 1263, 367, -613, -509, 268,
   775, -2, 265, -1506, 631, -65, 1045, 134,
   -502, -829, 296, 1347, 694, -1228, -579, 162,
   -2083, -1393, -1001, -2632, 601, 666, 1622, 1981,
   -59, -573, 531, -200, -464, 968, 464, 1059,
   -1743, -222, 1184, 471, 1117, 2292, 303, 653,
   -322, -727, 916, -196, 2283, 1689, 1265, 2868,
   1053, -1359, 1346, -3473, -927, 493, 401, 38,
   -1639, -1384, 114, -400, -72, -802, -90, -471,
   527, -404, 906, 92, -1506, -2549, -922, -961,
   -664, -1240, -1224, -704, 3, -608, 1137, 573,
   -431, -1777, -707, -956, 118, 514, 444, -1097,
   -370, -429, 521, 503, 1531, 929, -1153, 372,
   118, -285, -380, -542, -335, 1410, 481, 178,
   -219, -347, 663, -689, 419, 1207, -1356, 75,
   599, -42, -298, -293, -332, -473, -312, -791,
   55, 711, 144, -195, 581, 6, 881, -1966,
   992, -1705, 701, -135, -1860, 194, 555, 425,
   -582, -516, 135, -1027, -223, -500, 255, 561,
   947, -516, -700, -805, 858, 219, -801, -295,
   910, -1040, 1095, 1501, 415, 1021, 340, 87,
   -1105, -1030, -343, -1985, -426, 225, 757, 736,
   -273, 241, -16, 234, 1404, 1050, 1008, -561,
   1633, 448, -704, -1071, 463, 1172, 967, 1571,
   1923, 1403, -357, -575, -699, -930, 399, -572,
   711, -1163, -338, -2595, -270, 2907, -169, 634,
   -798, -775, 505, 78, 592, -1083, 2106, 107,
   -885, 173, 563, 256, -141, -434, -1794, 2433,
   377, 197, 1202, -1440, -107, -2076, -1351, -59,
   -600, -96, -557, 691, 468, 927, -540, -817,
   591, -470, -1042, 579, -125, 1343, -1352, 1699,
   -924, 867, -173, -1017, 838, -282, -921, -1034,
   -813, 1338, 1443, 513, -129, -1412, 1186, 407,
   117, 222, 379, 1282, -927, -358, -595, 210,
   -1668, 176, -1020, -64, 1627, -929, 31, -857,
   -1196, -245, -743, 445, -94, -903, 956, 395,
   -660, -369, -296, 1638, 217, 46, 898, 291,
   -1252, 456, 1412, -334, -410, 117, -527, 1093,
   181, 223, -648, 66, -820, -746, 31, 738,
   -463, 381, -1217, 1463, 1188, -380, 410, -794,
   640, -1277, 133, 334, 1184, 789, 1747, -1423,
   -453, 1350, 1008, -713, 1132, -1248, 1009, 1415,
   832, 231, -186, 1495, 960, -771, 875, -1206,
   827, -2061, -139, 965, -619, 2473, -625, 561,
   367, 1501, -267, 800, -1193, 98, -161, 633,
   1554, -1852, 1149, 1567, 1218, 405, -2125, 1566,
   1151, 256, 2814, 1205, -123, 1365, 430, 683,
   2396, -882, -410, 2088, 3534, 1851, -982, -1397,
   912, -339, -1056, 2556, 2032, -92, 1308, 599,
   1165, 184, 515, -1381, -1115, -899, 995, 39,
   1510, -205, -397, 1156, -423, -478, -1773, 711,
   531, -1394, -508, -11, 185, 126, -1110, -529,
   211, 683, 632, -1019, 188, -4370, 142, 689,
   2125, 106, -1457, -649, -641, 2145, -1725, -227,
   960, -376, 698, 285, 187, -431, -38, -2354,
   908, -212, 137, 911, 1255, 1297, 724, 517,
   -1657, -2537, -657, 618, -694, -759, -129, 836,
   -2439, -860, 113, -743, -1425, -603, -1438, -555,
   -854, -778, 141, -184, -768, -403, -763, 1288,
   -272, -663, 890, -143, -396, -1249, 134, -334,
   -41, -985, -1034, 478, 820, 1045, -655, 1455,
   822, -483, -1681, 722, -1071, -214, -110, 697,
   1111, -665, -183, -742, 349, 1559, 881, -195,
   -740, -908, 1211, -2172, -159, -686, -234, -672,
   1100, 386, 1215, 1072, -725, 2128, 296, 1143,
   981, 60, 1013, 641, 593, 218, 969, -545,
   -543, -596, 118, 1896, 34, 827, 185, -217,
   -38, 411, -1085, -441, -23, 238, -117, -1433,
   679, -1700, -847, 1261, -12, -694, -1607, 367,
   -107, 1552, 212, -470, 535, 1776, 1185, 647,
   503, -698, 396, 1470, -1666, 104, -382, -603,
   746, 256, 1009, -520, 34, -615, -507, 256,
   -228, -476, -32, -438, -1594, 72, -101, 158,
   -477, -356, 749, 280, 722, -275, 816, 499,
   -1195, -99, -1082, 1232, -808, 47, -449, -167,
   606, -311, -486, -234, -1242, -7, -389, 1063,
   -258, 253, 442, -611, 944, 1054, 872, -66,
   803, 135, 341, 415, 697, 73, -346, -359,
   -25, 59, -974, 626, 1119, 383, 569, 746,
   -1050, 1190, -3192, 2039, 602, 421, 321, 1225,
   2751, 2828, -238, 931, 1220, 1790, -536, 416,
   -1717, 512, 2646, -2714, 3, 756, 879, -2674,
   967, 751, -283, -1410, -367, -77, -214, -245,
   -391, -587, 961, 300, 1444, 555, -607, -962,
   576, 595, -1474, 1187, -75, -335, 765, 669,
   -1112, -386, 833, 1436, 1270, -72, -2058, -736,
   125, -1962, -70, 168, -951, -1114, -382, 35,
   910, -328, -743, 1617, -984, 676, -1455, -288,
   -129, 27, -93, -319, 467, -2665, 143, 794,
   316, -1436, -141, 66, -857, -657, 1095, -1219,
   -679, -144, 167, 856, -153, 400, -283, -1890,
   17, -1144, 652, -1099, 13, -258, 780, 1256,
   -1422, 65, -477, 1145, 599, 575, 437, 119,
   -174, 538, -755, -605, 865, -397, -473, 184,
   -1759, -684, 1328, -908, -716, -483, -68, 624,
   -1952, 336, -348, -287, -271, -953, -478, 1085,
   -689, -820, -891, 717, -2341, 213, -1507, 29,
   -148, -1014, -1440, 2012, 181, 898, -1205, -323,
   523, 2155, 1823, -56, 1223, 1408, 2354, 534,
   2202, 388, -310, -484, 203, 46, 563, -130,
   -1024, 1783, 1141, -764, 827, -209, -981, -1360,
   -404, -222, -1042, -266, -121, -363, 34, 298,
   -91, -762, 984, -44, -1984, 260, 807, 70,
   -1346, 504, -797, 1046, -349, 553, -348, -1369,
   -446, -2877, 276, -651, -279, 556, 669, 745,
   -250, 407, -323, 1767, -76, -218, -624, 172,
   -2148, 514, -960, 865, -125, -947, -180, 442,
   1147, 817, 1014, 930, 1531, -129, -988, 735,
   -1140, 1297, 56, -624, 1246, -225, -1200, 981,
   -350, -464, 616, 1527, -1170, -906, 1509, -1530,
   158, -881, -628, -694, -1081, 976, -212, 370,
   -56, 1732, -188, 1073, -1443, -751, 131, 36,
   121, 553, -2020, 245, -341, 336, -910, 246,
   -493, 258, 345, 1470, 911, 2131, -2064, -861,
   1132, 32, 1428, 1371, -323, 170, -210, -817,
   1036, -666, -401, -1315, -940, -24, 676, 83,
   2071, -2072, 296, -1233, 345, -1568, -1339, -1080,
   -2278, -1050, 83, 242, 126, -164, -1023, 1110,
   893, -309, -1972, -936, -583, 1197, -130, -600,
   1647, -176, 690, 1023, 136, 94, -289, 783,
   -247, -351, -23, -123, 503, 1653, -1349, -618,
   -222, -944, -751, -1664, 327, 1080, 1597, -13,
   -444, 445, 309, -281, 584, 1324, -619, -2179,
   -986, 72, -490, 57, 269, -741, 1370, -39,
   2217, -427, -114, -1245, -662, 869, 85, -1393,
   692, -1023, -297, 108, -1434, 845, -1031, -701,
   1361, -83, -514, 185, 763, -1664, 1638, 1000,
   -708, -576, 720, -1833, -471, -211, -367, 523,
   385, 177, -344, 1456, 289, -839, 645, -140,
   -437, -814, -343, -88, 639, -333, 101, 39,
   932, -324, 1467, -524, 442, 964, -164, 565,
   -1565, 865, 955, 395, -428, -1865, 1312, 121,
   1098, 1077, 1209, 117, -1617, -114, 1290, -138,
   1957, -856, 647, -2592, 36, -959, -1774, -33,
   -849, -29, 597, 330, -651, 1715, 596, 993,
   -540, -1131, 2544, -112, -211, 853, 2223, 15,
   553, 937, -2211, 2155, -449, 712, 75, 500,
   -1804, 902, -171, 974, 1151, -2441, -157, -1670,
   -605, -197, 1435, 641, 1465, -272, -450, -204,
   -995, -784, 1457, 1683, 930, -1770, -149, -1077,
   -148, 73, 716, 1081, 221, 177, -531, 123,
   571, 1868, 1644, 24, -1297, -574, -1565, 723,
   -641, 1170, -374, -578, -441, 500, 222, -240,
   -1197, 610, -1050, 1763, -53, 983, 1147, 653,
   -1345, -262, -228, 271, -706, 1912, -430, 208,
   -706, 5, 827, 749, 912, -78, -370, -408,
   1175, 222, -773, -1439, -909, -130, -1520, 649,
   -731, 1057, -744, 756, 184, 355, 675, -492,
   1019, 339, -296, 295, -577, 651, -958, 179,
   -2322, 449, 619, -8, 589, -1032, 410, 1738,
   1260, -657, 936, -157, -823, 41, -883, -1115,
   427, 1131, -1747, 66, 1648, -134, 296, -969,
   -297, 520, -631, 860, -186, -515, -256, -2071,
   -366, -314, -396, 931, 836, 733, 585, 1447,
   332, 312, -2223, -1469, -1528, -529, -587, -2501,
   -855, 504, 410, 273, -336, 29, -2182, 525,
   863, 585, -1463, -217, -1386, 98, -728, 405,
   722, -1405, 318, 1218, 77, 1308, 1048, 1168,
   626, -830, -891, -178, 119, -944, 1045, 1004,
   -1014, -1407, 219, 1351, -1253, -1386, 491, 117,
   -995, 182, -1543, -604, -65, -625, -843, -663,
   -794, -250, 476, 948, -342, -612, -577, -1369,
   943, -31, 1262, -438, -11, -902, 549, 943,
   83, -373, 477, 82, 688, 240, -1153, -1047,
   -1487, -1315, 582, -1263, -483, 695, -844, -620,
   -1166, 408, -245, 38, 2060, -469, -1068, -828,
   879, -101, -383, -1437, 597, -1351, -289, 1257,
   -250, 975, -252, -570, 826, -64, 2050, -368,
   -1382, 627, -988, -1473, -1224, 183, -1707, -424,
   504, -1445, -779, -1547, -1389, -90, 224, -638,
   -1626, -502, -1412, -1087, 368, -1085, 1009, 397,
   57, -133, 30, -1264, 5, -107, 522, 1136,
   -178, 538, -1378, 87, -217, -1509, -174, -1150,
   -1580, 553, 96, -1016, 131, -208, -18, 1183,
   -562, -760, 390, -1532, 998, -265, -385, 223,
   -493, 1908, 780, -413, -67, -1160, -638, -193,
   -41, -91, 182, -1811, -473, -143, 1391, 833,
   -103, 1366, 182, 1770, -538, -546, -768, 424,
   -1937, 1733, -1073, -680, 962, 1411, 429, -61,
   -67, 1996, -859, -796, 502, -85, -1133, 1074,
   -1721, 311, -163, -693, -79, 1009, 546, 1456,
   -1847, 762, -784, 1920, -836, -328, 534, 614,
   171, 1146, 1153, -1644, -1199, 1415, -1431, -1479,
   462, 1439, 384, 1403, -533, 18, -978, 669,
   281, -408, -492, -37, -335, 655, -33, -966,
   -750, 32, 1266, 1073, -683, 568, 223, 663,
   -381, -982, -338, 1357, 606, -97, 737, 1065,
   -40, 391, 39, 270, 1404, -580, -144, 164,
   355, -1250, 876, 540, 1854, 1102, 746, -225,
   -880, -891, -105, -709, -119, -1038, 1803, 42,
   -137, -1565, 884, 237, 246, 83, 1326, 2082,
   -340, 900, 39, 581, -229, -1257, 1817, -539,
   842, 548, -678, 161, 1035, 576, 159, -206,
   100, 558, 461, -344, 421, 1028, 866, 318,
   -59, -530, -492, -312, -59, 1312, 628, 345,
   -170, -339, -170, -191, 617, 370, 76, -99,
   -229, -948, 908, -526, 1471, 849, -550, -123,
   1223, -1287, -501, -564, -9, -534, -422, -458,
   476, -28, -145, -958, -210, 1204, -983, -263,
   926, 1532, -240, -266, 1243, 340, -380, 65,
   1577, -533, 824, -1212, 319, 1008, -883, 723,
   59, -2023, -1028, -1301, 1250, -397, -619, -613,
   437, -376, -829, 616, -714, -862, 412, -1103,
   1573, 725, -235, -1357, 157, -165, 410, 593,
   -700, -1135, 2314, -885, 921, -530, -1010, 1132,
   -849, 399, 1456, -1511, -1302, 277, 1166, -214,
   1191, 964, -1309, 652, -884, 934, -744, 1058,
   -195, 1445, -1210, 1736, -561, -524, 162, 1405,
   -833, 1089, 1422, -718, 555, 1405, 27, -240,
   814, -1386, -950, -582, -1656, 576, -524, -278,
   -2021, 552, -1171, -694, -1064, 1118, 366, -130,
   891, 501, 554, -110, -1184, -630, -644, 629,
   104, 479, 231, 76, -93, -494, -1371, -408,
   799, 2197, -57, -945, -245, 330, 694, -493,
   -927, 502, -592, 553, -675, -1182, 158, -846,
   698, 1211, 190, 244, -1207, 1032, 954, -668,
   671, 1024, -15, -739, 845, 1193, -586, 934,
   1061, -1092, 1427, -764, 931, 1194, 92, -1026,
   143, -1140, -608, -670, -28, -1095, 740, 1547,
   -162, -796, 995, 531, 244, -632, 547, -54,
   -290, 127, -1521, -1167, -157, 71, -206, 931,
   -1405, 325, 1259, 1707, -540, 474, 921, -315,
   3635, 2059, 55, 1165, 917, 225, -843, -827,
   1538, 1260, -2327, 3204, 2125, 1579, 53, 1739,
   834, 2003, -474, 544, 1442, -58, 1703, -2348,
   178, -385, 680, -74, 1122, -404, 1076, -1916,
   902, -898, 1276, -91, 1174, 1181, -513, -630,
   -952, 1408, 27, 1312, 732, -1302, -188, 1741,
   -237, 85, 726, -908, 1806, -1319, -782, -69,
   390, -131, 1259, -45, 281, -1012, -568, -1796,
   -229, -168, -85, -1231, -123, 41, -1215, -335,
   -1142, 325, 102, 333, 1888, -1137, -1227, 1004,
   -624, -585, 733, 212, 613, -173, -489, -18,
   1032, -42, 577, 1404, -339, 1622, 245, 1419,
   290, 235, -1547, -51, 1185, -692, 339, -445,
   492, 593, 542, 530, 1004, 80, -436, -944,
   376, 1002, -155, -233, 194, 294, -26, 863,
   348, 732, 1091, 373, -71, -627, -660, -447,
   682, 1276, -1170, -9, 619, 653, 1247, -1401,
   -1786, 1757, 952, 442, -1027, -1013, 1888, -473,
   1674, -548, -540, 69, 1040, -675, -798, -104,
   -19, -241, -108, 1925, 1497, -2124, -1639, 622,
   -2130, 352, -1150, 1145, 420, -2019, 53, 619,
   -87, -142, -742, 338, 71, -862, 526, 688,
   651, -1136, -361, 206, 1138, -866, 708, -2378,
   -342, -77, -567, 592, -694, -2136, -183, -630,
   728, 1349, -454, 409, 1325, -1369, 518, 470,
   -324, -13, 1210, -711, 435, 134, -39, -54,
   -1184, -473, 769, -982, 294, -140, 725, 548,
   -614, -1724, 155, 826, 1493, -1719, 264, -408,
   857, -855, 101, -1453, 2500, 365, 121, 352,
   -511, 452, -238, -958, -357, 199, -303, 469,
   -268, 145, -568, 931, -574, -111, 1085, -251,
   181, 1582, -1224, -934, -727, 2054, -438, -835,
   1472, -1198, -605, 556, -92, -517, -454, 867,
   601, 821, 158, 239, 1401, -336, -91, 1244,
   -1435, -781, -956, 957, -584, 423, 155, -53,
   -234, 1489, 696, 45, 495, 278, -2306, 690,
   -841, -383, -1074, -108, 1115, 845, 1569, -589,
   -446, 518, 716, 1362, 150, 1392, 629, -927,
   1381, -351, 1740, -235, 1530, 973, -200, 269,
   669, -1593, -141, 599, 336, 76, 199, 1169,
   266, -124, 270, 657, -111, 255, 1043, 366,
   -724, 388, -454, -271, -72, -125, -431, -1369,
   987, -920, -66, -149, -793, -902, 373, -656,
   973, 15, 170, 448, -1043, 15, -403, 1366,
   -535, -158, 604, 615, 1237, 1100, -1626, -747,
   1205, 295, 437, -713, 293, 1494, -331, -953,
   -773, -348, -23, -961, -2315, -391, 2916, -469,
   580, 110, 100, 993, 365, -605, 1293, -1285,
   765, -290, -491, -244, 540, 52, 537, -805,
   126, -418, -473, -550, 1452, -526, 1410, 1073,
   -891, -763, -4, 216, 476, -673, -68, 1774,
   -506, 812, 379, -114, -202, -38, -376, -541,
   256, 785, 534, 902, -787, -143, 217, -573,
   207, 1440, 1181, -1285, -1356, 114, 369, -1615,
   1519, 867, 578, 1017, -252, 890, 163, -1148,
   758, -234, 718, -753, -370, -553, -1771, -399,
   732, 1672, 1278, -177, 375, 278, 575, 1187,
   451, -626, 993, 101, 1050, 1273, 1293, 402,
   -95, 124, 466, -53, -1479, -2087, -872, -959,
   -259, 1928, -1253, -26, -610, -851, 510, -1464,
   717, -400, -241, 754, -767, -1580, -582, 1247,
   637, 139, -16, 1697, -1685, 128, -310, -331,
   738, 1242, 357, 739, -581, -1251, 1360, 42,
   -1180, -1150, -256, -497, -803, 101, -1949, 656,
   -2588, 742, -784, -414, 435, -1623, 1475, 1109,
   -897, 317, 644, -279, 1738, 1024, -591, -556,
   321, -71, -558, -392, -538, 394, -1868, -379,
   860, 1005, -916, 724, -644, -939, 1349, 710,
   663, 438, 439, -821, 225, 409, -1285, -355,
   1896, 1996, -1036, 1648, 916, 530, 271, 263,
   -32, 1083, 129, 1931, 813, -628, 346, 287,
   -1018, -1611, 103, -884, -887, 637, 1657, -86,
   1048, 722, 965, 1120, -381, 936, -111, -889,
   -311, 3108, -2262, 1576, 2996, 1501, 156, 451,
   -607, -415, 1078, -484, -480, -1299, -959, 1239,
   481, 125, 580, -274, 1793, 826, 847, -2201,
   705, -575, 67, 413, 716, 1140, 441, 138,
   -337, 1314, 436, -1116, 471, -440, 255, 79,
   777, 1072, 1222, -1390, 1815, 302, -715, 1197,
   -980, -793, -239, 1403, 143, -786, -1110, -457,
   -659, 261, -30, 126, -486, 480, 838, -477,
   -855, -991, 130, 1237, 64, -426, -1579, 602,
   -1384, 412, -1193, 96, 1439, 490, 1063, 77,
   914, -445, -980, 901, 1395, -1309, -1056, 1024,
   -100, -760, -115, 1950, 644, 4, 870, 170,
   -1562, -1301, -320, 1108, -874, -1089, -549, 981,
   -1312, -304, 561, 141, 423, -325, -1069, 789,
   -623, -453, 989, -871, -1955, -360, -1045, -607,
   -19, 1080, 637, -535, 951, 464, -710, 48,
   348, -1908, 321, 662, 770, 213, -496, 14,
   -1560, -176, 293, -1087, 542, 612, -510, -1370,
   106, -600, -2139, 1891, -1204, -3034, -198, -163,
   -307, 1304, -908, 249, 206, -2477, 592, 452,
   1046, -349, 1086, -686, -752, 522, 330, -1579,
   -639, -862, -1091, -782, -257, -988, -664, -1399,
   4, -199, 81, -90, -47, -205, -69, -317,
   599, 141, -608, -966, 2241, -385, -205, 536,
   319, 22, 515, -700, 693, 145, -202, -1530,
   -965, 330, -889, -1004, -298, -571, 388, -353,
   -1536, 374, -411, 297, 619, -637, -1896, -514,
   -551, -726, -929, 111, 51, 561, 179, 544,
   -365, 197, -412, 508, -789, 129, 880, -16,
   -71, 413, 875, -268, 234, 373, 69, 470,
   -935, 1532, -686, 149, 1295, 1270, -518, -675,
   49, 107, -1149, -18, -125, -88, 415, -873,
   667, 745, 83, -1826, 1090, -1180, -309, 118,
   -761, -171, -301, -631, -855, -87, 210, -1367,
   -832, -298, -576, 741, 297, -762, -622, 1684,
   -1434, -2243, 778, 813, 205, 258, 274, 31,
   -222, 254, 442, -465, -917, -2385, -679, -1082,
   -741, 113, 370, 473, 1499, 1514, -1958, 1173,
   455, -176, 239, -250, -1570, -782, 2310, 3775,
   -79, 34, 1494, 598, -1769, 1140, 1084, 727,
   540, -655, -739, -730, -1202, 645, -812, -2595,
   -944, 627, -740, -658, -701, 702, -506, -411,
   -513, 682, -233, 556, -275, 1376, -1033, 1439,
   -265, -693, -791, 391, -209, 961, 1009, -162,
   405, 254, 229, 1410, -581, 1034, -550, -1806,
   -380, -108, 645, -7, 81, -2, 27, -1106,
   -1281, -264, 1033, -236, 361, 181, -605, -1556,
   -100, 1264, -562, 51, -532, -309, -668, 830,
   1514, -1679, -18, 1580, -187, -876, -678, 148,
   -639, 251, -38, -635, 155, 41, 659, 2123,
   44, 227, 168, -151, -493, 1294, 708, 90,
   -111, -717, 599, -1627, -739, 961, -33, -527,
   -885, 1352, -38, 661, 1892, -401, 633, -28,
   2435, 3127, -1429, -846, 1061, 2143, 1427, -142,
   -3164, -868, 193, 316, 2428, 2917, -760, 81,
   -25, 354, 385, -23, 252, -2199, -434, 1200,
   -280, -468, 890, -137, -10, 657, 1213, -630,
   901, -740, 2235, -688, 2072, 1376, -641, -373,
   -1966, -448, 283, 695, 810, -951, 1195, -259,
   -259, -1358, 731, -319, 147, -840, 373, 429,
   1147, -324, 270, -387, 703, 876, 1031, -453,
   1123, 1468, -595, -1781, 887, 215, -869, 623,
   -716, 316, -526, 265, 1000, -2711, 1654, -2357,
   -1270, -1398, 1713, -720, 117, -902, 816, -1485,
   449, -856, -391, 614, 730, -180, -518, -432,
   -769, 244, 625, -1209, 317, -227, -337, 921,
   -146, 200, 1258, 160, 1140, 333, 2028, -504,
   -267, -1087, 483, -243, 375, -161, -87, -1137,
   -197, -916, -335, 567, -994, -68, 1018, -708,
   959, -77, 1145, -639, -341, 682, 1565, -2138,
   -1938, -871, 1013, -40, -857, -975, 583, -474,
   558, 1687, 883, 588, -296, 501, -365, 28,
   -603, 718, -660, 1060, -189, 435, -411, 601,
   80, 1247, 186, 856, -750, -858, 837, -394,
   624, 119, -457, 679, 1381, 96, -251, -793,
   -1111, -698, -7, 1159, 947, 2004, 660, 387,
   -429, -420, 430, 1341, 1236, 252, 169, 1424,
   -527, -262, -618, -1574, 893, -956, -288, 210,
   1727, -362, 848, -556, 411, 254, 78, -351,
   141, 800, 456, -1230, -215, 555, -557, 191,
   416, -49, -391, 1554, 1282, -1265, 755, -176,
   1215, 300, 797, 174, 1764, -242, -1101, 157,
   1768, -1522, 87, -728, -1044, 208, 161, 632,
   828, -442, -175, -1014, 766, -887, 594, 338,
   -976, 667, -622, 414, 1702, 326, 227, 1127,
   -646, 112, 381, -1217, -1240, -964, 50, 496,
   -582, -384, 58, -564, 1393, -14, 999, -665,
   -73, -1018, -160, 1134, 1087, -1341, -1233, -1467,
   -861, 675, -515, 858, 866, 886, 440, 2680,
   641, -463, 1844, 2636, 412, -550, 2033, 156,
   594, 1506, -1253, 477, 3396, 26, 937, 1417,
   462, 1154, 611, 645, 790, -969, 526, 230,
   236, 1439, 1966, 89, -41, 734, -1065, -330,
   -1842, -15, 68, -1350, 911, 56, -631, -607,
   -635, 1083, 1395, -718, -635, -12, -1652, 804,
   102, -218, -657, 459, -903, 504, -231, 330,
   543, 1108, 521, 743, -348, 254, 88, 78,
   653, -525, -2416, -1067, 173, -1460, 313, -23,
   -1297, -1124, -1179, 234, -690, 882, -924, -764,
   513, -1486, -1558, 119, -57, -1617, 379, 1043,
   883, -121, -428, -1097, 287, 1023, -56, -742,
   -1326, 58, -548, -538, 22, -68, -2248, 526,
   421, 192, 447, -1335, 241, -757, 46, 337,
   -761, -580, -297, 59, -1914, -284, 1505, 2038,
   -402, 166, -693, 1072, -1154, 963, 501, -351,
   199, -425, 699, 1225, 965, -1482, -396, -1589,
   -766, 2487, 1582, -2280, -1739, -868, -955, -1913,
   166, 427, 892, -485, 1690, 57, -1982, 1172,
   -701, 814, -341, 2548, -35, 85, -314, 1495,
   -1786, 971, -1258, 493, -644, -2504, 232, -1432,
   -681, 975, 281, 1126, 997, -391, 1355, -314,
   1294, -336, -36, -464, 1817, 613, 636, -1731,
   2102, 325, -866, 140, -1877, 62, -534, -589,
   -613, 20, -162, -179, 1484, 215, -1869, 957,
   -67, 745, 1005, 473, -313, -216, 315, -1715,
   -473, 1280, 775, -76, -46, -587, 1417, 840,
   -304, -1448, 1005, -718, 769, -1381, 580, -1144,
   829, 326, 343, 152, -375, -220, 173, -627,
   2142, -308, -996, 15, -708, 969, -1086, 942,
   531, -466, -1148, 1919, -1340, -1217, -418, 922,
   -1036, 52, -256, -1287, -871, 107, -605, -676,
   935, -1299, -1359, -32, -349, 1019, -1078, 1012,
   -293, -186, -744, -1087, 883, 765, -707, 184,
   865, 720, -383, -323, 595, -294, -365, 281,
   -538, 241, -1364, 1132, -615, -198, -1833, 1902,
   -248, -1509, 169, 1077, 258, -244, 1287, 214,
   -543, 1431, 698, -2582, -552, 2422, 1326, -1287,
   135, -1143, 444, -2286, -164, 1565, -299, -329,
   -1569, -159, 1152, -139, 522, -581, 1251, 1939,
   -705, 621, 2016, 85, -672, 440, 1333, 2563,
   -456, -589, 508, -833, -3, 1747, 293, -1021,
   -1608, 305, -643, -404, -1995, 83, 264, -677,
   -33, 782, -173, -1037, -559, -401, -582, 1013,
   -248, -1312, -274, 225, 1043, 1521, -152, -494,
   1295, -700, 346, -277, -82, 2267, 1393, 361,
   -446, -488, -828, 647, -1205, 208, 495, -253,
   -561, 9, -766, -595, 309, 300, -747, 68,
   -167, 52, -581, 125, -261, -157, -18, -640,
   737, -2369, -167, -186, 36, -2067, 1323, -158,
   -673, -486, -411, -868, 261, 113, 286, -825,
   -383, -86, 845, 397, -924, -1148, -16, 717,
   -1283, 453, 560, -674, -258, -1226, 197, 1658,
   77, 2698, 527, 2645, 1136, -568, 621, 159,
   624, -906, 653, 1211, 1517, 1148, 1010, -1981,
   769, 1131, 967, -113, -558, -371, -729, -822,
   -29, -841, -1613, -365, 231, -173, -64, 1025,
   1210, 590, 1545, -173, -2021, -623, -508, -389,
   -9, -346, 298, -723, 1353, -244, 2, 714,
   -32, -1496, 371, -7, -182, 49, 1029, 604,
   152, 234, -2170, 281, 762, -1040, -1412, -532,
   1279, 105, -731, -1568, 685, 265, 730, 1601,
   742, 514, 1277, -43, 640, 1622, -1431, 704,
   165, -278, 339, 324, 635, -384, 1825, -777,
   -256, -24, 622, -426, 1327, -528, -630, -1161,
   561, -909, 1204, 850, -1375, 1071, 1169, -264,
   870, 161, -78, -318, 1455, -979, 1266, -77,
   -688, -152, -221, -834, 709, -789, 1130, -919,
   -1048, -955, -920, -1379, 90, -922, 1512, 290,
   -1124, -1200, -473, 388, -980, -66, -564, 736,
   672, -289, -720, -1536, -271, 797, -841, 974,
   -1442, -1647, 185, 464, -834, 216, 783, 465,
   320, 839, 1844, -52, -1496, 1175, -26, -564,
   975, 111, -1788, 1389, -54, 1048, -2027, 118,
   -861, -1812, 2109, 1018, 1457, 20, -41, 679,
   -595, -1155, 1869, -312, 343, 758, 1035, 184,
   -1108, -633, -849, 450, 747, 112, 372, -764,
   -1828, -430, -155, 912, -228, -91, -873, -372,
   386, 103, -97, 279, 2556, -897, -56, 640,
   882, -488, 640, 1160, 1712, 1010, 116, -961,
   -344, 386, -447, 1206, -401, 731, -353, 231,
   -1215, 221, 47, 1090, 278, -978, -374, 1053,
   -1825, 676, -1488, -233, 114, 1056, 4, -326,
   51, 194, -755, 684, 1429, 944, -293, 1464,
   -120, -400, 1022, 92, -768, -1237, 676, 922,
   -799, -172, -252, 881, 421, 1087, -1360, 336,
   -293, 1535, 164, 84, 144, -904, -750, -690,
   -496, -341, 847, 538, 1219, 558, 594, 1249,
   -503, 273, 112, 287, -108, 528, -929, 574,
   -1077, 779, -39, -3, -223, -456, -186, -860,
   290, 517, 593, -317, 365, 275, -811, -355,
   18, 425, -2163, 1939, 268, -1803, -845, 837,
   -1392, -425, -63, 645, 312, -1324, -147, -731,
   -280, 333, 1123, -250, 833, 723, -523, -761,
   954, -1046, -224, -782, -1480, 1089, 148, -284,
   -834, -798, 794, -639, -77, 1256, 358, 638,
   557, 567, 117, -629, 693, 210, 779, 465,
   -456, -1098, -856, -357, 1071, -1083, -981, 80,
   77, 319, 54, -747, -37, -907, 1221, 71,
   -492, -483, 624, 1952, 587, -115, 263, 886,
   -1472, -304, 426, 465, 1415, 667, 794, 1206,
   -989, -1235, -758, 1040, -436, -527, -377, -75,
   786, -1165, -529, 1379, 623, -1512, -1092, 195,
   -255, 480, 22, -766, 937, 970, -1336, -429,
   246, 69, -130, 215, -53, -1232, 776, 616,
   908, -436, 403, -382, 28, 1038, -1140, 712,
   -590, -687, -1136, 864, -100, 363, -57, -791,
   2540, -676, 1101, 408, -204, 210, -686, 767,
   -398, -41, -391, 154, -259, 310, 491, -217,
   -635, -724, 1586, -3279, -1428, 1629, 1137, -152,
   -512, 201, -1504, -215, -432, 3445, 252, 375,
   -61, 574, -690, 192, -2417, -306, 499, -504,
   859, 943, 1182, -714, 189, 658, -1073, 500,
   1327, -318, 57, -158, 41, -666, -400, 197,
   86, -793, -18, 449, -1106, 284, 533, 370,
   -822, 468, -266, -590, -754, -118, 924, -154,
   48, -263, 628, -172, -729, 498, -611, -321,
   578, 378, 143, -658, -572, 1126, -140, 1490,
   -631, 570, -220, -229, -56, -707, 750, -1183,
   -966, 293, 1500, 664, -480, 141, -1069, 708,
   -181, -390, 1208, 774, 498, -427, -560, 180,
   686, 27, 1621, -809, 1318, -1077, 769, -1488,
   320, 831, 1336, -946, 563, -13, -361, -181,
   -1085, 685, -977, -390, 151, -86, -739, 498,
   1074, -1, 266, -265, -1739, -386, -1354, -235,
   1697, 253, 413, -34, 1059, -210, -5, -385,
   997, 901, 104, -815, 489, 951, 494, -118,
   -238, -348, 2929, -1342, 80, -323, 1219, 202,
   -105, -1262, 392, 41, -372, 645, 24, -331,
   78, 1364, 574, 539, -382, -603, 532, 1373,
   -571, 649, 197, 1233, 153, -1569, 5, 1386,
   -261, -35, 166, -502, -961, 438, 54, -2016,
   -1383, 603, -617, 1089, -1641, 206, -655, 808,
   -223, 358, 90, -1169, 895, 292, 285, 1070,
   353, 605, -199, 90, 135, 1365, -114, -637,
   144, 1945, 792, -2018, 215, 273, -259, -142,
   1160, -191, -610, 39, -1383, -633, 282, -1089,
   433, -407, 1061, 655, -1448, -639, 694, -320,
   446, 556, -868, 494, -239, 1544, 1418, -929,
   678, -51, -628, -295, 1149, 819, -680, -628,
   507, 294, 1088, 1147, 958, 582, -747, 1449,
   1169, -807, 813, -589, 335, 800, -525, -124,
   -1307, 610, 471, 409, -401, 1443, -952, -301,
   -271, -829, -248, -1384, -1306, -207, 1097, 589,
   519, 728, 2541, 1312, -1746, -838, 46, -1274,
   1353, 1074, -2815, 2188, 2463, 2619, -855, 817,
   2097, 3526, 143, 810, 631, -468, 634, -99,
   -1741, -2541, -1353, -628, 1586, 1801, -2020, -1566,
   -324, -701, -361, 723, 301, -710, -2193, -662,
   333, 267, 1502, 1112, 1005, -818, 403, 958,
   71, -587, 690, -1155, 903, -170, 1127, 360,
   310, 300, 1167, 1150, -245, 294, -995, -1574,
   -722, -57, -940, 1280, -133, -582, 114, -587,
   45, -55, -438, 1361, -1195, 460, -404, 273,
   -414, -482, -1326, -1284, 651, -264, -234, -717,
   1045, -1172, 780, 542, -1148, -877, 331, -1087,
   1253, 791, -1608, -972, 1203, 118, -408, 1371,
   42, 1049, 711, -257, -982, -154, -70, -162,
   -305, -489, -422, 713, -957, -882, 364, 1469,
   1178, -601, -1143, -217, -1581, 1482, -1161, -72,
   747, 356, -153, 502, -34, -631, 42, -707,
   2042, -857, -236, 77, 1062, 1120, -2041, 1027,
   61, -1265, -1067, 255, 525, -179, 1636, 1181,
   1565, 1973, -163, -584, 1139, 1490, 614, -93,
   1450, 1391, 571, -768, 1547, 56, 613, -509,
   217, -394, 1045, -336, 1066, -199, 1587, 312,
   -374, 394, 1936, -435, -900, 112, -1160, 1796,
   68, -131, -333, -1400, 191, -387, 1394, -504,
   -802, -489, 400, 518, 368, -151, 1929, -682,
   556, 850, -330, -290, -265, -25, -1257, -403,
   913, 192, 46, 1245, 80, -527, -725, -642,
   45, 80, 173, -1180, -678, 613, 1596, 27,
   957, 49, -876, -637, -1695, -198, 270, -362,
   -183, 236, -96, -1260, 125, -496, 688, -73,
   -371, -212, 363, 1012, -1147, -81, -1060, -298,
   784, -1674, -1293, -467, 150, -2163, 1247, -410,
   -841, 302, -406, 1736, -435, -247, 603, -82,
   -487, -1131, 627, -1596, -2156, 537, 624, -122,
   -123, 286, 972, -331, -109, 170, -167, 753,
   -1540, 1637, 446, 1996, 820, -610, 757, 765,
   -644, 303, -1233, 879, -320, -117, 1525, -2291,
   2516, -557, 2256, 24, 1015, 1695, 28, -1216,
   -108, -862, 1779, -510, 1526, -1303, -959, 1179,
   -256, 395, 649, 727, -48, 759, 456, 2906,
   1366, -41, -1494, 355, -588, -614, -1354, 1811,
   -920, -1347, -988, -225, -1494, -463, 59, -2086,
   185, 17, 137, -712, -1549, -154, 1342, 229,
   180, 246, 432, 902, -44, -83, 433, 892,
   736, 558, -66, -183, -140, 1648, -576, -1634,
   -645, -209, 335, -3018, -511, 621, -1057, 1,
   -45, -426, -1315, -165, 638, 1046, 1908, 919,
   -106, -559, -321, 788, 1519, 1082, -1729, 1307,
   -779, -519, 420, -308, 1234, 273, -2180, 252,
   1812, -637, 286, 365, 1010, -2345, 589, -912,
   418, 1452, 484, 1251, -510, 465, -511, 706,
   665, 251, 89, 1027, -871, -699, 1330, -83,
   -1116, 771, -1211, 1180, -1074, 73, -117, 147,
   -1699, 990, -1255, 159, -391, 245, -672, -1752,
   582, -206, 1428, 409, 188, 750, -827, 363,
   -1102, -1291, -883, 1135, 157, -3348, 421, -198,
   138, 806, -818, 612, 580, -749, -232, 90,
   -697, 811, 369, 739, 35, 4, 152, -948,
   1042, -1111, -526, -505, 1340, -1377, 269, 42,
   -708, 847, -354, -1077, -152, -654, 281, 192,
   -452, 417, 987, 4, 275, 519, 409, 455,
   -208, 409, 1516, 94, 188, -908, -217, 262,
   -627, 469, 579, -759, -739, -1248, 130, 985,
   610, 1096, 1535, 334, -130, 187, -436, 194,
   -431, 342, -621, 475, 1462, 241, -896, 592,
   642, -1401, -269, 1340, 1090, -1178, 1028, 1298,
   1263, -254, -199, 603, -1290, -513, -1174, -209,
   -1247, 166, -317, -591, 166, 1502, -178, -649,
   2330, -523, -733, 677, -319, 1061, -644, 774,
   616, -12, -24, -467, 1374, -859, 858, 521,
   -226, 39, -170, 320, 425, -644, -1177, 815,
   795, 359, 421, 225, -286, -89, 51, -915,
   441, -1043, -435, -381, 566, -1581, -640, 129,
   -1078, 273, 1600, 731, -247, 349, -1250, 353,
   -784, -688, 323, 668, -21, 34, 655, -458,
   623, 380, -530, 1137, 377, 2193, -554, 69,
   606, 2322, -534, -773, 209, -174, 92, -949,
   564, 88, -1578, -1125, -608, 717, 44, 410,
   -1064, -934, 1680, -307, -1393, -554, -812, -88,
   744, 206, 553, -604, 175, 1159, -866, 1197,
   297, 1376, -960, -7, -1413, 284, 178, -395,
   -387, -235, 747, -554, 1208, -730, 1090, 365,
   413, -5, 970, 112, 724, -70, -444, 647,
   218, -810, -566, -1209, -757, 493, 922, -283,
   405, -470, -416, -132, 917, -789, 1114, 409,
   -31, 45, -611, -532, 316, 299, 571, -410,
   268, -569, 1677, -29, 259, -709, 229, -619,
   -400, -830, 1140, -812, 204, -423, -578, -311,
   -357, -344, 460, -14, -620, -367, 206, -241,
   -82, 826, 520, -822, 1411, -32, -632, 1356,
   1030, -1297, 881, -616, -816, -941, -1502, -465,
   -1836, 7, -2172, -156, -706, -1338, -1754, 682,
   -671, 792, -1583, -131, -1149, 495, -341, 599,
   -1068, -917, -104, 989, 761, 323, 341, -454,
   510, -531, -423, 110, -332, 280, 542, 1463,
   40, -964, -320, -1162, 1098, 622, -1224, -734,
   -71, 1147, -272, 1739, 24, -264, -1250, 898,
   -65, -1169, 273, 1369, -1237, -143, -1057, -373,
   675, -540, 365, -1362, 1452, 836, -1483, 571,
   -1132, -1010, -268, -340, -114, -2594, 586, -987,
   785, -1072, -856, -385, 186, -637, 1106, 826,
   804, -278, -651, 677, 105, 1148, 51, -950,
   -539, 94, 1271, 704, 1233, -1507, 1132, -1560,
   -1140, 831, 1770, 907, 395, 579, 759, 306,
   -1106, -531, 396, 1254, 124, -200, -668, 1272,
   1242, 1476, -735, -916, -588, -1215, 340, 881,
   -935, -34, 447, 3, 235, -608, -1420, -298,
   808, -447, 767, 313, -1983, -993, -562, -187,
   581, 189, -1601, 205, -514, -736, -821, 159,
   -1131, 422, 609, -44, -1000, -484, 776, 190,
   263, -24, -543, -838, 1355, 255, 594, -111,
   871, 81, 1762, -207, -216, 1921, -66, 387,
   507, -372, 1119, 1021, -126, -246, 217, -1183,
   -178, 562, 655, -1076, -494, -50, -1155, -496,
   -1568, -1680, 939, 2456, -180, -2238, -569, 520,
   2613, -1287, 1278, 383, -798, -349, 1343, 1331,
   1053, -476, 893, -1338, -1378, -538, -1008, -200,
   -1252, -988, -1680, -899, 2148, -932, 86, 78,
   865, 1385, -829, 993, 336, -1748, 314, 510,
   -1920, 625, -229, -853, 467, 848, 374, 1078,
   248, -498, -964, 447, -236, -1148, 924, -1450,
   -830, 153, -977, -781, 944, 1201, 203, 841,
   -138, -1178, 1303, -847, -1556, -224, -135, 95,
   1099, -904, 499, -838, 274, 517, 1755, 1089,
   6, -548, -274, -445, -535, -71, -2859, 609,
   841, 17, 102, -792, 1015, 260, -1161, 965,
   -526, 9, 690, 166, -138, 20, 748, -1002,
   749, -242, 1345, -336, 6, -967, 651, 1576,
   572, -693, -443, -221, 1836, 424, 2039, 338,
   -818, 247, -56, 1890, -1023, -794, 388, -1552,
   -226, -1504, -1472, 559, -2388, -138, 1112, 794,
   -581, 494, -70, -338, 1901, 195, 898, -3540,
   546, -1388, -88, -214, 587, 190, -1087, -589,
   883, -174, 219, -1336, 1237, 1327, 1609, 59,
   -498, -1129, 588, -1373, -230, -1201, 551, 1279,
   -2319, -560, 223, -143, 1189, -1393, 1103, -2312,
   -155, -133, -249, 1436, -808, -1750, -171, 77,
   -777, 614, -72, 675, -330, -490, 211, -1304,
   -67, -741, 1110, -147, -631, 722, 741, 1488,
   -520, 1504, 656, 837, 632, -645, 103, 23,
   -939, 2008, -726, -1721, -1063, 578, 135, 765,
   -1264, 767, -14, -160, 747, -1179, -216, 719,
   852, -1139, -5, -486, -237, -1196, -2302, -1327,
   -395, 2, -486, 25, 282, -1276, -285, -1573,
   -246, -472, 1410, 435, -557, -838, -571, -1864,
   -49, -542, -634, -382, -667, 383, 53, -683,
   -680, -92, -460, -746, 950, 551, 971, -362,
   2091, -2031, 422, 608, -231, 696, -697, 186,
   -1057, -403, -1128, 1176, -284, -1221, 251, 255,
   193, 1383, 342, -286, -1757, -985, -2313, 779,
   -838, -1257, -70, 1807, -2408, -991, 131, -2142,
   -666, -1874, -740, 995, -2188, -127, 1189, 1619,
   739, -710, 56, 1576, -1019, 329, 566, -475,
   -684, -3251, -1467, 913, -4, -1314, -787, -1377,
   -1172, -1480, -475, -1510, 298, 2055, 130, 2181,
   -633, 245, 269, 213, -1590, -577, 115, 1566,
   831, -86, 1348, -1032, 221, -1227, 347, 406,
   -135, 643, -1103, 422, 546, -1160, 633, -1313,
   382, -1489, 1428, 581, -916, -498, -753, -727,
   -659, -1302, 60, -422, -236, 162, -605, -1221,
   1089, 5, 1989, 40, 31, 667, -1282, 1005,
   -231, 477, 522, -56, -32, -650, 372, 2177,
   1574, 1066, 2859, -56, -10, -636, 1136, -624,
   -997, -1605, -510, 1805, 137, -1083, 251, -1655,
   607, -430, -227, 476, -263, 491, -685, -236,
   -126, -654, 1485, -1712, -234, -583, 211, -131,
   396, 1188, 423, -270, -509, 1112, -157, 354,
   -138, -54, 369, -56, 951, -2349, -426, -2043,
   -1414, 103, 22, 1143, 2687, 698, -353, -2337,
   -1287, 493, -1530, -2064, 808, -46, -2290, -1022,
   -2338, -57, 2873, -506, 633, -353, 963, 2476,
   197, 583, -2377, -487, 627, -2004, -1961, -1062,
   576, -1234, 2140, 1897, -483, -144, 974, -1360,
   1787, 474, -902, -395, 916, 349, -1321, -638,
   -1296, 1275, 336, 132, -947, -560, 752, -1296,
   -701, 1432, 1590, 901, -841, -1185, 1142, -1585,
   -653, 1075, -508, 946, -282, 262, 1248, -1038,
   -231, 135, -359, 1224, 514, 1341, 821, 706,
   -245, -1071, -1298, 418, 811, 206, -1696, 367,
   -516, -682, -1416, 2362, -1445, -1511, 951, -2192,
   3386, -1223, 41, 360, 1104, 507, -903, -2253,
   506, 1880, 330, 1758, 619, 2078, 1812, -3621,
   -1645, -86, -2604, 517, -1213, 997, 41, -1644,
   198, 1993, 139, 56, -1532, 1744, 1680, 671,
   -327, -1456, -3129, 391, 1416, 2008, 216, -500,
   809, 1868, 377, -839, 403, 1507, 58, 2821,
   221, -2655, 890, -1363, -3106, -2643, 2353, 2261,
   2281, -698, -297, 1134, 465, 2091, -1464, 1148,
   -252, -154, -800, 1971, -566, 637, 588, 1169,
   -823, -406, 233, -1912, -339, 575, 1277, 1080,
   -3494, 718, -1213, 1514, -1529, 3777, 533, -2875,
   337, 483, 981, -1065, 1452, 461, -763, 2733,
   -1196, -215, -1759, -1825, 450, -754, -209, -927,
   904, -74, -2311, -2276, -724, -898, -163, -1649,
   466, 2527, 730, 177, -640, -1482, 2542, -167,
   -282, -225, -168, 4606, -3037, 1248, -857, -2169,
   1945, 1015, 23, 1135, -2232, 1511, -1274, 1425,
   2443, -225, -2326, -1066, -885, -1635, 2260, 2347,
   -81, 230, -387, -1249, 1462, 2734, -384, -3873,
   -44, 4653, -2692, 2859, 1249, 3039, -1062, -1651,
   473, 465, 1979, -708, -716, -1390, 76, 1504,
   1540, 952, 987, -2083, 1603, 204, -267, 571,
   -1287, -397, -2314, 332, -2311, -272, -991, 496,
   -3548, -832, 1334, -1964, 398, -2431, 1224, -1883,
   -2546, -308, 1306, -1584, 1547, -1708, -3495, -3498,
   -7815, -2205, -506, -192, 410, 1215, -200, -96,
   -1721, 260, -961, 1210, -291, 936, 2379, 3633,
   3290, 194, 2188, -1428, 848, -412, 1266, 662,
   -2904, -569, 1909, -362, 192, 3129, 162, 2454,
   -4862, -775, -367, 671, 893, -1342, 160, -3033,
   -825, 579, -1099, -1206, 622, 535, 2390, 361,
   2032, 249, 1595, 2962, -261, 1947, 1468, 360,
   686, 3511, 2190, -658, 553, -734, -1454, -788,
   -1385, -2139, 652, -2193, -1646, 4506, -360, 2043,
   503, 3753, -1114, 1626, 1932, 472, -4651, -401,
   271, -228, -3036, -1276, -1054, 84, 1972, 156,
   972, 2088, -915, 6025, 1325, -1813, -1263, 1205,
   1670, 1843, 335, 2073, 665, 4158, 1558, 707,
   -5537, -1528, -1259, -679, 1842, -763, 912, -682,
   797, 2875, -1179, -960, 182, 378, 439, -1153,
   -659, -1942, -946, -2185, 1116, 2533, -1312, -1427,
   2561, 1060, 2072, -3417, 862, 1374, 1844, 1118,
   -1577, -1220, -241, 847, -4307, -560, 2719, -1915,
   -4390, 1766, 787, -379, -1130, 814, -586, 449,
   -442, 575, -436, -1805, -1420, -804, -745, -68,
   593, 527, -1770, -3550, 1247, -1459, -2278, 2648,
   -5707, -381, -1554, 564, 1633, 6678, 1219, 1690,
   2209, 1507, -773, -138, 2610, -2417, -2661, 2767,
   -132, -40, 1280, -445, 246, -70, 569, -1143,
   84, 102, -793, -1228, -1565, 2598, 1121, -2843,
   2656, 2344, -339, -1076, 915, 45, 6483, -1529,
   -801, 1495, 133, -207, 65, 1717, -2022, -40,
   1108, 1507, -1374, 354, -1152, -1031, -2557, 1176,
   -2240, 553, -2521, 1112, 1759, -2091, 2558, 4494,
   -2279, -457, 14, 390, -841, 1394, 450, -1356,
   506, 2256, -3212, -1959, 48, -779, -783, -1190,
   -856, -983, -992, -513, -786, 2125, -1455, 1415,
   1637, -146, 1145, -244, 514, 180, 425, 222,
   -1653, -94, -1729, 553, -2929, 72, 1836, 694,
   -2464, -735, -530, 945, -854, -284, 1458, -2529,
   -794, -699, 2527, -2498, 805, -1502, 1572, -530,
   -4268, 1025, 2750, -171, -541, -995, 618, 346,
   -552, 1762, -608, -851, -879, -10, 2370, 499,
   1782, 3607, -311, -2719, -1200, 44, 4321, 1282,
   120, -577, -1042, 288, 1228, 2928, 366, 3434,
   -1578, 133, 200, 104, -1117, -17, 951, -2612,
   -883, 4529, -1345, -891, -464, 1673, 916, -1183,
   975, 409, -687, 478, -325, 1959, 1097, 44,
   2489, 1163, 2652, -1131, 1945, 1014, -1441, 66,
   40, -1362, -138, -1069, -3466, 3666, -2435, 55,
   1942, 1579, -1053, 2763, 195, 1211, -2697, 308,
   -358, 3156, -800, -22, -833, 1326, 72, -6083,
   651, 2397, -2916, 305, 517, -1323, -161, -292,
   634, 4360, 1345, -1277, 1376, 2542, 382, -137,
   -2496, 1076, -305, 652, -1582, 2128, 734, -3507,
   1648, -194, 1109, -1841, 294, -1107, 2760, -1862,
   1211, -690, -1373, -1584, 1152, 47, -732, 405,
   -614, -122, 2667, -1902, -1244, 1320, 280, 2404,
   19, -1167, -158, 1665, -884, -2478, -2098, 1303,
   407, -1925, -1681, 2066, -2721, -54, -3276, 3836,
   -951, 1249, 1141, 3436, -1558, 1445, 923, -1624,
   1828, 117, 1433, -5026, -528, -210, 2690, 1816,
   -337, -1407, 2577, -359, -759, 1467, 960, 1597,
   -797, 1751, 1506, -518, -2289, -1737, 492, 4901,
   -2196, -589, -970, 187, 247, 2215, 386, 772,
   -2241, -651, -1909, -2174, -3212, 104, 1294, -14,
   3436, 959, 811, 619, -692, -14, 3754, 798,
   -1126, 422, 2558, -2203, -2976, 1672, 1432, 797,
   -2026, 283, 387, -1302, -27, -1001, -1109, -1114,
   3885, -798, 243, 802, -894, 634, 1921, 1687,
   1873, 928, -301, 1040, 1325, -407, -1047, -436,
   879, 6592, -350, -1475, 4346, -323, -1596, 1042,
   -2229, 1405, 3409, 236, 415, 4136, 1226, -347,
   -316, 47, 2515, -711, -843, 1206, -2161, -219,
   2085, -1740, -528, 2215, 2508, 4266, -1423, 3057,
   -3573, -1403, -196, 642, -1833, 1346, -925, -1404,
   -1611, -1483, -606, 1466, 2189, 652, -1698, -2733,
   -4177, 1077, 578, 731, 1479, 1024, -755, 1611,
   -1371, -665, -1557, 1449, -56, 32, 1286, 33,
   1511, 1835, -698, 2976, 252, 2293, 2023, -90,
   2557, 335, -522, -355, 562, 4271, 3388, 4128,
   -1473, 522, 2967, 2542, -120, -1283, -2830, -2443,
   181, -325, -2189, 3768, 1097, 1443, -1308, -683,
   2158, -194, 997, 3961, -826, 1016, 482, 588,
   2186, 249, -546, -2717, -43, 1167, -1023, 160,
   1903, 371, -2668, -3535, -1477, 2566, -2361, 2986,
   1641, 4249, -1201, 647, 2912, 1815, 1046, -1089,
   -1301, 1730, -537, 777, 74, 1210, 1717, -797,
   1394, -427, -3389, -357, -750, -1043, -73, -1406,
   -1355, 1876, -741, -1975, -1364, 341, 1230, 2164,
   1567, 928, -427, 2140, -1522, 650, 1011, 43,
   -1357, -715, -624, 1747, 1601, -998, 19, -2115,
   -289, 71, 1663, 1827, -1219, -1336, 180, 581,
   424, -1540, -833, -531, -148, -1198, 102, 2691,
   624, 952, 74, -599, -2059, -219, -2095, -2834,
   -272, -1548, 1554, 1609, -951, 28, 55, -1252,
   -808, -491, 2071, 1395, -377, -765, -745, 446,
   2728, -2930, 1225, -2959, -1228, -350, -5540, -67,
   -24, -548, -431, -1797, -1700, -32, -52, 247,
   348, 441, 1459, 340, 1580, 342, 1364, 741,
   -1524, 1588, -195, 2797, -1110, -1800, -1742, 3356,
   -2515, -1402, -857, -2483, -2374, -251, 169, 2224,
   -388, 4420, 5574, 448, 678, -591, 3988, 500,
   1522, 2060, -1610, 368, -1514, 970, -1454, -1675,
   276, 1617, -370, -4, -1568, -348, 1232, -1586,
   -191, 835, 920, 4441, 2255, 4819, 882, 462,
   -1006, -3071, 1685, -5534, -2173, 1113, 2555, 3166,
   -267, 1615, -1420, -467, 1675, -467, -284, 1912,
   1282, 4107, -2630, 607, -122, 1556, -317, 309,
   -27, 636, 3596, -1757, 2778, 689, 229, -605,
   696, 266, -2068, -2146, 1178, -2265, -1369, 2433,
   -983, 70, 885, 1379, -67, -1399, -1538, -2092,
   400, -140, -1676, 152, 1857, -221, 2145, 1367,
   -525, 708, -274, 1140, 829, 169, -507, -1090,
   472, -497, 1447, 1621, -1359, 718, 1318, -3658,
   3657, -2720, -394, 1117, 77, 2658, 2632, -383,
   1407, 187, -45, -39, 42, -783, -971, -1376,
   566, -985, 1390, 931, 196, 158, 971, 677,
   1476, 1707, -3163, 2022, -1545, 3, -3972, -1671,
   1461, -1077, -2631, 1894, -899, 405, 4533, 1540,
   610, 1223, 1518, -755, -2212, 7, -1711, -2468,
   2095, -697, -757, -1847, 137, -1859, 1567, 489,
   -1965, 5363, -560, 739, 207, 935, -1565, -2366,
   -978, 1790, 2063, 2135, 1768, 1518, -3106, -787,
   -739, -332, -1624, -730, 608, 326, 1111, -3097,
   -337, 2230, 346, 3923, 624, 1353, -1899, 1586,
   3702, 4856, -745, 575, -305, 769, 2367, -2213,
   236, -563, 1160, -2177, 3513, -713, 1801, 263,
   1987, 973, 2740, -2570, -468, -1870, -1713, -466,
   -96, -1832, 1811, -72, 667, -3554, -2068, 1200,
   -1417, 2287, -1332, 827, -1511, -342, -2923, -185,
   1580, 2057, -2323, -1454, -4926, 2055, -2863, 135,
   354, 235, -406, 594, 127, 2312, 1383, -2311,
   1624, -786, -955, -1449, 1232, -1641, -3686, 666,
   -249, 512, 550, 1040, -1785, -2019, 1670, -1058,
   4770, -2772, 899, -3319, -1165, -1493, 1660, 692,
   119, 3768, -1597, 792, 592, -3723, -3756, 5560,
   -757, -1640, -2873, -2498, -4148, -2211, 586, 2463,
   -1812, 121, -621, -254, 1353, -150, -332, 646,
   364, 2407, -174, 27, 415, 2234, 1344, -1630,
   -94, 1963, -841, -280, 33, -237, 1286, -603,
   -1602, 2466, 174, 1335, 3495, 667, -1388, 1196,
   -126, 689, -47, -1829, -4933, 479, 3585, 405,
   3273, 2089, -550, 1164, 1198, -298, -1494, 1609,
   760, -1611, 1524, -1215, 356, 2759, -1982, -749,
   539, -1676, -33, 459, 428, -250, 1230, 799,
   1397, 1416, -738, -1317, 916, -2426, -399, -277,
   -1297, 1466, 810, -547, 874, 63, 709, 80,
   931, 466, -427, -1198, -652, -331, 123, -705,
   4084, 1551, 1053, -1340, -1995, 209, -1868, -1757,
   596, 827, 2886, 1612, -938, -381, -2169, -2543,
   -1375, -1378, -481, 1212, 225, 139, -468, -491,
   3612, 331, -2448, 370, -336, -3160, 1120, -2960,
   -301, -722, 3255, -1183, -1307, 1285, 262, -4248,
   276, 863, 1612, -1064, -1444, 2033, -1250, -2882,
   2120, -278, -2975, 2205, -1009, 464, 295, 1748,
   -1338, 41, -1786, 1208, -2147, -27, -1933, -833,
   1878, -603, 1727, 346, 526, -2421, -1271, 1458,
   -1190, -1516, 69, 1384, 2315, 1512, 2709, -2651,
   2822, -385, 1191, 325, 168, 935, -1219, 1086,
   -261, 3, 2693, -3546, -5829, 1532, -791, 1041,
   -435, -4031, -327, 1842, 1419, -1589, 261, 3862,
   5208, 351, -278, -105, 563, 732, -492, 1453,
   -1243, -1136, 3268, 651, 1027, -1135, 2461, -674,
   1911, 295, 3748, -841, 427, -2889, -4451, 118,
   -2550, -2032, 285, 2462, 728, 1337, 830, 1383,
   1998, 1895, -881, 1503, 16, -1332, -1243, 650,
   -188, -2651, -2164, -1703, -1563, 236, 1415, 2031,
   160, 597, -10, 2356, 149, -366, -743, 86,
   336, -1421, 324, 2953, 202, -1506, -5376, 2623,
   -881, 309, -1409, -908, 1531, -3876, -241, -725,
   2097, -2175, 275, -2241, -968, -1983, 3983, -1683,
   2698, 255, -1833, -890, 1023, -4047, -2783, 2539,
   1526, -3548, -1503, -2258, -2409, -2305, -479, 3174,
   672, 2802, 93, -770, -1584, -1017, -1049, -296,
   986, 3585, -1066, 58, 1505, -729, -2203, -1188,
   -1818, 2292, 1521, 1059, 673, -268, 442, -3331,
   1405, -1270, -701, -972, 1155, 4025, -2399, 705,
   -1887, -1696, 2012, -949, 503, -201, -516, 1055,
   822, 66, 432, 241, 3459, -1142, 1633, -442,
   -975, -1215, -1776, -2571, 561, 99, 771, -1396,
   159, 1431, 694, -204, -2251, -273, 4061, -1103,
   725, -8, -2163, -2247, 2041, -2081, -215, 565,
   -2653, 1600, 1275, -403, -2630, 1570, -1665, 488,
   489, 745, 131, 1417, 281, -724, 3217, 1659,
   1993, 2333, -1827, -1877, -2078, 2194, -306, 2679,
   734, -460, -939, 1190, -449, -42, 476, -952,
   -155, -41, -158, 689, 586, -485, 3820, -1096,
   1253, 161, -946, -32, 2315, -2218, 1339, -3009,
   -983, -1401, 2284, 502, -1938, -1580, -975, 415,
   2301, -701, -811, 165, -1191, -1318, -1361, -3195,
   2113, 232, -2250, -1304, -1502, -1731, -664, -834,
   -424, 2719, -1354, 2581, -695, 1534, 403, -249,
   -681, -2935, -290, -1356, 1936, -3423, -1587, 123,
   -1003, 1091, 1588, -610, -455, 1057, 6792, -3064,
   -2424, -31, 1659, 1923, 1072, -1480, -929, -1138,
   -358, -1224, 2370, 819, -1292, -2634, -87, 575,
   -121, -130, -405, -314, 1028, -373, 589, 620,
   1766, 811, -402, -929, 1576, 2575, 1762, 2599,
   -839, -258, -2784, 141, -719, 624, -226, -1430,
   3267, 537, 3792, 247, -1351, -1564, -1006, -1847,
   -1832, 326, -59, -502, -1214, -604, 537, 514,
   280, 882, 348, -546, 1153, -558, 753, -427,
   2698, 1217, 109, -584, -740, -79, -1475, 3377,
   1324, -983, 560, 239, -67, -354, 167, 1287,
   -1228, -536, -540, 847, -203, -1162, -1614, -1776,
   832, -67, -1244, 573, 189, -1066, 879, 1553,
   -553, -1826, 152, -1278, -351, -243, 1335, -80,
   417, 1904, 509, -744, 1, 1003, -180, 4391,
   -1592, -1660, -3046, -696, -1697, -627, 1036, -939,
   2771, 294, -1716, -397, 797, -1018, 1356, -919,
   -420, 1640, 3114, 913, -1212, -959, -2125, -468,
   450, -788, -1092, 99, 413, -1965, 1086, 88,
   887, 3378, 993, 861, -10, 49, -3021, -264,
   -692, -2556, 2469, 109, 991, -1882, -1785, 3810,
   -2077, -291, -1503, -373, -865, -304, 88, -380,
   -4801, -595, 2890, -340, 603, 1579, -514, -1376,
   -65, 1113, 1973, -504, -3603, -89, 248, 557,
   -648, 233, -2177, -397, -357, -2161, 2384, -1820,
   -1666, 846, 759, -700, -1118, 364, -551, -207,
   623, -602, -696, -1149, -690, -170, 1763, 316,
   3910, 1342, -1228, 1468, -451, 68, 1001, -927,
   312, -365, -239, -388, -72, 145, 480, -727,
   -145, -1593, 901, -436, -650, -941, 1867, -2405,
   1099, 1085, 451, -144, -1334, -3239, -17, -676,
   1175, 2021, 848, -2273, -1605, 3157, -2348, 1918,
   1406, 1132, -459, -809, 683, -2161, 87, -875,
   1294, -331, -45, 250, -1583, -444, -767, -1441,
   1308, 822, -346, 1633, -468, 1428, -1235, -1187,
   3400, -4774, -1040, 2145, 935, -2452, -1632, 1871,
   1077, -743, 1043, 663, -1088, -1276, 2380, -1571,
   562, 940, 1296, 1108, 808, -1037, -1200, -692,
   309, -1109, -115, -502, 1002, -1390, 942, 548,
   -76, -1928, -821, -1478, -1317, -611, -166, -1774,
   1641, -184, -1496, -860, 2395, -1252, 732, 274,
   -831, -833, -419, -1262, -1551, 20, 407, 43,
   2438, -306, 1100, -1628, -434, 1163, -907, -3381,
   -952, 308, 234, -1270, -315, 1728, 84, 1167,
   -752, 1215, 1202, -187, -1062, -1150, 11, -640,
   -2371, -1179, -1058, -420, -3707, -893, 783, -822,
   1158, 661, -949, 516, 319, -450, -332, 1038,
   -475, -399, 471, -825, -1711, -594, -1112, -1167,
   226, 619, 1932, -390, -1142, 2695, -307, 1591,
   309, -2768, 1826, -168, 1055, -732, -355, -1319,
   -941, 127, -429, -2900, 1203, -1652, -1823, -418,
   -1791, -739, -1772, -419, -2404, -788, 235, 2367,
   -658, 2420, -778, -1192, 2600, -179, 2338, 51,
   -312, 308, 1361, -1432, -1674, 3051, 2479, -1561,
   -2993, 261, -1514, 1503, 1969, 844, 2556, 1406,
   305, -520, -28, -571, -768, 1375, 761, 2439,
   -333, -1024, 1211, 2689, 227, 442, 1739, 429,
   -689, -621, 531, 500, -1609, -3394, 255, -817,
   -1306, -568, -430, 1781, 1203, -1559, -1320, 561,
   -1030, -1052, -1578, -502, 54, -1298, 3917, 1675,
   272, 192, 1967, -1629, -1168, 1688, -234, -2104,
   -1486, 568, -587, 435, 189, -1291, -269, -716,
   -576, 509, -1475, 1326, 1199, -123, 1684, 651,
   1364, 1213, 1631, -625, 312, 1510, -1041, -1036,
   1182, 122, 171, -1511, -53, 743, 53, 91,
   513, -881, 3, 112, 379, 251, -1315, -865,
   705, 91, -557, 379, 553, -330, 80, -131,
   -97, 1517, 1188, -1326, -824, 1113, -1558, -803,
   -1416, 200, 673, -719, 253, 504, -1500, 534,
   -281, 204, 1217, -1169, -54, 1017, 3632, 1767,
   -334, 3252, -1966, 271, -827, 41, 630, 1475,
   1320, 729, 4654, 224, -315, 1934, -656, -1295,
   2142, -2724, 2215, 1013, 708, -1708, -1673, 1748,
   -944, 1647, -148, 1333, 96, 350, 457, 35,
   -82, -189, 655, -292, 1541, -881, -704, 502,
   -1124, 3119, 1980, -1201, 614, 1299, 1683, -425,
   -1007, -641, 164, 200, -458, 716, -3232, -1335,
   -90, 1218, -1362, -897, 327, -297, -779, -412,
   778, -254, 1081, -191, 956, -3353, 49, -1162,
   -2037, -3082, -283, -3482, -3928, 488, -402, -426,
   -777, -1877, 1033, -1844, -843, -489, 277, 1611,
   1828, 23, -1430, -1567, 888, 437, 742, 314,
   -3938, 4111, 1584, 157, 1549, 5722, -3381, -1340,
   713, -593, 973, -791, -844, -1596, 10656, 301,
   2100, -1181, 874, -210, -555, 903, 920, 3086,
   -3589, -3694, -613, 492, 1921, -1364, 1592, 1019,
   1077, -1675, -1823, 1351, 1419, 2007, -100, -822,
   -1154, 1837, -1084, 815, 205, 886, 201, -1585,
   801, 804, 223, -1154, 572, 259, 1324, -113,
   3369, -2130, -401, -304, 76, 363, 1996, 224,
   -183, -388, 1204, -286, 720, 1393, 197, 2227,
   1582, 255, -487, 1294, -377, 1085, -4423, 96,
   -792, 1431, -1657, 1327, 430, 512, -1414, -389,
   -3810, 2211, 100, 23, -606, 1554, 1820, 2844,
   -2757, -2133, -2347, 462, 44, -556, -1466, 1752,
   662, 431, 1039, 117, -11, 290, -1766, -1750,
   1944, 833, -453, -90, -1783, -1410, -2204, -1436,
   592, -2173, 1253, -1737, 3524, 1276, -158, 1774,
   1048, 2592, 284, 3091, -1047, -33, 2500, 515,
   2718, -2799, -3247, 848, -711, 1544, -1493, -951,
   2028, -1919, -2173, -72, 1308, 2037, -2440, 398,
   -2915, 2177, 577, -413, -797, 260, 111, 896,
   160, -30, -3062, 2860, -946, -1719, 2818, 1400,
   151, -1618, 2553, -156, -386, 2206, 1139, -2342,
   1247, 3054, 862, 1830, -2730, -1967, 1141, -4770,
   -1262, 578, 4644, -377, -774, 939, -127, -1845,
   2030, -5023, 21, 4428, 729, 258, -2455, -1067,
   -1230, 4877, -447, -290, 762, -1606, 1702, 164,
   -1669, 1132, 3121, -991, 1684, -4616, -1715, -341,
   -777, 1240, 419, 1216, 181, 570, 3605, 1910,
   -673, 1399, -1253, 279, -527, 638, 431, -1757,
   -3042, 1629, 549, 2613, -605, 72, 390, 1159,
   -2260, -1997, -1493, 1381, -117, 274, 952, -1835,
   226, -1, -1860, -487, 296, 190, -491, 615,
   1419, 810, 5356, -246, 1419, 239, 1128, 2224,
   -1830, 3144, 369, -963, -1131, 872, -1367, 2187,
   -1593, -3034, -513, 526, -1250, -826, -646, 1608,
   5294, 778, 1979, 1991, -1311, -900, 2076, 1788,
   2101, -594, 234, -2253, -138, -5129, -139, 577,
   333, -1043, -1159, -4317, 497, -532, -7286, 1993,
   467, 428, -2172, -473, 1553, 941, 1427, 727,
   -2512, 2643, 472, -100, 1078, 2078, -1960, 3105,
   -869, -4941, -1908, -344, -834, -1473, -336, -2598,
   -1431, -478, -716, 711, 2041, 3706, -79, 2115,
   -858, -2524, 412, -2267, -786, -198, -915, 589,
   912, -2882, -138, -270, -1521, 886, -3013, 4666,
   -1546, -1353, -49, -1374, -10, 1253, -156, 1700,
   3485, -378, 170, 816, 178, -755, -948, -744,
   2028, 1708, -472, 1085, -1886, 666, -486, 163,
   -1615, 2155, -595, -342, -2426, 372, -290, 989,
   -216, -1124, -928, 922, -253, 704, 914, 303,
   220, -1507, -2774, 1119, -253, 217, -1048, -3382,
   -887, -1746, 1217, 26, -1365, -1452, -376, -531,
   4879, 3224, -1480, 2059, 3375, 1, 3057, -158,
   319, -466, 245, 1050, -1518, -1401, -2603, -1504,
   2313, -1324, 2139, -3041, 832, -58, 708, 2216,
   -775, -1805, -2091, -2525, 1253, 342, -2857, 2262,
   -3288, -845, 623, 1054, -835, -1500, -1169, 167,
   -2143, 584, -5835, 2275, -255, -3271, -1195, -4936,
   -2886, -521, 271, 1229, -672, -1854, 1595, -4702,
   2255, -821, 3254, 213, -401, -1248, -614, 5260,
   -596, -165, 444, 768, 1710, -1454, 1159, -650,
   -791, 3068, -627, -758, -3759, 886, -2824, -795,
   -1611, 2010, -205, 1811, -376, -1348, -1042, -421,
   -290, -494, -2022, -157, -1220, -439, 848, 468,
   -1267, -1419, -1182, 50, -1311, -555, 885, 1935,
   -1182, -1581, -43, 410, -687, -821, -484, 1746,
   2635, 416, 874, 1746, -225, -211, -139, -1559,
   -840, 2797, -1539, -1885, -359, 1374, -1216, -396,
   791, -637, 991, -1161, 2383, 1505, 403, 1584,
   -3041, 1903, -8323, 2931, 14, 2510, -669, 395,
   -1216, 86, 973, -907, 168, -3320, 2059, -137,
   -1040, -921, -134, 4521, -2235, 160, -1039, -59,
   -803, -350, 2981, 2252, -1947, -2226, 3183, -1463,
   590, 242, -962, -615, -270, 850, 381, 1671,
   -1049, 644, -428, -1892, -1625, 214, 652, -685,
   -2689, 2433, -1324, -161, -1120, 4461, 387, 3995,
   -639, 162, 1084, -760, -1597, -1385, -2667, 4286,
   843, -3571, 1383, -4236, -2274, 1656, 263, -976,
   910, 60, 533, -2770, -957, -1352, 359, 523,
   -1803, -2848, -495, -16, -1579, -620, 583, -370,
   241, -2659, 517, -1392, -2237, 1137, -651, 356,
   1889, -993, 7871, 965, -1451, 1529, -2275, -751,
   1929, -1066, -258, -590, -8, -2217, 2558, 562,
   1765, -663, 932, -284, -776, -1314, -2302, 1120,
   -1459, -1523, 1019, -1928, -1372, 315, 530, -1427,
   2312, 835, -1008, 2611, -1076, 74, -2140, 498,
   1764, -4044, -8, -1173, 1878, 85, 2801, -192,
   -463, -202, 3199, -310, 2933, 2202, 2637, 557,
   1824, -957, 55, 1406, 760, -613, -78, 233,
   1187, 130, 1489, -1380, 1323, -404, -815, -583,
   891, 937, 1525, -2260, 2671, -2114, 412, -3043,
   1768, 717, 982, -3753, 1139, -2174, -2075, 2214,
   396, -78, -631, -1293, 499, -195, -3934, -11,
   -2380, -7, -1009, 210, 1151, -1146, 731, -2653,
   932, -108, 594, 1442, 951, -965, -187, -2198,
   -889, -422, -2131, -273, 773, 416, -625, 97,
   -676, 2072, 1044, 2736, 1512, -1232, 1421, -3185,
   375, 2675, -1735, -1389, -1730, -63, 248, -682,
   -642, -323, -1474, -599, -2000, 1775, 854, 1311,
   -1981, -735, -5160, 350, -1805, 697, -1460, 620,
   -1347, -664, -369, -200, 903, -1665, -1321, -427,
   731, -119, 1095, -281, 3170, 431, 1098, -451,
   224, 1409, 1304, -54, 935, 635, 1838, 1593,
   268, 2568, 26, 209, 246, 101, -1136, -1281,
   -366, 339, 1386, -1501, 377, -118, 1665, -2121,
   70, 2067, -702, -865, -1806, -4162, -1469, -974,
   358, -567, 88, -2602, -2129, -426, 3109, -2744,
   -225, -1668, -2, -1804, -489, -1048, 522, 2426,
   1907, 1957, -2225, -158, 594, -3056, 1723, -627,
   -494, 822, -570, 1891, 256, -2596, 1480, 4107,
   -730, -345, 163, -695, 232, -800, 5733, 512,
   604, 1939, 2930, -20, 266, 1593, 108, 142,
   -887, -4852, 300, 251, -1700, -2026, 1490, 222,
   1511, -591, -672, 2141, 305, -272, 792, -979,
   -2252, -497, 191, 788, -1100, 452, 224, 2341,
   -2976, 2215, -377, 666, 17, -1147, -1510, -151,
   2657, -1747, -792, -1217, 50, -239, 1454, 1502,
   183, 1804, 847, 1317, -1028, 2276, -1122, -44,
   1776, -407, -935, 1950, 484, 2522, -1721, 800,
   1012, 2237, 978, -1513, 224, -442, 1463, 1156,
   -1915, 1082, -2349, 5, 1603, 647, -162, 1803,
   -1200, -820, 1206, -310, 2511, -244, -1577, -660,
   109, -1802, 1758, 3388, 1791, -958, -1279, 424,
   564, -918, 1794, -1102, -2523, 3141, 1165, -159,
   1233, 980, 748, 823, 2293, 185, -452, 505,
   992, 510, -670, 1846, 156, 2334, 2634, -130,
   1307, 1227, -2242, -611, 1322, 1078, 438, -1230,
   2011, -387, -3045, -1247, 1264, -1149, 263, 1143,
   285, 1672, -1100, -806, 298, 287, 362, 1194,
   3364, -703, -477, 1625, 1296, 1, 2564, 1260,
   -1819, -700, 412, -822, 1068, 745, 1869, -858,
   398, 1609, 525, 2800, -18, 1290, -593, -1513,
   328, -924, 982, -2433, -1605, 260, -1095, -1252,
   792, -867, -504, 2782, -109, -1210, -359, -1090,
   -1297, 1903, -629, 1141, 1752, 1319, 1562, -2386,
   3309, 340, 2205, -1061, 1118, -3165, 2442, 1348,
   -1834, -710, 825, 783, 10, 2386, -2918, 67,
   -181, -538, -1292, 1458, 1494, 699, 328, -2041,
   -800, 839, 169, -989, -192, 3194, 1247, -1794,
   -601, -3530, 1490, 683, -233, -783, -123, -2453,
   175, 865, -900, 521, -1381, 1537, 717, 2272,
   339, -646, 2670, -666, 1830, 482, -1956, -1308,
   -1969, 1060, -317, -593, -597, 815, -2673, 1603,
   -465, -1053, 233, -2744, -2866, -314, -1183, 404,
   902, -147, 3892, -989, -1301, 1176, 962, 867,
   1740, 93, 2074, 319, -192, 4063, -2310, -1512,
   -1883, -1811, 258, 944, -647, -1283, -1027, 952,
   -155, -1692, 295, -300, -11, -87, 353, 2444,
   1593, 3610, -155, -731, -1479, -1039, -2191, 1119,
   1417, -754, -985, -901, -1199, 1185, -1373, 2067,
   -1647, -194, -2005, 724, 1696, 1106, -36, 324,
   2403, -2730, -862, -1477, 335, -407, 1782, -1566,
   742, -1487, -186, -707, 21, -177, 1038, 1294,
   1234, 480, -863, -716, -662, -64, 561, 1700,
   325, -84, -800, -1851, -313, 651, -565, 415,
   983, 108, -2206, -603, 173, -1663, 2633, -1714,
