/*This file is automatically generated from a Keras model*/

#ifdef HAVE_CONFIG_H
#include "config.h"
#endif

#include "rnn.h"

static const rnn_weight input_dense_weights[1008] = {
   11, -11, -15, -6, 8, -41, 6, 3,
   -5, -3, 2, -71, 1, -3, -8, -49,
   -3, 59, 10, 30, 35, 23, 58, -16,
   -25, -11, 3, -3, 30, -29, -68, 38,
   -9, -38, 32, 18, -26, 37, 30, 55,
   -59, 32, -43, 35, 76, -14, -76, 26,
   17, 0, -31, -3, -30, 53, 64, 48,
   -11, -33, -1, -27, -47, 36, -37, 23,
   -29, -32, -27, 75, -28, -16, 4, -22,
   20, -63, -12, -25, 12, 17, -55, -5,
   8, 65, 57, -50, -27, -24, -23, 6,
   24, 12, -9, -43, -3, -9, -66, -14,
   -35, 10, -7, -25, -44, 49, 44, 7,
   40, 51, -32, 59, -27, -79, 68, 73,
   -60, -58, 68, 112, 56, -20, 64, -18,
   -15, 35, -7, -8, 33, 36, 5, 15,
   -3, 7, 35, 36, -46, -27, -22, -101,
   13, -6, -67, -59, 42, -23, -56, -9,
   84, -20, 59, 126, -36, 44, 11, -44,
   32, -60, 45, -39, -16, -6, -10, 4,
   27, -14, 120, 120, -127, 77, -28, 126,
   -71, 32, 89, 76, 113, 39, -1, -38,
   -74, 51, -126, -42, 44, 8, 73, 101,
   -97, -44, -38, 13, 127, -101, -39, 17,
   124, 27, -7, 127, -6, -106, -11, -120,
   -25, 41, -6, 97, 87, 1, -125, -121,
   47, 71, -96, 64, -125, 127, 46, 99,
   16, 4, 85, 110, 48, 30, -12, -67,
   -4, 10, -52, 28, 36, 111, 40, 59,
   -22, 16, 31, -16, -103, -62, 1, 30,
   -100, -87, -65, -35, -63, -62, -53, -54,
   14, -37, -90, 22, -27, 41, -123, -1,
   87, -74, 126, -56, -39, 103, -24, 95,
   -100, -45, 9, 107, 70, 17, 44, -102,
   127, 53, -55, 123, 18, -94, 127, -38,
   9, 49, 35, -122, -64, 45, -81, 80,
   -109, 28, 110, -22, 38, -11, -93, -33,
   -5, -85, 54, 127, 16, -28, -58, -62,
   75, -2, 51, 127, 21, 124, 37, 7,
   -114, -69, -39, -31, -56, -60, 79, -103,
   55, 32, -85, 3, 122, 40, -82, 86,
   127, -42, -120, 127, 72, 58, 61, -58,
   91, 45, 69, -100, 96, -7, -10, -35,
   62, 52, -127, 78, -40, 76, 127, -20,
   -125, 119, 75, 127, -118, 114, 127, -7,
   58, -126, 127, 127, -86, -1, -15, -120,
   -55, -51, 23, 127, 127, 63, -128, -25,
   14, 51, -112, 121, 40, 127, -113, 127,
   -29, -34, 74, -45, -117, 105, 36, -18,
   -124, -128, -84, -128, 90, 104, 8, 108,
   -94, 127, -127, 127, -127, 127, 29, 74,
   127, 34, -58, -2, -17, -22, 22, -94,
   -38, -3, -125, 127, 61, -65, -89, -120,
   108, -48, 33, 127, -126, 22, 127, 127,
   -22, -59, 67, -11, 2, 15, -128, -64,
   24, 16, -102, -29, 22, 46, -2, -128,
   -128, 127, -55, -127, -88, 97, 17, 78,
   81, -128, -47, 127, -113, 127, 45, -126,
   -83, -61, -116, 127, 66, -18, 86, -100,
   30, 7, -66, 127, 76, 127, -81, 13,
   -120, 75, 80, -90, 23, 127, -91, -12,
   125, -67, 61, -128, -48, -39, -67, 15,
   -42, -75, 124, -74, -105, 33, 127, -127,
   -25, 8, 4, 122, 127, -84, 18, -119,
   18, 2, 113, -123, -36, -26, 39, 5,
   -108, -26, -128, -63, 5, 77, 84, 75,
   127, -108, -16, -2, 20, 77, -62, 56,
   -26, -37, 122, 50, 127, -128, 18, 87,
   -15, -17, -44, -64, 8, 93, 7, 85,
   -100, 32, 11, 32, 55, 48, -37, 127,
   -124, -105, 59, -125, 125, -77, 10, 100,
   -127, -82, -128, -56, 125, -16, 127, 88,
   76, -93, -11, -1, 6, 83, 32, 127,
   -46, -76, 93, -127, 10, -6, 13, -63,
   59, -106, -119, -31, 39, 74, -2, 52,
   4, -61, 6, -10, 40, 55, -54, 47,
   76, 51, 90, 113, 34, -127, -34, -76,
   -26, 71, 80, -110, 79, 4, 53, -81,
   -24, -69, 23, -34, 15, 17, 89, 103,
   -86, 57, 6, -102, 103, 11, 47, -102,
   -27, -117, -47, 127, 125, -7, -6, 93,
   57, -39, 16, 46, -93, 11, 9, -16,
   67, -52, 124, 103, -125, 54, 31, -123,
   0, 114, 110, -68, 94, 15, -22, -94,
   65, 126, 6, -34, 34, -18, -71, 32,
   -34, -53, 114, 30, -60, -102, 36, 102,
   4, -17, 31, 5, -9, 82, 22, -90,
   -57, 119, -16, -13, 109, -16, -47, 6,
   -68, -34, 24, -52, 84, 38, 66, -87,
   -38, -51, -46, -119, -9, 55, 96, 68,
   85, -71, -18, 0, 1, -15, -17, 127,
   -26, -38, 54, 0, 91, 102, -8, 115,
   2, -120, -77, -111, -13, 35, -9, 80,
   10, 87, 9, -5, 44, -77, -59, 29,
   25, 63, 52, -121, 12, 21, -15, 44,
   13, 84, 35, -124, 101, 83, 56, 4,
   -41, -20, 3, -55, -43, -117, -83, 8,
   -28, -22, 14, 127, 3, -18, 67, 54,
   -15, -70, 22, 14, -57, 1, -115, -44,
   80, -11, 25, 58, 15, 6, -40, -6,
   25, 70, 69, -88, -42, 43, 3, -25,
   -16, 65, 11, -125, 64, 7, 79, 104,
   -127, -99, -14, -127, -127, 120, 127, 126,
   -127, -124, 65, 3, 26, -108, -64, -35,
   101, -73, 81, -118, 25, -106, -63, 92,
   69, -127, 18, -126, -127, 83, 47, 121,
   -126, -111, 59, -94, 8, -114, -124, 17,
   125, -55, 94, -76, -27, -23, -57, 78,
   123, 8, 124, 47, 102, -73, 13, -9,
   24, 16, 75, -94, 127, -79, 82, -107,
   -57, 123, 71, -10, -128, 94, -76, 127,
   -56, 0, 48, -25, 60, 122, 77, 122,
   -115, -127, 23, 127, -126, 67, 127, 121,
   -54, -7, -100, 19, 45, -83, 51, -5,
   24, 2, -116, -39, -126, 52, -10, 7,
   -46, -43, 90, -103, -85, 1, -24, -5,
   127, -41, 64, -68, -59, -104, -17, -20,
   7, 27, -82, 73, 108, -42, 23, -35,
   127, 3, 77, -64, -63, 103, 41, -59,
   -55, -8, 58, -55, 73, -49, 121, -82,
   -14, -8, 13, 51, 30, 63, 33, -32,
   8, 1, 127, -79, 0, -23, -12, -53,
   19, -28, -19, 124, 23, 8, 102, 7,
   -27, -43, -40, 32, 20, 73, 22, 0,
   -35, 6, 77, -84, 45, 3, -36, 56,
   27, 74, 35, 29, 108, -27, -121, -24
};

static const rnn_weight input_dense_bias[24] = {
   -71, 69, 127, 16, 32, -5, 6, -112,
   55, 107, -6, -15, 11, 38, 47, 77,
   49, -90, -91, -13, 19, -124, 7, -53
};

const DenseLayer input_dense = {
   input_dense_bias,
   input_dense_weights,
   42, 24, ACTIVATION_TANH
};

static const rnn_weight vad_gru_weights[1728] = {
   123, 77, 63, -81, 10, -80, -30, -8,
   44, -111, -12, 127, -44, 114, 127, -16,
   111, 127, 70, 23, -99, 52, -98, 101,
   -82, -25, -79, 6, -12, -62, -52, 84,
   31, -73, 60, 0, -105, 124, 65, -104,
   -4, -53, -16, -54, 14, -33, 51, -97,
   -25, -28, 5, -41, 6, -32, -93, 5,
   -95, 62, -55, -25, 9, 31, -63, -28,
   -49, 12, -5, -21, 80, -86, -40, 45,
   -94, 34, 23, -68, 31, -10, -122, -117,
   90, 120, -57, 64, 4, 31, 38, 55,
   -21, 89, 71, -25, 28, 27, 10, -32,
   23, -28, -54, -1, 16, 75, 47, 119,
   26, 8, -18, 56, 25, 31, 45, -25,
   -3, 45, 123, 41, -24, -74, 34, -77,
   73, -96, 72, 23, -23, 46, 7, 79,
   11, -98, 5, 85, 19, 89, 3, -9,
   30, 27, -33, 65, -25, 38, -5, 23,
   90, 48, -49, -2, -103, 26, 10, 34,
   80, 72, 34, -99, -24, -70, 32, 27,
   70, 37, 122, -54, 6, -2, 127, -2,
   7, -25, 27, -75, 57, 70, 21, 50,
   -38, 29, -38, 115, 40, -42, 43, -22,
   105, 53, 125, -61, -57, -39, 53, -69,
   -45, -24, 82, 86, -51, -34, -63, -2,
   4, 7, -36, -36, -70, 58, -6, 37,
   -61, 24, -10, -110, -32, 62, 94, -36,
   -105, 127, 100, -36, 127, 65, 56, 25,
   -99, 15, 126, 64, 12, 121, 9, 127,
   127, 119, 93, 3, 50, -45, 74, 13,
   44, 77, -42, 27, 121, 78, -60, 38,
   -7, 124, 5, -44, 81, 45, -26, 20,
   53, -13, -30, 80, -30, 57, 23, 32,
   25, -82, 102, 65, -5, -40, 45, -10,
   -40, -16, 9, -51, 31, 86, 70, -112,
   -128, -69, 58, 29, 51, -34, -28, -17,
   90, 127, 58, 62, 127, 126, 104, 20,
   -104, 118, 126, -117, 47, -27, -110, 127,
   127, 127, -53, 42, 102, -82, 123, 58,
   127, -28, 0, -82, -55, 25, 111, 26,
   -109, 20, 122, -66, -16, 72, 10, 18,
   119, -71, -79, 22, -63, 127, 2, 59,
   -80, -62, -21, -28, -77, -33, 52, 109,
   -41, -36, 36, 45, 34, -10, -5, 1,
   -40, -70, -33, -19, 23, -1, -15, 94,
   96, 51, -18, -60, -6, -47, -87, -40,
   -63, -112, 35, 88, 26, -4, -71, -18,
   -1, 8, -9, -34, -105, -120, 40, 103,
   -75, 38, -9, -16, 32, 57, 20, 40,
   44, 36, -21, 86, 8, 21, 12, 22,
   -111, 96, 125, 51, 28, -39, 80, 5,
   34, -1, 8, 21, 42, -88, -29, 12,
   -41, 0, -48, -23, 10, 56, -35, 31,
   -13, 55, -31, -39, 38, 16, 65, 8,
   -24, -2, 58, -110, -41, -101, -18, -60,
   -36, -43, -68, -22, -9, -8, -37, -39,
   -121, -64, -24, 23, -122, -2, -73, -128,
   -128, 2, -25, 67, -35, -13, -63, -83,
   99, -23, -81, -113, 37, -57, -22, 17,
   -35, 31, -42, -51, 127, -74, -74, 23,
   -12, -11, 118, -55, 26, -15, 26, 0,
   -33, -56, 23, -78, -52, -13, 40, -18,
   -22, 31, 95, -114, 51, 69, 35, -54,
   -114, -127, -127, -87, -127, 61, -19, -47,
   81, -46, -126, 36, 101, -6, -80, -128,
   -128, -13, -8, -108, -125, 31, 16, -28,
   -64, 63, 81, -98, -94, -17, -69, 18,
   -41, -29, -17, -9, -73, -14, -43, -46,
   -122, 53, -4, -84, 27, -128, 46, 63,
   29, 69, -30, -98, 6, -41, -44, 80,
   27, 20, -59, -8, 34, -83, -120, 115,
   68, 122, -23, -63, 17, -70, -68, -16,
   -35, 33, -22, -45, 69, -70, 31, 103,
   58, 1, 126, -6, 29, 116, -92, 120,
   81, 5, 90, -48, -45, -23, 44, 15,
   -16, 36, -29, 60, 74, 22, -56, 96,
   54, -25, -10, 6, 71, 11, 127, 53,
   -1, -66, 6, -60, 20, -28, 19, 68,
   -17, -4, 67, 105, 1, 22, 7, 20,
   59, -23, -22, 55, -93, 68, 56, 2,
   -27, -68, 47, -78, 2, -1, -4, 6,
   39, 79, 38, -16, 32, -1, -74, 3,
   47, 45, 121, -47, -45, 91, -35, 72,
   99, 10, 36, 43, -61, -43, 127, -14,
   -1, 81, -40, 12, 73, -53, 6, -29,
   18, -29, -2, 10, -15, -21, 19, 52,
   -1, -25, 9, -51, 1, 53, -67, 19,
   -90, 13, -11, 26, -49, -12, 32, -71,
   66, -5, 82, -89, 53, 59, 43, -82,
   29, -36, -16, -56, 4, 36, -8, 47,
   -128, -104, 24, -110, -91, 58, -4, -42,
   -29, -60, -43, 2, 31, -38, 119, -120,
   -17, -43, 42, -26, -104, -27, 108, 109,
   33, 20, 127, -79, -58, 34, -125, -105,
   -122, 33, 106, -6, -5, 0, 119, 123,
   -59, 86, -59, -121, -11, 44, -6, 61,
   10, 114, 75, 9, 108, -72, 1, 52,
   -87, 59, 23, 87, -76, -108, -68, 10,
   61, 75, -26, -119, -67, 20, -39, 87,
   -45, 34, 63, 53, 42, 51, 60, 64,
   56, 13, 22, -13, -12, -67, 26, -15,
   -32, -104, 127, 6, -11, -9, 83, 38,
   -15, 1, -44, -2, 16, 28, -16, -20,
   56, 117, 65, -24, 28, -44, -87, -3,
   100, 58, 73, 45, -57, 7, 89, -67,
   -5, -72, 19, 33, 81, 42, -97, -50,
   2, 6, -1, 8, -55, 20, -53, -10,
   -14, 33, 62, -34, -23, -3, 48, -64,
   -18, 117, -97, -4, 35, -67, 0, 20,
   -113, 119, 59, -64, 24, 33, 52, -64,
   127, 5, -1, -77, 65, -84, -28, -64,
   -15, -82, -5, -20, -80, 0, 38, -87,
   30, 127, -44, -53, -47, -19, -68, -49,
   81, -86, 12, 14, 33, 7, 59, 45,
   74, 15, -22, 34, -4, -90, -73, -2,
   -99, 14, -34, 15, 47, 15, -68, -60,
   -15, 85, 46, 96, -22, -114, 84, 79,
   45, 118, 92, 97, 1, 30, -26, -46,
   -105, 14, 0, -94, 85, -124, 49, 68,
   -127, 34, 30, 127, 39, 29, 84, -35,
   123, 38, -50, 6, 6, 127, 42, -8,
   8, 74, -5, -76, 118, -34, -26, -8,
   -123, 74, -55, 78, -66, 75, 69, 9,
   -121, -60, -33, 49, 43, 79, 105, 10,
   22, -41, 54, 38, -90, 37, 104, 8,
   46, -64, 80, -15, -25, 94, 12, -4,
   30, 98, -11, 68, 46, 5, 2, 41,
   127, 115, 77, -5, 101, -125, 26, -16,
   -124, 106, 116, -86, 121, 2, 43, -116,
   9, 12, 33, -16, 13, 111, -7, -67,
   22, -2, -12, 78, -30, -109, -36, 5,
   -83, -18, -51, 38, -32, 55, -31, 5,
   -12, -9, 7, 14, -24, 50, -8, 81,
   53, -40, -38, 53, -23, -33, 35, 54,
   50, 76, -38, -25, -70, -49, 15, 39,
   13, 31, 22, -114, 88, 17, 94, 25,
   99, -125, 14, -20, -37, -72, -105, 17,
   -27, -41, 36, -90, -9, -26, 100, -33,
   -18, 0, 58, 9, 2, 16, 15, -70,
   -28, 27, -11, -41, 62, -19, -103, -9,
   -6, -1, 39, 93, 31, 37, 2, -38,
   19, -32, 10, -8, -74, -26, -43, 13,
   52, 55, 67, -27, 12, -7, -17, -23,
   20, -12, 24, 82, -12, -13, -13, -12,
   127, 12, 25, 29, -41, 48, 39, 127,
   9, -16, 69, 33, -112, 86, 73, 17,
   125, 127, -128, -51, 52, 44, 23, 39,
   -92, 8, 79, -64, 21, -7, 55, -18,
   123, -67, -99, -16, -81, 34, 37, 71,
   23, 10, 125, 50, 86, -28, -69, 29,
   -62, 22, -14, 117, -20, 22, 28, -27,
   34, -26, -42, -51, 16, 59, -27, 24,
   -5, 9, -4, -48, -100, 34, -2, -42,
   -49, -106, 25, 42, 25, -16, -32, 76,
   -100, 20, 13, -63, -60, -52, -29, -13,
   -42, -7, -39, 74, 64, 25, 47, 18,
   28, 31, -33, 22, -3, 11, -27, -19,
   4, -58, -29, -53, -22, 57, -42, -18,
   -33, -125, -64, -21, -35, -4, -34, 58,
   89, -16, 75, 20, 42, -35, 42, -42,
   -57, 64, -5, -15, -11, -29, -58, 11,
   15, -11, 11, 58, -30, -55, 36, -4,
   -9, 56, 55, 123, 34, 24, 52, 48,
   -32, 84, -104, 88, -57, 109, -97, 99,
   15, 55, -128, 40, 92, -74, -89, -61,
   -35, 20, -47, -72, 26, 14, -52, 70,
   31, -69, 88, 9, -26, 26, 52, -89,
   -70, 98, 39, 8, -97, 5, -102, -125,
   -39, 12, -44, 15, 46, 21, 49, -39,
   -100, 18, 36, 34, 44, 10, -40, 98,
   73, 21, 3, 122, -69, -6, -55, -4,
   -128, -69, 49, -91, 65, -1, -123, 7,
   -23, 82, -117, 32, 35, 123, 8, 119,
   -125, -123, -126, 43, -42, -13, 30, -23,
   31, -2, 19, 106, -45, -84, -34, -79,
   -66, -102, 22, -76, 2, -33, -47, 64,
   26, 4, -50, 37, 61, 78, -78, -50,
   -53, 12, -62, 57, -23, 44, -10, 50,
   43, -42, -14, -31, -24, -35, 24, 83,
   -33, -22, -12, 16, 53, 4, 23, 45,
   -127, 32, -97, 42, 57, 65, -63, 114,
   -16, 122, -6, -39, 91, 11, -45, -13,
   24, -2, -128, -15, 75, -109, -46, 35,
   -56, -82, -37, 19, -30, -31, 44, -75,
   -22, 47, 62, -98, -110, -79, -60, -4,
   -7, -81, -123, 105, -37, -119, 26, 46,
   -82, -25, -50, 19, -30, 28, -10, 80,
   29, -11, 54, -57, -35, 15, -20, -38,
   30, 65, -23, 18, 48, 38, 12, 59,
   -36, -76, 72, 83, -55, -16, -49, 90,
   -1, 35, -56, 35, 43, -53, 126, -14,
   -1, 35, -102, 8, 70, -16, -72, -4,
   40, 42, -64, 41, -67, -45, -14, -27,
   -68, -48, -62, -22, 8, -28, -14, -65,
   -30, -121, -128, -12, -29, 67, -98, -17,
   65, 23, -38, -83, 51, 10, -37, 33,
   18, 0, 18, 104, -26, -56, -24, -14,
   -78, -54, 58, -4, -43, -16, -51, 68,
   -49, 20, -18, -7, -27, 62, 93, -31,
   58, 127, -85, 37, -22, 96, 126, 11,
   19, 64, -87, -2, -8, 51, -59, 106,
   -35, 12, -100, 97, 49, 67, 22, 58,
   -9, 13, -43, -27, 22, -26, 68, 10,
   30, 31, -60, -74, -30, -29, -117, -123,
   6, -42, -31, -14, -23, 63, 5, 10,
   9, -95, 51, -58, 66, 17, 21, -39,
   -42, 17, -23, -13, 87, -6, -16, -2,
   -120, -60, -73, 4, -93, 67, 61, 127,
   56, 12, 53, -85, 21, -125, -63, -41,
   -118, 7, 89, -60, 55, 46, -103, 7,
   57, -20, 62, -3, 42, 32, -59, -78,
   -16, 10, 59, 20, -56, -67, -40, 46,
   -8, -33, 116, -14, -67, -49, 44, -5,
   24, 18, -25, -31, -78, -25, -35, -58,
   29, -30, -18, -27, 11, -54, -21, -11,
   -49, -48, 45, 42, -88, -21, 15, -47
};

static const rnn_weight vad_gru_recurrent_weights[1728] = {
   -26, 117, -113, 44, 15, 125, -112, 96,
   -37, -12, -34, -35, 22, -128, 20, -19,
   -32, 127, 124, -61, -113, 101, 121, 79,
   26, -8, 24, 10, 49, 126, -32, 48,
   -49, -21, 31, 20, -10, -31, -73, -67,
   -7, -25, 64, -29, 16, 64, 43, 32,
   31, 51, -50, -92, 98, -2, -126, -33,
   -51, 92, -14, 56, 36, -31, -3, 45,
   35, -32, 37, 16, 77, -75, 26, 78,
   126, 84, 122, 68, -82, -49, 127, 2,
   56, -7, -95, 126, 5, -24, 38, -74,
   86, 126, 9, -10, -122, 72, 126, -128,
   -7, 45, 83, 67, 42, 63, -33, -97,
   47, -7, -106, -24, -83, -10, 40, 78,
   -37, -40, 29, -62, 124, 22, 64, 54,
   72, 25, -1, -108, 3, -118, -45, 69,
   -47, -63, -80, 67, 76, -30, 4, 74,
   25, 49, -3, 78, 59, -29, 1, 34,
   69, 0, -122, 17, 77, -7, 56, -127,
   22, 95, 118, 48, 92, -52, -44, 101,
   46, 71, 127, -98, 86, 51, 53, 30,
   -62, -19, -61, -56, -17, 12, -42, 7,
   10, 46, -34, 12, 38, 27, -64, -122,
   -9, -3, 25, 56, -19, -36, 16, -24,
   44, 15, 54, 5, -62, 10, -120, -102,
   31, -20, -11, 1, -127, 27, -27, 54,
   -94, 18, 81, -122, -124, 4, 33, -55,
   -38, -50, -96, -91, -116, -122, -10, -61,
   -46, -45, 125, -123, 90, 124, -38, -54,
   72, -35, 101, -24, 52, -43, 1, -99,
   18, -60, -58, -76, -42, -27, -39, -15,
   -80, 14, -48, -32, -11, -64, 15, 47,
   77, -9, 46, -25, -93, 4, -11, -29,
   50, -10, 97, 80, -70, -52, -38, -28,
   9, -63, 67, -70, 70, -8, 33, -102,
   -23, 40, -47, -48, -76, 119, -3, -4,
   26, -53, 127, 127, 73, 2, 55, 84,
   -118, 73, -123, 127, 8, -60, 94, 127,
   -55, 127, 58, 127, 45, 100, -33, 127,
   2, 1, 70, 79, 22, -25, -52, -18,
   57, 27, -103, -65, 41, -12, 104, 40,
   -22, 65, -13, 45, 37, 62, 5, 1,
   -31, 52, -76, -30, 52, -18, -51, 71,
   -64, 76, -43, 69, 57, -111, 6, -25,
   75, 77, 52, 8, 29, 20, 29, 7,
   -127, -89, 15, 7, 115, -98, -128, -46,
   60, -19, -2, 13, -93, 63, -25, 31,
   -56, -37, -126, -20, 76, -8, -126, -6,
   -11, -58, -3, -22, -6, -2, 38, 103,
   45, -41, -8, 9, 19, -5, -17, 8,
   -19, 85, -66, 22, 13, -37, -107, -13,
   -112, -118, 19, 88, -49, 108, 75, 46,
   17, -65, 123, 39, -98, 55, -84, -77,
   6, -34, -30, -1, -76, 47, -63, -43,
   -127, -94, -5, -65, -77, -127, 127, -121,
   -35, -40, 62, -11, -61, 119, -79, -37,
   49, -121, -127, -73, 11, -93, 61, -125,
   15, -121, -6, -51, -88, -115, -17, -23,
   5, -96, 20, -39, -23, 112, 26, 49,
   -6, 9, 103, 45, -33, 36, -64, 26,
   -13, 6, 33, 55, -52, -11, 0, 45,
   30, -110, 56, 4, -56, -76, 82, -24,
   21, -6, 23, -40, -42, 53, -3, -18,
   53, -64, 60, -12, 87, -12, 127, -53,
   -62, -39, -8, -88, -34, -123, -124, 80,
   -115, -123, -11, 52, 85, 4, 19, -49,
   6, 66, 69, -46, -16, 39, -64, -26,
   -34, 31, -29, 7, 37, -8, 113, 69,
   -22, -31, -38, -15, 18, 12, 66, 56,
   -72, -53, 30, 127, -44, 72, 30, 72,
   45, -126, -103, 41, -12, -32, 46, -125,
   -55, 8, 78, 1, -37, 49, 79, -11,
   66, -99, -8, -53, 63, 28, 56, 53,
   -128, -34, 122, -47, -7, 9, 30, -45,
   11, -42, 80, -35, 40, 90, 99, -86,
   -17, 79, 8, 43, -26, 64, -67, -108,
   5, 15, -29, 57, 37, 20, -47, 12,
   -21, -33, -124, 10, -6, -35, -1, 76,
   -60, -77, -8, 42, -19, 63, 81, -35,
   55, -52, -58, -1, -59, 21, 50, -88,
   72, -74, -90, -10, 47, 38, 43, -15,
   126, 24, 66, 44, 44, 126, 127, 115,
   -54, 112, 20, 24, 84, -82, -4, 127,
   51, 50, 78, 57, 5, -29, 125, 127,
   34, 118, 1, -21, 9, -37, 20, 49,
   39, 22, 8, 5, 43, 10, 61, 31,
   -22, 32, 16, -68, -43, -28, 77, 5,
   -25, 80, 40, -128, 9, 1, -53, -21,
   17, 106, -28, 29, 35, -127, 28, 0,
   54, -77, -125, -23, 45, -39, -97, 34,
   -59, 104, -40, -2, 126, 96, 71, 54,
   127, 71, -111, -77, 125, 104, 123, 103,
   21, 70, -62, 45, 126, 35, -30, 127,
   77, 4, -30, 33, -12, -121, 49, 109,
   -30, -63, 10, -20, 44, 73, -93, -21,
   -78, 105, -7, 15, -120, -20, -96, -48,
   -48, -40, 127, 11, -21, 117, 15, -58,
   -6, 79, 58, -58, -81, 35, 30, -127,
   5, -47, -14, -50, -98, 37, -87, -121,
   121, 20, 39, 79, 76, -10, 9, 49,
   -71, -30, -32, -87, -62, -117, -22, 13,
   -40, -12, 54, 103, -111, 54, -39, 126,
   116, 29, -23, -6, -24, 81, 8, 35,
   -3, 40, 39, -33, 15, -57, 73, -16,
   -18, 61, 12, 24, -44, 13, -30, 1,
   -84, -54, -11, -36, -19, 12, -29, 29,
   -88, 25, -6, 57, 22, 29, 65, -27,
   -70, -53, 120, 36, 46, 20, 25, 42,
   114, 120, 33, -46, -126, -27, 127, -100,
   -127, -78, -105, -69, 9, 114, -87, -119,
   99, 60, -64, -59, 38, -85, 30, -128,
   -75, -44, -64, -27, -24, -1, 11, -79,
   -52, -50, -108, 15, -35, 34, -77, -60,
   45, -26, 21, 18, 66, 51, 48, -26,
   -20, 69, 12, 43, -76, -78, -51, -15,
   59, -93, -28, -20, 48, 20, 44, -35,
   -33, 62, -14, 24, -51, 15, 16, 67,
   -16, 127, 31, 70, 40, -85, -128, 79,
   4, 113, 37, 65, -11, -126, 79, -92,
   -91, 127, -5, -31, -23, 2, -110, -11,
   -41, 50, -60, -62, -49, -16, -43, 82,
   15, 46, -7, -77, 18, 22, -112, -6,
   35, -36, 5, -13, -36, -2, -90, -40,
   44, 1, 65, -27, 41, -84, -125, 25,
   -48, -11, -32, -18, 40, 43, 8, -41,
   -37, -25, 66, 25, -1, -53, 119, 101,
   127, 127, 111, -29, 123, -98, 33, 14,
   97, -23, 40, 107, 64, 116, -61, 55,
   30, 93, 57, 55, 122, 33, 83, -101,
   112, 94, -119, 2, 13, 51, 14, -33,
   0, -12, -11, 34, 98, 22, -58, 53,
   -47, 61, -70, -31, 97, 123, 14, -14,
   -125, -127, 18, 103, -127, -93, -58, 62,
   126, 69, 74, -20, 28, -79, 115, -118,
   109, -54, -23, -69, -42, 68, -1, -10,
   63, -54, 124, 126, 112, -13, 118, 127,
   127, -37, -84, 97, 75, -93, 34, 127,
   -128, 127, -52, 112, 88, 104, -24, 8,
   -64, 74, 127, 35, 97, -1, -33, -96,
   25, -36, 1, -51, -63, 17, 19, 4,
   -81, 36, 91, -77, 18, -107, 81, -39,
   -43, 76, -37, -36, 30, -31, -3, 125,
   -81, 84, 11, 46, 100, -69, -46, 122,
   114, 95, -27, 24, 127, -58, -56, 24,
   127, -62, -13, -34, -20, 112, 127, -122,
   32, -86, -30, -28, 64, 16, -128, -13,
   123, 73, 6, -44, 25, -46, 127, -128,
   -41, 46, 120, 19, -5, 60, -28, -1,
   -77, 22, -80, 12, -58, -30, 115, 69,
   19, 98, 4, -37, -112, -60, 57, -6,
   -58, 38, 67, 42, -34, -48, 68, -14,
   48, 68, -61, -57, 40, -107, 98, 0,
   121, -48, -127, -11, 49, 15, -108, -47,
   -33, -33, 49, 12, -4, -86, -109, 48,
   13, -58, -61, -20, -60, -114, -123, -86,
   -128, 13, 33, 7, -91, 30, -51, -61,
   -63, -51, 91, -14, -6, -30, -18, -23,
   6, 34, -44, -42, -122, -98, 46, 19,
   -44, 49, 73, 20, -3, -111, 86, -118,
   75, 118, 38, 6, 82, -81, -58, 33,
   -108, -40, -75, -18, 66, -61, -44, 85,
   33, 119, 33, -32, -25, -53, 127, 35,
   -127, -127, 69, -67, -6, -128, -128, -58,
   -17, -100, -63, -123, -107, -101, 31, 9,
   -128, -119, -127, -16, -79, -44, -127, 127,
   121, 9, -53, 127, -49, -51, 43, 127,
   -32, -43, 55, -107, 70, -40, 30, 19,
   -36, -22, 51, -120, -122, -91, -120, -55,
   -2, 13, -128, -127, 127, 12, 37, 119,
   -126, 102, -109, 71, -50, -126, -127, 127,
   92, 127, 68, 111, 127, -127, 41, 126,
   -127, -5, 7, -50, -31, 42, -31, 15,
   -1, 13, -125, -72, -51, 28, 40, -107,
   -73, 106, -127, -51, -31, -6, -111, 53,
   20, -107, -26, 58, 45, -8, 28, 21,
   -16, -48, 19, -36, 16, -1, -48, 64,
   103, -2, -15, 92, 38, 61, 8, -74,
   24, 44, -117, -39, 17, 22, -32, 28,
   7, -39, -30, 44, 88, -66, -44, -12,
   20, 6, -14, 118, 78, -45, -47, 1,
   90, 7, 44, -15, 6, -7, 113, 13,
   -39, -84, -34, 53, -96, 70, -51, 89,
   -19, 31, -120, 88, 83, -36, 127, 95,
   -48, -18, 25, 125, -17, -60, 7, 85,
   17, -28, -126, -46, -11, 93, 34, -19,
   86, -7, 69, 84, 117, 65, 5, 7,
   23, -6, -23, -85, 48, -80, -50, 82,
   -2, 122, 37, 33, 127, 5, 32, 3,
   2, 84, -127, 59, 126, -23, -30, 111,
   106, 5, 119, 15, -12, -100, 87, -64,
   18, 46, 75, 1, 115, 5, 111, 49,
   -38, -121, 88, 121, 75, 37, -34, -46,
   -31, 81, 21, -126, -123, 17, -39, -31,
   39, 11, -68, -4, 5, -75, 30, 46,
   -4, 125, -35, -110, 46, 11, 2, 26,
   -44, -74, -21, 41, -101, -16, 23, -41,
   59, -87, 39, -45, -107, 32, 57, -127,
   40, -64, 66, 0, -108, 71, 49, -24,
   73, 127, -56, 72, 71, -14, -128, 76,
   -127, 95, 112, -61, 25, -127, 67, 61,
   -25, 32, 122, 35, -21, 77, -127, 123,
   -5, -1, -20, 44, -17, 120, 41, 40,
   -50, 58, 60, 27, -26, -49, 32, -41,
   -61, -10, -127, -58, -33, -92, -15, -38,
   14, -69, -114, -79, 58, -49, -16, 95,
   16, 20, -123, 51, 18, -90, -76, 25,
   -37, 63, 97, -11, 106, -25, 72, 127,
   102, -35, -54, 84, -54, 53, 127, -56,
   -110, 51, -50, -124, -111, -111, 15, -54,
   87, -67, 104, 24, -93, 46, 41, 47,
   111, 42, -42, 100, -2, 124, -8, -51,
   -84, -14, 5, -20, 4, -50, 88, 57,
   65, -24, -14, 3, -30, 61, -14, 12,
   80, 47, -18, 13, 99, -45, -72, 104,
   48, 42, -96, 88, 53, -9, -45, 37,
   70, 42, -51, 56, 62, 3, 39, 55
};

static const rnn_weight vad_gru_bias[72] = {
   127, 127, -67, -58, -38, 127, 63, 32,
   62, 35, 125, 28, 27, 72, 36, 3,
   127, 5, 89, -128, 26, -79, 127, 86,
   -3, 44, 9, -8, 67, 95, 19, 37,
   -14, 85, 12, -7, -11, 13, 18, 24,
   33, 19, 60, -5, 49, 31, 35, 25,
   20, 35, -33, -43, 37, -27, -11, -13,
   -20, 79, 10, -9, 19, -26, -29, 57,
   48, 20, -34, 15, 55, -19, -7, 16
};

const GRULayer vad_gru = {
   vad_gru_bias,
   vad_gru_weights,
   vad_gru_recurrent_weights,
   24, 24, ACTIVATION_TANH
};

static const rnn_weight noise_gru_weights[12960] = {
   45, -17, -6, 9, 12, 28, 37, -38,
   -23, 25, -23, 27, 5, 38, 6, 4,
   16, 16, -25, 71, -74, -15, -56, -29,
   -35, -57, 82, -8, 15, -8, 5, 35,
   27, 28, 29, 85, 34, -9, 18, -4,
   38, -28, -36, -13, -22, -43, 28, 34,
   10, -83, -41, 33, 68, 69, -83, 35,
   22, -2, -3, -24, 4, -76, -5, -26,
   0, -49, 8, -32, -4, -20, 10, -37,
   -36, -64, -20, 33, 11, 12, -14, -26,
   -45, -50, -34, -20, 31, 21, 12, 70,
   -31, -3, -2, -34, 14, 7, -28, 20,
   6, 70, 42, -12, -44, -6, 11, -11,
   31, -20, 19, -26, 56, -62, -12, -9,
   8, 14, 22, 52, -52, -50, 52, 19,
   -19, 7, -18, -21, -28, -22, -8, 13,
   40, -6, -34, 66, 14, -31, 3, 73,
   10, -10, 26, -10, -14, -27, -20, -32,
   -41, -24, -38, 23, 37, 17, 2, -46,
   -50, 14, -24, -12, 50, 73, -48, -23,
   -14, 18, 42, 42, 65, -35, -13, 8,
   52, 66, 14, -73, -62, -22, -35, 30,
   55, 28, 25, 20, -21, 39, -26, -18,
   24, -29, 42, 54, 28, 16, -11, -8,
   -47, -3, -66, -16, -8, -64, 1, 16,
   -14, 41, 23, 6, -8, 32, 62, 26,
   10, 10, 20, 11, 20, 32, -4, 28,
   -9, 12, 8, 4, -40, -18, 50, -46,
   -11, 20, 7, -16, 50, -30, -8, -21,
   28, -8, -18, 1, 11, 43, -25, -23,
   3, 93, -54, -61, -55, -59, -39, 41,
   -17, 20, 13, 83, 36, 22, 6, 8,
   -4, 20, 1, -22, -12, 78, -21, -58,
   -35, 2, 28, 2, -2, -30, 33, -28,
   -23, -1, 18, -14, -38, -2, -57, 39,
   -22, -43, 57, -3, -38, 16, 5, 14,
   46, 31, -1, 83, -21, -3, -2, 21,
   22, -28, -10, 4, -6, -8, 8, 10,
   -84, -53, 44, -15, 23, 1, 14, -37,
   46, 47, 41, -6, -1, 26, -36, 4,
   9, -19, 29, -23, -7, 62, 28, -1,
   27, -24, -15, 54, 19, 33, -20, -19,
   -10, 36, -72, 33, -67, -67, -12, -12,
   -12, 52, -9, 26, -33, -14, 86, -7,
   -18, -12, 5, 4, -9, 8, -32, 41,
   -11, -18, 19, -3, -26, 19, -13, -6,
   -18, -30, 1, 5, 14, -1, -50, 13,
   -24, -35, 2, -2, -30, 46, -13, -59,
   -6, -27, -26, -42, -11, -20, -15, -23,
   -1, 1, 42, 60, -33, 0, 8, -3,
   -23, -9, -8, -35, -3, 61, -46, -4,
   -41, -17, 31, 2, -37, -25, -15, 21,
   2, 36, -22, 3, 32, 25, -33, 7,
   14, -8, 27, 17, 22, 11, -55, -33,
   56, 97, -8, 22, -3, 36, -46, 14,
   21, -62, 41, 36, -58, 29, 19, 32,
   -36, 4, 25, 15, -13, -30, -75, -63,
   -16, 65, 37, 76, -35, 7, -12, 50,
   -22, -13, 27, -24, 74, 9, 9, -90,
   39, -36, -7, -96, 46, -33, -28, 10,
   -20, -7, -71, 26, -6, -29, 35, -19,
   18, 112, 7, 43, -1, 9, 7, -16,
   0, -3, 12, 26, -17, -5, -43, 24,
   6, -39, 31, 27, -24, 0, 44, 4,
   -34, -50, -12, 63, 50, 14, -13, 23,
   -48, 3, -1, 23, 4, 21, -46, -43,
   28, -66, -65, -96, 0, -11, 4, 54,
   27, 58, -38, 60, -6, -26, -4, 6,
   -38, -15, 12, -17, 51, 23, -5, -32,
   -14, 14, 4, 9, -24, -16, 14, 15,
   3, 27, -5, -29, 41, -29, -58, 23,
   1, -61, 64, 15, -18, 10, 5, -21,
   7, 59, 32, 54, -25, 1, -5, 18,
   53, -3, -24, -31, 31, -8, 31, 24,
   -14, -11, -5, -21, 8, -47, 71, 55,
   -29, 85, -7, 20, -10, -73, -1, -5,
   36, -35, -16, -19, 10, -13, 30, 1,
   46, 31, -32, -21, 35, 11, 15, 58,
   -62, 12, 9, 9, -15, 6, 10, 6,
   -2, 44, 43, -20, -21, -18, -18, -33,
   49, -3, 6, 29, 2, 12, 59, -25,
   29, -13, -31, 95, -8, -20, -6, 22,
   -6, 7, -23, -40, 27, -10, -93, 16,
   -10, 4, 12, -24, -2, 19, -18, 32,
   20, -4, 19, -88, 20, -13, 11, -43,
   6, -23, -7, -10, -3, 27, 12, 39,
   17, 33, 31, -30, -42, -59, 73, 34,
   35, -15, -26, 77, 6, -40, 55, 34,
   -62, 0, -11, -17, 35, 81, 52, -36,
   2, -6, -7, 48, 29, 53, 18, 5,
   72, 26, -12, -51, 18, 3, -14, 39,
   62, -30, -16, 39, -21, 4, -19, -20,
   -3, -5, 19, 30, 20, 26, -4, 48,
   26, -81, -2, -57, -73, 37, -1, 35,
   10, 1, 83, 7, -5, -31, -23, -28,
   19, 5, -1, -1, 30, 9, -11, 7,
   62, -10, -21, 14, -49, -77, 8, -11,
   1, 1, 1, 6, -19, -22, 63, -4,
   -15, -34, 49, 11, -6, -17, -53, 31,
   15, -33, -14, 5, 0, 25, 13, 22,
   -18, 13, -8, -4, 21, -23, -22, 28,
   -11, -26, -26, 15, 43, 0, 10, -64,
   49, 15, -27, 16, 2, 15, 21, 32,
   12, 31, 35, -2, 39, 13, 6, 0,
   -32, 35, -37, 2, -19, 40, -1, -70,
   -5, 33, 12, 2, 2, -60, 15, -31,
   37, 5, 18, 33, 26, 26, -58, 17,
   7, 66, 61, 27, 2, 24, 29, 12,
   -16, 15, -15, -62, -38, -23, 21, -39,
   20, -5, -1, -56, -34, 4, 16, -2,
   52, -49, -11, -32, 24, -13, 4, 24,
   -3, -38, -28, 52, 79, 22, -42, -35,
   34, -38, 90, -1, 67, 41, -73, -8,
   -47, -41, 126, 27, 13, 61, 18, 27,
   21, -17, -50, 16, 63, 121, 69, 25,
   14, -5, 8, 19, 21, 21, -73, -17,
   30, 37, -26, -30, -10, -4, -38, -15,
   -15, -10, -42, -2, 61, 9, 51, 11,
   -7, -7, 43, 29, 40, -17, 8, 30,
   21, -38, -6, -13, 62, -51, 74, 1,
   18, 9, 25, 7, 49, 8, -9, -33,
   -8, 3, -4, -7, 25, 11, 47, 16,
   -1, 7, -7, 17, -12, -1, 3, 37,
   -66, 4, 31, -7, 15, -29, 46, -19,
   28, 25, 46, -14, 29, -42, -20, -56,
   -8, -16, 51, -17, -45, -42, 11, 2,
   61, 6, 76, 15, 14, -40, 37, -39,
   -33, 49, 63, -22, 8, -54, -41, 58,
   -20, -11, -10, 22, 25, -45, 19, -57,
   -24, -12, -7, -34, 46, 38, -2, -33,
   29, -43, 2, 38, 71, -4, -83, -72,
   30, -53, 24, 25, -31, -33, 78, -61,
   43, 24, 44, -6, 4, -16, 6, 12,
   3, -14, -20, -7, -4, -54, -20, -6,
   15, 56, 36, 3, -36, -5, 50, -11,
   1, 39, -10, -12, 20, -47, -7, 6,
   46, 49, -47, 27, -23, 12, 22, -26,
   -23, -27, -32, 5, -65, -24, 37, 10,
   0, 102, 1, 100, -13, 43, 65, -23,
   33, -23, -11, -80, -37, -2, 15, 0,
   17, 11, -7, 34, 12, -63, 101, -19,
   28, -27, -57, 14, 21, -1, -13, 14,
   -41, 39, -11, 2, 28, -84, 79, -28,
   18, -16, 42, 3, -23, -11, 54, 49,
   -28, 84, -40, 69, 22, 4, 2, 14,
   44, -45, 10, 45, -25, 58, -61, -5,
   2, -20, 116, 27, -51, 60, 29, -21,
   -5, 32, 53, 7, -28, -3, -15, 16,
   26, 27, 9, 28, -19, 56, 58, -90,
   3, 57, -26, 63, 60, -1, -28, 42,
   2, 4, -48, 45, -3, -67, -50, 13,
   -2, 17, 1, 46, 0, 25, -31, 20,
   -1, -26, 19, -4, -2, 22, -40, 30,
   18, -8, 9, 8, 31, -36, 29, 49,
   -43, -2, 70, 51, 21, -10, -28, 23,
   6, -10, 8, -32, -28, 20, 19, -21,
   -35, -39, -58, -99, -29, -42, -14, 60,
   30, 48, 5, 36, 49, -10, -66, 24,
   41, -30, -50, 53, -42, 17, -68, 35,
   -28, 18, 18, 44, -45, 23, 40, 1,
   89, 4, 4, 35, -32, 45, -63, 29,
   -44, 33, 76, -28, -17, 21, 1, 36,
   -36, -30, -74, 80, -11, -16, 80, -39,
   32, -34, 33, -34, 19, -15, 34, -54,
   -38, 19, 44, 61, 8, 11, -30, -14,
   -20, 54, 45, -6, -61, -24, -9, 21,
   0, 47, 28, 22, 8, 8, 55, -36,
   34, 16, -81, 26, 8, 38, -77, -23,
   -11, -40, -35, 10, -30, -61, -69, 8,
   19, -6, -12, 8, 50, -32, -22, 29,
   11, -18, 27, 16, 37, 8, -30, 26,
   18, -44, 26, -29, -23, -5, 44, -14,
   -27, -6, 35, 14, 25, 5, -101, 31,
   -25, 9, 22, -20, 42, 13, -11, -35,
   -22, -110, -11, -88, 14, -56, -13, 7,
   0, 37, 1, 87, -17, 45, 65, 7,
   20, 22, -30, 15, -23, 2, 5, -18,
   -16, 7, 24, -15, -17, 21, -22, 33,
   -8, 12, -6, -30, -43, 37, -89, 49,
   -38, 59, 88, 28, -15, -4, -31, -15,
   19, -35, 82, -13, -56, 23, -47, 17,
   -12, 25, 25, 17, 0, 19, 42, -14,
   -18, 25, -16, -5, -12, -15, 36, 14,
   -16, -71, 54, 34, -4, -30, 25, 45,
   -78, -19, 14, 74, -14, -8, 20, -6,
   15, -37, -52, -40, 14, -37, -5, 25,
   48, -10, 24, 45, -32, -43, -19, 36,
   -27, 0, -26, -29, 9, -27, -29, 38,
   -34, 39, 20, 28, -2, 8, 22, -48,
   26, 3, -6, 15, -10, -5, -20, 56,
   -19, -4, -12, -20, -14, 27, -23, 21,
   -20, -26, -18, -15, 13, 68, -25, 32,
   4, 28, -4, 65, -5, -1, -52, -14,
   -11, -22, -37, 6, 35, 10, 2, -30,
   13, -10, -14, -26, 49, -10, -15, -23,
   -17, 43, -50, 4, 4, -6, -16, -1,
   31, -8, 50, -7, 9, 33, -11, 8,
   -50, 14, -12, 40, 6, 11, -33, -23,
   -3, 73, -15, 48, -14, 53, 29, 12,
   -10, -27, 20, 67, 18, -19, 15, 2,
   -47, -30, 47, -52, -34, -19, 6, 23,
   18, 16, -1, -8, 60, 0, 2, -40,
   -28, 61, -32, -32, -6, 21, -15, 19,
   -18, 3, 33, 76, 51, 12, 47, -9,
   -10, -31, -16, 12, -55, -32, -43, -19,
   -17, 15, -5, -1, -12, -18, 57, 17,
   5, 19, 34, -10, -31, 19, 30, 78,
   -12, -14, 19, 36, -12, 28, 15, -6,
   -39, -5, 38, 10, -29, -54, -51, -6,
   26, -2, -24, 4, -62, 13, -48, 7,
   16, 11, -12, -23, -34, -27, 24, -17,
   33, 26, 29, 9, -15, 54, -10, 28,
   -1, -41, 45, -18, -15, 28, -21, 41,
   -37, -44, -27, 11, -29, -52, 10, -24,
   46, 17, 16, 0, 7, -79, -43, -14,
   14, 12, 57, 23, -42, 40, -80, -27,
   -1, 8, 70, -10, 39, -32, 32, -24,
   86, -8, -27, 78, -16, -82, -29, 26,
   37, 30, -62, 41, 46, -9, -16, 1,
   3, -5, 21, -26, 5, -7, -33, -53,
   60, -24, 8, 18, 39, -66, -49, 62,
   -13, 35, 27, 68, -2, 50, 47, -61,
   -41, 35, 16, -7, 38, 5, 8, -33,
   28, 66, 14, 43, 38, -58, -7, -8,
   42, 27, -12, -48, -39, -30, -51, -43,
   -39, -17, -8, -89, -4, 30, -16, -54,
   2, 23, 30, -38, -14, 3, 5, -27,
   41, 31, 0, -2, 21, -39, 58, -66,
   -5, 5, 8, 64, 30, -1, 38, 0,
   8, 17, -29, 1, -41, 8, -38, -13,
   -9, 4, 28, 8, -38, -9, 30, 13,
   32, 2, 6, -51, 34, 19, -7, 19,
   4, 102, 91, 43, 38, -21, -4, -15,
   46, -16, 15, 0, 3, -31, -36, 22,
   5, -43, -45, 43, -3, 31, -5, -7,
   -47, 1, -23, 0, -1, -30, 29, -92,
   46, -27, 74, -68, -56, 10, 77, 37,
   49, -79, -54, -21, -17, 42, 73, -43,
   -94, -93, -55, -127, -88, 0, -10, -40,
   -31, 16, -17, -89, 54, 43, 74, -79,
   32, 20, -31, 23, -13, 16, 16, 36,
   -30, 18, -11, -42, 23, 26, 64, -44,
   -43, 10, 9, 10, -45, 61, 38, 61,
   -20, -5, -17, -26, -19, -10, 20, -6,
   7, 22, -32, 28, 14, -17, -39, -27,
   4, -10, 36, 72, -20, -16, -24, -3,
   34, -55, 81, -80, -19, 18, -2, -25,
   -43, -10, 60, -8, -74, -2, 38, 29,
   -54, 16, -9, 11, -5, 34, -78, -11,
   -47, 53, -19, 33, 36, 21, 20, -81,
   -8, 13, -30, 11, -75, -43, -4, -82,
   -6, -24, 20, -13, -27, 62, 45, -40,
   14, 6, 5, 31, 36, 13, 52, -2,
   22, -38, 33, -3, -28, 16, 24, -2,
   2, 58, 43, -48, -53, 10, 61, 15,
   -26, -38, -34, -12, -62, -47, 2, 20,
   -43, 49, 19, -32, -10, -9, -3, -2,
   -40, 25, 75, -27, -48, 8, -21, -53,
   -32, 31, 29, -17, -9, -48, -25, 1,
   -1, 26, 10, 34, -31, 45, 65, -35,
   21, -11, 24, -4, -21, 26, 12, -18,
   -18, 60, 17, 38, -37, 16, 46, -13,
   34, 27, 28, -1, -12, 5, -57, 36,
   23, -35, -27, -29, 30, 30, -18, -27,
   -24, 18, -26, -9, -21, -44, 17, -47,
   -71, -28, 22, -18, -1, 2, -23, -21,
   11, -7, -12, -42, 44, -15, -1, 14,
   -28, -24, 6, 6, 32, -28, 31, -8,
   -32, -31, 53, -46, -15, 69, -53, -5,
   -9, 19, 31, -33, 26, 25, 34, -23,
   61, -93, 81, 37, -12, 49, -17, -14,
   -18, -4, -3, 56, -26, 32, 73, 9,
   15, -42, 4, -54, 0, -27, -6, -7,
   48, 9, -3, 27, -70, 2, 9, 14,
   -9, -18, -72, -2, -1, 41, -46, 22,
   -75, 12, -62, 24, -13, -10, 12, -17,
   -39, 16, -70, 23, -48, -11, 54, 15,
   -1, -4, -18, -11, -17, -10, 69, 24,
   -15, -15, 7, 24, -24, 42, -3, 8,
   -18, -5, 18, -6, -32, 2, -9, -31,
   -28, 21, 26, 4, -3, -86, -21, -16,
   27, 11, -25, -16, -24, 16, -35, -17,
   0, 46, -15, -16, -20, 7, 28, 16,
   28, 46, -29, 32, 56, 29, 38, 19,
   -13, -27, -36, 18, -9, 42, -28, 25,
   -15, -23, 20, -19, -30, -32, -31, 22,
   -48, -43, 37, 54, 27, 56, -20, 50,
   -41, 46, -18, 23, -20, -47, 49, -10,
   -36, -39, 20, 11, 3, -51, -9, 32,
   13, -5, 26, -35, 0, -32, 0, -21,
   7, 28, -5, 28, 4, 47, 18, -18,
   -27, 54, -9, 3, 17, -3, 51, 22,
   -28, 32, 66, 23, 53, 32, -27, -61,
   0, 32, -19, 12, -41, 15, 51, -28,
   3, -7, -11, 48, 52, 60, -6, -34,
   28, 52, 40, -84, 35, 6, 31, 59,
   43, 11, -15, -2, -17, -48, -44, -95,
   18, -29, 32, 6, -19, 10, -28, -30,
   -33, -28, 14, -2, 47, 6, 89, -44,
   37, 26, 30, -27, 3, 94, -35, 14,
   -32, -80, 1, 25, -73, 8, 17, 39,
   66, 0, -52, -58, -51, -21, -23, 10,
   -12, 48, -5, -12, -19, 23, -37, 13,
   0, 29, -7, 42, -19, 41, 5, 26,
   27, -31, -42, -8, -47, 7, 20, 2,
   2, 15, 0, 59, -29, 11, -9, -1,
   -20, 48, -18, 57, -4, -29, 9, 65,
   18, -37, -4, 11, -4, 48, -26, -17,
   -4, 38, 12, -8, -22, 55, 38, -16,
   -27, -63, -31, 26, 28, -17, -23, 3,
   4, -30, -64, 30, 14, 22, -6, 32,
   58, -8, -18, 8, 21, 29, 0, -7,
   -15, -13, 49, 32, 35, 81, 12, -22,
   27, 32, 21, -41, -23, 21, -17, -18,
   -5, 37, -29, -10, -18, -9, 6, -28,
   -37, 22, 13, -15, 10, -29, 28, 13,
   -24, -3, 23, 41, -73, 27, -26, 15,
   -16, 5, 41, -13, 2, -60, -15, 21,
   -16, -46, 8, -24, 3, 52, 20, -18,
   -12, 7, -32, 27, 28, 29, 17, -14,
   -41, -11, -5, -27, 19, -56, -13, 14,
   41, 27, 11, 7, -22, -10, 1, -12,
   9, -16, 56, 30, 21, 58, -3, -13,
   6, -6, -51, 15, 50, 2, 3, 21,
   45, 20, -24, -127, 1, -7, -46, 20,
   -30, 0, 14, -63, -58, 45, -83, -15,
   49, 13, 16, -60, 75, 19, 105, -19,
   20, 36, 8, 54, 22, 19, -33, -15,
   -62, -3, -10, -12, -23, 36, 7, 34,
   2, 12, -63, -21, -44, 36, 20, -17,
   17, -13, 40, 74, -1, 43, -47, -17,
   17, -42, -9, -25, -38, 29, -6, 23,
   -47, 9, 58, -37, 10, -40, 3, -30,
   -17, -25, -14, -38, -26, 23, 16, -47,
   6, -50, 16, -49, 43, -48, 6, -41,
   -37, 19, 12, -20, 41, -10, 4, -2,
   -46, -58, 35, 40, 20, 50, -23, -24,
   26, 1, -10, -82, -25, 8, -24, -14,
   16, 36, 15, -7, 12, -55, 23, -16,
   1, -1, -18, -9, -6, 31, 35, 16,
   2, 18, -67, 49, -17, -30, 11, -54,
   54, 0, 27, -37, -20, -8, -46, -12,
   27, -103, -33, 0, 60, 25, -56, -24,
   -6, 55, -31, -22, 30, -17, -10, 9,
   9, 15, 39, -9, 18, -2, -35, -32,
   -32, -9, 16, -21, -16, -2, 47, -34,
   -18, -82, 8, 43, 49, 37, -22, -18,
   -6, -51, -31, -40, -16, -14, 15, -32,
   10, 64, 97, 29, 76, 80, -1, 47,
   17, -17, 45, 36, 25, 9, 3, -20,
   8, 69, 22, 12, 25, 38, -5, -60,
   9, 33, 37, -46, -26, -27, -3, 8,
   37, -8, -18, -14, 14, -31, 38, 12,
   -49, 45, 3, 9, -3, 0, -19, -14,
   43, 22, 7, -33, -49, 10, -18, 6,
   -10, 15, 12, -13, -35, -38, -10, 31,
   36, 33, 31, -65, 2, -57, 45, -17,
   18, -17, 26, 26, 1, -4, 26, -13,
   -20, -2, -39, -5, 47, 37, 35, -30,
   33, 1, 2, 3, -25, 40, 1, -5,
   -2, -85, 6, -40, 4, -6, -6, 22,
   12, 72, -72, -39, 5, 19, -11, 20,
   -4, -31, -50, -53, -6, -27, -53, 69,
   58, 77, -42, 15, 1, -72, -4, -38,
   -4, 26, 14, -2, -34, 3, -3, 3,
   36, 10, -5, -20, -64, 35, -31, -35,
   2, -14, 71, 20, -1, 67, 15, 42,
   -4, -30, 7, -35, -36, -13, -39, -9,
   58, 34, 20, 19, 24, -2, -5, -12,
   31, 38, 13, -26, -15, -96, -22, 37,
   32, 36, -22, -16, -58, -43, -58, -18,
   5, 4, -1, 9, -5, -16, 66, 7,
   -8, 12, 47, 7, 18, -14, -18, -32,
   -6, -10, -52, -55, -59, 14, -4, -22,
   39, -8, 46, 21, -42, -19, 81, 75,
   45, 28, -3, 6, -21, -44, 4, 7,
   -44, 22, -30, -1, -27, -18, 58, -14,
   34, 12, -9, 26, -3, -12, -24, 14,
   -20, 2, -48, 22, 25, -50, 16, 21,
   17, 6, 17, 50, -10, -7, 25, -25,
   12, -7, -13, -25, -56, -40, -24, -85,
   22, -75, -42, 35, -72, 9, -14, -42,
   -10, -68, 1, 6, 3, -8, -4, -35,
   -25, -14, -95, -11, -37, 33, 20, -15,
   -26, -39, 22, -50, 20, 19, 51, -1,
   58, -24, 71, -8, 89, 9, 27, -27,
   50, 9, 30, 17, -13, -58, 38, -30,
   -13, 23, -6, -24, 39, -16, -5, 10,
   -11, 5, 20, -28, -10, 17, -11, -13,
   -2, -56, 31, -3, -31, -33, 3, 30,
   -25, 3, 58, 5, 46, 43, 38, -58,
   -15, -2, -30, -44, -8, 16, -6, -6,
   8, 15, -48, -69, -16, -79, 55, 41,
   37, -17, -49, -34, 33, 30, -25, 16,
   -22, 53, -6, -6, 7, 73, 56, -34,
   30, -10, -31, -42, -55, -33, -28, -27,
   17, -27, -63, -30, 18, -65, 25, -26,
   19, -22, 27, -17, 68, -20, -60, -34,
   11, 0, 57, 22, 10, 10, -6, -36,
   -52, -31, -45, -12, 54, -14, -69, 30,
   114, -7, 77, 84, -11, 5, 59, -1,
   20, 38, -42, -33, 49, -6, 26, -13,
   24, 11, 56, 41, 1, 24, -44, 22,
   12, 13, 28, 52, 18, -29, 13, 1,
   -30, 4, 47, -32, 16, -16, -6, -68,
   21, -28, 28, -60, -14, -8, 0, 13,
   45, -34, -35, -10, 43, 32, -12, 0,
   17, -12, 0, -27, -26, -16, 0, 40,
   -35, -25, 27, 11, -22, 44, 21, -31,
   36, -19, -10, -33, -43, -48, -85, 6,
   -9, -2, -21, 25, -32, -50, 29, -31,
   29, -16, -17, 31, 2, 30, 57, 26,
   -11, -38, -45, -34, 13, -5, 17, -24,
   14, 11, -5, 51, 25, 14, -30, 5,
   -3, -66, -12, 29, 19, 19, -39, -37,
   8, 9, 41, -4, -32, 60, 55, 3,
   -13, 1, -43, -52, 34, 25, -95, 3,
   35, 21, -70, 60, -56, -8, 12, -14,
   0, -29, -15, -27, -12, -62, -16, -32,
   -33, -96, 7, 62, -23, -43, -6, -12,
   -18, 26, -42, -20, -61, -72, 14, -40,
   50, 16, 4, 32, -4, 16, 45, -49,
   -18, 26, -11, -38, -5, -22, -19, 31,
   41, 8, 19, 51, -31, 0, -9, -9,
   46, 0, 35, 37, 3, -60, -29, 4,
   61, 5, 0, -11, -24, -12, -32, -12,
   -13, -26, -29, -1, -22, -28, 12, -34,
   3, 22, -21, 31, 2, 19, 6, -11,
   57, -23, 15, -4, 12, 63, -36, -25,
   -30, 29, 38, 0, -2, 4, 15, -33,
   11, 24, 9, 16, 10, -48, -52, 4,
   9, 4, -34, 3, -5, 43, -7, -5,
   -11, 24, 13, -48, -18, -28, -13, 7,
   -49, -12, -48, 22, -37, 42, 75, 28,
   -15, 54, -72, 4, 1, 37, -38, 9,
   27, -19, 7, -12, -16, 86, -66, 3,
   -28, -50, -77, -43, -5, -33, -26, 57,
   -3, -13, 10, 24, -21, -52, -28, 38,
   -3, -37, -20, -34, -18, -73, -16, -75,
   26, -22, 22, 31, 9, -34, 46, 21,
   -17, 4, -40, 11, 0, -26, -23, 33,
   0, 10, 25, -44, 9, 20, 21, 45,
   3, -5, 36, -13, -25, 15, 67, -24,
   33, -8, -29, 19, 15, -67, -8, 60,
   25, 57, 0, 20, -3, -41, 18, -1,
   -6, -28, 1, -17, 28, 43, 31, -26,
   26, 12, 24, 38, 24, 0, -4, -10,
   46, -19, 47, -12, -38, -14, -47, 0,
   5, 6, 73, 57, 32, 36, -6, -21,
   6, 7, -10, -1, 28, 7, -14, 4,
   6, -54, 49, -57, -10, -3, 10, 83,
   -24, 67, -63, -21, 41, -15, 8, 78,
   -9, -6, -60, 18, 11, -2, -28, 11,
   -27, -110, -36, -54, 4, 113, -46, -30,
   -18, 42, 56, -36, -9, 7, 0, -6,
   15, 82, 27, -36, -18, 4, 8, -92,
   37, 11, -3, 9, -19, -10, 42, -13,
   -1, -17, -24, -18, 20, -4, 35, 9,
   -15, 68, -13, -12, -8, -33, -61, 6,
   11, 33, -3, -34, -14, -11, -6, 1,
   -15, 22, 2, 15, -14, 4, 58, -21,
   -2, -6, 19, 28, 9, -16, -2, 17,
   -21, 45, 26, 61, 4, 5, -10, -33,
   49, 15, -7, 16, 10, 10, 35, -20,
   -22, 18, -21, 55, -8, -16, -12, -39,
   10, 22, 20, -17, 15, -22, 9, 23,
   20, 35, -40, 30, 0, 36, 0, 9,
   25, -19, -40, 37, 7, -13, -6, 31,
   17, -44, 20, 77, 2, 22, -3, 44,
   46, -2, -19, 19, -22, 32, 41, 57,
   -29, -10, 43, -21, -40, -13, 7, 15,
   92, 44, 61, 52, 24, -14, -20, 6,
   -20, 23, -34, 47, -6, 50, 0, -7,
   58, -25, -17, 16, 27, -16, 10, -7,
   -50, -50, -38, 8, 5, -65, -13, 11,
   -9, 33, -31, 23, -26, 11, -21, -18,
   -13, -12, 39, 34, -33, 8, -34, -26,
   12, -20, -14, 46, -16, 9, 14, 0,
   8, -27, 20, 45, -6, 20, -44, -3,
   13, 22, 14, -28, -21, 28, 6, -26,
   25, 26, 0, -42, -29, -30, 16, 11,
   -3, -2, 5, 38, 41, -13, -17, 24,
   8, 4, -9, -21, 8, -25, -7, -39,
   -19, 44, 14, -17, -54, -19, 0, -31,
   -12, -41, -32, -10, -16, -19, -26, 44,
   14, -20, 33, -40, -33, 53, 8, -9,
   -35, 73, -24, 72, 23, 30, 31, 4,
   64, -35, 2, 42, -2, 56, 24, 7,
   -20, 22, 80, 5, 13, -32, 13, -25,
   12, -1, 57, 18, -35, -24, 84, 16,
   -43, -12, 68, 21, -58, 0, 61, 45,
   30, 35, -5, 25, 7, 51, 33, -45,
   -5, 21, 9, 28, -41, -38, 0, 45,
   -1, 21, 14, 15, 18, 29, -15, -2,
   -20, 3, 21, 50, -20, 11, 1, 7,
   -13, -32, -8, 23, -27, 3, 20, 25,
   -2, -6, 19, 8, -16, -5, -27, -14,
   18, 25, -25, -29, -15, 92, -15, -10,
   7, 19, 0, -43, -26, -46, 18, 45,
   -56, -28, 28, 27, -14, 18, -66, -14,
   9, 17, -21, -1, 0, -11, -2, 8,
   -16, 27, -12, -16, 7, -11, 29, -24,
   71, 27, -75, 52, -14, 27, -25, 38,
   9, -1, 20, -8, -62, 6, -23, 23,
   13, 18, -2, -22, -8, -12, -28, 30,
   -42, -17, -7, -13, -35, 11, -24, -20,
   16, 17, -33, -45, -18, 2, 4, 0,
   -37, -38, -1, -33, 32, 66, -38, -18,
   11, 47, -52, 6, 45, -46, -18, -26,
   -21, 7, 18, -49, -25, -15, 2, 6,
   28, -44, -26, -17, 12, -10, 22, 3,
   15, -2, -3, -58, 16, -18, -3, 9,
   6, 17, -33, -51, 28, -10, 21, -8,
   -39, 3, -4, -41, 43, 9, -13, -25,
   -23, -27, 11, -7, 9, 13, 43, -23,
   -48, 4, 44, 16, 4, -20, 2, -34,
   -5, -14, 38, -6, 45, -5, 15, 12,
   30, -22, 20, -42, 7, -17, -35, 47,
   34, -39, 3, -2, 3, -35, -30, -38,
   -26, -5, 52, -22, 46, -8, 1, -27,
   55, -12, 18, 41, -10, -73, -36, 32,
   -46, -18, 17, 65, 46, 32, 22, 27,
   -65, 66, -65, 0, -3, 71, 11, -47,
   61, -24, 66, 0, 34, -18, -14, -27,
   60, 16, 105, -83, -2, 22, 17, -39,
   25, 65, 3, 52, -35, -75, 19, 30,
   -77, -63, 38, 42, -25, -13, 9, -38,
   4, -15, -1, -33, 7, 56, -6, 22,
   -52, 28, 45, 17, 7, 37, -9, 45,
   19, 42, 26, -18, -17, 11, -39, -33,
   42, -41, 4, -28, -11, 13, 53, -11,
   -6, 9, -6, 55, -1, 5, 6, -4,
   33, 1, -13, 31, 54, -16, -42, 8,
   -27, -37, -33, -59, -12, 44, 27, 8,
   -9, -80, -1, -74, 46, 16, 0, -31,
   -24, 28, 32, 75, -33, 15, 1, -17,
   45, -36, -33, -48, -9, -22, 43, 36,
   20, 13, -5, 19, -9, 4, 23, 2,
   -30, -18, -29, -28, -21, -7, 1, 5,
   -55, -11, -28, -29, -38, -11, -23, 27,
   14, 54, -49, 4, -8, 68, 16, -10,
   42, 32, 116, -37, -5, 123, 35, -47,
   54, 21, 43, -36, -45, -8, 92, 66,
   -17, 61, -25, 60, -51, -74, 52, 50,
   -40, 1, -20, -33, -56, 27, 7, 4,
   17, 41, -27, -30, -10, 9, 7, 3,
   -28, 67, 28, 9, -1, 15, 49, 33,
   5, 13, 5, 8, -20, 24, -14, -40,
   -9, 9, 32, 32, -13, 32, 24, 14,
   -3, -27, -18, 10, -27, 11, -6, -2,
   28, -1, -35, 52, 40, -1, 7, 33,
   -26, -57, -8, -62, -18, 22, 34, 22,
   -29, -59, 78, -1, 3, 23, -4, -3,
   -47, -36, -41, 6, -62, 38, 76, 28,
   -20, 21, -56, -22, -42, -63, -40, 23,
   -36, -2, -36, 27, 28, 44, 0, -20,
   -31, 1, -74, -35, -46, -3, -19, -12,
   -46, -47, -29, -20, -47, -19, 16, 14,
   1, -40, 0, -8, 14, -7, 34, -5,
   -26, 13, 9, 4, 4, 1, -55, -6,
   21, -5, -33, 35, -8, -38, 34, 30,
   -10, 36, -3, -38, 57, 28, 41, 3,
   -25, -37, -35, 14, 27, -65, -38, -10,
   9, -27, 59, -38, 2, 0, 0, -57,
   59, -1, -14, -26, 18, 37, 87, 38,
   7, 27, 1, -34, -3, 8, 16, -52,
   31, 8, -18, 13, 1, 17, 9, -13,
   28, 0, 25, -39, -22, -83, -6, 15,
   6, 44, -39, 27, -6, 12, 28, -31,
   1, 2, -26, 16, -16, 16, 4, 8,
   11, -6, 23, 22, -13, 5, -5, -40,
   19, -5, 33, 3, 7, 2, 16, 60,
   32, -8, 38, -17, -15, 10, 16, 20,
   4, 31, 5, -25, -27, 34, -38, -27,
   -6, 12, 34, -12, -13, 19, 6, -36,
   33, 23, -24, 59, -6, -13, 58, 2,
   -23, -26, 18, -17, 36, 76, 15, 19,
   34, 4, 30, -24, 13, 40, 0, -14,
   10, 30, 61, 24, -10, 42, 11, -10,
   67, 36, -31, 63, -18, -35, 46, 1,
   18, 14, 38, -36, -13, -30, 6, -11,
   13, -14, 23, 46, -9, 41, -24, -5,
   -43, 38, 21, -31, -48, -56, 10, 29,
   -18, -48, 5, 17, -13, 50, -20, -25,
   -17, -19, -4, 37, -35, 33, 14, 28,
   42, 14, -27, 9, -27, 0, -36, 20,
   13, 54, 3, 12, -20, -7, 14, 23,
   31, -3, -30, 9, -30, 19, 23, 23,
   6, 102, -45, -27, 6, -33, -30, -20,
   -20, 21, -21, 25, 33, -21, 50, -34,
   24, -3, 6, -25, 31, 43, -7, 2,
   -3, 41, -44, 25, -8, 32, 7, 25,
   -40, -3, 20, 13, -36, 20, -10, -3,
   -16, 26, -8, -37, 5, -30, 1, 21,
   19, 1, 33, 27, -51, 11, -47, 92,
   -10, -41, 11, -3, -24, -50, -31, -16,
   70, 10, -7, 3, 27, 68, 21, 36,
   28, 101, -4, -27, 24, 98, -4, 11,
   -9, 28, -13, 35, 7, 2, 11, -57,
   -16, -17, -38, 24, -12, -53, 15, -11,
   60, -31, 35, 16, -17, -1, -42, -53,
   -12, -17, -24, -51, -40, -57, 25, -11,
   -12, -30, -9, -18, -12, 9, -13, 45,
   -28, -7, -2, -12, -24, 46, -54, -14,
   -12, -37, -21, 17, 28, -17, -34, -27,
   11, 3, 28, 20, -6, -41, -44, 19,
   -13, -7, -4, 32, 19, 4, 20, -15,
   9, 11, 4, 2, -25, -36, -5, -13,
   -12, -39, -21, -30, -1, 32, -18, 45,
   24, 21, 25, -15, -1, -7, -50, -35,
   20, 54, 3, 50, -16, 7, -24, -26,
   16, 36, 26, 36, 18, 18, 28, -23,
   22, 40, -36, 18, -68, 15, 18, -27,
   76, -119, 13, -22, 9, 2, 38, -103,
   -11, -12, 53, -16, -18, -52, -41, -35,
   39, 34, 11, 19, -12, 14, 13, -14,
   101, -19, 14, 98, 78, -9, 25, -81,
   5, -29, -37, 17, 56, -46, -10, -32,
   20, 9, 46, 0, 9, 6, -2, 37,
   -7, 55, -5, 59, 25, -11, -99, -9,
   3, -13, 8, -1, -26, 12, 14, -19,
   -44, 39, -29, -32, -30, 6, -22, -66,
   46, 31, -3, 43, 56, -20, -39, 16,
   -26, -3, -22, -39, 10, 28, 89, 64,
   17, -63, 60, -64, -6, -3, -45, 27,
   -38, 25, -44, -27, -50, -8, 15, -59,
   -3, 20, 9, -50, -55, -69, 26, -16,
   -7, -14, -22, -5, -54, 41, 30, 18,
   -17, 10, -22, -58, -41, 24, 24, -39,
   24, -24, 54, -57, 21, 99, 23, -4,
   -52, 59, 54, 5, 15, -69, 16, 5,
   -20, -1, -30, 83, -11, 5, -24, -18,
   -29, -49, -29, 54, -8, -12, 21, 2,
   -18, -3, -28, -29, -25, 41, 1, -26,
   -20, 32, -21, -1, 6, -47, 1, -28,
   -14, 39, 5, -58, 7, -17, -6, -57,
   10, -36, 7, 3, -12, -49, 29, -4,
   -12, 21, 9, 6, -12, 4, 26, 17,
   -2, 11, -40, -10, -43, 17, 39, 19,
   43, 28, -10, 1, -14, -26, 8, -24,
   -14, 17, 22, -18, -17, 28, -24, -64,
   37, -2, -17, 14, 32, -8, -42, 12,
   -6, -2, 26, 4, -33, -26, 20, -43,
   -12, -1, 28, -28, 41, 10, -8, 28,
   -17, 4, 19, 14, 16, -1, -4, 21,
   -15, 40, 26, -11, -12, 32, -24, -3,
   -27, 7, 50, 22, -30, 19, 17, 15,
   -16, 4, -44, -38, -1, 17, 16, 14,
   32, -20, -23, 87, -10, -49, 20, 4,
   -81, -5, -4, -15, 27, -12, -14, 2,
   -6, -1, -18, 97, 0, -4, -20, 40,
   -75, -30, -33, -11, 11, 38, -68, 39,
   24, 33, -7, -48, -70, -34, 56, 22,
   -16, 35, 12, 20, 25, -44, -1, -30,
   16, 32, -10, 8, 19, -7, 52, 21,
   6, -40, -27, -1, 22, -18, -19, 15,
   -51, 32, -4, -4, 32, -26, -38, 57,
   36, -29, -2, -34, -34, -17, 31, -3,
   -7, 34, 0, 19, 5, -3, 61, -20,
   5, -2, 25, 44, 17, -91, -44, 1,
   -5, -15, 13, 45, -11, -6, -35, -2,
   21, 18, -32, 0, 27, -48, 15, 0,
   -19, 6, 5, 50, -8, -25, 10, -2,
   -22, -44, 8, 5, 9, 17, -13, 11,
   -21, -7, -12, 6, 25, 39, -8, -13,
   54, -34, 2, 55, -9, 25, 5, -5,
   13, -78, -70, 6, -6, -6, -5, -9,
   0, 25, 11, 39, 30, 80, 36, 6,
   -67, -7, 21, 5, -32, -8, 64, 8,
   -18, 41, 9, 44, -54, -20, 15, 23,
   -20, 50, -58, -7, -13, -24, 14, -32,
   20, 8, 30, 35, -7, 2, -5, -4,
   -34, 30, -3, -20, -35, 1, -29, 63,
   -11, -3, -14, -2, -5, -7, -17, -24,
   5, -10, 17, -3, -22, 45, -42, 44,
   23, -11, -9, 13, -19, 40, 21, 11,
   -26, 24, 33, 21, -14, -9, -18, 23,
   44, 49, 43, 30, -13, 1, 28, 35,
   0, -2, -60, -21, -14, -16, -29, -3,
   17, 12, -14, 70, 41, 44, 38, 15,
   34, -9, 38, -38, -32, 1, 24, 23,
   -17, 37, 15, -6, -23, 9, -31, -9,
   -12, 1, -43, 22, 8, 21, -28, -27,
   -23, 5, -10, -28, -17, -6, 26, 8,
   24, 28, -21, 26, -9, 60, 42, -14,
   27, -45, -14, 21, 15, 79, 42, -37,
   38, 52, 3, -3, -45, 59, -1, 81,
   33, 21, 26, 46, -74, 8, 75, -30,
   6, -17, -8, -68, 31, 39, 39, -30,
   29, -39, -16, 7, 55, 20, -43, -50,
   -11, 46, -7, -41, -25, -58, 1, 39,
   -20, 25, -23, 32, 0, 22, 68, -23,
   -33, -12, 9, 24, -43, 39, 9, 46,
   20, -21, -38, 13, -27, 20, 41, 15,
   26, 23, -19, 70, 101, 27, -17, 1,
   12, -70, -40, 26, 28, -12, -25, -14,
   45, -22, -43, -74, -26, 30, -17, 4,
   -73, 43, 37, 11, -3, 55, 59, 20,
   -6, -35, 23, 39, 28, -9, 44, 5,
   -34, -24, 5, 77, 53, -15, -19, -12,
   0, 6, -62, -6, -22, 44, -38, 11,
   14, -1, 13, -76, -23, -6, 19, -38,
   12, -35, 38, -98, -14, -5, -44, 11,
   -8, -13, -57, -9, -13, -66, -44, -13,
   34, 23, -17, 26, 40, 6, 8, -67,
   -30, -44, -38, -66, 37, 39, -59, -6,
   -14, -30, -46, -15, 19, 29, -46, -66,
   -9, 19, 41, -43, -4, -27, 18, -18,
   54, 18, -11, -22, -2, -9, 45, -59,
   2, -52, 9, -34, 11, -5, -33, 50,
   -3, 48, -21, 27, -11, -23, 8, 18,
   8, 32, 0, -67, 12, -3, -19, -19,
   3, 32, 8, -20, -21, -4, 48, -28,
   -10, -14, 36, 37, -13, -9, -51, -12,
   26, 36, 12, 24, 1, -19, -48, -3,
   56, -18, 31, 17, -22, -58, -27, -29,
   -19, -45, -48, 32, -3, 35, -6, -21,
   -46, -60, -8, -8, 58, 3, 23, 8,
   14, 13, -8, 23, -37, -19, 1, 4,
   2, 22, -35, 21, -18, 27, 21, 4,
   -32, -61, 72, -28, -45, 21, 37, -2,
   -30, 24, -20, -57, 6, -54, -18, 6,
   -18, -35, 3, -5, 12, -24, -13, 2,
   10, -51, 5, -79, -6, 68, -9, -19,
   -83, -20, -1, -18, -41, -6, -26, -27,
   0, 16, 18, 14, 9, -24, 40, -112,
   46, -22, -4, 24, -21, 14, 13, 19,
   -13, -45, -6, -27, 39, -13, 13, -12,
   0, 34, -18, -2, 20, 7, -27, 24,
   11, 6, -11, -10, 9, -10, -38, 20,
   -4, 33, -30, 43, 49, 2, -6, -26,
   -46, -26, -8, 3, -12, -16, 56, 4,
   -34, 13, -3, -2, 2, -6, -43, 8,
   4, 25, 6, -60, 14, -8, 27, -3,
   16, 40, -14, 94, 8, 18, -3, -46,
   7, 26, -58, 20, 5, -3, -10, -16,
   4, 61, -52, 35, -3, -32, -26, -27,
   -14, -14, 14, 17, 27, -32, 8, 59,
   -5, -60, 86, 6, -11, 9, -19, 36,
   -38, 48, -22, -56, 8, -95, -50, 26,
   19, -8, -92, -44, 66, -32, -47, 18,
   37, -61, 7, -78, 61, 41, -31, -5,
   -32, -14, 35, -16, 5, -21, -8, -4,
   -35, 5, 62, -6, 2, -14, 15, -27,
   49, -22, -17, -24, 4, 29, 35, -28,
   5, -9, 5, 1, -18, -23, -6, 14,
   15, 47, -28, -14, -7, -36, -37, -22,
   0, 9, 23, 11, 19, -7, -3, -50,
   11, 28, 2, -42, -34, 0, 39, -9,
   41, -3, 2, 11, -34, -2, 13, -30,
   -6, 53, 15, 30, -43, 0, 65, 21,
   34, 25, -20, -20, -53, 5, -20, -14,
   -29, -10, -13, 28, 13, 5, 4, 12,
   -14, 21, 32, 20, -12, 35, 18, -14,
   -23, -21, 38, 9, -16, -32, 22, 5,
   37, -7, -55, 68, 53, -34, -35, 22,
   16, -3, -46, 27, -1, -17, -1, 35,
   2, -33, 30, -13, -64, -42, -46, 3,
   -13, -23, 22, 3, 22, -54, -20, 13,
   -10, -1, 18, 59, 10, 48, -8, -44,
   -61, -13, -68, 46, 44, -33, 6, -11,
   -59, 8, -6, 0, 18, -60, 14, 5,
   22, -38, 19, -34, 57, -20, -12, 52,
   16, 7, 0, 2, -17, -42, -26, -36,
   62, 12, -3, -18, 5, -19, -39, 43,
   -18, 15, 45, 0, -7, -15, -46, -55,
   -32, -35, 36, -1, 5, -4, -47, 25,
   31, 25, 29, 13, -8, -35, -23, 125,
   42, 38, -18, 16, 41, -45, -49, 58,
   44, -25, -41, 33, 6, 8, -24, -6,
   -15, 27, 11, -14, -68, -22, -53, 43,
   -6, 49, 16, -91, -55, -17, -29, 15,
   53, -2, 74, 3, 12, -8, -10, -24,
   -10, 17, -42, 18, -29, 34, -6, 39,
   7, 53, 8, -34, 21, 22, -24, -36,
   -54, -13, 15, -23, -27, -30, -16, -21,
   19, -5, -30, -42, 20, 1, -8, 9,
   16, -21, -37, -13, -22, 44, -18, -10,
   35, -36, -57, -29, 18, -15, -32, 4,
   14, 68, -9, -8, -4, -34, 21, 11,
   13, 23, -8, -8, 23, 12, 29, -20,
   17, 20, 21, 18, 28, -7, -23, 30,
   -23, 30, 6, -37, 29, -9, -15, 43,
   -31, 4, 9, -37, -6, 15, -1, -7,
   -1, -2, 6, -5, -29, 10, 13, -42,
   7, 35, 25, -13, 35, -21, -7, 10,
   -47, -26, 52, 5, 14, 45, 17, -23,
   -18, -24, -4, -52, 11, -11, 20, 0,
   -1, 14, 15, 10, -5, -49, -25, 21,
   -13, 33, -1, 9, 14, -4, 46, 2,
   33, 10, -1, 27, 2, -28, 31, -27,
   -10, -1, -25, 1, 37, -25, 8, -29,
   44, 49, 21, 92, -18, 5, -16, -45,
   -21, -45, 13, -10, 0, -35, -65, -8,
   77, -24, -44, 85, 14, 49, -49, -22,
   -35, 10, 9, -43, -23, 35, -13, 35,
   43, 16, 41, 20, -20, 14, 30, -26,
   -16, 58, 12, -9, -33, -33, -18, 44,
   25, -45, -14, 20, 31, 59, 4, -5,
   -41, -29, 8, -13, 30, -28, 37, -31,
   -29, -24, -17, 27, -1, 18, -23, 22,
   29, -5, -3, 33, 44, -29, -20, -10,
   -27, -37, -31, 10, -3, 15, 28, -30,
   -25, -16, 32, 32, 43, -22, 3, -40,
   -10, -5, -16, -41, 3, -4, 32, 20,
   -11, -25, 4, -32, -41, -29, -25, 19,
   22, 35, -32, 9, 14, 17, -19, 22,
   36, 4, 19, 4, 19, 18, 45, -14,
   0, -16, -47, 20, 24, -30, -51, 16,
   -14, -3, 7, 17, 51, 13, -4, 12,
   -31, 32, 20, 20, -1, -3, 19, 39,
   23, 3, -26, -13, 24, 80, -16, -46,
   -19, -16, 84, 40, -8, -13, 15, -70,
   -41, 5, 6, 32, -33, -17, 100, 1,
   -31, -9, 1, -2, -5, 25, 13, -24,
   56, 57, 56, -15, 59, 13, -25, -38,
   -13, 47, -12, -18, -5, -53, 15, 43,
   -5, 11, -1, -24, 17, 50, -4, -23,
   38, -7, -2, 18, -16, 31, 21, 60,
   42, -34, -25, 2, -5, 18, 0, 34,
   15, 48, -32, 23, 4, -20, -11, -24,
   6, -27, -20, -18, -9, 44, -1, -58,
   9, -25, -33, -31, -7, -35, -8, -36,
   3, -26, 36, -1, -21, 23, 32, 2,
   -9, 1, -11, -7, 21, 23, 17, 15,
   15, -38, -66, 17, -8, 25, 25, 34,
   -17, 14, -79, -11, -18, 7, 5, -15,
   41, -42, 4, -23, -27, 51, 11, -22,
   -24, -42, -93, 16, 1, 1, 19, 4,
   10, -6, 8, -9, -9, -91, -11, -14,
   21, -5, -11, 58, 53, 11, 43, 21,
   48, 19, -24, -24, -26, -98, 42, 105,
   7, 4, 32, -25, -57, -61, -30, -5,
   11, -72, 7, -19, 18, -7, -48, 58,
   -50, -32, -22, 34, -54, -7, -6, 23,
   15, 18, 15, -6, -10, -7, 29, -8,
   -4, -28, 7, -33, 0, -19, 19, -4,
   18, -49, 11, 32, -35, -25, 0, -22,
   -26, 5, 27, -57, 17, -7, -16, 63,
   33, 56, 7, -13, -5, 18, -35, 27,
   25, 5, -44, 2, -29, -24, 28, -50,
   31, -26, -12, 25, -16, -32, -5, 24,
   30, -22, 48, 5, 10, 61, -13, 41,
   -12, -32, 43, 33, 18, -30, 5, 9,
   -11, -71, 66, 31, -47, -51, -21, 33,
   -63, -14, -1, 14, -5, -6, -31, -34,
   16, -96, 3, -19, 22, 6, 12, 14,
   12, 17, -11, 32, 6, -34, -10, -6,
   44, -42, -33, 41, 26, 7, 6, 38,
   39, 59, -13, -37, -27, -49, -39, 5,
   -4, 22, -60, 38, -77, -55, -5, 43,
   -28, 6, -52, -22, -32, -26, -25, 17,
   57, 12, 9, -4, 11, -5, 1, 29,
   -5, -20, -6, 33, 7, 9, 43, 26,
   -17, -12, -3, -12, 24, -35, -43, -37,
   -2, 5, -21, -14, -3, -31, 6, -32,
   -17, 20, -5, -66, -48, -9, -34, -18,
   -26, 33, 24, 2, 16, 2, -12, -28,
   -29, 53, 21, -25, 32, 34, -41, -39,
   7, 0, -33, 7, -23, -23, 37, -24,
   36, 35, -27, 20, 38, -62, -11, -12,
   -23, 20, -9, 26, -22, -5, 0, 0,
   -30, 7, 67, 1, 51, 62, 7, 19,
   12, 44, -30, 14, -25, -37, -4, 0,
   43, 13, -6, 27, 15, 9, 27, 21,
   -13, 2, 4, 61, 26, -26, -15, 7,
   -32, -26, 27, 24, 18, 26, 9, 25,
   20, 8, 11, 10, -4, -26, 6, 30,
   -10, -1, 29, -7, 13, 13, 0, 14,
   -9, 33, 11, 2, -6, -28, 0, 0,
   -5, -2, -33, 2, 12, -14, 12, 46,
   -6, -20, -18, 8, -19, 4, -32, 32,
   18, -43, 34, 20, -18, -54, 45, 28,
   -15, -17, -33, -2, 22, -45, -31, 11,
   -1, 45, -26, 20, -28, 52, -35, 23,
   8, 10, 21, -12, 28, 11, 29, -16,
   19, 15, -13, 3, -19, -26, 19, -17,
   26, 0, 17, 17, 31, 28, 29, -17,
   -7, -16, 30, 15, 4, 17, -19, -6,
   -28, 5, 10, 15, -13, -21, -19, -14,
   15, -7, 41, 7, 3, 49, -21, 0,
   -6, 4, 18, 22, 10, -12, -16, -30,
   25, -31, -16, -13, -10, -24, 20, 62,
   -16, 9, -17, 49, 18, -26, 34, 14,
   -14, 10, 25, -9, -6, 0, -9, 10,
   0, 22, -94, -23, 49, -39, -1, 35,
   -10, 10, 22, -21, 3, -12, -32, -13,
   6, -49, 4, -49, -7, 23, -38, 53,
   -5, -10, 46, 31, -114, -43, -1, 58,
   19, -32, 25, -51, -3, 40, -13, -41,
   -1, -20, -4, 43, 18, 37, 48, -30,
   40, 82, -9, 26, -37, -49, -69, 74,
   2, 7, -50, 0, -2, 16, -73, 13,
   -51, -26, 22, -29, 43, 40, -70, 53,
   20, 7, -9, 37, 24, -44, 45, 34,
   18, 10, 20, -3, 21, 33, -20, -5,
   -31, -34, -2, 17, 18, -33, -21, 11,
   -9, -8, 4, 0, -6, 17, 6, -32,
   -12, -52, 5, -28, 0, 16, 9, 24,
   22, 3, -32, 9, 12, -3, -26, -13,
   19, 81, -57, -5, -35, -19, -74, 5,
   -5, -9, -19, -23, -3, -4, -26, -3,
   -25, 50, 43, -5, 5, -6, -6, -21,
   -39, -26, -25, -8, 8, -26, -6, -2,
   24, 4, 11, -25, -21, 9, -37, -9,
   -28, -2, 9, -94, 23, -70, 112, 18,
   49, 37, -54, 10, -36, 127, 21, 25,
   -40, -6, -70, -51, -27, 32, 20, -38,
   -71, 40, -8, 33, 42, 60, -11, 62,
   -9, -27, -4, -29, 20, 13, -9, 36,
   14, 42, -11, 46, -1, 61, 9, 34,
   -41, -9, -59, -40, 2, -60, -77, 35,
   8, -2, 69, -10, -19, -26, 93, -20,
   -49, 24, -20, -5, -15, 27, -15, 29,
   -37, -13, -20, -5, -27, 33, 5, 8,
   41, 37, 12, 32, -26, -22, 25, -49,
   -13, -58, -13, -32, -20, 12, 37, 2,
   -33, -13, 26, 0, -15, -33, -10, -41,
   13, -8, 11, -14, -63, -12, -37, 13,
   48, 37, 18, 41, -38, 20, 23, 14,
   -16, 15, -26, -21, -58, -48, -17, 37,
   9, -5, 88, -5, 2, 5, -7, 28,
   17, 40, 25, -38, -17, 1, -35, -18,
   28, 39, -51, 36, -8, 51, -28, 15,
   55, 58, 14, 19, -24, -91, -61, -58,
   2, -44, -75, -43, 13, -39, 37, -1,
   -82, 4, 36, 38, 80, 54, 23, -9,
   2, -35, 20, 50, 29, 32, -26, 58,
   -68, 27, 27, -74, -81, 8, -70, -36,
   -104, -8, -29, 40, -65, 78, -95, 0,
   24, 48, -54, -32, -40, 7, 17, -15,
   -1, 29, 4, -39, 37, 16, -21, -44,
   -13, -49, -11, 16, -28, -17, 12, 9,
   52, 31, 12, 25, 6, 7, 10, -13,
   35, 24, 21, 24, -25, -7, 62, -24,
   -21, 24, -16, -18, 5, 15, -6, -29,
   -40, -3, 24, 75, -2, -6, -39, -11,
   29, 4, 63, -32, -26, -10, -27, -3,
   -40, 47, 4, -48, 52, 10, 23, -6,
   22, 59, -49, 23, 29, -2, -34, 20,
   -61, 0, 9, 41, 26, -17, 20, 33,
   -37, -11, -45, -20, -3, -26, -87, 5,
   -61, 76, 16, -1, -30, 10, -4, 26,
   29, -35, -11, -8, 42, -21, 6, 21,
   43, 41, -2, 1, 92, 30, -2, 55,
   16, 88, 16, 22, -5, -58, 11, -33,
   19, -33, 35, 16, 59, -22, 22, -42,
   5, 22, -82, 2, -10, -77, -21, -29,
   6, 27, 17, -33, 7, 0, -12, -9,
   40, 5, -9, 5, -19, 19, 7, 25,
   47, 26, -43, -14, -6, 9, 34, 48,
   -26, -72, -54, 44, 8, 1, 21, 28,
   -20, -13, -43, 30, -30, 22, 29, -21,
   52, -2, 32, -7, -4, 13, 7, -32,
   -9, 81, 18, -3, 60, 30, 35, -3,
   -57, -13, 15, -90, 34, 21, 21, -52,
   -56, 22, 7, -10, -54, -24, 54, 42,
   -4, 25, -14, 31, 23, 12, 14, -39,
   52, -24, 8, -3, 38, -31, 59, -21,
   2, -36, 46, -10, -29, 45, 4, -21,
   30, 10, 13, -5, -7, -60, -28, 72,
   -24, 6, 24, -53, 45, 66, 54, -30,
   50, -81, -19, 24, -90, 55, 51, 24,
   -48, -69, -24, 60, 15, -2, 111, 49,
   -55, -15, -46, 33, 5, -34, 0, 43,
   -25, 53, -7, -76, -19, 2, 15, 42,
   -18, 11, 73, -50, 12, -20, -20, 30,
   -7, 2, -56, 19, -20, -31, -4, 6,
   -7, -11, 18, 18, -5, -12, 17, -63,
   -31, -1, 44, 1, -3, -9, -57, 5,
   -4, -80, -34, -12, -20, -43, 43, -6,
   -10, -17, -18, -14, -8, 22, -21, 41,
   127, 32, 64, -24, 1, -79, -40, -66,
   -61, 0, -26, -20, -34, 4, -25, -94,
   -70, 5, -105, 107, -30, 49, -73, -3,
   -41, -67, 36, 65, -27, -79, -1, -51,
   -92, 26, -5, 19, 48, -50, 119, -59,
   -34, -22, -76, -67, 44, 11, -38, -35,
   26, -23, 53, 77, 90, 121, -73, -125,
   34, 14, 35, -77, -12, 10, 47, -100,
   77, -17, 20, 34, -94, -71, 108, 36,
   -22, -74, -21, -28, 25, 92, 77, -12,
   -8, -37, 18, 23, 0, 13, -10, 11,
   -25, 30, -9, -71, -43, -24, -119, 2,
   2, -84, 77, 3, 46, 16, -5, -99,
   62, -39, -61, -27, -20, 48, -38, 48,
   20, 11, 21, -40, 57, -14, 111, 86,
   58, -15, -75, 64, -6, -35, -53, 54,
   -16, -20, 66, 83, -15, 58, -87, -98,
   -2, 36, 103, -81, -12, -95, 5, -32,
   -56, 66, -34, -13, -64, -19, -4, -20,
   19, -36, -15, -42, -10, 58, -22, 52,
   -115, -1, -68, 47, -15, -32, 67, -5,
   -5, 124, 34, -80, -41, -1, 47, 44,
   -23, 75, -67, 43, -17, -19, 36, 55,
   58, -2, -5, -70, 11, 54, -5, 57,
   -41, 14, -11, 43, 81, -40, 5, 87,
   60, 16, 5, 65, 83, 20, 50, -94,
   58, -29, 57, -17, 98, 25, 16, 55,
   -29, -38, 30, 87, 66, -46, -51, 30,
   -47, -31, -1, 8, -91, 17, -44, -11,
   -14, 108, -25, -25, -13, 39, -64, -54,
   -23, -31, 20, -1, 41, -45, -123, -54,
   -125, -39, -63, 0, 55, -55, 59, 9,
   -13, 13, -51, 45, -55, 83, 126, 94,
   68, 22, 8, 105, -26, -3, -127, 57,
   13, 15, -5, 70, -14, -5, -36, 15,
   -29, -19, -40, -86, -4, 71, 31, 10,
   35, 55, -34, 38, -62, -73, -62, -19,
   124, -127, 94, -12, -74, -94, -6, 25,
   47, -65, 66, 126, -80, 57, -109, -12,
   -41, 14, 1, 92, -2, -127, -110, -38,
   49, -70, 37, 88, 127, 54, -103, -80,
   -87, -92, -48, -5, -116, -26, -24, -37,
   15, -15, -14, 18, 121, -34, -60, -43,
   72, 82, -13, -19, 51, -37, 65, -15,
   127, -46, 7, -45, -38, 1, -3, -73,
   -42, -2, 53, 2, 67, -2, 11, -81,
   -51, -69, 17, 44, 46, 47, -15, -37,
   12, 64, 27, 50, -24, -4, -19, 17,
   16, -126, -30, 16, 127, -8, -86, -90,
   35, -55, -55, -14, -93, 35, -18, -74,
   20, 44, 53, 55, 22, 11, 127, 25,
   40, 57, -30, 79, -4, -126, -4, 50,
   19, -60, 39, 13, -49, -65, 108, -33,
   50, 85, 74, 33, -67, -72, -117, 10,
   78, 95, -21, -35, -70, -18, -115, 82,
   -55, -20, 73, -9, -31, 110, 77, -20,
   -127, -23, -80, 0, 6, -46, -71, -2,
   -41, 52, 61, 125, -67, -99, 125, -28,
   30, -77, -14, 51, 127, 81, 123, -23,
   -69, -120, 23, 41, -63, 27, -28, 52,
   -114, 59, 6, -34, 93, -120, -57, 57,
   -22, 112, -48, -116, -41, 29, -45, 2,
   78, -58, -84, -2, -32, 10, -37, -8,
   24, -21, 15, 48, -97, 45, 28, 62,
   4, 44, 14, 20, 89, -62, -112, 77,
   -31, -26, -15, -126, 127, -38, -106, -9,
   -47, -62, 8, 16, 103, 15, -12, 37,
   15, -116, 52, 29, -57, -36, -27, -38,
   26, 10, 21, 124, -64, 4, 68, 32,
   7, 99, 15, -101, 109, -62, -37, -26,
   36, -21, 0, 15, -7, -28, 9, -35,
   -105, -126, -6, -125, 66, 44, -60, 52,
   1, 47, -106, 11, 24, 0, 3, 21,
   2, -12, 14, -121, -52, -1, 59, 8,
   -41, 5, 61, 52, 12, -55, 4, -4,
   66, 66, -62, 119, -69, -7, 115, -81,
   14, -51, 82, -22, 123, -37, 48, -25,
   -13, 42, -27, -65, 17, -110, -21, -28,
   -64, -18, 62, -35, 63, -3, 90, -78,
   24, 38, 21, -3, 127, 68, 6, -39,
   15, 0, -2, 32, -12, 24, 16, 16,
   -4, 2, -46, -84, -15, 7, -119, 86,
   -40, -17, 89, 22, 66, 29, 4, -87,
   -56, 34, 15, -31, 52, -65, 21, -114,
   26, -128, 127, -27, 25, 22, -79, -116,
   50, -46, 27, 126, 47, -23, 73, -91,
   2, 109, 11, -5, 84, 4, 42, -119,
   -4, 19, -127, 33, 127, -32, -44, 37,
   -47, 114, 52, 39, 28, -63, -111, -57,
   35, 119, -114, -24, -102, 78, -63, 52,
   126, 127, 110, -33, 78, 108, -71, 19,
   86, 39, -72, -8, 24, 80, -101, -45,
   67, -53, 65, 56, -6, 45, 66, 78,
   -87, -126, -2, 110, -35, -127, 109, -55,
   -26, -67, -7, -29, 121, -13, 37, 14,
   -108, 7, 40, -124, 100, -119, 0, 109,
   0, 91, -14, -4, 46, 94, 67, 92,
   118, 49, -60, -98, 66, 5, 25, -1,
   16, -48, -40, -86, -20, -9, 24, 6,
   13, 39, 6, -18, 61, 16, 33, 73,
   7, -28, 65, 12, 31, -14, 14, 60,
   -85, 31, 21, 18, -18, -31, -66, -45,
   -49, -127, -127, 109, 127, -37, 11, -17,
   -128, -128, -96, -8, -31, -90, -6, -34,
   12, 40, -104, 20, 23, 22, 114, 63,
   58, 103, 13, -55, 127, -88, 38, 120,
   -8, 21, 30, -47, 5, -19, -58, 17,
   -50, -67, 38, 29, -7, 67, -47, 68,
   -44, -31, 0, 71, 47, -49, 87, -34,
   10, 4, 59, 58, -76, 45, 37, -24,
   22, -21, -61, 18, -9, 63, 14, 44,
   70, -97, 31, -35, 88, -12, -25, -107,
   -33, -122, 11, -104, 60, -17, 8, 14,
   92, 62, 27, -11, 23, 41, -20, -32,
   -35, 0, 112, -76, 40, 107, 12, 100,
   69, -8, 49, 23, 6, -6, -28, -17,
   -95, 30, 49, 73, 57, -53, -27, 2,
   25, 19, 14, -40, 50, -16, 3, 34,
   14, 56, 24, 37, -33, 11, 8, 59,
   -122, 2, 2, -23, -42, -8, -75, -19,
   8, -63, 127, 119, -22, 31, 104, -70,
   1, -103, 37, 32, 87, -21, -71, -44,
   -21, -7, 46, -91, -32, 27, 64, 95,
   67, 57, -36, -24, 66, 10, -27, 49,
   126, 104, -11, 74, 88, -5, -114, 26,
   -25, 45, -124, 23, 10, -37, -77, 127,
   8, 36, -49, 21, -41, -12, -23, -63,
   -12, -126, -28, -2, 28, -52, 127, -6,
   -125, 2, 22, -2, -1, -99, -48, 5,
   -82, 22, -44, -49, 50, -81, -98, -39,
   64, 52, -12, 96, -4, -123, 115, 33,
   4, 36, -6, -59, -27, 57, -25, -33,
   125, -13, 20, -67, -33, -55, -60, -121,
   -16, 23, -19, -31, -33, -1, -79, -26,
   93, -7, 24, -33, 73, -5, -59, 85,
   9, -30, -43, -16, 65, -9, 43, 41,
   -5, 8, 63, 10, -19, 12, 6, 16,
   79, -6, -2, 105, 33, 45, 49, -123,
   102, -127, 69, 41, 67, 86, -128, -71,
   -60, -53, -3, 126, 1, -110, -98, -39,
   127, 10, -128, 15, 91, 58, -87, -37,
   58, 85, 88, -128, 120, 20, 35, -70,
   -64, 57, 2, 123, 82, -12, -127, 4,
   -108, 10, 126, 116, 20, 127, 41, -84,
   33, 27, 15, 92, 16, 53, 35, -64,
   71, 9, -54, -5, -7, -43, 94, -80,
   -127, -126, 27, -24, -4, -127, -84, -40,
   -43, -16, 0, -37, -11, 2, -39, -91,
   0, 54, 12, -40, -126, 7, -34, 66,
   -40, 9, 1, -13, 13, -54, -3, -99,
   -99, 54, 54, -33, -78, -103, -97, -12,
   -19, -58, -16, -1, 2, 54, 0, -53,
   -66, 21, -34, -108, 23, 2, 83, -41,
   -1, -12, -80, -49, -17, 23, -25, -63,
   -10, 67, 36, -36, -65, 70, 31, 14,
   -34, 6, 17, 51, -81, -1, -40, -121,
   16, -4, 36, -52, 102, -33, 127, -9,
   -20, -2, 73, 67, 81, -112, -62, -4,
   19, 65, -83, 56, -111, 25, 14, -90,
   -90, 127, 39, -40, 121, 77, -31, 40,
   127, -8, 33, 117, 127, -23, -61, 95,
   32, -96, -128, 72, -127, 52, -25, 107,
   -49, 31, 11, -7, 23, -14, 4, 20,
   41, 6, 31, -52, -23, 10, 33, -81,
   67, -114, 0, -127, 13, -7, -32, -23,
   47, 90, -3, -50, -9, 42, 15, -97,
   -13, -71, -10, 54, -124, -41, 27, 20,
   10, -13, -35, -73, -119, 31, -15, 56,
   -10, 16, -30, -28, -34, 69, 9, 14,
   31, -26, 12, -16, 53, -24, 39, 50,
   -124, -38, -42, 5, 13, -15, 58, -22,
   -29, 10, 39, -86, -19, 1, -4, 7,
   27, -66, 14, -8, -83, -38, -3, -4,
   -59, -14, -16, 14, -55, -1, 33, -8,
   46, -71, 29, -78, 41, 13, 24, -17,
   -20, 3, 63, -4, 59, -64, -9, 12,
   24, 47, 44, -33, 88, 105, -116, -32,
   22, 20, -12, -96, -8, 3, 81, 22,
   -122, 4, -20, -102, 52, 65, -90, 68,
   -2, 21, 65, 115, -21, -67, -127, -24,
   14, -57, -21, 86, -2, -29, 47, 100,
   15, 17, -62, -3, 24, 7, 18, -27,
   -46, 13, -58, 109, -14, 52, -3, -85,
   -3, 34, 22, 14, 9, -4, 20, -82,
   -33, 76, -40, 33, -128, -19, -22, 56,
   -2, 52, -56, -30, 7, 26, -41, 34,
   48, -51, 5, -55, 3, 51, -4, 49,
   29, 17, -17, 19, 48, -4, -47, -15,
   -41, 1, -33, -9, 60, 29, 0, -4,
   -30, -64, -22, -16, 20, 25, 34, -40,
   20, -9, 31, -3, -96, 41, -4, 48,
   -6, 5, 7, 1, 83, 53, -27, 18,
   -21, 120, 74, -57, 51, 22, -37, 101,
   -124, -79, 19, 80, 22, -61, -114, -17,
   31, -38, 116, -43, 96, 52, -124, -76,
   23, 90, 34, -122, 102, 18, -53, -124,
   44, 91, 57, 125, 111, -128, -4, 26,
   -38, 29, -88, 79, 96, 91, -22, -36,
   44, 67, -88, 26, 16, -35, 26, 49,
   9, -33, -111, 38, -8, -17, -115, -18,
   19, -12, -18, 49, 21, -120, 45, -41,
   -41, 9, -30, 48, -32, 44, -73, -66,
   -13, 9, 16, 51, -127, -50, 115, 57,
   -7, -1, 9, -46, -67, -94, -39, 61,
   -1, -63, -22, 67, -16, -44, -24, -10,
   6, 8, 13, 36, 64, 36, 80, -32,
   -2, 20, 30, 14, 36, -48, 4, -3,
   31, -17, -10, 6, 46, 31, -27, 30,
   4, -41, 25, 6, 70, -15, 5, 18,
   111, 49, -12, -50, -83, 11, -15, -109,
   14, -15, -81, -46, -3, -28, 37, -126,
   32, 30, 123, 121, 92, -23, 96, 102,
   69, 72, -4, -24, -96, 97, -91, 20,
   37, 60, 47, -48, 54, -20, -12, 52,
   39, 69, 10, -11, -31, 24, -112, 112,
   -69, 127, -42, 127, -32, 58, 53, 43,
   28, 73, -53, 25, 8, 36, -84, -40,
   -21, 13, -58, 111, 46, 33, 14, 4,
   17, -64, 34, -37, -4, -116, 11, -35,
   -25, -29, 6, -49, -25, 117, 48, 74,
   -85, -57, 35, 19, -121, -53, 63, -36,
   22, 0, -6, 57, 7, 127, -21, 39,
   -29, -26, 23, 43, 2, 5, -16, -35,
   -6, -10, -10, 54, -15, -31, 32, 9,
   -127, -22, -21, -35, -8, -24, 10, 34,
   40, -43, 12, -5, 17, 23, -6, -13,
   18, -15, 11, -26, 22, -16, 1, -52,
   -17, 24, 7, 47, -8, -63, -29, -69,
   58, -109, -28, -73, 28, -6, 45, -30,
   71, -10, 3, 50, 32, -52, 44, -27,
   -29, 92, -1, 32, -33, 74, -128, 42,
   57, 116, 95, 1, 48, -68, -72, 28,
   25, 56, 26, 13, 6, -83, 90, -47,
   -36, -127, -12, 54, -4, -71, 32, 2,
   9, 13, -90, 119, -12, -56, -61, -49,
   21, 69, -85, -39, 15, -28, 63, 66,
   -17, -29, 51, 21, 11, -17, -35, -15,
   93, 57, 21, -18, -76, -5, 1, 36,
   -77, 80, 11, 21, -91, -39, 2, -3,
   94, 22, 18, 41, -7, -124, -26, 103,
   -50, -31, -3, 21, 10, 10, -3, -2,
   37, 46, -19, 7, 111, -3, 60, -36,
   -35, 8, -23, -71, -50, 19, -40, -11,
   -3, -23, -36, 32, 4, -5, 7, 60,
   3, -1, 27, -4, 56, 8, 26, -8,
   -78, 22, 29, -30, 56, 18, -16, 94,
   -18, 101, 44, -90, -72, -28, 76, -74,
   -40, 19, 98, 67, -1, 37, 41, -86,
   -126, -17, 116, -39, -56, 50, -111, -17,
   1, 5, 0, 4, -48, 22, -3, -121,
   -34, 64, 42, -15, -48, -103, -2, -24,
   0, 73, 54, 46, -12, -8, -44, 2,
   12, 38, -13, 94, 0, -41, 0, 13,
   72, -34, -4, 1, 15, 47, -76, -21,
   -38, -20, 26, 12, 35, 14, -19, 38,
   -10, -32, -6, 112, -2, -24, 17, -37,
   -25, 2, 14, 40, 126, 37, -28, -32,
   32, -20, 38, 9, 50, 38, 7, -1,
   -7, 38, -38, 16, -16, -19, 29, 0,
   -22, -18, 36, -9, 29, 35, -4, 21,
   6, -25, 23, -32, -28, 1, -20, -59,
   28, 0, 15, 36, 11, 4, -2, -12,
   -16, -38, -4, 0, 47, -50, -12, 6,
   -32, 13, 33, -40, 37, 22, -9, -65,
   11, -20, -13, 52, 22, -14, 89, -42,
   1, -39, 11, 46, -7, 104, 35, -66,
   17, 31, 107, 8, -18, 115, 99, -31,
   -61, 69, 46, -6, 20, 14, -81, 1,
   -69, -12, -62, -36, -33, 69, -51, 11,
   52, 90, -9, 95, -29, -52, 8, 107,
   14, 22, 23, 49, 13, 30, 54, -5,
   78, -33, 34, -10, 7, -48, 98, 13,
   -37, 17, 29, -12, 3, -72, 9, 34,
   -122, -3, -11, 26, 64, -9, 1, 11,
   119, 58, -51, 62, 36, -69, 2, -1,
   -60, -16, -38, 1, -85, 127, -29, 60,
   -8, -10, 7, -8, 3, 51, 19, -10,
   -21, -16, 8, 57, 36, 0, 33, -42,
   -20, 40, 13, 31, 58, -5, -28, 16,
   32, 9, -5, -36, 16, 13, 5, -40,
   22, -2, 26, 24, -56, 65, -9, -35,
   13, -14, 15, 29, -47, -14, 33, -19,
   -53, -84, -78, 40, 9, 57, -4, -5,
   -19, -85, -70, -62, 20, 16, 62, -106,
   25, 58, -47, -49, -45, 94, 1, 61,
   42, 64, -25, -51, 5, 122, -62, 70,
   53, 67, 54, -31, -11, -50, -39, -25,
   -24, 49, -7, 11, 52, -87, -19, -109,
   40, -11, 22, 26, 14, 23, -9, -120,
   90, -5, -4, 14, 17, 26, 40, 32,
   -32, 39, -20, 68, 72, 39, -26, 17,
   -31, 24, 16, 21, -46, -75, -16, -15,
   20, 11, 14, 11, 34, -2, 40, 44,
   55, -38, 21, -22, -1, 17, 25, -39,
   25, -46, -28, 26, -52, -32, 41, 38,
   -38, -16, 29, 41, -51, -65, -111, 24,
   38, -54, 19, -16, 2, -96, 58, 46,
   40, -5, -90, 73, 71, 22, -55, 42,
   34, 60, -68, 14, -22, 16, 30, 127,
   -23, -11, -45, -66, 127, -13, 58, -29,
   92, 94, 20, -21, -14, 12, 6, -48,
   26, 50, -102, 35, 55, -20, -28, 27,
   17, -39, 73, 63, 13, 100, 25, 46,
   55, 77, 11, -6, -20, -67, -3, 5,
   37, -52, 60, 120, 127, -39, -83, 127,
   -3, 38, 42, -50, -5, -33, -22, 16,
   8, -4, 7, 88, 50, 48, -53, -100,
   -10, 29, -8, -1, 64, -69, 99, -10,
   -37, -2, -43, -29, 47, -3, -123, -18,
   -1, 63, -69, 51, -86, -49, -33, 9,
   29, 64, -34, -80, -21, 5, 14, 9,
   -3, 58, -34, 68, -49, -19, -56, -29,
   -100, 70, 127, -60, -119, 7, 21, 18,
   -38, 1, -8, 16, -104, -20, -14, 15,
   -83, 28, -40, 74, -15, 26, 28, -97,
   78, 14, 54, -13, -58, -23, -21, 87,
   -16, 54, -19, 103, 65, -97, 0, 30,
   -65, -15, -27, 40, -57, 25, 61, 46,
   127, 66, 36, 22, 41, -67, 54, 78,
   -29, 9, -7, 63, 28, -62, -5, 43,
   -32, -31, -83, -84, 62, -43, -1, -5,
   -10, -12, -52, 40, -58, 3, -84, 30,
   -127, 52, 119, -127, 126, 52, -56, -35,
   7, -57, -127, 29, -77, 96, 29, 47,
   14, 13, -7, 105, -34, 38, -98, 67,
   -110, 52, -46, -22, -24, -37, -54, -44,
   39, 39, -54, -26, -83, 58, -100, 19,
   3, -63, -6, 63, 39, -89, 13, -5,
   -104, 84, 42, 5, -37, 66, -34, -41,
   4, -65, 88, -80, -25, -38, -8, -82,
   -33, -41, -77, -25, 2, 127, 29, -48,
   0, 6, -84, -41, -37, -35, -49, -46,
   -20, 70, -23, 48, -10, 7, 53, 47,
   -25, 3, -3, -22, 76, 15, -24, 18,
   28, 35, -21, 36, 4, 94, 5, -128,
   30, -12, -24, 67, -56, -102, -1, 117,
   67, 24, 108, 57, -32, -15, 125, -125,
   103, -42, 115, -64, -32, 4, -71, 25,
   -68, -30, -56, 3, -97, 44, -83, 34,
   -59, 63, 62, -21, -33, -127, -82, -8,
   -31, -3, 31, -114, -120, -4, 29, -128,
   -126, -82, 125, -28, -15, 78, -22, 6,
   63, 33, -28, -44, -78, -19, -65, 30,
   -54, -4, -69, 108, 1, 3, 6, 63,
   56, -5, 88, -23, -22, -55, -83, -73,
   55, -79, 38, 31, 125, -30, -20, 40,
   -40, 58, -15, -32, 25, -31, -2, -17,
   48, -84, -64, -61, -43, -61, -6, -71,
   92, 34, 14, -53, -64, 14, -26, -38,
   -28, 10, 5, 31, -93, -33, 7, 20,
   -127, 11, -96, 36, 55, 91, -75, -30,
   4, -9, 32, 5, -4, -45, 2, 24,
   3, -71, -10, -5, -94, -14, -11, -18,
   -127, -30, -12, -3, -42, 32, -62, -22,
   -61, 110, -100, -33, -67, -42, 30, 7,
   26, 13, -21, -87, 16, 69, -16, -24,
   -91, -34, -124, 89, -57, 22, -58, -26,
   -17, 74, 18, 21, -22, -61, -14, -8,
   127, 17, -12, 126, -125, 17, 40, 53,
   -5, -83, -113, -49, 60, 55, 88, 47,
   -29, -108, 20, 107, 4, 17, 33, -79,
   0, 13, -35, -55, -40, -104, 27, 14,
   -58, -9, -41, 7, 5, 2, 89, 49,
   -47, 127, 68, 32, -67, -78, 18, 14,
   1, -42, -69, -49, 66, -26, -19, 100,
   -49, 15, 14, -10, -3, 30, 34, 34,
   26, 76, -30, -45, 27, -2, -29, -15,
   -8, 2, 46, 51, -9, 4, 41, -101,
   80, 89, 12, 114, 92, -27, -39, -23,
   -55, 20, 14, 13, -81, -23, 24, 38,
   55, 49, -46, -63, 27, 36, -38, -72,
   7, 46, -52, 2, -48, -96, 0, 65,
   30, 108, -32, -61, -51, 72, -23, -54,
   15, 98, 19, 21, -85, -23, 55, -75,
   18, -27, -46, -90, 47, 26, 73, 11,
   48, -49, -66, 33, -20, -83, -56, 27,
   -120, 50, 48, -32, -127, 45, 65, -13,
   -23, -59, 122, -81, 0, -115, -15, -28,
   -121, -11, -55, -22, 48, 44, 8, 48,
   -15, 61, -90, -17, -79, -78, -76, 35,
   75, 39, 48, -51, -62, -11, 12, -34,
   -26, -59, 80, 59, -24, -96, -40, -30,
   30, 55, -41, -20, 17, 8, -19, 10,
   6, 6, 29, 18, 31, -18, 47, 19,
   59, -71, -21, 109, 22, -106, -10, -24,
   -22, 0, -11, 17, -62, 19, 35, -27,
   -123, -69, -37, 123, -25, 9, 75, 80,
   -103, -29, 11, 48, 73, 8, 46, -88,
   -21, 56, 48, 72, 20, 43, -39, 70,
   -116, -17, 11, 70, -14, -55, -5, -36,
   19, -42, 121, -64, 97, 19, -20, -50,
   90, 38, -69, 3, -75, -5, -29, -6,
   -49, 65, -54, 39, -64, 8, 28, 10,
   12, 20, 40, -14, 33, -66, 78, -16,
   90, 70, -81, 10, -126, 51, 10, 9,
   9, -41, -58, -127, 34, -30, 56, -9,
   -35, 63, -17, -45, 21, 46, -31, -3,
   28, 23, -61, -43, 11, -29, 30, -12,
   12, -16, 65, 34, -14, 33, 2, -18,
   -6, 69, 14, -29, -70, -19, 73, -12,
   42, 46, -6, -7, 7, -4, 42, 64,
   52, -25, -63, 7, 28, 24, 53, -3,
   -57, -6, -35, -56, -114, -56, -20, -35,
   -30, -14, 40, -37, -52, 77, -80, 15,
   61, -13, 74, -11, 18, -75, 20, 90,
   -22, 99, -128, 51, 12, 50, 36, 59,
   -1, 33, -87, -90, 52, -35, 6, -29,
   -36, -83, -35, -37, 101, -20, -28, 23,
   40, 45, 10, -44, 14, 11, 20, -6,
   26, 7, -95, 14, -28, 6, 58, 83,
   77, 6, 19, -34, 21, 47, 65, 60,
   16, -79, 17, 5, -68, -101, -6, 44,
   27, 51, 34, 118, 107, 8, -78, 125,
   -11, -44, 25, -54, -32, -12, -9, -4,
   8, 35, 36, 42, 15, -27, -46, 31,
   76, 66, -6, -2, 34, 0, -66, 3,
   -7, -64, 11, -12, 93, -45, -24, -69,
   -39, -37, 19, -57, -18, -4, -6, -80,
   79, -126, 70, -87, 43, 2, 7, 27,
   -2, -9, 11, 68, 20, 44, 42, 37,
   -76, 38, 54, -49, -31, -61, -49, 8,
   -31, -97, 19, 83, 51, 44, 3, 25,
   55, 7, -63, -73, 54, 51, -25, -8,
   22, 26, -19, -27, 18, 14, 10, -18,
   50, -19, 61, 18, -35, 2, -26, 6,
   -42, -52, -39, 37, 42, -17, -8, 23,
   50, 6, -34, 0, 5, 23, 12, 43,
   79, 11, 11, 1, -33, 30, 0, 44,
   23, -9, 21, 17, -5, -8, 29, 0,
   18, -87, -49, 56, 33, -55, 17, 4,
   -85, 25, 96, -127, 107, 38, -32, -68,
   25, 81, -45, 30, -87, -12, 24, 59,
   29, -21, 43, 42, -80, 57, 73, -83,
   -7, -32, 86, -13, -69, -69, 18, 60,
   73, -87, -8, -69, -101, -46, -26, 24,
   -19, -59, 5, 71, -10, 3, -43, -66,
   -18, -55, 39, 9, -6, 4, 3, -6,
   22, 55, 75, 54, 86, 32, -6, -1,
   -13, -72, -68, -14, -30, 126, -13, -1,
   21, 47, -52, -2, 64, -48, 25, 26,
   -47, 52, -11, -46, -28, -44, 13, -4,
   7, 26, 12, -2, 26, 26, -63, -35,
   -29, 17, -11, -23, -43, 0, 6, 20,
   -115, -30, -35, 48, -85, -85, -74, 37,
   -42, 50, 3, -24, 26, -18, -9, -38,
   -117, -19, 26, -37, 6, -67, -31, -88,
   -26, 12, 38, -21, -45, 27, -60, -26,
   2, 72, 29, 25, 4, 53, 21, 34,
   43, 11, 7, -108, -64, -105, -19, -89,
   -35, 67, 54, -10, 12, 33, -41, 50,
   14, 68, -54, 30, -78, 33, 17, 7,
   25, -31, -11, -32, 33, 64, 67, -33,
   -6, 89, 6, -31, -42, 49, -52, -85,
   -7, -63, 34, -18, -5, -16, 7, -124,
   -50, 40, -74, -10, 11, -30, 9, 19,
   -48, -53, -42, -5, 44, -44, -30, 3,
   67, 24, 5, 15, -15, 30, 29, 58,
   -15, 14, 11, 84, -56, -30, -56, 41,
   -47, -25, 13, -21, -59, -13, -9, -28,
   -28, -50, -54, -21, -19, -41, 12, -23,
   -12, -7, -47, -16, -67, -12, -3, -48,
   -56, 13, 106, 27, -6, 25, -34, -29,
   34, 123, 60, 35, -19, 40, 31, -6,
   72, 26, -97, 25, -5, -7, -72, -3,
   -31, 29, -114, 43, 11, -24, 7, -23,
   21, 2, 30, -45, -20, -41, 96, -21,
   105, -63, -86, 109, 5, -1, 15, 94,
   -34, 12, -66, -9, -15, 67, -29, -40,
   -14, 99, -91, 3, -24, -12, 14, 91,
   -95, 27, -88, 10, -9, -25, -25, 15,
   -39, 12, -65, -6, -77, -68, 113, 22,
   18, 62, 41, 3, 49, 9, -4, 21,
   53, 22, 87, 11, -8, 7, -61, 87,
   -62, -20, 85, 87, -5, -63, 44, 84,
   47, -25, -20, -54, 35, 13, 104, 34,
   67, 20, 31, 58, 1, 7, 22, -30,
   3, -13, -7, 3, 6, 104, 35, 24,
   -33, -36, 40, 14, -18, -32, -5, 16,
   41, 50, -3, 10, 15, -21, 33, -113,
   -57, -42, -61, 20, -57, -9, 27, 3,
   63, 22, -99, -6, -28, 28, -27, -29,
   5, 26, 75, -48, 11, -98, -38, -93,
   -81, -117, -43, -5, -7, -4, 53, -2,
   -15, -72, -71, -39, -42, -4, 53, -27,
   -58, -24, -66, -57, -27, -48, -5, -38,
   -56, 40, 72, 117, 30, -20, 34, 51,
   -31, 2, 81, -43, 30, 46, 82, -31,
   -79, 1, -31, -11, -36, 59, -86, 1,
   15, -29, -32, -18, -24, 13, 10, -67,
   -8, -116, 14, 67, 0, 49, 75, -53,
   -18, -9, 68, 82, -10, 23, 57, 48,
   12, -36, -78, -12, -80, 8, 15, -83,
   -9, -72, -23, 34, 19, 40, 30, -5,
   34, 8, -22, 23, 4, 34, 34, 78,
   -51, 1, -6, 56, -8, -34, 54, -26,
   62, -50, 8, 27, 37, -22, -25, -41,
   -48, 21, 15, -7, 10, -37, -37, 26,
   23, 2, -15, 33, -12, -6, 3, 2,
   27, 34, 52, -15, 20, -12, 51, -7,
   -61, -12, 8, -19, -79, -115, 29, -71,
   -64, 101, 39, 11, -44, 30, -14, -22,
   22, 20, 27, -16, -3, 0, 0, -54,
   62, -76, -6, -10, -77, 26, 44, 14,
   6, -46, -30, 9, -6, 16, -66, 119,
   51, -80, 24, -128, -44, 16, -5, -37,
   -3, -56, 1, -60, -20, -9, -26, -112,
   -23, 59, -15, -125, 58, -31, 7, 59,
   -1, -93, -20, -35, 63, -17, 10, 28,
   3, 64, -38, -17, -18, -30, -37, 62,
   -79, -10, -25, -42, -128, -53, 32, -51,
   23, 25, 7, 78, -45, -67, 29, 54,
   11, -127, -125, -36, -34, 3, 28, 20,
   37, 42, 3, 50, -63, -20, -8, 59,
   -3, 29, 48, -73, -9, -27, -70, -19,
   26, 16, -21, -2, -10, 54, 94, -17,
   25, 41, 12, 34, -102, 6, 17, 46,
   -55, 76, -23, 127, 5, 39, -126, 72,
   -36, -60, -62, -58, -31, -63, -13, 29,
   12, -42, 54, 74, 9, 61, -30, 53,
   0, -18, -31, -48, 88, -3, 7, 1,
   -87, 20, -80, -125, -108, -27, 107, -7,
   1, 19, 17, -112, -53, -21, 34, 81,
   42, -84, 86, -127, -23, -43, 12, -26,
   2, -48, 46, -20, 21, -19, -86, -23,
   -67, 35, -4, 52, 38, 22, 18, -10,
   24, -56, 1, -51, -3, 25, 30, 41,
   0, 9, -54, 25, -15, -50, -32, 25,
   -46, -53, 7, -26, -126, -86, 11, -9,
   4, -37, 29, 32, -15, 0, 66, 30,
   46, -94, -38, 9, 32, -23, 37, 26,
   63, 39, 2, 7, -46, 2, 26, -35,
   27, -15, -35, -20, -18, -1, -27, -23,
   39, -16, 11, 5, -4, 32, 35, -49,
   37, -2, -25, 24, 20, -7, -29, 52,
   -66, -1, -28, 127, 19, 86, -66, 49,
   -50, -56, -18, -2, -11, -54, 38, 37,
   14, -34, -19, 106, -30, 6, -70, 2,
   43, -26, -8, -49, 58, -4, -3, 14,
   -2, 59, -24, 34, -88, -36, 90, 14,
   53, 0, -10, -30, -91, -35, 59, 10,
   12, -54, 43, 125, -22, 26, 4, 89,
   -33, -13, 106, 59, 35, 42, 9, 127,
   -18, 31, 40, 110, -48, 101, -41, -47,
   20, 127, 13, -124, 2, 70, 13, 126,
   44, -72, -25, 46, 27, 40, -94, -37,
   -27, 8, -43, 2, -30, -45, -13, -10,
   -33, -88, 33, 37, 93, 82, 5, 28,
   -5, 60, 57, 70, 83, -19, 44, -28,
   18, -11, 1, 54, 59, 45, 55, -117,
   16, -52, -64, 59, 49, 9, 42, -49,
   -2, -52, 25, 9, 93, -39, -35, -70,
   -9, -15, -23, 45, 47, -2, -81, -42,
   4, -13, 8, -128, 63, 72, 61, -58,
   -52, -6, 127, -3, -15, 87, 94, 81,
   127, 93, -55, 81, 64, -11, -7, -52,
   -34, -101, -12, 23, -3, -41, -79, 12,
   79, 126, 7, 127, 28, -68, 127, 44,
   89, 5, -13, 92, -49, 25, 105, -34,
   47, -4, -2, 103, -31, 124, -3, 108,
   -70, 62, -20, -2, -14, 47, 51, 10,
   -84, 27, 27, -24, -40, 50, 13, 69,
   -19, -4, 5, -127, 30, -32, 45, 44,
   23, 19, -43, 12, -63, 13, -90, 51,
   -15, -27, -4, -8, -32, -48, -23, 15,
   45, -111, 23, 122, 85, -82, 14, 41,
   -69, 18, 3, -38, 44, 44, -70, 2,
   -18, -29, -8, -21, 71, -17, 32, -18,
   -23, -20, 5, 45, 13, -2, 24, -75,
   -6, 1, 7, 29, 30, -38, 27, 10,
   -37, 12, 24, 41, -39, 32, -26, -28,
   40, 75, -5, -128, 55, -13, -60, -26,
   13, 15, -10, 41, -36, -47, -53, 4,
   84, 9, 28, 33, 60, 37, 27, 1,
   -41, -66, -92, 5, 25, 29, -76, -16,
   -126, 5, -105, -127, -73, -3, 94, 57,
   21, 28, 28, 40, 53, 127, 46, 3,
   28, -17, 31, -23, -72, 57, 12, -13,
   -82, 44, 3, -5, 4, -38, 9, -21,
   -30, 59, 24, 30, -64, -39, -57, 52,
   -9, -9, 65, 70, -63, -34, 56, 15,
   85, -17, -63, 3, 48, -67, 1, -101,
   -9, 21, 0, -39, -58, -3, 12, 12,
   25, -127, 52, 107, 29, -41, 45, 33,
   -32, 96, -13, -21, 27, 27, -59, 29,
   39, 0, 21, -124, 46, -37, 20, -3,
   12, 2, -5, 25, 28, -2, -10, -44,
   3, 22, 51, -4, -22, 14, 10, 7,
   -7, 23, 0, 16, 49, 33, 3, -24,
   -10, 12, -11, -24, 35, -27, -12, -2,
   53, 1, -112, 7, -11, -88, -81, -19,
   -12, 4, 22, 72, 31, -25, 8, 22,
   37, 102, -23, -17, -27, -18, -55, 13,
   87, 57, 43, 23, 75, 43, 62, 18,
   55, 42, -36, -43, -13, 124, 90, -14,
   -43, 10, 17, 2, -69, -22, 7, -48,
   -67, 20, 117, -71, 7, 43, -9, 78,
   -52, 21, 67, 38, -68, 2, -50, -5,
   26, 6, -22, 69, -29, -2, 24, 8,
   13, -18, -71, -28, -12, 43, -9, -78,
   -20, 52, -27, -2, -19, -30, -6, -42,
   -5, -60, 29, 119, 75, -13, -1, -2,
   -19, 78, 2, -2, 8, -26, -23, -4,
   19, 22, 2, 17, 16, -15, 33, -51,
   -21, 10, -19, -17, 23, -28, -11, -114,
   5, -3, 6, -35, 31, 4, 27, 0,
   -75, 45, -25, 31, -11, 37, 61, -29,
   42, 68, -12, -24, 69, 69, 5, 20,
   84, 54, -114, 20, -17, 52, -11, 8,
   63, 1, 6, 44, 4, -49, -31, -7,
   -5, -27, -54, 25, 61, -3, 73, 55,
   -10, 0, 13, 47, 69, -35, 95, -37,
   91, 20, 44, -59, -127, -27, 46, -26,
   60, 49, 37, -45, -102, 39, -75, 1,
   16, 3, -43, -13, -23, -7, 0, 24,
   12, 106, 15, -15, 39, 39, 51, -18,
   -9, 27, 20, -3, -30, 30, 44, -11,
   -11, -41, 3, -18, 1, -22, -35, 27,
   -37, -33, 45, -40, 18, 21, -107, 64,
   -5, -68, 58, 125, -11, -14, 4, -2,
   -64, 20, -8, 13, 4, 57, 54, -5,
   10, 2, 68, 34, -12, 29, -44, -76,
   0, 20, 34, 34, 22, -22, -26, -7,
   -31, 20, -1, -77, 13, 7, 40, -12,
   10, -106, -35, 7, -33, 4, -51, -11,
   22, -4, 14, 42, -127, 15, 42, -43,
   -10, -36, 10, 60, 17, 54, 29, 11,
   -54, 29, -6, 44, -8, -55, 33, 30,
   -13, 38, -9, 83, 58, -68, 10, 39,
   20, 4, 11, 20, 2, 9, -45, -9,
   -7, -69, -3, 89, -126, 2, -105, 19,
   -53, -5, 48, -39, -24, -25, -3, 65,
   19, -24, -36, -6, -102, 7, -28, 22,
   14, 2, -93, -13, 38, 21, -3, -13,
   39, -100, -29, -35, 41, 32, 19, 9,
   -27, -33, -48, -9, -12, -20, -51, 22,
   59, -17, 19, -23, 56, 41, 58, 24,
   -62, -10, -24, 7, -8, -3, 99, -64,
   -4, 10, -34, 14, 31, 27, 7, 20,
   37, 48, -51, 20, -32, 42, -7, 2,
   -8, -8, -97, -61, 23, 43, 14, -3,
   5, -23, 1, 31, -12, -104, 6, -22,
   14, -10, 6, -20, 12, -40, 6, 16,
   23, 6, 14, -8, 18, -26, 31, 21,
   -37, -37, -26, -1, 12, 6, -7, 26,
   -15, 34, 5, -12, -21, 17, 12, 17,
   21, -20, -18, 36, 26, 39, 18, 31,
   8, -8, -27, 3, 2, -17, -19, -23,
   -23, 6, -21, -3, 0, 48, -17, 5
};

static const rnn_weight noise_gru_recurrent_weights[6912] = {
   -32, -18, -5, 0, -34, 31, -4, 38,
   40, 48, -2, -76, -16, -66, 26, -14,
   19, 36, -63, 29, 3, 34, -39, 64,
   18, 41, 49, 19, -14, -18, 13, 3,
   -78, -4, -49, 12, 47, -5, -67, -47,
   2, 24, 85, 16, 28, -20, 1, 10,
   -29, -7, 38, -5, 41, 67, -24, -32,
   15, -35, 11, -48, 32, -12, 56, -12,
   11, -32, -8, -11, 5, 50, -35, -16,
   17, -4, -3, -38, 20, 18, -102, 6,
   -17, 33, 4, 16, 5, 8, -14, 24,
   2, 38, -9, 16, -32, 40, -23, 37,
   8, 29, -16, 39, 43, 47, -13, -37,
   5, 125, -67, -13, 27, 30, -7, -1,
   -8, -5, -13, 60, 19, 3, -51, -25,
   -34, 13, -11, -125, 5, -25, -11, -111,
   -38, -54, 0, 1, -16, 18, 10, -2,
   56, -11, 9, -1, 25, 33, -25, -21,
   -31, -43, -10, -6, 19, 42, -40, -11,
   16, 36, -21, 20, -28, -55, -14, 79,
   0, 5, 13, -19, -1, 35, 26, -89,
   66, 7, -62, 45, 45, -15, 16, 107,
   -113, 98, 25, 44, -59, -3, -43, -80,
   -29, -31, -13, 3, -2, 4, -106, 70,
   -4, -26, -10, -39, 54, 8, 72, 5,
   22, 6, 13, -47, -36, -11, 18, -25,
   78, -3, 4, 18, -8, 12, 101, -58,
   65, 31, 66, 15, 16, -23, 14, 10,
   16, 4, -4, 19, 50, 54, 54, 73,
   36, 38, -8, -15, -26, -25, 43, -121,
   -29, 9, 17, 32, 87, 66, -23, 30,
   -49, 119, 57, 15, 3, 33, 25, 47,
   -23, 38, 24, -59, -29, 55, -71, -123,
   -5, 5, -11, 9, -18, 52, 36, -38,
   -1, -30, -108, -46, 51, -44, 21, -61,
   30, 8, -26, -6, 45, -31, -50, -4,
   8, -56, 1, 3, -37, 10, -5, -68,
   3, -6, 27, 29, -15, 23, 52, 74,
   -59, -52, -29, -31, -19, 34, -79, 68,
   77, -13, -45, -71, -5, 9, -13, 30,
   -5, -55, 47, 55, 2, 23, -61, 25,
   -28, -50, -37, 75, -32, -9, -59, 5,
   40, -81, 19, -21, -2, 49, 29, 21,
   -12, 70, -42, -73, 60, 20, -3, 60,
   114, -17, -87, -60, 5, -13, -19, -66,
   32, -4, 2, -65, 67, -1, 36, -84,
   -29, 13, 6, 20, -51, -48, -2, 42,
   -19, -9, 42, -29, 53, 8, 26, -8,
   -25, 66, 63, 45, 12, 18, 75, -6,
   -26, -35, -32, 30, -18, 27, -35, -11,
   68, -1, 43, 74, 16, -48, -40, -32,
   2, -29, -45, 9, 8, 63, -28, 28,
   50, -63, 54, 20, 97, -13, -11, 34,
   13, 56, -31, -11, 51, 12, -20, 30,
   10, 3, 9, -3, -96, 111, -127, -29,
   -48, 10, 45, -1, -29, 28, 27, 93,
   21, 65, -8, 14, 3, 6, -13, -6,
   56, -51, -90, -88, 52, 57, 30, -32,
   -22, 119, 23, 51, 1, 30, 42, -86,
   -52, 40, -85, -66, -69, 28, 24, 10,
   39, 17, -17, 6, -59, -8, 78, -18,
   11, 22, -36, -42, -28, 37, 83, 10,
   33, -25, -8, 6, -57, -70, -41, 22,
   40, 72, 57, 86, 33, -15, -104, -23,
   -2, 5, -15, -36, -5, 3, 47, -7,
   -3, 22, -20, 8, -34, -66, -13, -12,
   19, -4, 56, 0, -83, 61, 4, -48,
   -11, -31, -35, -17, 1, 8, -12, 66,
   -12, -26, -32, 37, -61, 63, -66, -27,
   36, -2, -25, 7, 75, -79, 29, -28,
   -125, -41, -44, 2, 2, -110, 15, 51,
   24, -45, 43, 30, 19, 33, -17, 9,
   -19, 63, -27, 22, 31, 119, -46, -4,
   6, -17, -37, -13, -1, -55, 12, 12,
   -39, 18, 81, -36, 20, 30, -36, 41,
   36, 21, -93, 24, -43, -3, 66, -16,
   12, 86, -2, 4, 39, 11, -10, 48,
   -30, 37, -25, 1, 28, -12, -11, -10,
   -8, -45, -13, 2, 8, -34, 45, 5,
   33, 91, -9, 5, -1, -22, -32, 42,
   27, -21, -85, -47, -63, 16, 21, 34,
   -11, 37, 17, -126, -33, 11, 19, 4,
   -4, 13, 4, -4, 34, -31, 57, -4,
   -73, 8, -34, -25, -1, -26, 75, -28,
   -82, -12, 0, 31, 5, 1, 69, -79,
   27, 14, 34, -14, -67, -28, 46, -80,
   14, 29, 26, -14, -27, -25, 125, 42,
   7, -2, -50, -29, 3, -21, -41, 100,
   12, -22, -2, -52, 23, -82, 33, -23,
   27, -40, -41, -16, -25, 3, -49, -46,
   -29, -72, 17, 34, 42, 40, 2, -10,
   -36, 17, -42, -8, -11, 13, 20, 62,
   56, 23, 20, 55, -3, 20, 19, -42,
   95, 39, 32, 2, -26, -27, 28, 103,
   -94, 29, 42, -66, -52, 31, -84, 31,
   -17, 87, 5, 2, -30, -5, -19, 60,
   16, -16, -47, -10, 12, -5, -18, 10,
   -73, -19, -47, 12, 29, 3, -23, 54,
   39, 54, -29, -57, 47, 32, -81, -21,
   -3, -29, -28, -45, 11, 51, -12, 7,
   13, 3, 9, -38, -23, 18, 67, 10,
   -55, 36, 26, 34, 66, 11, 8, -26,
   69, -47, 51, 25, 75, -43, 59, -112,
   -128, -42, 2, -35, -62, -56, -50, 33,
   28, 94, 1, 36, -21, -24, -32, -31,
   7, 24, -9, -97, -63, -30, 21, -46,
   -17, 1, 34, 0, -31, -4, 29, -57,
   42, 29, 15, 44, 34, -13, -94, -18,
   -13, 1, -34, 32, -38, 9, -49, -16,
   -109, -6, -14, 1, 37, 30, 48, -55,
   100, 121, -51, -65, 55, 52, 1, 13,
   -12, 57, 29, -17, -13, -33, -58, 57,
   55, 4, -26, 11, -40, 39, 46, 80,
   68, 54, 33, 12, 23, 107, 33, -11,
   -9, 1, -17, -22, 3, 24, -29, -6,
   -26, 31, -5, -51, 17, -14, -3, -18,
   38, 8, 23, -50, -38, -17, 87, -13,
   -24, -4, -29, -23, 26, -2, 43, -25,
   -9, -8, 13, -8, 76, -13, -43, 9,
   -26, -16, -19, -36, 16, 28, -42, -67,
   -3, -53, -16, -23, -2, 19, -4, 10,
   43, 69, -26, 46, 34, 28, -13, 15,
   66, -17, 5, -20, 71, 38, -80, 48,
   10, -16, -30, -6, 93, -8, 26, -88,
   -127, -4, 35, -81, -25, -21, -30, -27,
   31, 34, 41, 21, 7, -44, 55, -17,
   30, 43, -25, -41, 26, 26, -50, 0,
   17, 26, 90, -29, 20, 41, 17, 72,
   24, 42, 80, -27, 0, -49, -9, -59,
   24, -42, -84, 90, -7, 25, 77, 84,
   36, 41, 32, 8, -47, 32, -15, -2,
   80, -27, 85, -57, 49, 6, 60, -43,
   -30, 0, 24, -21, -27, -65, 24, 2,
   27, 75, 29, 30, -91, 34, 0, -16,
   19, 5, -22, 21, -30, 1, -13, 65,
   5, 46, -34, -29, -14, -41, -9, 32,
   -47, 46, -81, 53, 58, -91, 25, 17,
   40, 8, -8, -53, -49, -1, 7, 33,
   41, 46, -39, 91, 35, -18, -2, 52,
   35, -50, -2, 25, 70, 25, 14, 29,
   43, 77, -26, 19, 53, 36, 74, -124,
   -15, 111, 44, 43, -53, -45, -57, -14,
   24, 17, -1, 20, 41, -122, -28, -5,
   71, -24, 44, -31, 1, -39, -111, -38,
   44, 25, -3, -27, -26, -70, -12, -9,
   18, 94, 40, 41, -15, -64, 22, -14,
   -105, 60, 64, -28, 40, -18, -33, -27,
   -15, 66, -50, -24, 71, 31, 10, -65,
   20, -37, -24, 65, 126, -40, -67, 31,
   -45, -70, 12, 14, 49, -47, -19, 7,
   -22, 16, -15, 11, 9, -25, 13, -70,
   -53, 43, -16, -60, -30, -51, -19, -19,
   20, -34, -6, -5, 14, 4, 40, -3,
   38, 10, 33, 1, -11, 7, -54, -79,
   -20, -16, 9, -9, 2, -26, 8, 22,
   -18, -15, 8, 39, -43, 11, 21, -1,
   27, -17, 31, 22, 69, 35, 5, -16,
   19, 46, 13, 3, 37, -23, 126, 26,
   -28, -51, 19, -45, -22, 78, 23, -36,
   42, -23, -5, -11, 15, 19, -8, 32,
   32, 33, 55, 5, -25, 13, 9, 18,
   -31, 1, 31, 77, -55, -38, -8, -62,
   48, -24, -37, -18, -19, 70, -84, -16,
   16, 17, 126, -13, -52, 55, 84, 125,
   -17, 68, 36, 16, -3, 35, 24, -24,
   126, -21, -48, 29, -6, -50, 76, 48,
   0, 1, 22, 2, -18, 82, -20, 39,
   0, 31, 49, -49, 7, 14, -21, 40,
   1, 2, -48, -13, -21, 18, -84, 3,
   31, 3, -15, -10, 43, 23, -53, 20,
   1, -5, -30, 12, 7, 69, 26, 40,
   11, 14, -54, 19, 26, -17, 43, 45,
   -25, -39, -28, -15, 24, -8, -14, 22,
   22, 35, -38, -34, -31, 44, 42, -19,
   33, -80, -16, -93, -2, 12, 28, -9,
   -9, 10, -17, 29, 19, -19, -16, 46,
   2, -22, 77, 26, 49, 38, 46, -26,
   -11, 31, -8, 43, 38, -12, 38, -14,
   33, 26, 4, 58, 41, 10, -25, 11,
   -40, -30, 31, 43, 63, 90, -14, -44,
   -25, -62, -25, -40, -33, -32, -20, 19,
   3, 97, -68, 1, -6, 72, 6, -28,
   18, 37, -14, 10, 45, 22, 44, 121,
   -60, -61, 59, 27, 7, 46, -16, -19,
   -103, 0, -88, 11, -39, -3, -17, -78,
   31, -58, 59, 71, 41, 64, 53, -21,
   6, -38, -2, -33, 35, -73, -18, -16,
   -28, 9, -18, -71, -11, 30, -34, 5,
   7, -18, -2, -94, -3, -4, 6, 46,
   22, 4, -29, -26, 7, -31, -55, 45,
   -17, -21, -5, 8, 5, -21, 11, 1,
   10, 8, -14, -11, -11, 23, -20, 5,
   -7, 4, 23, -61, -56, -16, -35, -61,
   -14, -28, -31, -71, -35, -19, 90, 15,
   13, -39, -23, -95, -47, 26, 5, -27,
   16, 6, -42, -10, -43, 4, 0, 5,
   15, 43, 15, 12, 9, 18, -54, -8,
   -9, -18, -40, -10, -40, -16, 33, -32,
   -40, -9, -10, -86, -12, 68, -32, -3,
   49, 25, 30, -30, -55, 103, 61, 72,
   -39, 3, 16, -15, -41, -2, -47, -62,
   95, -16, -14, -35, -34, 17, 35, 111,
   1, 55, -4, 5, 40, 63, -100, -30,
   -4, 56, 17, -1, 17, -9, -11, 23,
   -43, 51, -7, -40, -93, -11, 10, 53,
   -16, 8, 36, -41, 53, 29, -13, 10,
   39, 22, -89, -33, -37, 20, 20, 49,
   6, 2, -20, 6, -3, -26, 12, 33,
   -5, 15, 7, 14, -3, -44, -26, 52,
   65, 16, -54, -7, -53, 21, 54, -81,
   27, 107, 36, -33, 53, 66, -4, 14,
   -23, 51, 3, -9, -8, -49, 9, 28,
   66, 33, 11, 12, 51, 27, -12, -60,
   21, -109, 58, 53, 69, 77, -27, -92,
   22, 70, -14, 35, 43, 29, 14, 7,
   54, 2, 13, 32, -14, -18, 15, -8,
   23, 12, -24, -14, -16, 34, 0, -87,
   -10, 19, 27, -3, -76, 55, -17, -1,
   15, -28, 3, 12, -26, -9, 21, 6,
   55, 98, 31, 86, -3, 22, 28, 59,
   -78, 35, -43, 3, -54, 62, -50, -107,
   2, -46, -29, 26, 8, -57, 21, -12,
   11, 40, 23, -3, -21, 10, 22, -8,
   -9, 0, 13, -91, 31, 74, 68, -20,
   41, 3, 16, 5, -17, -3, 33, -27,
   -23, 4, 11, -36, 72, 3, -22, 22,
   -29, 4, 40, -43, -18, 4, 4, 18,
   2, -8, -6, -47, -35, -49, -2, 17,
   -7, -56, 28, -43, -30, 3, 35, -18,
   -32, -26, -1, -17, 14, -37, 58, 38,
   11, 79, 24, 16, 71, -25, 19, 50,
   -45, -47, -31, 9, 18, 15, 9, -3,
   4, 3, -2, 28, 21, 15, -69, -23,
   38, -24, -35, 37, -22, -5, 39, -39,
   3, -34, 13, -70, 12, 25, 21, 4,
   40, -43, 23, -16, 6, 91, -15, -68,
   20, 71, -43, 5, -48, -13, -64, -17,
   25, -59, -55, -44, 19, -5, -20, -12,
   59, 10, 62, -4, -88, 41, -84, -9,
   -14, -5, -29, 10, -32, 79, -85, 53,
   4, 58, 10, -15, -39, -19, 15, -42,
   -28, 80, 36, -27, 17, -21, -25, -49,
   37, 16, 25, -61, 23, 13, -15, -29,
   -27, 1, -1, -46, 40, -12, 52, 34,
   88, 27, 18, 55, 105, -57, -35, 41,
   32, -25, -53, 39, -4, 25, 87, -125,
   -4, -67, 66, -50, -26, 54, -8, -10,
   -29, 8, -22, 30, 45, -23, -16, 19,
   -5, 38, 27, -50, -87, -8, 38, -59,
   26, -18, 66, -10, 3, 21, -7, -1,
   -63, 37, -34, 6, -39, -25, -18, -8,
   -10, 22, -37, -15, 10, 27, 62, 2,
   -33, -33, 66, -3, 11, 20, -20, 51,
   4, 36, 34, 0, -4, 26, 44, 67,
   50, 120, -37, -36, -80, -31, -17, -23,
   16, -64, -35, -45, -21, -59, 38, 65,
   -109, 23, -65, -128, -69, 40, -12, 34,
   38, 7, 39, 32, 11, 66, -16, 79,
   14, 67, -47, 43, 7, -11, -29, -1,
   -33, 56, -7, 40, -20, 62, -66, -68,
   2, -54, -6, -38, -10, 57, 33, -35,
   -5, 18, 42, -25, -25, -23, 46, -60,
   24, 49, -17, -8, 54, -8, 52, 45,
   42, -18, -60, 8, -48, 12, 55, -31,
   -31, -6, 33, 9, 29, 24, -32, -40,
   -61, 11, -25, -43, -61, 45, 119, 46,
   -92, -17, -49, -66, -96, -41, 11, -53,
   13, -29, -84, 2, 16, 77, -8, 45,
   -94, 2, -7, -23, -87, 59, 15, -30,
   -26, -19, 85, 21, 48, 5, -74, 26,
   -7, 29, 51, 16, -20, 64, 31, -10,
   64, 13, 126, 65, -17, 2, 5, -10,
   10, 9, 34, 21, -24, 26, -11, 33,
   126, -7, 11, -49, 1, -33, 81, 76,
   -108, 23, -11, -62, 0, 63, 17, 32,
   -2, 21, -71, -36, -7, -4, -19, 38,
   17, -16, 23, 23, -48, 59, -4, 80,
   -3, -3, -40, 40, 27, 23, -43, 9,
   9, 20, -38, -37, 7, 25, 13, 26,
   63, -2, -7, -38, 30, -46, 26, -22,
   -24, 17, -16, 14, -52, 14, 49, 26,
   2, 2, -5, -35, 1, -18, 52, -20,
   -15, 40, -10, 25, -20, -45, 127, 74,
   34, -56, 30, 45, -1, 7, -4, -74,
   12, -20, 6, 95, -19, 49, -117, 28,
   -39, -107, 18, -25, 0, -62, 7, 28,
   40, 19, 42, 4, 44, -57, -20, -49,
   11, 29, 93, -49, 4, 39, 4, -13,
   10, -61, 9, -92, 8, 63, -48, 67,
   4, 24, 37, 24, -2, 64, 36, 10,
   -3, 47, 35, -9, -27, -17, -85, -21,
   26, -28, -12, 21, 18, 14, 31, 89,
   8, 125, 7, 109, 14, -16, -31, 4,
   40, 68, -10, 74, 25, 11, -8, 88,
   74, 48, 12, 41, 0, -15, -23, 33,
   -46, -44, 1, -12, -50, 36, 13, -12,
   -48, 68, -12, -54, 8, 45, -38, -43,
   23, 84, -29, -22, 54, -20, 17, 14,
   22, -60, 6, -44, -65, -32, 29, 43,
   -32, -1, 14, 68, -23, 47, 65, 7,
   -18, -8, -23, 23, 23, -13, -52, 26,
   76, -67, 7, -13, -31, 8, -73, -16,
   58, -1, -15, 22, -34, 20, 122, 52,
   -9, 1, -16, -66, 58, -4, 47, 46,
   -123, -32, -14, -32, -51, 10, -68, -21,
   -7, 97, 124, -27, 2, 27, 11, -12,
   4, -49, 3, -68, 17, -16, -30, 5,
   19, 44, -11, -16, 3, 25, 120, 23,
   72, 70, 39, -75, -44, 33, -30, -32,
   2, -69, -2, -59, -21, -85, 126, 77,
   -18, 55, -35, 76, 66, -58, 9, -31,
   13, 30, -50, 95, -6, 88, -61, 105,
   -17, -51, 18, -34, -10, 36, 66, -37,
   33, -55, 13, 19, 54, 28, 43, -57,
   -47, -25, -56, -62, -31, -6, -29, 38,
   -46, -13, 15, -8, -49, 31, -4, 28,
   25, -26, 14, -4, 33, -91, 13, -22,
   33, 38, 10, -50, 60, 12, 16, -46,
   55, 24, -52, -21, 20, 22, 18, 18,
   4, 42, -38, 10, -2, -49, -22, 3,
   5, 2, 2, 54, -4, 13, -24, -2,
   11, -64, 7, -35, -41, 8, 26, 1,
   46, 40, -50, 20, 14, 34, -40, -32,
   56, -78, -20, 31, 32, -69, -19, -38,
   20, -18, -10, 4, -96, -93, -14, -7,
   36, 32, 44, -15, -31, 94, 18, 27,
   -45, 50, 15, -20, -28, -9, -69, 6,
   24, -98, 3, -22, -15, 82, 31, -42,
   12, 26, -62, -7, 42, 61, -8, -16,
   22, -20, -2, 29, -34, -15, 22, -2,
   -12, -1, -28, 26, 122, 8, -26, 2,
   -57, -22, 47, 18, 36, -19, -59, 72,
   68, -47, -14, 30, -9, -14, 1, 24,
   -7, 9, 22, 13, -9, -30, -22, -11,
   -38, 11, -33, -27, 49, -14, -18, -28,
   -28, 3, 60, 30, 26, -17, -12, 60,
   -86, -40, 21, -11, -56, 71, 24, -12,
   33, 22, -23, 18, -67, 65, -47, -88,
   -6, -17, -43, -67, 43, 35, 40, -15,
   9, 10, 15, 4, 1, 9, 28, -1,
   -7, 30, -32, 44, 40, 20, -5, 37,
   49, -47, 55, 4, -51, -68, -47, -7,
   -12, 5, -29, 14, -68, 24, 8, -51,
   -1, 59, 109, 49, -53, 15, -20, 76,
   74, 12, 34, 23, 6, 6, 25, -30,
   127, 43, -11, -41, -41, -15, 46, 0,
   -69, 97, 36, -20, 99, 46, 5, -77,
   44, 18, 15, 45, 44, 27, -43, 95,
   26, -28, 32, -12, -58, -23, 3, -5,
   19, -33, -4, -45, -16, -11, -39, 4,
   32, 5, -20, -29, -41, 42, -66, 1,
   -29, 39, -6, 17, 14, -5, -19, 4,
   -45, 19, 21, -36, 29, 47, 18, 39,
   44, -5, 23, 18, -9, -24, -6, -36,
   85, 46, -20, 56, 52, 72, 28, 15,
   51, -43, 59, -7, -71, 24, 21, -12,
   -9, -7, -7, -32, 31, -82, 21, -20,
   -60, 3, -17, -37, -32, 5, 4, -25,
   -17, 7, -81, -76, 19, -1, -40, 18,
   -38, 9, -18, 15, 34, 27, -97, 39,
   26, -56, 53, 47, -1, 30, 58, -25,
   -19, 52, 41, -47, -20, 106, -4, 48,
   -2, -17, 30, -4, -26, 67, -26, 82,
   50, 35, 62, 29, 18, 14, 53, 26,
   -67, 51, -12, 8, -68, 41, 81, 25,
   -21, 55, -95, 64, 37, 19, -37, -19,
   -19, -21, -18, -55, -26, -5, 61, 0,
   23, -3, -5, -9, -41, -42, 59, 57,
   20, -4, -12, -10, -65, -38, 41, -42,
   64, 4, 2, -11, 2, -27, -20, 10,
   -23, -53, 63, -55, -48, -8, 60, 7,
   -69, 44, -4, 36, 30, -28, 2, 30,
   41, 18, -58, -9, -21, 22, -37, -11,
   -43, 32, 37, 42, -10, -10, 8, -20,
   36, 18, 22, -22, -41, 4, -17, -63,
   -46, 17, 21, 22, -34, -17, -122, -19,
   74, 26, 53, 4, -6, 35, -20, -48,
   -4, -38, 19, 37, -38, 90, -8, -26,
   27, -42, 42, 67, 31, 12, -46, -13,
   13, 81, 17, -15, -105, 48, -64, 59,
   -39, -66, -8, 23, 28, -22, -7, -10,
   35, 7, 63, 56, 44, -57, 42, -3,
   -16, 21, -16, -50, -73, 0, 69, -24,
   82, 24, -32, 35, -41, 91, 2, 75,
   22, -72, -58, -38, -3, 55, -6, 65,
   -41, -72, 39, 37, -27, 46, 27, 5,
   -65, -40, -49, 40, 2, 30, -51, 56,
   17, -10, 31, -32, 75, 24, 25, 93,
   -7, 17, -3, 9, 17, -72, 36, 94,
   36, -41, 26, -7, -31, -29, 45, -30,
   21, 18, -27, 16, -46, 23, -54, 18,
   -72, -47, 85, -9, 81, -98, 32, 2,
   17, -65, 26, 9, 5, 60, -49, 31,
   -12, -4, 5, 40, -4, -42, -32, -24,
   52, 46, -17, 6, 26, -21, -4, -60,
   21, -21, -35, 3, 65, 4, -24, 10,
   -54, -28, -6, 14, 17, 16, -3, 49,
   96, -32, 42, -10, -51, 29, 108, 28,
   17, 64, 81, 28, -47, -34, 5, 58,
   -105, -71, 8, 27, 23, 29, -33, -55,
   -37, -39, 77, -73, 46, -10, -53, 62,
   63, -5, -43, -24, 19, 25, -41, -28,
   25, 39, 39, 12, 38, -17, 35, -31,
   5, 34, 12, -83, -114, 25, -39, 26,
   20, 28, 26, -11, -50, -17, -46, -61,
   14, 18, -18, 24, 3, -46, -34, -51,
   28, 33, -38, -13, 55, 49, 28, 52,
   -78, 40, -49, 21, 5, -1, 39, -46,
   -69, -32, 97, -13, 100, 6, 100, 61,
   14, 6, -13, 28, 14, -72, 55, 24,
   17, -7, 70, 23, 6, 55, -19, -82,
   -55, -13, 45, 107, -35, -90, 30, -93,
   -11, 53, 6, 34, 57, 18, -46, -11,
   44, 32, -82, -15, 37, -30, -114, 2,
   -57, 2, -25, -16, -39, -23, -53, -67,
   69, 25, -32, -17, -8, -31, 0, -44,
   1, 13, 13, -8, 33, 58, -7, -28,
   -62, 35, 43, -43, 43, -35, -11, -22,
   13, -52, -89, 6, -12, 9, -42, -29,
   -20, -26, -59, 58, -22, 17, -29, -90,
   -50, 43, 30, 26, -22, 13, -52, 106,
   20, -60, 70, 45, -29, -25, 65, -3,
   -33, -13, 29, -29, -37, 60, -35, 45,
