/*This file is automatically generated from a Keras model*/

#ifdef HAVE_CONFIG_H
#include "config.h"
#endif

#include "rnn.h"

static const rnn_weight input_dense_weights[1008] = {
   4, 77, 46, -47, -46, 59, 0, -24,
   4, -34, -7, 37, 18, -3, 25, 58,
   2, 39, -36, -4, -5, -5, -37, 7,
   -35, 52, -17, -25, -48, 66, -24, -17,
   -31, 7, -42, 13, -28, 7, 65, -29,
   20, 8, 58, -34, -22, -40, 36, -63,
   -74, 58, 71, -60, -29, -89, -24, -61,
   16, -46, -19, -11, 6, -1, -15, -4,
   36, 41, 14, 67, -28, 0, 5, 53,
   -63, 13, -29, -2, -65, 12, 39, -53,
   55, -21, -52, -26, 19, -24, 43, -49,
   -13, -60, -42, -21, -20, 23, 53, -89,
   -8, 5, 72, -30, 12, -36, -12, -19,
   -21, 0, -4, 28, -51, -36, -9, -61,
   -27, 58, -14, 37, 8, 34, 3, 81,
   -37, -86, -4, 5, -3, -92, -37, -44,
   -53, 23, 20, -5, 96, 5, 6, -75,
   13, 6, -1, -18, 29, 44, 10, -66,
   75, -31, 125, -66, 18, -121, -55, -1,
   86, -5, -92, -124, -127, 52, -126, -33,
   -20, -37, -49, 121, -47, 45, -121, 125,
   21, -124, 127, 106, 74, -34, -117, -127,
   44, 52, 109, 12, -91, 32, 117, -121,
   9, -126, 110, -89, -61, 101, 126, -124,
   122, -52, 106, -65, -74, 56, -109, 127,
   89, 26, 14, 29, 15, 76, -127, -45,
   -49, 41, -124, -51, -13, 120, -96, 120,
   76, 114, 58, 127, 63, -65, -74, -48,
   111, -116, -24, -128, -125, 91, -37, -10,
   10, 21, -18, 118, -127, 119, 49, -125,
   14, 61, 123, -126, -61, 55, 6, 5,
   40, 126, 33, -36, 68, 2, -45, 127,
   -67, -127, -35, 22, -85, -89, 108, 94,
   127, 95, -65, 79, 21, 124, -96, -65,
   -62, -74, 68, 59, 21, 2, 38, -125,
   -124, 39, -19, -50, -25, 125, -54, 104,
   -11, 111, 68, 41, 76, -24, 76, 84,
   -120, 123, 12, -107, 71, -13, -104, 78,
   -49, -51, -10, 88, -65, 35, -22, 53,
   -39, -116, -122, -33, 25, 127, 47, 115,
   -56, -61, -20, 58, 76, -11, 63, 27,
   -84, -12, 20, 90, 15, -3, -116, 1,
   64, 97, -48, 127, -69, -48, 44, 10,
   -125, 116, 124, -61, -125, -59, 24, 127,
   -102, 127, -45, -28, -61, 117, 127, -21,
   97, -70, 1, 9, 84, 34, -89, 13,
   94, 127, -18, -89, -68, 63, 90, 66,
   27, -50, 126, -53, -103, -91, -127, 127,
   -52, -126, 54, -87, -128, 127, 47, 126,
   69, 27, 127, 127, -117, 50, -113, -106,
   25, 101, 127, 32, 125, -39, -15, 41,
   90, -125, 127, -122, -6, 127, 26, 76,
   0, 126, -75, -27, -73, -13, -128, 102,
   5, 101, -92, -108, -97, 110, -128, 17,
   -38, -125, 73, -123, 127, -76, -47, 14,
   92, -53, 127, 127, 21, 56, 97, 60,
   -62, 115, -105, -128, -66, 25, 119, 23,
   89, 26, -49, -50, -128, 70, -90, -60,
   16, -68, -4, 127, -95, 6, -78, 7,
   -86, -25, 120, -48, 46, -36, -126, 99,
   -105, 90, -128, -106, 127, -20, -65, -80,
   -102, -88, 83, 104, 127, -11, 28, 126,
   -22, 127, -53, 29, -11, -88, 108, -127,
   95, 68, 61, -14, 87, 92, 42, -14,
   -128, 64, -36, 56, 30, -30, 97, 127,
   -65, 127, 86, -82, -128, -66, 23, 126,
   122, -35, -64, 18, -84, 63, -122, 109,
   -73, -53, -43, 60, -14, -74, 114, 0,
   49, -19, 120, -95, 127, 117, -101, -125,
   -68, -88, -16, -2, 93, 127, -127, -101,
   -75, 56, -23, 19, -114, -75, 88, -33,
   127, -122, 126, -110, 127, -51, 82, -44,
   -128, -67, -14, 38, -10, -63, -54, -112,
   127, -100, -46, 79, -48, -41, 64, -38,
   54, -91, -92, -85, -19, 1, -11, 85,
   37, 14, -64, 0, -7, 127, -16, -1,
   123, -14, -111, 76, -10, -71, 60, -126,
   0, -71, -71, 55, -94, 117, -14, -127,
   -64, -12, -23, 57, -5, 50, -107, 30,
   -122, -13, 47, -16, -49, -9, 7, 121,
   107, 17, -95, -125, 46, 92, 7, 105,
   -57, 100, -103, -42, 0, -110, 21, -111,
   101, 40, -113, 127, 87, 4, -78, -110,
   -24, -128, 44, 117, -88, 22, -55, -71,
   106, -3, -27, -11, -81, 10, -33, 78,
   -128, -2, -34, 88, -21, -63, 35, 58,
   5, -54, 92, 101, 99, 10, -22, -58,
   -77, -11, 24, -88, 22, 118, -30, 70,
   75, 20, -86, -5, -23, -46, 26, -128,
   26, -122, 51, 4, -36, -101, 36, -55,
   -124, 127, 54, -19, -50, -61, -54, -98,
   127, -66, -47, 39, -35, -22, 123, 96,
   7, -128, -74, -104, -37, -28, -62, 99,
   -29, -128, -49, 9, -8, 73, -45, -67,
   -21, 0, -54, -78, 67, 1, -94, -40,
   26, 40, 106, 3, -14, -5, -65, -128,
   -8, 68, 32, -46, -128, 9, -48, -25,
   -53, -38, -12, -17, -42, 13, 28, 36,
   -8, -77, -22, -109, 30, -33, -53, 109,
   20, -79, 109, 2, 78, -55, 26, 2,
   73, 97, 35, -44, 5, 25, 19, -43,
   19, -9, -77, 40, -34, 82, -16, -85,
   -54, 2, -102, 104, 6, 43, 127, 111,
   104, -24, -120, 28, 97, -99, -42, 81,
   127, 29, 99, -61, 52, 2, -18, 20,
   -45, -32, -54, -23, -77, 79, 127, 127,
   127, 55, -63, -22, 14, -79, -118, 6,
   127, -59, -26, -26, 43, 126, -57, 18,
   127, -116, -128, -56, -91, 20, -39, 124,
   127, -44, -103, 127, -74, -16, -125, -118,
   -4, -93, 38, -96, -115, 127, -15, 23,
   -113, 3, -61, 14, 2, 10, -75, -111,
   -128, -22, -20, -22, -127, 5, 80, 33,
   103, 21, 22, 53, 127, 73, 58, -13,
   -70, 1, 52, 20, -67, -17, 115, 16,
   27, -11, 9, 52, -13, -30, -74, -64,
   -16, 16, -47, 47, 21, -76, 28, -16,
   86, -33, 125, -16, 65, -59, -115, -67,
   -55, -52, 34, 47, -126, -13, 127, 127,
   -126, -53, -108, 121, -57, -108, -125, -26,
   -2, 27, -15, -27, 78, -10, 0, 31,
   -13, 17, 15, -9, -83, -22, 17, 29,
   -20, 32, 0, 15, -36, 77, 36, -15,
   16, -47, -8, -41, -16, 95, 9, -8,
   29, 43, -98, -33, -35, 2, 23, 18,
   -14, -20, 115, -2, 106, -36, -15, -32
};

static const rnn_weight input_dense_bias[24] = {
   -99, -35, -79, 87, 0, -6, 0, -69,
   -45, 116, 48, -88, -45, 101, 40, -31,
   -63, -5, 40, -18, -7, -17, 126, -16
};

const DenseLayer input_dense = {
   input_dense_bias,
   input_dense_weights,
   42, 24, ACTIVATION_TANH
};

static const rnn_weight vad_gru_weights[1728] = {
   -51, 35, 93, 121, 126, 88, 44, 80,
   126, 23, -24, -56, 126, -37, 104, -75,
   10, 103, 90, 95, 4, 127, 49, 127,
   60, -34, -103, -26, -9, -37, -22, -41,
   36, 78, 99, 22, -47, -71, 108, 0,
   -128, -39, 15, -112, 85, 16, -70, 81,
   -80, 14, -91, -114, -36, -33, -7, -1,
   59, 33, 93, 44, -83, 65, -111, -128,
   -28, 6, -90, -84, -18, 35, 90, 54,
   62, -67, 59, 69, 52, -27, 13, -4,
   104, -28, -16, -55, -53, -18, 27, 18,
   -23, 22, -66, 40, 71, -6, -30, -64,
   -31, 9, -2, 60, -39, 40, 20, -81,
   -15, 67, 23, -5, -27, -71, 9, 97,
   56, -28, -51, 63, -56, 42, 35, -36,
   -54, -3, -16, 44, -70, 43, -69, 51,
   -41, 54, 48, -18, -3, 16, -61, 38,
   22, -50, 25, 3, -7, -7, 42, -24,
   -39, 6, 4, 70, -1, -19, -102, -127,
   55, 17, 34, -79, -17, 89, -50, -119,
   -10, 61, 31, 15, 127, 82, 14, -90,
   3, -1, -64, -3, 4, 50, -54, -49,
   -48, 41, 25, -78, 73, 34, -13, 2,
   -54, -15, -32, 30, 58, -47, 29, -40,
   31, 79, 69, -17, -40, -21, -56, -16,
   -14, -32, 3, -42, 59, 36, 44, -24,
   -3, 8, 90, 9, 11, 28, -58, 20,
   -19, 6, -29, -6, 90, 69, 119, 110,
   15, -65, 45, 70, 37, -5, -58, -7,
   -112, -84, 3, -28, 1, 104, 79, 98,
   24, 85, 40, -57, -66, -54, 58, 50,
   40, -50, -49, 127, 24, -25, 36, 12,
   24, -7, 55, 13, -22, 32, 35, 57,
   52, -4, -27, 75, -17, -48, 70, 55,
   -32, 7, -9, 45, 10, -26, 1, 30,
   -15, 2, 14, 11, -17, 15, -72, -2,
   -126, -125, -15, -14, -84, 56, -9, 51,
   97, 84, -11, -34, -55, 2, -93, -12,
   4, 91, -56, 39, -26, 12, 38, 42,
   -32, 42, -63, 65, -11, 17, -17, 24,
   -49, 2, 31, 29, -80, 42, -24, -71,
   14, 112, 17, 0, -107, 29, 62, 15,
   -40, -50, 20, -72, -65, 27, 27, -92,
   -52, 2, -78, -49, -46, 46, -43, -16,
   39, -62, -7, -36, 29, 11, -39, -30,
   26, 17, 62, -29, 33, -128, -5, -62,
   -64, 7, 80, 46, -52, -128, -9, 33,
   -16, 56, -82, 25, 40, -54, 99, -51,
   13, 2, 7, 15, 32, 62, 90, -126,
   -15, -12, -46, -37, 40, 35, -63, 24,
   109, -116, -83, 9, 45, 7, -20, -36,
   36, 45, -58, 29, 31, -32, 34, -18,
   31, -12, -85, -40, 25, -11, 1, 23,
   30, 13, 24, -14, -35, 39, -62, -2,
   43, 43, 93, 127, -39, 44, 3, -76,
   -74, -120, 72, -107, -127, -125, -122, -104,
   -127, 65, 32, -124, 24, -49, -118, -20,
   44, 127, -115, -68, 59, -84, -4, -65,
   -127, -126, -42, 44, -36, 0, 14, 8,
   -108, 13, 123, -81, 68, 63, -117, -32,
   56, -58, -48, -8, -2, 43, 36, 10,
   4, 1, -41, -3, -110, -49, -91, -25,
   -126, -52, 39, 117, 12, 127, 68, -63,
   -2, 37, 32, -118, -49, -46, -41, 78,
   -128, -126, 58, -100, 7, -33, 10, -85,
   -66, 16, 7, -84, 4, -100, 36, 44,
   75, 72, -12, -28, 6, -40, -78, 83,
   42, -32, -3, -26, -113, 5, 11, 33,
   -97, -15, -34, -125, -10, -30, 29, 37,
   -3, 7, -17, 25, -56, -50, -49, -77,
   32, 78, -40, 51, 13, 30, -55, -9,
   -10, -56, 41, 47, -21, -52, -9, 36,
   106, 45, 33, 107, 84, 119, -33, -61,
   -32, -58, -123, -128, 112, 40, 95, -123,
   -122, -79, -125, 65, -20, 110, 40, 62,
   96, -19, -122, 44, 29, -126, -77, 99,
   -127, -16, 112, -110, -90, -1, -76, -64,
   -41, -125, 7, -88, 67, -37, -38, -128,
   67, 7, -61, -66, -44, -34, -89, 71,
   75, 72, -14, 75, -27, -42, -105, -30,
   -119, 70, -38, 3, -47, 57, 45, 16,
   45, 43, 67, 0, -18, 48, 63, 127,
   14, -54, -30, -22, -54, -30, 28, 19,
   -20, 37, -128, -8, -128, -126, -18, 127,
   40, 16, 5, 16, -25, 47, -48, 91,
   37, -2, 4, 90, -65, -125, 45, 29,
   -51, -61, 5, -29, 23, -65, -22, 127,
   75, -53, 19, -24, 34, -9, -58, 11,
   24, 45, -25, -10, 40, 52, 12, 0,
   -9, 72, -60, -71, 56, -10, 51, 42,
   -103, 68, 18, -14, 76, -44, -116, 11,
   -6, 9, 34, 87, -58, 79, -35, 6,
   -17, -101, 37, -4, 27, -25, 6, -124,
   126, -14, -37, -19, -36, 2, -43, 8,
   -27, 58, 42, -5, -117, -40, 88, 55,
   -36, 53, 88, -70, -9, -36, -47, -62,
   5, -33, -51, 31, -102, 38, -84, 59,
   -24, 4, 12, -21, -68, -23, 45, 22,
   -10, 16, 46, -6, -19, 32, -36, -13,
   37, -98, -89, 46, -25, -86, 10, -14,
   -30, 32, 45, -84, 0, 0, -30, 18,
   53, 47, -43, -47, 116, -78, 31, 77,
   -18, 23, 60, 55, -45, 14, -57, -36,
   54, -9, 31, -94, -11, 97, -7, 72,
   -57, 6, -80, 1, 23, 27, -47, -75,
   -49, -23, 8, 20, 12, -38, -31, -45,
   49, 37, -74, 57, 81, -1, -57, 12,
   21, 16, -9, -59, -16, -83, -3, 20,
   48, 34, 14, 49, 60, 126, -49, -28,
   -28, 127, -39, -77, 59, 58, 68, 11,
   -66, -27, 10, -13, 127, -76, 29, -99,
   55, 23, -128, 9, 83, 45, 84, 82,
   -78, 58, -100, 18, -3, 40, -48, 14,
   23, 58, 87, 41, 37, 0, 32, 24,
   32, -44, -83, -42, -19, -2, -15, -46,
   -9, -10, 25, -26, 34, -62, 14, 37,
   -34, -28, -64, 45, 6, 64, 68, -15,
   -28, 127, 58, -69, 63, -41, 127, 48,
   27, -113, -74, 56, 58, -127, 126, -107,
   126, 10, 113, 125, -28, -36, -17, 52,
   110, -128, 35, -20, -127, 30, -96, -128,
   27, 74, 27, 127, 61, -85, -13, 30,
   -5, 61, -32, 127, 21, -38, -120, 32,
   64, -18, -106, 41, -85, 127, 19, -53,
   -101, -57, 70, -45, -128, 111, 23, -49,
   118, 125, 75, 48, 86, 84, 42, -70,
   127, -61, 47, -61, 81, -76, 127, -46,
   70, 111, -38, 89, 127, -46, 125, -4,
   77, -1, 0, 42, 82, -62, -63, -42,
   73, -64, 83, 53, 73, 120, 94, -89,
   -99, 36, -118, 57, 71, -18, -42, 125,
   -5, -18, -30, -58, 16, 87, 0, 98,
   55, 7, -9, -13, 56, -78, -16, 85,
   -22, -65, 11, -31, -23, 13, -58, -11,
   -4, 67, -57, -26, -47, -27, -61, -29,
   -29, -16, 33, 21, 6, -5, -96, -67,
   -6, 46, -47, -10, -39, -62, 46, -53,
   101, -93, -29, -43, 94, -62, 30, -48,
   -72, -72, -84, 48, 70, -29, -71, -83,
   -24, -24, 32, -24, -27, 12, -49, 16,
   -59, -29, -72, -71, 0, 25, 17, -11,
   -1, -12, 34, 52, 63, -28, -63, 0,
   14, 29, -21, -8, -29, -21, 40, 21,
   29, -74, -20, -19, -59, 3, -30, -18,
   -24, -54, -128, 71, -127, 72, -60, -28,
   23, -22, 61, -49, -74, 99, -69, -75,
   -128, -126, -84, -96, 0, 55, -26, 4,
   57, 124, 46, -26, -9, 81, 68, 67,
   -4, -73, -21, -64, 30, -41, -88, 56,
   50, -120, -125, -101, -1, 24, 76, -40,
   26, 82, 127, -127, 46, 23, 4, 1,
   127, 45, -60, 56, 26, -90, -8, 37,
   -117, -106, 6, -14, -5, -66, -15, 61,
   52, -8, -3, 21, -97, -12, 93, -90,
   75, 29, -13, -68, -72, 65, -33, -38,
   -55, 75, -14, -22, 120, -124, -55, -45,
   55, 28, -28, 74, -54, 99, 37, -86,
   -4, 0, -34, -5, 100, 48, 25, 11,
   -28, 71, -28, 36, -8, 77, 33, -6,
   -41, 19, -32, -42, -77, 34, -4, 30,
   -30, -53, 17, -23, -2, 46, -10, 66,
   1, 1, -6, 30, 8, 76, 14, 49,
   31, -3, -73, 27, 64, -40, 127, 42,
   59, -94, -30, -45, 10, 30, 32, 31,
   53, -92, -55, -46, -128, -64, -13, 127,
   13, 73, 127, 56, 34, 49, -8, 74,
   53, -86, 100, -20, 46, 8, -69, -46,
   -49, 44, -1, 3, -16, -45, 11, -23,
   25, -37, -27, -29, -65, -82, 21, -19,
   22, 49, 13, 8, 20, 54, 44, -16,
   3, -55, -18, -25, -35, 52, 29, -4,
   -85, 127, 37, 103, -91, 87, -33, 86,
   1, 46, -39, 29, -41, 31, -114, -39,
   32, 127, -35, 80, -90, -66, -14, 111,
   -74, -93, -62, 73, 94, -49, -93, 12,
   -59, -69, 72, -25, 27, -99, 91, -58,
   40, -127, -42, -12, -97, -94, -104, -91,
   -24, -70, -28, -8, -3, 44, 102, -19,
   -69, 11, -14, -18, -33, 51, 61, -1,
   -7, -12, -96, -15, -43, 47, 44, -80,
   -128, -105, -127, 52, -83, -44, -108, -1,
   -122, 127, 127, 122, -99, 105, 44, 127,
   24, -37, -92, -62, -33, -21, 27, -7,
   48, 43, 45, 27, 52, -126, -19, -125,
   1, -14, 0, 115, 87, 126, -96, -91,
   92, -75, 7, -115, 40, 124, 105, -123,
   -113, 45, 36, 5, -13, -128, 30, 40,
   111, 4, -50, -70, 30, 48, 52, 50,
   -33, 4, 34, -42, -124, 19, -10, 64,
   56, -68, -9, 62, -11, -25, 19, -10,
   20, 106, -2, 20, 103, -8, -120, -75,
   -7, -17, -5, 1, 127, 126, -125, 2,
   -67, -126, -110, -87, 109, 12, -32, 61,
   -125, -12, 84, 60, -69, 79, 89, 82,
   -41, -26, 75, 42, -16, 9, -45, -11,
   -11, -28, -126, 39, 11, -57, 46, -44,
   6, 70, 7, 38, -55, 38, 16, -11,
   1, -41, 23, -17, 33, 33, -55, 70,
   -51, 36, -78, -112, 64, -75, 68, 117,
   -85, 97, 17, 90, 46, 4, -7, 90,
   -5, 81, -44, 37, -123, -14, -30, -92,
   24, -12, 70, 7, -38, 19, 76, 28,
   15, 25, 48, 22, 18, 8, -23, -53,
   -38, -12, 13, -33, -42, 44, 11, 28,
   -16, 21, -15, 63, 29, 16, 9, -38,
   46, -37, -12, 15, -64, -44, 6, 0,
   -25, 81, 51, -53, 82, -1, -17, -26,
   67, 64, -70, 118, -27, 125, -86, -20,
   105, -93, -18, 18, -89, 83, 35, -32,
   -1, 31, -5, 24, 76, -4, 47, 57,
   -2, 92, -128, 121, 21, 5, -51, 8,
   -51, 82, 91, -67, 49, -7, 23, -42,
   10, -74, 40, -84, -27, -83, -119, -128,
   125, 39, -49, 10, 114, 41, -26, -35,
   -6, -124, -8, 48, 71, 87, -63, 100,
   20, 73, 41, -18, -19, -63, -62, 15
};

static const rnn_weight vad_gru_recurrent_weights[1728] = {
   -82, 50, 71, 115, 34, 76, -126, 85,
   69, 15, 13, -48, -76, 38, -97, 43,
   -23, 122, -15, -49, -109, -99, 49, 89,
   11, 67, -34, 34, -5, -27, -2, 65,
   -98, 66, -34, -50, -18, -33, -58, 19,
   8, -89, -18, -61, 27, -90, -128, -34,
   124, -51, -82, 24, 16, 109, 16, -123,
   -44, -16, 62, 59, 48, -20, -88, -5,
   -9, 32, -2, 34, 74, 39, 127, 54,
   19, -22, -127, -12, -36, -89, -25, -124,
   -127, -72, -15, -82, 29, 0, -31, 55,
   -52, -126, -76, 106, 84, -128, -82, -44,
   42, 45, 21, 59, -76, 122, -8, -54,
   40, -43, -79, -10, 90, 2, 27, -77,
   3, 13, -49, -3, 64, 50, 22, -9,
   -106, 120, 72, -101, 126, -42, 81, -19,
   -15, 79, 53, -14, -63, -18, -52, -7,
   41, -1, -87, 127, -79, -79, -49, 13,
   15, -85, 101, -88, 90, 25, 61, -13,
   -60, 110, 26, -102, -35, 2, 101, 127,
   42, 39, 64, 54, -7, -17, 124, 32,
   36, 50, 17, 82, 28, 52, 63, 101,
   56, -109, -29, 20, 110, -68, -127, -64,
   25, 19, -76, 57, -13, 60, 64, 126,
   -11, -58, 28, 8, -24, 15, -75, 126,
   62, 4, 88, 60, 53, -1, -69, -66,
   -27, -59, -62, 63, -44, 17, 51, -22,
   -45, -41, 124, -53, 127, -14, 127, 127,
   -8, -41, 125, 81, 31, 32, 54, 126,
   119, -36, 67, 42, 34, 121, 88, 118,
   -46, -82, 57, -59, 13, -83, -89, 41,
   55, 39, -75, 21, -14, 54, 12, 23,
   22, -12, -25, 75, -59, -5, -23, 0,
   35, -11, 50, 115, -75, -42, 13, 48,
   -6, -75, -66, -89, -39, -7, 79, 108,
   112, 26, -6, -46, -16, 6, 26, -64,
   -58, 8, -5, -94, 54, -44, 127, 123,
   -76, -34, 67, -17, -81, -30, -23, 25,
   49, -31, -36, -55, -69, -83, 35, 45,
   -101, 89, -46, 47, 53, 24, -16, -11,
   50, -13, -32, 78, 33, -96, 8, 24,
   -72, -55, -21, 7, 39, 20, 48, 49,
   5, 94, 56, -61, 79, -102, -32, 62,
   28, -56, 22, -45, 87, -82, 80, -26,
   -30, 22, 100, -15, -67, -35, 30, 2,
   127, 101, 43, 127, -128, -124, -70, -112,
   25, 7, 59, -102, -37, 69, -6, -128,
   -127, 60, 60, -6, -104, -124, -34, -127,
   1, -17, -17, -28, 10, 77, -79, -11,
   83, 54, -11, -32, -32, -19, 102, 84,
   23, 40, -126, 14, 22, -76, -127, 37,
   41, -6, -86, -23, -55, 45, -31, -73,
   -34, -91, -35, -22, -24, 38, 14, 27,
   3, -78, 78, -64, 53, -2, -34, -4,
   -91, -97, -95, -104, -43, 74, -11, 127,
   86, -7, 24, 127, 69, -45, -38, 97,
   42, 25, 71, 44, 94, 6, -65, 116,
   -65, -43, 125, -96, -51, 120, 35, -99,
   44, -22, -13, 111, 81, 116, -18, 19,
   65, -91, -46, 38, -36, 64, -20, -33,
   -66, 127, 34, -26, 37, -61, 27, -13,
   93, 66, -12, -6, 42, -68, -30, -90,
   -22, -76, -109, 88, -44, -39, 29, 44,
   -115, -45, 48, -14, -53, 127, 127, 127,
   86, 122, 47, -127, 8, 119, 66, -126,
   126, 97, 60, -44, 109, 107, 115, 127,
   -64, 127, -121, 31, 22, -62, -112, -19,
   -24, 23, 33, -88, -4, -96, -85, -61,
   -9, -49, 18, -94, -124, 24, 63, 23,
   3, -128, -43, 117, -12, 42, -64, 17,
   -64, -45, -101, -33, -28, 127, 101, 24,
   -44, 68, 127, -127, 101, 118, 127, -126,
   -80, -40, -126, -106, 65, 110, -7, 9,
   -11, -12, -73, -122, -5, 23, -50, 39,
   -128, -78, -13, 21, -20, 50, -34, 121,
   23, 126, -15, 36, -117, -1, 60, 32,
   -27, -96, 45, -74, 124, -35, -4, -58,
   43, -95, 80, -56, 23, 72, -12, -119,
   41, -86, 109, 31, -41, -10, 10, 29,
   124, 21, 125, 122, 126, -43, -7, -79,
   -74, -65, 18, 41, -24, -36, 9, -31,
   -10, -39, -19, -77, 47, 92, 7, 2,
   127, -49, -88, 5, 7, -63, 11, 95,
   -29, -7, -62, -31, 41, 23, 48, 127,
   9, -38, -63, -64, -75, -27, 37, 81,
   -21, -15, 105, 36, -127, 53, -7, 39,
   -63, -20, 96, -4, -48, -17, 32, 27,
   -24, 39, 23, 53, -37, -85, -22, -43,
   -30, 122, 39, 37, -101, -72, -14, 28,
   -33, 14, -82, 39, -38, 25, 67, -1,
   127, 127, 127, 88, 127, 17, -14, -108,
   63, 23, 127, 1, 127, -16, 127, -94,
   91, -17, 73, 127, -58, 112, 127, -35,
   -51, -128, 3, 70, 0, -27, -31, -67,
   39, 75, 43, -16, 26, -126, 8, 6,
   -50, 110, 11, 42, 39, -68, -35, 43,
   -125, 64, 45, -7, 118, -8, 33, -99,
   -6, 62, 55, 33, 58, 9, -51, -127,
   52, -14, -29, -11, -126, -76, 56, 11,
   101, 48, 41, -54, -64, 98, -42, 52,
   7, 64, -51, -17, -40, 98, -73, -97,
   -1, 10, -89, -28, 19, -36, -15, -47,
   -12, 34, -34, -49, 74, 54, -28, 4,
   5, 66, 113, -10, -53, 108, 46, -14,
   51, -76, 123, 54, 12, -94, -14, -127,
   -58, 91, -17, -83, 11, -36, 94, -43,
   48, 79, -2, 114, 30, -84, -81, 17,
   -117, -7, 71, -17, 21, -85, 60, 98,
   78, 50, 70, -50, -95, 2, 17, 22,
   43, 55, 48, -69, 126, -5, 15, -4,
   -8, 111, 112, 89, 49, 48, 16, 92,
   32, 112, -6, 79, 2, 4, 22, 83,
   47, -20, -32, -100, 86, -7, -53, -81,
   78, 10, 10, 31, -43, 25, 35, 62,
   54, -57, 103, 25, 94, -33, 41, -39,
   20, 15, 110, 93, 126, -51, -123, -68,
   -126, -32, -20, 126, 86, -127, 83, -52,
   11, 6, 72, 77, 41, 55, -95, -98,
   -67, 26, -6, 94, 120, 120, -49, -128,
   52, 39, 26, 85, -26, 84, 87, -45,
   17, -3, 12, 45, 71, -2, -58, -26,
   -28, 76, 98, -49, -7, 8, 54, 35,
   -31, -28, 56, -112, 15, -33, 41, 24,
   5, -106, -42, -88, 10, 1, -1, -28,
   -42, -45, 7, -90, -51, 61, 15, 66,
   98, 65, 92, -86, -22, -8, 24, 41,
   -123, -127, -118, -102, -108, -112, 66, 45,
   29, 22, 8, 109, -63, -97, 40, 51,
   58, 45, 56, 37, 5, -42, 48, -24,
   -97, -81, 28, -41, 40, 54, 15, -15,
   2, -15, -22, -21, -55, 58, -104, 5,
   94, -90, -29, 35, -26, 34, 55, -49,
   -20, -84, -5, 61, -105, -19, 33, 13,
   6, -41, -77, -110, 62, -34, 74, 74,
   71, 4, 9, -35, 34, 49, -125, -87,
   -4, -111, 43, 9, -61, 124, -54, -112,
   -106, 64, 31, 27, 18, 83, -30, 98,
   25, 55, 36, 35, -18, 39, -98, -115,
   21, 70, -24, 106, -54, 51, 11, 9,
   -59, 53, -65, -116, 69, -39, -80, 11,
   124, 49, -128, -75, 63, -44, -13, -77,
   -15, -94, 14, -9, -37, 0, -29, 31,
   -112, -70, 12, -56, -74, 61, 119, 102,
   64, 52, 40, -1, 56, 60, -68, 29,
   -52, -18, 10, 83, -91, -128, -112, -96,
   -22, -111, 55, 6, 84, -104, 61, 111,
   -128, -20, 81, 69, -17, 68, -122, -52,
   -64, -70, 70, -14, -117, 115, -9, 57,
   14, 44, -37, 18, -18, -39, 37, 49,
   -22, 13, -58, -11, 40, 22, 34, 34,
   5, 36, -13, 104, -29, 89, -25, -28,
   -67, -24, -69, -82, -13, 32, 98, 85,
   123, 25, -40, 36, -23, 37, -77, -20,
   -44, 127, -103, 44, -73, -19, 96, 126,
   -107, 4, 43, 96, -56, -14, -18, -13,
   114, -23, -39, -4, -26, -126, 94, 17,
   65, -62, -84, -3, 4, -37, 64, 31,
   17, 115, 15, -35, -45, -117, 44, 75,
   -4, 8, -5, 60, 11, 9, -36, 26,
   36, -36, -111, -14, 33, 51, 30, -32,
   -51, -60, -68, -45, -107, -51, -12, 47,
   8, 76, 81, -123, 45, -9, 45, 10,
   -128, -128, -128, 8, -99, 90, -90, 111,
   -65, 46, 125, -6, -127, 127, -112, -127,
   38, -24, -120, -12, 17, -65, 127, -73,
   125, 98, 9, -14, 32, -51, -14, -72,
   79, 4, 14, -45, -76, 69, -64, -52,
   -15, -72, 48, -4, -62, 47, -57, -105,
   34, -43, 15, 35, -50, 4, 36, -47,
   -21, -26, -127, -65, 12, 0, 80, 23,
   -59, 32, 107, -114, -51, 0, 5, 57,
   127, 127, 127, 86, 127, 127, 13, 40,
   78, 59, 127, -39, 127, -1, -5, 3,
   -127, 127, 11, 12, -25, 84, 28, 120,
   -109, -91, 71, 26, 26, 31, -49, 30,
   -72, -3, -6, 10, 97, 65, -70, 0,
   31, 54, -76, 79, -82, -20, -45, -15,
   -4, 36, 86, 108, 100, -61, -61, 63,
   -95, 99, 126, 126, 26, 27, -97, -45,
   -120, 24, -53, 79, 5, 29, 89, -97,
   -5, 26, 39, -110, 50, 115, 127, 127,
   26, -4, 32, 29, 6, -2, 22, 62,
   81, 108, -37, 54, -58, 85, 68, 79,
   -47, 12, 5, -49, -33, -43, 6, 60,
   93, 33, -19, 35, -83, -65, -60, -3,
   36, 6, -8, -4, -48, -26, -15, -12,
   -18, 55, -11, 30, 26, -22, 127, 0,
   -3, 18, 65, -3, -75, -14, 15, 14,
   -31, 5, 1, -10, -9, 39, 19, 36,
   -49, 97, 127, 121, 31, 13, 21, 34,
   -32, -43, -28, 125, 14, -68, 49, -21,
   127, 95, -124, 46, -6, -7, -19, 7,
   70, -89, 1, -34, 29, -61, -77, -47,
   -15, -76, -41, 26, -110, -24, 2, 37,
   -36, 74, -10, -29, 85, 18, -47, 122,
   -16, -18, 3, 78, -45, -31, 55, -73,
   -56, -40, -38, -57, -42, -1, 52, 49,
   89, 103, 7, -119, -8, 126, -33, -8,
   42, 127, 126, 54, 127, 92, 116, 126,
   106, 8, -7, -55, 70, 69, -25, -71,
   122, 74, -36, 4, -73, 6, -12, 120,
   48, -61, -111, -33, 86, -80, -85, -39,
   55, 9, 104, -41, -92, -29, 33, 3,
   -67, -39, 110, 29, 12, -109, -6, -8,
   39, -25, -74, 32, -14, 24, 14, 16,
   -123, 24, 42, 4, 4, 22, -14, -51,
   -95, 49, 127, -72, 77, 68, 20, -30,
   -98, -63, -127, -31, -128, -8, -127, -89,
   -27, -58, -53, -44, 33, -52, -15, -18,
   -41, -127, -86, 58, 92, 40, -70, -127,
   -59, 108, 42, -30, -91, 5, 96, -86,
   -63, -63, 83, 42, 126, 9, -11, 6,
   51, -24, 16, -66, 33, -77, 70, -89,
   60, 127, 101, -61, 51, -32, 103, -100,
   68, -40, 79, 52, 58, -42, -90, -13,
   -67, -115, -34, 95, -39, -25, -25, 125
};

static const rnn_weight vad_gru_bias[72] = {
   -63, -113, -53, -127, 51, -7, 127, 122,
   -17, 116, -9, 46, -52, -127, -26, 127,
   99, -72, -84, -61, 25, -36, -128, 105,
   -10, -77, 60, 30, -29, -37, -45, -15,
   77, 34, -2, 106, 29, -13, 6, 34,
   24, 9, 49, 49, -24, 48, 5, 114,
   -34, 31, 45, 10, 62, -60, 25, 57,
   37, 38, 11, 5, 4, -64, 13, -20,
   -41, -45, -63, 28, 8, -20, -1, 8
};

const GRULayer vad_gru = {
   vad_gru_bias,
   vad_gru_weights,
   vad_gru_recurrent_weights,
   24, 24, ACTIVATION_TANH
};

static const rnn_weight noise_gru_weights[12960] = {
   9, -16, 2, 105, 40, 23, -44, 13,
   -42, 34, 30, -16, 3, -53, -20, -4,
   2, 53, 72, 42, 53, -29, -32, -11,
   29, -2, 0, 48, 49, 48, 66, -70,
   17, -65, 94, -4, -65, 50, 73, 41,
   92, 11, 77, -29, -36, -32, 114, 65,
   -15, 22, 38, 42, 14, 79, -19, 2,
   -12, 38, -10, -86, -22, -16, 8, 8,
   26, 6, -37, -34, -14, 24, 1, -55,
   -23, -51, -1, 35, 21, 10, -59, 3,
   -27, 98, -42, -6, -84, -39, -20, 23,
   67, 33, 39, 15, 19, 35, 46, 86,
   -9, -47, -44, 2, 10, 23, 63, -94,
   -2, -43, 12, -18, 2, -58, -8, -35,
   17, 6, 13, 58, 4, -7, -21, -15,
   -14, -45, -41, -42, -32, -10, -21, 14,
   43, 32, 2, 10, 40, -53, 4, -39,
   -24, 9, -13, -43, -9, 54, 90, 54,
   9, 43, -78, -12, -22, -3, 10, 18,
   -28, -75, 22, 80, 40, -7, -11, 12,
   12, -57, 11, 95, 27, -14, -39, -28,
   -48, -2, -16, -16, -1, -62, 45, 42,
   -24, 6, 45, 38, 95, -28, -22, 83,
   9, 81, -29, 34, -12, 45, 43, -10,
   28, 47, -4, 54, -47, 35, 5, 24,
   -2, -11, 24, 87, -8, 18, -34, 19,
   40, 1, -38, -35, 83, -47, 4, -4,
   40, 14, 24, 9, 39, 33, -38, -3,
   6, 18, 37, -11, 21, 45, 0, 26,
   13, -11, 38, 3, -37, 8, 4, -32,
   -2, -22, -27, 4, 82, 25, -25, 36,
   -46, 13, 59, 6, -36, -46, -23, -6,
   14, -42, 37, -10, -22, -20, 43, 28,
   -46, -14, 3, -31, 70, -1, 36, -3,
   59, 30, 3, -5, -18, 37, -17, 12,
   13, 27, 3, -72, -17, 39, 21, -20,
   40, 17, -17, 50, -26, -39, 54, -27,
   -91, 62, 50, -18, 23, 7, -16, -68,
   72, -33, 59, 11, -2, -40, 13, -62,
   -3, -7, -32, 9, -32, -49, -6, 1,
   3, -2, 44, -46, 39, 17, -8, 13,
   -44, 25, 7, -14, 36, -30, 10, -27,
   3, -41, 60, -21, -18, 47, 1, 49,
   28, -43, 5, -4, -4, 8, -29, 18,
   -16, 1, 40, -56, -12, 7, 31, 19,
   -6, 8, -11, 8, -5, -20, -43, 13,
   47, -21, -14, 67, -11, 8, 30, 31,
   -10, 45, 2, -37, 3, 46, -43, -21,
   20, 24, -21, -5, -11, -50, 20, 15,
   -11, -22, 35, 1, 69, 30, 14, 11,
   -20, 36, 3, 14, 16, -9, -10, 19,
   20, -10, 44, -15, -27, 32, -38, -11,
   -23, 32, -22, 3, -19, 3, -29, 5,
   -9, -1, 39, -19, 15, 16, 13, 24,
   -28, -27, 32, -97, -5, 8, 15, 2,
   23, -7, -17, 2, -3, 43, 29, 52,
   19, 26, -1, -25, -13, 62, 10, 5,
   -53, -13, 52, -18, -3, 35, 5, 47,
   -31, 36, -37, -29, 11, 5, -50, -63,
   -11, 1, 43, -59, 38, -12, 4, -83,
   1, -5, -31, 27, 29, -41, -14, 6,
   -35, 47, -30, -31, -13, -8, 42, 31,
   11, 25, -11, 70, -47, 58, 10, -18,
   -72, 46, 54, 39, -51, -42, -4, 20,
   -30, 31, 0, -24, -24, -2, -49, 16,
   -16, 32, -41, -11, 32, -26, -2, 51,
   38, -8, 27, -4, 20, -5, -30, -5,
   -21, 12, -21, -3, 18, -6, -9, 3,
   -42, 8, 8, -2, 5, -11, 16, -32,
   46, 10, -3, 36, 16, -38, -33, 7,
   -63, -39, 71, 0, -25, 12, -19, -55,
   -17, 38, -8, 38, 11, -4, -21, 38,
   48, 80, -30, -84, 29, -8, -4, 23,
   -12, 32, -13, 37, -78, 13, -5, 25,
   -10, -8, 35, -67, 51, -44, 14, 76,
   -6, -44, -33, 30, 11, -11, 2, -2,
   21, -27, -57, -63, 27, 20, -5, -20,
   33, -88, 2, -15, -33, 18, -29, 14,
   36, -96, -5, -11, -26, 2, 13, -46,
   -38, -18, 35, -2, 12, 11, 14, 24,
   -33, 32, -32, 74, -26, 40, 21, -2,
   12, 38, 30, 25, -46, 10, 76, -73,
   55, 7, 47, 36, 15, -31, 13, 31,
   -18, 75, 14, 14, 14, -25, -34, 84,
   -15, -8, 43, -4, 22, -53, 55, -12,
   -30, 40, 33, 65, 22, -38, -25, 8,
   40, 48, 24, -9, 21, -47, -11, 26,
   46, -63, -22, -47, -50, -33, 25, 11,
   -23, -46, 29, 61, -12, -3, -21, 11,
   20, -7, -35, 23, 12, 5, 46, 10,
   29, 12, 34, 17, -2, 29, 14, -13,
   17, 3, -14, 11, 38, 1, -22, 25,
   56, -67, -13, -48, -44, -19, -43, 40,
   -3, -4, -5, 33, -21, -74, -31, -20,
   1, 5, 2, 1, 86, -11, -37, -24,
   -41, 19, -20, 11, 55, 69, -2, 89,
   12, -12, 33, -24, 46, 2, 15, 46,
   -20, 28, -3, 72, 59, -7, -47, 1,
   57, 3, 5, -20, -23, -53, 10, -13,
   41, -81, -59, 53, -4, 25, -9, 18,
   -51, 26, -15, -31, 60, 20, 30, -28,
   26, -36, 64, 41, 4, 52, 20, -19,
   -3, -32, 4, -67, -17, 53, 5, 41,
   40, -23, -3, -121, -15, 46, -52, 70,
   -27, 6, 39, -26, 20, 21, -41, 32,
   1, 44, 58, 27, -19, 24, 29, -24,
   38, -22, -11, -30, 44, 10, 15, -11,
   7, -25, 60, 1, -33, 14, -22, -44,
   -52, -52, 124, -15, 32, -36, 22, 84,
   -34, -24, -36, 70, 13, -18, -15, 38,
   31, -30, 16, -44, 38, -28, -11, -10,
   -1, 29, 63, -51, 3, -9, 52, 24,
   -30, 51, -16, -4, -55, 8, -68, 4,
   -16, 4, -42, 1, 6, -22, 65, 52,
   54, 23, 2, -6, -8, -45, 77, 40,
   24, -22, 32, -49, -5, -39, -22, -37,
   -35, -49, 22, 14, 49, -2, -17, 39,
   32, -40, -22, 68, -18, 58, -50, 2,
   35, -32, 25, -14, -79, -8, 6, -10,
   -51, 46, 42, -3, -4, 28, 45, -7,
   6, -28, 36, 19, -57, 23, -23, 13,
   -1, -17, 44, -30, 19, 8, 37, -23,
   -11, -2, -40, 37, 6, -44, -12, -18,
   -77, 24, 20, 24, 4, -26, 22, -33,
   35, -44, -21, 1, -3, 22, 4, 50,
   -10, 3, -56, 38, -19, 11, 11, 9,
   -2, 18, -126, 3, -15, 99, -20, 55,
   -49, 39, -11, -50, 9, -46, -10, -33,
   -85, 37, 65, -9, 77, -48, -7, -10,
   -20, 1, -21, -12, 40, 21, -39, -22,
   45, -37, 22, 3, 11, -50, 34, -41,
   37, -39, -8, 101, 1, -9, 38, 20,
   -28, -14, 63, 64, -21, -21, -3, 8,
   -21, 6, 17, -21, 11, -53, 46, -53,
   -20, -7, -14, 9, 14, -27, -8, 44,
   -19, 17, -64, 44, -45, 76, 53, -14,
   61, 48, 22, -1, -62, -25, 37, 14,
   -4, 8, 39, -35, 17, -14, -10, 23,
   22, 7, 29, 2, 4, -9, -13, -24,
   38, 0, -35, 19, -36, 13, 17, 36,
   29, -1, -8, -5, -40, -4, 41, 1,
   -35, 41, 10, -15, -16, -36, -1, 7,
   -18, -44, 3, -1, 20, 44, 34, -41,
   -15, 23, -19, -35, 81, 23, -14, -40,
   -57, -15, 126, 127, 3, 49, -33, 23,
   -52, -74, -22, 36, 48, -26, -26, -68,
   -26, -36, 2, 90, 22, -46, -50, -20,
   33, -15, 16, -43, 9, -77, -24, 24,
   -14, -34, -37, 15, 33, 76, 0, 11,
   3, 5, 12, 78, 121, -28, -21, 26,
   -6, 69, -18, -29, 75, -50, 18, 16,
   -44, 10, 5, 0, -35, 2, -65, -3,
   25, -26, -4, -22, -27, -93, 37, -73,
   -22, -21, 1, 50, -19, -5, -25, 71,
   -69, -28, 65, 21, -9, 65, 14, 3,
   18, 3, -36, -16, 21, 97, 9, -125,
   0, 24, 1, 2, -3, -43, -22, 7,
   24, 1, -25, 5, 78, 41, 61, -36,
   -5, -33, 71, 4, -23, 1, 45, -18,
   -14, -54, -2, 76, 5, -77, -6, -38,
   19, 52, -39, 31, -37, -34, 49, 26,
   3, 17, -22, 22, 1, 4, 43, -127,
   -19, 96, -36, 49, -70, 4, 58, 0,
   -3, -3, -9, 0, 2, -33, 20, 9,
   6, -2, 22, 14, 14, 54, -20, 44,
   38, 58, 41, -3, -49, -7, -16, 38,
   36, 13, 77, 31, -2, 37, -18, 5,
   34, -36, 34, -18, -23, 33, -53, -40,
   -29, 49, -23, -43, -53, -83, -26, -31,
   -1, -5, -45, -31, -5, 36, 18, 76,
   -49, 37, -26, -11, -20, 29, 25, 37,
   -13, -12, 36, -2, -27, -14, 18, 8,
   -39, 23, 30, -37, 40, -45, -27, -12,
   -37, -22, -26, -3, 27, -42, -22, 17,
   -7, -32, 2, -25, 3, -41, 31, -36,
   39, 12, -19, 12, -57, 9, 11, 25,
   20, -40, -13, -5, -31, 7, 39, -28,
   -36, -25, -13, 38, -40, 2, 43, 38,
   -31, 23, -16, -8, -6, 23, 36, -43,
   -13, 13, -68, -15, -32, -27, -17, 25,
   20, 30, -40, 9, -51, -9, 73, -42,
   21, 31, -3, -46, -61, 65, 8, 18,
   -40, 19, 50, 83, -57, 26, 62, 44,
   1, -8, -9, -17, -29, -37, -23, 62,
   31, 7, 83, -4, 49, -10, 26, -24,
   16, -33, 77, -126, 57, -68, 43, 27,
   38, 51, -36, -51, -35, 4, -29, 18,
   -27, -14, -7, 10, 13, -28, 8, 8,
   -19, 32, -37, -14, -8, 3, 11, 9,
   -49, 63, 50, 55, 8, 34, -15, 21,
   81, -39, 23, 79, -26, 21, 23, 10,
   0, -40, 34, -6, -8, -23, 24, 45,
   -24, 62, 24, -43, -1, 29, 6, -16,
   -1, -30, -47, -25, -4, 19, 25, -11,
   -50, -41, -16, -33, 31, -35, 19, 10,
   28, -52, -33, -2, 37, 10, -79, 28,
   -35, 9, 24, 48, 26, 44, -16, -6,
   -41, 16, 13, 27, -48, 17, 6, 29,
   -31, 34, 33, -10, -5, 28, -2, -3,
   35, -24, 48, 34, -40, -15, 24, -2,
   -21, 32, 5, 4, 23, 14, -5, -27,
   55, -1, -35, -20, -73, -61, 16, 101,
   -19, -28, 94, 52, 14, -12, -35, 2,
   -48, 84, -9, 68, -10, -49, -57, -13,
   39, 2, 56, 20, 58, 23, -12, 68,
   58, 36, -26, 31, -51, 9, -14, -22,
   43, -30, 11, -5, 39, 44, 13, -27,
   16, -27, -31, 9, 39, 0, -48, -11,
   -53, -21, -13, -2, 19, 40, 6, -26,
   73, 25, 25, -14, 31, 34, 10, -54,
   -17, 0, -14, -30, -20, -60, -33, -4,
   -10, -27, 6, -41, -11, -26, -22, 26,
   -36, -18, -44, 25, 51, -12, -36, -9,
   -63, 5, -1, 23, -19, 31, 48, -9,
   -10, 53, -1, -21, 0, -39, 1, -2,
   42, -43, 59, -79, -66, -18, 37, -2,
   -3, 9, -23, 9, -28, 44, -12, 18,
   27, -17, 15, 38, -5, 29, 11, 71,
   20, -31, 16, -15, -51, 1, 12, -92,
   -8, 25, -33, 79, 32, -33, -56, -12,
   12, -31, -34, -28, -17, -30, -1, 9,
   14, -9, -7, 49, 27, -84, -27, 28,
   -45, -51, 63, -22, -27, -54, -36, 0,
   -19, -17, -21, -23, 9, -17, -35, -10,
   -11, 7, -54, 7, -16, -61, 41, -55,
   4, 22, 25, 16, 16, -17, 18, -4,
   53, -54, -7, -40, -59, -22, -59, -111,
   74, 57, -1, -62, 13, 40, -5, -20,
   5, 49, 12, 22, -47, -39, -35, 37,
   -42, -27, -47, -8, 21, -39, -2, -95,
   -39, 30, -54, -12, 51, 26, -30, 48,
   -8, 4, 55, 19, 13, 18, -20, -6,
   9, 32, 10, -83, 40, 25, -7, 50,
   -21, -34, 58, -15, -17, 37, -63, -30,
   -12, -14, -86, 21, 48, 48, -19, -17,
   -6, 3, 11, -74, 37, -59, 10, 92,
   47, -33, -48, 0, 86, 3, 28, 106,
   -14, -4, -9, 58, 119, -26, -15, -31,
   13, -10, 73, 76, -14, 1, 81, -85,
   39, -14, 28, -37, -41, -30, 114, 6,
   -18, 34, -18, -10, -33, 56, 29, 33,
   -46, 57, 97, 20, 81, 49, 8, 57,
   -44, 74, -23, 6, -43, 5, -49, 19,
   8, -35, -10, -9, -4, 15, 13, 13,
   53, 57, 22, 14, 18, -108, 111, 35,
   43, -17, 17, 51, 7, -89, 33, 93,
   52, 5, 0, 67, 37, 29, 85, -30,
   -6, 30, -11, 54, -48, -35, 11, 30,
   -52, -12, -30, -38, -5, 56, -40, 46,
   18, 33, -10, -73, 63, 49, -1, 33,
   -88, -36, 25, -31, -20, -29, -127, -65,
   -12, -83, 9, 9, 28, -29, -40, 58,
   19, 70, -76, -22, 2, 58, -29, 15,
   2, 57, -43, 18, 102, 5, -30, -6,
   50, -4, 3, 55, -94, 49, 5, 33,
   30, 0, -24, 70, 18, -90, -22, 1,
   -40, 22, -76, 38, 34, 16, -24, 16,
   6, 11, 23, 122, 43, -27, -38, 10,
   -20, -8, 15, -2, 62, -52, 15, 56,
   -6, 0, -35, 35, -28, -30, -41, -39,
   -56, 11, -32, -50, 46, 72, 26, -18,
   4, -14, 10, -49, 27, 66, 18, 6,
   20, -45, -25, 12, -11, -10, -24, -35,
   49, -10, 34, 50, -10, 39, -7, 26,
   -20, 13, 1, -7, -14, 47, -8, -4,
   -27, -43, 58, -25, -22, 2, 17, 23,
   15, 19, 0, 26, 45, 34, 30, -31,
   41, -31, 2, 21, 62, 48, 10, 21,
   55, 42, -39, 20, -12, 7, 51, 31,
   16, -5, 8, -51, -11, 1, 28, -35,
   17, -30, 9, 20, -67, -30, -56, 27,
   3, 34, 14, 14, 33, 7, 8, -28,
   5, 44, 54, -48, 50, -29, 6, -14,
   -12, -38, -27, 22, -23, -55, -48, 2,
   -67, -36, 49, -26, 9, 72, -21, -28,
   -35, 28, -7, -20, -13, 21, 55, -8,
   58, 38, -4, -15, 6, -6, -25, 81,
   9, 9, -63, 5, -50, 8, -32, 5,
   25, 27, -6, 25, 66, 9, -88, -49,
   56, 27, 5, 20, 29, 3, -40, -44,
   -50, -12, -8, 32, 4, 34, 26, -48,
   23, 26, 0, 19, -20, 49, -37, -34,
   24, -26, -53, -28, -9, 25, -40, 4,
   25, -38, -36, -37, -22, -3, 7, -31,
   -19, 51, 65, 23, 44, 38, -16, -21,
   18, -41, 25, 4, -37, -18, 2, 10,
   -8, 58, 11, 48, 23, -19, -19, 19,
   30, -17, 47, 19, 3, -19, 22, -31,
   -9, -120, 127, -82, 52, 25, 28, -7,
   -1, -28, -19, 60, 87, -24, -82, 14,
   57, -103, -48, 11, -39, -27, -55, -43,
   -11, -50, -61, -34, -99, -21, 18, 43,
   -9, -71, -82, -5, 2, -42, -71, 71,
   -35, 78, -15, 45, 80, -12, -43, 2,
   53, -31, 32, 50, -43, -1, 10, -9,
   9, 1, 21, 16, -38, -54, -36, -59,
   42, -37, -30, 44, 16, 58, 2, 4,
   17, 31, -1, -50, 47, 39, 23, 1,
   -24, 25, -31, -17, 16, -69, -86, -63,
   -27, -29, 8, -57, 40, 37, -83, 36,
   40, -58, 9, -3, 11, 19, -46, 19,
   42, -18, 3, -38, -3, 9, -13, 10,
   1, -12, 16, 25, 58, -31, 43, -21,
   -43, 20, -34, 104, 23, 26, -13, -22,
   -31, 12, -44, -24, 2, -11, 28, -37,
   -2, 6, 55, 18, 49, 38, -27, -34,
   -9, -28, -45, 12, -71, -13, 50, -6,
   3, -11, 61, 38, 12, -11, -17, -11,
   -13, 33, 32, -6, -10, 1, -10, 2,
   -5, 22, 5, 50, -24, 37, -14, 9,
   -13, -23, -16, -35, -36, 28, -7, 25,
   -62, -1, -79, 76, -59, 4, 97, -6,
   11, -32, -4, -26, 65, 25, 28, 43,
   44, -28, -10, -14, 0, 24, -72, 12,
   -14, 22, 2, -31, 31, 9, -37, -8,
   8, -6, -18, -81, -8, -16, -25, -47,
   -34, -33, -1, 91, 15, 50, -3, -32,
   23, 50, -6, -33, -21, 23, -7, 13,
   -22, -27, -8, -22, -32, 16, 12, 38,
   7, -42, 6, 7, 18, -32, 36, 20,
   11, 0, -14, 27, -10, -48, -76, -13,
   -28, -1, -23, 7, 59, 17, -34, -46,
   -48, 51, -41, -21, 20, -7, 6, -18,
   33, -5, 41, -26, -11, -9, 33, -59,
   -1, -93, -50, -83, -10, 13, -23, 3,
   53, 10, 11, -14, 3, -30, 51, -45,
   5, 33, 39, -53, -24, 31, 14, 28,
   32, -41, 55, -37, 12, 36, 38, -49,
   -36, 44, 25, -48, -9, -18, 16, 10,
   -34, 38, 7, 75, -13, 40, -8, -23,
   57, 3, -49, 69, -24, -17, -26, -13,
   13, -1, 14, -9, 17, 22, 80, -21,
   -42, 13, -36, 11, -12, -23, -70, 29,
   -10, 14, -2, -6, 12, 0, 58, -7,
   -6, 39, 2, -26, 35, 1, 16, 4,
   15, 21, 0, -3, 23, -41, -18, 13,
   3, -17, 4, 47, 40, -20, 18, 5,
   0, 5, -4, 13, 1, 29, 7, 9,
   -2, -16, 22, 8, -59, 29, -14, 47,
   13, 29, -12, 22, -22, 45, -6, 15,
   -1, 13, 50, 49, 72, 38, 31, -20,
   -27, -46, 2, -24, 42, -54, 2, -2,
   26, -86, -43, 4, 100, -15, -31, -2,
   -32, 29, -91, 15, 64, -35, 0, 16,
   16, 31, -95, 24, -47, 39, -28, -63,
   -26, 10, 35, -54, -4, 56, 30, -28,
   -51, 85, 25, 20, -99, 22, 29, -40,
   -7, -4, -11, -54, -12, 53, 23, -12,
   61, -49, 8, -6, -4, -32, 15, -1,
   -38, 18, -25, 28, -4, 13, 86, 39,
   27, 25, -23, 12, -33, -18, 26, -22,
   -13, 68, 5, 16, -7, -42, -17, 27,
   46, -23, 10, -4, -40, -19, -33, 69,
   8, 48, -74, -72, -27, -70, 0, -27,
   28, 19, -15, 43, 22, 26, 16, -49,
   -11, 64, 30, 2, 18, 44, 25, -20,
   -38, -1, -2, -46, -27, -37, 26, 15,
   4, -8, -12, 7, -9, -7, -26, 37,
   7, -27, 54, -24, -2, 34, -29, -21,
   23, 10, -6, 59, 40, -24, 32, -23,
   2, 4, -92, -97, -27, -36, -7, 11,
   -15, -125, -42, 45, 51, 36, -41, -8,
   29, 38, -48, -94, 28, -34, -37, -13,
   32, -35, -55, -43, -30, 82, -79, -125,
   32, 47, -118, -15, -55, 13, 28, -63,
   4, 6, 22, -34, -112, -33, -19, -32,
   -46, -44, 45, -17, -16, -13, -26, 15,
   -10, -29, 3, 0, -41, -33, 43, -27,
   23, -5, 49, -4, -51, -14, -1, 16,
   1, 5, 60, -57, -2, 11, 46, -46,
   53, 45, -23, 15, 7, -31, -34, -41,
   -7, -71, 10, 11, -15, 21, 6, 74,
   4, 29, -12, 33, 5, 22, 51, -17,
   11, 19, -24, 3, -3, -20, -34, -1,
   -16, 6, -12, 14, 11, 37, -13, -35,
   -17, 71, 7, 47, 3, 33, -48, 38,
   -29, -7, 55, 55, 42, 60, 10, -18,
   -39, 1, -27, -1, 43, -96, 29, -13,
   -24, -87, 28, 11, 35, -57, 43, 10,
   38, 48, 3, 30, -21, 79, 49, 20,
   23, 54, -11, 25, 1, -31, 8, -31,
   38, -22, 2, -29, 19, 34, 43, 115,
   15, 3, -40, 9, -48, -53, -12, 16,
   -30, 11, 61, -51, 22, -52, -18, -31,
   59, -24, -10, -51, 18, -33, -40, 41,
   -48, 8, 20, -14, -7, 18, 54, 8,
   -5, -45, -23, -3, 60, 24, -7, -49,
   -98, -21, -27, 10, -5, -20, -30, 6,
   56, -9, 48, 45, -46, 87, 42, 38,
   15, 43, 14, 3, -32, -62, 11, -50,
   -52, 18, -24, 52, 69, -10, -26, -24,
   -18, 38, -7, 16, 69, 4, 53, 15,
   12, -38, 2, 40, 41, -14, 48, -6,
   9, -22, 0, 8, 0, 57, 11, 15,
   -23, -3, 8, 14, -11, 13, 34, 25,
   -52, 8, 12, 35, 28, 38, -23, 70,
   42, 56, -36, -8, -56, -31, 21, -29,
   -15, -29, -22, -12, -7, 54, 65, -53,
   -13, 53, 6, 32, -35, 50, -38, 68,
   39, 20, 30, 4, 43, 25, 23, 48,
   -11, 59, 15, -1, 59, 11, -32, 37,
   40, 18, -32, -53, -3, -22, 25, -18,
   18, -6, 2, -44, 3, -2, -15, -20,
   -24, 39, 28, -4, -17, 10, 35, -6,
   26, 1, 14, -48, 1, -34, 3, 29,
   25, 45, -18, -32, -17, -18, 38, -30,
   42, -37, 13, 13, -4, 14, -2, -6,
   9, -44, -9, -43, 42, -11, 12, 13,
   -22, 8, -7, -8, -21, -10, -15, 34,
   24, 46, 9, -18, -28, 35, 8, 15,
   -15, -11, -74, -6, 9, -32, 23, -23,
   15, 41, 0, 28, -29, 33, 15, 36,
   -9, -50, -2, -30, -17, 5, -25, 1,
   -26, 4, 26, 31, 10, -32, 22, -5,
   -26, 51, -67, -35, -68, 2, -78, 2,
   -4, -113, 17, 13, 55, -45, -29, 47,
   11, 21, -21, 73, 50, -22, -32, 34,
   3, -19, -60, -26, -51, 0, -2, -53,
   42, -79, -16, -3, -68, -14, 21, 24,
   -37, 68, -72, -22, -14, -23, 24, -19,
   -8, -53, 2, 26, 27, 33, -52, -12,
   27, 19, -17, 3, 29, -33, 10, 67,
   -32, -18, -1, 3, 20, -55, 30, 38,
   19, -11, -6, 31, -37, -67, 82, 79,
   8, 42, 62, 7, -54, -42, -37, -41,
   -4, 58, 29, -124, -20, 74, -4, 58,
   -13, 24, -65, -34, 32, 40, -2, 26,
   -14, 55, -34, -59, 97, -34, 33, 101,
   38, -45, -20, 11, 59, -6, 32, -29,
   0, 17, -16, 10, 32, -39, 17, 45,
   -11, 31, -47, 41, -14, -66, -44, 12,
   -2, 10, 28, -43, -66, 2, -22, 17,
   -9, -78, 27, -23, -38, 85, -21, -11,
   -69, -119, -103, -35, -41, -39, 31, 113,
   45, 37, -36, -11, 29, 33, -24, 35,
   -37, -58, -35, -70, -54, -74, -22, -1,
   -27, -42, 7, -62, 64, -10, -1, -59,
   12, 16, -61, -80, 52, 0, -51, -39,
   -22, -16, 0, -5, -6, -49, 48, 4,
   -29, 26, 10, 81, 47, -10, 7, -16,
   -78, 5, 24, 33, -72, -32, -11, 45,
   -17, -48, -27, -9, -27, -39, 55, 69,
   -28, 28, 68, -47, -11, -43, 55, -53,
   -19, -47, -43, -51, 43, -43, -1, -28,
   5, 13, 0, -22, 0, 13, -14, 49,
   12, 48, -44, -90, 4, -13, -39, -10,
   -8, 2, -4, -21, 7, -20, 10, -33,
   -2, -43, -2, 1, 3, 20, 11, -5,
   -20, 25, -3, 46, -37, -51, 10, -32,
   49, -14, 46, 36, -7, -6, -76, -6,
   -26, -75, -72, -35, -25, 36, -9, -80,
   -7, -6, 1, -36, 44, -23, 8, -38,
   -38, -46, -112, -38, 49, 6, -72, -20,
   -6, -26, -72, -8, -101, -27, 7, 9,
   -21, -66, -14, -57, 55, -63, -82, -34,
   -95, -14, -76, 32, -2, 10, -20, 25,
   -38, -31, 13, 15, -64, 32, 47, -21,
   -5, 11, -25, -41, 2, -42, -24, 38,
   0, 17, 47, -8, -22, -57, 39, -1,
   10, 34, 47, -19, 78, -14, 8, -3,
   -18, 24, 22, 2, -8, -42, -37, -18,
   -23, -20, -37, 9, 37, 7, -53, 24,
   -4, 18, -74, -84, 56, 14, -50, -3,
   -19, 6, -32, 19, 22, 13, -25, 4,
   29, 22, -17, -7, -14, -20, -29, -8,
   -23, -9, -2, 33, 20, -43, 23, -5,
   7, -4, 25, 24, 4, -26, 11, 35,
   11, -15, 34, -38, 27, 25, 14, 7,
   38, -31, -25, 3, 67, -81, -15, -37,
   -15, 10, 25, 12, 59, 36, -52, -22,
   26, 13, -65, -6, -11, -42, 25, -32,
   17, -36, 18, -33, -1, 7, 123, 40,
   -14, 71, -21, -42, -98, -87, -99, 93,
   -45, -46, 9, 61, -2, 48, -101, -42,
   -22, -23, 17, -33, -20, 17, -10, -18,
   -27, -16, -33, 41, -58, 7, -12, 21,
   9, -2, 55, -19, 7, 9, -60, 27,
   -13, 0, 10, -48, 7, -48, 56, -108,
   -39, 13, -17, -29, -6, -16, -65, -2,
   -59, -18, -19, 13, 16, 31, -11, -7,
   31, 52, 7, -65, -45, -91, 27, -23,
   -14, 42, 53, -17, -29, 19, -35, -30,
   24, 27, 29, -16, -50, -6, -6, 8,
   34, 68, -95, 66, -12, 12, -26, -17,
   -17, -11, -19, 4, -3, -17, 33, 2,
   -17, -40, 10, -22, 28, 2, -32, 4,
   17, 74, -33, -22, -59, 0, 18, 13,
   30, -25, -5, -36, -26, 32, 48, 7,
   14, 8, -23, 11, -13, 23, 44, 9,
   -3, -6, 15, 44, 59, 34, -52, 24,
   55, 39, 21, 32, -8, -16, 2, 28,
   37, 14, 38, 15, -23, 28, -28, -14,
   -14, 33, -9, -9, -13, 7, -17, -4,
   14, -22, 14, -26, -2, -31, -5, 27,
   3, 17, -19, 11, -12, 24, 25, 31,
   -38, 20, -3, -20, -2, -18, 36, -12,
   -5, 38, 21, 11, -15, 53, 0, 5,
   11, 4, 44, -19, -31, -11, 61, 21,
   -27, 23, 2, 41, -2, 2, 48, 20,
   40, -13, -6, 44, -40, -34, -41, 16,
   38, -34, -18, 4, -2, -4, 23, 2,
   -32, 5, 28, 25, -19, -25, -19, 10,
   1, 23, -3, 16, -20, -32, -39, 3,
   9, 33, -19, 34, 28, -30, -45, 38,
   -3, -51, -10, -19, 23, -32, 25, -21,
   40, -13, -15, -69, 68, 33, -13, -17,
   2, 13, -92, -61, 18, 31, 8, 32,
   -4, 3, -102, -10, -9, 27, -11, -52,
   -35, -34, -28, 16, -20, -39, -128, -14,
   -45, -32, -26, -13, 22, -41, -64, 11,
   -9, 23, 19, 16, -36, 12, -1, -14,
   15, -30, -35, -5, 3, -29, -30, 25,
   -9, -48, 6, 31, 47, 8, -42, 26,
   8, 8, -4, -63, 25, 6, -14, -56,
   -62, -30, 31, -67, 26, 2, 10, -14,
   -7, 35, -12, 42, 4, 3, -5, 11,
   -5, -15, -14, -21, -43, 33, -51, 53,
   29, 27, 1, -43, -18, -10, -18, -37,
   29, -22, -21, -2, -22, 24, -8, -23,
   -45, -9, -56, 33, 4, -19, 3, -6,
   37, -26, 11, -23, -40, 4, -30, 49,
   16, -36, 24, 11, -24, 11, -5, -1,
   -1, -62, 93, -29, -14, 9, 8, 74,
   -8, 46, 19, -47, 120, 3, 26, 87,
   31, 52, -75, 51, 53, 6, -59, -14,
   8, 65, -10, 8, -64, 3, -18, -3,
   28, 24, 65, -6, 30, -125, 44, -14,
   4, 32, -51, -57, -33, 58, 0, 13,
   -3, -4, -18, -11, -59, -39, 53, -46,
   -24, 25, 27, 50, -25, 9, -22, 14,
   19, 25, -4, 31, -14, -33, -33, 26,
   61, 60, -32, 28, -52, 0, -13, 46,
   -12, -2, 29, -11, -15, 61, 65, 20,
   -36, 12, 21, -73, -81, -22, -50, 10,
   -13, -22, -10, 21, -1, 48, -65, 29,
   -12, 20, 4, 38, -44, 0, 5, 16,
   6, -36, 48, -24, -1, -63, -49, 7,
   6, 1, 54, -33, -32, -15, 11, -23,
   17, -75, -5, -48, -13, 86, -42, -1,
   0, 17, 14, -11, -31, 46, 11, -41,
   12, 23, -65, -101, 50, -38, 32, -5,
   -26, -11, -44, 83, -44, 40, 73, 36,
   59, -79, -2, -2, -33, -41, -2, -80,
   -10, 86, -55, -4, 90, 99, -42, 10,
   119, 62, -19, -2, -78, -44, -52, -19,
   22, -10, -16, 13, 50, 61, -22, 5,
   -55, -56, -15, 10, 27, -4, 17, 4,
   -51, -5, -16, -71, -15, 29, 10, 16,
   -8, -11, 12, 22, 19, -9, 38, -23,
   48, 30, 9, 83, 15, -35, 30, -62,
   -4, 54, 38, 19, 18, -26, -82, -4,
   -6, -1, -44, -16, 15, -53, -14, 6,
   -53, 1, 53, 49, 42, 3, 22, 21,
   11, -30, 13, 17, 36, 16, -44, -15,
   33, 18, -30, -44, -3, 2, 77, -1,
   -2, -3, -25, 25, 10, 12, 8, 44,
   31, -1, 32, 66, -5, 35, 24, -6,
   -33, -37, -17, -31, 26, -50, 38, -3,
   35, -15, -9, 86, 0, 18, 72, 17,
   74, -31, -34, 2, 49, 11, -89, -52,
   -8, -38, 14, -30, -17, -27, -29, -17,
   -47, 20, -109, 99, -63, 25, -4, 14,
   -71, -8, 21, -25, -47, 26, -25, 23,
   -11, 7, -17, 17, 12, 2, 15, -17,
   -4, -50, -32, -66, -6, -54, -2, 16,
   26, 8, -61, -88, -98, -30, 50, -11,
   -3, -21, -14, -53, 32, 22, 21, 4,
   -24, 74, 26, -22, 42, 62, 52, -10,
   -7, -26, -1, -33, 57, 61, -25, 38,
   23, 26, 35, 19, 7, 50, -43, -6,
   -43, -20, 65, -24, -27, 2, -10, -47,
   -18, -40, 41, 19, 30, -45, 30, 15,
   10, -17, 15, 14, 10, -36, -20, -53,
   -37, -46, -41, -6, -20, -32, 7, 10,
   -20, 44, -10, -29, -22, 38, -42, 36,
   39, 17, 45, 58, 38, 52, -32, 19,
   -38, -108, 45, -11, 14, -4, 1, -32,
   -34, -63, -34, 71, -10, -7, 27, -42,
   -53, 6, -61, 36, 24, -59, -28, -41,
   0, -8, -102, -85, -76, -51, 68, 27,
   -88, -6, -14, -18, 2, 43, -111, 34,
   48, 21, -2, 18, 27, 13, -115, 5,
   30, 16, -2, -12, 57, -30, -41, -11,
   75, -27, 7, 5, 11, -33, 46, 2,
   14, -9, 2, -52, 10, -53, 27, -35,
   -18, -56, -11, -13, 32, 20, -26, -38,
   -33, -30, -41, -10, 29, -28, -91, -45,
   -26, 10, 27, -1, -29, 12, 21, 39,
   20, 14, -53, -18, 43, -18, 19, 16,
   -8, -21, -4, 8, 16, 21, -18, -52,
   -59, 34, -30, -32, 18, -1, 75, 18,
   -3, 58, -15, 49, 45, -15, 15, -57,
   7, 43, -55, 1, -3, 24, 68, -21,
   -12, -29, 27, -79, -12, -39, 57, -1,
   -18, -57, 23, 41, 51, -10, 14, 3,
   -34, -18, -45, 44, -68, 94, 17, -82,
   -38, -27, -21, 32, 26, 15, 52, -7,
   21, 43, 52, -33, 23, -60, 22, 40,
   -26, 27, 68, 21, -35, 24, -5, 5,
   59, 14, 71, 39, 9, -23, 17, 22,
   22, 29, -23, 29, 21, 16, 2, -4,
   12, 25, 16, -24, -31, -9, 46, 54,
   -16, 2, -1, -22, -45, 15, -39, -42,
   -42, -2, 40, 24, 14, 34, -72, -40,
   29, 14, -37, -3, -63, 68, 27, 29,
   42, -40, 11, 39, 33, 42, 60, -24,
   19, 42, -19, 9, -10, -12, 35, 22,
   1, -41, -50, 24, 4, 17, 28, -20,
   13, 36, -14, -13, -24, -16, 9, -1,
   -15, -10, 26, -22, 14, 2, -19, 50,
   -43, -7, 31, -47, 16, -27, 1, -56,
   -18, -17, -4, -17, 47, 16, 12, -10,
   -88, 15, 38, -8, -98, -54, 68, -13,
   -13, 25, 25, -86, -88, -33, -22, 19,
   40, 42, -21, -26, 17, 22, 64, -7,
   13, 0, -65, 11, 85, -43, 84, -29,
   -4, -13, -5, 14, -33, -30, 11, 5,
   49, -23, -53, -18, 16, -41, 107, -41,
   -42, 52, -27, 44, -19, 60, -34, 35,
   -18, -11, 23, -38, 0, 44, 10, 11,
   -58, 36, 8, -2, -13, -25, -29, -20,
   -49, -29, 2, -37, 50, 33, -10, 17,
   -20, 26, -7, 13, -26, -13, -5, 38,
   19, 64, 7, -12, 6, 18, 39, 20,
   8, -1, 2, -4, -58, 24, 53, 18,
   42, -1, 44, 32, 21, -5, -20, -35,
   38, 38, 25, 48, 37, 41, 18, -7,
   0, 4, 28, -32, -25, -26, 16, -5,
   -2, 5, 10, -12, -6, -9, -4, 22,
   -36, -5, -35, 23, -11, -27, -31, 66,
   31, -30, 68, -17, 103, 79, 25, -14,
   58, -34, 54, -24, -42, 36, 53, -1,
   -50, 22, -3, 65, 50, -30, 2, 0,
   -76, 49, 51, -20, -27, -33, 59, 38,
   -36, -44, 16, -5, 71, 21, -91, 7,
   7, -15, -4, 16, -20, -21, -32, -38,
   30, -42, -47, -32, 27, -10, -17, -25,
   43, 9, -51, -32, -49, -47, 0, 34,
   -59, -24, 42, 4, 11, 11, 20, -7,
   -22, 7, 32, -4, 21, 0, 63, -23,
   20, 14, -70, -18, 15, -38, -24, -35,
   9, 47, 28, -40, 57, -9, -7, -37,
   6, -17, -22, 37, -11, -46, -26, -7,
   -15, -31, 41, 35, 2, -5, 12, 68,
   -2, 15, -28, 30, -23, -12, 58, -12,
   8, -17, 45, 4, -14, -43, -61, -36,
   -21, -37, 10, -32, 27, 0, 36, -49,
   -20, -26, -15, -13, -12, -24, 9, -23,
   8, 7, -5, 28, 57, 8, 46, -48,
   17, -34, -26, 7, -15, -56, 32, -31,
   22, 18, -54, 25, 7, -80, 50, 39,
   -16, 66, -86, -43, -43, -44, 46, -22,
   -23, -17, 11, 4, 61, -22, -87, 2,
   1, -11, -14, -19, 51, 0, -29, -4,
   -6, 1, -24, -9, 23, 18, 0, 13,
   -5, -34, 13, 27, 26, 6, 12, 36,
   2, -33, -17, 21, -8, 10, 24, 30,
   -56, -63, -12, 24, 83, 0, 21, 4,
   25, 6, -25, -17, 72, 29, -32, -61,
   1, -6, -11, -31, -17, 54, -10, 14,
   -26, 19, -5, -69, 14, -18, 28, 52,
   -43, 27, -22, 20, 11, 58, -53, 19,
   21, 57, 22, -36, 30, 0, -6, 26,
   45, -32, -1, 35, 39, 32, 42, 8,
   4, -29, -22, 23, 5, -28, 42, 38,
   12, -23, 45, 14, 12, -10, -52, 34,
   12, 118, -82, 19, -17, 0, 3, -38,
   26, 27, 6, -80, 23, -52, -15, 16,
   29, 35, -2, 45, 2, 3, -39, -10,
   15, -18, -12, 94, -35, 16, -38, -42,
   77, -44, 80, 50, 11, 37, 46, -17,
   63, 11, 24, -28, -18, 19, 60, 26,
   2, -49, 30, 36, -18, 24, -37, -13,
   -39, 25, -31, 21, 1, -35, -15, 52,
   13, 2, 20, -27, -28, 63, -51, 20,
   -2, 41, -36, 35, 28, -30, 44, -1,
   63, 47, 8, 28, -21, -36, 0, 92,
   -1, 71, 28, -82, -79, -66, -29, 49,
   14, 18, -2, 13, 38, 6, 44, 7,
   -12, 10, -43, 51, 39, -35, -24, 37,
   -31, -23, -20, 4, 12, 7, -29, -18,
   -5, -26, -13, -28, -37, 56, 0, 2,
   7, -25, 31, 13, -15, 18, -13, 9,
   76, -10, -28, 5, -14, 26, 50, 37,
   -6, -60, -29, 111, 19, -19, -6, -7,
   20, -32, 18, 29, 8, -37, 0, -10,
   18, 18, 5, 25, -16, 27, 7, 28,
   -51, -36, 27, -34, -41, 1, -95, 29,
   -8, 47, 21, -57, -57, 5, 65, 46,
   25, 17, 16, 14, 23, -20, -60, 23,
   -22, 8, 25, -22, 5, -49, 0, -26,
   4, -4, -15, 17, -11, 27, -43, -12,
   11, 57, -43, -4, 33, 38, -37, 7,
   42, -4, 29, -20, -46, -59, -17, -39,
   22, 25, -30, 35, 21, -8, 10, -18,
   -62, -6, -10, 40, -17, -28, 8, -19,
   50, -7, 39, -4, -6, 48, -25, 3,
   20, 70, -13, -15, -51, -27, 7, 25,
   -21, -16, 17, -54, -23, -7, 39, 7,
   -20, 26, -16, 72, -2, 14, -29, 43,
   -53, -52, 25, 9, 10, -4, -50, 42,
   4, 6, -36, 87, 15, 3, 13, 17,
   -35, 59, -59, -101, -42, 49, 26, 94,
   4, -65, -13, -11, -64, -117, -22, 38,
   -47, -19, 59, -55, -25, -24, -104, -17,
   19, 79, -125, -46, -33, 70, -5, -30,
   -10, -57, -75, -16, -43, -58, 8, -2,
   -107, 50, -20, 33, -40, 5, 1, -6,
   -31, -56, 21, -36, -26, -50, -9, 11,
   -12, -1, 30, 35, 49, 67, -21, -24,
   11, 19, 18, 69, 9, -17, -25, 22,
   88, 33, 14, 8, 55, -18, -10, 47,
   -97, -1, 75, -17, 39, -15, -53, -17,
   -33, 17, -17, -26, 9, 41, -9, 24,
   -20, 15, 56, -34, -34, -10, -10, 47,
   4, 8, -30, -49, -4, -38, -19, -5,
   -2, -24, -18, 6, 1, 3, -11, -4,
   -47, 17, -9, 48, 41, 2, 13, 26,
   -6, -14, 6, -13, -36, -3, 37, 5,
   45, 39, 37, -31, -27, 44, -35, 27,
   -45, -74, -2, -72, -2, 54, 44, 8,
   33, 24, -19, -47, -4, 6, -5, 92,
   11, -81, 16, 17, 18, -15, -11, 14,
   33, 21, -43, 92, 20, 43, -8, 18,
   8, -8, -4, 59, -15, -125, 66, -57,
   15, 33, -6, -7, 8, 70, 16, 74,
   -9, 12, 45, 44, -46, -77, -24, -27,
   0, -22, -39, -42, -22, 14, -33, 19,
   47, 64, 21, 33, -23, 43, -14, 10,
   75, 51, 28, 19, -26, 7, 2, 45,
   -13, 37, 63, -7, 1, -42, 68, 23,
   -5, -6, -34, 8, -12, 36, -31, 67,
   -3, 64, 27, 19, 12, 63, 2, 25,
   16, 53, 25, -25, -58, -13, -48, 4,
   63, -32, 47, -7, 32, -18, -15, 36,
   28, 5, 5, 21, -70, -23, 27, 5,
   -20, -28, 4, -52, -10, 10, -47, 20,
   -41, -1, -2, -60, -57, 13, 40, 43,
   -19, 11, -22, 36, -82, -13, 70, 2,
   83, -38, -4, -3, 36, 27, 16, 10,
   2, 28, -16, 30, 31, 73, 49, 82,
   8, 25, 8, 127, 6, -41, -74, 66,
   29, 16, 68, 16, 51, 11, 78, -40,
   68, 13, 69, 14, 18, 31, 3, -8,
   -66, -9, -18, -26, -27, 26, -21, 36,
   -34, 39, 16, 39, -42, -11, -50, 23,
   10, 41, 20, -48, -15, -2, 46, 34,
   -47, 38, 9, -6, -36, 8, 28, 36,
   -2, 19, 42, 0, 33, 6, -11, 39,
   30, -40, -31, 3, 35, -20, 35, -22,
   18, 19, 25, 46, -22, 43, 19, -1,
   10, 3, 26, -10, -9, -32, 30, 50,
   0, -44, 65, 8, -14, -7, -25, 17,
   -32, -5, 4, 13, -26, 12, 34, 59,
   19, 20, -10, -24, -50, 4, -43, -7,
   9, 2, -29, 55, 33, 41, -8, 28,
   115, -17, -72, 9, -5, 39, 61, -39,
   57, -72, 39, -43, 31, 32, 79, 4,
   -10, -23, 47, -61, 53, -1, 24, 27,
   -16, -4, 2, 51, -24, 41, -28, 51,
   -13, -14, 53, -59, 41, -14, 1, 23,
   -15, -46, -95, -22, 17, 8, 96, -77,
   -19, -86, -51, -19, -47, 40, -26, 12,
   12, -34, 25, -45, -77, -34, 24, 11,
   11, 28, 3, -23, -43, -2, -35, 97,
   15, 28, -29, -36, -28, 25, 32, 57,
   -12, -4, 68, 13, 13, 87, 22, 10,
   -4, 19, 87, -49, -54, -39, -41, -18,
   24, -32, -25, -7, 7, -43, 31, 7,
   -39, -36, -31, -25, 42, -3, -9, 63,
   7, -43, -61, -36, 3, -24, -41, -29,
   -39, -5, -18, 23, -46, -24, 51, 40,
   -38, -54, 3, 22, -6, -4, -7, -20,
   8, -15, 2, 3, 77, 43, 25, 65,
   2, -17, 64, -55, 27, -36, -44, -41,
   2, 30, -58, -9, -38, -40, 13, 68,
   -40, -53, -32, -85, -4, -63, 0, -28,
   -8, -32, -54, -72, -19, -50, 80, -14,
   -84, 30, -13, 27, 14, -64, -84, -46,
   -63, -13, 81, -14, 26, -21, 40, -43,
   -3, 13, -43, 19, -8, 14, -16, -20,
   35, -26, -23, 3, 33, 7, 13, -13,
   -49, -37, 17, 33, -25, -35, -16, -7,
   -1, -4, -7, 19, 75, 6, 31, 13,
   6, 9, 30, -21, -59, -19, -2, 0,
   27, 16, 2, -29, 23, 31, -16, 22,
   -31, -12, 16, 4, -46, 17, 1, 25,
   41, 73, -37, -10, 9, -2, 1, -26,
   -16, 39, -33, -32, -18, 45, -29, 0,
   -24, 25, 39, 32, 2, -25, 14, -5,
   37, 23, -8, 36, -23, -18, -23, -2,
   -29, 11, 30, -34, -22, -33, 0, 27,
   16, 53, 10, -35, -54, -45, 25, -13,
   76, 18, 37, -6, -18, -3, 40, 1,
   -5, -23, 15, 21, -24, 46, -33, 68,
   -3, -38, 50, 53, 61, 36, 18, -14,
   1, 85, 13, -51, 28, 37, 1, 36,
   11, -38, 27, -18, 1, -42, -34, -57,
   -35, -3, -1, 10, -11, -61, -18, -4,
   15, 34, 48, -23, -32, 9, 41, -3,
   -48, 18, -13, 40, -21, 4, -33, 19,
   24, 3, -25, 49, -32, 2, 12, 30,
   -2, 37, 20, 4, 26, 6, 38, -13,
   -23, -8, 6, -15, 53, 3, 49, -6,
   -17, 38, 23, 33, -4, -5, -50, 14,
   -27, 26, -13, 7, 12, 36, -37, 22,
   -19, -19, -41, -33, -29, 8, 41, 0,
   15, 36, -17, -3, -26, 32, -17, 10,
   9, -65, 38, 60, -11, 15, -5, 31,
   1, 28, -4, 11, 4, -46, -55, 12,
   -25, 33, 17, 48, -60, -28, -35, 23,
   73, 33, 52, -37, 31, -55, 26, 3,
   62, 33, 12, -45, 10, 32, 19, -62,
   42, -4, 0, 41, -50, 66, 52, -26,
   77, 13, -42, 10, -29, 27, 49, 5,
   3, 12, -10, -9, 52, -83, 93, 53,
   -30, 15, -18, -30, 13, -34, 22, 72,
   8, -10, 44, -60, 1, 25, -1, -38,
   46, 38, -17, 25, -29, -23, 5, -12,
   66, -32, 56, 50, -48, -19, -96, 43,
   24, 38, 22, 28, -29, 19, 9, 41,
   10, -18, 22, 13, 7, 5, -24, -18,
   -39, 19, -10, 29, 19, 53, 47, 22,
   -54, 29, -48, -52, 16, -29, 5, 32,
   -35, 28, -16, -8, -9, 13, 16, 10,
   -48, 13, -39, -46, -5, 4, -12, -2,
   -57, 19, 44, -46, -49, 43, 48, 7,
   -24, -9, -9, 43, 4, -11, 22, -23,
   11, -6, 104, 61, 72, 17, 8, -35,
   44, -63, 55, -13, 41, 31, 20, -35,
   9, 25, -16, -14, -34, -16, 8, -2,
   -20, 71, 40, -28, -5, -18, 8, -64,
   -26, 64, 61, 4, -119, 100, -11, 5,
   46, -26, -14, 2, 11, -13, 24, 21,
   19, 34, -39, -23, -24, 65, 17, -18,
   38, -10, -14, 4, -50, -31, 12, 26,
   -11, 14, -12, -50, -20, -106, 14, -9,
   -15, -25, -3, 4, 30, -31, -3, 5,
   9, 22, 16, -54, -8, 65, -36, -27,
   24, 10, -3, 22, -28, 19, 26, -39,
   18, -34, -50, -10, 5, -23, 21, -41,
   -14, 12, 8, -26, 10, -44, -7, -24,
   21, 17, 13, -20, 10, -17, -13, 1,
   -34, 8, 24, -71, -6, -4, 31, 6,
   68, -9, -9, -75, -26, -9, -7, 30,
   -37, -54, -6, 0, 49, 41, 9, -20,
   -51, -53, 8, -92, 50, 18, -78, -87,
   -51, -23, 3, 21, -19, -53, -37, 1,
   -75, 45, 16, -14, 11, 13, -34, -25,
   -46, -67, -65, -53, -19, -5, -41, -30,
   -31, -59, -15, 61, -31, -61, -63, -26,
   0, -18, 30, -25, -79, 23, -48, -79,
   47, -18, 13, 22, 50, 30, -3, -34,
   43, 40, -55, -5, -4, 25, 4, 49,
   -67, -46, 29, -40, -11, -6, 4, -33,
   11, -28, -18, -6, -1, 50, 3, -38,
   -19, 30, 0, 9, 30, -30, -63, -24,
   -5, 24, -1, 39, 28, 39, 22, -12,
   -33, 43, -32, -38, -7, -13, 3, 18,
   26, -6, -11, 34, -8, -20, -17, 37,
   56, 30, -32, 35, -45, 33, 3, -32,
   4, -12, -60, -5, 10, -3, -2, 39,
   25, 49, -32, 88, 68, 51, 10, 12,
   14, -6, -8, -23, 5, -26, 17, 6,
   14, -8, 3, -30, 29, -53, -25, -4,
   8, -23, -10, -1, -38, 10, 17, -39,
   -13, 13, 35, 0, 5, 24, 4, -16,
   -9, 11, 13, -28, 4, 8, -7, 9,
   -14, 0, 10, -9, -2, 10, 23, -15,
   26, 26, -1, -62, -3, 3, -13, 55,
   6, 8, -4, -14, 34, -12, -20, -6,
   -30, -8, -10, -22, 34, -4, 26, -20,
   -23, 7, 22, 19, -11, -3, -21, -24,
   -51, 27, 21, 28, -25, -14, 11, -14,
   46, 12, 17, 7, 50, 14, 5, 8,
   41, 25, 24, -20, 8, 0, -20, 14,
   -2, 17, -1, 17, 15, -9, 2, 32,
   26, 16, -20, -3, -20, 0, -18, 25,
   1, -2, 0, 3, -18, 13, 33, -10,
   28, -30, -12, 2, 3, -4, -2, 18,
   -10, -24, 2, 14, 8, 3, 16, -16,
   30, 0, -14, -19, 5, -18, 14, -4,
   -22, 1, 4, 17, -26, -22, 7, 26,
   45, -2, 19, 37, -25, 2, 14, -14,
   24, -55, -57, 14, -21, -10, -43, 12,
   23, -11, 24, -18, -30, 26, -1, 37,
   -27, -27, 20, -26, -8, -28, -59, -35,
   -46, -23, -26, 21, 0, 4, -33, 9,
   -7, 23, 21, 58, 17, 21, -54, -31,
   -2, -37, 4, 90, 5, -27, 31, -32,
   -17, 5, -25, -20, -42, -17, 14, 54,
   -28, 18, 21, 5, -32, -14, 71, -26,
   15, -42, 4, -8, 25, 0, -28, -30,
   -47, 40, 21, 26, -5, -83, -51, 8,
   11, 40, 26, 16, 22, 0, -11, 7,
   -20, -34, 0, -1, -1, 6, -8, -32,
   -22, 25, -27, -42, 19, 18, 14, -1,
   35, -18, 4, 31, 17, 12, -39, 3,
   7, -8, -20, -13, -16, 21, 36, 16,
   15, 38, 36, 15, 16, -1, -11, 23,
   -21, -27, 21, 9, -19, -15, 27, 47,
   9, -35, -13, -7, -20, -26, -3, 23,
   19, 0, -67, -46, 12, -20, -33, 38,
   -40, -4, 16, -35, 5, -12, 30, 36,
   13, -22, -30, -48, 14, 90, -43, -18,
   -82, -38, -42, 13, 18, 21, -92, 11,
   -12, -14, 43, 10, 4, -8, -3, 3,
   -127, -36, -36, 16, -39, 27, 3, 40,
   -14, 7, 24, 19, 84, -46, 1, -18,
   -48, 54, 15, -32, 45, -40, -24, 29,
   11, -49, 1, -11, 47, 38, -31, -45,
   21, 4, 28, -1, -30, 87, -27, 55,
   10, 43, 11, -10, 22, 58, -32, -11,
   -28, 21, 41, -43, 17, -56, -1, 3,
   -20, -15, 12, -41, 42, -36, 3, 4,
   25, 14, 8, 25, -23, -42, -31, 8,
   20, -31, -32, 65, -3, -16, 53, 31,
   8, 57, 25, 36, -9, 19, -61, 18,
   16, -63, -42, -7, 7, -33, -7, -4,
   12, 57, 27, 54, -37, 33, -16, 5,
   -106, -4, -18, 0, 2, 31, -8, -27,
   23, -9, 21, -15, -18, 13, -3, -26,
   5, -4, -31, -25, 7, -38, -62, -28,
   -1, -69, 23, -10, -19, -24, -45, 53,
   -40, 12, -33, -43, 42, -32, 72, 59,
   55, -61, 17, -69, 9, 47, -92, -68,
   -31, -33, -54, 26, -24, -77, 8, -1,
   -56, 15, -3, -44, -10, -6, -46, -49,
   -8, -31, 37, 35, -27, 31, 45, 15,
   -5, 51, 43, 8, -7, 7, 54, -49,
   17, -26, -13, -2, 22, 21, -36, -45,
   -26, -41, 3, 11, 8, -36, 52, -56,
   48, 13, 17, 7, 46, 13, 33, 8,
   40, -10, 22, 4, -26, -41, -14, 16,
   -19, 15, -21, -53, 58, -24, 7, 3,
   -46, 47, -31, 26, 8, 16, -35, -15,
   -20, -25, 7, 14, -15, 60, 16, 26,
   12, 33, -25, -6, -17, -42, -8, 5,
   -79, -6, 9, 4, 17, -8, -33, -38,
   -41, -19, 1, -14, 48, 65, -7, -67,
   20, 8, -49, -33, -33, -35, -8, 29,
   -44, 60, 36, 1, -18, -35, -9, -71,
   47, -75, -113, -16, -9, -21, -27, 18,
   -27, -50, 15, -5, 48, 20, -19, 72,
   -16, 2, -6, -18, 77, -42, -5, 21,
   -8, -11, 5, 38, -18, -19, 9, 56,
   33, -60, 3, 62, -51, 92, 24, 14,
   -95, -24, -10, -18, 5, -13, 0, -9,
   -36, 0, -3, -35, -4, 17, -11, -9,
   -32, -68, -42, 14, 29, 68, 4, 38,
   77, -8, 55, 46, 2, -21, -38, 4,
   10, -9, 39, 43, 13, -14, 34, 37,
   0, -14, 53, 43, -35, 6, 23, 28,
   73, -37, 27, 36, 13, 9, 29, 29,
   -10, -21, 23, 1, -13, -22, -10, 6,
   48, -5, 30, -9, 16, -6, -1, 96,
   22, 17, 58, 8, -33, -30, 56, 15,
   -4, -9, 63, -63, -26, -17, 61, 13,
   -19, -32, -43, 4, -36, 38, 33, -34,
   -108, 17, 21, 3, 39, -53, -43, -21,
   -41, 15, -33, 4, -12, 52, -28, -52,
   -10, -32, -34, 59, 6, -3, 7, -38,
   33, 1, 39, -29, -60, 0, -33, -11,
   31, 4, 32, -30, -3, -38, -41, -65,
   36, -19, 59, 35, -16, -43, -51, 31,
   120, 33, 64, -17, -25, 16, 17, -70,
   22, 29, -4, 27, -20, 22, -25, -20,
   -38, 23, 26, 20, -12, -20, -26, -72,
   16, -23, 35, 17, 12, 12, -1, 7,
   -14, -12, 35, -33, -42, 7, -20, 3,
   47, 25, 14, -21, -26, -7, -3, 18,
   10, -48, -4, -41, 25, -2, -69, 47,
   -75, 31, 79, 35, 124, -80, -26, 20,
   -113, 33, -1, -21, -126, -38, -24, 68,
   121, -42, 74, -127, 75, 23, -80, -122,
   -117, 37, 54, 83, 23, 3, 127, 96,
   28, 22, -127, -128, 9, 127, 56, -24,
   33, -77, 11, -90, -110, -103, 4, 49,
   -111, 125, -127, -2, -41, 91, 50, 35,
   -66, 8, 8, 38, -36, -14, 16, -25,
   33, 89, 72, 14, 92, 29, 6, 4,
   -95, -14, -7, -64, 59, -114, -101, -81,
   52, -118, -65, 19, 35, 3, 71, 123,
   -23, -18, -115, 43, -127, 67, -64, -86,
   -14, 75, -25, 56, -38, 33, -17, 7,
   -15, -27, 81, -69, 44, 33, -14, 105,
   -115, 50, 124, 123, 15, 28, 87, 14,
   -8, -5, -127, -72, -31, -74, 75, 11,
   -49, 97, 12, -30, -30, 45, -75, -47,
   -12, -16, 58, 90, 35, 71, 68, 83,
   -64, -36, -48, -2, 58, -75, 19, -39,
   -26, 120, -80, 25, -9, -32, -109, 23,
   125, -21, 66, -28, -88, 29, -73, -125,
   86, 75, 83, -30, -41, 91, -38, 99,
   4, -48, 17, -65, -62, -16, -39, 8,
   -53, -66, 103, -15, -116, 15, 35, 62,
   -8, 53, -46, 17, -126, -61, -103, 25,
   -68, -44, 15, -97, 50, -62, -23, 48,
   93, -35, -107, 28, 127, 20, -4, -87,
   -12, 124, 127, -6, -12, -54, -114, 125,
   35, -20, 10, 41, 67, 40, 121, 104,
   36, -118, 75, 54, 90, 69, 2, 21,
   -58, 72, -54, -6, -12, 9, -34, 20,
   32, -44, -78, 14, -19, -38, 81, 38,
   -76, 34, 3, 127, -60, 77, 17, 124,
   -56, -43, -88, -88, -41, -70, 115, 34,
   90, 34, 51, -15, -52, 113, -95, -8,
   -40, 125, -49, 10, 45, 67, 1, -40,
   -10, -103, 126, -115, 70, 121, 126, -26,
   -41, 41, 44, -21, 43, -127, -35, 47,
   125, -117, -17, -124, 127, -30, -47, -118,
   -126, -40, -125, 7, 57, -86, 127, 124,
   -122, -48, 20, 5, -85, -127, 39, -124,
   16, -67, -68, -25, -125, -128, 127, -81,
   -50, 20, -37, 44, -35, 83, -127, 55,
   -33, 29, -58, 10, -83, 71, -61, 17,
   -21, 122, 11, -10, -75, -70, 3, 74,
   126, -21, 34, -70, -44, -61, -78, 18,
   -126, 8, 125, 1, -17, 25, 74, -41,
   82, 67, 113, -53, 17, -36, 45, -115,
   13, 73, -66, 73, -123, 5, -110, -9,
   18, 58, 65, 28, -48, -28, 102, 74,
   4, 38, 126, 127, -14, 19, -67, 42,
   -8, 41, -73, -49, -52, 10, 18, -100,
   -18, 24, 26, -16, -16, -127, -97, 31,
   32, -1, 115, -21, 121, -12, -10, 0,
   89, -126, -48, 52, 32, 22, 69, -49,
   49, -70, 3, 68, 53, 106, -61, 44,
   50, -67, -67, -22, 21, -26, 22, -23,
   28, 55, -62, -27, 12, -33, 82, 127,
   -128, -9, -49, 2, -127, -91, 43, -25,
   -12, -8, -37, 108, -128, 1, 127, -123,
   -32, 78, 68, -29, -50, -43, 104, -18,
   -89, -11, -3, 83, -1, 127, 65, 19,
   -50, 57, -73, -25, 34, 112, -77, -6,
   92, -97, -57, 105, 76, 16, -20, 41,
   66, 72, 15, 2, -25, 118, 60, 56,
   -65, 15, -95, 105, 49, -4, 5, 1,
   -109, 42, 81, 10, -38, 49, -48, -32,
   94, 63, 39, 68, 71, -3, -67, -50,
   -31, 27, 79, 127, 64, 30, -121, 23,
   75, -43, -61, -22, -127, 36, 122, 21,
   36, -57, 27, 6, -29, 127, -125, 125,
   4, -128, -84, -10, 34, -25, 12, 5,
   5, 11, -66, -20, 41, -54, 29, -52,
   -82, 66, 45, 58, 31, -119, -26, 73,
   101, -52, 29, -78, -97, 56, 106, -61,
   1, 54, -6, -10, 87, 118, 93, -64,
   126, -88, -14, 40, -53, -27, -13, 15,
   -26, -77, 23, -85, -127, -12, 127, 7,
   -107, 50, 16, 54, -1, 3, 91, -92,
   -60, -77, 82, -101, -78, 127, 120, -32,
   11, -97, 45, -50, 68, -31, 21, 110,
   125, 69, -44, -56, -7, -37, 38, 113,
   62, 43, 35, -17, 10, 72, 119, 94,
   51, -4, -98, -39, 59, -92, -38, 16,
   -49, 32, 40, 33, 47, -22, -26, 73,
   13, -106, 16, 74, 6, 76, -38, -39,
   7, -84, 107, 120, -95, -27, -24, 122,
   -84, 75, 64, -66, -8, -40, 127, 5,
   -42, 10, -7, -61, -61, -36, -28, -92,
   -3, -67, 84, -51, -82, 125, 4, 123,
   -24, 20, 33, -37, -60, 2, 76, 45,
   -107, -22, -40, 127, 11, 7, -128, 39,
   112, -76, 58, 83, 106, -68, 18, 12,
   4, 13, -58, 125, 45, 33, 34, 75,
   89, 58, 70, -12, -10, -52, 64, -52,
   -5, -68, -35, -68, -94, 114, 127, 7,
   -101, 59, 15, 32, 70, 52, -61, 127,
   -28, -8, -26, 80, -114, -13, -70, 123,
   86, 53, -14, -32, 112, -128, -60, 29,
   -26, -50, -9, -95, 37, -94, -30, -89,
   -17, 108, 117, -43, 59, -34, 4, 15,
   -2, 32, 49, 127, -118, 25, -36, -123,
   -51, 29, 104, -27, -101, 44, 78, 30,
   0, -8, -13, -95, -62, -8, 122, 25,
   -4, 127, 127, 75, 81, -13, -101, 127,
   -28, 49, 15, 77, -23, -115, 126, 32,
   -36, 122, 84, 127, 25, 79, 38, -16,
   -66, 32, -56, 110, 127, 109, 46, 68,
   -13, 111, 24, 4, -22, 33, -112, 14,
   -17, 58, -91, -128, 5, -28, -68, -2,
   70, -66, -32, 120, 117, -114, 26, -59,
   33, -68, 125, -126, -54, -111, -15, 84,
   -32, 6, -40, -23, 91, 26, 66, -125,
   22, 36, -121, 127, -62, -40, 60, 10,
   91, -24, 57, 9, -6, 114, 5, -39,
   73, -37, -65, 127, -45, -27, -128, 22,
   -86, 3, 35, -16, 96, 4, 7, 46,
   -57, 1, -63, -20, 22, -11, -51, 17,
   72, -15, 103, 16, 48, 115, 53, -126,
   -97, 39, 45, 12, -99, -18, 5, -79,
   10, -34, 22, 90, 29, 13, 99, 14,
   65, -13, 80, -44, -20, 15, -4, -51,
   -51, 80, -33, 23, -45, 39, -94, 43,
   -64, -2, 80, 36, 9, -34, -7, -63,
   25, 24, -19, -127, 17, 62, -33, -89,
   21, -5, -51, -19, 55, 83, 111, 41,
   -33, 84, 116, -15, -81, 25, -116, -43,
   40, 89, -48, 58, 26, -40, 36, 58,
   65, -56, 71, 39, -3, -27, -95, 44,
   33, -29, 81, -24, 48, 44, -11, -23,
   -32, -27, -11, -93, 95, 127, -21, -53,
   8, 8, 70, -128, 26, 32, 127, 19,
   11, -86, -125, 87, -88, 126, 104, 92,
   -111, -3, 61, 58, 125, 79, 93, 39,
   -99, -25, -25, 17, -16, -123, -30, 46,
   -63, 10, -127, -125, -99, 121, -9, 122,
   113, -113, 41, -24, 58, 73, 46, 68,
   -36, -3, 1, 124, 33, 3, -5, -4,
   87, -120, 61, 5, 13, 3, 126, 117,
   -124, 20, 127, -45, -111, 53, 125, 122,
   42, 127, 53, -34, -47, 67, -66, -127,
   -89, 31, -57, 0, 24, 38, 127, 13,
   -102, -42, 118, 127, -14, 87, 94, -124,
   -80, 49, -127, 90, 115, 77, 37, 82,
   -124, 93, -86, 127, -4, -116, 45, 8,
   -75, -104, 120, 93, 127, 40, 61, -71,
   -80, 23, 12, 126, 7, 126, -90, -127,
   19, -11, 6, 127, -46, -63, 22, -124,
   -118, 21, 7, 6, 126, 5, -23, -37,
   -9, -65, 82, 127, -103, 41, 36, -43,
   15, -36, 101, -3, 59, -62, -128, -59,
   -31, -15, -28, 59, 62, -59, 115, 90,
   -7, -18, 30, -46, -64, -119, -62, 33,
   123, -25, -34, 108, -35, 75, 37, 101,
   -52, 59, 127, 9, 71, -58, 48, -128,
   20, 34, -30, -107, -70, -105, 72, 69,
   -82, -106, -73, 84, 41, -41, 127, 12,
   126, 3, -65, -80, -52, -21, 127, -127,
   94, 51, -128, -92, -108, -86, -20, 101,
   -76, -87, 114, -37, 28, -89, 85, -46,
   31, -33, -15, -124, 102, 14, -4, 31,
   -22, 15, -127, -5, 106, 11, 127, 92,
   -122, -1, 0, 27, -45, 76, 64, 125,
   -6, 94, 87, -94, -36, 97, 68, -24,
   -128, 127, 100, -51, -112, -65, 29, 55,
   90, -19, -109, 127, -128, 63, -35, -91,
   -64, -75, -8, 48, 107, 127, 54, -107,
   -83, 48, -125, 36, 14, 42, -109, -4,
   -126, 9, -114, 33, -115, 66, -124, -6,
   48, 35, 15, -8, 19, -70, -72, -61,
   72, -16, 74, 11, -19, 69, 10, -36,
   116, 103, -18, 113, 109, 58, 103, -20,
   -73, 54, 61, -36, -6, 35, 113, -127,
   13, -50, 30, 37, 59, -124, 27, 67,
   -127, 52, 118, 8, -112, 126, 64, -125,
   110, 8, 98, -124, -19, -115, 66, 22,
   88, -106, 22, -127, -126, 17, -76, -119,
   -106, -51, 125, 10, 23, -30, 108, 15,
   -114, 12, 1, 121, -55, 27, 106, 7,
   94, 101, -53, 44, 27, 2, -6, 65,
   -58, 91, -9, 117, -125, 18, 48, -25,
   -48, -85, -20, 100, 88, 76, -2, -44,
   -127, 126, 7, 56, -124, -7, -94, 127,
   40, -119, -69, -111, -26, 40, -107, -126,
   26, 13, -24, 30, 126, 127, 67, -16,
   109, 58, 29, -13, -32, -3, -126, 14,
   79, -124, -8, -10, 18, -39, 110, 92,
   74, -9, 67, 5, -24, -23, 70, 53,
   27, -58, 25, 46, -106, 59, 11, -62,
   80, -34, -24, 27, 44, 119, 50, -91,
   94, 47, 37, -58, 65, -19, 25, 55,
   11, -45, 23, 14, -21, -87, 9, 112,
   -10, -98, 1, -41, -50, -111, 120, 57,
   44, 115, 16, -4, -25, -42, -29, -118,
   42, -128, -46, -128, -128, -53, 10, -83,
   -127, -17, 96, 109, 81, 59, -48, 32,
   51, -104, -78, -77, 62, 62, 22, -105,
   -123, 103, -52, -12, -126, -8, 122, 13,
   -67, -19, 19, 127, -128, -73, 124, -67,
   -75, 35, 87, 51, 77, -118, 74, 5,
   53, 4, 41, 53, 118, 31, 97, 93,
   -119, -56, -127, 34, 36, 114, -51, -68,
   -126, -48, -126, -34, -28, 66, -1, -105,
   -78, -39, 41, -66, 78, 47, -128, -7,
   96, 74, -30, 59, -32, 8, -128, -17,
   -17, 31, -82, 33, -127, -81, 114, 9,
   -14, 25, -91, -18, -57, -14, -124, -42,
   -4, 126, 119, -67, 28, 30, 42, 36,
   109, -48, -12, 82, -13, 44, -11, 72,
   -65, -60, -121, 125, 72, 107, -16, 31,
   -123, -18, -41, -1, -71, 116, 60, -8,
   81, -49, 127, -117, -127, -29, 125, 115,
   33, 127, -48, -74, -125, -75, -1, 9,
   -94, -83, -46, -106, 37, 9, -24, 25,
   31, 116, 20, 127, 67, 11, 8, -122,
   -70, 84, -62, 112, -15, 127, 126, 47,
   -127, -86, 42, 104, -122, 18, -51, -104,
   88, 25, 13, 1, -25, -128, -122, 110,
   -124, 127, 127, 122, 57, 2, 70, -32,
   -82, -30, -36, 22, 34, 108, -69, 62,
   -106, -86, 90, 21, 28, 115, 31, -122,
   -80, -45, -103, -19, -13, 23, -126, -20,
   1, 51, 11, -9, -116, -76, -90, 32,
   -26, 17, -128, 67, 15, -127, 15, 8,
   -19, 13, -25, -55, 19, -14, 18, -21,
   -40, 50, 44, -58, -42, 4, -12, -15,
   -46, 6, 9, -22, -13, 120, 8, 84,
   -60, 127, 22, -61, 124, 101, 45, -103,
   68, 39, 123, -52, -57, 47, -72, 66,
   61, 94, 7, -126, -8, -28, 52, -85,
   125, -125, -126, -13, 104, 1, -59, 6,
   -53, -121, 40, -84, -72, 39, -82, 110,
   0, 93, -59, -21, -43, 73, 11, 67,
   26, 51, 43, -126, 75, 124, 71, -70,
   -91, -91, -21, 124, -111, -101, -8, -58,
   26, -12, -38, 12, 118, -128, -34, 12,
   -50, 72, 80, -109, 104, 66, 82, -78,
   1, -64, -21, 87, -4, 125, 96, 65,
   -7, -16, 125, 31, -3, 80, -30, -17,
   12, -2, -127, 48, -127, -52, -128, -42,
   9, -39, 32, -24, 51, 87, -73, -52,
   -61, 37, -115, -49, -82, 65, -42, -11,
   6, 68, 11, 42, -8, 117, -23, 26,
   127, -42, 48, -63, -54, 24, 14, -8,
   54, 110, -15, -44, -3, 77, -13, 74,
   -39, 82, -3, 119, 5, -41, 44, -16,
   -37, -35, -3, 86, 75, -49, 3, 46,
   45, 43, 125, -106, -126, -46, 6, 37,
   -41, 16, 122, 24, 125, -51, 126, -82,
   39, 68, 108, -91, -6, -46, 78, -41,
   7, 89, -61, 127, 68, 29, 28, 127,
   -8, -2, -61, -9, -24, 45, 22, 54,
   56, -43, -5, -126, -107, 58, 126, -21,
   125, -39, -50, -62, 88, -38, -94, 20,
   -103, -115, -3, -126, 17, 127, -125, 22,
   -74, 126, -18, 82, -8, -111, -22, 3,
   -38, -126, -63, 32, 109, -72, 42, 13,
   32, 30, -50, 127, -127, 30, -85, -23,
   -96, 125, 66, 76, 32, 29, 51, 40,
   40, 45, -122, 25, -67, -39, 126, 31,
   32, 7, -47, 79, 2, -18, 30, 14,
   100, 19, -65, 14, -15, -2, -51, 5,
   73, 57, 18, -8, 2, -85, 52, 127,
   -23, 48, 4, -2, 32, -69, 1, -64,
   -45, 49, 68, 126, -32, 42, -10, 119,
   -7, 69, -33, 53, -127, 108, 74, -22,
   -9, -24, 6, 100, 97, -68, -33, 91,
   8, -96, 61, 28, 4, -98, 110, 29,
   49, 47, 39, -1, 66, -16, -34, 0,
   -68, -46, -92, 4, -3, 127, 15, 127,
   16, -9, -29, 90, -43, 10, -47, -87,
   90, -76, -41, -36, 4, 83, -53, -1,
   120, -44, -69, 10, -128, 21, 108, 109,
   -11, -90, -10, 0, 103, 84, 38, 107,
   -39, -25, 56, -39, -13, -7, 99, -115,
   -10, -3, 13, 35, 124, -123, -87, 58,
   15, 36, -50, -23, -33, -12, -2, -39,
   39, 32, -50, -44, 54, -77, -95, 25,
   33, 3, -11, 38, 63, -83, -47, -5,
   12, 127, 34, -17, -76, -45, 9, -61,
   124, -46, -31, 50, 50, 17, 15, 37,
   -8, -29, -17, 44, -122, 56, 17, -113,
   44, 127, -14, 39, 24, -98, -28, 58,
   29, -61, 40, -9, 125, -76, 14, 60,
   123, 127, -54, 61, 105, -54, -33, 103,
   36, -102, -126, 25, -18, -28, -10, 81,
   9, 80, -65, -67, 24, 98, 34, -95,
   31, 127, -77, -29, -38, 126, 46, -117,
   -6, -5, 1, 4, -14, -46, 7, 12,
   26, 58, -33, -59, 0, 49, -32, -18,
   27, 60, -17, 29, 21, 22, -14, -78,
   32, 3, -12, 7, 12, 127, 44, -40,
   3, -31, -54, 61, -91, -1, 62, -56,
   -37, 8, 120, -33, -9, -18, -30, 23,
   47, 8, 127, 111, 118, 40, 20, 6,
   -49, 63, -106, 37, 56, -16, 62, -12,
   15, 12, -10, -108, 70, 19, -125, -73,
   -46, 87, 127, 38, -15, -126, -2, -59,
   122, 85, -33, -14, 12, 84, 8, 102,
   -80, -27, -33, -89, 120, 121, -25, -23,
   59, -27, -128, 90, 97, -1, 53, -17,
   -124, 10, -51, 112, -14, 22, -10, 27,
   80, 18, -80, 127, -49, -5, -67, 9,
   -18, 62, -23, 10, -46, -58, -25, 102,
   -65, 29, -23, 59, 125, 73, -36, 39,
   -54, 63, 40, -46, 106, 63, 110, 0,
   3, 34, -41, 47, -49, 27, -92, -46,
   30, -68, 4, -27, 10, -23, 35, -41,
   86, -104, -96, -125, 41, 28, 53, -70,
   63, 34, 29, 18, 76, -94, 65, 66,
   78, -29, -73, -127, 34, 33, -26, -68,
   50, 2, -4, -64, 7, -23, -65, -60,
   57, -48, 102, 105, -14, -71, -124, -23,
   -12, -40, 9, 82, 23, 12, 105, -2,
   -104, -7, -12, -1, 9, 59, 121, 32,
   28, -43, 100, 33, 31, 25, 123, -12,
   14, -20, -38, 29, -26, 0, -97, -105,
   -57, -17, 124, 127, 46, -94, -114, -38,
   -35, 96, 51, -127, 87, 56, 48, 25,
   10, 20, -28, 14, -60, -45, 67, -126,
   -13, 48, -27, -70, 62, -47, 15, -23,
   51, -114, -23, -9, -35, -79, -115, 100,
   -41, 75, -101, -80, -78, -43, 47, -38,
   -53, -26, 79, -100, 101, 9, 43, 35,
   33, -56, 127, 50, 90, 45, -13, -49,
   -9, -79, -35, -44, -28, -114, 32, 102,
   12, -54, -83, -21, 59, -104, 29, -8,
   29, 13, 90, -115, 24, -80, 49, 116,
   -8, -7, -20, -36, 117, -41, 28, -24,
   -22, 123, -123, 5, 35, 48, -128, -94,
   -105, 89, -62, 5, -26, 72, -103, -125,
   -89, -89, -34, -6, -125, -112, 36, 2,
   86, -38, 41, 127, -19, -117, -12, -25,
   -39, 58, -127, -69, 24, -116, 4, 84,
   -19, -79, -91, -1, -23, -118, -114, -128,
   -35, -76, -126, -62, -58, 58, 72, -67,
   -91, 122, 29, -4, -40, 69, -78, -108,
   -29, -30, -22, -124, 110, 58, 18, 51,
   -41, -48, 34, -35, 61, 42, -76, -38,
   -48, 30, 26, -27, -105, -128, -51, -61,
   -18, -1, -63, 127, -65, -106, 126, -37,
   79, -18, 9, 83, 8, -11, -56, 11,
   9, -23, -22, 9, 38, -35, 96, -103,
   -100, 25, -1, -20, 18, 127, -105, -126,
   -128, -3, -31, 15, -118, -90, -125, -20,
   -32, 80, 8, -71, -72, 94, -17, -55,
   40, -66, -87, 112, -13, -92, 41, 40,
   -14, -19, 58, 78, -19, 1, -127, -74,
   -46, 62, -124, 41, 108, 117, 48, 34,
   -100, 44, 6, -36, -106, -30, -120, 68,
   -94, 120, 94, 28, -18, -128, -114, -13,
   70, 59, -75, -119, -127, -79, -126, -59,
   -12, -86, 9, 76, 126, 110, 20, 127,
   49, -70, -125, -34, -98, 5, -16, -25,
   21, -81, -64, -46, -2, -38, -25, -9,
   -75, -78, 65, 2, 45, -21, 3, -85,
   45, 54, 119, -58, -2, 0, -46, 77,
   -48, -20, 86, 9, -75, -49, -109, -101,
   25, -43, -62, -122, 127, 11, 53, 14,
   -81, 7, 8, -14, 13, -15, -44, 12,
   60, 59, -127, -70, -30, -34, -32, -98,
   -64, -47, 3, 39, -100, 51, 12, 127,
   -29, -42, 37, 48, 15, -101, 13, 8,
   39, -36, -1, -7, -21, -76, 32, -46,
   -93, 19, 84, -57, -30, 15, 13, 14,
   6, 79, -107, -64, -35, -92, -35, -61,
   30, 51, 24, -57, -7, -128, -110, -70,
   84, 8, 34, 3, -59, -37, 9, -77,
   -25, 23, 27, -30, -16, 72, 77, -13,
   61, 6, -72, -8, -20, 35, 58, 74,
   37, -87, -27, 127, 31, 125, -13, 88,
   -31, -123, 3, 34, 85, 68, 6, 75,
   -91, 15, -15, -108, -66, -24, -93, 73,
   19, -57, 58, -42, 82, -7, 72, 126,
   124, -20, 95, 105, -34, 8, 21, -80,
   -45, 53, 67, -40, 56, 25, 100, 112,
   -67, -12, 92, 68, -127, -105, 37, -71,
   11, 4, 59, 53, 90, 29, -6, 44,
   -15, -16, 28, 22, 77, 33, 35, 48,
   -34, -46, -7, 38, -58, 63, 85, 7,
   3, 52, 89, -82, -33, -22, -84, -18,
   42, 17, 11, 101, 27, -65, 101, 69,
   -21, -5, 48, 68, -32, -29, 39, 125,
   -70, 121, 4, 120, 69, 36, -70, 60,
   10, 114, -12, 100, -60, 2, -8, 5,
   -9, 40, -21, -89, -125, -96, -10, 43,
   68, 72, -33, 80, -44, -75, 0, -97,
   40, 84, 66, 118, -22, -46, -62, 2,
   -17, 84, 70, -14, -50, 124, -77, -57,
   65, 69, -127, -49, -113, -79, 31, 83,
   118, 57, -10, 125, 51, 42, -24, 127,
   -49, -55, -65, -85, 54, -122, 1, -128,
   5, 15, 102, 30, -40, 97, -47, -26,
   86, 109, 27, 12, -50, -92, -58, -56,
   -57, -40, -3, -45, -68, 42, 40, -12,
   27, -22, -16, -108, 7, -90, -126, 126,
   38, -50, -108, 7, 19, -9, -53, 58,
   -10, -7, -31, 24, 4, 30, -21, -72,
   46, 2, -4, -31, 21, 22, -11, 4,
   -56, -49, 8, -25, 21, 127, 47, 69,
   -14, 59, 58, -26, -53, 34, -28, -53,
   -32, -78, 125, 19, 43, 6, 6, 77,
   -8, 9, 22, -45, 24, -39, -31, 3,
   -20, 61, 5, 25, -117, 3, -4, -14,
   -20, -38, -2, -51, 22, 44, -94, 14,
   -58, -26, 127, 86, -2, -116, 40, 45,
   -28, 13, 2, 81, 4, 10, 8, 85,
   31, 73, -79, 9, 77, -29, 43, -45,
   -70, -110, -73, 88, 53, 74, 52, -65,
   -86, 26, 16, -78, -10, -59, 26, 10,
   -51, 40, -59, 61, 39, 24, 20, 74,
   -39, 11, -27, 36, -78, 127, -47, 98,
   18, -31, 34, 57, 79, 96, 25, -76,
   -9, 6, 4, 126, 61, -3, -7, -33,
   4, 1, -83, 49, 1, -64, -15, 7,
   -43, 37, -92, -25, 127, -40, -51, -17,
   37, 27, -18, -69, -8, 76, 59, 22,
   -3, 48, 54, 43, 80, -23, 74, -68,
   -97, -2, 10, 18, 36, 10, 3, 36,
   -33, 48, -13, -23, -10, -7, 11, 44,
   81, 27, -30, 2, -27, -57, 21, -16,
   -62, -44, -112, -3, -27, -58, -11, -33,
   -93, -5, 34, -33, 66, 3, 55, 24,
   1, -65, 122, 5, 16, 64, -87, -14,
   -102, 7, -65, -39, -51, 103, -24, -25,
   18, -40, 76, 6, 74, -85, -32, -127,
   -5, -33, 62, -28, 30, 17, 94, -10,
   69, -12, 3, 7, -110, -51, 44, 98,
   -47, 101, -9, -11, 17, 26, 43, -18,
   60, -62, 33, -49, -28, -34, -53, 52,
   53, -114, -47, -48, -28, -32, 17, -24,
   -25, 32, -57, 5, 35, 49, 13, 29,
   6, 107, 41, -22, 65, 41, 24, -111,
   57, -35, -57, -8, 12, -19, 0, -82,
   1, -50, -65, -1, 44, -40, 52, 52,
   38, -45, 30, -43, 11, -127, 49, -69,
   -24, -33, 20, 83, 114, -61, 36, -3,
   48, -9, 47, 34, 22, 26, -54, -44,
   -78, -23, -15, 84, 59, 23, -52, 85,
   -49, -11, -55, 11, 67, -74, 40, 6,
   -43, 109, 0, -24, 54, -126, 62, 11,
   2, 64, -124, -1, 4, -55, -63, 31,
   -102, 6, -38, 24, -56, -25, -46, -124,
   16, -45, 9, 5, -105, 127, -57, -36,
   -10, -23, 68, -119, -33, -39, -2, -10,
   -56, -63, -14, -5, 16, 39, 12, 8,
   32, 5, 3, 38, -6, -50, 42, -48,
   -88, -41, -2, -33, -108, -128, -29, -37,
   58, -1, -64, 68, 1, -116, 25, -8,
   41, 1, -55, -120, -18, 45, 27, 50,
   -41, 59, 71, 11, 66, 34, 35, -31,
   25, -10, -62, -72, 58, 78, -17, -38,
   -4, 66, 46, 35, 25, -104, -71, -30,
   -29, -54, 28, 65, 16, 127, -82, 66,
   3, -39, -56, -123, -103, 32, 6, -6,
   18, 122, -2, 17, 52, 72, -65, 50,
   26, -128, -45, 35, 77, 42, 89, -71,
   -90, -52, 9, 39, -128, 0, 28, 85,
   101, -102, 1, 106, 43, 109, -106, 53,
   26, 35, -124, 126, -80, -26, 20, -36,
   16, -54, -1, 34, 67, -1, 108, 7,
   -29, 23, -33, -37, -63, 63, -11, -49,
   21, -41, -23, 46, 60, 28, -14, -39,
   30, 32, 18, -32, 27, 67, -100, -88,
   29, 19, 56, 45, -56, -3, -22, 63,
   -56, -48, 103, -16, -62, 105, -30, -93,
   21, 5, -33, 22, 122, 56, 71, -80,
   -36, -57, 12, -64, -66, 1, 55, -36,
   2, -61, 2, -5, 60, -79, 83, 2,
   17, 30, 9, -18, 52, -49, 56, -42,
   81, -12, -27, -53, -33, 127, 5, 25,
   -10, -28, -49, -123, -14, -53, 54, 28,
   66, -55, 53, 65, 71, 18, 63, 59,
   -80, 102, 19, 13, 28, 84, 20, -104,
   33, -8, 119, 37, -122, 27, -3, -36,
   34, 81, 93, -53, -10, -37, 57, 52,
   -69, 69, -79, 11, -75, 79, -10, -70,
   63, 28, 12, -6, -51, -91, -5, 39,
   45, 8, 65, 48, -106, 47, 45, 14,
   -42, -6, 16, -39, -115, -40, -14, 52,
   41, 60, -23, -44, 37, -11, -5, 29,
   -56, 82, 5, 27, -10, 22, 35, 76,
   40, 74, 59, 29, 68, 38, -106, -30,
   15, -56, -38, -35, -55, -21, -14, 10,
   38, -41, -55, 5, -47, -24, 25, 40,
   85, -32, -9, -107, 109, -54, 6, -42,
   45, 20, 99, -8, -43, -28, 28, -27,
   -89, -23, 14, -89, -86, -47, -111, -115,
   -29, 14, -48, 18, 38, -48, 26, 29,
   -26, -38, -63, 49, -36, -96, 9, 77,
   -39, 23, 21, -62, 104, -22, 60, -69,
   -118, -25, -53, -50, -26, -25, -36, 111,
   -41, 12, 89, 116, -1, 33, 83, -37,
   -32, 54, 53, -39, 127, 80, -29, 83,
   -17, 93, -121, -35, 65, -17, -8, 70,
   -9, 125, -7, 82, -101, 9, 6, -40,
   26, -37, -18, -20, -8, 7, -16, 16,
   -35, 104, -10, 21, -57, -44, -76, 29,
   53, 30, -42, 72, -29, 36, -34, 19,
   -6, -14, -65, -44, 111, 26, 32, 23,
   4, 26, 79, -42, -1, -121, -103, -57,
   -16, -111, 29, -26, 57, -103, 40, -42,
   -101, -4, -6, -6, -9, 109, 45, -28,
   62, 25, 25, -1, -14, -3, -59, 25,
   -90, -62, 116, 10, -89, 11, 77, 89,
   -25, -42, -79, 60, 38, -30, 36, 17,
   -127, -4, -3, 34, -62, -45, -90, 3,
   18, -109, 33, -127, -83, 10, 63, 79,
   -52, 61, 8, -64, 44, 32, -25, 70,
   5, 77, -99, 60, -61, -18, 55, 1,
   103, -39, -67, 2, -12, -73, 57, -33,
   30, -21, 98, 3, -43, -117, -15, -20,
   126, -100, -9, 77, 0, 62, -78, 0,
   17, 21, -44, 27, 92, 38, -11, -15,
   27, 39, -8, 31, -54, -74, -50, -84,
   -46, 34, 100, -62, -57, 11, -55, -24,
   67, -126, 77, -29, 97, -8, -67, 25,
   24, 1, 9, 30, -5, 6, -22, 21,
   117, 102, -11, 7, -43, -90, 90, 41,
   -17, 127, 6, 127, -18, 2, -43, -85,
   56, -32, 43, -14, -39, -38, 42, -2,
   2, 127, 107, 20, -33, 29, 4, 46,
   80, -61, 92, -71, 11, 18, 12, 105,
   -6, -21, -26, 51, 73, -31, 56, -43,
   -77, -36, 43, 30, -2, 62, -38, 52,
   -22, -21, -41, -102, -126, 15, 2, 83,
   -48, 93, 19, -16, -116, -32, -106, 49,
   -8, 26, 45, 28, -93, -54, -1, -62,
   79, -51, -47, -40, -49, -23, 34, 17,
   26, 25, -26, 32, -37, -17, 59, -43,
   20, -51, -5, 40, -34, -34, 32, 29,
   6, 74, 39, 14, 58, 50, -2, 39,
   -43, -18, -39, -34, 34, -34, -68, -102,
   -31, 25, 51, -9, -33, 5, -34, -34,
   70, -127, 95, -84, 22, -104, -61, 27,
   78, 38, -20, -15, -30, -23, 8, -8,
   121, 85, -56, 3, -44, -62, 30, -3,
   -30, 126, -5, 127, -95, -7, -38, -66,
   -1, -20, -23, 37, 46, 7, 87, -21,
   18, 75, 14, -5, -11, 21, 29, -19,
   127, -76, -80, -30, 117, 42, -76, 39,
   53, -30, 114, -79, -19, -43, -38, -26,
   119, -40, 18, -73, 25, 111, 53, -101,
   -89, 106, -47, -19, -33, 92, -56, -48,
   -80, 47, 127, -4, -11, -37, -117, 104,
   -54, -3, 127, 27, 36, -128, 39, -45,
   -5, 86, 5, -117, -36, -42, -39, 61,
   31, -27, -66, 66, 118, 105, -35, -58,
   -100, 15, -10, -3, -122, 22, 33, -22,
   -70, 100, 116, 55, -38, -29, 12, -24,
   -114, -10, 61, -75, 115, 47, -23, -85,
   41, 1, 1, -46, -107, 76, 79, -79,
   -96, -8, -3, -42, -95, -7, 72, -73,
   127, -62, -20, 68, 71, 45, 77, -18,
   3, 0, -44, 25, -8, -21, 7, -98,
   5, -88, -1, 6, -128, -24, 53, 96,
   -12, 66, -43, 1, 62, 40, 78, -126,
   56, -123, 5, -63, -8, 32, -91, -52,
   -51, -33, -14, 64, 66, -23, -73, 22,
   -34, 11, 35, 30, 16, -43, 3, 5,
   117, -31, -83, -30, -31, 21, 14, -49,
   -37, 57, 127, 8, -115, -70, -122, -10,
   21, 14, 44, 33, 43, 45, -48, 127,
   -59, -27, -1, 60, 101, -43, 7, 70,
   21, 47, -26, -36, -89, -4, 36, 8,
   63, -36, 9, -79, 38, -66, -9, 60,
   127, -43, -4, 105, -40, -9, -116, 42,
   -114, 9, -23, 30, 50, 23, 13, -116,
   -12, 36, 50, -18, 36, -51, -91, 26,
   34, -24, 74, -68, -68, -40, 23, 15,
   -4, -42, -1, -45, 4, 71, -15, 29,
   -24, 39, 34, 6, -7, 59, -5, -15,
   -2, -32, 48, 37, -1, 59, 45, -78,
   -4, -33, -18, 101, 8, 50, 56, 20,
   56, -93, 48, -49, -67, -43, 56, -60,
   -38, 69, 121, -27, -11, 9, -42, 40,
   -3, 40, 64, -29, 125, 28, 18, 49,
   -36, -9, -72, -38, -56, -75, 80, -13,
   85, -62, -51, -68, 24, 17, 2, 1,
   33, 10, 123, -12, -114, -68, -39, 34,
   51, 31, -122, 9, -111, -59, -14, 97,
   -37, -17, -20, 72, -19, 7, 27, -32,
   28, 2, -25, 11, -71, 18, 82, -31,
   71, 25, 7, 41, 67, -54, -17, -26,
   109, -22, 78, -26, -7, -51, 10, 47,
   -126, -55, -36, -79, 12, 19, 1, -51,
   -68, -13, -16, 16, -6, -37, -14, 59,
   84, 10, 80, 39, -7, -57, 27, 39,
   110, 16, -12, 62, -20, -72, 124, -2,
   -12, 127, 51, 22, -78, 2, -6, 29,
   -33, -36, -14, 33, -4, 42, -59, 19,
   80, -38, -4, -17, 30, 66, -82, -59,
   -56, -54, -12, 19, 59, -19, 45, 32,
   -26, 56, -42, 14, -8, 47, 45, -5,
   56, 117, 9, 15, 99, 13, 17, 85,
   -61, 24, -79, 9, 59, 0, 8, -21,
   25, -37, 62, 49, -81, 103, -61, -76,
   -21, 84, 127, 8, -6, -67, 62, -65,
   -91, -11, -100, -79, -50, -32, -5, 107,
   16, 13, 70, -23, -17, -115, -80, -116,
   35, 81, -41, -24, -62, 0, 62, 12,
   86, -14, -30, 55, -4, -38, -35, -55,
   -75, 43, -3, 44, -35, 15, 25, 51,
   -56, -52, -62, -17, 24, -56, 52, -82,
   -6, -48, 1, 12, -1, 9, -32, 87,
   73, 38, 116, -23, -61, 11, 61, -52,
   43, 62, -77, -3, 49, -15, 47, -33,
   53, 96, 70, 33, 70, -53, -42, 51,
   -12, 89, 10, 44, 15, -18, 127, -8,
   119, -52, -94, 3, -16, 64, 37, 2,
   67, -10, 21, 45, -9, 27, -128, 99,
   9, -106, 27, -50, -50, -68, 65, -35,
   23, -8, -23, -3, 30, -23, 29, 35,
   19, 29, 69, 21, -8, 38, 11, 10,
   -47, 46, 62, 27, -43, 32, 38, 1,
   22, 18, 29, -12, 48, -17, 9, 93,
   27, 9, 30, 17, 3, 10, -7, -72,
   0, -52, 29, -32, 60, -19, -31, -20,
   5, 13, 57, -80, 12, -39, 27, -46,
   -13, 50, 56, -3, -72, 43, 13, 0,
   -107, 90, -18, -59, 126, 15, -10, -36,
   39, -61, 22, 108, -46, -36, 34, -19,
   20, -1, -45, 71, 83, 12, 87, 26,
   -17, 92, 21, -6, 55, -25, 78, -31,
   46, -3, 46, 46, -1, 30, 27, -22,
   59, 43, 2, -13, -36, -11, -9, 34,
   -33, 53, 55, 14, 37, -35, 12, 32,
   -30, -17, -24, -83, -119, -5, -11, 8,
   58, 56, -104, 22, 8, 39, 33, 31,
   -19, 7, -7, -45, -114, -34, 37, 21,
   9, -64, -59, 3, 13, 11, -56, 24,
   4, 4, -26, -37, 33, 64, 45, 8,
   -33, -36, -2, -2, -5, -10, 5, 13,
   -45, 18, -60, -43, -51, 46, -73, -95,
   35, -37, 22, -33, -117, 0, 12, 97,
   -56, 51, 8, 75, 50, -3, -38, 5,
   -21, 3, -69, 7, -23, 86, 49, -47,
   -25, -42, -69, 46, 39, -35, 27, -30,
   35, 22, -12, 26, -10, -47, -16, 1,
   19, 28, 64, -43, -1, -72, 6, -8,
   13, -38, 44, -6, 62, -77, -26, 10,
   -39, 110, -4, 1, 53, -58, 3, -47,
   82, -43, -99, 29, 29, 55, -15, -51,
   12, 37, -28, -20, 22, 58, 21, 4,
   -3, 83, -15, 1, 27, -56, -4, 31,
   -8, -4, 0, -4, -50, -67, -32, 10,
   19, -21, 48, 19, -26, -48, -21, 39,
   -41, -92, -1, 26, 55, 64, -20, -15
};

static const rnn_weight noise_gru_recurrent_weights[6912] = {
   -42, -33, 82, -6, 72, -27, -126, 23,
   32, -127, 30, 21, -30, 19, 17, -110,
   44, 77, -2, -20, -26, 20, 39, 21,
   14, 73, -32, -18, 65, 83, 41, 50,
   20, 70, -42, -83, 16, 12, 51, 18,
   -13, -43, -4, 11, 49, 16, -103, 41,
   -19, -95, -61, -24, 15, 51, -105, -70,
   -7, -9, -83, 33, 63, 1, 83, -127,
   -44, -37, -20, -106, -79, -122, -67, 74,
   -52, 13, -6, -57, -10, 27, 24, 9,
   -13, -23, -38, -33, -73, -27, 3, -26,
   24, 39, 61, -96, 53, 16, 28, 44,
   -1, -91, -48, -14, 29, -33, 0, 30,
   -8, 57, 29, 53, 1, -80, -16, 53,
   55, -30, -126, -123, -61, -60, 10, -41,
   16, 72, -125, 5, -36, -68, -28, 57,
   16, -17, -85, -14, -18, -128, 33, -91,
   27, -30, 31, -47, 19, 36, 63, -4,
   -53, -61, -31, 14, -9, -83, -7, -25,
   61, -3, 40, -92, 16, 54, -45, -42,
   -29, 20, 11, 72, 24, -2, 47, -92,
   8, -81, 55, -124, 48, 52, 33, 27,
   99, 60, -47, -11, -53, -25, 11, 53,
   -41, 43, 29, 55, 83, -13, -94, 27,
   -21, 24, -31, 3, -74, 27, 9, 7,
   -6, 8, 51, -53, -11, -8, 26, 20,
   -52, 8, 29, -27, -35, -48, 8, 58,
   -87, 34, -19, -35, 13, -103, 51, 33,
   29, -35, -33, -37, 34, -22, -15, -35,
   26, -111, -11, -29, 16, 57, -31, 28,
   -42, 63, 33, -14, -128, 50, -59, -74,
   -8, -12, 41, -9, 39, -4, 16, -68,
   -29, -20, -20, -99, 65, 1, -31, 22,
   -32, 85, 0, -24, -33, -44, -61, -41,
   57, -9, -3, -16, -36, -14, -31, -20,
   26, -41, 18, 3, -12, 69, 2, 49,
   30, 91, -74, 24, -122, -2, 19, -42,
   37, -11, -14, 49, 39, 26, -24, 41,
   -69, 24, 84, 96, 37, 10, 68, 126,
   -8, 5, 84, -1, 47, 86, -42, -40,
   125, 105, 85, -6, -42, 4, -23, 11,
   -25, 81, 3, 53, -13, 100, 58, 1,
   80, 96, -28, -19, -17, -24, 25, -27,
   -24, -25, -72, -28, -70, 25, -12, -23,
   -13, 72, -27, 118, 21, 83, 3, 25,
   -8, 79, 9, 19, 15, 13, 5, -9,
   -63, 24, 30, 1, -38, 7, 29, -5,
   -28, -68, -2, 14, -31, -21, -37, 17,
   1, -36, -13, -39, 53, -19, 21, -91,
   57, -10, -26, -18, -52, -49, 34, -59,
   -43, -37, -77, -90, 14, 12, -40, 25,
   -65, 17, 59, -76, -16, 25, -30, 39,
   -30, -65, 26, -18, 22, -12, -73, 48,
   -8, -65, -2, 70, -9, 35, -4, -28,
   27, -82, 86, -86, 50, -37, -13, -19,
   -12, 19, 54, -18, 66, -11, -115, 29,
   48, -35, 11, -60, 81, -20, 21, 117,
   -23, -32, -30, 120, 53, 124, -18, 38,
   115, 15, 2, 70, -99, 76, 26, 25,
   -28, -20, -25, 125, -26, -86, -6, 115,
   -47, -20, -30, -24, -42, 83, -39, 9,
   -12, -10, -82, 29, 25, -20, 14, 55,
   -59, 12, 66, -72, 71, -39, 31, 46,
   -20, -24, -24, -56, -10, -42, 37, -22,
   27, -32, 6, -2, 3, -61, 32, -25,
   -48, 64, 27, 12, -3, 48, -9, 43,
   15, 39, -41, 30, 3, 41, -7, 6,
   -52, -5, 100, -15, -24, -19, -5, 29,
   -40, -4, 73, 101, 53, -47, -22, 46,
   31, 37, 71, -17, 17, -32, -66, 16,
   2, 19, -39, -14, -29, -17, 4, -20,
   -62, 75, 56, -26, 35, 34, -15, 52,
   -27, 58, -38, -32, -37, -37, -12, 32,
   23, -46, -7, 90, 17, -29, 126, -21,
   -23, -41, -21, -3, -24, 18, -36, 22,
   17, 64, -59, 0, -18, -66, -2, -17,
   13, 56, 7, -86, 29, 13, -39, 36,
   47, -29, 74, -8, 24, 15, -68, -16,
   5, -105, -32, 16, 45, 15, 21, -54,
   -1, -41, 22, 14, 55, 49, 2, -50,
   -44, -4, -25, -105, 39, -27, -98, -22,
   -10, -19, -17, 32, 4, -11, 60, 42,
   -4, 6, -44, -37, -32, 28, -44, 50,
   26, -8, -11, -91, -34, 53, -21, 70,
   23, 47, -57, -23, -63, -14, -9, 11,
   -46, 39, -50, -32, 38, 14, -71, -22,
   -5, 40, -39, 23, 22, 17, 41, -29,
   36, 16, -64, 31, 63, 20, -36, -82,
   47, -1, -42, 13, 8, 21, 40, 9,
   -37, -29, 16, -31, 5, 61, 9, -62,
   -65, 26, 40, 36, -127, 49, -25, -72,
   53, 34, -10, 10, 112, 121, 29, 0,
   37, 23, -37, 11, -20, 67, 30, -45,
   38, 91, 8, 127, 36, 13, -65, -74,
   113, -53, 10, 44, -96, 40, -62, 123,
   -64, 11, 53, 26, -38, -31, 3, 9,
   -19, 50, -41, 27, 30, 38, 53, -7,
   -9, -33, 27, 24, 67, -21, 14, -24,
   -38, 82, -72, -23, 15, 74, 49, -7,
   16, -83, -81, -16, 119, -4, -68, 25,
   -32, 87, 38, -58, -78, -38, -10, 46,
   -37, 93, -42, 14, 11, -11, -2, 77,
   58, 14, 5, 49, -12, 12, -43, -34,
   -4, 33, 0, 52, -17, -40, -35, -29,
   -1, 16, 97, -18, -1, 5, -46, 70,
   10, 24, -25, -83, -82, -33, 58, -37,
   -18, 84, -1, -40, 4, -10, 56, -32,
   -55, -14, 30, 44, 89, -41, -21, 37,
   53, 43, 50, 58, 50, -34, -27, 49,
   61, -33, -46, 4, 75, 22, -8, 44,
   41, -78, 3, -21, -30, 88, 31, -29,
   72, 83, 86, 27, 49, 37, -55, 60,
   51, 93, 7, 35, -79, -121, 63, 4,
   127, 34, -24, 25, 81, 112, 17, -53,
   75, 23, 4, 38, 116, -24, 4, -7,
   47, 21, 18, -18, 21, -45, -28, 15,
   50, 65, 78, -8, -33, 57, 62, 51,
   7, 24, 59, -69, -7, 0, 43, -6,
   33, 24, -6, 35, -28, 8, -20, 37,
   12, -34, 17, 10, 15, 5, 31, -18,
   5, -101, -44, -42, 45, 9, 15, -5,
   -9, 13, -76, 9, -68, 39, -65, 21,
   -38, 37, -3, -23, 36, 38, 14, 13,
   32, -15, 0, 82, -71, 52, -24, 33,
   -44, -31, 19, 36, 26, -55, 68, -10,
   -63, 0, 85, -4, -25, 3, 78, -3,
   19, 17, -43, -127, -86, -81, 86, 10,
   14, -34, 35, 87, 122, -15, -47, -103,
   -55, -9, 14, -99, -16, -53, 5, 97,
   11, 49, 7, 124, 4, -104, 44, 16,
   -39, 3, -51, -47, 27, 39, -32, 8,
   9, 69, -31, 76, 63, -55, 14, 56,
   -29, -43, -4, -18, -5, 9, 53, 10,
   6, 34, 40, 53, 28, 102, 3, -64,
   -3, 57, 56, -45, 63, -72, 16, 12,
   72, -72, -57, -20, 38, 67, 28, -36,
   -37, 49, -47, -35, 24, -37, 23, -14,
   -5, 73, 10, 90, -28, 43, -36, 84,
   -26, 13, 73, 42, -8, 50, 20, -17,
   -33, 14, 33, -57, -78, 60, 59, 13,
   -9, 54, 49, -29, 60, 26, -37, 40,
   -8, 83, -10, -8, -27, 30, 6, -9,
   -6, 32, -34, 59, -26, 46, 7, 37,
   8, 26, -11, -31, -10, 4, 5, 65,
   41, 28, 62, 127, 4, -35, 89, 62,
   77, 64, 30, 76, 120, 47, 25, -5,
   -39, 67, -52, 57, -25, 22, -5, 120,
   56, -8, 3, -70, -3, -49, 13, 0,
   30, 34, 39, 37, -29, -24, 24, 15,
   -2, -53, 39, 11, 31, 65, -17, -5,
   -7, -7, 61, -47, -48, 20, 34, 7,
   26, 47, -39, -4, -36, -7, -48, 34,
   33, -10, -41, -34, 8, -33, 82, 9,
   18, -79, -61, -95, 11, 19, -29, -13,
   -5, 11, -17, 62, -37, 32, 25, 56,
   -20, 58, 18, 20, -34, 43, 26, -54,
   23, -44, -3, -103, -36, -25, 35, -42,
   19, -36, 29, -35, 57, 69, -34, 28,
   -4, -39, -22, 24, 44, -10, -6, -16,
   -46, 15, -61, 90, -16, 19, 4, -73,
   -29, 23, 83, -39, -29, -102, -36, 33,
   -24, 8, -18, -3, -87, 53, 41, -50,
   -10, -59, 17, -50, -44, -50, 50, 17,
   -11, 44, 89, 123, 20, 65, 23, 7,
   112, -16, -43, 10, -1, 21, 5, 60,
   90, 26, 101, 18, -52, -85, -66, -29,
   20, 15, -9, 34, -90, 88, 36, -18,
   49, 8, 127, -10, 22, -52, 15, 59,
   -49, 86, -32, -44, 0, 23, 14, -46,
   17, -5, 57, 13, -12, 65, -9, 1,
   -18, -42, 12, -2, 19, 30, 28, -8,
   -5, -56, -5, -83, 23, -28, 62, -40,
   14, 17, -13, -20, 68, -51, 7, 26,
   39, 54, 55, 23, 63, 14, -2, 40,
   -20, 64, 23, 32, 25, -38, 19, -39,
   -21, 35, 6, -35, 101, 29, -29, 43,
   7, 43, -27, 12, 68, 13, -26, -16,
   19, -39, 11, -90, -8, 28, 29, -30,
   34, -19, -27, -33, -34, -61, 1, -48,
   -42, 125, -110, 13, 36, -34, -2, -30,
   62, 0, -13, -19, -29, 6, -28, 19,
   82, 34, 60, 56, 109, 26, 93, 12,
   17, 47, 34, 19, -30, 65, 109, 0,
   106, 127, -99, -26, 21, 8, 0, 6,
   26, 75, 14, 22, -82, 20, 59, 36,
   52, -25, -50, 34, 27, 83, 4, 57,
   -48, -66, 2, 59, 1, 20, -15, -44,
   -64, 33, -4, 62, 4, 32, 44, -54,
   -23, -5, 7, -56, 8, 35, -33, 23,
   7, -17, 1, 54, 63, 16, -28, 10,
   -15, -4, -17, 10, -10, -2, -64, -20,
   62, -2, -9, -33, -24, -24, -15, 46,
   -45, -22, -2, -25, 52, 4, 25, -19,
   -35, -21, -13, -67, -42, -1, 2, 2,
   76, -32, 10, -35, -69, 24, 25, -8,
   -72, 4, -3, 10, 28, 26, 42, 55,
   -7, -15, -84, 18, 44, -58, 7, -20,
   -27, 24, 38, 34, -8, -49, 22, -30,
   -12, -18, 62, -2, 44, -46, -53, 60,
   -41, -9, -32, 22, -2, 14, 82, 45,
   -55, -88, -30, 64, -70, 88, 42, -39,
   105, 55, -17, -11, 20, -16, -25, 55,
   9, -18, 39, 39, 1, 1, 63, -5,
   88, 1, -2, 32, 88, 73, -34, 25,
   -12, 29, -9, -50, 20, -52, -21, -74,
   32, 24, -8, -9, 35, 42, 5, 41,
   24, 30, -86, -64, -32, 17, -30, 17,
   13, 13, -24, 98, -45, 8, -1, -48,
   23, -22, -31, -99, 22, -38, 35, 1,
   7, 18, -25, -32, 8, -29, 55, 18,
   6, 30, -72, -48, 76, -21, -21, -28,
   -31, -25, 14, -8, 2, -26, -11, -21,
   1, 26, 47, -12, 4, 72, -51, -17,
   -25, 39, 2, -12, -38, 12, 1, -22,
   -57, -8, -65, 0, 116, -2, 12, -53,
   -29, -24, -14, -98, -6, -29, -17, -64,
   -48, 0, -23, -80, 3, -56, -7, -29,
   108, 6, 79, 7, 112, 32, 22, -55,
   18, 28, 12, 72, -74, 110, 20, -48,
   124, 81, 61, 5, -22, -41, -85, 32,
   -29, 78, 69, -47, 75, 78, -47, 23,
   76, -12, 4, -11, 29, 2, -34, 6,
   25, 68, -1, 0, 6, 25, -16, -54,
   -18, 76, 74, 37, 28, 2, 3, -56,
   -36, 62, -43, -24, 63, 44, -29, -57,
   -7, -37, 28, 27, 85, 41, 79, -1,
   4, 7, -64, 40, 8, -78, -30, 45,
   -51, 24, -46, -48, -8, 52, 127, -30,
   -57, -15, -78, 12, 43, -74, 42, 53,
   1, 11, -27, 38, 5, 10, 24, 56,
   14, -42, -83, -54, -49, 64, -19, 64,
   -19, -11, -28, -2, 27, -13, 31, 18,
   -28, 75, -28, -1, 49, -110, -4, -12,
   -57, -49, -8, -81, -6, 43, -18, 12,
   56, -121, 127, -84, 39, -48, -20, -13,
   106, -24, -38, 15, 19, -34, -32, -71,
   45, -13, 84, 3, 89, 61, 119, 20,
   23, -14, -94, 12, -2, -45, 1, -21,
   31, 23, -126, -5, -18, -25, 56, -50,
   63, -17, 10, 39, -13, 68, -4, -118,
   -55, 60, -53, 0, 10, 29, 29, 27,
   45, -16, -15, -73, -56, -44, -44, 36,
   36, 40, 41, -114, -48, -76, 47, 3,
   -48, -8, -10, -30, -37, -93, 50, -49,
   74, -76, -18, 121, -30, 25, 69, -86,
   -38, -31, -26, -69, 24, 10, 59, -44,
   15, 8, -25, 87, -25, -81, 40, 7,
   -24, -74, -31, -43, -38, 29, -2, 12,
   -32, -19, 21, 56, -4, 56, 4, -52,
   0, 27, 90, -17, -26, 2, 3, 15,
   -38, 12, 37, 21, 16, 23, 37, -7,
   -10, -48, 11, -54, -7, 12, -42, -34,
   46, -8, 13, 8, 42, -27, -12, 64,
   -16, -75, -46, 31, -5, 48, 48, -9,
   -3, 10, 58, -35, 6, 93, 62, -10,
   -2, 14, -12, -44, -76, 19, 20, 9,
   18, 0, 2, -30, -90, 16, 11, 47,
   45, -9, -9, 88, 29, 17, -31, -8,
   51, 36, -6, 12, 71, -15, -5, -30,
   -10, 19, 23, -14, 35, 37, 96, -1,
   -18, 39, -31, -16, -48, -35, -48, 4,
   -38, 19, 51, -7, -19, -57, -33, 8,
   43, -37, 25, -18, 20, -26, 63, -5,
   28, -16, 29, -21, 83, 12, 37, 19,
   -63, 20, -57, -9, 25, -78, 19, -61,
   -2, -18, -58, 5, -44, 65, -52, 59,
   4, 15, -105, -12, -110, 14, -83, -57,
   -3, 11, -47, -25, -18, -1, 54, 51,
   3, 8, -14, 55, -81, 14, 36, -52,
   25, -41, 39, -42, 4, -37, 35, 74,
   -32, -90, 59, -4, 78, -84, 106, -82,
   93, 46, 106, -49, 44, -45, -13, -71,
   -18, 54, -24, -12, 27, 88, -10, 41,
   -6, 46, 69, -49, 14, 51, -2, 32,
   57, 12, -25, -23, -53, -18, 50, 40,
   -17, 21, 74, -38, 75, -42, 3, 58,
   -40, -26, -14, -2, -38, 30, 11, -18,
   5, -3, -100, -103, 91, 40, 16, -15,
   -13, 67, -24, 29, 43, -11, 50, 49,
   -12, -58, -31, -78, -29, 34, 24, -14,
   -20, -12, -5, -7, -2, 27, -12, -3,
   -1, 13, -77, -14, -17, 125, -10, -57,
   41, 15, 47, 48, -86, -38, -9, -14,
   23, -11, 32, -96, 64, 16, 49, -39,
   7, -92, -21, -18, 13, 22, -3, 28,
   -37, 56, 54, -58, 5, 45, 13, -9,
   27, 31, -41, -88, 10, -5, -10, 106,
   -54, -114, -14, 19, 5, 1, 61, -32,
   81, 35, 127, -14, -48, -26, -41, -38,
   -49, 93, 46, 81, 4, 67, 65, 39,
   52, -55, 46, 99, -29, 10, -32, -22,
   47, 127, -27, -41, -47, 75, -16, -62,
   56, 28, -19, -40, -8, 52, -14, 55,
   -16, -18, -69, -9, 47, 127, 15, 38,
   -23, -17, -105, 10, 46, -28, -60, -102,
   65, 5, -34, -22, 53, 32, -6, -30,
   9, -14, -30, -27, 22, -10, 4, -20,
   -12, 45, -73, 50, 60, -17, 13, 52,
   26, -4, 2, 31, 39, -11, -58, -14,
   7, 52, 20, -33, -30, -15, 48, 78,
   -62, 54, 42, 16, 15, 3, -17, 5,
   11, 28, -22, -61, -28, -16, 29, -10,
   -13, -32, -13, 38, 0, -9, 7, -51,
   -13, 3, -32, -18, 91, -12, -9, -53,
   -126, -39, 35, 38, -2, -20, 60, -46,
   37, 97, 10, -27, -43, -62, -48, -52,
   72, 21, -1, -52, 9, 15, -48, 81,
   -53, 29, 120, 14, 48, 62, 16, 80,
   79, -33, -7, -44, 3, -43, 7, -84,
   -11, 54, -33, -41, 63, 54, -50, 21,
   -45, 37, -9, 84, 6, -26, 22, -31,
   54, 13, 12, -18, 72, 35, 24, -51,
   16, 62, -13, -25, -14, 20, 34, -21,
   -10, -30, 16, -20, 99, 19, 1, 13,
   9, 12, -2, -87, -55, -73, 20, -57,
   -10, -6, 77, 35, -72, -12, -17, -19,
   -43, -16, 58, 88, -56, 17, 17, 14,
   7, -49, 3, -37, 35, 71, -15, 106,
   47, 58, -18, -42, -10, 15, 2, -23,
   -6, 29, 3, -2, 5, -48, 28, -47,
   12, 35, -7, 32, 36, 11, 2, 13,
   40, 20, -7, -18, 6, -83, 2, 26,
   -64, 2, 9, 75, 9, -37, 14, -8,
   7, -10, 7, 18, 10, -11, 27, -67,
   -36, 28, 33, 17, -24, -9, 8, -7,
   88, 19, -79, 10, 37, 74, -72, -49,
   -127, 24, 14, 7, 58, -116, 103, 12,
   60, 52, 9, 29, 21, -75, 45, 50,
   66, -47, 104, -49, -126, -6, 86, -12,
   34, -40, -39, 26, 32, 15, -19, 39,
   -43, 106, 5, 41, -6, -74, 24, -17,
   -70, 38, 26, -29, 26, 26, -52, 62,
   4, 35, 0, -17, 83, -11, 29, -40,
   102, 9, -41, -66, 102, -102, -85, 27,
   -26, 13, -46, 47, -118, 36, 41, -21,
   -49, -42, -45, 76, -7, 20, -56, 11,
   3, -33, 26, -45, 36, -21, 43, -65,
   -71, 39, 71, -26, 34, -63, -33, -27,
   -48, -36, 26, -22, -16, -28, 21, -29,
   -58, 36, -14, -12, -29, 15, -33, 25,
   10, 1, 40, 16, 42, -50, 10, 8,
   10, 61, -25, 63, 47, -28, 31, 63,
   -36, -28, 99, -13, -39, -2, -3, 26,
   -19, 53, 19, 94, 102, -127, 26, -52,
   15, 51, 65, 16, 65, 95, 7, -45,
   54, -9, -51, -13, 83, -48, -22, -71,
   94, 17, -1, -55, -65, 36, 37, 29,
   37, 85, -39, 36, 72, 3, 36, 62,
   23, 31, -66, 88, 0, 1, -28, 40,
   30, 7, 49, -86, -3, 19, -98, -1,
   -37, 11, 13, -29, 125, 2, 16, -17,
   -2, -62, 63, -42, -6, 0, -71, 14,
   17, -25, 11, 29, -52, 46, -18, -6,
   -26, -45, 44, -7, 66, 47, -9, -55,
   -13, 40, 47, -29, 27, 125, -9, 21,
   -21, 16, 29, -22, -62, 15, -16, 43,
   -57, 70, -1, 6, 115, 25, 14, 86,
   22, -104, 6, -20, 0, 53, 17, -54,
   -12, -76, 38, 79, -11, 75, 12, -63,
   -15, 80, 68, 45, 28, -21, -13, 80,
   18, -71, 28, 29, -127, -20, 29, -62,
   127, -14, 0, -28, 24, -40, 6, 30,
   -29, 23, -28, -4, -59, -15, 3, 11,
   23, 11, -28, -15, 45, 34, -35, -17,
   75, -21, 33, -37, -48, 48, 10, -47,
   -59, -23, 17, 56, 12, -15, -48, -34,
   81, 26, 28, -53, -53, -27, -41, 27,
   -12, 32, 20, 44, -25, -65, -29, 3,
   -62, -21, 7, 47, -4, 26, 35, 27,
   -2, 5, 1, -58, 55, -38, -85, 22,
   -33, -36, 15, -16, -41, -47, -36, -8,
   -41, 32, 11, 23, 39, 10, -17, 22,
   -11, -23, 4, -32, -15, 32, -94, 2,
   -113, 23, 2, -44, -10, 21, 70, -40,
   -28, -12, 31, 34, 16, -2, 72, -41,
   -35, 32, -17, -8, -10, 72, 4, -4,
   -24, 5, -72, 4, -13, 53, 15, 53,
   -39, -29, 24, 30, 43, 12, -118, -55,
   37, 54, 2, -16, -62, 3, 69, 86,
   77, -24, -2, 98, 99, 41, 60, 55,
   118, 53, -127, 16, -28, 54, 44, 44,
   97, 98, 24, 18, -4, 17, 60, -85,
   34, 58, 13, 6, -77, -59, 38, 101,
   14, -33, 21, 37, 44, 105, 29, -62,
   -47, 56, 41, 23, -46, 81, -42, 18,
   15, -10, -44, -22, -3, -32, -20, 4,
   -3, 0, 4, -59, -12, 16, 19, 1,
   34, 18, -30, -3, -1, 21, -67, -34,
   -24, 4, -99, 25, 53, -30, -105, -50,
   -34, -24, -25, 19, 18, 37, -19, 1,
   -28, 46, 35, -15, 44, 13, -39, -61,
   64, -20, 58, 34, 1, -23, -1, -36,
   -45, -54, -3, -116, 24, 1, -48, 67,
   -45, 57, 121, -8, 40, 49, 48, -21,
   -7, -15, 19, -33, 62, -96, -39, -11,
   1, -45, -64, -14, 6, -50, -15, 58,
   49, 77, 9, 32, -67, -45, 81, 65,
